net
{
     node_size = (0 0);
     name = "learned net";
     tree = "(Identificação Humana(Face(Mento(Arredondamento do mento,Proeminência do mento),Proeminência da glabela,Inclinação fronte,Forma dos incisivos superiores,Característica da órbita),Faixa etária do indivíduo))";
     UnBBayes_Color_Probabilistic_Description = "-256";
     UnBBayes_Color_Probabilistic_Explanation = "-16711936";
}

node ageGroup
{
     label = "Age group of individual";
     position = (537 66);
     states = ("adult" "postPubertal" "elderly");
     %descricao "This variable represents the interval of the age of an individual.#The intervals (in years) are:##Post-pubertal = [16, 21)#Adult = [21-60)#Elderly = [60 ..)"
     %frase "Sexo do indivíduo" "2" "Acredita-se que quanto mais jovem o indivíduo, mas marcação "feminina" este terá."
}

node gender
{
     label = "Gender of an individual";
     position = (305 0);
     states = ("female" "male");
     %descricao "This is the gender of an individual (either male or female)"
     %frase "Característica da órbita" "2" "Acredita-se que o homem tenha órbitas mais angulosas.#As mulheres possuem órbitas mais redondas."
     %frase "Faixa etária do indivíduo" "3" "A faixa etária do indivíduo somente atua indiretamente com a determinação do sexo.#Quanto mais jovem, os crânios aparentam ter menos "marcas" determinantes."
     %frase "Inclinação fronte" "1" "Acredita-se que quanto mais inclinado a fronte, #maior é a chance do indivíduo ser masculino."
     %frase "Proeminência da glabela" "0" "A mulher possui glabela mais aplanada, lisa e pouco delimitada."
     %frase "Forma dos incisivos superiores" "4" ""
}

node glabella
{
     label = "Prominence, or salience of the glabella";
     position = (78 66);
     states = ("nonSalient" "salient");
     %descricao "The smooth area between the eyebrows just above the nose."
}

node forehead
{
     label = "Inclination of the forehead";
     position = (76 206);
     states = ("vertical" "inclined");
     %descricao "This is the frontal part of the skull."
}

node incisor
{
     label = "Shape of the superior incisor";
     position = (176 206);
     states = ("square" "round");
     %descricao "Format of the upper incisors.##The incisors are the teeth that cut food.#They are the first four front teeth present in heterodont mammals. #They are located in the premaxilla above and on the mandible."
}

node roundingChin
{
     label = "Rounding of the chin";
     position = (260 206);
     states = ("round" "square");
     %descricao "The rounding of the chin: lowermost part of the face."
}

node prominenceChin
{
     label = "Prominence of the chin";
     position = (388 206);
     states = ("discrete" "prominent");
     %descricao "Prominence or saliene of the chin: lowermost part of the face."
}

node orbit
{
     label = "Characteristic of the orbit";
     position = (549 206);
     states = ("angular" "round");
     %descricao "Orbit is the cavity or socket of the skull in which the eye and its appendages are situated.#The word can refer to the bony socket, or its contents."
}

potential (ageGroup | glabella gender)
{
 data = ((( 0.7852194 0.16628176 0.048498847 )
( 0.7 0.2 0.1 ))
(( 0.7080292 0.18978103 0.10218978 )
( 0.77260274 0.16712329 0.06027397 )));
}

potential (gender)
{
 data = ( 0.4684492 0.5315508 );
}

potential (glabella | gender)
{
 data = (( 0.9817768 0.018223235 )
( 0.27108434 0.7289157 ));
}

potential (forehead | glabella gender)
{
 data = ((( 0.5300926 0.4699074 )
( 0.44444445 0.5555556 ))
(( 0.05882353 0.9411765 )
( 0.54395604 0.45604396 )));
}

potential (incisor | ageGroup gender)
{
 data = ((( 0.28818443 0.71181554 )
( 0.3783784 0.6216216 ))
(( 0.95454544 0.045454547 )
( 0.8390501 0.16094987 ))
(( 0.74712646 0.25287357 )
( 0.9722222 0.027777778 )));
}

potential (roundingChin | ageGroup gender)
{
 data = ((( 0.55043226 0.44956774 )
( 0.6081081 0.3918919 ))
(( 0.22727273 0.77272725 )
( 0.43271768 0.5672823 ))
(( 0.44827586 0.55172414 )
( 0.33333334 0.6666667 )));
}

potential (prominenceChin | ageGroup gender)
{
 data = ((( 0.52161384 0.47838616 )
( 0.7972973 0.2027027 ))
(( 0.72727275 0.27272728 )
( 0.30079156 0.69920844 ))
(( 0.40229884 0.59770113 )
( 0.7222222 0.2777778 )));
}

potential (orbit | glabella gender)
{
 data = ((( 0.4074074 0.5925926 )
( 0.22222222 0.7777778 ))
(( 0.7132353 0.2867647 )
( 0.5521978 0.4478022 )));
}

