net
{
     node_size = (0 0);
     name = "AutomaticallyCreatedNet";
     tree = "(Main(E1),Resident2(E1),CX2,Resident1(E1),CX1,Parent2(E1),Parent2(E2),Parent1(E1),Parent1(E2))";
     UnBBayes_Color_Probabilistic_Description = "-256";
     UnBBayes_Color_Probabilistic_Explanation = "-16711936";
}

node Main__E1
{
     label = "Main(E1)";
     position = (401 551);
     states = ("true" "false" "absurd");
}

node Resident2__E1
{
     label = "Resident2(E1)";
     position = (70 326);
     states = ("true" "false" "absurd");
}

node Resident1__E1
{
     label = "Resident1(E1)";
     position = (525 351);
     states = ("true" "false" "absurd");
}

node y_eq_Reference_x
{
     label = "CX1";
     position = (68 42);
     states = ("E1" "E2");
}

node Parent2__E1
{
     label = "Parent2(E1)";
     position = (650 20);
     states = ("true" "false" "absurd");
}

node Parent2__E2
{
     label = "Parent2(E2)";
     position = (950 20);
     states = ("true" "false" "absurd");
}

node Parent1__E1
{
     label = "Parent1(E1)";
     position = (732 167);
     states = ("true" "false" "absurd");
}

node Parent1__E2
{
     label = "Parent1(E2)";
     position = (1100 195);
     states = ("true" "false" "absurd");
}

potential (Main__E1 | Resident1__E1 Resident2__E1)
{
 data = ((( 0.33333334 0.33333334 0.33333334 )
( 0.33333334 0.33333334 0.33333334 )
( 0.33333334 0.33333334 0.33333334 ))
(( 0.33333334 0.33333334 0.33333334 )
( 0.33333334 0.33333334 0.33333334 )
( 0.33333334 0.33333334 0.33333334 ))
(( 0.33333334 0.33333334 0.33333334 )
( 0.33333334 0.33333334 0.33333334 )
( 0.33333334 0.33333334 0.33333334 )));
}

potential (Resident2__E1 | y_eq_Reference_x Parent2__E2 Parent2__E1)
{
 data = (((( 0.9 0.1 0.0 )
( 0.2 0.8 0.0 )
( 0.0 0.0 1.0 ))
(( 0.9 0.1 0.0 )
( 0.2 0.8 0.0 )
( 0.0 0.0 1.0 ))
(( 0.9 0.1 0.0 )
( 0.2 0.8 0.0 )
( 0.0 0.0 1.0 )))
((( 0.9 0.1 0.0 )
( 0.9 0.1 0.0 )
( 0.9 0.1 0.0 ))
(( 0.2 0.8 0.0 )
( 0.2 0.8 0.0 )
( 0.2 0.8 0.0 ))
(( 0.0 0.0 1.0 )
( 0.0 0.0 1.0 )
( 0.0 0.0 1.0 ))));
}

potential (Resident1__E1 | y_eq_Reference_x Parent1__E2 Parent1__E1)
{
 data = (((( 0.9 0.1 0.0 )
( 0.2 0.8 0.0 )
( 0.0 0.0 1.0 ))
(( 0.9 0.1 0.0 )
( 0.2 0.8 0.0 )
( 0.0 0.0 1.0 ))
(( 0.9 0.1 0.0 )
( 0.2 0.8 0.0 )
( 0.0 0.0 1.0 )))
((( 0.9 0.1 0.0 )
( 0.9 0.1 0.0 )
( 0.9 0.1 0.0 ))
(( 0.2 0.8 0.0 )
( 0.2 0.8 0.0 )
( 0.2 0.8 0.0 ))
(( 0.0 0.0 1.0 )
( 0.0 0.0 1.0 )
( 0.0 0.0 1.0 ))));
}

potential (y_eq_Reference_x)
{
 data = ( 0.5 0.5 );
}

potential (Parent2__E1)
{
 data = ( 0.33333334 0.33333334 0.33333334 );
}

potential (Parent2__E2)
{
 data = ( 0.33333334 0.33333334 0.33333334 );
}

potential (Parent1__E1)
{
 data = ( 0.33333334 0.33333334 0.33333334 );
}

potential (Parent1__E2)
{
 data = ( 0.33333334 0.33333334 0.33333334 );
}

