net
{
     node_size = (0 0);
     name = "AutomaticallyCreatedNet";
     tree = "(ObservedFishVolume(NorthSea,YEAR2016),ObservedFishVolume(NorthSea,YEAR2013),ObservedFishVolume(NorthSea,YEAR2014),ObservedFishVolume(NorthSea,YEAR2015),ActualFishVolume(NorthSea,YEAR2016),ActualFishVolume(NorthSea,year2015),ActualFishVolume(NorthSea,YEAR2013),ActualFishVolume(NorthSea,year2012),ActualFishVolume(NorthSea,YEAR2014),ObservedFishVolume(NorthSea,YEAR2016),ObservedFishVolume(NorthSea,YEAR2013),ObservedFishVolume(NorthSea,YEAR2014),ObservedFishVolume(NorthSea,YEAR2015),ActualFishVolume(NorthSea,YEAR2016),ActualFishVolume(NorthSea,year2015),ActualFishVolume(NorthSea,YEAR2013),ActualFishVolume(NorthSea,YEAR2014))";
     UnBBayes_Color_Probabilistic_Description = "-256";
     UnBBayes_Color_Probabilistic_Explanation = "-16711936";
}

node ObservedFishVolume_2016
{
     label = "ObservedFishVolume(NorthSea,YEAR2016)";
     position = (736 174);
     states = ("Low" "Medium" "High" "absurd");
}

node ObservedFishVolume_2013
{
     label = "ObservedFishVolume(NorthSea,YEAR2013)";
     position = (68 174);
     states = ("Low" "Medium" "High" "absurd");
}

node ObservedFishVolume_2014
{
     label = "ObservedFishVolume(NorthSea,YEAR2014)";
     position = (283 174);
     states = ("Low" "Medium" "High" "absurd");
}

node ObservedFishVolume_2015
{
     label = "ObservedFishVolume(NorthSea,YEAR2015)";
     position = (504 174);
     states = ("Low" "Medium" "High" "absurd");
}

node ActualFishVolume_2016
{
     label = "ActualFishVolume(NorthSea,YEAR2016)";
     position = (746 41);
     states = ("Low" "Medium" "High" "absurd");
}

node ActualFishVolume_2015
{
     label = "ActualFishVolume(NorthSea,year2015)";
     position = (514 42);
     states = ("Low" "Medium" "High" "absurd");
}

node ActualFishVolume_2013
{
     label = "ActualFishVolume(NorthSea,YEAR2013)";
     position = (79 45);
     states = ("Low" "Medium" "High" "absurd");
}

node ActualFishVolume_2014
{
     label = "ActualFishVolume(NorthSea,YEAR2014)";
     position = (294 42);
     states = ("Low" "Medium" "High" "absurd");
}

decision AllowableCatchVolume_2013
{
     label = "D1";
     position = (174 104);
     states = ("Action 0");
}

utility Utility_2013
{
     label = "U2";
     position = (223 231);
}

utility Utility_2014
{
     label = "U4";
     position = (442 231);
}

decision AllowableCatchVolume_2014
{
     label = "D5";
     position = (393 103);
     states = ("Action 0");
}

decision AllowableCatchVolume_2015
{
     label = "D6";
     position = (616 103);
     states = ("Action 0");
}

decision AllowableCatchVolume_2016
{
     label = "D7";
     position = (849 103);
     states = ("Action 0");
}

utility Utility_2016
{
     label = "U8";
     position = (898 231);
}

utility Utility_2015
{
     label = "U9";
     position = (664 231);
}

potential (ObservedFishVolume_2016 | ActualFishVolume_2016)
{
 data = (( 0.9 0.050000012 0.050000012 0.0 )
( 0.050000012 0.9 0.050000012 0.0 )
( 0.050000012 0.050000012 0.9 0.0 )
( 0.0 0.0 0.0 1.0 ));
}

potential (ObservedFishVolume_2013 | ActualFishVolume_2013)
{
 data = (( 0.9 0.050000012 0.050000012 0.0 )
( 0.050000012 0.9 0.050000012 0.0 )
( 0.050000012 0.050000012 0.9 0.0 )
( 0.0 0.0 0.0 1.0 ));
}

potential (ObservedFishVolume_2014 | ActualFishVolume_2014)
{
 data = (( 0.9 0.050000012 0.050000012 0.0 )
( 0.050000012 0.9 0.050000012 0.0 )
( 0.050000012 0.050000012 0.9 0.0 )
( 0.0 0.0 0.0 1.0 ));
}

potential (ObservedFishVolume_2015 | ActualFishVolume_2015)
{
 data = (( 0.9 0.050000012 0.050000012 0.0 )
( 0.050000012 0.9 0.050000012 0.0 )
( 0.050000012 0.050000012 0.9 0.0 )
( 0.0 0.0 0.0 1.0 ));
}

potential (ActualFishVolume_2016 | AllowableCatchVolume_2015 ActualFishVolume_2015)
{
 data = ((( 0.7 0.2 0.1 0.0 )
( 0.1 0.8 0.1 0.0 )
( 0.1 0.2 0.7 0.0 )
( 0.0 0.0 0.0 1.0 )));
}

potential (ActualFishVolume_2015 | AllowableCatchVolume_2014 ActualFishVolume_2014)
{
 data = ((( 0.7 0.2 0.1 0.0 )
( 0.1 0.8 0.1 0.0 )
( 0.1 0.2 0.7 0.0 )
( 0.0 0.0 0.0 1.0 )));
}

potential (ActualFishVolume_2013)
{
 data = ( 0.25 0.25 0.25 0.25 );
}

potential (ActualFishVolume_2014 | AllowableCatchVolume_2013 ActualFishVolume_2013)
{
 data = ((( 0.7 0.2 0.1 0.0 )
( 0.1 0.8 0.1 0.0 )
( 0.1 0.2 0.7 0.0 )
( 0.0 0.0 0.0 1.0 )));
}

potential (AllowableCatchVolume_2013 | ObservedFishVolume_2013)
{
}

potential (Utility_2013 | AllowableCatchVolume_2013)
{
 data = ( 0.0 );
}

potential (Utility_2014 | AllowableCatchVolume_2014)
{
 data = ( 0.0 );
}

potential (AllowableCatchVolume_2014 | ObservedFishVolume_2014)
{
}

potential (AllowableCatchVolume_2015 | ObservedFishVolume_2015)
{
}

potential (AllowableCatchVolume_2016 | ObservedFishVolume_2016)
{
}

potential (Utility_2016 | AllowableCatchVolume_2016)
{
 data = ( 0.0 );
}

potential (Utility_2015 | AllowableCatchVolume_2015)
{
 data = ( 0.0 );
}

