net
{
     node_size = (0 0);
     name = "AutomaticallyCreatedNet";
     tree = "(ObservedFishVolume(NorthSea,YEAR2016),ObservedFishVolume(NorthSea,YEAR2013),ObservedFishVolume(NorthSea,YEAR2014),ObservedFishVolume(NorthSea,YEAR2015),ActualFishVolume(NorthSea,YEAR2016),ActualFishVolume(NorthSea,year2015),ActualFishVolume(NorthSea,YEAR2013),ActualFishVolume(NorthSea,year2012),ActualFishVolume(NorthSea,YEAR2014))";
     UnBBayes_Color_Probabilistic_Description = "-256";
     UnBBayes_Color_Probabilistic_Explanation = "-16711936";
}

node ObservedFishVolume_2016
{
     label = "ObservedFishVolume(NorthSea,YEAR2016)";
     position = (970 220);
     states = ("Low" "Medium" "High" "absurd");
}

node ObservedFishVolume_2013
{
     label = "ObservedFishVolume(NorthSea,YEAR2013)";
     position = (69 220);
     states = ("Low" "Medium" "High" "absurd");
}

node ObservedFishVolume_2014
{
     label = "ObservedFishVolume(NorthSea,YEAR2014)";
     position = (369 220);
     states = ("Low" "Medium" "High" "absurd");
}

node ObservedFishVolume_2015
{
     label = "ObservedFishVolume(NorthSea,YEAR2015)";
     position = (666 220);
     states = ("Low" "Medium" "High" "absurd");
}

node ActualFishVolume_2016
{
     label = "ActualFishVolume(NorthSea,YEAR2016)";
     position = (979 49);
     states = ("Low" "Medium" "High" "absurd");
}

node ActualFishVolume_2015
{
     label = "ActualFishVolume(NorthSea,year2015)";
     position = (679 50);
     states = ("Low" "Medium" "High" "absurd");
}

node ActualFishVolume_2013
{
     label = "ActualFishVolume(NorthSea,YEAR2013)";
     position = (79 45);
     states = ("Low" "Medium" "High" "absurd");
}

node ActualFishVolume_2014
{
     label = "ActualFishVolume(NorthSea,YEAR2014)";
     position = (379 45);
     states = ("Low" "Medium" "High" "absurd");
}

potential (ObservedFishVolume_2016 | ActualFishVolume_2016)
{
 data = (( 0.9 0.050000012 0.050000012 0.0 )
( 0.050000012 0.9 0.050000012 0.0 )
( 0.050000012 0.050000012 0.9 0.0 )
( 0.0 0.0 0.0 1.0 ));
}

potential (ObservedFishVolume_2013 | ActualFishVolume_2013)
{
 data = (( 0.9 0.050000012 0.050000012 0.0 )
( 0.050000012 0.9 0.050000012 0.0 )
( 0.050000012 0.050000012 0.9 0.0 )
( 0.0 0.0 0.0 1.0 ));
}

potential (ObservedFishVolume_2014 | ActualFishVolume_2014)
{
 data = (( 0.9 0.050000012 0.050000012 0.0 )
( 0.050000012 0.9 0.050000012 0.0 )
( 0.050000012 0.050000012 0.9 0.0 )
( 0.0 0.0 0.0 1.0 ));
}

potential (ObservedFishVolume_2015 | ActualFishVolume_2015)
{
 data = (( 0.9 0.050000012 0.050000012 0.0 )
( 0.050000012 0.9 0.050000012 0.0 )
( 0.050000012 0.050000012 0.9 0.0 )
( 0.0 0.0 0.0 1.0 ));
}

potential (ActualFishVolume_2016 | ActualFishVolume_2015)
{
 data = (( 0.7 0.2 0.1 0.0 )
( 0.1 0.8 0.1 0.0 )
( 0.1 0.2 0.7 0.0 )
( 0.0 0.0 0.0 1.0 ));
}

potential (ActualFishVolume_2015 | ActualFishVolume_2014)
{
 data = (( 0.7 0.2 0.1 0.0 )
( 0.1 0.8 0.1 0.0 )
( 0.1 0.2 0.7 0.0 )
( 0.0 0.0 0.0 1.0 ));
}

potential (ActualFishVolume_2013)
{
 data = ( 0.25 0.25 0.25 0.25 );
}

potential (ActualFishVolume_2014 | ActualFishVolume_2013)
{
 data = (( 0.7 0.2 0.1 0.0 )
( 0.1 0.8 0.1 0.0 )
( 0.1 0.2 0.7 0.0 )
( 0.0 0.0 0.0 1.0 ));
}

