net
{
     node_size = (0 0);
     name = "UtilitySea_NORTHSEA_YEAR2016UtilitySea_NORTHSEA_YEAR2014UtilitySea_NORTHSEA_YEAR2015UtilitySea_NORTHSEA_YEAR2012UtilitySea_NORTHSEA_YEAR2013";
     tree = "(ActualFishVolume(NORTHSEA,YEAR2015),ActualFishVolume(NORTHSEA,YEAR2016),ActualFishVolume(NORTHSEA,YEAR2013),ActualFishVolume(NORTHSEA,YEAR2014),ObservedFishVolume(NORTHSEA,YEAR2014),ObservedFishVolume(NORTHSEA,YEAR2015),ActualFishVolume(NORTHSEA,YEAR2012),ObservedFishVolume(NORTHSEA,YEAR2013),ActualFishVolume(NORTHSEA,YEAR2015),ActualFishVolume(NORTHSEA,YEAR2016),ActualFishVolume(NORTHSEA,YEAR2013),ActualFishVolume(NORTHSEA,YEAR2014),ObservedFishVolume(NORTHSEA,YEAR2014),ObservedFishVolume(NORTHSEA,YEAR2015),ActualFishVolume(NORTHSEA,YEAR2012),ObservedFishVolume(NORTHSEA,YEAR2013))";
     UnBBayes_Color_Probabilistic_Description = "-256";
     UnBBayes_Color_Probabilistic_Explanation = "-16711936";
}

utility UtilitySea__NORTHSEA_YEAR2014
{
     label = "UtilitySea(NORTHSEA,YEAR2014)";
     position = (869 210);
}

utility UtilitySea__NORTHSEA_YEAR2015
{
     label = "UtilitySea(NORTHSEA,YEAR2015)";
     position = (1268 201);
}

utility UtilitySea__NORTHSEA_YEAR2012
{
     label = "UtilitySea(NORTHSEA,YEAR2012)";
     position = (79 222);
}

utility UtilitySea__NORTHSEA_YEAR2013
{
     label = "UtilitySea(NORTHSEA,YEAR2013)";
     position = (467 212);
}

node ActualFishVolume__NORTHSEA_YEAR2015
{
     label = "ActualFishVolume(NORTHSEA,YEAR2015)";
     position = (1056 43);
     states = ("Low" "Medium" "High" "absurd");
}

decision AllowableCatchVolume__NORTHSEA_YEAR2014
{
     label = "AllowableCatchVolume(NORTHSEA,YEAR2014)";
     position = (831 99);
     states = ("Low" "Medium" "High");
}

node ActualFishVolume__NORTHSEA_YEAR2016
{
     label = "ActualFishVolume(NORTHSEA,YEAR2016)";
     position = (1443 37);
     states = ("Low" "Medium" "High" "absurd");
}

decision AllowableCatchVolume__NORTHSEA_YEAR2015
{
     label = "AllowableCatchVolume(NORTHSEA,YEAR2015)";
     position = (1228 97);
     states = ("Low" "Medium" "High");
}

node ActualFishVolume__NORTHSEA_YEAR2013
{
     label = "ActualFishVolume(NORTHSEA,YEAR2013)";
     position = (268 44);
     states = ("Low" "Medium" "High" "absurd");
}

decision AllowableCatchVolume__NORTHSEA_YEAR2012
{
     label = "AllowableCatchVolume(NORTHSEA,YEAR2012)";
     position = (34 109);
     states = ("Low" "Medium" "High");
}

node ActualFishVolume__NORTHSEA_YEAR2014
{
     label = "ActualFishVolume(NORTHSEA,YEAR2014)";
     position = (655 46);
     states = ("Low" "Medium" "High" "absurd");
}

decision AllowableCatchVolume__NORTHSEA_YEAR2013
{
     label = "AllowableCatchVolume(NORTHSEA,YEAR2013)";
     position = (430 110);
     states = ("Low" "Medium" "High");
}

node ObservedFishVolume__NORTHSEA_YEAR2014
{
     label = "ObservedFishVolume(NORTHSEA,YEAR2014)";
     position = (646 165);
     states = ("Low" "Medium" "High" "absurd");
}

node ObservedFishVolume__NORTHSEA_YEAR2015
{
     label = "ObservedFishVolume(NORTHSEA,YEAR2015)";
     position = (1049 166);
     states = ("Low" "Medium" "High" "absurd");
}

node ActualFishVolume__NORTHSEA_YEAR2012
{
     label = "ActualFishVolume(NORTHSEA,YEAR2012)";
     position = (19 45);
     states = ("Low" "Medium" "High" "absurd");
}

node ObservedFishVolume__NORTHSEA_YEAR2013
{
     label = "ObservedFishVolume(NORTHSEA,YEAR2013)";
     position = (257 171);
     states = ("Low" "Medium" "High" "absurd");
}

potential (UtilitySea__NORTHSEA_YEAR2014 | AllowableCatchVolume__NORTHSEA_YEAR2014 ActualFishVolume__NORTHSEA_YEAR2015)
{
 data = (( 1.0 
 1.0 
 1.0 
 1.0 )
( 1.0 
 1.0 
 1.0 
 1.0 )
( 1.0 
 1.0 
 1.0 
 1.0 ));
}

potential (UtilitySea__NORTHSEA_YEAR2015 | AllowableCatchVolume__NORTHSEA_YEAR2015 ActualFishVolume__NORTHSEA_YEAR2016)
{
 data = (( 1.0 
 1.0 
 1.0 
 1.0 )
( 1.0 
 1.0 
 1.0 
 1.0 )
( 1.0 
 1.0 
 1.0 
 1.0 ));
}

potential (UtilitySea__NORTHSEA_YEAR2012 | AllowableCatchVolume__NORTHSEA_YEAR2012 ActualFishVolume__NORTHSEA_YEAR2013)
{
 data = (( 1.0 
 1.0 
 1.0 
 1.0 )
( 1.0 
 1.0 
 1.0 
 1.0 )
( 1.0 
 1.0 
 1.0 
 1.0 ));
}

potential (UtilitySea__NORTHSEA_YEAR2013 | AllowableCatchVolume__NORTHSEA_YEAR2013 ActualFishVolume__NORTHSEA_YEAR2014)
{
 data = (( 1.0 
 1.0 
 1.0 
 1.0 )
( 1.0 
 1.0 
 1.0 
 1.0 )
( 1.0 
 1.0 
 1.0 
 1.0 ));
}

potential (ActualFishVolume__NORTHSEA_YEAR2015 | ActualFishVolume__NORTHSEA_YEAR2014 AllowableCatchVolume__NORTHSEA_YEAR2014)
{
 data = ((( 0.9 0.050000012 0.050000012 0.0 )
( 1.0 0.0 0.0 0.0 )
( 1.0 0.0 0.0 0.0 ))
(( 0.9 0.050000012 0.050000012 0.0 )
( 0.9 0.050000012 0.050000012 0.0 )
( 1.0 0.0 0.0 0.0 ))
(( 0.9 0.050000012 0.050000012 0.0 )
( 0.050000012 0.9 0.050000012 0.0 )
( 0.9 0.050000012 0.050000012 0.0 ))
(( 0.0 0.0 0.0 1.0 )
( 0.0 0.0 0.0 1.0 )
( 0.0 0.0 0.0 1.0 )));
}

potential (AllowableCatchVolume__NORTHSEA_YEAR2014 | ObservedFishVolume__NORTHSEA_YEAR2014)
{
}

potential (ActualFishVolume__NORTHSEA_YEAR2016 | ActualFishVolume__NORTHSEA_YEAR2015 AllowableCatchVolume__NORTHSEA_YEAR2015)
{
 data = ((( 0.9 0.050000012 0.050000012 0.0 )
( 1.0 0.0 0.0 0.0 )
( 1.0 0.0 0.0 0.0 ))
(( 0.9 0.050000012 0.050000012 0.0 )
( 0.9 0.050000012 0.050000012 0.0 )
( 1.0 0.0 0.0 0.0 ))
(( 0.9 0.050000012 0.050000012 0.0 )
( 0.050000012 0.9 0.050000012 0.0 )
( 0.9 0.050000012 0.050000012 0.0 ))
(( 0.0 0.0 0.0 1.0 )
( 0.0 0.0 0.0 1.0 )
( 0.0 0.0 0.0 1.0 )));
}

potential (AllowableCatchVolume__NORTHSEA_YEAR2015 | ObservedFishVolume__NORTHSEA_YEAR2015)
{
}

potential (ActualFishVolume__NORTHSEA_YEAR2013 | ActualFishVolume__NORTHSEA_YEAR2012 AllowableCatchVolume__NORTHSEA_YEAR2012)
{
 data = ((( 0.9 0.050000012 0.050000012 0.0 )
( 1.0 0.0 0.0 0.0 )
( 1.0 0.0 0.0 0.0 ))
(( 0.9 0.050000012 0.050000012 0.0 )
( 0.9 0.050000012 0.050000012 0.0 )
( 1.0 0.0 0.0 0.0 ))
(( 0.9 0.050000012 0.050000012 0.0 )
( 0.050000012 0.9 0.050000012 0.0 )
( 0.9 0.050000012 0.050000012 0.0 ))
(( 0.0 0.0 0.0 1.0 )
( 0.0 0.0 0.0 1.0 )
( 0.0 0.0 0.0 1.0 )));
}

potential (AllowableCatchVolume__NORTHSEA_YEAR2012)
{
}

potential (ActualFishVolume__NORTHSEA_YEAR2014 | ActualFishVolume__NORTHSEA_YEAR2013 AllowableCatchVolume__NORTHSEA_YEAR2013)
{
 data = ((( 0.9 0.050000012 0.050000012 0.0 )
( 1.0 0.0 0.0 0.0 )
( 1.0 0.0 0.0 0.0 ))
(( 0.9 0.050000012 0.050000012 0.0 )
( 0.9 0.050000012 0.050000012 0.0 )
( 1.0 0.0 0.0 0.0 ))
(( 0.9 0.050000012 0.050000012 0.0 )
( 0.050000012 0.9 0.050000012 0.0 )
( 0.9 0.050000012 0.050000012 0.0 ))
(( 0.0 0.0 0.0 1.0 )
( 0.0 0.0 0.0 1.0 )
( 0.0 0.0 0.0 1.0 )));
}

potential (AllowableCatchVolume__NORTHSEA_YEAR2013 | ObservedFishVolume__NORTHSEA_YEAR2013)
{
}

potential (ObservedFishVolume__NORTHSEA_YEAR2014 | ActualFishVolume__NORTHSEA_YEAR2014)
{
 data = (( 0.9 0.050000012 0.050000012 0.0 )
( 0.050000012 0.9 0.050000012 0.0 )
( 0.050000012 0.050000012 0.9 0.0 )
( 0.0 0.0 0.0 1.0 ));
}

potential (ObservedFishVolume__NORTHSEA_YEAR2015 | ActualFishVolume__NORTHSEA_YEAR2015)
{
 data = (( 0.9 0.050000012 0.050000012 0.0 )
( 0.050000012 0.9 0.050000012 0.0 )
( 0.050000012 0.050000012 0.9 0.0 )
( 0.0 0.0 0.0 1.0 ));
}

potential (ActualFishVolume__NORTHSEA_YEAR2012)
{
 data = ( 0.33333334 0.33333334 0.33333334 0.0 );
}

potential (ObservedFishVolume__NORTHSEA_YEAR2013 | ActualFishVolume__NORTHSEA_YEAR2013)
{
 data = (( 0.9 0.050000012 0.050000012 0.0 )
( 0.050000012 0.9 0.050000012 0.0 )
( 0.050000012 0.050000012 0.9 0.0 )
( 0.0 0.0 0.0 1.0 ));
}

