net
{
     node_size = (0 0);
     name = "JJ";
     tree = "(C1,C5,C6,C7,C8,C9,C10,D1,D2,D3,D4,I1,I2,Threat,I3,I4,D5,D6,D7,D8,D9,D10,D11,D12,D21,D22,D23,D24,D19,D20,D13,C26,C27,C28,C29,C30,D14,D15,D16,D17,D18)";
     UnBBayes_Color_Probabilistic_Description = "-256";
     UnBBayes_Color_Probabilistic_Explanation = "-16711936";
}

node D1
{
     label = "D1";
     position = (22 120);
     states = ("0" "1");
}

node D2
{
     label = "D2";
     position = (26 191);
     states = ("0" "1");
}

node D3
{
     label = "D3";
     position = (27 269);
     states = ("0" "1");
}

node D4
{
     label = "D4";
     position = (28 359);
     states = ("0" "1");
}

node I1
{
     label = "I1";
     position = (186 445);
     states = ("0" "1");
}

node I2
{
     label = "I2";
     position = (455 305);
     states = ("0" "1");
}

node Threat
{
     label = "Threat";
     position = (702 456);
     states = ("0" "1");
}

node I3
{
     label = "I3";
     position = (1041 251);
     states = ("0" "1");
}

node I4
{
     label = "I4";
     position = (1307 461);
     states = ("0" "1");
}

node D5
{
     label = "D5";
     position = (31 443);
     states = ("0" "1");
}

node D6
{
     label = "D6";
     position = (30 528);
     states = ("0" "1");
}

node D7
{
     label = "D7";
     position = (132 55);
     states = ("0" "1");
}

node D8
{
     label = "D8";
     position = (213 54);
     states = ("0" "1");
}

node D9
{
     label = "D9";
     position = (296 51);
     states = ("0" "1");
}

node D10
{
     label = "D10";
     position = (380 44);
     states = ("0" "1");
}

node D11
{
     label = "D11";
     position = (481 45);
     states = ("0" "1");
}

node D12
{
     label = "D12";
     position = (572 43);
     states = ("0" "1");
}

node D21
{
     label = "D21";
     position = (1493 255);
     states = ("0" "1");
}

node D22
{
     label = "D22";
     position = (1496 323);
     states = ("0" "1");
}

node D23
{
     label = "D23";
     position = (1501 394);
     states = ("0" "1");
}

node D24
{
     label = "D24";
     position = (1504 481);
     states = ("0" "1");
}

node D19
{
     label = "D19";
     position = (1486 118);
     states = ("0" "1");
}

node D20
{
     label = "D20";
     position = (1491 184);
     states = ("0" "1");
}

node D13
{
     label = "D13";
     position = (769 46);
     states = ("0" "1");
}

node D14
{
     label = "D14";
     position = (850 45);
     states = ("0" "1");
}

node D15
{
     label = "D15";
     position = (933 42);
     states = ("0" "1");
}

node D16
{
     label = "D16";
     position = (1017 35);
     states = ("0" "1");
}

node D17
{
     label = "D17";
     position = (1118 36);
     states = ("0" "1");
}

node D18
{
     label = "D18";
     position = (1209 34);
     states = ("0" "1");
}

potential (D1)
{
 data = ( 0.5 0.5 );
}

potential (D2)
{
 data = ( 0.5 0.5 );
}

potential (D3)
{
 data = ( 0.5 0.5 );
}

potential (D4)
{
 data = ( 0.5 0.5 );
}

potential (I1 | D6 D5 D4 D3 D2 D1)
{
 data = ((((((( 0.74712646 0.25287357 )
( 0.7777778 0.22222222 ))
(( 0.85714287 0.14285715 )
( 0.6666667 0.3333333 )))
((( 0.35417706 0.64582294 )
( 0.27547106 0.7245289 ))
(( 0.30358034 0.69641966 )
( 0.23611805 0.7638819 ))))
(((( 0.6 0.4 )
( 0.4666667 0.5333333 ))
(( 0.6666667 0.33333334 )
( 0.40000004 0.59999996 )))
((( 0.21250625 0.78749377 )
( 0.16528264 0.8347174 ))
(( 0.18214822 0.8178518 )
( 0.14167084 0.8583292 )))))
((((( 0.6666667 0.33333334 )
( 0.6666667 0.33333334 ))
(( 0.6875 0.3125 )
( 0.44444448 0.5555555 )))
((( 0.23611805 0.7638819 )
( 0.18364738 0.8163526 ))
(( 0.2023869 0.7976131 )
( 0.15741204 0.84258795 ))))
(((( 0.40000004 0.59999996 )
( 0.31111115 0.68888885 ))
(( 0.6666667 0.33333334 )
( 0.2666667 0.7333333 )))
((( 0.14167084 0.8583292 )
( 0.110188425 0.8898116 ))
(( 0.12143215 0.8785679 )
( 0.094447225 0.90555274 ))))))
(((((( 0.0637905 0.9362095 )
( 0.049614836 0.95038515 ))
(( 0.054677572 0.94532245 )
( 0.042527 0.957473 )))
((( 0.022593131 0.97740686 )
( 0.017572436 0.98242754 ))
(( 0.019365542 0.98063445 )
( 0.015062088 0.9849379 ))))
(((( 0.038274303 0.9617257 )
( 0.029768903 0.9702311 ))
(( 0.032806545 0.9671935 )
( 0.025516203 0.9744838 )))
((( 0.01355588 0.9864441 )
( 0.010543462 0.98945653 ))
(( 0.011619326 0.9883807 )
( 0.009037253 0.99096274 )))))
((((( 0.042527 0.957473 )
( 0.03307656 0.9669234 ))
(( 0.036451716 0.9635483 )
( 0.028351335 0.9716487 )))
((( 0.015062088 0.9849379 )
( 0.011714959 0.98828506 ))
(( 0.012910361 0.98708963 )
( 0.010041392 0.9899586 ))))
(((( 0.025516203 0.9744838 )
( 0.019845936 0.98015404 ))
(( 0.02187103 0.97812897 )
( 0.017010802 0.9829892 )))
((( 0.009037253 0.99096274 )
( 0.0070289746 0.992971 ))
(( 0.0077462173 0.9922538 )
( 0.0060248356 0.99397516 )))))));
}

potential (I2 | D12 D11 D10 D9 D8 D7)
{
 data = ((((((( 0.7894737 0.21052632 )
( 0.9166667 0.083333336 ))
(( 0.21539646 0.78460354 )
( 0.19744676 0.80255324 )))
((( 0.79417264 0.20582736 )
( 0.7279916 0.27200842 ))
(( 0.17106198 0.828938 )
( 0.15680681 0.8431932 ))))
(((( 0.6 0.4 )
( 0.55 0.45 ))
(( 0.12923789 0.8707621 )
( 0.11846806 0.88153195 )))
((( 0.4765036 0.5234964 )
( 0.43679497 0.563205 ))
(( 0.102637194 0.8973628 )
( 0.09408409 0.9059159 )))))
((((( 0.5833333 0.41666666 )
( 0.5347222 0.4652778 ))
(( 0.12564793 0.8743521 )
( 0.115177274 0.8848227 )))
((( 0.46326736 0.5367327 )
( 0.42466176 0.57533824 ))
(( 0.09978615 0.90021384 )
( 0.09147064 0.90852934 ))))
(((( 0.35 0.65 )
( 0.32083333 0.6791667 ))
(( 0.07538877 0.9246112 )
( 0.06910637 0.93089366 )))
((( 0.27796042 0.7220396 )
( 0.25479704 0.74520296 ))
(( 0.059871696 0.9401283 )
( 0.054882385 0.9451176 ))))))
(((((( 0.8888889 0.11111111 )
( 0.81481487 0.18518513 ))
(( 0.19146353 0.80853647 )
( 0.17550823 0.82449174 )))
((( 0.70593125 0.29406875 )
( 0.6471036 0.3528964 ))
(( 0.1520551 0.8479449 )
( 0.13938384 0.86061615 ))))
(((( 0.6666667 0.33333334 )
( 0.4888889 0.51111114 ))
(( 0.114878125 0.8851219 )
( 0.10530494 0.89469504 )))
((( 0.42355877 0.5764412 )
( 0.38826218 0.61173785 ))
(( 0.09123306 0.9087669 )
( 0.0836303 0.9163697 )))))
((((( 0.5 0.5 )
( 0.47530863 0.52469134 ))
(( 0.11168705 0.88831294 )
( 0.1023798 0.8976202 )))
((( 0.4117932 0.58820677 )
( 0.3774771 0.6225229 ))
(( 0.0886988 0.9113012 )
( 0.08130723 0.91869277 ))))
(((( 0.6666667 0.33333334 )
( 0.2851852 0.7148148 ))
(( 0.067012236 0.93298775 )
( 0.061427884 0.9385721 )))
((( 0.24707593 0.7529241 )
( 0.22648627 0.77351373 ))
(( 0.053219285 0.94678074 )
( 0.04878434 0.9512157 )))))));
}

potential (Threat | I4 I3 I2 I1)
{
 data = ((((( 0.8358209 0.1641791 )
( 0.42857143 0.5714286 ))
(( 0.25 0.75 )
( 0.14285715 0.85714287 )))
((( 0.7777778 0.22222222 )
( 0.33333334 0.6666666 ))
(( 0.19444445 0.8055556 )
( 0.33333334 0.6666667 ))))
(((( 0.3181818 0.6818182 )
( 0.33333334 0.6666667 ))
(( 0.2 0.8 )
( 0.07692308 0.9230769 )))
((( 0.125 0.875 )
( 0.25 0.75 ))
(( 0.33333334 0.6666667 )
( 0.11111111 0.8888889 )))));
}

potential (I3 | D18 D17 D16 D15 D14 D13)
{
 data = ((((((( 0.7909091 0.2090909 )
( 0.875 0.125 ))
(( 0.64705884 0.3529412 )
( 0.5661765 0.43382353 )))
((( 0.54477537 0.45522463 )
( 0.47667843 0.52332157 ))
(( 0.35250172 0.64749825 )
( 0.308439 0.691561 ))))
(((( 0.6666667 0.33333334 )
( 0.5833334 0.41666663 ))
(( 0.43137258 0.5686274 )
( 0.377451 0.622549 )))
((( 0.3631836 0.6368164 )
( 0.31778562 0.6822144 ))
(( 0.23500115 0.76499885 )
( 0.205626 0.794374 )))))
((((( 0.5 0.5 )
( 0.4375 0.5625 ))
(( 0.64285713 0.35714287 )
( 0.28308824 0.7169118 )))
((( 0.27238768 0.7276123 )
( 0.23833922 0.7616608 ))
(( 0.17625086 0.8237491 )
( 0.1542195 0.8457805 ))))
(((( 0.33333334 0.6666666 )
( 0.2916667 0.7083333 ))
(( 0.21568629 0.7843137 )
( 0.1887255 0.8112745 )))
((( 0.1815918 0.8184082 )
( 0.15889281 0.8411072 ))
(( 0.11750057 0.88249946 )
( 0.102813 0.897187 ))))))
(((((( 0.6820494 0.3179506 )
( 0.59679323 0.40320677 ))
(( 0.44132608 0.5586739 )
( 0.3861603 0.6138397 )))
((( 0.3715637 0.6284363 )
( 0.32511824 0.67488176 ))
(( 0.24042359 0.75957644 )
( 0.21037063 0.78962934 ))))
(((( 0.4546996 0.54530036 )
( 0.39786217 0.6021378 ))
(( 0.2942174 0.7057826 )
( 0.25744024 0.7425598 )))
((( 0.24770914 0.75229084 )
( 0.2167455 0.7832545 ))
(( 0.16028239 0.8397176 )
( 0.14024709 0.8597529 )))))
((((( 0.3410247 0.6589753 )
( 0.29839662 0.7016034 ))
(( 0.22066304 0.7793369 )
( 0.19308016 0.8069198 )))
((( 0.18578185 0.81421816 )
( 0.16255912 0.83744085 ))
(( 0.120211795 0.8797882 )
( 0.105185315 0.89481467 ))))
(((( 0.2273498 0.7726502 )
( 0.19893108 0.8010689 ))
(( 0.1471087 0.8528913 )
( 0.12872012 0.8712799 )))
((( 0.12385457 0.8761454 )
( 0.10837275 0.89162725 ))
(( 0.080141194 0.9198588 )
( 0.070123546 0.92987645 )))))));
}

potential (I4 | D24 D23 D22 D21 D20 D19)
{
 data = ((((((( 0.56666666 0.43333334 )
( 0.5 0.5 ))
(( 0.869667 0.130333 )
( 0.4348335 0.5651665 )))
((( 0.7775624 0.22243762 )
( 0.3887812 0.6112188 ))
(( 0.67622036 0.32377964 )
( 0.33811018 0.6618898 ))))
(((( 0.8998813 0.1001187 )
( 0.44994065 0.5500593 ))
(( 0.78259706 0.21740294 )
( 0.39129853 0.60870147 )))
((( 0.6997138 0.30028617 )
( 0.3498569 0.6501431 ))
(( 0.60851806 0.39148194 )
( 0.30425903 0.69574094 )))))
((((( 0.71428573 0.2857143 )
( 0.35714287 0.64285713 ))
(( 0.6211907 0.37880927 )
( 0.31059536 0.6894046 )))
((( 0.55540174 0.44459826 )
( 0.27770087 0.7222991 ))
(( 0.48301455 0.5169854 )
( 0.24150728 0.7584927 ))))
(((( 0.6427724 0.35722762 )
( 0.3213862 0.6786138 ))
(( 0.5589979 0.44100207 )
( 0.27949896 0.72050107 )))
((( 0.49979562 0.5002044 )
( 0.24989781 0.75010216 ))
(( 0.43465576 0.5653442 )
( 0.21732788 0.7826721 ))))))
(((((( 0.5 0.5 )
( 0.25 0.75 ))
(( 0.4348335 0.5651665 )
( 0.21741675 0.78258324 )))
((( 0.3887812 0.6112188 )
( 0.1943906 0.8056094 ))
(( 0.33811018 0.6618898 )
( 0.16905509 0.8309449 ))))
(((( 0.44994065 0.5500593 )
( 0.22497033 0.77502966 ))
(( 0.39129853 0.60870147 )
( 0.19564927 0.80435073 )))
((( 0.3498569 0.6501431 )
( 0.17492846 0.8250716 ))
(( 0.30425903 0.69574094 )
( 0.15212952 0.84787047 )))))
((((( 0.6 0.4 )
( 0.17857143 0.82142854 ))
(( 0.31059536 0.6894046 )
( 0.15529768 0.8447023 )))
((( 0.27770087 0.7222991 )
( 0.13885044 0.86114955 ))
(( 0.24150728 0.7584927 )
( 0.12075364 0.87924635 ))))
(((( 0.3213862 0.6786138 )
( 0.1606931 0.8393069 ))
(( 0.27949896 0.72050107 )
( 0.13974948 0.86025053 )))
((( 0.24989781 0.75010216 )
( 0.124948904 0.8750511 ))
(( 0.21732788 0.7826721 )
( 0.10866394 0.8913361 )))))));
}

potential (D5)
{
 data = ( 0.5 0.5 );
}

potential (D6)
{
 data = ( 0.5 0.5 );
}

potential (D7)
{
 data = ( 0.5 0.5 );
}

potential (D8)
{
 data = ( 0.5 0.5 );
}

potential (D9)
{
 data = ( 0.5 0.5 );
}

potential (D10)
{
 data = ( 0.5 0.5 );
}

potential (D11)
{
 data = ( 0.5 0.5 );
}

potential (D12)
{
 data = ( 0.5 0.5 );
}

potential (D21)
{
 data = ( 0.5 0.5 );
}

potential (D22)
{
 data = ( 0.5 0.5 );
}

potential (D23)
{
 data = ( 0.5 0.5 );
}

potential (D24)
{
 data = ( 0.5 0.5 );
}

potential (D19)
{
 data = ( 0.5 0.5 );
}

potential (D20)
{
 data = ( 0.5 0.5 );
}

potential (D13)
{
 data = ( 0.5 0.5 );
}

potential (D14)
{
 data = ( 0.5 0.5 );
}

potential (D15)
{
 data = ( 0.5 0.5 );
}

potential (D16)
{
 data = ( 0.5 0.5 );
}

potential (D17)
{
 data = ( 0.5 0.5 );
}

potential (D18)
{
 data = ( 0.5 0.5 );
}

