net
{
     node_size = (0 0);
     name = "New BN";
     tree = "(C1,C5,C6,C7,C8,C9,C10,D1,D2,D3,D4,I1,I2,Threat,I3,I4,D5,D6,D7,D8,D9,D10,D11,D12,D21,D22,D23,D24,D19,D20,D13,C26,C27,C28,C29,C30)";
     UnBBayes_Color_Probabilistic_Description = "-256";
     UnBBayes_Color_Probabilistic_Explanation = "-16711936";
}

node D1
{
     label = "D1";
     position = (22 120);
     states = ("0" "1");
}

node D2
{
     label = "D2";
     position = (26 191);
     states = ("0" "1");
}

node D3
{
     label = "D3";
     position = (27 269);
     states = ("0" "1");
}

node D4
{
     label = "D4";
     position = (28 359);
     states = ("0" "1");
}

node I1
{
     label = "I1";
     position = (186 445);
     states = ("0" "1");
}

node I2
{
     label = "I2";
     position = (455 305);
     states = ("0" "1");
}

node Threat
{
     label = "Threat";
     position = (702 456);
     states = ("0" "1");
}

node I3
{
     label = "I3";
     position = (1041 251);
     states = ("0" "1");
}

node I4
{
     label = "I4";
     position = (1307 461);
     states = ("0" "1");
}

node D5
{
     label = "D5";
     position = (31 443);
     states = ("0" "1");
}

node D6
{
     label = "D6";
     position = (30 528);
     states = ("0" "1");
}

node D7
{
     label = "D7";
     position = (132 55);
     states = ("0" "1");
}

node D8
{
     label = "D8";
     position = (213 54);
     states = ("0" "1");
}

node D9
{
     label = "D9";
     position = (296 51);
     states = ("0" "1");
}

node D10
{
     label = "D10";
     position = (380 44);
     states = ("0" "1");
}

node D11
{
     label = "D11";
     position = (481 45);
     states = ("0" "1");
}

node D12
{
     label = "D12";
     position = (572 43);
     states = ("0" "1");
}

node D21
{
     label = "D21";
     position = (1493 255);
     states = ("0" "1");
}

node D22
{
     label = "D22";
     position = (1496 323);
     states = ("0" "1");
}

node D23
{
     label = "D23";
     position = (1501 394);
     states = ("0" "1");
}

node D24
{
     label = "D24";
     position = (1504 481);
     states = ("0" "1");
}

node D19
{
     label = "D19";
     position = (1486 118);
     states = ("0" "1");
}

node D20
{
     label = "D20";
     position = (1491 184);
     states = ("0" "1");
}

node D13
{
     label = "D13";
     position = (769 46);
     states = ("0" "1");
}

node D14
{
     label = "D14";
     position = (850 45);
     states = ("0" "1");
}

node D15
{
     label = "D15";
     position = (933 42);
     states = ("0" "1");
}

node D16
{
     label = "D16";
     position = (1017 35);
     states = ("0" "1");
}

node D17
{
     label = "D17";
     position = (1118 36);
     states = ("0" "1");
}

node D18
{
     label = "D18";
     position = (1209 34);
     states = ("0" "1");
}

potential (D1)
{
 data = ( 0.5 0.5 );
}

potential (D2)
{
 data = ( 0.5 0.5 );
}

potential (D3)
{
 data = ( 0.5 0.5 );
}

potential (D4)
{
 data = ( 0.5 0.5 );
}

potential (I1 | D6 D5 D4 D3 D2 D1)
{
 data = ((((((( 1.0 0.0 )
( 0.6 0.39999998 ))
(( 0.8 0.19999999 )
( 0.48000002 0.52 )))
((( 0.8 0.19999999 )
( 0.48000002 0.52 ))
(( 0.64000005 0.35999995 )
( 0.38400003 0.61599994 ))))
(((( 0.8 0.19999999 )
( 0.48000002 0.52 ))
(( 0.64000005 0.35999995 )
( 0.38400003 0.61599994 )))
((( 0.64000005 0.35999995 )
( 0.38400003 0.61599994 ))
(( 0.512 0.48799998 )
( 0.30720004 0.6927999 )))))
((((( 0.8 0.19999999 )
( 0.48000002 0.52 ))
(( 0.64000005 0.35999995 )
( 0.38400003 0.61599994 )))
((( 0.64000005 0.35999995 )
( 0.38400003 0.61599994 ))
(( 0.512 0.48799998 )
( 0.30720004 0.6927999 ))))
(((( 0.64000005 0.35999995 )
( 0.38400003 0.61599994 ))
(( 0.512 0.48799998 )
( 0.30720004 0.6927999 )))
((( 0.512 0.48799998 )
( 0.30720004 0.6927999 ))
(( 0.40960002 0.5904 )
( 0.24576004 0.75424 ))))))
(((((( 0.8 0.19999999 )
( 0.48000002 0.52 ))
(( 0.64000005 0.35999995 )
( 0.38400003 0.61599994 )))
((( 0.64000005 0.35999995 )
( 0.38400003 0.61599994 ))
(( 0.512 0.48799998 )
( 0.30720004 0.6927999 ))))
(((( 0.64000005 0.35999995 )
( 0.38400003 0.61599994 ))
(( 0.512 0.48799998 )
( 0.30720004 0.6927999 )))
((( 0.512 0.48799998 )
( 0.30720004 0.6927999 ))
(( 0.40960002 0.5904 )
( 0.24576004 0.75424 )))))
((((( 0.64000005 0.35999995 )
( 0.38400003 0.61599994 ))
(( 0.512 0.48799998 )
( 0.30720004 0.6927999 )))
((( 0.512 0.48799998 )
( 0.30720004 0.6927999 ))
(( 0.40960002 0.5904 )
( 0.24576004 0.75424 ))))
(((( 0.512 0.48799998 )
( 0.30720004 0.6927999 ))
(( 0.40960002 0.5904 )
( 0.24576004 0.75424 )))
((( 0.40960002 0.5904 )
( 0.24576004 0.75424 ))
(( 0.32768002 0.67232 )
( 0.19660804 0.80339193 )))))));
}

potential (I2 | D12 D11 D10 D9 D8 D7)
{
 data = ((((((( 1.0 0.0 )
( 0.6 0.39999998 ))
(( 0.8 0.19999999 )
( 0.48000002 0.52 )))
((( 0.8 0.19999999 )
( 0.48000002 0.52 ))
(( 0.64000005 0.35999995 )
( 0.38400003 0.61599994 ))))
(((( 0.8 0.19999999 )
( 0.48000002 0.52 ))
(( 0.64000005 0.35999995 )
( 0.38400003 0.61599994 )))
((( 0.64000005 0.35999995 )
( 0.38400003 0.61599994 ))
(( 0.512 0.48799998 )
( 0.30720004 0.6927999 )))))
((((( 0.8 0.19999999 )
( 0.48000002 0.52 ))
(( 0.64000005 0.35999995 )
( 0.38400003 0.61599994 )))
((( 0.64000005 0.35999995 )
( 0.38400003 0.61599994 ))
(( 0.512 0.48799998 )
( 0.30720004 0.6927999 ))))
(((( 0.64000005 0.35999995 )
( 0.38400003 0.61599994 ))
(( 0.512 0.48799998 )
( 0.30720004 0.6927999 )))
((( 0.512 0.48799998 )
( 0.30720004 0.6927999 ))
(( 0.40960002 0.5904 )
( 0.24576004 0.75424 ))))))
(((((( 0.8 0.19999999 )
( 0.48000002 0.52 ))
(( 0.64000005 0.35999995 )
( 0.38400003 0.61599994 )))
((( 0.64000005 0.35999995 )
( 0.38400003 0.61599994 ))
(( 0.512 0.48799998 )
( 0.30720004 0.6927999 ))))
(((( 0.64000005 0.35999995 )
( 0.38400003 0.61599994 ))
(( 0.512 0.48799998 )
( 0.30720004 0.6927999 )))
((( 0.512 0.48799998 )
( 0.30720004 0.6927999 ))
(( 0.40960002 0.5904 )
( 0.24576004 0.75424 )))))
((((( 0.64000005 0.35999995 )
( 0.38400003 0.61599994 ))
(( 0.512 0.48799998 )
( 0.30720004 0.6927999 )))
((( 0.512 0.48799998 )
( 0.30720004 0.6927999 ))
(( 0.40960002 0.5904 )
( 0.24576004 0.75424 ))))
(((( 0.512 0.48799998 )
( 0.30720004 0.6927999 ))
(( 0.40960002 0.5904 )
( 0.24576004 0.75424 )))
((( 0.40960002 0.5904 )
( 0.24576004 0.75424 ))
(( 0.32768002 0.67232 )
( 0.19660804 0.80339193 )))))));
}

potential (Threat | I4 I3 I2 I1)
{
 data = ((((( 1.0 0.0 )
( 0.7 0.3 ))
(( 0.75 0.25 )
( 0.525 0.47500002 )))
((( 0.6 0.39999998 )
( 0.42000002 0.58 ))
(( 0.45000002 0.54999995 )
( 0.315 0.685 ))))
(((( 0.65 0.35000002 )
( 0.45499998 0.545 ))
(( 0.48749998 0.51250005 )
( 0.34124997 0.65875006 )))
((( 0.39000002 0.61 )
( 0.273 0.727 ))
(( 0.2925 0.7075 )
( 0.20474999 0.79525 )))));
}

potential (I3 | D18 D17 D16 D15 D14 D13)
{
 data = ((((((( 1.0 0.0 )
( 0.6 0.39999998 ))
(( 0.8 0.19999999 )
( 0.48000002 0.52 )))
((( 0.8 0.19999999 )
( 0.48000002 0.52 ))
(( 0.64000005 0.35999995 )
( 0.38400003 0.61599994 ))))
(((( 0.8 0.19999999 )
( 0.48000002 0.52 ))
(( 0.64000005 0.35999995 )
( 0.38400003 0.61599994 )))
((( 0.64000005 0.35999995 )
( 0.38400003 0.61599994 ))
(( 0.512 0.48799998 )
( 0.30720004 0.6927999 )))))
((((( 0.8 0.19999999 )
( 0.48000002 0.52 ))
(( 0.64000005 0.35999995 )
( 0.38400003 0.61599994 )))
((( 0.64000005 0.35999995 )
( 0.38400003 0.61599994 ))
(( 0.512 0.48799998 )
( 0.30720004 0.6927999 ))))
(((( 0.64000005 0.35999995 )
( 0.38400003 0.61599994 ))
(( 0.512 0.48799998 )
( 0.30720004 0.6927999 )))
((( 0.512 0.48799998 )
( 0.30720004 0.6927999 ))
(( 0.40960002 0.5904 )
( 0.24576004 0.75424 ))))))
(((((( 0.8 0.19999999 )
( 0.48000002 0.52 ))
(( 0.64000005 0.35999995 )
( 0.38400003 0.61599994 )))
((( 0.64000005 0.35999995 )
( 0.38400003 0.61599994 ))
(( 0.512 0.48799998 )
( 0.30720004 0.6927999 ))))
(((( 0.64000005 0.35999995 )
( 0.38400003 0.61599994 ))
(( 0.512 0.48799998 )
( 0.30720004 0.6927999 )))
((( 0.512 0.48799998 )
( 0.30720004 0.6927999 ))
(( 0.40960002 0.5904 )
( 0.24576004 0.75424 )))))
((((( 0.64000005 0.35999995 )
( 0.38400003 0.61599994 ))
(( 0.512 0.48799998 )
( 0.30720004 0.6927999 )))
((( 0.512 0.48799998 )
( 0.30720004 0.6927999 ))
(( 0.40960002 0.5904 )
( 0.24576004 0.75424 ))))
(((( 0.512 0.48799998 )
( 0.30720004 0.6927999 ))
(( 0.40960002 0.5904 )
( 0.24576004 0.75424 )))
((( 0.40960002 0.5904 )
( 0.24576004 0.75424 ))
(( 0.32768002 0.67232 )
( 0.19660804 0.80339193 )))))));
}

potential (I4 | D24 D23 D22 D21 D20 D19)
{
 data = ((((((( 1.0 0.0 )
( 0.6 0.39999998 ))
(( 0.8 0.19999999 )
( 0.48000002 0.52 )))
((( 0.8 0.19999999 )
( 0.48000002 0.52 ))
(( 0.64000005 0.35999995 )
( 0.38400003 0.61599994 ))))
(((( 0.8 0.19999999 )
( 0.48000002 0.52 ))
(( 0.64000005 0.35999995 )
( 0.38400003 0.61599994 )))
((( 0.64000005 0.35999995 )
( 0.38400003 0.61599994 ))
(( 0.512 0.48799998 )
( 0.30720004 0.6927999 )))))
((((( 0.8 0.19999999 )
( 0.48000002 0.52 ))
(( 0.64000005 0.35999995 )
( 0.38400003 0.61599994 )))
((( 0.64000005 0.35999995 )
( 0.38400003 0.61599994 ))
(( 0.512 0.48799998 )
( 0.30720004 0.6927999 ))))
(((( 0.64000005 0.35999995 )
( 0.38400003 0.61599994 ))
(( 0.512 0.48799998 )
( 0.30720004 0.6927999 )))
((( 0.512 0.48799998 )
( 0.30720004 0.6927999 ))
(( 0.40960002 0.5904 )
( 0.24576004 0.75424 ))))))
(((((( 0.8 0.19999999 )
( 0.48000002 0.52 ))
(( 0.64000005 0.35999995 )
( 0.38400003 0.61599994 )))
((( 0.64000005 0.35999995 )
( 0.38400003 0.61599994 ))
(( 0.512 0.48799998 )
( 0.30720004 0.6927999 ))))
(((( 0.64000005 0.35999995 )
( 0.38400003 0.61599994 ))
(( 0.512 0.48799998 )
( 0.30720004 0.6927999 )))
((( 0.512 0.48799998 )
( 0.30720004 0.6927999 ))
(( 0.40960002 0.5904 )
( 0.24576004 0.75424 )))))
((((( 0.64000005 0.35999995 )
( 0.38400003 0.61599994 ))
(( 0.512 0.48799998 )
( 0.30720004 0.6927999 )))
((( 0.512 0.48799998 )
( 0.30720004 0.6927999 ))
(( 0.40960002 0.5904 )
( 0.24576004 0.75424 ))))
(((( 0.512 0.48799998 )
( 0.30720004 0.6927999 ))
(( 0.40960002 0.5904 )
( 0.24576004 0.75424 )))
((( 0.40960002 0.5904 )
( 0.24576004 0.75424 ))
(( 0.32768002 0.67232 )
( 0.19660804 0.80339193 )))))));
}

potential (D5)
{
 data = ( 0.5 0.5 );
}

potential (D6)
{
 data = ( 0.5 0.5 );
}

potential (D7)
{
 data = ( 0.5 0.5 );
}

potential (D8)
{
 data = ( 0.5 0.5 );
}

potential (D9)
{
 data = ( 0.5 0.5 );
}

potential (D10)
{
 data = ( 0.5 0.5 );
}

potential (D11)
{
 data = ( 0.5 0.5 );
}

potential (D12)
{
 data = ( 0.5 0.5 );
}

potential (D21)
{
 data = ( 0.5 0.5 );
}

potential (D22)
{
 data = ( 0.5 0.5 );
}

potential (D23)
{
 data = ( 0.5 0.5 );
}

potential (D24)
{
 data = ( 0.5 0.5 );
}

potential (D19)
{
 data = ( 0.5 0.5 );
}

potential (D20)
{
 data = ( 0.5 0.5 );
}

potential (D13)
{
 data = ( 0.5 0.5 );
}

potential (D14)
{
 data = ( 0.5 0.5 );
}

potential (D15)
{
 data = ( 0.5 0.5 );
}

potential (D16)
{
 data = ( 0.5 0.5 );
}

potential (D17)
{
 data = ( 0.5 0.5 );
}

potential (D18)
{
 data = ( 0.5 0.5 );
}

