net
{
     node_size = (0 0);
     name = "New BN";
     UnBBayes_Color_Probabilistic_Description = "-256";
     UnBBayes_Color_Probabilistic_Explanation = "-16711936";
}

node D1
{
     label = "C1";
     position = (148 89);
     states = ("0" "1");
}

node D2
{
     label = "C5";
     position = (274 91);
     states = ("0" "1" "2");
}

node D3
{
     label = "C6";
     position = (405 91);
     states = ("0" "1" "2" "3");
}

node D4
{
     label = "C7";
     position = (529 93);
     states = ("0" "1" "2" "3" "4");
}

node I1
{
     label = "C8";
     position = (217 189);
     states = ("0" "1");
}

node I2
{
     label = "C9";
     position = (442 195);
     states = ("0" "1" "2");
}

node Threat
{
     label = "C10";
     position = (314 293);
     states = ("0" "1");
}

potential (D1)
{
 data = ( 0.5 0.5 );
}

potential (D2)
{
 data = ( 0.33333334 0.33333334 0.33333334 );
}

potential (D3)
{
 data = ( 0.25 0.25 0.25 0.25 );
}

potential (D4)
{
 data = ( 0.2 0.2 0.2 0.2 0.2 );
}

potential (I1 | D2 D1)
{
 data = ((( 1.0 0.0 )
( 0.75 0.25 ))
(( 0.6 0.4 )
( 0.4 0.6 ))
(( 0.25 0.75 )
( 0.0 1.0 )));
}

potential (I2 | D4 D3)
{
 data = ((( 0.4110212 0.22617766 0.36280113 )
( 0.2037134 0.33481973 0.46146685 )
( 0.766483 0.115745835 0.117771134 )
( 0.078086734 0.59836495 0.32354835 ))
(( 0.08333077 0.73005265 0.18661654 )
( 0.4491105 0.3305332 0.22035626 )
( 0.30381948 0.33676705 0.3594135 )
( 0.3001184 0.20384373 0.49603787 ))
(( 0.46918353 0.10297624 0.4278402 )
( 0.06360091 0.5769774 0.35942176 )
( 0.043441985 0.5424826 0.4140754 )
( 0.09406277 0.40663686 0.49930036 ))
(( 0.5775541 0.111183316 0.31126255 )
( 0.36019418 0.3929235 0.24688233 )
( 0.18798092 0.3678675 0.44415158 )
( 0.33355054 0.5307266 0.13572288 ))
(( 0.29517445 0.47286218 0.23196332 )
( 0.54143363 0.30315754 0.15540889 )
( 0.305383 0.123007216 0.5716098 )
( 0.4449544 0.31734833 0.23769732 )));
}

potential (Threat | I2 I1)
{
 data = ((( 1.0 0.0 )
( 0.5 0.5 ))
(( 0.5 0.5 )
( 0.25 0.75 ))
(( 0.25 0.75 )
( 0.01 0.99 )));
}

