net
{
     node_size = (0 0);
     name = "TonyNoisyMax";
     tree = "(C1,C5,C6,C7,C8,C9,C10,D1,D2,D3,D4,I1,I2,Threat,I3,I4,D5,D6,D7,D8,D9,D10,D11,D12,D21,D22,D23,D24,D19,D20,D13,C26,C27,C28,C29,C30,D14,D15,D16,D17,D18)";
     UnBBayes_Color_Probabilistic_Description = "-256";
     UnBBayes_Color_Probabilistic_Explanation = "-16711936";
}

node D1
{
     label = "D1";
     position = (22 120);
     states = ("0" "1");
}

node D2
{
     label = "D2";
     position = (26 191);
     states = ("0" "1");
}

node D3
{
     label = "D3";
     position = (27 269);
     states = ("0" "1");
}

node D4
{
     label = "D4";
     position = (28 359);
     states = ("0" "1");
}

node I1
{
     label = "I1";
     position = (186 445);
     states = ("0" "1");
}

node I2
{
     label = "I2";
     position = (455 305);
     states = ("0" "1");
}

node Threat
{
     label = "Threat";
     position = (702 456);
     states = ("0" "1");
}

node I3
{
     label = "I3";
     position = (1041 251);
     states = ("0" "1");
}

node I4
{
     label = "I4";
     position = (1307 461);
     states = ("0" "1");
}

node D5
{
     label = "D5";
     position = (31 443);
     states = ("0" "1");
}

node D6
{
     label = "D6";
     position = (30 528);
     states = ("0" "1");
}

node D7
{
     label = "D7";
     position = (132 55);
     states = ("0" "1");
}

node D8
{
     label = "D8";
     position = (213 54);
     states = ("0" "1");
}

node D9
{
     label = "D9";
     position = (296 51);
     states = ("0" "1");
}

node D10
{
     label = "D10";
     position = (380 44);
     states = ("0" "1");
}

node D11
{
     label = "D11";
     position = (481 45);
     states = ("0" "1");
}

node D12
{
     label = "D12";
     position = (572 43);
     states = ("0" "1");
}

node D21
{
     label = "D21";
     position = (1493 255);
     states = ("0" "1");
}

node D22
{
     label = "D22";
     position = (1496 323);
     states = ("0" "1");
}

node D23
{
     label = "D23";
     position = (1501 394);
     states = ("0" "1");
}

node D24
{
     label = "D24";
     position = (1504 481);
     states = ("0" "1");
}

node D19
{
     label = "D19";
     position = (1486 118);
     states = ("0" "1");
}

node D20
{
     label = "D20";
     position = (1491 184);
     states = ("0" "1");
}

node D13
{
     label = "D13";
     position = (769 46);
     states = ("0" "1");
}

node D14
{
     label = "D14";
     position = (850 45);
     states = ("0" "1");
}

node D15
{
     label = "D15";
     position = (933 42);
     states = ("0" "1");
}

node D16
{
     label = "D16";
     position = (1017 35);
     states = ("0" "1");
}

node D17
{
     label = "D17";
     position = (1118 36);
     states = ("0" "1");
}

node D18
{
     label = "D18";
     position = (1209 34);
     states = ("0" "1");
}

potential (D1)
{
 data = ( 0.5 0.5 );
}

potential (D2)
{
 data = ( 0.5 0.5 );
}

potential (D3)
{
 data = ( 0.5 0.5 );
}

potential (D4)
{
 data = ( 0.5 0.5 );
}

potential (I1 | D6 D5 D4 D3 D2 D1)
{
 data = ((((((( 0.25287357 0.74712646 )
( 0.22222222 0.7777778 ))
(( 0.3809524 0.61904764 )
( 0.08465609 0.9153439 )))
((( 0.41136187 0.5886381 )
( 0.09141375 0.90858626 ))
(( 0.15670928 0.8432907 )
( 0.03482429 0.9651757 ))))
(((( 0.4 0.6 )
( 0.08888889 0.9111111 ))
(( 0.33333334 0.6666667 )
( 0.033862438 0.9661376 )))
((( 0.16454475 0.83545524 )
( 0.0365655 0.9634345 ))
(( 0.06268372 0.9373163 )
( 0.013929716 0.9860703 )))))
((((( 0.33333334 0.6666667 )
( 0.33333334 0.6666667 ))
(( 0.25 0.75 )
( 0.028218698 0.9717813 )))
((( 0.13712063 0.8628794 )
( 0.03047125 0.96952873 ))
(( 0.05223643 0.94776356 )
( 0.011608097 0.9883919 ))))
(((( 0.13333334 0.8666667 )
( 0.029629631 0.97037035 ))
(( 0.33333334 0.6666667 )
( 0.01128748 0.98871255 )))
((( 0.05484825 0.94515175 )
( 0.012188501 0.9878115 ))
(( 0.020894572 0.9791054 )
( 0.004643239 0.99535674 ))))))
(((((( 0.19322455 0.80677545 )
( 0.042938787 0.95706123 ))
(( 0.07360935 0.92639065 )
( 0.016357634 0.98364234 )))
((( 0.079485215 0.92051476 )
( 0.01766338 0.98233664 ))
(( 0.030280082 0.96971995 )
( 0.0067289076 0.9932711 ))))
(((( 0.07728982 0.9227102 )
( 0.017175516 0.9828245 ))
(( 0.029443743 0.97055626 )
( 0.0065430542 0.99345696 )))
((( 0.031794086 0.9682059 )
( 0.0070653525 0.99293464 ))
(( 0.012112033 0.987888 )
( 0.0026915632 0.99730843 )))))
((((( 0.06440818 0.9355918 )
( 0.0143129295 0.9856871 ))
(( 0.024536451 0.97546357 )
( 0.0054525454 0.9945474 )))
((( 0.026495073 0.9735049 )
( 0.005887794 0.9941122 ))
(( 0.010093361 0.98990667 )
( 0.0022429693 0.997757 ))))
(((( 0.025763275 0.9742367 )
( 0.005725172 0.99427485 ))
(( 0.009814581 0.99018544 )
( 0.0021810182 0.997819 )))
((( 0.010598028 0.989402 )
( 0.0023551176 0.9976449 ))
(( 0.0040373444 0.9959627 )
( 8.971878E-4 0.99910283 )))))));
}

potential (I2 | D12 D11 D10 D9 D8 D7)
{
 data = ((((((( 0.30526316 0.69473684 )
( 0.33333334 0.6666667 ))
(( 0.33558375 0.66441625 )
( 0.11186125 0.8881388 )))
((( 0.11356658 0.8864334 )
( 0.03785553 0.9621445 ))
(( 0.038111098 0.9618889 )
( 0.012703699 0.9872963 ))))
(((( 0.6 0.4 )
( 0.20000002 0.79999995 ))
(( 0.20135026 0.7986497 )
( 0.06711675 0.93288326 )))
((( 0.06813995 0.93186 )
( 0.022713318 0.9772867 ))
(( 0.022866659 0.97713333 )
( 0.0076222196 0.99237776 )))))
((((( 0.41666666 0.5833333 )
( 0.1388889 0.8611111 ))
(( 0.13982655 0.86017346 )
( 0.046608854 0.95339113 )))
((( 0.047319405 0.9526806 )
( 0.015773136 0.9842269 ))
(( 0.015879624 0.98412037 )
( 0.0052932077 0.9947068 ))))
(((( 0.25 0.75 )
( 0.083333336 0.9166667 ))
(( 0.08389594 0.9161041 )
( 0.027965313 0.9720347 )))
((( 0.028391644 0.97160834 )
( 0.009463882 0.9905361 ))
(( 0.0095277745 0.9904722 )
( 0.0031759248 0.9968241 ))))))
(((((( 0.33333334 0.6666667 )
( 0.11111112 0.8888889 ))
(( 0.11186125 0.8881388 )
( 0.037287086 0.9627129 )))
((( 0.03785553 0.9621445 )
( 0.01261851 0.9873815 ))
(( 0.0127037 0.9872963 )
( 0.0042345664 0.99576545 ))))
(((( 0.33333334 0.6666667 )
( 0.06666668 0.93333334 ))
(( 0.06711675 0.93288326 )
( 0.022372251 0.97762775 )))
((( 0.022713317 0.9772867 )
( 0.0075711063 0.9924289 ))
(( 0.0076222196 0.99237776 )
( 0.00254074 0.99745923 )))))
((((( 0.25 0.75 )
( 0.0462963 0.9537037 ))
(( 0.04660885 0.95339113 )
( 0.015536285 0.9844637 )))
((( 0.015773136 0.9842269 )
( 0.005257712 0.9947423 ))
(( 0.005293208 0.9947068 )
( 0.0017644026 0.9982356 ))))
(((( 0.33333334 0.6666667 )
( 0.02777778 0.9722222 ))
(( 0.027965313 0.9720347 )
( 0.009321772 0.99067825 )))
((( 0.009463882 0.9905361 )
( 0.0031546275 0.99684536 ))
(( 0.003175925 0.9968241 )
( 0.0010586416 0.99894136 )))))));
}

potential (Threat | I4 I3 I2 I1)
{
 data = ((((( 0.6666667 0.33333334 )
( 0.75 0.25 ))
(( 0.6666667 0.33333334 )
( 0.6666667 0.33333334 )))
((( 0.6666667 0.33333334 )
( 0.6923077 0.30769232 ))
(( 0.6666667 0.33333334 )
( 0.4 0.6 ))))
(((( 0.6666667 0.33333334 )
( 0.33333334 0.6666667 ))
(( 0.6666667 0.33333334 )
( 0.11111111 0.8888889 )))
((( 0.8 0.2 )
( 0.64705884 0.3529412 ))
(( 0.3529412 0.64705884 )
( 0.16666667 0.8333333 )))));
}

potential (I3 | D18 D17 D16 D15 D14 D13)
{
 data = ((((((( 0.15454546 0.8454546 )
( 0.5 0.5 ))
(( 0.11764706 0.88235295 )
( 0.05882353 0.9411765 )))
((( 0.9052317 0.094768286 )
( 0.45261586 0.54738414 ))
(( 0.10649785 0.8935022 )
( 0.053248923 0.94675106 ))))
(((( 0.33333334 0.6666667 )
( 0.16666667 0.8333333 ))
(( 0.039215688 0.9607843 )
( 0.019607844 0.98039216 )))
((( 0.30174392 0.6982561 )
( 0.15087196 0.849128 ))
(( 0.035499282 0.9645007 )
( 0.017749641 0.98225033 )))))
((((( 0.25 0.75 )
( 0.125 0.875 ))
(( 0.14285715 0.85714287 )
( 0.014705882 0.9852941 )))
((( 0.22630793 0.7736921 )
( 0.113153964 0.88684607 ))
(( 0.026624462 0.97337556 )
( 0.013312231 0.9866878 ))))
(((( 0.083333336 0.9166667 )
( 0.041666668 0.9583333 ))
(( 0.009803922 0.99019605 )
( 0.004901961 0.99509805 )))
((( 0.07543598 0.924564 )
( 0.03771799 0.962282 ))
(( 0.008874821 0.99112517 )
( 0.0044374103 0.9955626 ))))))
(((((( 0.5052595 0.4947405 )
( 0.25262976 0.74737024 ))
(( 0.059442297 0.9405577 )
( 0.029721148 0.97027886 )))
((( 0.45737693 0.54262304 )
( 0.22868846 0.7713115 ))
(( 0.05380905 0.94619095 )
( 0.026904525 0.9730955 ))))
(((( 0.16841984 0.83158016 )
( 0.08420992 0.9157901 ))
(( 0.0198141 0.9801859 )
( 0.00990705 0.99009293 )))
((( 0.152459 0.847541 )
( 0.0762295 0.9237705 ))
(( 0.01793635 0.98206365 )
( 0.008968175 0.9910318 )))))
((((( 0.12631488 0.8736851 )
( 0.06315744 0.93684256 ))
(( 0.014860574 0.9851394 )
( 0.007430287 0.9925697 )))
((( 0.11434423 0.88565576 )
( 0.057172116 0.9428279 ))
(( 0.013452263 0.9865477 )
( 0.0067261313 0.99327385 ))))
(((( 0.04210496 0.95789504 )
( 0.02105248 0.9789475 ))
(( 0.004953525 0.9950465 )
( 0.0024767625 0.99752325 )))
((( 0.03811475 0.9618853 )
( 0.019057374 0.9809426 ))
(( 0.0044840877 0.9955159 )
( 0.0022420438 0.997758 )))))));
}

potential (I4 | D24 D23 D22 D21 D20 D19)
{
 data = ((((((( 0.275 0.725 )
( 0.25 0.75 ))
(( 0.2947997 0.7052003 )
( 0.07369992 0.92630005 )))
((( 0.008305728 0.9916943 )
( 0.002076432 0.99792355 ))
(( 0.0024485262 0.9975515 )
( 6.1213155E-4 0.99938786 ))))
(((( 0.9728603 0.027139723 )
( 0.24321507 0.7567849 ))
(( 0.2867989 0.7132011 )
( 0.07169972 0.92830026 )))
((( 0.008080313 0.9919197 )
( 0.0020200782 0.99797994 ))
(( 0.0023820738 0.9976179 )
( 5.9551845E-4 0.9994045 )))))
((((( 0.2857143 0.71428573 )
( 0.071428575 0.9285714 ))
(( 0.084228486 0.9157715 )
( 0.021057121 0.9789429 )))
((( 0.0023730653 0.99762696 )
( 5.9326633E-4 0.99940675 ))
(( 6.9957896E-4 0.9993004 )
( 1.7489474E-4 0.9998251 ))))
(((( 0.2779601 0.72203994 )
( 0.06949002 0.93051 ))
(( 0.08194254 0.91805744 )
( 0.020485636 0.97951436 )))
((( 0.002308661 0.99769133 )
( 5.771652E-4 0.99942285 ))
(( 6.8059255E-4 0.99931943 )
( 1.7014814E-4 0.9998298 ))))))
(((((( 0.75 0.25 )
( 0.1875 0.8125 ))
(( 0.22109976 0.77890027 )
( 0.05527494 0.94472504 )))
((( 0.0062292963 0.9937707 )
( 0.0015573241 0.99844265 ))
(( 0.0018363947 0.9981636 )
( 4.5909866E-4 0.9995409 ))))
(((( 0.7296452 0.2703548 )
( 0.1824113 0.8175887 ))
(( 0.21509917 0.78490084 )
( 0.053774793 0.9462252 )))
((( 0.0060602347 0.99393976 )
( 0.0015150587 0.99848497 ))
(( 0.0017865554 0.99821347 )
( 4.4663885E-4 0.9995534 )))))
((((( 0.4 0.6 )
( 0.053571433 0.94642854 ))
(( 0.063171364 0.9368286 )
( 0.015792841 0.98420715 )))
((( 0.001779799 0.9982202 )
( 4.4494975E-4 0.99955505 ))
(( 5.246842E-4 0.9994753 )
( 1.3117105E-4 0.9998688 ))))
(((( 0.20847008 0.7915299 )
( 0.05211752 0.9478825 ))
(( 0.061456908 0.9385431 )
( 0.015364227 0.9846358 )))
((( 0.0017314956 0.9982685 )
( 4.328739E-4 0.99956715 ))
(( 5.104444E-4 0.99948955 )
( 1.276111E-4 0.9998724 )))))));
}

potential (D5)
{
 data = ( 0.5 0.5 );
}

potential (D6)
{
 data = ( 0.5 0.5 );
}

potential (D7)
{
 data = ( 0.5 0.5 );
}

potential (D8)
{
 data = ( 0.5 0.5 );
}

potential (D9)
{
 data = ( 0.5 0.5 );
}

potential (D10)
{
 data = ( 0.5 0.5 );
}

potential (D11)
{
 data = ( 0.5 0.5 );
}

potential (D12)
{
 data = ( 0.5 0.5 );
}

potential (D21)
{
 data = ( 0.5 0.5 );
}

potential (D22)
{
 data = ( 0.5 0.5 );
}

potential (D23)
{
 data = ( 0.5 0.5 );
}

potential (D24)
{
 data = ( 0.5 0.5 );
}

potential (D19)
{
 data = ( 0.5 0.5 );
}

potential (D20)
{
 data = ( 0.5 0.5 );
}

potential (D13)
{
 data = ( 0.5 0.5 );
}

potential (D14)
{
 data = ( 0.5 0.5 );
}

potential (D15)
{
 data = ( 0.5 0.5 );
}

potential (D16)
{
 data = ( 0.5 0.5 );
}

potential (D17)
{
 data = ( 0.5 0.5 );
}

potential (D18)
{
 data = ( 0.5 0.5 );
}

