net
{
     node_size = (0 0);
     name = "New BN";
     UnBBayes_Color_Probabilistic_Description = "-256";
     UnBBayes_Color_Probabilistic_Explanation = "-16711936";
}

node 808
{
     label = "1st place";
     position = (312 68);
     states = ("1" "2" "3" "4" "5" "6" "7" "8" "9" "10" "11" "12" "13" "14" "15" "16" "17" "18" "19" "20");
}

node 812
{
     label = "2nd place";
     position = (642 64);
     states = ("1" "2" "3" "4" "5" "6" "7" "8" "9" "10" "11" "12" "13" "14" "15" "16" "17" "18" "19" "20");
}

node 809
{
     label = "RankTeam1";
     position = (199 242);
     states = ("1" "2" "3" "4" "5" "6" "7" "8" "9" "10" "11" "12" "13" "14" "15" "16" "17" "18" "19" "20");
}

node 810
{
     label = "RankTeam2";
     position = (289 242);
     states = ("1" "2" "3" "4" "5" "6" "7" "8" "9" "10" "11" "12" "13" "14" "15" "16" "17" "18" "19" "20");
}

node 813
{
     label = "RankTeamX";
     position = (526 228);
     states = ("1" "2" "3" "4" "5" "6" "7" "8" "9" "10" "11" "12" "13" "14" "15" "16" "17" "18" "19" "20");
}

node 811
{
     label = "RankTeam3";
     position = (407 240);
     states = ("1" "2" "3" "4" "5" "6" "7" "8" "9" "10" "11" "12" "13" "14" "15" "16" "17" "18" "19" "20");
}

node 814
{
     label = "RankTeamX";
     position = (607 217);
     states = ("1" "2" "3" "4" "5" "6" "7" "8" "9" "10" "11" "12" "13" "14" "15" "16" "17" "18" "19" "20");
}

node 815
{
     label = "RankTeamX";
     position = (686 216);
     states = ("1" "2" "3" "4" "5" "6" "7" "8" "9" "10" "11" "12" "13" "14" "15" "16" "17" "18" "19" "20");
}

node 816
{
     label = "RankTeamX";
     position = (759 221);
     states = ("1" "2" "3" "4" "5" "6" "7" "8" "9" "10" "11" "12" "13" "14" "15" "16" "17" "18" "19" "20");
}

node 817
{
     label = "RankTeamX";
     position = (859 215);
     states = ("1" "2" "3" "4" "5" "6" "7" "8" "9" "10" "11" "12" "13" "14" "15" "16" "17" "18" "19" "20");
}

node 818
{
     label = "RankTeamX";
     position = (951 222);
     states = ("1" "2" "3" "4" "5" "6" "7" "8" "9" "10" "11" "12" "13" "14" "15" "16" "17" "18" "19" "20");
}

node 819
{
     label = "RankTeamX";
     position = (1050 225);
     states = ("1" "2" "3" "4" "5" "6" "7" "8" "9" "10" "11" "12" "13" "14" "15" "16" "17" "18" "19" "20");
}

potential (808)
{
 data = ( 0.05 0.05 0.05 0.05 0.05 0.05 0.05 0.05 0.05 0.05 0.05 0.05 0.05 0.05 0.05 0.05 0.05 0.05 0.05 0.05 );
}

potential (812 | 808)
{
 data = (( 0.0 0.052631572 0.052631572 0.052631572 0.052631572 0.052631572 0.052631572 0.052631572 0.052631572 0.052631572 0.052631572 0.052631572 0.052631572 0.052631572 0.052631572 0.052631572 0.052631572 0.052631572 0.052631572 0.052631572 )
( 0.052631572 0.0 0.052631572 0.052631572 0.052631572 0.052631572 0.052631572 0.052631572 0.052631572 0.052631572 0.052631572 0.052631572 0.052631572 0.052631572 0.052631572 0.052631572 0.052631572 0.052631572 0.052631572 0.052631572 )
( 0.052631572 0.052631572 0.0 0.052631572 0.052631572 0.052631572 0.052631572 0.052631572 0.052631572 0.052631572 0.052631572 0.052631572 0.052631572 0.052631572 0.052631572 0.052631572 0.052631572 0.052631572 0.052631572 0.052631572 )
( 0.052631572 0.052631572 0.052631572 0.0 0.052631572 0.052631572 0.052631572 0.052631572 0.052631572 0.052631572 0.052631572 0.052631572 0.052631572 0.052631572 0.052631572 0.052631572 0.052631572 0.052631572 0.052631572 0.052631572 )
( 0.052631572 0.052631572 0.052631572 0.052631572 0.0 0.052631572 0.052631572 0.052631572 0.052631572 0.052631572 0.052631572 0.052631572 0.052631572 0.052631572 0.052631572 0.052631572 0.052631572 0.052631572 0.052631572 0.052631572 )
( 0.052631572 0.052631572 0.052631572 0.052631572 0.052631572 0.0 0.052631572 0.052631572 0.052631572 0.052631572 0.052631572 0.052631572 0.052631572 0.052631572 0.052631572 0.052631572 0.052631572 0.052631572 0.052631572 0.052631572 )
( 0.052631572 0.052631572 0.052631572 0.052631572 0.052631572 0.052631572 0.0 0.052631572 0.052631572 0.052631572 0.052631572 0.052631572 0.052631572 0.052631572 0.052631572 0.052631572 0.052631572 0.052631572 0.052631572 0.052631572 )
( 0.052631572 0.052631572 0.052631572 0.052631572 0.052631572 0.052631572 0.052631572 0.0 0.052631572 0.052631572 0.052631572 0.052631572 0.052631572 0.052631572 0.052631572 0.052631572 0.052631572 0.052631572 0.052631572 0.052631572 )
( 0.052631572 0.052631572 0.052631572 0.052631572 0.052631572 0.052631572 0.052631572 0.052631572 0.0 0.052631572 0.052631572 0.052631572 0.052631572 0.052631572 0.052631572 0.052631572 0.052631572 0.052631572 0.052631572 0.052631572 )
( 0.052631572 0.052631572 0.052631572 0.052631572 0.052631572 0.052631572 0.052631572 0.052631572 0.052631572 0.0 0.052631572 0.052631572 0.052631572 0.052631572 0.052631572 0.052631572 0.052631572 0.052631572 0.052631572 0.052631572 )
( 0.052631572 0.052631572 0.052631572 0.052631572 0.052631572 0.052631572 0.052631572 0.052631572 0.052631572 0.052631572 0.0 0.052631572 0.052631572 0.052631572 0.052631572 0.052631572 0.052631572 0.052631572 0.052631572 0.052631572 )
( 0.052631572 0.052631572 0.052631572 0.052631572 0.052631572 0.052631572 0.052631572 0.052631572 0.052631572 0.052631572 0.052631572 0.0 0.052631572 0.052631572 0.052631572 0.052631572 0.052631572 0.052631572 0.052631572 0.052631572 )
( 0.052631572 0.052631572 0.052631572 0.052631572 0.052631572 0.052631572 0.052631572 0.052631572 0.052631572 0.052631572 0.052631572 0.052631572 0.0 0.052631572 0.052631572 0.052631572 0.052631572 0.052631572 0.052631572 0.052631572 )
( 0.052631572 0.052631572 0.052631572 0.052631572 0.052631572 0.052631572 0.052631572 0.052631572 0.052631572 0.052631572 0.052631572 0.052631572 0.052631572 0.0 0.052631572 0.052631572 0.052631572 0.052631572 0.052631572 0.052631572 )
( 0.052631572 0.052631572 0.052631572 0.052631572 0.052631572 0.052631572 0.052631572 0.052631572 0.052631572 0.052631572 0.052631572 0.052631572 0.052631572 0.052631572 0.0 0.052631572 0.052631572 0.052631572 0.052631572 0.052631572 )
( 0.052631572 0.052631572 0.052631572 0.052631572 0.052631572 0.052631572 0.052631572 0.052631572 0.052631572 0.052631572 0.052631572 0.052631572 0.052631572 0.052631572 0.052631572 0.0 0.052631572 0.052631572 0.052631572 0.052631572 )
( 0.052631572 0.052631572 0.052631572 0.052631572 0.052631572 0.052631572 0.052631572 0.052631572 0.052631572 0.052631572 0.052631572 0.052631572 0.052631572 0.052631572 0.052631572 0.052631572 0.0 0.052631572 0.052631572 0.052631572 )
( 0.052631572 0.052631572 0.052631572 0.052631572 0.052631572 0.052631572 0.052631572 0.052631572 0.052631572 0.052631572 0.052631572 0.052631572 0.052631572 0.052631572 0.052631572 0.052631572 0.052631572 0.0 0.052631572 0.052631572 )
( 0.052631572 0.052631572 0.052631572 0.052631572 0.052631572 0.052631572 0.052631572 0.052631572 0.052631572 0.052631572 0.052631572 0.052631572 0.052631572 0.052631572 0.052631572 0.052631572 0.052631572 0.052631572 0.0 0.052631572 )
( 0.052631572 0.052631572 0.052631572 0.052631572 0.052631572 0.052631572 0.052631572 0.052631572 0.052631572 0.052631572 0.052631572 0.052631572 0.052631572 0.052631572 0.052631572 0.052631572 0.052631572 0.052631572 0.052631572 0.0 ));
}

potential (809)
{
 data = ( 0.05 0.05 0.05 0.05 0.05 0.05 0.05 0.05 0.05 0.05 0.05 0.05 0.05 0.05 0.05 0.05 0.05 0.05 0.05 0.05 );
}

potential (810)
{
 data = ( 0.05 0.05 0.05 0.05 0.05 0.05 0.05 0.05 0.05 0.05 0.05 0.05 0.05 0.05 0.05 0.05 0.05 0.05 0.05 0.05 );
}

potential (813)
{
 data = ( 0.05 0.05 0.05 0.05 0.05 0.05 0.05 0.05 0.05 0.05 0.05 0.05 0.05 0.05 0.05 0.05 0.05 0.05 0.05 0.05 );
}

potential (811)
{
 data = ( 0.05 0.05 0.05 0.05 0.05 0.05 0.05 0.05 0.05 0.05 0.05 0.05 0.05 0.05 0.05 0.05 0.05 0.05 0.05 0.05 );
}

potential (814)
{
 data = ( 0.05 0.05 0.05 0.05 0.05 0.05 0.05 0.05 0.05 0.05 0.05 0.05 0.05 0.05 0.05 0.05 0.05 0.05 0.05 0.05 );
}

potential (815)
{
 data = ( 0.05 0.05 0.05 0.05 0.05 0.05 0.05 0.05 0.05 0.05 0.05 0.05 0.05 0.05 0.05 0.05 0.05 0.05 0.05 0.05 );
}

potential (816)
{
 data = ( 0.05 0.05 0.05 0.05 0.05 0.05 0.05 0.05 0.05 0.05 0.05 0.05 0.05 0.05 0.05 0.05 0.05 0.05 0.05 0.05 );
}

potential (817)
{
 data = ( 0.05 0.05 0.05 0.05 0.05 0.05 0.05 0.05 0.05 0.05 0.05 0.05 0.05 0.05 0.05 0.05 0.05 0.05 0.05 0.05 );
}

potential (818)
{
 data = ( 0.05 0.05 0.05 0.05 0.05 0.05 0.05 0.05 0.05 0.05 0.05 0.05 0.05 0.05 0.05 0.05 0.05 0.05 0.05 0.05 );
}

potential (819)
{
 data = ( 0.05 0.05 0.05 0.05 0.05 0.05 0.05 0.05 0.05 0.05 0.05 0.05 0.05 0.05 0.05 0.05 0.05 0.05 0.05 0.05 );
}

