net
{
     node_size = (0 0);
     name = "DAGGRE";
     tree = "()";
     UnBBayes_Color_Probabilistic_Description = "-256";
     UnBBayes_Color_Probabilistic_Explanation = "-16711936";
}

node N0
{
     label = "";
     position = (21 85);
     states = ("0" "1");
}

node N1
{
     label = "";
     position = (306 80);
     states = ("0" "1" "2");
}

node N2
{
     label = "";
     position = (644 70);
     states = ("0" "1" "2" "3");
}

node N3
{
     label = "";
     position = (322 237);
     states = ("0" "1" "2" "3" "4");
}

potential (N0)
{
 data = ( 0.5 0.5 );
}

potential (N1 | N0)
{
 data = (( 0.33333337 0.33333337 0.33333337 )
( 0.33333337 0.33333337 0.33333337 ));
}

potential (N2 | N1)
{
 data = (( 0.25000003 0.25000003 0.25000003 0.25000003 )
( 0.25000003 0.25000003 0.25000003 0.25000003 )
( 0.25000003 0.25000003 0.25000003 0.25000003 ));
}

potential (N3 | N0 N2)
{
 data = ((( 0.2 0.2 0.2 0.2 0.2 )
( 0.2 0.2 0.2 0.2 0.2 )
( 0.2 0.2 0.2 0.2 0.2 )
( 0.2 0.2 0.2 0.2 0.2 ))
(( 0.2 0.2 0.2 0.2 0.2 )
( 0.2 0.2 0.2 0.2 0.2 )
( 0.2 0.2 0.2 0.2 0.2 )
( 0.2 0.2 0.2 0.2 0.2 )));
}

