net
{
     node_size = (0 0);
     name = "DAGGRE";
     tree = "()";
     UnBBayes_Color_Probabilistic_Description = "-256";
     UnBBayes_Color_Probabilistic_Explanation = "-16711936";
}

node N0
{
     label = "";
     position = (599 116);
     states = ("0" "1");
}

node N1
{
     label = "";
     position = (894 116);
     states = ("0" "1");
}

node N2
{
     label = "";
     position = (312 283);
     states = ("0" "1");
}

node N3
{
     label = "";
     position = (311 116);
     states = ("0" "1");
}

node N4
{
     label = "";
     position = (26 116);
     states = ("0" "1");
}

node N5
{
     label = "";
     position = (895 283);
     states = ("0" "1");
}

potential (N0 | N3)
{
 data = (( 0.30000004 0.7 )
( 0.9 0.10000004 ));
}

potential (N1 | N0)
{
 data = (( 0.10000001 0.9 )
( 0.6 0.40000004 ));
}

potential (N2 | N4 N3 N1)
{
 data = (((( 0.5 0.5 )
( 0.5 0.5 ))
(( 0.5 0.5 )
( 0.5 0.5 )))
((( 0.5 0.5 )
( 0.5 0.5 ))
(( 0.5 0.5 )
( 0.5 0.5 ))));
}

potential (N3 | N4)
{
 data = (( 0.19999999 0.79999995 )
( 0.50000006 0.49999994 ));
}

potential (N4)
{
 data = ( 0.9899999 0.00999999 );
}

potential (N5 | N1)
{
 data = (( 0.10000001 0.9 )
( 0.10000001 0.9 ));
}

