net
{
	node_size = (179 50);
	label = "toyNetwork";
	name = "toyNetwork";
}

node Node1
{
	label = "Node1";
	position = (100 100);
	states = ( "0" "1");
}

node Node2
{
	label = "Node2";
	position = (200 100);
	states = ( "0" "1");
}

node Node3
{
	label = "Node3";
	position = (300 100);
	states = ( "0" "1" "2");
}

node Node4
{
	label = "Node4";
	position = (400 100);
	states = ( "0" "1" "2");
}

node Node5
{
	label = "Node5";
	position = (500 100);
	states = ( "0" "1" "2");
}

node Node6
{
	label = "Node6";
	position = (100 200);
	states = ( "0" "1");
}

node Node7
{
	label = "Node7";
	position = (200 200);
	states = ( "0" "1");
}

node Node8
{
	label = "Node8";
	position = (300 200);
	states = ( "0" "1");
}

node Node9
{
	label = "Node9";
	position = (400 200);
	states = ( "0" "1");
}

node Node10
{
	label = "Node10";
	position = (500 200);
	states = ( "0" "1");
}

node Node11
{
	label = "Node11";
	position = (100 300);
	states = ( "0" "1" "2");
}

node Node12
{
	label = "Node12";
	position = (200 300);
	states = ( "0" "1" "2");
}

node Node13
{
	label = "Node13";
	position = (300 300);
	states = ( "0" "1");
}

node Node14
{
	label = "Node14";
	position = (400 300);
	states = ( "0" "1");
}

node Node15
{
	label = "Node15";
	position = (500 300);
	states = ( "0" "1");
}

potential (Node1)
{
	data = ( 0.50658 0.49342 );
}

potential (Node2 | Node3 Node4)
{
	data = ((( 0.074074 0.92593 )( 0.35897 0.64103 )( 0.93939 0.060606 ))(( 0.081481 0.91852 )( 0.44643 0.55357 )( 0.99057 0.009434 ))(( 0.15556 0.84444 )( 0.41848 0.58152 )( 0.97059 0.029412 )));
}

potential (Node3 | Node4)
{
	data = (( 0.12745 0.65686 0.21569 )( 0.20726 0.59722 0.19551 )( 0.10323 0.68065 0.21613 ));
}

potential (Node4)
{
	data = ( 0.13989 0.64681 0.2133 );
}

potential (Node5 | Node2 Node3)
{
	data = ((( 0.12621 0.86408 0.0097087 )( 0.010616 0.52654 0.46285 )( 0.02 0.48 0.5 ))(( 0.22368 0.76974 0.0065789 )( 0.15826 0.83716 0.0045872 )( 0.095238 0.89116 0.013605 )));
}

potential (Node6 | Node7)
{
	data = (( 0.11805 0.88195 )( 0.99859 0.0014124 ));
}

potential (Node7 | Node5)
{
	data = (( 0.58955 0.41045 )( 0.5442 0.4558 )( 0.35593 0.64407 ));
}

potential (Node8 | Node9)
{
	data = (( 0.98908 0.010925 )( 0.98611 0.013889 ));
}

potential (Node9 | Node11)
{
	data = (( 0.5 0.5 )( 0.94982 0.050182 )( 0.95714 0.042857 ));
}

potential (Node10 | Node11 Node12 Node13 Node14)
{
	data = ((((( 0.5 0.5 )( 0.5 0.5 ))(( 0.5 0.5 )( 0.5 0.5 )))((( 0.5 0.5 )( 0.5 0.5 ))(( 0.5 0.5 )( 0.5 0.5 )))((( 0.5 0.5 )( 0.5 0.5 ))(( 0.5 0.5 )( 0.5 0.5 ))))(((( 0.5 0.5 )( 0.5 0.5 ))(( 0.5 0.5 )( 0.5 0.5 )))((( 0.99753 0.0024691 )( 0.99254 0.0074627 ))(( 0.9977 0.0022989 )( 0.5 0.5 )))((( 0.5 0.5 )( 0.5 0.5 ))(( 0.5 0.5 )( 0.5 0.5 ))))(((( 0.5 0.5 )( 0.5 0.5 ))(( 0.5 0.5 )( 0.5 0.5 )))((( 0.5 0.5 )( 0.5 0.5 ))(( 0.5 0.5 )( 0.5 0.5 )))((( 0.98 0.02 )( 0.8 0.2 ))(( 0.89474 0.10526 )( 0.5 0.5 )))));
}

potential (Node11)
{
	data = ( 0.00069252 0.95152 0.047784 );
}

potential (Node12)
{
	data = ( 0.00069252 0.95152 0.047784 );
}

potential (Node13)
{
	data = ( 0.68746 0.31254 );
}

potential (Node14)
{
	data = ( 0.90575 0.094248 );
}

potential (Node15 | Node14)
{
	data = (( 0.94343 0.056575 )( 0.9927 0.0072993 ));
}


