net
{
     node_size = (0 0);
     name = "";
     tree = "()";
     HR_Color_Utility = "10";
     HR_Color_Decision = "30";
}

node FRAUDE
{
     label = "";
     position = (163 95);
     states = ("N" "S");
}

node SEXO
{
     label = "";
     position = (61 121);
     states = ("F" "M" "X");
}

node IDADE
{
     label = "";
     position = (79 374);
     states = ("1.0" "2.0" "3.0");
}

node LIMCONC
{
     label = "";
     position = (41 259);
     states = ("1" "2" "3" "4");
}

node VLTRAN
{
     label = "";
     position = (172 408);
     states = ("1.0" "2.0" "3.0" "4.0" "5.0");
}

node LOCALIDADE
{
     label = "";
     position = (243 118);
     states = ("N" "S" "X");
}

node HORARIO
{
     label = "";
     position = (118 71);
     states = ("1.0" "2.0" "3.0" "4.0");
}

node MCC
{
     label = "";
     position = (346 26);
     states = ("1" "2" "3" "4" "5" "6" "7" "8" "9" "10");
}

node SUPERMERCADO
{
     label = "";
     position = (401 475);
     states = ("N" "S");
}

node VESTUARIO
{
     label = "";
     position = (289 452);
     states = ("N" "S");
}

node POSTO
{
     label = "";
     position = (447 35);
     states = ("N" "S");
}

node FARMACIA
{
     label = "";
     position = (551 68);
     states = ("N" "S");
}

node RESTAURANTE
{
     label = "";
     position = (660 354);
     states = ("N" "S");
}

node DOMESTICA
{
     label = "";
     position = (538 454);
     states = ("N" "S");
}

node MODALIDADE
{
     label = "";
     position = (665 168);
     states = ("5.0" "1.0" "4.0" "3.0" "2.0" "6.0");
}

node LIMDISP
{
     label = "";
     position = (618 104);
     states = ("1" "2" "3" "4");
}

node ENTRYMODE
{
     label = "";
     position = (688 254);
     states = ("1.0" "2.0" "3.0");
}

potential (FRAUDE | FRAUDE FRAUDE)
{
 data = (( 0.9825671089170009 0.017432891082999075 )
( 0.0 0.0 ));
}

potential (SEXO | SEXO FRAUDE SEXO)
{
 data = ((( 0.43364941311929356 0.49547766427664036 0.07087292260406605 )
( 0.39667649423746987 0.5888501742160279 0.014473331546502278 ))
(( 0.0 0.0 0.0 )
( 0.0 0.0 0.0 ))
(( 0.0 0.0 0.0 )
( 0.0 0.0 0.0 )));
}

potential (IDADE | IDADE FRAUDE SEXO IDADE)
{
 data = (((( 0.25190353937638515 0.42838961665898667 0.3197068439646282 )
( 0.16059379217273953 0.4824561403508772 0.35695006747638325 ))
(( 0.24857644923709202 0.4371669179285776 0.31425663283433036 )
( 0.14051841746248295 0.5252387448840382 0.33424283765347884 ))
(( 0.2833937441267284 0.4015304067660089 0.3150758491072627 )
( 0.7142857142857143 0.17857142857142858 0.10714285714285714 )))
((( 0.0 0.0 0.0 )
( 0.0 0.0 0.0 ))
(( 0.0 0.0 0.0 )
( 0.0 0.0 0.0 ))
(( 0.0 0.0 0.0 )
( 0.0 0.0 0.0 )))
((( 0.0 0.0 0.0 )
( 0.0 0.0 0.0 ))
(( 0.0 0.0 0.0 )
( 0.0 0.0 0.0 ))
(( 0.0 0.0 0.0 )
( 0.0 0.0 0.0 ))));
}

potential (LIMCONC | LIMCONC SEXO IDADE FRAUDE LIMCONC)
{
 data = ((((( 0.14780298741453643 0.3253930235596394 0.33005269346339766 0.19675129556242651 )
( 0.15511780610274237 0.330745461568173 0.3197373503283121 0.1943993820007725 )
( 0.03621301775147929 0.2601183431952663 0.3384615384615385 0.36520710059171596 ))
(( 0.11337038080360573 0.3103280493738636 0.3515839073983969 0.22471766242413377 )
( 0.10571052053591039 0.3065231715352515 0.3506918515264661 0.23707445640237207 )
( 0.039097744360902256 0.2532999164578112 0.397827903091061 0.3097744360902256 ))
(( 0.09573482482929005 0.31805236248841917 0.3510620045980167 0.2351508080842741 )
( 0.0824625725633975 0.2893064466849985 0.35478154598227923 0.27344943476932476 )
( 0.02852884820097935 0.25824994677453694 0.36470087289759423 0.3485203321268895 )))
((( 0.12033195020746888 0.27385892116182575 0.24896265560165975 0.35684647302904565 )
( 0.10256410256410256 0.34935897435897434 0.21794871794871795 0.3301282051282051 )
( 0.023255813953488372 0.023255813953488372 0.4418604651162791 0.5116279069767442 ))
(( 0.06267409470752089 0.2924791086350975 0.318941504178273 0.32590529247910865 )
( 0.037996545768566495 0.24352331606217617 0.33074265975820377 0.38773747841105355 )
( 0.07692307692307693 0.46153846153846156 0.23076923076923078 0.23076923076923078 ))
(( 0.045112781954887216 0.2462406015037594 0.29699248120300753 0.4116541353383459 )
( 0.032520325203252036 0.14092140921409213 0.2777777777777778 0.5487804878048781 )
( 0.1111111111111111 0.1111111111111111 0.3333333333333333 0.4444444444444444 ))))
(((( 0.0 0.0 0.0 0.0 )
( 0.0 0.0 0.0 0.0 )
( 0.0 0.0 0.0 0.0 ))
(( 0.0 0.0 0.0 0.0 )
( 0.0 0.0 0.0 0.0 )
( 0.0 0.0 0.0 0.0 ))
(( 0.0 0.0 0.0 0.0 )
( 0.0 0.0 0.0 0.0 )
( 0.0 0.0 0.0 0.0 )))
((( 0.0 0.0 0.0 0.0 )
( 0.0 0.0 0.0 0.0 )
( 0.0 0.0 0.0 0.0 ))
(( 0.0 0.0 0.0 0.0 )
( 0.0 0.0 0.0 0.0 )
( 0.0 0.0 0.0 0.0 ))
(( 0.0 0.0 0.0 0.0 )
( 0.0 0.0 0.0 0.0 )
( 0.0 0.0 0.0 0.0 ))))
(((( 0.0 0.0 0.0 0.0 )
( 0.0 0.0 0.0 0.0 )
( 0.0 0.0 0.0 0.0 ))
(( 0.0 0.0 0.0 0.0 )
( 0.0 0.0 0.0 0.0 )
( 0.0 0.0 0.0 0.0 ))
(( 0.0 0.0 0.0 0.0 )
( 0.0 0.0 0.0 0.0 )
( 0.0 0.0 0.0 0.0 )))
((( 0.0 0.0 0.0 0.0 )
( 0.0 0.0 0.0 0.0 )
( 0.0 0.0 0.0 0.0 ))
(( 0.0 0.0 0.0 0.0 )
( 0.0 0.0 0.0 0.0 )
( 0.0 0.0 0.0 0.0 ))
(( 0.0 0.0 0.0 0.0 )
( 0.0 0.0 0.0 0.0 )
( 0.0 0.0 0.0 0.0 ))))
(((( 0.0 0.0 0.0 0.0 )
( 0.0 0.0 0.0 0.0 )
( 0.0 0.0 0.0 0.0 ))
(( 0.0 0.0 0.0 0.0 )
( 0.0 0.0 0.0 0.0 )
( 0.0 0.0 0.0 0.0 ))
(( 0.0 0.0 0.0 0.0 )
( 0.0 0.0 0.0 0.0 )
( 0.0 0.0 0.0 0.0 )))
((( 0.0 0.0 0.0 0.0 )
( 0.0 0.0 0.0 0.0 )
( 0.0 0.0 0.0 0.0 ))
(( 0.0 0.0 0.0 0.0 )
( 0.0 0.0 0.0 0.0 )
( 0.0 0.0 0.0 0.0 ))
(( 0.0 0.0 0.0 0.0 )
( 0.0 0.0 0.0 0.0 )
( 0.0 0.0 0.0 0.0 )))));
}

potential (VLTRAN | VLTRAN LIMCONC SEXO VLTRAN)
{
 data = (((( 0.5157825924542399 0.23944714232349645 0.16361598804632052 0.05416511019798281 0.026989166977960402 )
( 0.4350247736203656 0.23806594908593884 0.18916794806082352 0.09017597813087305 0.04756535110199898 )
( 0.4085977802094732 0.2236360794122245 0.19365327497264342 0.10586212287009536 0.06825074253556354 )
( 0.3559272867917231 0.21635080255269773 0.1995745503771031 0.12463740088957648 0.10350995938889963 ))
(( 0.5054614259912273 0.2317020727616754 0.1654769071987615 0.06072073621742496 0.03663885783091081 )
( 0.4229727233544732 0.23582291730804752 0.19219875623422203 0.09746936764977526 0.051536235453481925 )
( 0.39156989482909726 0.2230773444347064 0.19166301489921123 0.114181638913234 0.0795081069237511 )
( 0.3321416080519178 0.21214005362763766 0.19892744724672598 0.1350406093343178 0.12175028173940076 ))
(( 0.8068833652007649 0.13575525812619502 0.045889101338432124 0.0019120458891013384 0.009560229445506692 )
( 0.6800521512385919 0.18279009126466753 0.09674054758800521 0.03102998696219035 0.00938722294654498 )
( 0.6223864455659697 0.192141312184571 0.11896178803172314 0.04650324441240086 0.020007209805335255 )
( 0.5017779533781114 0.21058870011853023 0.1617937574081391 0.0752666930067167 0.050572896088502566 )))
((( 0.0 0.0 0.0 0.0 0.0 )
( 0.0 0.0 0.0 0.0 0.0 )
( 0.0 0.0 0.0 0.0 0.0 )
( 0.0 0.0 0.0 0.0 0.0 ))
(( 0.0 0.0 0.0 0.0 0.0 )
( 0.0 0.0 0.0 0.0 0.0 )
( 0.0 0.0 0.0 0.0 0.0 )
( 0.0 0.0 0.0 0.0 0.0 ))
(( 0.0 0.0 0.0 0.0 0.0 )
( 0.0 0.0 0.0 0.0 0.0 )
( 0.0 0.0 0.0 0.0 0.0 )
( 0.0 0.0 0.0 0.0 0.0 )))
((( 0.0 0.0 0.0 0.0 0.0 )
( 0.0 0.0 0.0 0.0 0.0 )
( 0.0 0.0 0.0 0.0 0.0 )
( 0.0 0.0 0.0 0.0 0.0 ))
(( 0.0 0.0 0.0 0.0 0.0 )
( 0.0 0.0 0.0 0.0 0.0 )
( 0.0 0.0 0.0 0.0 0.0 )
( 0.0 0.0 0.0 0.0 0.0 ))
(( 0.0 0.0 0.0 0.0 0.0 )
( 0.0 0.0 0.0 0.0 0.0 )
( 0.0 0.0 0.0 0.0 0.0 )
( 0.0 0.0 0.0 0.0 0.0 )))
((( 0.0 0.0 0.0 0.0 0.0 )
( 0.0 0.0 0.0 0.0 0.0 )
( 0.0 0.0 0.0 0.0 0.0 )
( 0.0 0.0 0.0 0.0 0.0 ))
(( 0.0 0.0 0.0 0.0 0.0 )
( 0.0 0.0 0.0 0.0 0.0 )
( 0.0 0.0 0.0 0.0 0.0 )
( 0.0 0.0 0.0 0.0 0.0 ))
(( 0.0 0.0 0.0 0.0 0.0 )
( 0.0 0.0 0.0 0.0 0.0 )
( 0.0 0.0 0.0 0.0 0.0 )
( 0.0 0.0 0.0 0.0 0.0 )))
((( 0.0 0.0 0.0 0.0 0.0 )
( 0.0 0.0 0.0 0.0 0.0 )
( 0.0 0.0 0.0 0.0 0.0 )
( 0.0 0.0 0.0 0.0 0.0 ))
(( 0.0 0.0 0.0 0.0 0.0 )
( 0.0 0.0 0.0 0.0 0.0 )
( 0.0 0.0 0.0 0.0 0.0 )
( 0.0 0.0 0.0 0.0 0.0 ))
(( 0.0 0.0 0.0 0.0 0.0 )
( 0.0 0.0 0.0 0.0 0.0 )
( 0.0 0.0 0.0 0.0 0.0 )
( 0.0 0.0 0.0 0.0 0.0 ))));
}

potential (LOCALIDADE | LOCALIDADE VLTRAN LIMCONC FRAUDE LOCALIDADE)
{
 data = ((((( 0.5707793878075966 0.08162565377690131 0.34759495841550203 )
( 0.5551158846806105 0.0444695684944413 0.4004145468249482 )
( 0.5031173759826512 0.02060178910273787 0.476280834914611 )
( 0.3504273504273504 7.77000777000777E-4 0.6487956487956488 )
( 0.3416666666666667 0.001388888888888889 0.6569444444444444 ))
(( 0.5652706343374969 0.08092788915713237 0.3538014765053707 )
( 0.584690769434512 0.04648390941597139 0.3688253211495166 )
( 0.5829935934769948 0.031200599051501788 0.38580580747150345 )
( 0.5660826671202586 0.010205817315870046 0.42371151556387143 )
( 0.4732258064516129 0.0016129032258064516 0.5251612903225806 ))
(( 0.5656762193714342 0.07634468885004782 0.35797909177851794 )
( 0.6049559060986213 0.04409390137871072 0.350950192522668 )
( 0.6148376218752291 0.03313540063045231 0.3520269774943186 )
( 0.6148955495004541 0.0180355520954976 0.36706889840404827 )
( 0.5757810983892878 0.010867455850960606 0.4133514457597516 ))
(( 0.5539704653106715 0.07901922541097799 0.3670103092783505 )
( 0.5852676900037439 0.055690752527143395 0.3590415574691127 )
( 0.596254758720033 0.044037452412799674 0.3597077888671674 )
( 0.6003552397868561 0.027288874535766186 0.3723558856773777 )
( 0.6071560309848765 0.021947620804131318 0.37089634821099227 )))
((( 0.7901234567901234 0.006172839506172839 0.2037037037037037 )
( 0.72 0.04 0.24 )
( 0.8571428571428571 0.07142857142857142 0.07142857142857142 )
( 0.3333333333333333 0.3333333333333333 0.3333333333333333 )
( 0.3333333333333333 0.3333333333333333 0.3333333333333333 ))
(( 0.784 0.018 0.198 )
( 0.7729257641921398 0.004366812227074236 0.22270742358078602 )
( 0.8880597014925373 0.014925373134328358 0.09701492537313433 )
( 0.8958333333333334 0.020833333333333332 0.08333333333333333 )
( 0.6 0.2 0.2 ))
(( 0.8176352705410822 0.004008016032064128 0.17835671342685372 )
( 0.7924528301886793 0.01509433962264151 0.19245283018867926 )
( 0.7990654205607477 0.014018691588785047 0.18691588785046728 )
( 0.8165137614678899 0.009174311926605505 0.1743119266055046 )
( 0.6808510638297872 0.02127659574468085 0.2978723404255319 ))
(( 0.7790927021696252 0.021696252465483234 0.1992110453648915 )
( 0.8244514106583072 0.01567398119122257 0.15987460815047022 )
( 0.8028571428571428 0.014285714285714285 0.18285714285714286 )
( 0.8237704918032787 0.020491803278688523 0.1557377049180328 )
( 0.7117117117117117 0.02702702702702703 0.26126126126126126 ))))
(((( 0.0 0.0 0.0 )
( 0.0 0.0 0.0 )
( 0.0 0.0 0.0 )
( 0.0 0.0 0.0 )
( 0.0 0.0 0.0 ))
(( 0.0 0.0 0.0 )
( 0.0 0.0 0.0 )
( 0.0 0.0 0.0 )
( 0.0 0.0 0.0 )
( 0.0 0.0 0.0 ))
(( 0.0 0.0 0.0 )
( 0.0 0.0 0.0 )
( 0.0 0.0 0.0 )
( 0.0 0.0 0.0 )
( 0.0 0.0 0.0 ))
(( 0.0 0.0 0.0 )
( 0.0 0.0 0.0 )
( 0.0 0.0 0.0 )
( 0.0 0.0 0.0 )
( 0.0 0.0 0.0 )))
((( 0.0 0.0 0.0 )
( 0.0 0.0 0.0 )
( 0.0 0.0 0.0 )
( 0.0 0.0 0.0 )
( 0.0 0.0 0.0 ))
(( 0.0 0.0 0.0 )
( 0.0 0.0 0.0 )
( 0.0 0.0 0.0 )
( 0.0 0.0 0.0 )
( 0.0 0.0 0.0 ))
(( 0.0 0.0 0.0 )
( 0.0 0.0 0.0 )
( 0.0 0.0 0.0 )
( 0.0 0.0 0.0 )
( 0.0 0.0 0.0 ))
(( 0.0 0.0 0.0 )
( 0.0 0.0 0.0 )
( 0.0 0.0 0.0 )
( 0.0 0.0 0.0 )
( 0.0 0.0 0.0 ))))
(((( 0.0 0.0 0.0 )
( 0.0 0.0 0.0 )
( 0.0 0.0 0.0 )
( 0.0 0.0 0.0 )
( 0.0 0.0 0.0 ))
(( 0.0 0.0 0.0 )
( 0.0 0.0 0.0 )
( 0.0 0.0 0.0 )
( 0.0 0.0 0.0 )
( 0.0 0.0 0.0 ))
(( 0.0 0.0 0.0 )
( 0.0 0.0 0.0 )
( 0.0 0.0 0.0 )
( 0.0 0.0 0.0 )
( 0.0 0.0 0.0 ))
(( 0.0 0.0 0.0 )
( 0.0 0.0 0.0 )
( 0.0 0.0 0.0 )
( 0.0 0.0 0.0 )
( 0.0 0.0 0.0 )))
((( 0.0 0.0 0.0 )
( 0.0 0.0 0.0 )
( 0.0 0.0 0.0 )
( 0.0 0.0 0.0 )
( 0.0 0.0 0.0 ))
(( 0.0 0.0 0.0 )
( 0.0 0.0 0.0 )
( 0.0 0.0 0.0 )
( 0.0 0.0 0.0 )
( 0.0 0.0 0.0 ))
(( 0.0 0.0 0.0 )
( 0.0 0.0 0.0 )
( 0.0 0.0 0.0 )
( 0.0 0.0 0.0 )
( 0.0 0.0 0.0 ))
(( 0.0 0.0 0.0 )
( 0.0 0.0 0.0 )
( 0.0 0.0 0.0 )
( 0.0 0.0 0.0 )
( 0.0 0.0 0.0 )))));
}

potential (HORARIO | HORARIO VLTRAN SEXO HORARIO)
{
 data = (((( 0.3869199948300375 0.2577484813235104 0.19224505622334237 0.16308646762310974 )
( 0.44524788506073065 0.25658112387163856 0.16281487782976511 0.13535611323786567 )
( 0.46507666098807493 0.25797842135150484 0.14588302101078932 0.1310618966496309 )
( 0.5225961014918872 0.23826636175541763 0.12033104649896548 0.11880649025372972 )
( 0.547210657785179 0.23097418817651957 0.1109075770191507 0.1109075770191507 ))
(( 0.3776024493641074 0.2496938294865756 0.19738577484691475 0.17531794630240227 )
( 0.43292428416395357 0.24392687202604557 0.1749728691877452 0.14817597462225562 )
( 0.4525241569710116 0.2438868073358312 0.16303490435811477 0.1405541313350424 )
( 0.48298020145883985 0.23046196596040291 0.1500521014241056 0.13650573115665163 )
( 0.5087266470009832 0.232055063913471 0.1338495575221239 0.12536873156342182 ))
(( 0.47412168901695667 0.2500277069710739 0.15881635819572204 0.11703424581624737 )
( 0.5915977961432507 0.22486225895316805 0.11363636363636363 0.06990358126721763 )
( 0.6216648879402348 0.20811099252934898 0.09445037353255069 0.07577374599786553 )
( 0.6574440052700923 0.19235836627140976 0.06060606060606061 0.08959156785243742 )
( 0.7083333333333334 0.1323529411764706 0.07352941176470588 0.0857843137254902 )))
((( 0.0 0.0 0.0 0.0 )
( 0.0 0.0 0.0 0.0 )
( 0.0 0.0 0.0 0.0 )
( 0.0 0.0 0.0 0.0 )
( 0.0 0.0 0.0 0.0 ))
(( 0.0 0.0 0.0 0.0 )
( 0.0 0.0 0.0 0.0 )
( 0.0 0.0 0.0 0.0 )
( 0.0 0.0 0.0 0.0 )
( 0.0 0.0 0.0 0.0 ))
(( 0.0 0.0 0.0 0.0 )
( 0.0 0.0 0.0 0.0 )
( 0.0 0.0 0.0 0.0 )
( 0.0 0.0 0.0 0.0 )
( 0.0 0.0 0.0 0.0 )))
((( 0.0 0.0 0.0 0.0 )
( 0.0 0.0 0.0 0.0 )
( 0.0 0.0 0.0 0.0 )
( 0.0 0.0 0.0 0.0 )
( 0.0 0.0 0.0 0.0 ))
(( 0.0 0.0 0.0 0.0 )
( 0.0 0.0 0.0 0.0 )
( 0.0 0.0 0.0 0.0 )
( 0.0 0.0 0.0 0.0 )
( 0.0 0.0 0.0 0.0 ))
(( 0.0 0.0 0.0 0.0 )
( 0.0 0.0 0.0 0.0 )
( 0.0 0.0 0.0 0.0 )
( 0.0 0.0 0.0 0.0 )
( 0.0 0.0 0.0 0.0 )))
((( 0.0 0.0 0.0 0.0 )
( 0.0 0.0 0.0 0.0 )
( 0.0 0.0 0.0 0.0 )
( 0.0 0.0 0.0 0.0 )
( 0.0 0.0 0.0 0.0 ))
(( 0.0 0.0 0.0 0.0 )
( 0.0 0.0 0.0 0.0 )
( 0.0 0.0 0.0 0.0 )
( 0.0 0.0 0.0 0.0 )
( 0.0 0.0 0.0 0.0 ))
(( 0.0 0.0 0.0 0.0 )
( 0.0 0.0 0.0 0.0 )
( 0.0 0.0 0.0 0.0 )
( 0.0 0.0 0.0 0.0 )
( 0.0 0.0 0.0 0.0 ))));
}

potential (MCC | MCC VLTRAN HORARIO LOCALIDADE MCC)
{
 data = ((((( 0.0565766505801417 0.022538248280110893 0.03029058424889619 0.02787760550364514 0.05262347263579423 0.06710134510730055 0.034295102166546874 0.08563507546976075 0.17650682821644934 0.44655508779135433 )
( 0.052695287282117496 0.011378308586184636 0.057617817947062624 0.0289703034215623 0.056407359586830214 0.06705939315687541 0.041236281471917366 0.08868624919302776 0.21094254357650097 0.38500645577792125 )
( 0.04773002703458563 0.009322270905192505 0.09126503216183462 0.027221031043162116 0.07224759951524191 0.06777290948074952 0.04232310990957397 0.09480749510580777 0.2284888598862683 0.3188216649575837 )
( 0.025351202971096398 0.006943323106733409 0.11416114968512837 0.02212175036331342 0.08331987728080091 0.0658808331987728 0.038269013402228325 0.1093169707734539 0.3064750524786049 0.2281608267398676 )
( 0.014057198254968492 0.007028599127484246 0.1047018904507998 0.013572467280659235 0.09088705768298594 0.05380513814832768 0.03538536112457586 0.12724188075618031 0.37178865729520116 0.18153174987881726 ))
(( 0.05039931767077615 0.01426688377141971 0.019306815538497325 0.01597270683104598 0.04349848802046988 0.06381328991238272 0.028998992013646585 0.07691711250678453 0.18748546173528727 0.4993409319996899 )
( 0.05492478001703094 0.003122338915696849 0.03335225659948907 0.014050525120635822 0.04584161226227647 0.058189043428895824 0.040448481407891 0.08288390576213454 0.2304853817768947 0.4367016747090548 )
( 0.04022498721663542 0.0017044486108743822 0.06783705471280041 0.01619226180330663 0.057780807908641554 0.06118970513039032 0.04721322652122038 0.09647179137549003 0.26026930288051814 0.3511164138401227 )
( 0.01874573960463531 0.0010224948875255625 0.08997955010224949 0.010565780504430812 0.07839127471029311 0.0514655760054533 0.03851397409679618 0.1111111111111111 0.3503749147920927 0.2498295841854124 )
( 0.008296460176991151 0.0038716814159292035 0.07300884955752213 0.00497787610619469 0.10011061946902655 0.04480088495575221 0.03982300884955752 0.1084070796460177 0.4280973451327434 0.1886061946902655 ))
(( 0.03916937309319949 0.020667257159728374 0.008758980415313453 0.0025588032673949414 0.024702293081389628 0.040842436768034646 0.021749827772857003 0.1082570613128629 0.2122822556834957 0.5210117114457239 )
( 0.04123076923076923 0.014564102564102564 0.02276923076923077 0.003076923076923077 0.02707692307692308 0.049435897435897436 0.022358974358974357 0.09517948717948718 0.2582564102564103 0.46605128205128205 )
( 0.031687351465540005 0.017692104568259835 0.04990757855822551 5.281225244256667E-4 0.03538420913651967 0.04753102719831001 0.029046738843411673 0.10720887245841035 0.30472669659360974 0.3762872986532876 )
( 0.021971830985915493 0.012394366197183098 0.04619718309859155 0.0022535211267605635 0.056901408450704224 0.030422535211267605 0.021971830985915493 0.14535211267605633 0.4208450704225352 0.24169014084507043 )
( 0.005429864253393665 0.008144796380090498 0.028054298642533938 9.049773755656109E-4 0.09592760180995476 0.03257918552036199 0.012669683257918552 0.16470588235294117 0.49411764705882355 0.15746606334841629 ))
(( 0.029566811826724732 0.02842081136832455 0.01994040797616319 0.022920009168003668 0.028077011230804493 0.039766215906486366 0.014210405684162274 0.0987852395140958 0.2569333027733211 0.4613797845519138 )
( 0.020206879961510705 0.008178975222516238 0.04402213134471975 0.019485205677171036 0.02862641327880683 0.042578782776040415 0.01828241520327159 0.09886937695453452 0.34159249458744284 0.378157324993986 )
( 0.01463860933211345 0.007624275693809088 0.10125038121378468 0.015858493443122904 0.03019213174748399 0.03202195791399817 0.014028667276608722 0.11863372979566941 0.39615736505032023 0.26959438853308937 )
( 0.00411764705882353 0.005294117647058823 0.10176470588235294 0.00823529411764706 0.014705882352941176 0.03529411764705882 0.01588235294117647 0.13470588235294118 0.5523529411764706 0.12764705882352942 )
( 0.001851851851851852 0.007407407407407408 0.06111111111111111 0.008333333333333333 0.012037037037037037 0.019444444444444445 0.03333333333333333 0.17222222222222222 0.5824074074074074 0.10185185185185185 )))
((( 0.06320400500625782 0.008135168961201502 0.002190237797246558 0.016270337922403004 0.02190237797246558 0.05225281602002503 0.03660826032540676 0.08010012515644556 0.21777221526908636 0.5015644555694618 )
( 0.03700724054706356 0.0016090104585679806 0.009654062751407884 0.015285599356395816 0.03298471440064361 0.04344328238133548 0.03700724054706356 0.058728881737731296 0.3169750603378922 0.4473049074818986 )
( 0.02784503631961259 0.007263922518159807 0.026634382566585957 0.020581113801452784 0.04721549636803874 0.026634382566585957 0.03268765133171913 0.0387409200968523 0.4067796610169492 0.36561743341404357 )
( 0.044444444444444446 0.003703703703703704 0.05555555555555555 0.037037037037037035 0.05555555555555555 0.03333333333333333 0.040740740740740744 0.040740740740740744 0.5037037037037037 0.18518518518518517 )
( 0.022900763358778626 0.007633587786259542 0.04580152671755725 0.015267175572519083 0.03816793893129771 0.015267175572519083 0.03816793893129771 0.12213740458015267 0.5954198473282443 0.09923664122137404 ))
(( 0.04945054945054945 0.0038461538461538464 5.494505494505495E-4 0.0027472527472527475 0.01098901098901099 0.05879120879120879 0.01868131868131868 0.06593406593406594 0.21318681318681318 0.5758241758241758 )
( 0.05027932960893855 0.0037243947858473 0.0111731843575419 0.0111731843575419 0.0148975791433892 0.06517690875232775 0.0186219739292365 0.0335195530726257 0.29236499068901306 0.49906890130353815 )
( 0.024539877300613498 0.006134969325153374 0.012269938650306749 0.027607361963190184 0.027607361963190184 0.03680981595092025 0.05828220858895705 0.02147239263803681 0.34662576687116564 0.4386503067484663 )
( 0.028169014084507043 0.014084507042253521 0.028169014084507043 0.014084507042253521 0.028169014084507043 0.014084507042253521 0.04225352112676056 0.014084507042253521 0.5211267605633803 0.29577464788732394 )
( 0.04878048780487805 0.07317073170731707 0.04878048780487805 0.024390243902439025 0.024390243902439025 0.07317073170731707 0.04878048780487805 0.07317073170731707 0.43902439024390244 0.14634146341463414 ))
(( 0.02414654454621149 0.017485428809325562 0.0016652789342214821 0.002497918401332223 0.00749375520399667 0.03996669442131557 0.00749375520399667 0.06910907577019151 0.20982514571190675 0.6203164029975021 )
( 0.02702702702702703 0.016891891891891893 0.0033783783783783786 0.0033783783783783786 0.006756756756756757 0.04054054054054054 0.016891891891891893 0.016891891891891893 0.26013513513513514 0.6081081081081081 )
( 0.022058823529411766 0.022058823529411766 0.007352941176470588 0.014705882352941176 0.014705882352941176 0.051470588235294115 0.014705882352941176 0.014705882352941176 0.29411764705882354 0.5441176470588235 )
( 0.025 0.025 0.05 0.025 0.05 0.025 0.075 0.075 0.325 0.325 )
( 0.038461538461538464 0.07692307692307693 0.038461538461538464 0.038461538461538464 0.038461538461538464 0.038461538461538464 0.11538461538461539 0.07692307692307693 0.46153846153846156 0.07692307692307693 ))
(( 0.011961722488038277 0.02033492822966507 0.0023923444976076554 0.0035885167464114833 0.008373205741626795 0.005980861244019139 0.0023923444976076554 0.07894736842105263 0.3624401913875598 0.5035885167464115 )
( 0.03333333333333333 0.004761904761904762 0.014285714285714285 0.009523809523809525 0.01904761904761905 0.004761904761904762 0.009523809523809525 0.04285714285714286 0.5 0.3619047619047619 )
( 0.011627906976744186 0.011627906976744186 0.011627906976744186 0.011627906976744186 0.023255813953488372 0.011627906976744186 0.011627906976744186 0.011627906976744186 0.6162790697674418 0.27906976744186046 )
( 0.03571428571428571 0.03571428571428571 0.17857142857142858 0.03571428571428571 0.03571428571428571 0.03571428571428571 0.03571428571428571 0.14285714285714285 0.39285714285714285 0.07142857142857142 )
( 0.047619047619047616 0.047619047619047616 0.2857142857142857 0.047619047619047616 0.047619047619047616 0.047619047619047616 0.047619047619047616 0.09523809523809523 0.23809523809523808 0.09523809523809523 )))
((( 0.07362254591513616 0.04100696643445219 0.03966117796073464 0.04171944268524382 0.04203609879670678 0.05786890436985434 0.050823305889803674 0.06570614312856238 0.15373654211526283 0.4338188727042432 )
( 0.07275718081741112 0.01429836770846514 0.078577755282804 0.044540048083006455 0.04238896621536126 0.055295457421232444 0.061242566114133874 0.06427938757433886 0.17866632924205997 0.3879539415411869 )
( 0.06535388127853882 0.01113013698630137 0.11472602739726027 0.04009703196347032 0.0646404109589041 0.059931506849315065 0.06292808219178082 0.06378424657534247 0.20704908675799086 0.3103595890410959 )
( 0.04000904159132007 0.008589511754068717 0.16478300180831826 0.036618444846292945 0.07278481012658228 0.05357142857142857 0.05334538878842676 0.07097649186256781 0.2493218806509946 0.25 )
( 0.029276693455797934 0.004305396096440872 0.18685419058553387 0.02439724454649828 0.07175660160734787 0.04879448909299656 0.04535017221584386 0.07520091848450057 0.29879448909299655 0.21526980482204364 ))
(( 0.08047671704140558 0.03280501290084777 0.02199287381742229 0.017692591227423518 0.029364786828848754 0.05246344759798501 0.04472293893598722 0.06352131711512471 0.1631650079862391 0.49379530654871606 )
( 0.07299771167048055 0.0013729977116704805 0.04965675057208238 0.015102974828375287 0.03729977116704806 0.05217391304347826 0.05148741418764302 0.05491990846681922 0.20411899313501145 0.4608695652173913 )
( 0.07108239095315025 0.005654281098546042 0.10339256865912763 0.021540118470651588 0.055196553581044694 0.04415724286483576 0.0683898761443188 0.048465266558966075 0.2334410339256866 0.34868066774367257 )
( 0.03233830845771144 0.001990049751243781 0.13233830845771144 0.018407960199004977 0.07114427860696518 0.04975124378109453 0.0626865671641791 0.056716417910447764 0.33880597014925373 0.23582089552238805 )
( 0.0205706702057067 0.0026542800265428003 0.15063039150630392 0.017252820172528202 0.0756469807564698 0.034505640345056404 0.039814200398142006 0.055739880557398806 0.3921698739216987 0.21101526211015262 ))
(( 0.06457065584854632 0.03059499661933739 0.013522650439486139 0.0016903313049357674 0.015382014874915483 0.035665990534144695 0.022481406355645706 0.0720081135902637 0.17985125084516565 0.5642325895875592 )
( 0.06021962451292951 0.019482819695359546 0.029047113000354233 0.0021253985122210413 0.012043924902585901 0.04215373715905066 0.02975557917109458 0.05596882748848742 0.23131420474672335 0.5178887708111938 )
( 0.052387575336114975 0.01808066759388039 0.07649513212795549 0.0018544274455261937 0.0315252665739453 0.02642559109874826 0.04218822438572091 0.06212331942512749 0.27491886879925825 0.4140009272137228 )
( 0.013748854262144821 0.011915673693858845 0.08982584784601283 9.165902841429881E-4 0.043996333638863426 0.026581118240146653 0.03666361136571952 0.08890925756186985 0.40513290559120074 0.28230980751604035 )
( 0.00881057268722467 0.0014684287812041115 0.06607929515418502 0.005873715124816446 0.05433186490455213 0.02936857562408223 0.03524229074889868 0.08223201174743025 0.4919236417033774 0.22466960352422907 ))
(( 0.03375047402351156 0.03659461509290861 0.027872582480091012 0.029389457717102767 0.013272658323852863 0.024080394387561623 0.019340159271899887 0.07034508911642018 0.23151308304891924 0.5138414865377323 )
( 0.023276240667545016 0.00922266139657444 0.06982872200263504 0.027228809837505488 0.012736056214317084 0.014931927975406236 0.020202020202020204 0.06455862977602109 0.34606938954765043 0.411945542380325 )
( 0.018848700967906265 0.007641365257259297 0.1599592460519613 0.022414671421293938 0.022414671421293938 0.014773306164034642 0.018848700967906265 0.06673458991339785 0.3892002037697402 0.2791645440652063 )
( 0.003883495145631068 0.0048543689320388345 0.2145631067961165 0.011650485436893204 0.020388349514563107 0.009708737864077669 0.014563106796116505 0.05533980582524272 0.5310679611650485 0.13398058252427184 )
( 0.0030911901081916537 0.00463678516228748 0.19629057187017002 0.013910355486862442 0.0077279752704791345 0.0077279752704791345 0.010819165378670788 0.0695517774343122 0.616692426584235 0.0695517774343122 ))))
(((( 0.0 0.0 0.0 0.0 0.0 0.0 0.0 0.0 0.0 0.0 )
( 0.0 0.0 0.0 0.0 0.0 0.0 0.0 0.0 0.0 0.0 )
( 0.0 0.0 0.0 0.0 0.0 0.0 0.0 0.0 0.0 0.0 )
( 0.0 0.0 0.0 0.0 0.0 0.0 0.0 0.0 0.0 0.0 )
( 0.0 0.0 0.0 0.0 0.0 0.0 0.0 0.0 0.0 0.0 ))
(( 0.0 0.0 0.0 0.0 0.0 0.0 0.0 0.0 0.0 0.0 )
( 0.0 0.0 0.0 0.0 0.0 0.0 0.0 0.0 0.0 0.0 )
( 0.0 0.0 0.0 0.0 0.0 0.0 0.0 0.0 0.0 0.0 )
( 0.0 0.0 0.0 0.0 0.0 0.0 0.0 0.0 0.0 0.0 )
( 0.0 0.0 0.0 0.0 0.0 0.0 0.0 0.0 0.0 0.0 ))
(( 0.0 0.0 0.0 0.0 0.0 0.0 0.0 0.0 0.0 0.0 )
( 0.0 0.0 0.0 0.0 0.0 0.0 0.0 0.0 0.0 0.0 )
( 0.0 0.0 0.0 0.0 0.0 0.0 0.0 0.0 0.0 0.0 )
( 0.0 0.0 0.0 0.0 0.0 0.0 0.0 0.0 0.0 0.0 )
( 0.0 0.0 0.0 0.0 0.0 0.0 0.0 0.0 0.0 0.0 ))
(( 0.0 0.0 0.0 0.0 0.0 0.0 0.0 0.0 0.0 0.0 )
( 0.0 0.0 0.0 0.0 0.0 0.0 0.0 0.0 0.0 0.0 )
( 0.0 0.0 0.0 0.0 0.0 0.0 0.0 0.0 0.0 0.0 )
( 0.0 0.0 0.0 0.0 0.0 0.0 0.0 0.0 0.0 0.0 )
( 0.0 0.0 0.0 0.0 0.0 0.0 0.0 0.0 0.0 0.0 )))
((( 0.0 0.0 0.0 0.0 0.0 0.0 0.0 0.0 0.0 0.0 )
( 0.0 0.0 0.0 0.0 0.0 0.0 0.0 0.0 0.0 0.0 )
( 0.0 0.0 0.0 0.0 0.0 0.0 0.0 0.0 0.0 0.0 )
( 0.0 0.0 0.0 0.0 0.0 0.0 0.0 0.0 0.0 0.0 )
( 0.0 0.0 0.0 0.0 0.0 0.0 0.0 0.0 0.0 0.0 ))
(( 0.0 0.0 0.0 0.0 0.0 0.0 0.0 0.0 0.0 0.0 )
( 0.0 0.0 0.0 0.0 0.0 0.0 0.0 0.0 0.0 0.0 )
( 0.0 0.0 0.0 0.0 0.0 0.0 0.0 0.0 0.0 0.0 )
( 0.0 0.0 0.0 0.0 0.0 0.0 0.0 0.0 0.0 0.0 )
( 0.0 0.0 0.0 0.0 0.0 0.0 0.0 0.0 0.0 0.0 ))
(( 0.0 0.0 0.0 0.0 0.0 0.0 0.0 0.0 0.0 0.0 )
( 0.0 0.0 0.0 0.0 0.0 0.0 0.0 0.0 0.0 0.0 )
( 0.0 0.0 0.0 0.0 0.0 0.0 0.0 0.0 0.0 0.0 )
( 0.0 0.0 0.0 0.0 0.0 0.0 0.0 0.0 0.0 0.0 )
( 0.0 0.0 0.0 0.0 0.0 0.0 0.0 0.0 0.0 0.0 ))
(( 0.0 0.0 0.0 0.0 0.0 0.0 0.0 0.0 0.0 0.0 )
( 0.0 0.0 0.0 0.0 0.0 0.0 0.0 0.0 0.0 0.0 )
( 0.0 0.0 0.0 0.0 0.0 0.0 0.0 0.0 0.0 0.0 )
( 0.0 0.0 0.0 0.0 0.0 0.0 0.0 0.0 0.0 0.0 )
( 0.0 0.0 0.0 0.0 0.0 0.0 0.0 0.0 0.0 0.0 )))
((( 0.0 0.0 0.0 0.0 0.0 0.0 0.0 0.0 0.0 0.0 )
( 0.0 0.0 0.0 0.0 0.0 0.0 0.0 0.0 0.0 0.0 )
( 0.0 0.0 0.0 0.0 0.0 0.0 0.0 0.0 0.0 0.0 )
( 0.0 0.0 0.0 0.0 0.0 0.0 0.0 0.0 0.0 0.0 )
( 0.0 0.0 0.0 0.0 0.0 0.0 0.0 0.0 0.0 0.0 ))
(( 0.0 0.0 0.0 0.0 0.0 0.0 0.0 0.0 0.0 0.0 )
( 0.0 0.0 0.0 0.0 0.0 0.0 0.0 0.0 0.0 0.0 )
( 0.0 0.0 0.0 0.0 0.0 0.0 0.0 0.0 0.0 0.0 )
( 0.0 0.0 0.0 0.0 0.0 0.0 0.0 0.0 0.0 0.0 )
( 0.0 0.0 0.0 0.0 0.0 0.0 0.0 0.0 0.0 0.0 ))
(( 0.0 0.0 0.0 0.0 0.0 0.0 0.0 0.0 0.0 0.0 )
( 0.0 0.0 0.0 0.0 0.0 0.0 0.0 0.0 0.0 0.0 )
( 0.0 0.0 0.0 0.0 0.0 0.0 0.0 0.0 0.0 0.0 )
( 0.0 0.0 0.0 0.0 0.0 0.0 0.0 0.0 0.0 0.0 )
( 0.0 0.0 0.0 0.0 0.0 0.0 0.0 0.0 0.0 0.0 ))
(( 0.0 0.0 0.0 0.0 0.0 0.0 0.0 0.0 0.0 0.0 )
( 0.0 0.0 0.0 0.0 0.0 0.0 0.0 0.0 0.0 0.0 )
( 0.0 0.0 0.0 0.0 0.0 0.0 0.0 0.0 0.0 0.0 )
( 0.0 0.0 0.0 0.0 0.0 0.0 0.0 0.0 0.0 0.0 )
( 0.0 0.0 0.0 0.0 0.0 0.0 0.0 0.0 0.0 0.0 ))))
(((( 0.0 0.0 0.0 0.0 0.0 0.0 0.0 0.0 0.0 0.0 )
( 0.0 0.0 0.0 0.0 0.0 0.0 0.0 0.0 0.0 0.0 )
( 0.0 0.0 0.0 0.0 0.0 0.0 0.0 0.0 0.0 0.0 )
( 0.0 0.0 0.0 0.0 0.0 0.0 0.0 0.0 0.0 0.0 )
( 0.0 0.0 0.0 0.0 0.0 0.0 0.0 0.0 0.0 0.0 ))
(( 0.0 0.0 0.0 0.0 0.0 0.0 0.0 0.0 0.0 0.0 )
( 0.0 0.0 0.0 0.0 0.0 0.0 0.0 0.0 0.0 0.0 )
( 0.0 0.0 0.0 0.0 0.0 0.0 0.0 0.0 0.0 0.0 )
( 0.0 0.0 0.0 0.0 0.0 0.0 0.0 0.0 0.0 0.0 )
( 0.0 0.0 0.0 0.0 0.0 0.0 0.0 0.0 0.0 0.0 ))
(( 0.0 0.0 0.0 0.0 0.0 0.0 0.0 0.0 0.0 0.0 )
( 0.0 0.0 0.0 0.0 0.0 0.0 0.0 0.0 0.0 0.0 )
( 0.0 0.0 0.0 0.0 0.0 0.0 0.0 0.0 0.0 0.0 )
( 0.0 0.0 0.0 0.0 0.0 0.0 0.0 0.0 0.0 0.0 )
( 0.0 0.0 0.0 0.0 0.0 0.0 0.0 0.0 0.0 0.0 ))
(( 0.0 0.0 0.0 0.0 0.0 0.0 0.0 0.0 0.0 0.0 )
( 0.0 0.0 0.0 0.0 0.0 0.0 0.0 0.0 0.0 0.0 )
( 0.0 0.0 0.0 0.0 0.0 0.0 0.0 0.0 0.0 0.0 )
( 0.0 0.0 0.0 0.0 0.0 0.0 0.0 0.0 0.0 0.0 )
( 0.0 0.0 0.0 0.0 0.0 0.0 0.0 0.0 0.0 0.0 )))
((( 0.0 0.0 0.0 0.0 0.0 0.0 0.0 0.0 0.0 0.0 )
( 0.0 0.0 0.0 0.0 0.0 0.0 0.0 0.0 0.0 0.0 )
( 0.0 0.0 0.0 0.0 0.0 0.0 0.0 0.0 0.0 0.0 )
( 0.0 0.0 0.0 0.0 0.0 0.0 0.0 0.0 0.0 0.0 )
( 0.0 0.0 0.0 0.0 0.0 0.0 0.0 0.0 0.0 0.0 ))
(( 0.0 0.0 0.0 0.0 0.0 0.0 0.0 0.0 0.0 0.0 )
( 0.0 0.0 0.0 0.0 0.0 0.0 0.0 0.0 0.0 0.0 )
( 0.0 0.0 0.0 0.0 0.0 0.0 0.0 0.0 0.0 0.0 )
( 0.0 0.0 0.0 0.0 0.0 0.0 0.0 0.0 0.0 0.0 )
( 0.0 0.0 0.0 0.0 0.0 0.0 0.0 0.0 0.0 0.0 ))
(( 0.0 0.0 0.0 0.0 0.0 0.0 0.0 0.0 0.0 0.0 )
( 0.0 0.0 0.0 0.0 0.0 0.0 0.0 0.0 0.0 0.0 )
( 0.0 0.0 0.0 0.0 0.0 0.0 0.0 0.0 0.0 0.0 )
( 0.0 0.0 0.0 0.0 0.0 0.0 0.0 0.0 0.0 0.0 )
( 0.0 0.0 0.0 0.0 0.0 0.0 0.0 0.0 0.0 0.0 ))
(( 0.0 0.0 0.0 0.0 0.0 0.0 0.0 0.0 0.0 0.0 )
( 0.0 0.0 0.0 0.0 0.0 0.0 0.0 0.0 0.0 0.0 )
( 0.0 0.0 0.0 0.0 0.0 0.0 0.0 0.0 0.0 0.0 )
( 0.0 0.0 0.0 0.0 0.0 0.0 0.0 0.0 0.0 0.0 )
( 0.0 0.0 0.0 0.0 0.0 0.0 0.0 0.0 0.0 0.0 )))
((( 0.0 0.0 0.0 0.0 0.0 0.0 0.0 0.0 0.0 0.0 )
( 0.0 0.0 0.0 0.0 0.0 0.0 0.0 0.0 0.0 0.0 )
( 0.0 0.0 0.0 0.0 0.0 0.0 0.0 0.0 0.0 0.0 )
( 0.0 0.0 0.0 0.0 0.0 0.0 0.0 0.0 0.0 0.0 )
( 0.0 0.0 0.0 0.0 0.0 0.0 0.0 0.0 0.0 0.0 ))
(( 0.0 0.0 0.0 0.0 0.0 0.0 0.0 0.0 0.0 0.0 )
( 0.0 0.0 0.0 0.0 0.0 0.0 0.0 0.0 0.0 0.0 )
( 0.0 0.0 0.0 0.0 0.0 0.0 0.0 0.0 0.0 0.0 )
( 0.0 0.0 0.0 0.0 0.0 0.0 0.0 0.0 0.0 0.0 )
( 0.0 0.0 0.0 0.0 0.0 0.0 0.0 0.0 0.0 0.0 ))
(( 0.0 0.0 0.0 0.0 0.0 0.0 0.0 0.0 0.0 0.0 )
( 0.0 0.0 0.0 0.0 0.0 0.0 0.0 0.0 0.0 0.0 )
( 0.0 0.0 0.0 0.0 0.0 0.0 0.0 0.0 0.0 0.0 )
( 0.0 0.0 0.0 0.0 0.0 0.0 0.0 0.0 0.0 0.0 )
( 0.0 0.0 0.0 0.0 0.0 0.0 0.0 0.0 0.0 0.0 ))
(( 0.0 0.0 0.0 0.0 0.0 0.0 0.0 0.0 0.0 0.0 )
( 0.0 0.0 0.0 0.0 0.0 0.0 0.0 0.0 0.0 0.0 )
( 0.0 0.0 0.0 0.0 0.0 0.0 0.0 0.0 0.0 0.0 )
( 0.0 0.0 0.0 0.0 0.0 0.0 0.0 0.0 0.0 0.0 )
( 0.0 0.0 0.0 0.0 0.0 0.0 0.0 0.0 0.0 0.0 ))))
(((( 0.0 0.0 0.0 0.0 0.0 0.0 0.0 0.0 0.0 0.0 )
( 0.0 0.0 0.0 0.0 0.0 0.0 0.0 0.0 0.0 0.0 )
( 0.0 0.0 0.0 0.0 0.0 0.0 0.0 0.0 0.0 0.0 )
( 0.0 0.0 0.0 0.0 0.0 0.0 0.0 0.0 0.0 0.0 )
( 0.0 0.0 0.0 0.0 0.0 0.0 0.0 0.0 0.0 0.0 ))
(( 0.0 0.0 0.0 0.0 0.0 0.0 0.0 0.0 0.0 0.0 )
( 0.0 0.0 0.0 0.0 0.0 0.0 0.0 0.0 0.0 0.0 )
( 0.0 0.0 0.0 0.0 0.0 0.0 0.0 0.0 0.0 0.0 )
( 0.0 0.0 0.0 0.0 0.0 0.0 0.0 0.0 0.0 0.0 )
( 0.0 0.0 0.0 0.0 0.0 0.0 0.0 0.0 0.0 0.0 ))
(( 0.0 0.0 0.0 0.0 0.0 0.0 0.0 0.0 0.0 0.0 )
( 0.0 0.0 0.0 0.0 0.0 0.0 0.0 0.0 0.0 0.0 )
( 0.0 0.0 0.0 0.0 0.0 0.0 0.0 0.0 0.0 0.0 )
( 0.0 0.0 0.0 0.0 0.0 0.0 0.0 0.0 0.0 0.0 )
( 0.0 0.0 0.0 0.0 0.0 0.0 0.0 0.0 0.0 0.0 ))
(( 0.0 0.0 0.0 0.0 0.0 0.0 0.0 0.0 0.0 0.0 )
( 0.0 0.0 0.0 0.0 0.0 0.0 0.0 0.0 0.0 0.0 )
( 0.0 0.0 0.0 0.0 0.0 0.0 0.0 0.0 0.0 0.0 )
( 0.0 0.0 0.0 0.0 0.0 0.0 0.0 0.0 0.0 0.0 )
( 0.0 0.0 0.0 0.0 0.0 0.0 0.0 0.0 0.0 0.0 )))
((( 0.0 0.0 0.0 0.0 0.0 0.0 0.0 0.0 0.0 0.0 )
( 0.0 0.0 0.0 0.0 0.0 0.0 0.0 0.0 0.0 0.0 )
( 0.0 0.0 0.0 0.0 0.0 0.0 0.0 0.0 0.0 0.0 )
( 0.0 0.0 0.0 0.0 0.0 0.0 0.0 0.0 0.0 0.0 )
( 0.0 0.0 0.0 0.0 0.0 0.0 0.0 0.0 0.0 0.0 ))
(( 0.0 0.0 0.0 0.0 0.0 0.0 0.0 0.0 0.0 0.0 )
( 0.0 0.0 0.0 0.0 0.0 0.0 0.0 0.0 0.0 0.0 )
( 0.0 0.0 0.0 0.0 0.0 0.0 0.0 0.0 0.0 0.0 )
( 0.0 0.0 0.0 0.0 0.0 0.0 0.0 0.0 0.0 0.0 )
( 0.0 0.0 0.0 0.0 0.0 0.0 0.0 0.0 0.0 0.0 ))
(( 0.0 0.0 0.0 0.0 0.0 0.0 0.0 0.0 0.0 0.0 )
( 0.0 0.0 0.0 0.0 0.0 0.0 0.0 0.0 0.0 0.0 )
( 0.0 0.0 0.0 0.0 0.0 0.0 0.0 0.0 0.0 0.0 )
( 0.0 0.0 0.0 0.0 0.0 0.0 0.0 0.0 0.0 0.0 )
( 0.0 0.0 0.0 0.0 0.0 0.0 0.0 0.0 0.0 0.0 ))
(( 0.0 0.0 0.0 0.0 0.0 0.0 0.0 0.0 0.0 0.0 )
( 0.0 0.0 0.0 0.0 0.0 0.0 0.0 0.0 0.0 0.0 )
( 0.0 0.0 0.0 0.0 0.0 0.0 0.0 0.0 0.0 0.0 )
( 0.0 0.0 0.0 0.0 0.0 0.0 0.0 0.0 0.0 0.0 )
( 0.0 0.0 0.0 0.0 0.0 0.0 0.0 0.0 0.0 0.0 )))
((( 0.0 0.0 0.0 0.0 0.0 0.0 0.0 0.0 0.0 0.0 )
( 0.0 0.0 0.0 0.0 0.0 0.0 0.0 0.0 0.0 0.0 )
( 0.0 0.0 0.0 0.0 0.0 0.0 0.0 0.0 0.0 0.0 )
( 0.0 0.0 0.0 0.0 0.0 0.0 0.0 0.0 0.0 0.0 )
( 0.0 0.0 0.0 0.0 0.0 0.0 0.0 0.0 0.0 0.0 ))
(( 0.0 0.0 0.0 0.0 0.0 0.0 0.0 0.0 0.0 0.0 )
( 0.0 0.0 0.0 0.0 0.0 0.0 0.0 0.0 0.0 0.0 )
( 0.0 0.0 0.0 0.0 0.0 0.0 0.0 0.0 0.0 0.0 )
( 0.0 0.0 0.0 0.0 0.0 0.0 0.0 0.0 0.0 0.0 )
( 0.0 0.0 0.0 0.0 0.0 0.0 0.0 0.0 0.0 0.0 ))
(( 0.0 0.0 0.0 0.0 0.0 0.0 0.0 0.0 0.0 0.0 )
( 0.0 0.0 0.0 0.0 0.0 0.0 0.0 0.0 0.0 0.0 )
( 0.0 0.0 0.0 0.0 0.0 0.0 0.0 0.0 0.0 0.0 )
( 0.0 0.0 0.0 0.0 0.0 0.0 0.0 0.0 0.0 0.0 )
( 0.0 0.0 0.0 0.0 0.0 0.0 0.0 0.0 0.0 0.0 ))
(( 0.0 0.0 0.0 0.0 0.0 0.0 0.0 0.0 0.0 0.0 )
( 0.0 0.0 0.0 0.0 0.0 0.0 0.0 0.0 0.0 0.0 )
( 0.0 0.0 0.0 0.0 0.0 0.0 0.0 0.0 0.0 0.0 )
( 0.0 0.0 0.0 0.0 0.0 0.0 0.0 0.0 0.0 0.0 )
( 0.0 0.0 0.0 0.0 0.0 0.0 0.0 0.0 0.0 0.0 ))))
(((( 0.0 0.0 0.0 0.0 0.0 0.0 0.0 0.0 0.0 0.0 )
( 0.0 0.0 0.0 0.0 0.0 0.0 0.0 0.0 0.0 0.0 )
( 0.0 0.0 0.0 0.0 0.0 0.0 0.0 0.0 0.0 0.0 )
( 0.0 0.0 0.0 0.0 0.0 0.0 0.0 0.0 0.0 0.0 )
( 0.0 0.0 0.0 0.0 0.0 0.0 0.0 0.0 0.0 0.0 ))
(( 0.0 0.0 0.0 0.0 0.0 0.0 0.0 0.0 0.0 0.0 )
( 0.0 0.0 0.0 0.0 0.0 0.0 0.0 0.0 0.0 0.0 )
( 0.0 0.0 0.0 0.0 0.0 0.0 0.0 0.0 0.0 0.0 )
( 0.0 0.0 0.0 0.0 0.0 0.0 0.0 0.0 0.0 0.0 )
( 0.0 0.0 0.0 0.0 0.0 0.0 0.0 0.0 0.0 0.0 ))
(( 0.0 0.0 0.0 0.0 0.0 0.0 0.0 0.0 0.0 0.0 )
( 0.0 0.0 0.0 0.0 0.0 0.0 0.0 0.0 0.0 0.0 )
( 0.0 0.0 0.0 0.0 0.0 0.0 0.0 0.0 0.0 0.0 )
( 0.0 0.0 0.0 0.0 0.0 0.0 0.0 0.0 0.0 0.0 )
( 0.0 0.0 0.0 0.0 0.0 0.0 0.0 0.0 0.0 0.0 ))
(( 0.0 0.0 0.0 0.0 0.0 0.0 0.0 0.0 0.0 0.0 )
( 0.0 0.0 0.0 0.0 0.0 0.0 0.0 0.0 0.0 0.0 )
( 0.0 0.0 0.0 0.0 0.0 0.0 0.0 0.0 0.0 0.0 )
( 0.0 0.0 0.0 0.0 0.0 0.0 0.0 0.0 0.0 0.0 )
( 0.0 0.0 0.0 0.0 0.0 0.0 0.0 0.0 0.0 0.0 )))
((( 0.0 0.0 0.0 0.0 0.0 0.0 0.0 0.0 0.0 0.0 )
( 0.0 0.0 0.0 0.0 0.0 0.0 0.0 0.0 0.0 0.0 )
( 0.0 0.0 0.0 0.0 0.0 0.0 0.0 0.0 0.0 0.0 )
( 0.0 0.0 0.0 0.0 0.0 0.0 0.0 0.0 0.0 0.0 )
( 0.0 0.0 0.0 0.0 0.0 0.0 0.0 0.0 0.0 0.0 ))
(( 0.0 0.0 0.0 0.0 0.0 0.0 0.0 0.0 0.0 0.0 )
( 0.0 0.0 0.0 0.0 0.0 0.0 0.0 0.0 0.0 0.0 )
( 0.0 0.0 0.0 0.0 0.0 0.0 0.0 0.0 0.0 0.0 )
( 0.0 0.0 0.0 0.0 0.0 0.0 0.0 0.0 0.0 0.0 )
( 0.0 0.0 0.0 0.0 0.0 0.0 0.0 0.0 0.0 0.0 ))
(( 0.0 0.0 0.0 0.0 0.0 0.0 0.0 0.0 0.0 0.0 )
( 0.0 0.0 0.0 0.0 0.0 0.0 0.0 0.0 0.0 0.0 )
( 0.0 0.0 0.0 0.0 0.0 0.0 0.0 0.0 0.0 0.0 )
( 0.0 0.0 0.0 0.0 0.0 0.0 0.0 0.0 0.0 0.0 )
( 0.0 0.0 0.0 0.0 0.0 0.0 0.0 0.0 0.0 0.0 ))
(( 0.0 0.0 0.0 0.0 0.0 0.0 0.0 0.0 0.0 0.0 )
( 0.0 0.0 0.0 0.0 0.0 0.0 0.0 0.0 0.0 0.0 )
( 0.0 0.0 0.0 0.0 0.0 0.0 0.0 0.0 0.0 0.0 )
( 0.0 0.0 0.0 0.0 0.0 0.0 0.0 0.0 0.0 0.0 )
( 0.0 0.0 0.0 0.0 0.0 0.0 0.0 0.0 0.0 0.0 )))
((( 0.0 0.0 0.0 0.0 0.0 0.0 0.0 0.0 0.0 0.0 )
( 0.0 0.0 0.0 0.0 0.0 0.0 0.0 0.0 0.0 0.0 )
( 0.0 0.0 0.0 0.0 0.0 0.0 0.0 0.0 0.0 0.0 )
( 0.0 0.0 0.0 0.0 0.0 0.0 0.0 0.0 0.0 0.0 )
( 0.0 0.0 0.0 0.0 0.0 0.0 0.0 0.0 0.0 0.0 ))
(( 0.0 0.0 0.0 0.0 0.0 0.0 0.0 0.0 0.0 0.0 )
( 0.0 0.0 0.0 0.0 0.0 0.0 0.0 0.0 0.0 0.0 )
( 0.0 0.0 0.0 0.0 0.0 0.0 0.0 0.0 0.0 0.0 )
( 0.0 0.0 0.0 0.0 0.0 0.0 0.0 0.0 0.0 0.0 )
( 0.0 0.0 0.0 0.0 0.0 0.0 0.0 0.0 0.0 0.0 ))
(( 0.0 0.0 0.0 0.0 0.0 0.0 0.0 0.0 0.0 0.0 )
( 0.0 0.0 0.0 0.0 0.0 0.0 0.0 0.0 0.0 0.0 )
( 0.0 0.0 0.0 0.0 0.0 0.0 0.0 0.0 0.0 0.0 )
( 0.0 0.0 0.0 0.0 0.0 0.0 0.0 0.0 0.0 0.0 )
( 0.0 0.0 0.0 0.0 0.0 0.0 0.0 0.0 0.0 0.0 ))
(( 0.0 0.0 0.0 0.0 0.0 0.0 0.0 0.0 0.0 0.0 )
( 0.0 0.0 0.0 0.0 0.0 0.0 0.0 0.0 0.0 0.0 )
( 0.0 0.0 0.0 0.0 0.0 0.0 0.0 0.0 0.0 0.0 )
( 0.0 0.0 0.0 0.0 0.0 0.0 0.0 0.0 0.0 0.0 )
( 0.0 0.0 0.0 0.0 0.0 0.0 0.0 0.0 0.0 0.0 ))))
(((( 0.0 0.0 0.0 0.0 0.0 0.0 0.0 0.0 0.0 0.0 )
( 0.0 0.0 0.0 0.0 0.0 0.0 0.0 0.0 0.0 0.0 )
( 0.0 0.0 0.0 0.0 0.0 0.0 0.0 0.0 0.0 0.0 )
( 0.0 0.0 0.0 0.0 0.0 0.0 0.0 0.0 0.0 0.0 )
( 0.0 0.0 0.0 0.0 0.0 0.0 0.0 0.0 0.0 0.0 ))
(( 0.0 0.0 0.0 0.0 0.0 0.0 0.0 0.0 0.0 0.0 )
( 0.0 0.0 0.0 0.0 0.0 0.0 0.0 0.0 0.0 0.0 )
( 0.0 0.0 0.0 0.0 0.0 0.0 0.0 0.0 0.0 0.0 )
( 0.0 0.0 0.0 0.0 0.0 0.0 0.0 0.0 0.0 0.0 )
( 0.0 0.0 0.0 0.0 0.0 0.0 0.0 0.0 0.0 0.0 ))
(( 0.0 0.0 0.0 0.0 0.0 0.0 0.0 0.0 0.0 0.0 )
( 0.0 0.0 0.0 0.0 0.0 0.0 0.0 0.0 0.0 0.0 )
( 0.0 0.0 0.0 0.0 0.0 0.0 0.0 0.0 0.0 0.0 )
( 0.0 0.0 0.0 0.0 0.0 0.0 0.0 0.0 0.0 0.0 )
( 0.0 0.0 0.0 0.0 0.0 0.0 0.0 0.0 0.0 0.0 ))
(( 0.0 0.0 0.0 0.0 0.0 0.0 0.0 0.0 0.0 0.0 )
( 0.0 0.0 0.0 0.0 0.0 0.0 0.0 0.0 0.0 0.0 )
( 0.0 0.0 0.0 0.0 0.0 0.0 0.0 0.0 0.0 0.0 )
( 0.0 0.0 0.0 0.0 0.0 0.0 0.0 0.0 0.0 0.0 )
( 0.0 0.0 0.0 0.0 0.0 0.0 0.0 0.0 0.0 0.0 )))
((( 0.0 0.0 0.0 0.0 0.0 0.0 0.0 0.0 0.0 0.0 )
( 0.0 0.0 0.0 0.0 0.0 0.0 0.0 0.0 0.0 0.0 )
( 0.0 0.0 0.0 0.0 0.0 0.0 0.0 0.0 0.0 0.0 )
( 0.0 0.0 0.0 0.0 0.0 0.0 0.0 0.0 0.0 0.0 )
( 0.0 0.0 0.0 0.0 0.0 0.0 0.0 0.0 0.0 0.0 ))
(( 0.0 0.0 0.0 0.0 0.0 0.0 0.0 0.0 0.0 0.0 )
( 0.0 0.0 0.0 0.0 0.0 0.0 0.0 0.0 0.0 0.0 )
( 0.0 0.0 0.0 0.0 0.0 0.0 0.0 0.0 0.0 0.0 )
( 0.0 0.0 0.0 0.0 0.0 0.0 0.0 0.0 0.0 0.0 )
( 0.0 0.0 0.0 0.0 0.0 0.0 0.0 0.0 0.0 0.0 ))
(( 0.0 0.0 0.0 0.0 0.0 0.0 0.0 0.0 0.0 0.0 )
( 0.0 0.0 0.0 0.0 0.0 0.0 0.0 0.0 0.0 0.0 )
( 0.0 0.0 0.0 0.0 0.0 0.0 0.0 0.0 0.0 0.0 )
( 0.0 0.0 0.0 0.0 0.0 0.0 0.0 0.0 0.0 0.0 )
( 0.0 0.0 0.0 0.0 0.0 0.0 0.0 0.0 0.0 0.0 ))
(( 0.0 0.0 0.0 0.0 0.0 0.0 0.0 0.0 0.0 0.0 )
( 0.0 0.0 0.0 0.0 0.0 0.0 0.0 0.0 0.0 0.0 )
( 0.0 0.0 0.0 0.0 0.0 0.0 0.0 0.0 0.0 0.0 )
( 0.0 0.0 0.0 0.0 0.0 0.0 0.0 0.0 0.0 0.0 )
( 0.0 0.0 0.0 0.0 0.0 0.0 0.0 0.0 0.0 0.0 )))
((( 0.0 0.0 0.0 0.0 0.0 0.0 0.0 0.0 0.0 0.0 )
( 0.0 0.0 0.0 0.0 0.0 0.0 0.0 0.0 0.0 0.0 )
( 0.0 0.0 0.0 0.0 0.0 0.0 0.0 0.0 0.0 0.0 )
( 0.0 0.0 0.0 0.0 0.0 0.0 0.0 0.0 0.0 0.0 )
( 0.0 0.0 0.0 0.0 0.0 0.0 0.0 0.0 0.0 0.0 ))
(( 0.0 0.0 0.0 0.0 0.0 0.0 0.0 0.0 0.0 0.0 )
( 0.0 0.0 0.0 0.0 0.0 0.0 0.0 0.0 0.0 0.0 )
( 0.0 0.0 0.0 0.0 0.0 0.0 0.0 0.0 0.0 0.0 )
( 0.0 0.0 0.0 0.0 0.0 0.0 0.0 0.0 0.0 0.0 )
( 0.0 0.0 0.0 0.0 0.0 0.0 0.0 0.0 0.0 0.0 ))
(( 0.0 0.0 0.0 0.0 0.0 0.0 0.0 0.0 0.0 0.0 )
( 0.0 0.0 0.0 0.0 0.0 0.0 0.0 0.0 0.0 0.0 )
( 0.0 0.0 0.0 0.0 0.0 0.0 0.0 0.0 0.0 0.0 )
( 0.0 0.0 0.0 0.0 0.0 0.0 0.0 0.0 0.0 0.0 )
( 0.0 0.0 0.0 0.0 0.0 0.0 0.0 0.0 0.0 0.0 ))
(( 0.0 0.0 0.0 0.0 0.0 0.0 0.0 0.0 0.0 0.0 )
( 0.0 0.0 0.0 0.0 0.0 0.0 0.0 0.0 0.0 0.0 )
( 0.0 0.0 0.0 0.0 0.0 0.0 0.0 0.0 0.0 0.0 )
( 0.0 0.0 0.0 0.0 0.0 0.0 0.0 0.0 0.0 0.0 )
( 0.0 0.0 0.0 0.0 0.0 0.0 0.0 0.0 0.0 0.0 ))))
(((( 0.0 0.0 0.0 0.0 0.0 0.0 0.0 0.0 0.0 0.0 )
( 0.0 0.0 0.0 0.0 0.0 0.0 0.0 0.0 0.0 0.0 )
( 0.0 0.0 0.0 0.0 0.0 0.0 0.0 0.0 0.0 0.0 )
( 0.0 0.0 0.0 0.0 0.0 0.0 0.0 0.0 0.0 0.0 )
( 0.0 0.0 0.0 0.0 0.0 0.0 0.0 0.0 0.0 0.0 ))
(( 0.0 0.0 0.0 0.0 0.0 0.0 0.0 0.0 0.0 0.0 )
( 0.0 0.0 0.0 0.0 0.0 0.0 0.0 0.0 0.0 0.0 )
( 0.0 0.0 0.0 0.0 0.0 0.0 0.0 0.0 0.0 0.0 )
( 0.0 0.0 0.0 0.0 0.0 0.0 0.0 0.0 0.0 0.0 )
( 0.0 0.0 0.0 0.0 0.0 0.0 0.0 0.0 0.0 0.0 ))
(( 0.0 0.0 0.0 0.0 0.0 0.0 0.0 0.0 0.0 0.0 )
( 0.0 0.0 0.0 0.0 0.0 0.0 0.0 0.0 0.0 0.0 )
( 0.0 0.0 0.0 0.0 0.0 0.0 0.0 0.0 0.0 0.0 )
( 0.0 0.0 0.0 0.0 0.0 0.0 0.0 0.0 0.0 0.0 )
( 0.0 0.0 0.0 0.0 0.0 0.0 0.0 0.0 0.0 0.0 ))
(( 0.0 0.0 0.0 0.0 0.0 0.0 0.0 0.0 0.0 0.0 )
( 0.0 0.0 0.0 0.0 0.0 0.0 0.0 0.0 0.0 0.0 )
( 0.0 0.0 0.0 0.0 0.0 0.0 0.0 0.0 0.0 0.0 )
( 0.0 0.0 0.0 0.0 0.0 0.0 0.0 0.0 0.0 0.0 )
( 0.0 0.0 0.0 0.0 0.0 0.0 0.0 0.0 0.0 0.0 )))
((( 0.0 0.0 0.0 0.0 0.0 0.0 0.0 0.0 0.0 0.0 )
( 0.0 0.0 0.0 0.0 0.0 0.0 0.0 0.0 0.0 0.0 )
( 0.0 0.0 0.0 0.0 0.0 0.0 0.0 0.0 0.0 0.0 )
( 0.0 0.0 0.0 0.0 0.0 0.0 0.0 0.0 0.0 0.0 )
( 0.0 0.0 0.0 0.0 0.0 0.0 0.0 0.0 0.0 0.0 ))
(( 0.0 0.0 0.0 0.0 0.0 0.0 0.0 0.0 0.0 0.0 )
( 0.0 0.0 0.0 0.0 0.0 0.0 0.0 0.0 0.0 0.0 )
( 0.0 0.0 0.0 0.0 0.0 0.0 0.0 0.0 0.0 0.0 )
( 0.0 0.0 0.0 0.0 0.0 0.0 0.0 0.0 0.0 0.0 )
( 0.0 0.0 0.0 0.0 0.0 0.0 0.0 0.0 0.0 0.0 ))
(( 0.0 0.0 0.0 0.0 0.0 0.0 0.0 0.0 0.0 0.0 )
( 0.0 0.0 0.0 0.0 0.0 0.0 0.0 0.0 0.0 0.0 )
( 0.0 0.0 0.0 0.0 0.0 0.0 0.0 0.0 0.0 0.0 )
( 0.0 0.0 0.0 0.0 0.0 0.0 0.0 0.0 0.0 0.0 )
( 0.0 0.0 0.0 0.0 0.0 0.0 0.0 0.0 0.0 0.0 ))
(( 0.0 0.0 0.0 0.0 0.0 0.0 0.0 0.0 0.0 0.0 )
( 0.0 0.0 0.0 0.0 0.0 0.0 0.0 0.0 0.0 0.0 )
( 0.0 0.0 0.0 0.0 0.0 0.0 0.0 0.0 0.0 0.0 )
( 0.0 0.0 0.0 0.0 0.0 0.0 0.0 0.0 0.0 0.0 )
( 0.0 0.0 0.0 0.0 0.0 0.0 0.0 0.0 0.0 0.0 )))
((( 0.0 0.0 0.0 0.0 0.0 0.0 0.0 0.0 0.0 0.0 )
( 0.0 0.0 0.0 0.0 0.0 0.0 0.0 0.0 0.0 0.0 )
( 0.0 0.0 0.0 0.0 0.0 0.0 0.0 0.0 0.0 0.0 )
( 0.0 0.0 0.0 0.0 0.0 0.0 0.0 0.0 0.0 0.0 )
( 0.0 0.0 0.0 0.0 0.0 0.0 0.0 0.0 0.0 0.0 ))
(( 0.0 0.0 0.0 0.0 0.0 0.0 0.0 0.0 0.0 0.0 )
( 0.0 0.0 0.0 0.0 0.0 0.0 0.0 0.0 0.0 0.0 )
( 0.0 0.0 0.0 0.0 0.0 0.0 0.0 0.0 0.0 0.0 )
( 0.0 0.0 0.0 0.0 0.0 0.0 0.0 0.0 0.0 0.0 )
( 0.0 0.0 0.0 0.0 0.0 0.0 0.0 0.0 0.0 0.0 ))
(( 0.0 0.0 0.0 0.0 0.0 0.0 0.0 0.0 0.0 0.0 )
( 0.0 0.0 0.0 0.0 0.0 0.0 0.0 0.0 0.0 0.0 )
( 0.0 0.0 0.0 0.0 0.0 0.0 0.0 0.0 0.0 0.0 )
( 0.0 0.0 0.0 0.0 0.0 0.0 0.0 0.0 0.0 0.0 )
( 0.0 0.0 0.0 0.0 0.0 0.0 0.0 0.0 0.0 0.0 ))
(( 0.0 0.0 0.0 0.0 0.0 0.0 0.0 0.0 0.0 0.0 )
( 0.0 0.0 0.0 0.0 0.0 0.0 0.0 0.0 0.0 0.0 )
( 0.0 0.0 0.0 0.0 0.0 0.0 0.0 0.0 0.0 0.0 )
( 0.0 0.0 0.0 0.0 0.0 0.0 0.0 0.0 0.0 0.0 )
( 0.0 0.0 0.0 0.0 0.0 0.0 0.0 0.0 0.0 0.0 ))))
(((( 0.0 0.0 0.0 0.0 0.0 0.0 0.0 0.0 0.0 0.0 )
( 0.0 0.0 0.0 0.0 0.0 0.0 0.0 0.0 0.0 0.0 )
( 0.0 0.0 0.0 0.0 0.0 0.0 0.0 0.0 0.0 0.0 )
( 0.0 0.0 0.0 0.0 0.0 0.0 0.0 0.0 0.0 0.0 )
( 0.0 0.0 0.0 0.0 0.0 0.0 0.0 0.0 0.0 0.0 ))
(( 0.0 0.0 0.0 0.0 0.0 0.0 0.0 0.0 0.0 0.0 )
( 0.0 0.0 0.0 0.0 0.0 0.0 0.0 0.0 0.0 0.0 )
( 0.0 0.0 0.0 0.0 0.0 0.0 0.0 0.0 0.0 0.0 )
( 0.0 0.0 0.0 0.0 0.0 0.0 0.0 0.0 0.0 0.0 )
( 0.0 0.0 0.0 0.0 0.0 0.0 0.0 0.0 0.0 0.0 ))
(( 0.0 0.0 0.0 0.0 0.0 0.0 0.0 0.0 0.0 0.0 )
( 0.0 0.0 0.0 0.0 0.0 0.0 0.0 0.0 0.0 0.0 )
( 0.0 0.0 0.0 0.0 0.0 0.0 0.0 0.0 0.0 0.0 )
( 0.0 0.0 0.0 0.0 0.0 0.0 0.0 0.0 0.0 0.0 )
( 0.0 0.0 0.0 0.0 0.0 0.0 0.0 0.0 0.0 0.0 ))
(( 0.0 0.0 0.0 0.0 0.0 0.0 0.0 0.0 0.0 0.0 )
( 0.0 0.0 0.0 0.0 0.0 0.0 0.0 0.0 0.0 0.0 )
( 0.0 0.0 0.0 0.0 0.0 0.0 0.0 0.0 0.0 0.0 )
( 0.0 0.0 0.0 0.0 0.0 0.0 0.0 0.0 0.0 0.0 )
( 0.0 0.0 0.0 0.0 0.0 0.0 0.0 0.0 0.0 0.0 )))
((( 0.0 0.0 0.0 0.0 0.0 0.0 0.0 0.0 0.0 0.0 )
( 0.0 0.0 0.0 0.0 0.0 0.0 0.0 0.0 0.0 0.0 )
( 0.0 0.0 0.0 0.0 0.0 0.0 0.0 0.0 0.0 0.0 )
( 0.0 0.0 0.0 0.0 0.0 0.0 0.0 0.0 0.0 0.0 )
( 0.0 0.0 0.0 0.0 0.0 0.0 0.0 0.0 0.0 0.0 ))
(( 0.0 0.0 0.0 0.0 0.0 0.0 0.0 0.0 0.0 0.0 )
( 0.0 0.0 0.0 0.0 0.0 0.0 0.0 0.0 0.0 0.0 )
( 0.0 0.0 0.0 0.0 0.0 0.0 0.0 0.0 0.0 0.0 )
( 0.0 0.0 0.0 0.0 0.0 0.0 0.0 0.0 0.0 0.0 )
( 0.0 0.0 0.0 0.0 0.0 0.0 0.0 0.0 0.0 0.0 ))
(( 0.0 0.0 0.0 0.0 0.0 0.0 0.0 0.0 0.0 0.0 )
( 0.0 0.0 0.0 0.0 0.0 0.0 0.0 0.0 0.0 0.0 )
( 0.0 0.0 0.0 0.0 0.0 0.0 0.0 0.0 0.0 0.0 )
( 0.0 0.0 0.0 0.0 0.0 0.0 0.0 0.0 0.0 0.0 )
( 0.0 0.0 0.0 0.0 0.0 0.0 0.0 0.0 0.0 0.0 ))
(( 0.0 0.0 0.0 0.0 0.0 0.0 0.0 0.0 0.0 0.0 )
( 0.0 0.0 0.0 0.0 0.0 0.0 0.0 0.0 0.0 0.0 )
( 0.0 0.0 0.0 0.0 0.0 0.0 0.0 0.0 0.0 0.0 )
( 0.0 0.0 0.0 0.0 0.0 0.0 0.0 0.0 0.0 0.0 )
( 0.0 0.0 0.0 0.0 0.0 0.0 0.0 0.0 0.0 0.0 )))
((( 0.0 0.0 0.0 0.0 0.0 0.0 0.0 0.0 0.0 0.0 )
( 0.0 0.0 0.0 0.0 0.0 0.0 0.0 0.0 0.0 0.0 )
( 0.0 0.0 0.0 0.0 0.0 0.0 0.0 0.0 0.0 0.0 )
( 0.0 0.0 0.0 0.0 0.0 0.0 0.0 0.0 0.0 0.0 )
( 0.0 0.0 0.0 0.0 0.0 0.0 0.0 0.0 0.0 0.0 ))
(( 0.0 0.0 0.0 0.0 0.0 0.0 0.0 0.0 0.0 0.0 )
( 0.0 0.0 0.0 0.0 0.0 0.0 0.0 0.0 0.0 0.0 )
( 0.0 0.0 0.0 0.0 0.0 0.0 0.0 0.0 0.0 0.0 )
( 0.0 0.0 0.0 0.0 0.0 0.0 0.0 0.0 0.0 0.0 )
( 0.0 0.0 0.0 0.0 0.0 0.0 0.0 0.0 0.0 0.0 ))
(( 0.0 0.0 0.0 0.0 0.0 0.0 0.0 0.0 0.0 0.0 )
( 0.0 0.0 0.0 0.0 0.0 0.0 0.0 0.0 0.0 0.0 )
( 0.0 0.0 0.0 0.0 0.0 0.0 0.0 0.0 0.0 0.0 )
( 0.0 0.0 0.0 0.0 0.0 0.0 0.0 0.0 0.0 0.0 )
( 0.0 0.0 0.0 0.0 0.0 0.0 0.0 0.0 0.0 0.0 ))
(( 0.0 0.0 0.0 0.0 0.0 0.0 0.0 0.0 0.0 0.0 )
( 0.0 0.0 0.0 0.0 0.0 0.0 0.0 0.0 0.0 0.0 )
( 0.0 0.0 0.0 0.0 0.0 0.0 0.0 0.0 0.0 0.0 )
( 0.0 0.0 0.0 0.0 0.0 0.0 0.0 0.0 0.0 0.0 )
( 0.0 0.0 0.0 0.0 0.0 0.0 0.0 0.0 0.0 0.0 ))))
(((( 0.0 0.0 0.0 0.0 0.0 0.0 0.0 0.0 0.0 0.0 )
( 0.0 0.0 0.0 0.0 0.0 0.0 0.0 0.0 0.0 0.0 )
( 0.0 0.0 0.0 0.0 0.0 0.0 0.0 0.0 0.0 0.0 )
( 0.0 0.0 0.0 0.0 0.0 0.0 0.0 0.0 0.0 0.0 )
( 0.0 0.0 0.0 0.0 0.0 0.0 0.0 0.0 0.0 0.0 ))
(( 0.0 0.0 0.0 0.0 0.0 0.0 0.0 0.0 0.0 0.0 )
( 0.0 0.0 0.0 0.0 0.0 0.0 0.0 0.0 0.0 0.0 )
( 0.0 0.0 0.0 0.0 0.0 0.0 0.0 0.0 0.0 0.0 )
( 0.0 0.0 0.0 0.0 0.0 0.0 0.0 0.0 0.0 0.0 )
( 0.0 0.0 0.0 0.0 0.0 0.0 0.0 0.0 0.0 0.0 ))
(( 0.0 0.0 0.0 0.0 0.0 0.0 0.0 0.0 0.0 0.0 )
( 0.0 0.0 0.0 0.0 0.0 0.0 0.0 0.0 0.0 0.0 )
( 0.0 0.0 0.0 0.0 0.0 0.0 0.0 0.0 0.0 0.0 )
( 0.0 0.0 0.0 0.0 0.0 0.0 0.0 0.0 0.0 0.0 )
( 0.0 0.0 0.0 0.0 0.0 0.0 0.0 0.0 0.0 0.0 ))
(( 0.0 0.0 0.0 0.0 0.0 0.0 0.0 0.0 0.0 0.0 )
( 0.0 0.0 0.0 0.0 0.0 0.0 0.0 0.0 0.0 0.0 )
( 0.0 0.0 0.0 0.0 0.0 0.0 0.0 0.0 0.0 0.0 )
( 0.0 0.0 0.0 0.0 0.0 0.0 0.0 0.0 0.0 0.0 )
( 0.0 0.0 0.0 0.0 0.0 0.0 0.0 0.0 0.0 0.0 )))
((( 0.0 0.0 0.0 0.0 0.0 0.0 0.0 0.0 0.0 0.0 )
( 0.0 0.0 0.0 0.0 0.0 0.0 0.0 0.0 0.0 0.0 )
( 0.0 0.0 0.0 0.0 0.0 0.0 0.0 0.0 0.0 0.0 )
( 0.0 0.0 0.0 0.0 0.0 0.0 0.0 0.0 0.0 0.0 )
( 0.0 0.0 0.0 0.0 0.0 0.0 0.0 0.0 0.0 0.0 ))
(( 0.0 0.0 0.0 0.0 0.0 0.0 0.0 0.0 0.0 0.0 )
( 0.0 0.0 0.0 0.0 0.0 0.0 0.0 0.0 0.0 0.0 )
( 0.0 0.0 0.0 0.0 0.0 0.0 0.0 0.0 0.0 0.0 )
( 0.0 0.0 0.0 0.0 0.0 0.0 0.0 0.0 0.0 0.0 )
( 0.0 0.0 0.0 0.0 0.0 0.0 0.0 0.0 0.0 0.0 ))
(( 0.0 0.0 0.0 0.0 0.0 0.0 0.0 0.0 0.0 0.0 )
( 0.0 0.0 0.0 0.0 0.0 0.0 0.0 0.0 0.0 0.0 )
( 0.0 0.0 0.0 0.0 0.0 0.0 0.0 0.0 0.0 0.0 )
( 0.0 0.0 0.0 0.0 0.0 0.0 0.0 0.0 0.0 0.0 )
( 0.0 0.0 0.0 0.0 0.0 0.0 0.0 0.0 0.0 0.0 ))
(( 0.0 0.0 0.0 0.0 0.0 0.0 0.0 0.0 0.0 0.0 )
( 0.0 0.0 0.0 0.0 0.0 0.0 0.0 0.0 0.0 0.0 )
( 0.0 0.0 0.0 0.0 0.0 0.0 0.0 0.0 0.0 0.0 )
( 0.0 0.0 0.0 0.0 0.0 0.0 0.0 0.0 0.0 0.0 )
( 0.0 0.0 0.0 0.0 0.0 0.0 0.0 0.0 0.0 0.0 )))
((( 0.0 0.0 0.0 0.0 0.0 0.0 0.0 0.0 0.0 0.0 )
( 0.0 0.0 0.0 0.0 0.0 0.0 0.0 0.0 0.0 0.0 )
( 0.0 0.0 0.0 0.0 0.0 0.0 0.0 0.0 0.0 0.0 )
( 0.0 0.0 0.0 0.0 0.0 0.0 0.0 0.0 0.0 0.0 )
( 0.0 0.0 0.0 0.0 0.0 0.0 0.0 0.0 0.0 0.0 ))
(( 0.0 0.0 0.0 0.0 0.0 0.0 0.0 0.0 0.0 0.0 )
( 0.0 0.0 0.0 0.0 0.0 0.0 0.0 0.0 0.0 0.0 )
( 0.0 0.0 0.0 0.0 0.0 0.0 0.0 0.0 0.0 0.0 )
( 0.0 0.0 0.0 0.0 0.0 0.0 0.0 0.0 0.0 0.0 )
( 0.0 0.0 0.0 0.0 0.0 0.0 0.0 0.0 0.0 0.0 ))
(( 0.0 0.0 0.0 0.0 0.0 0.0 0.0 0.0 0.0 0.0 )
( 0.0 0.0 0.0 0.0 0.0 0.0 0.0 0.0 0.0 0.0 )
( 0.0 0.0 0.0 0.0 0.0 0.0 0.0 0.0 0.0 0.0 )
( 0.0 0.0 0.0 0.0 0.0 0.0 0.0 0.0 0.0 0.0 )
( 0.0 0.0 0.0 0.0 0.0 0.0 0.0 0.0 0.0 0.0 ))
(( 0.0 0.0 0.0 0.0 0.0 0.0 0.0 0.0 0.0 0.0 )
( 0.0 0.0 0.0 0.0 0.0 0.0 0.0 0.0 0.0 0.0 )
( 0.0 0.0 0.0 0.0 0.0 0.0 0.0 0.0 0.0 0.0 )
( 0.0 0.0 0.0 0.0 0.0 0.0 0.0 0.0 0.0 0.0 )
( 0.0 0.0 0.0 0.0 0.0 0.0 0.0 0.0 0.0 0.0 ))))
(((( 0.0 0.0 0.0 0.0 0.0 0.0 0.0 0.0 0.0 0.0 )
( 0.0 0.0 0.0 0.0 0.0 0.0 0.0 0.0 0.0 0.0 )
( 0.0 0.0 0.0 0.0 0.0 0.0 0.0 0.0 0.0 0.0 )
( 0.0 0.0 0.0 0.0 0.0 0.0 0.0 0.0 0.0 0.0 )
( 0.0 0.0 0.0 0.0 0.0 0.0 0.0 0.0 0.0 0.0 ))
(( 0.0 0.0 0.0 0.0 0.0 0.0 0.0 0.0 0.0 0.0 )
( 0.0 0.0 0.0 0.0 0.0 0.0 0.0 0.0 0.0 0.0 )
( 0.0 0.0 0.0 0.0 0.0 0.0 0.0 0.0 0.0 0.0 )
( 0.0 0.0 0.0 0.0 0.0 0.0 0.0 0.0 0.0 0.0 )
( 0.0 0.0 0.0 0.0 0.0 0.0 0.0 0.0 0.0 0.0 ))
(( 0.0 0.0 0.0 0.0 0.0 0.0 0.0 0.0 0.0 0.0 )
( 0.0 0.0 0.0 0.0 0.0 0.0 0.0 0.0 0.0 0.0 )
( 0.0 0.0 0.0 0.0 0.0 0.0 0.0 0.0 0.0 0.0 )
( 0.0 0.0 0.0 0.0 0.0 0.0 0.0 0.0 0.0 0.0 )
( 0.0 0.0 0.0 0.0 0.0 0.0 0.0 0.0 0.0 0.0 ))
(( 0.0 0.0 0.0 0.0 0.0 0.0 0.0 0.0 0.0 0.0 )
( 0.0 0.0 0.0 0.0 0.0 0.0 0.0 0.0 0.0 0.0 )
( 0.0 0.0 0.0 0.0 0.0 0.0 0.0 0.0 0.0 0.0 )
( 0.0 0.0 0.0 0.0 0.0 0.0 0.0 0.0 0.0 0.0 )
( 0.0 0.0 0.0 0.0 0.0 0.0 0.0 0.0 0.0 0.0 )))
((( 0.0 0.0 0.0 0.0 0.0 0.0 0.0 0.0 0.0 0.0 )
( 0.0 0.0 0.0 0.0 0.0 0.0 0.0 0.0 0.0 0.0 )
( 0.0 0.0 0.0 0.0 0.0 0.0 0.0 0.0 0.0 0.0 )
( 0.0 0.0 0.0 0.0 0.0 0.0 0.0 0.0 0.0 0.0 )
( 0.0 0.0 0.0 0.0 0.0 0.0 0.0 0.0 0.0 0.0 ))
(( 0.0 0.0 0.0 0.0 0.0 0.0 0.0 0.0 0.0 0.0 )
( 0.0 0.0 0.0 0.0 0.0 0.0 0.0 0.0 0.0 0.0 )
( 0.0 0.0 0.0 0.0 0.0 0.0 0.0 0.0 0.0 0.0 )
( 0.0 0.0 0.0 0.0 0.0 0.0 0.0 0.0 0.0 0.0 )
( 0.0 0.0 0.0 0.0 0.0 0.0 0.0 0.0 0.0 0.0 ))
(( 0.0 0.0 0.0 0.0 0.0 0.0 0.0 0.0 0.0 0.0 )
( 0.0 0.0 0.0 0.0 0.0 0.0 0.0 0.0 0.0 0.0 )
( 0.0 0.0 0.0 0.0 0.0 0.0 0.0 0.0 0.0 0.0 )
( 0.0 0.0 0.0 0.0 0.0 0.0 0.0 0.0 0.0 0.0 )
( 0.0 0.0 0.0 0.0 0.0 0.0 0.0 0.0 0.0 0.0 ))
(( 0.0 0.0 0.0 0.0 0.0 0.0 0.0 0.0 0.0 0.0 )
( 0.0 0.0 0.0 0.0 0.0 0.0 0.0 0.0 0.0 0.0 )
( 0.0 0.0 0.0 0.0 0.0 0.0 0.0 0.0 0.0 0.0 )
( 0.0 0.0 0.0 0.0 0.0 0.0 0.0 0.0 0.0 0.0 )
( 0.0 0.0 0.0 0.0 0.0 0.0 0.0 0.0 0.0 0.0 )))
((( 0.0 0.0 0.0 0.0 0.0 0.0 0.0 0.0 0.0 0.0 )
( 0.0 0.0 0.0 0.0 0.0 0.0 0.0 0.0 0.0 0.0 )
( 0.0 0.0 0.0 0.0 0.0 0.0 0.0 0.0 0.0 0.0 )
( 0.0 0.0 0.0 0.0 0.0 0.0 0.0 0.0 0.0 0.0 )
( 0.0 0.0 0.0 0.0 0.0 0.0 0.0 0.0 0.0 0.0 ))
(( 0.0 0.0 0.0 0.0 0.0 0.0 0.0 0.0 0.0 0.0 )
( 0.0 0.0 0.0 0.0 0.0 0.0 0.0 0.0 0.0 0.0 )
( 0.0 0.0 0.0 0.0 0.0 0.0 0.0 0.0 0.0 0.0 )
( 0.0 0.0 0.0 0.0 0.0 0.0 0.0 0.0 0.0 0.0 )
( 0.0 0.0 0.0 0.0 0.0 0.0 0.0 0.0 0.0 0.0 ))
(( 0.0 0.0 0.0 0.0 0.0 0.0 0.0 0.0 0.0 0.0 )
( 0.0 0.0 0.0 0.0 0.0 0.0 0.0 0.0 0.0 0.0 )
( 0.0 0.0 0.0 0.0 0.0 0.0 0.0 0.0 0.0 0.0 )
( 0.0 0.0 0.0 0.0 0.0 0.0 0.0 0.0 0.0 0.0 )
( 0.0 0.0 0.0 0.0 0.0 0.0 0.0 0.0 0.0 0.0 ))
(( 0.0 0.0 0.0 0.0 0.0 0.0 0.0 0.0 0.0 0.0 )
( 0.0 0.0 0.0 0.0 0.0 0.0 0.0 0.0 0.0 0.0 )
( 0.0 0.0 0.0 0.0 0.0 0.0 0.0 0.0 0.0 0.0 )
( 0.0 0.0 0.0 0.0 0.0 0.0 0.0 0.0 0.0 0.0 )
( 0.0 0.0 0.0 0.0 0.0 0.0 0.0 0.0 0.0 0.0 )))));
}

potential (SUPERMERCADO | SUPERMERCADO MCC VLTRAN SUPERMERCADO)
{
 data = (((( 0.9997948297086582 2.051702913418137E-4 )
( 0.9995654063450674 4.34593654932638E-4 )
( 0.9995027349577325 4.972650422675286E-4 )
( 0.9994635193133047 5.36480686695279E-4 )
( 0.9996783531682213 3.21646831778707E-4 )
( 0.999787460148778 2.1253985122210415E-4 )
( 0.9996402877697842 3.5971223021582735E-4 )
( 0.99986265622854 1.373437714599643E-4 )
( 0.9999426572624577 5.734273754229027E-5 )
( 0.7938464347667306 0.20615356523326941 ))
(( 0.9996031746031746 3.968253968253968E-4 )
( 0.9978401727861771 0.0021598272138228943 )
( 0.9995715509854327 4.284490145672665E-4 )
( 0.999054820415879 9.45179584120983E-4 )
( 0.9994678020223523 5.321979776476849E-4 )
( 0.9996107434799533 3.8925652004671076E-4 )
( 0.999466097170315 5.339028296849973E-4 )
( 0.9997301672962763 2.698327037236913E-4 )
( 0.9999121651295564 8.78348704435661E-5 )
( 0.7348088133583638 0.2651911866416362 ))
(( 0.9994484280198566 5.515719801434088E-4 )
( 0.9971988795518207 0.0028011204481792717 )
( 0.9997209042701647 2.7909572983533354E-4 )
( 0.998849252013809 0.0011507479861910242 )
( 0.999536822603057 4.631773969430292E-4 )
( 0.9995176073323685 4.82392667631452E-4 )
( 0.9994282447112636 5.717552887364208E-4 )
( 0.9996971532404604 3.028467595396729E-4 )
( 0.9999059973679263 9.400263207369807E-5 )
( 0.6854076928889896 0.3145923071110103 ))
(( 0.9980952380952381 0.0019047619047619048 )
( 0.9923664122137404 0.007633587786259542 )
( 0.9996084573218481 3.9154267815191856E-4 )
( 0.9975062344139651 0.0024937655860349127 )
( 0.9992937853107344 7.062146892655367E-4 )
( 0.9990485252140818 9.514747859181732E-4 )
( 0.9988109393579072 0.0011890606420927466 )
( 0.9995194617972128 4.805382027871216E-4 )
( 0.9998679344955098 1.3206550449022716E-4 )
( 0.6898242746219861 0.3101757253780139 ))
(( 0.9954337899543378 0.0045662100456621 )
( 0.9863013698630136 0.0136986301369863 )
( 0.9994172494172494 5.827505827505828E-4 )
( 0.9948453608247423 0.005154639175257732 )
( 0.9990732159406858 9.267840593141798E-4 )
( 0.9983443708609272 0.0016556291390728477 )
( 0.9980694980694981 0.0019305019305019305 )
( 0.9993544222078761 6.455777921239509E-4 )
( 0.9998319892473119 1.6801075268817206E-4 )
( 0.6852619675838674 0.3147380324161327 )))
((( 0.0 0.0 )
( 0.0 0.0 )
( 0.0 0.0 )
( 0.0 0.0 )
( 0.0 0.0 )
( 0.0 0.0 )
( 0.0 0.0 )
( 0.0 0.0 )
( 0.0 0.0 )
( 0.0 0.0 ))
(( 0.0 0.0 )
( 0.0 0.0 )
( 0.0 0.0 )
( 0.0 0.0 )
( 0.0 0.0 )
( 0.0 0.0 )
( 0.0 0.0 )
( 0.0 0.0 )
( 0.0 0.0 )
( 0.0 0.0 ))
(( 0.0 0.0 )
( 0.0 0.0 )
( 0.0 0.0 )
( 0.0 0.0 )
( 0.0 0.0 )
( 0.0 0.0 )
( 0.0 0.0 )
( 0.0 0.0 )
( 0.0 0.0 )
( 0.0 0.0 ))
(( 0.0 0.0 )
( 0.0 0.0 )
( 0.0 0.0 )
( 0.0 0.0 )
( 0.0 0.0 )
( 0.0 0.0 )
( 0.0 0.0 )
( 0.0 0.0 )
( 0.0 0.0 )
( 0.0 0.0 ))
(( 0.0 0.0 )
( 0.0 0.0 )
( 0.0 0.0 )
( 0.0 0.0 )
( 0.0 0.0 )
( 0.0 0.0 )
( 0.0 0.0 )
( 0.0 0.0 )
( 0.0 0.0 )
( 0.0 0.0 ))));
}

potential (VESTUARIO | VESTUARIO MCC SUPERMERCADO VLTRAN VESTUARIO)
{
 data = ((((( 0.9997948297086582 2.051702913418137E-4 )
( 0.9995654063450674 4.34593654932638E-4 )
( 0.9995027349577325 4.972650422675286E-4 )
( 0.9994635193133047 5.36480686695279E-4 )
( 0.9996783531682213 3.21646831778707E-4 )
( 0.999787460148778 2.1253985122210415E-4 )
( 0.9996402877697842 3.5971223021582735E-4 )
( 0.99986265622854 1.373437714599643E-4 )
( 0.9999426572624577 5.734273754229027E-5 )
( 0.7546361519220264 0.2453638480779736 ))
(( 0.5 0.5 )
( 0.5 0.5 )
( 0.5 0.5 )
( 0.5 0.5 )
( 0.5 0.5 )
( 0.5 0.5 )
( 0.5 0.5 )
( 0.5 0.5 )
( 0.5 0.5 )
( 0.9998892948079265 1.1070519207350825E-4 )))
((( 0.9996031746031746 3.968253968253968E-4 )
( 0.9978401727861771 0.0021598272138228943 )
( 0.9995715509854327 4.284490145672665E-4 )
( 0.999054820415879 9.45179584120983E-4 )
( 0.9994678020223523 5.321979776476849E-4 )
( 0.9996107434799533 3.8925652004671076E-4 )
( 0.999466097170315 5.339028296849973E-4 )
( 0.9997301672962763 2.698327037236913E-4 )
( 0.9999121651295564 8.78348704435661E-5 )
( 0.6283025210084033 0.37169747899159666 ))
(( 0.5 0.5 )
( 0.5 0.5 )
( 0.5 0.5 )
( 0.5 0.5 )
( 0.5 0.5 )
( 0.5 0.5 )
( 0.5 0.5 )
( 0.5 0.5 )
( 0.5 0.5 )
( 0.9998137455764574 1.8625442354255913E-4 )))
((( 0.9994484280198566 5.515719801434088E-4 )
( 0.9971988795518207 0.0028011204481792717 )
( 0.9997209042701647 2.7909572983533354E-4 )
( 0.998849252013809 0.0011507479861910242 )
( 0.999536822603057 4.631773969430292E-4 )
( 0.9995176073323685 4.82392667631452E-4 )
( 0.9994282447112636 5.717552887364208E-4 )
( 0.9996971532404604 3.028467595396729E-4 )
( 0.9999059973679263 9.400263207369807E-5 )
( 0.5002756035718223 0.49972439642817773 ))
(( 0.5 0.5 )
( 0.5 0.5 )
( 0.5 0.5 )
( 0.5 0.5 )
( 0.5 0.5 )
( 0.5 0.5 )
( 0.5 0.5 )
( 0.5 0.5 )
( 0.5 0.5 )
( 0.9997598463016331 2.4015369836695484E-4 )))
((( 0.9980952380952381 0.0019047619047619048 )
( 0.9923664122137404 0.007633587786259542 )
( 0.9996084573218481 3.9154267815191856E-4 )
( 0.9975062344139651 0.0024937655860349127 )
( 0.9992937853107344 7.062146892655367E-4 )
( 0.9990485252140818 9.514747859181732E-4 )
( 0.9988109393579072 0.0011890606420927466 )
( 0.9995194617972128 4.805382027871216E-4 )
( 0.9998679344955098 1.3206550449022716E-4 )
( 0.3482380811371039 0.651761918862896 ))
(( 0.5 0.5 )
( 0.5 0.5 )
( 0.5 0.5 )
( 0.5 0.5 )
( 0.5 0.5 )
( 0.5 0.5 )
( 0.5 0.5 )
( 0.5 0.5 )
( 0.5 0.5 )
( 0.9993416721527321 6.583278472679394E-4 )))
((( 0.9954337899543378 0.0045662100456621 )
( 0.9863013698630136 0.0136986301369863 )
( 0.9994172494172494 5.827505827505828E-4 )
( 0.9948453608247423 0.005154639175257732 )
( 0.9990732159406858 9.267840593141798E-4 )
( 0.9983443708609272 0.0016556291390728477 )
( 0.9980694980694981 0.0019305019305019305 )
( 0.9993544222078761 6.455777921239509E-4 )
( 0.9998319892473119 1.6801075268817206E-4 )
( 0.3639362286970863 0.6360637713029137 ))
(( 0.5 0.5 )
( 0.5 0.5 )
( 0.5 0.5 )
( 0.5 0.5 )
( 0.5 0.5 )
( 0.5 0.5 )
( 0.5 0.5 )
( 0.5 0.5 )
( 0.5 0.5 )
( 0.9988038277511961 0.0011961722488038277 ))))
(((( 0.0 0.0 )
( 0.0 0.0 )
( 0.0 0.0 )
( 0.0 0.0 )
( 0.0 0.0 )
( 0.0 0.0 )
( 0.0 0.0 )
( 0.0 0.0 )
( 0.0 0.0 )
( 0.0 0.0 ))
(( 0.0 0.0 )
( 0.0 0.0 )
( 0.0 0.0 )
( 0.0 0.0 )
( 0.0 0.0 )
( 0.0 0.0 )
( 0.0 0.0 )
( 0.0 0.0 )
( 0.0 0.0 )
( 0.0 0.0 )))
((( 0.0 0.0 )
( 0.0 0.0 )
( 0.0 0.0 )
( 0.0 0.0 )
( 0.0 0.0 )
( 0.0 0.0 )
( 0.0 0.0 )
( 0.0 0.0 )
( 0.0 0.0 )
( 0.0 0.0 ))
(( 0.0 0.0 )
( 0.0 0.0 )
( 0.0 0.0 )
( 0.0 0.0 )
( 0.0 0.0 )
( 0.0 0.0 )
( 0.0 0.0 )
( 0.0 0.0 )
( 0.0 0.0 )
( 0.0 0.0 )))
((( 0.0 0.0 )
( 0.0 0.0 )
( 0.0 0.0 )
( 0.0 0.0 )
( 0.0 0.0 )
( 0.0 0.0 )
( 0.0 0.0 )
( 0.0 0.0 )
( 0.0 0.0 )
( 0.0 0.0 ))
(( 0.0 0.0 )
( 0.0 0.0 )
( 0.0 0.0 )
( 0.0 0.0 )
( 0.0 0.0 )
( 0.0 0.0 )
( 0.0 0.0 )
( 0.0 0.0 )
( 0.0 0.0 )
( 0.0 0.0 )))
((( 0.0 0.0 )
( 0.0 0.0 )
( 0.0 0.0 )
( 0.0 0.0 )
( 0.0 0.0 )
( 0.0 0.0 )
( 0.0 0.0 )
( 0.0 0.0 )
( 0.0 0.0 )
( 0.0 0.0 ))
(( 0.0 0.0 )
( 0.0 0.0 )
( 0.0 0.0 )
( 0.0 0.0 )
( 0.0 0.0 )
( 0.0 0.0 )
( 0.0 0.0 )
( 0.0 0.0 )
( 0.0 0.0 )
( 0.0 0.0 )))
((( 0.0 0.0 )
( 0.0 0.0 )
( 0.0 0.0 )
( 0.0 0.0 )
( 0.0 0.0 )
( 0.0 0.0 )
( 0.0 0.0 )
( 0.0 0.0 )
( 0.0 0.0 )
( 0.0 0.0 ))
(( 0.0 0.0 )
( 0.0 0.0 )
( 0.0 0.0 )
( 0.0 0.0 )
( 0.0 0.0 )
( 0.0 0.0 )
( 0.0 0.0 )
( 0.0 0.0 )
( 0.0 0.0 )
( 0.0 0.0 )))));
}

potential (POSTO | POSTO MCC VESTUARIO SUPERMERCADO FRAUDE POSTO)
{
 data = (((((( 0.9998986828774062 1.0131712259371833E-4 )
( 0.9996984318455971 3.0156815440289503E-4 )
( 0.9999177631578947 8.223684210526316E-5 )
( 0.9997704315886135 2.295684113865932E-4 )
( 0.9998954412379757 1.0455876202425763E-4 )
( 0.9999082652967618 9.173470323823502E-5 )
( 0.9998704327545996 1.295672454003628E-4 )
( 0.999943569775972 5.643022402798939E-5 )
( 0.9999805957116523 1.9404288347724847E-5 )
( 0.8090866808646056 0.19091331913539447 ))
(( 0.5 0.5 )
( 0.5 0.5 )
( 0.5 0.5 )
( 0.5 0.5 )
( 0.5 0.5 )
( 0.5 0.5 )
( 0.5 0.5 )
( 0.5 0.5 )
( 0.5 0.5 )
( 0.9999538298167043 4.6170183295627686E-5 )))
((( 0.5 0.5 )
( 0.5 0.5 )
( 0.5 0.5 )
( 0.5 0.5 )
( 0.5 0.5 )
( 0.5 0.5 )
( 0.5 0.5 )
( 0.5 0.5 )
( 0.5 0.5 )
( 0.9999513358314274 4.866416857267994E-5 ))
(( 0.5 0.5 )
( 0.5 0.5 )
( 0.5 0.5 )
( 0.5 0.5 )
( 0.5 0.5 )
( 0.5 0.5 )
( 0.5 0.5 )
( 0.5 0.5 )
( 0.5 0.5 )
( 0.5 0.5 ))))
(((( 0.9866666666666667 0.013333333333333334 )
( 0.6666666666666666 0.3333333333333333 )
( 0.96875 0.03125 )
( 0.9583333333333334 0.041666666666666664 )
( 0.9861111111111112 0.013888888888888888 )
( 0.9894736842105263 0.010526315789473684 )
( 0.972972972972973 0.02702702702702703 )
( 0.9947916666666666 0.005208333333333333 )
( 0.9993079584775086 6.920415224913495E-4 )
( 0.4726947179946285 0.5273052820053715 ))
(( 0.5 0.5 )
( 0.5 0.5 )
( 0.5 0.5 )
( 0.5 0.5 )
( 0.5 0.5 )
( 0.5 0.5 )
( 0.5 0.5 )
( 0.5 0.5 )
( 0.5 0.5 )
( 0.9965986394557823 0.003401360544217687 )))
((( 0.5 0.5 )
( 0.5 0.5 )
( 0.5 0.5 )
( 0.5 0.5 )
( 0.5 0.5 )
( 0.5 0.5 )
( 0.5 0.5 )
( 0.5 0.5 )
( 0.5 0.5 )
( 0.9972677595628415 0.00273224043715847 ))
(( 0.5 0.5 )
( 0.5 0.5 )
( 0.5 0.5 )
( 0.5 0.5 )
( 0.5 0.5 )
( 0.5 0.5 )
( 0.5 0.5 )
( 0.5 0.5 )
( 0.5 0.5 )
( 0.5 0.5 )))))
((((( 0.0 0.0 )
( 0.0 0.0 )
( 0.0 0.0 )
( 0.0 0.0 )
( 0.0 0.0 )
( 0.0 0.0 )
( 0.0 0.0 )
( 0.0 0.0 )
( 0.0 0.0 )
( 0.0 0.0 ))
(( 0.0 0.0 )
( 0.0 0.0 )
( 0.0 0.0 )
( 0.0 0.0 )
( 0.0 0.0 )
( 0.0 0.0 )
( 0.0 0.0 )
( 0.0 0.0 )
( 0.0 0.0 )
( 0.0 0.0 )))
((( 0.0 0.0 )
( 0.0 0.0 )
( 0.0 0.0 )
( 0.0 0.0 )
( 0.0 0.0 )
( 0.0 0.0 )
( 0.0 0.0 )
( 0.0 0.0 )
( 0.0 0.0 )
( 0.0 0.0 ))
(( 0.0 0.0 )
( 0.0 0.0 )
( 0.0 0.0 )
( 0.0 0.0 )
( 0.0 0.0 )
( 0.0 0.0 )
( 0.0 0.0 )
( 0.0 0.0 )
( 0.0 0.0 )
( 0.0 0.0 ))))
(((( 0.0 0.0 )
( 0.0 0.0 )
( 0.0 0.0 )
( 0.0 0.0 )
( 0.0 0.0 )
( 0.0 0.0 )
( 0.0 0.0 )
( 0.0 0.0 )
( 0.0 0.0 )
( 0.0 0.0 ))
(( 0.0 0.0 )
( 0.0 0.0 )
( 0.0 0.0 )
( 0.0 0.0 )
( 0.0 0.0 )
( 0.0 0.0 )
( 0.0 0.0 )
( 0.0 0.0 )
( 0.0 0.0 )
( 0.0 0.0 )))
((( 0.0 0.0 )
( 0.0 0.0 )
( 0.0 0.0 )
( 0.0 0.0 )
( 0.0 0.0 )
( 0.0 0.0 )
( 0.0 0.0 )
( 0.0 0.0 )
( 0.0 0.0 )
( 0.0 0.0 ))
(( 0.0 0.0 )
( 0.0 0.0 )
( 0.0 0.0 )
( 0.0 0.0 )
( 0.0 0.0 )
( 0.0 0.0 )
( 0.0 0.0 )
( 0.0 0.0 )
( 0.0 0.0 )
( 0.0 0.0 ))))));
}

potential (FARMACIA | FARMACIA MCC VESTUARIO SUPERMERCADO POSTO FARMACIA)
{
 data = (((((( 0.9998994267323745 1.0057326762546515E-4 )
( 0.9996985227615315 3.0147723846849563E-4 )
( 0.9999179655455291 8.203445447087777E-5 )
( 0.9997715851987209 2.2841480127912289E-4 )
( 0.9998962009549512 1.0379904504878556E-4 )
( 0.9999090412952519 9.095870474804439E-5 )
( 0.9998710176705792 1.2898232942086933E-4 )
( 0.9999441683881414 5.583161185863436E-5 )
( 0.9999811242402507 1.887575974932991E-5 )
( 0.456789755807028 0.543210244192972 ))
(( 0.5 0.5 )
( 0.5 0.5 )
( 0.5 0.5 )
( 0.5 0.5 )
( 0.5 0.5 )
( 0.5 0.5 )
( 0.5 0.5 )
( 0.5 0.5 )
( 0.5 0.5 )
( 0.9999544439888843 4.555601111566671E-5 )))
((( 0.5 0.5 )
( 0.5 0.5 )
( 0.5 0.5 )
( 0.5 0.5 )
( 0.5 0.5 )
( 0.5 0.5 )
( 0.5 0.5 )
( 0.5 0.5 )
( 0.5 0.5 )
( 0.999952182852771 4.781714722899632E-5 ))
(( 0.5 0.5 )
( 0.5 0.5 )
( 0.5 0.5 )
( 0.5 0.5 )
( 0.5 0.5 )
( 0.5 0.5 )
( 0.5 0.5 )
( 0.5 0.5 )
( 0.5 0.5 )
( 0.5 0.5 ))))
(((( 0.5 0.5 )
( 0.5 0.5 )
( 0.5 0.5 )
( 0.5 0.5 )
( 0.5 0.5 )
( 0.5 0.5 )
( 0.5 0.5 )
( 0.5 0.5 )
( 0.5 0.5 )
( 0.9998807820696233 1.1921793037672866E-4 ))
(( 0.5 0.5 )
( 0.5 0.5 )
( 0.5 0.5 )
( 0.5 0.5 )
( 0.5 0.5 )
( 0.5 0.5 )
( 0.5 0.5 )
( 0.5 0.5 )
( 0.5 0.5 )
( 0.5 0.5 )))
((( 0.5 0.5 )
( 0.5 0.5 )
( 0.5 0.5 )
( 0.5 0.5 )
( 0.5 0.5 )
( 0.5 0.5 )
( 0.5 0.5 )
( 0.5 0.5 )
( 0.5 0.5 )
( 0.5 0.5 ))
(( 0.5 0.5 )
( 0.5 0.5 )
( 0.5 0.5 )
( 0.5 0.5 )
( 0.5 0.5 )
( 0.5 0.5 )
( 0.5 0.5 )
( 0.5 0.5 )
( 0.5 0.5 )
( 0.5 0.5 )))))
((((( 0.0 0.0 )
( 0.0 0.0 )
( 0.0 0.0 )
( 0.0 0.0 )
( 0.0 0.0 )
( 0.0 0.0 )
( 0.0 0.0 )
( 0.0 0.0 )
( 0.0 0.0 )
( 0.0 0.0 ))
(( 0.0 0.0 )
( 0.0 0.0 )
( 0.0 0.0 )
( 0.0 0.0 )
( 0.0 0.0 )
( 0.0 0.0 )
( 0.0 0.0 )
( 0.0 0.0 )
( 0.0 0.0 )
( 0.0 0.0 )))
((( 0.0 0.0 )
( 0.0 0.0 )
( 0.0 0.0 )
( 0.0 0.0 )
( 0.0 0.0 )
( 0.0 0.0 )
( 0.0 0.0 )
( 0.0 0.0 )
( 0.0 0.0 )
( 0.0 0.0 ))
(( 0.0 0.0 )
( 0.0 0.0 )
( 0.0 0.0 )
( 0.0 0.0 )
( 0.0 0.0 )
( 0.0 0.0 )
( 0.0 0.0 )
( 0.0 0.0 )
( 0.0 0.0 )
( 0.0 0.0 ))))
(((( 0.0 0.0 )
( 0.0 0.0 )
( 0.0 0.0 )
( 0.0 0.0 )
( 0.0 0.0 )
( 0.0 0.0 )
( 0.0 0.0 )
( 0.0 0.0 )
( 0.0 0.0 )
( 0.0 0.0 ))
(( 0.0 0.0 )
( 0.0 0.0 )
( 0.0 0.0 )
( 0.0 0.0 )
( 0.0 0.0 )
( 0.0 0.0 )
( 0.0 0.0 )
( 0.0 0.0 )
( 0.0 0.0 )
( 0.0 0.0 )))
((( 0.0 0.0 )
( 0.0 0.0 )
( 0.0 0.0 )
( 0.0 0.0 )
( 0.0 0.0 )
( 0.0 0.0 )
( 0.0 0.0 )
( 0.0 0.0 )
( 0.0 0.0 )
( 0.0 0.0 ))
(( 0.0 0.0 )
( 0.0 0.0 )
( 0.0 0.0 )
( 0.0 0.0 )
( 0.0 0.0 )
( 0.0 0.0 )
( 0.0 0.0 )
( 0.0 0.0 )
( 0.0 0.0 )
( 0.0 0.0 ))))));
}

potential (RESTAURANTE | RESTAURANTE MCC VESTUARIO SUPERMERCADO FARMACIA POSTO RESTAURANTE)
{
 data = ((((((( 0.9998994267323745 1.0057326762546515E-4 )
( 0.9996985227615315 3.0147723846849563E-4 )
( 0.9999179655455291 8.203445447087777E-5 )
( 0.9997715851987209 2.2841480127912289E-4 )
( 0.9998962009549512 1.0379904504878556E-4 )
( 0.9999090412952519 9.095870474804439E-5 )
( 0.9998710176705792 1.2898232942086933E-4 )
( 0.9999441683881414 5.583161185863436E-5 )
( 0.9999811242402507 1.887575974932991E-5 )
( 6.51890482398957E-5 0.9999348109517601 ))
(( 0.5 0.5 )
( 0.5 0.5 )
( 0.5 0.5 )
( 0.5 0.5 )
( 0.5 0.5 )
( 0.5 0.5 )
( 0.5 0.5 )
( 0.5 0.5 )
( 0.5 0.5 )
( 0.9999544439888843 4.555601111566671E-5 )))
((( 0.5 0.5 )
( 0.5 0.5 )
( 0.5 0.5 )
( 0.5 0.5 )
( 0.5 0.5 )
( 0.5 0.5 )
( 0.5 0.5 )
( 0.5 0.5 )
( 0.5 0.5 )
( 0.999952182852771 4.781714722899632E-5 ))
(( 0.5 0.5 )
( 0.5 0.5 )
( 0.5 0.5 )
( 0.5 0.5 )
( 0.5 0.5 )
( 0.5 0.5 )
( 0.5 0.5 )
( 0.5 0.5 )
( 0.5 0.5 )
( 0.5 0.5 ))))
(((( 0.5 0.5 )
( 0.5 0.5 )
( 0.5 0.5 )
( 0.5 0.5 )
( 0.5 0.5 )
( 0.5 0.5 )
( 0.5 0.5 )
( 0.5 0.5 )
( 0.5 0.5 )
( 0.9999451814494025 5.48185505975222E-5 ))
(( 0.5 0.5 )
( 0.5 0.5 )
( 0.5 0.5 )
( 0.5 0.5 )
( 0.5 0.5 )
( 0.5 0.5 )
( 0.5 0.5 )
( 0.5 0.5 )
( 0.5 0.5 )
( 0.5 0.5 )))
((( 0.5 0.5 )
( 0.5 0.5 )
( 0.5 0.5 )
( 0.5 0.5 )
( 0.5 0.5 )
( 0.5 0.5 )
( 0.5 0.5 )
( 0.5 0.5 )
( 0.5 0.5 )
( 0.5 0.5 ))
(( 0.5 0.5 )
( 0.5 0.5 )
( 0.5 0.5 )
( 0.5 0.5 )
( 0.5 0.5 )
( 0.5 0.5 )
( 0.5 0.5 )
( 0.5 0.5 )
( 0.5 0.5 )
( 0.5 0.5 )))))
((((( 0.5 0.5 )
( 0.5 0.5 )
( 0.5 0.5 )
( 0.5 0.5 )
( 0.5 0.5 )
( 0.5 0.5 )
( 0.5 0.5 )
( 0.5 0.5 )
( 0.5 0.5 )
( 0.9998807820696233 1.1921793037672866E-4 ))
(( 0.5 0.5 )
( 0.5 0.5 )
( 0.5 0.5 )
( 0.5 0.5 )
( 0.5 0.5 )
( 0.5 0.5 )
( 0.5 0.5 )
( 0.5 0.5 )
( 0.5 0.5 )
( 0.5 0.5 )))
((( 0.5 0.5 )
( 0.5 0.5 )
( 0.5 0.5 )
( 0.5 0.5 )
( 0.5 0.5 )
( 0.5 0.5 )
( 0.5 0.5 )
( 0.5 0.5 )
( 0.5 0.5 )
( 0.5 0.5 ))
(( 0.5 0.5 )
( 0.5 0.5 )
( 0.5 0.5 )
( 0.5 0.5 )
( 0.5 0.5 )
( 0.5 0.5 )
( 0.5 0.5 )
( 0.5 0.5 )
( 0.5 0.5 )
( 0.5 0.5 ))))
(((( 0.5 0.5 )
( 0.5 0.5 )
( 0.5 0.5 )
( 0.5 0.5 )
( 0.5 0.5 )
( 0.5 0.5 )
( 0.5 0.5 )
( 0.5 0.5 )
( 0.5 0.5 )
( 0.5 0.5 ))
(( 0.5 0.5 )
( 0.5 0.5 )
( 0.5 0.5 )
( 0.5 0.5 )
( 0.5 0.5 )
( 0.5 0.5 )
( 0.5 0.5 )
( 0.5 0.5 )
( 0.5 0.5 )
( 0.5 0.5 )))
((( 0.5 0.5 )
( 0.5 0.5 )
( 0.5 0.5 )
( 0.5 0.5 )
( 0.5 0.5 )
( 0.5 0.5 )
( 0.5 0.5 )
( 0.5 0.5 )
( 0.5 0.5 )
( 0.5 0.5 ))
(( 0.5 0.5 )
( 0.5 0.5 )
( 0.5 0.5 )
( 0.5 0.5 )
( 0.5 0.5 )
( 0.5 0.5 )
( 0.5 0.5 )
( 0.5 0.5 )
( 0.5 0.5 )
( 0.5 0.5 ))))))
(((((( 0.0 0.0 )
( 0.0 0.0 )
( 0.0 0.0 )
( 0.0 0.0 )
( 0.0 0.0 )
( 0.0 0.0 )
( 0.0 0.0 )
( 0.0 0.0 )
( 0.0 0.0 )
( 0.0 0.0 ))
(( 0.0 0.0 )
( 0.0 0.0 )
( 0.0 0.0 )
( 0.0 0.0 )
( 0.0 0.0 )
( 0.0 0.0 )
( 0.0 0.0 )
( 0.0 0.0 )
( 0.0 0.0 )
( 0.0 0.0 )))
((( 0.0 0.0 )
( 0.0 0.0 )
( 0.0 0.0 )
( 0.0 0.0 )
( 0.0 0.0 )
( 0.0 0.0 )
( 0.0 0.0 )
( 0.0 0.0 )
( 0.0 0.0 )
( 0.0 0.0 ))
(( 0.0 0.0 )
( 0.0 0.0 )
( 0.0 0.0 )
( 0.0 0.0 )
( 0.0 0.0 )
( 0.0 0.0 )
( 0.0 0.0 )
( 0.0 0.0 )
( 0.0 0.0 )
( 0.0 0.0 ))))
(((( 0.0 0.0 )
( 0.0 0.0 )
( 0.0 0.0 )
( 0.0 0.0 )
( 0.0 0.0 )
( 0.0 0.0 )
( 0.0 0.0 )
( 0.0 0.0 )
( 0.0 0.0 )
( 0.0 0.0 ))
(( 0.0 0.0 )
( 0.0 0.0 )
( 0.0 0.0 )
( 0.0 0.0 )
( 0.0 0.0 )
( 0.0 0.0 )
( 0.0 0.0 )
( 0.0 0.0 )
( 0.0 0.0 )
( 0.0 0.0 )))
((( 0.0 0.0 )
( 0.0 0.0 )
( 0.0 0.0 )
( 0.0 0.0 )
( 0.0 0.0 )
( 0.0 0.0 )
( 0.0 0.0 )
( 0.0 0.0 )
( 0.0 0.0 )
( 0.0 0.0 ))
(( 0.0 0.0 )
( 0.0 0.0 )
( 0.0 0.0 )
( 0.0 0.0 )
( 0.0 0.0 )
( 0.0 0.0 )
( 0.0 0.0 )
( 0.0 0.0 )
( 0.0 0.0 )
( 0.0 0.0 )))))
((((( 0.0 0.0 )
( 0.0 0.0 )
( 0.0 0.0 )
( 0.0 0.0 )
( 0.0 0.0 )
( 0.0 0.0 )
( 0.0 0.0 )
( 0.0 0.0 )
( 0.0 0.0 )
( 0.0 0.0 ))
(( 0.0 0.0 )
( 0.0 0.0 )
( 0.0 0.0 )
( 0.0 0.0 )
( 0.0 0.0 )
( 0.0 0.0 )
( 0.0 0.0 )
( 0.0 0.0 )
( 0.0 0.0 )
( 0.0 0.0 )))
((( 0.0 0.0 )
( 0.0 0.0 )
( 0.0 0.0 )
( 0.0 0.0 )
( 0.0 0.0 )
( 0.0 0.0 )
( 0.0 0.0 )
( 0.0 0.0 )
( 0.0 0.0 )
( 0.0 0.0 ))
(( 0.0 0.0 )
( 0.0 0.0 )
( 0.0 0.0 )
( 0.0 0.0 )
( 0.0 0.0 )
( 0.0 0.0 )
( 0.0 0.0 )
( 0.0 0.0 )
( 0.0 0.0 )
( 0.0 0.0 ))))
(((( 0.0 0.0 )
( 0.0 0.0 )
( 0.0 0.0 )
( 0.0 0.0 )
( 0.0 0.0 )
( 0.0 0.0 )
( 0.0 0.0 )
( 0.0 0.0 )
( 0.0 0.0 )
( 0.0 0.0 ))
(( 0.0 0.0 )
( 0.0 0.0 )
( 0.0 0.0 )
( 0.0 0.0 )
( 0.0 0.0 )
( 0.0 0.0 )
( 0.0 0.0 )
( 0.0 0.0 )
( 0.0 0.0 )
( 0.0 0.0 )))
((( 0.0 0.0 )
( 0.0 0.0 )
( 0.0 0.0 )
( 0.0 0.0 )
( 0.0 0.0 )
( 0.0 0.0 )
( 0.0 0.0 )
( 0.0 0.0 )
( 0.0 0.0 )
( 0.0 0.0 ))
(( 0.0 0.0 )
( 0.0 0.0 )
( 0.0 0.0 )
( 0.0 0.0 )
( 0.0 0.0 )
( 0.0 0.0 )
( 0.0 0.0 )
( 0.0 0.0 )
( 0.0 0.0 )
( 0.0 0.0 )))))));
}

potential (DOMESTICA | DOMESTICA LOCALIDADE MCC VLTRAN DOMESTICA)
{
 data = ((((( 0.13881961762261014 0.8611803823773898 )
( 0.00303951367781155 0.9969604863221885 )
( 4.666355576294914E-4 0.9995333644423705 ))
(( 0.016682113067655237 0.9833178869323448 )
( 0.014492753623188406 0.9855072463768116 )
( 8.64304235090752E-4 0.9991356957649092 ))
(( 0.08363636363636363 0.9163636363636364 )
( 0.1 0.9 )
( 0.0011049723756906078 0.9988950276243094 ))
(( 0.008221993833504625 0.9917780061664954 )
( 0.01639344262295082 0.9836065573770492 )
( 0.001199040767386091 0.9988009592326139 ))
(( 0.5225961538461539 0.4774038461538462 )
( 0.009615384615384616 0.9903846153846154 )
( 0.001076426264800861 0.9989235737351991 ))
(( 0.46782006920415226 0.5321799307958478 )
( 0.003076923076923077 0.9969230769230769 )
( 6.693440428380187E-4 0.999330655957162 ))
(( 0.11263537906137185 0.8873646209386281 )
( 0.00625 0.99375 )
( 8.071025020177562E-4 0.9991928974979822 ))
(( 0.5038961038961038 0.4961038961038961 )
( 0.0019120458891013384 0.9980879541108987 )
( 4.6685340802987864E-4 0.9995331465919701 ))
(( 0.41734126597093535 0.5826587340290647 )
( 6.108735491753207E-4 0.9993891264508247 )
( 1.8008283810552856E-4 0.9998199171618944 ))
(( 0.36547268563951585 0.6345273143604842 )
( 2.621231979030144E-4 0.999737876802097 )
( 6.43293663557414E-5 0.9999356706336443 )))
((( 0.1383219954648526 0.8616780045351474 )
( 0.011627906976744186 0.9883720930232558 )
( 8.968609865470852E-4 0.9991031390134529 ))
(( 0.06015037593984962 0.9398496240601504 )
( 0.125 0.875 )
( 0.0051813471502590676 0.9948186528497409 ))
(( 0.14020950846091862 0.8597904915390814 )
( 0.05 0.95 )
( 9.285051067780873E-4 0.9990714948932219 ))
(( 0.007246376811594203 0.9927536231884058 )
( 0.038461538461538464 0.9615384615384616 )
( 0.002066115702479339 0.9979338842975206 ))
(( 0.4878048780487805 0.5121951219512195 )
( 0.018867924528301886 0.9811320754716981 )
( 0.0017889087656529517 0.998211091234347 ))
(( 0.464091732045866 0.5359082679541339 )
( 0.01 0.99 )
( 0.0012254901960784314 0.9987745098039216 ))
(( 0.13074565883554648 0.8692543411644535 )
( 0.01639344262295082 0.9836065573770492 )
( 0.0011947431302270011 0.998805256869773 ))
(( 0.5422535211267606 0.45774647887323944 )
( 0.009708737864077669 0.9902912621359223 )
( 9.514747859181732E-4 0.9990485252140818 ))
(( 0.4459869848156182 0.5540130151843817 )
( 0.0013679890560875513 0.9986320109439124 )
( 2.671653753673524E-4 0.9997328346246327 ))
(( 0.38434559452523526 0.6156544054747648 )
( 9.276437847866419E-4 0.9990723562152134 )
( 1.337255950788981E-4 0.9998662744049212 )))
((( 0.12144420131291028 0.8785557986870897 )
( 0.030303030303030304 0.9696969696969697 )
( 0.0011494252873563218 0.9988505747126437 ))
(( 0.16 0.84 )
( 0.1 0.9 )
( 0.006622516556291391 0.9933774834437086 ))
(( 0.20094936708860758 0.7990506329113924 )
( 0.038461538461538464 0.9615384615384616 )
( 6.006006006006006E-4 0.9993993993993994 ))
(( 0.011389521640091117 0.9886104783599089 )
( 0.037037037037037035 0.9629629629629629 )
( 0.002457002457002457 0.9975429975429976 ))
(( 0.4966542750929368 0.5033457249070632 )
( 0.02 0.98 )
( 0.0013020833333333333 0.9986979166666666 ))
(( 0.4762600438276114 0.5237399561723886 )
( 0.025 0.975 )
( 0.0014970059880239522 0.9985029940119761 ))
(( 0.16497175141242937 0.8350282485875706 )
( 0.02127659574468085 0.9787234042553191 )
( 0.001218026796589525 0.9987819732034104 ))
(( 0.6005892255892256 0.39941077441077444 )
( 0.025 0.975 )
( 0.0011235955056179776 0.998876404494382 ))
(( 0.4652356509566029 0.5347643490433971 )
( 0.001851851851851852 0.9981481481481481 )
( 2.722570106180234E-4 0.9997277429893819 ))
(( 0.41877488121227685 0.5812251187877231 )
( 0.0018484288354898336 0.9981515711645101 )
( 2.0370747606437156E-4 0.9997962925239356 )))
((( 0.12890625 0.87109375 )
( 0.07142857142857142 0.9285714285714286 )
( 0.003861003861003861 0.9961389961389961 ))
(( 0.38666666666666666 0.6133333333333333 )
( 0.5 0.5 )
( 0.017241379310344827 0.9827586206896551 ))
(( 0.18218954248366012 0.8178104575163399 )
( 0.045454545454545456 0.9545454545454546 )
( 7.621951219512195E-4 0.9992378048780488 ))
(( 0.010869565217391304 0.9891304347826086 )
( 0.09090909090909091 0.9090909090909091 )
( 0.004761904761904762 0.9952380952380953 ))
(( 0.5494252873563218 0.45057471264367815 )
( 0.05555555555555555 0.9444444444444444 )
( 0.0018796992481203006 0.9981203007518797 ))
(( 0.5290611028315947 0.47093889716840537 )
( 0.1 0.9 )
( 0.00267379679144385 0.9973262032085561 ))
(( 0.18115942028985507 0.8188405797101449 )
( 0.0625 0.9375 )
( 0.0024096385542168677 0.9975903614457832 ))
(( 0.678763440860215 0.32123655913978494 )
( 0.058823529411764705 0.9411764705882353 )
( 0.0017241379310344827 0.9982758620689656 ))
(( 0.5260303687635575 0.47396963123644253 )
( 0.005128205128205128 0.9948717948717949 )
( 3.6088054853843375E-4 0.9996391194514616 ))
(( 0.4612903225806452 0.5387096774193548 )
( 0.011904761904761904 0.9880952380952381 )
( 4.940711462450593E-4 0.9995059288537549 )))
((( 0.34177215189873417 0.6582278481012658 )
( 0.2 0.8 )
( 0.007194244604316547 0.9928057553956835 ))
(( 0.7254901960784313 0.27450980392156865 )
( 0.2 0.8 )
( 0.047619047619047616 0.9523809523809523 ))
(( 0.28072837632776937 0.7192716236722306 )
( 0.07692307692307693 0.9230769230769231 )
( 9.541984732824427E-4 0.9990458015267175 ))
(( 0.0136986301369863 0.9863013698630136 )
( 0.3333333333333333 0.6666666666666666 )
( 0.00819672131147541 0.9918032786885246 ))
(( 0.7028231797919762 0.2971768202080238 )
( 0.16666666666666666 0.8333333333333334 )
( 0.0024752475247524753 0.9975247524752475 ))
(( 0.5782122905027933 0.42178770949720673 )
( 0.2 0.8 )
( 0.004081632653061225 0.9959183673469387 ))
(( 0.39849624060150374 0.6015037593984962 )
( 0.1111111111111111 0.8888888888888888 )
( 0.004048582995951417 0.9959514170040485 ))
(( 0.735050597976081 0.26494940202391903 )
( 0.047619047619047616 0.9523809523809523 )
( 0.0022471910112359553 0.9977528089887641 ))
(( 0.6305659293306521 0.3694340706693479 )
( 0.009009009009009009 0.990990990990991 )
( 4.2301184433164127E-4 0.9995769881556683 ))
(( 0.5670553935860059 0.4329446064139942 )
( 0.047619047619047616 0.9523809523809523 )
( 7.911392405063291E-4 0.9992088607594937 ))))
(((( 0.0 0.0 )
( 0.0 0.0 )
( 0.0 0.0 ))
(( 0.0 0.0 )
( 0.0 0.0 )
( 0.0 0.0 ))
(( 0.0 0.0 )
( 0.0 0.0 )
( 0.0 0.0 ))
(( 0.0 0.0 )
( 0.0 0.0 )
( 0.0 0.0 ))
(( 0.0 0.0 )
( 0.0 0.0 )
( 0.0 0.0 ))
(( 0.0 0.0 )
( 0.0 0.0 )
( 0.0 0.0 ))
(( 0.0 0.0 )
( 0.0 0.0 )
( 0.0 0.0 ))
(( 0.0 0.0 )
( 0.0 0.0 )
( 0.0 0.0 ))
(( 0.0 0.0 )
( 0.0 0.0 )
( 0.0 0.0 ))
(( 0.0 0.0 )
( 0.0 0.0 )
( 0.0 0.0 )))
((( 0.0 0.0 )
( 0.0 0.0 )
( 0.0 0.0 ))
(( 0.0 0.0 )
( 0.0 0.0 )
( 0.0 0.0 ))
(( 0.0 0.0 )
( 0.0 0.0 )
( 0.0 0.0 ))
(( 0.0 0.0 )
( 0.0 0.0 )
( 0.0 0.0 ))
(( 0.0 0.0 )
( 0.0 0.0 )
( 0.0 0.0 ))
(( 0.0 0.0 )
( 0.0 0.0 )
( 0.0 0.0 ))
(( 0.0 0.0 )
( 0.0 0.0 )
( 0.0 0.0 ))
(( 0.0 0.0 )
( 0.0 0.0 )
( 0.0 0.0 ))
(( 0.0 0.0 )
( 0.0 0.0 )
( 0.0 0.0 ))
(( 0.0 0.0 )
( 0.0 0.0 )
( 0.0 0.0 )))
((( 0.0 0.0 )
( 0.0 0.0 )
( 0.0 0.0 ))
(( 0.0 0.0 )
( 0.0 0.0 )
( 0.0 0.0 ))
(( 0.0 0.0 )
( 0.0 0.0 )
( 0.0 0.0 ))
(( 0.0 0.0 )
( 0.0 0.0 )
( 0.0 0.0 ))
(( 0.0 0.0 )
( 0.0 0.0 )
( 0.0 0.0 ))
(( 0.0 0.0 )
( 0.0 0.0 )
( 0.0 0.0 ))
(( 0.0 0.0 )
( 0.0 0.0 )
( 0.0 0.0 ))
(( 0.0 0.0 )
( 0.0 0.0 )
( 0.0 0.0 ))
(( 0.0 0.0 )
( 0.0 0.0 )
( 0.0 0.0 ))
(( 0.0 0.0 )
( 0.0 0.0 )
( 0.0 0.0 )))
((( 0.0 0.0 )
( 0.0 0.0 )
( 0.0 0.0 ))
(( 0.0 0.0 )
( 0.0 0.0 )
( 0.0 0.0 ))
(( 0.0 0.0 )
( 0.0 0.0 )
( 0.0 0.0 ))
(( 0.0 0.0 )
( 0.0 0.0 )
( 0.0 0.0 ))
(( 0.0 0.0 )
( 0.0 0.0 )
( 0.0 0.0 ))
(( 0.0 0.0 )
( 0.0 0.0 )
( 0.0 0.0 ))
(( 0.0 0.0 )
( 0.0 0.0 )
( 0.0 0.0 ))
(( 0.0 0.0 )
( 0.0 0.0 )
( 0.0 0.0 ))
(( 0.0 0.0 )
( 0.0 0.0 )
( 0.0 0.0 ))
(( 0.0 0.0 )
( 0.0 0.0 )
( 0.0 0.0 )))
((( 0.0 0.0 )
( 0.0 0.0 )
( 0.0 0.0 ))
(( 0.0 0.0 )
( 0.0 0.0 )
( 0.0 0.0 ))
(( 0.0 0.0 )
( 0.0 0.0 )
( 0.0 0.0 ))
(( 0.0 0.0 )
( 0.0 0.0 )
( 0.0 0.0 ))
(( 0.0 0.0 )
( 0.0 0.0 )
( 0.0 0.0 ))
(( 0.0 0.0 )
( 0.0 0.0 )
( 0.0 0.0 ))
(( 0.0 0.0 )
( 0.0 0.0 )
( 0.0 0.0 ))
(( 0.0 0.0 )
( 0.0 0.0 )
( 0.0 0.0 ))
(( 0.0 0.0 )
( 0.0 0.0 )
( 0.0 0.0 ))
(( 0.0 0.0 )
( 0.0 0.0 )
( 0.0 0.0 )))));
}

potential (MODALIDADE | MODALIDADE LIMCONC DOMESTICA MCC MODALIDADE)
{
 data = ((((( 0.7608695652173914 0.021739130434782608 0.15217391304347827 0.021739130434782608 0.021739130434782608 0.021739130434782608 )
( 0.7361111111111112 0.2222222222222222 0.018518518518518517 0.004629629629629629 0.013888888888888888 0.004629629629629629 )
( 0.4067796610169492 0.5677966101694916 0.00423728813559322 0.012711864406779662 0.00423728813559322 0.00423728813559322 )
( 0.004784688995215311 0.9330143540669856 0.004784688995215311 0.03827751196172249 0.014354066985645933 0.004784688995215311 ))
(( 0.8044788975021533 0.11369509043927649 0.05770887166236004 0.015503875968992248 0.007751937984496124 8.613264427217916E-4 )
( 0.477432296890672 0.47375459712470747 0.002340354396522902 0.007355399531929121 0.03878301571380809 3.3433634236041456E-4 )
( 0.3246292714377821 0.6144422952933591 9.671179883945841E-4 0.030625402965828497 0.029013539651837523 3.223726627981947E-4 )
( 4.930966469428008E-4 0.9102564102564102 4.930966469428008E-4 0.04783037475345168 0.04043392504930966 4.930966469428008E-4 )))
((( 0.2857142857142857 0.14285714285714285 0.14285714285714285 0.14285714285714285 0.14285714285714285 0.14285714285714285 )
( 0.5333333333333333 0.2 0.06666666666666667 0.06666666666666667 0.06666666666666667 0.06666666666666667 )
( 0.26666666666666666 0.6 0.022222222222222223 0.06666666666666667 0.022222222222222223 0.022222222222222223 )
( 0.011904761904761904 0.8690476190476191 0.011904761904761904 0.08333333333333333 0.011904761904761904 0.011904761904761904 ))
(( 0.9393939393939394 0.026936026936026935 0.02356902356902357 0.003367003367003367 0.003367003367003367 0.003367003367003367 )
( 0.47378455672068637 0.5157292659675882 9.532888465204957E-4 0.004766444232602479 0.0038131553860819827 9.532888465204957E-4 )
( 0.27932960893854747 0.6964618249534451 9.31098696461825E-4 0.00931098696461825 0.01303538175046555 9.31098696461825E-4 )
( 0.0012626262626262627 0.9292929292929293 0.0012626262626262627 0.027777777777777776 0.039141414141414144 0.0012626262626262627 )))
((( 0.6428571428571429 0.04285714285714286 0.014285714285714285 0.2714285714285714 0.014285714285714285 0.014285714285714285 )
( 0.6789667896678967 0.3062730627306273 0.0036900369003690036 0.0036900369003690036 0.0036900369003690036 0.0036900369003690036 )
( 0.32054794520547947 0.6575342465753424 0.0027397260273972603 0.00821917808219178 0.00821917808219178 0.0027397260273972603 )
( 0.002717391304347826 0.8070652173913043 0.002717391304347826 0.17119565217391305 0.01358695652173913 0.002717391304347826 ))
(( 0.9395973154362416 0.042953020134228186 0.005369127516778523 0.004026845637583893 0.006711409395973154 0.0013422818791946308 )
( 0.47248576850094876 0.502213788741303 3.1625553447185326E-4 0.016761543327008223 0.007906388361796331 3.1625553447185326E-4 )
( 0.29974874371859295 0.6628140703517588 2.512562814070352E-4 0.02613065326633166 0.010804020100502512 2.512562814070352E-4 )
( 3.053435114503817E-4 0.8348091603053435 6.106870229007634E-4 0.13984732824427482 0.024122137404580152 3.053435114503817E-4 )))
((( 0.16666666666666666 0.16666666666666666 0.16666666666666666 0.16666666666666666 0.16666666666666666 0.16666666666666666 )
( 0.2857142857142857 0.14285714285714285 0.14285714285714285 0.14285714285714285 0.14285714285714285 0.14285714285714285 )
( 0.25 0.25 0.125 0.125 0.125 0.125 )
( 0.05555555555555555 0.6111111111111112 0.05555555555555555 0.16666666666666666 0.05555555555555555 0.05555555555555555 ))
(( 0.9401408450704225 0.02992957746478873 0.022887323943661973 0.0017605633802816902 0.0035211267605633804 0.0017605633802816902 )
( 0.5022801302931597 0.4775244299674267 6.514657980456026E-4 0.0071661237785016286 0.011726384364820847 6.514657980456026E-4 )
( 0.2543604651162791 0.7093023255813954 7.267441860465116E-4 0.018168604651162792 0.014534883720930232 0.0029069767441860465 )
( 0.0011037527593818985 0.9083885209713024 0.0011037527593818985 0.059602649006622516 0.02869757174392936 0.0011037527593818985 )))
((( 0.7245989304812834 0.08823529411764706 0.17914438502673796 0.00267379679144385 0.00267379679144385 0.00267379679144385 )
( 0.6520572450805009 0.295169946332737 0.05008944543828265 8.944543828264759E-4 8.944543828264759E-4 8.944543828264759E-4 )
( 0.4484492875104778 0.5389773679798826 0.0075440067057837385 0.003352891869237217 8.382229673093043E-4 8.382229673093043E-4 )
( 0.0015151515151515152 0.8939393939393939 0.0015151515151515152 0.0893939393939394 0.012121212121212121 0.0015151515151515152 ))
(( 0.9093167701863354 0.03975155279503106 0.03850931677018633 0.004968944099378882 0.006211180124223602 0.0012422360248447205 )
( 0.5058823529411764 0.48094117647058826 4.7058823529411766E-4 0.002352941176470588 0.00988235294117647 4.7058823529411766E-4 )
( 0.2951146560319043 0.6744765702891325 4.985044865403788E-4 0.012462612163509471 0.01694915254237288 4.985044865403788E-4 )
( 7.147962830593281E-4 0.8834882058613295 0.0014295925661186562 0.08363116511794139 0.03002144388849178 7.147962830593281E-4 )))
((( 0.6873315363881402 0.09164420485175202 0.21293800539083557 0.0026954177897574125 0.0026954177897574125 0.0026954177897574125 )
( 0.620345140781108 0.32515894641235243 0.05086285195277021 9.082652134423251E-4 0.0018165304268846503 9.082652134423251E-4 )
( 0.44849023090586143 0.5293072824156305 0.007992895204262877 0.008880994671403197 0.004440497335701598 8.880994671403197E-4 )
( 0.0026455026455026454 0.9193121693121693 0.0013227513227513227 0.06878306878306878 0.006613756613756613 0.0013227513227513227 ))
(( 0.8440677966101695 0.06892655367231638 0.06666666666666667 0.005649717514124294 0.013559322033898305 0.0011299435028248588 )
( 0.47865612648221345 0.46561264822134385 0.003952569169960474 0.011462450592885375 0.03992094861660079 3.952569169960474E-4 )
( 0.29491133384734003 0.6380107941403238 0.0019275250578257518 0.028141865844255976 0.03662297609868928 3.8550501156515033E-4 )
( 0.002385211687537269 0.8855098389982111 0.0011926058437686344 0.05843768634466309 0.0518783542039356 5.963029218843172E-4 )))
((( 0.6153846153846154 0.07692307692307693 0.07692307692307693 0.07692307692307693 0.07692307692307693 0.07692307692307693 )
( 0.6268656716417911 0.34328358208955223 0.007462686567164179 0.007462686567164179 0.007462686567164179 0.007462686567164179 )
( 0.3181818181818182 0.6515151515151515 0.005050505050505051 0.010101010101010102 0.010101010101010102 0.005050505050505051 )
( 0.0035087719298245615 0.9614035087719298 0.0035087719298245615 0.02456140350877193 0.0035087719298245615 0.0035087719298245615 ))
(( 0.9043478260869565 0.04596273291925466 0.04472049689440994 0.0012422360248447205 0.002484472049689441 0.0012422360248447205 )
( 0.4956140350877193 0.4745614035087719 0.0021929824561403508 0.004824561403508772 0.02236842105263158 4.385964912280702E-4 )
( 0.2863193562049979 0.6721728081321474 4.2354934349851756E-4 0.017789072426937738 0.022871664548919948 4.2354934349851756E-4 )
( 0.0011607661056297156 0.9332559489262914 5.803830528148578E-4 0.03366221706326175 0.030760301799187463 5.803830528148578E-4 )))
((( 0.6392857142857142 0.15 0.175 0.02857142857142857 0.005952380952380952 0.0011904761904761906 )
( 0.6037005163511188 0.3304647160068847 0.06282271944922548 0.0021514629948364886 4.302925989672978E-4 4.302925989672978E-4 )
( 0.45181927229108354 0.5281887245101959 0.009996001599360257 0.006797281087564974 0.0027988804478208716 3.9984006397441024E-4 )
( 0.0023006134969325155 0.8343558282208589 7.668711656441718E-4 0.15337423312883436 0.00843558282208589 7.668711656441718E-4 ))
(( 0.816836262719704 0.10083256244218317 0.07030527289546716 0.0027752081406105457 0.008325624421831638 9.250693802035153E-4 )
( 0.4669237614951053 0.48472263423316525 0.00385642242657965 0.007416196974191634 0.036784336991990504 2.966478789676654E-4 )
( 0.3095934095136859 0.6343343077331915 7.972362476747276E-4 0.027371777836832315 0.02763752325272389 2.6574541589157585E-4 )
( 3.606202668589975E-4 0.847457627118644 3.606202668589975E-4 0.09592499098449332 0.05553552109628561 3.606202668589975E-4 )))
((( 0.5810249307479224 0.16066481994459833 0.18490304709141275 0.07202216066481995 6.925207756232687E-4 6.925207756232687E-4 )
( 0.5329695316052752 0.3910868576625739 0.06684856753069578 0.004547521600727604 0.004320145520691224 2.2737608003638017E-4 )
( 0.4273882896764253 0.50231124807396 0.02137904468412943 0.038906009244992296 0.009822804314329739 1.926040061633282E-4 )
( 0.002525890376357666 0.7421065925738823 0.002020712301086133 0.2222783531194746 0.030815862591563527 2.5258903763576663E-4 ))
(( 0.6178050652340752 0.20286518291123048 0.10488616014325915 0.04937324123816833 0.024814530570478385 2.5581990278843696E-4 )
( 0.4012744735869967 0.46167343923162174 0.016346509050609533 0.0393424455116365 0.08127077946065756 9.235315847801995E-5 )
( 0.32679834905660377 0.5081073113207547 0.004569575471698113 0.07878832547169812 0.08144162735849056 2.9481132075471697E-4 )
( 0.001953526629652478 0.7157104667900474 5.140859551717047E-4 0.17643429981492906 0.10528480361916512 1.0281719103434094E-4 )))
((( 0.6315553563424473 0.13715822501120573 0.2268041237113402 0.003585835948005379 4.4822949350067237E-4 4.4822949350067237E-4 )
( 0.600383631713555 0.3270460358056266 0.07081202046035806 4.7953964194373403E-4 0.001118925831202046 1.5984654731457802E-4 )
( 0.4473524962178517 0.5276853252647504 0.01649016641452345 0.006051437216338881 0.0022692889561270802 1.51285930408472E-4 )
( 0.001359064963305246 0.9100298994291928 0.0016308779559662953 0.07773851590106007 0.008969828757814623 2.718129926610492E-4 ))
(( 0.7600273785078713 0.12457221081451061 0.07337440109514032 0.02381930184804928 0.018069815195071868 1.3689253935660506E-4 )
( 0.4396776131357629 0.47276732078494194 0.008209851822186623 0.023127753303964757 0.05616740088105727 5.0060072086503804E-5 )
( 0.315989847715736 0.5715473481533345 0.0028881498337125855 0.04949238578680203 0.05968842989672676 3.938386136880798E-4 )
( 0.0014408319238238426 0.8097475411889996 2.505794650128422E-4 0.10799974942053499 0.08049865313537556 6.264486625321055E-5 ))))
(((( 0.0 0.0 0.0 0.0 0.0 0.0 )
( 0.0 0.0 0.0 0.0 0.0 0.0 )
( 0.0 0.0 0.0 0.0 0.0 0.0 )
( 0.0 0.0 0.0 0.0 0.0 0.0 ))
(( 0.0 0.0 0.0 0.0 0.0 0.0 )
( 0.0 0.0 0.0 0.0 0.0 0.0 )
( 0.0 0.0 0.0 0.0 0.0 0.0 )
( 0.0 0.0 0.0 0.0 0.0 0.0 )))
((( 0.0 0.0 0.0 0.0 0.0 0.0 )
( 0.0 0.0 0.0 0.0 0.0 0.0 )
( 0.0 0.0 0.0 0.0 0.0 0.0 )
( 0.0 0.0 0.0 0.0 0.0 0.0 ))
(( 0.0 0.0 0.0 0.0 0.0 0.0 )
( 0.0 0.0 0.0 0.0 0.0 0.0 )
( 0.0 0.0 0.0 0.0 0.0 0.0 )
( 0.0 0.0 0.0 0.0 0.0 0.0 )))
((( 0.0 0.0 0.0 0.0 0.0 0.0 )
( 0.0 0.0 0.0 0.0 0.0 0.0 )
( 0.0 0.0 0.0 0.0 0.0 0.0 )
( 0.0 0.0 0.0 0.0 0.0 0.0 ))
(( 0.0 0.0 0.0 0.0 0.0 0.0 )
( 0.0 0.0 0.0 0.0 0.0 0.0 )
( 0.0 0.0 0.0 0.0 0.0 0.0 )
( 0.0 0.0 0.0 0.0 0.0 0.0 )))
((( 0.0 0.0 0.0 0.0 0.0 0.0 )
( 0.0 0.0 0.0 0.0 0.0 0.0 )
( 0.0 0.0 0.0 0.0 0.0 0.0 )
( 0.0 0.0 0.0 0.0 0.0 0.0 ))
(( 0.0 0.0 0.0 0.0 0.0 0.0 )
( 0.0 0.0 0.0 0.0 0.0 0.0 )
( 0.0 0.0 0.0 0.0 0.0 0.0 )
( 0.0 0.0 0.0 0.0 0.0 0.0 )))
((( 0.0 0.0 0.0 0.0 0.0 0.0 )
( 0.0 0.0 0.0 0.0 0.0 0.0 )
( 0.0 0.0 0.0 0.0 0.0 0.0 )
( 0.0 0.0 0.0 0.0 0.0 0.0 ))
(( 0.0 0.0 0.0 0.0 0.0 0.0 )
( 0.0 0.0 0.0 0.0 0.0 0.0 )
( 0.0 0.0 0.0 0.0 0.0 0.0 )
( 0.0 0.0 0.0 0.0 0.0 0.0 )))
((( 0.0 0.0 0.0 0.0 0.0 0.0 )
( 0.0 0.0 0.0 0.0 0.0 0.0 )
( 0.0 0.0 0.0 0.0 0.0 0.0 )
( 0.0 0.0 0.0 0.0 0.0 0.0 ))
(( 0.0 0.0 0.0 0.0 0.0 0.0 )
( 0.0 0.0 0.0 0.0 0.0 0.0 )
( 0.0 0.0 0.0 0.0 0.0 0.0 )
( 0.0 0.0 0.0 0.0 0.0 0.0 )))
((( 0.0 0.0 0.0 0.0 0.0 0.0 )
( 0.0 0.0 0.0 0.0 0.0 0.0 )
( 0.0 0.0 0.0 0.0 0.0 0.0 )
( 0.0 0.0 0.0 0.0 0.0 0.0 ))
(( 0.0 0.0 0.0 0.0 0.0 0.0 )
( 0.0 0.0 0.0 0.0 0.0 0.0 )
( 0.0 0.0 0.0 0.0 0.0 0.0 )
( 0.0 0.0 0.0 0.0 0.0 0.0 )))
((( 0.0 0.0 0.0 0.0 0.0 0.0 )
( 0.0 0.0 0.0 0.0 0.0 0.0 )
( 0.0 0.0 0.0 0.0 0.0 0.0 )
( 0.0 0.0 0.0 0.0 0.0 0.0 ))
(( 0.0 0.0 0.0 0.0 0.0 0.0 )
( 0.0 0.0 0.0 0.0 0.0 0.0 )
( 0.0 0.0 0.0 0.0 0.0 0.0 )
( 0.0 0.0 0.0 0.0 0.0 0.0 )))
((( 0.0 0.0 0.0 0.0 0.0 0.0 )
( 0.0 0.0 0.0 0.0 0.0 0.0 )
( 0.0 0.0 0.0 0.0 0.0 0.0 )
( 0.0 0.0 0.0 0.0 0.0 0.0 ))
(( 0.0 0.0 0.0 0.0 0.0 0.0 )
( 0.0 0.0 0.0 0.0 0.0 0.0 )
( 0.0 0.0 0.0 0.0 0.0 0.0 )
( 0.0 0.0 0.0 0.0 0.0 0.0 )))
((( 0.0 0.0 0.0 0.0 0.0 0.0 )
( 0.0 0.0 0.0 0.0 0.0 0.0 )
( 0.0 0.0 0.0 0.0 0.0 0.0 )
( 0.0 0.0 0.0 0.0 0.0 0.0 ))
(( 0.0 0.0 0.0 0.0 0.0 0.0 )
( 0.0 0.0 0.0 0.0 0.0 0.0 )
( 0.0 0.0 0.0 0.0 0.0 0.0 )
( 0.0 0.0 0.0 0.0 0.0 0.0 ))))
(((( 0.0 0.0 0.0 0.0 0.0 0.0 )
( 0.0 0.0 0.0 0.0 0.0 0.0 )
( 0.0 0.0 0.0 0.0 0.0 0.0 )
( 0.0 0.0 0.0 0.0 0.0 0.0 ))
(( 0.0 0.0 0.0 0.0 0.0 0.0 )
( 0.0 0.0 0.0 0.0 0.0 0.0 )
( 0.0 0.0 0.0 0.0 0.0 0.0 )
( 0.0 0.0 0.0 0.0 0.0 0.0 )))
((( 0.0 0.0 0.0 0.0 0.0 0.0 )
( 0.0 0.0 0.0 0.0 0.0 0.0 )
( 0.0 0.0 0.0 0.0 0.0 0.0 )
( 0.0 0.0 0.0 0.0 0.0 0.0 ))
(( 0.0 0.0 0.0 0.0 0.0 0.0 )
( 0.0 0.0 0.0 0.0 0.0 0.0 )
( 0.0 0.0 0.0 0.0 0.0 0.0 )
( 0.0 0.0 0.0 0.0 0.0 0.0 )))
((( 0.0 0.0 0.0 0.0 0.0 0.0 )
( 0.0 0.0 0.0 0.0 0.0 0.0 )
( 0.0 0.0 0.0 0.0 0.0 0.0 )
( 0.0 0.0 0.0 0.0 0.0 0.0 ))
(( 0.0 0.0 0.0 0.0 0.0 0.0 )
( 0.0 0.0 0.0 0.0 0.0 0.0 )
( 0.0 0.0 0.0 0.0 0.0 0.0 )
( 0.0 0.0 0.0 0.0 0.0 0.0 )))
((( 0.0 0.0 0.0 0.0 0.0 0.0 )
( 0.0 0.0 0.0 0.0 0.0 0.0 )
( 0.0 0.0 0.0 0.0 0.0 0.0 )
( 0.0 0.0 0.0 0.0 0.0 0.0 ))
(( 0.0 0.0 0.0 0.0 0.0 0.0 )
( 0.0 0.0 0.0 0.0 0.0 0.0 )
( 0.0 0.0 0.0 0.0 0.0 0.0 )
( 0.0 0.0 0.0 0.0 0.0 0.0 )))
((( 0.0 0.0 0.0 0.0 0.0 0.0 )
( 0.0 0.0 0.0 0.0 0.0 0.0 )
( 0.0 0.0 0.0 0.0 0.0 0.0 )
( 0.0 0.0 0.0 0.0 0.0 0.0 ))
(( 0.0 0.0 0.0 0.0 0.0 0.0 )
( 0.0 0.0 0.0 0.0 0.0 0.0 )
( 0.0 0.0 0.0 0.0 0.0 0.0 )
( 0.0 0.0 0.0 0.0 0.0 0.0 )))
((( 0.0 0.0 0.0 0.0 0.0 0.0 )
( 0.0 0.0 0.0 0.0 0.0 0.0 )
( 0.0 0.0 0.0 0.0 0.0 0.0 )
( 0.0 0.0 0.0 0.0 0.0 0.0 ))
(( 0.0 0.0 0.0 0.0 0.0 0.0 )
( 0.0 0.0 0.0 0.0 0.0 0.0 )
( 0.0 0.0 0.0 0.0 0.0 0.0 )
( 0.0 0.0 0.0 0.0 0.0 0.0 )))
((( 0.0 0.0 0.0 0.0 0.0 0.0 )
( 0.0 0.0 0.0 0.0 0.0 0.0 )
( 0.0 0.0 0.0 0.0 0.0 0.0 )
( 0.0 0.0 0.0 0.0 0.0 0.0 ))
(( 0.0 0.0 0.0 0.0 0.0 0.0 )
( 0.0 0.0 0.0 0.0 0.0 0.0 )
( 0.0 0.0 0.0 0.0 0.0 0.0 )
( 0.0 0.0 0.0 0.0 0.0 0.0 )))
((( 0.0 0.0 0.0 0.0 0.0 0.0 )
( 0.0 0.0 0.0 0.0 0.0 0.0 )
( 0.0 0.0 0.0 0.0 0.0 0.0 )
( 0.0 0.0 0.0 0.0 0.0 0.0 ))
(( 0.0 0.0 0.0 0.0 0.0 0.0 )
( 0.0 0.0 0.0 0.0 0.0 0.0 )
( 0.0 0.0 0.0 0.0 0.0 0.0 )
( 0.0 0.0 0.0 0.0 0.0 0.0 )))
((( 0.0 0.0 0.0 0.0 0.0 0.0 )
( 0.0 0.0 0.0 0.0 0.0 0.0 )
( 0.0 0.0 0.0 0.0 0.0 0.0 )
( 0.0 0.0 0.0 0.0 0.0 0.0 ))
(( 0.0 0.0 0.0 0.0 0.0 0.0 )
( 0.0 0.0 0.0 0.0 0.0 0.0 )
( 0.0 0.0 0.0 0.0 0.0 0.0 )
( 0.0 0.0 0.0 0.0 0.0 0.0 )))
((( 0.0 0.0 0.0 0.0 0.0 0.0 )
( 0.0 0.0 0.0 0.0 0.0 0.0 )
( 0.0 0.0 0.0 0.0 0.0 0.0 )
( 0.0 0.0 0.0 0.0 0.0 0.0 ))
(( 0.0 0.0 0.0 0.0 0.0 0.0 )
( 0.0 0.0 0.0 0.0 0.0 0.0 )
( 0.0 0.0 0.0 0.0 0.0 0.0 )
( 0.0 0.0 0.0 0.0 0.0 0.0 ))))
(((( 0.0 0.0 0.0 0.0 0.0 0.0 )
( 0.0 0.0 0.0 0.0 0.0 0.0 )
( 0.0 0.0 0.0 0.0 0.0 0.0 )
( 0.0 0.0 0.0 0.0 0.0 0.0 ))
(( 0.0 0.0 0.0 0.0 0.0 0.0 )
( 0.0 0.0 0.0 0.0 0.0 0.0 )
( 0.0 0.0 0.0 0.0 0.0 0.0 )
( 0.0 0.0 0.0 0.0 0.0 0.0 )))
((( 0.0 0.0 0.0 0.0 0.0 0.0 )
( 0.0 0.0 0.0 0.0 0.0 0.0 )
( 0.0 0.0 0.0 0.0 0.0 0.0 )
( 0.0 0.0 0.0 0.0 0.0 0.0 ))
(( 0.0 0.0 0.0 0.0 0.0 0.0 )
( 0.0 0.0 0.0 0.0 0.0 0.0 )
( 0.0 0.0 0.0 0.0 0.0 0.0 )
( 0.0 0.0 0.0 0.0 0.0 0.0 )))
((( 0.0 0.0 0.0 0.0 0.0 0.0 )
( 0.0 0.0 0.0 0.0 0.0 0.0 )
( 0.0 0.0 0.0 0.0 0.0 0.0 )
( 0.0 0.0 0.0 0.0 0.0 0.0 ))
(( 0.0 0.0 0.0 0.0 0.0 0.0 )
( 0.0 0.0 0.0 0.0 0.0 0.0 )
( 0.0 0.0 0.0 0.0 0.0 0.0 )
( 0.0 0.0 0.0 0.0 0.0 0.0 )))
((( 0.0 0.0 0.0 0.0 0.0 0.0 )
( 0.0 0.0 0.0 0.0 0.0 0.0 )
( 0.0 0.0 0.0 0.0 0.0 0.0 )
( 0.0 0.0 0.0 0.0 0.0 0.0 ))
(( 0.0 0.0 0.0 0.0 0.0 0.0 )
( 0.0 0.0 0.0 0.0 0.0 0.0 )
( 0.0 0.0 0.0 0.0 0.0 0.0 )
( 0.0 0.0 0.0 0.0 0.0 0.0 )))
((( 0.0 0.0 0.0 0.0 0.0 0.0 )
( 0.0 0.0 0.0 0.0 0.0 0.0 )
( 0.0 0.0 0.0 0.0 0.0 0.0 )
( 0.0 0.0 0.0 0.0 0.0 0.0 ))
(( 0.0 0.0 0.0 0.0 0.0 0.0 )
( 0.0 0.0 0.0 0.0 0.0 0.0 )
( 0.0 0.0 0.0 0.0 0.0 0.0 )
( 0.0 0.0 0.0 0.0 0.0 0.0 )))
((( 0.0 0.0 0.0 0.0 0.0 0.0 )
( 0.0 0.0 0.0 0.0 0.0 0.0 )
( 0.0 0.0 0.0 0.0 0.0 0.0 )
( 0.0 0.0 0.0 0.0 0.0 0.0 ))
(( 0.0 0.0 0.0 0.0 0.0 0.0 )
( 0.0 0.0 0.0 0.0 0.0 0.0 )
( 0.0 0.0 0.0 0.0 0.0 0.0 )
( 0.0 0.0 0.0 0.0 0.0 0.0 )))
((( 0.0 0.0 0.0 0.0 0.0 0.0 )
( 0.0 0.0 0.0 0.0 0.0 0.0 )
( 0.0 0.0 0.0 0.0 0.0 0.0 )
( 0.0 0.0 0.0 0.0 0.0 0.0 ))
(( 0.0 0.0 0.0 0.0 0.0 0.0 )
( 0.0 0.0 0.0 0.0 0.0 0.0 )
( 0.0 0.0 0.0 0.0 0.0 0.0 )
( 0.0 0.0 0.0 0.0 0.0 0.0 )))
((( 0.0 0.0 0.0 0.0 0.0 0.0 )
( 0.0 0.0 0.0 0.0 0.0 0.0 )
( 0.0 0.0 0.0 0.0 0.0 0.0 )
( 0.0 0.0 0.0 0.0 0.0 0.0 ))
(( 0.0 0.0 0.0 0.0 0.0 0.0 )
( 0.0 0.0 0.0 0.0 0.0 0.0 )
( 0.0 0.0 0.0 0.0 0.0 0.0 )
( 0.0 0.0 0.0 0.0 0.0 0.0 )))
((( 0.0 0.0 0.0 0.0 0.0 0.0 )
( 0.0 0.0 0.0 0.0 0.0 0.0 )
( 0.0 0.0 0.0 0.0 0.0 0.0 )
( 0.0 0.0 0.0 0.0 0.0 0.0 ))
(( 0.0 0.0 0.0 0.0 0.0 0.0 )
( 0.0 0.0 0.0 0.0 0.0 0.0 )
( 0.0 0.0 0.0 0.0 0.0 0.0 )
( 0.0 0.0 0.0 0.0 0.0 0.0 )))
((( 0.0 0.0 0.0 0.0 0.0 0.0 )
( 0.0 0.0 0.0 0.0 0.0 0.0 )
( 0.0 0.0 0.0 0.0 0.0 0.0 )
( 0.0 0.0 0.0 0.0 0.0 0.0 ))
(( 0.0 0.0 0.0 0.0 0.0 0.0 )
( 0.0 0.0 0.0 0.0 0.0 0.0 )
( 0.0 0.0 0.0 0.0 0.0 0.0 )
( 0.0 0.0 0.0 0.0 0.0 0.0 ))))
(((( 0.0 0.0 0.0 0.0 0.0 0.0 )
( 0.0 0.0 0.0 0.0 0.0 0.0 )
( 0.0 0.0 0.0 0.0 0.0 0.0 )
( 0.0 0.0 0.0 0.0 0.0 0.0 ))
(( 0.0 0.0 0.0 0.0 0.0 0.0 )
( 0.0 0.0 0.0 0.0 0.0 0.0 )
( 0.0 0.0 0.0 0.0 0.0 0.0 )
( 0.0 0.0 0.0 0.0 0.0 0.0 )))
((( 0.0 0.0 0.0 0.0 0.0 0.0 )
( 0.0 0.0 0.0 0.0 0.0 0.0 )
( 0.0 0.0 0.0 0.0 0.0 0.0 )
( 0.0 0.0 0.0 0.0 0.0 0.0 ))
(( 0.0 0.0 0.0 0.0 0.0 0.0 )
( 0.0 0.0 0.0 0.0 0.0 0.0 )
( 0.0 0.0 0.0 0.0 0.0 0.0 )
( 0.0 0.0 0.0 0.0 0.0 0.0 )))
((( 0.0 0.0 0.0 0.0 0.0 0.0 )
( 0.0 0.0 0.0 0.0 0.0 0.0 )
( 0.0 0.0 0.0 0.0 0.0 0.0 )
( 0.0 0.0 0.0 0.0 0.0 0.0 ))
(( 0.0 0.0 0.0 0.0 0.0 0.0 )
( 0.0 0.0 0.0 0.0 0.0 0.0 )
( 0.0 0.0 0.0 0.0 0.0 0.0 )
( 0.0 0.0 0.0 0.0 0.0 0.0 )))
((( 0.0 0.0 0.0 0.0 0.0 0.0 )
( 0.0 0.0 0.0 0.0 0.0 0.0 )
( 0.0 0.0 0.0 0.0 0.0 0.0 )
( 0.0 0.0 0.0 0.0 0.0 0.0 ))
(( 0.0 0.0 0.0 0.0 0.0 0.0 )
( 0.0 0.0 0.0 0.0 0.0 0.0 )
( 0.0 0.0 0.0 0.0 0.0 0.0 )
( 0.0 0.0 0.0 0.0 0.0 0.0 )))
((( 0.0 0.0 0.0 0.0 0.0 0.0 )
( 0.0 0.0 0.0 0.0 0.0 0.0 )
( 0.0 0.0 0.0 0.0 0.0 0.0 )
( 0.0 0.0 0.0 0.0 0.0 0.0 ))
(( 0.0 0.0 0.0 0.0 0.0 0.0 )
( 0.0 0.0 0.0 0.0 0.0 0.0 )
( 0.0 0.0 0.0 0.0 0.0 0.0 )
( 0.0 0.0 0.0 0.0 0.0 0.0 )))
((( 0.0 0.0 0.0 0.0 0.0 0.0 )
( 0.0 0.0 0.0 0.0 0.0 0.0 )
( 0.0 0.0 0.0 0.0 0.0 0.0 )
( 0.0 0.0 0.0 0.0 0.0 0.0 ))
(( 0.0 0.0 0.0 0.0 0.0 0.0 )
( 0.0 0.0 0.0 0.0 0.0 0.0 )
( 0.0 0.0 0.0 0.0 0.0 0.0 )
( 0.0 0.0 0.0 0.0 0.0 0.0 )))
((( 0.0 0.0 0.0 0.0 0.0 0.0 )
( 0.0 0.0 0.0 0.0 0.0 0.0 )
( 0.0 0.0 0.0 0.0 0.0 0.0 )
( 0.0 0.0 0.0 0.0 0.0 0.0 ))
(( 0.0 0.0 0.0 0.0 0.0 0.0 )
( 0.0 0.0 0.0 0.0 0.0 0.0 )
( 0.0 0.0 0.0 0.0 0.0 0.0 )
( 0.0 0.0 0.0 0.0 0.0 0.0 )))
((( 0.0 0.0 0.0 0.0 0.0 0.0 )
( 0.0 0.0 0.0 0.0 0.0 0.0 )
( 0.0 0.0 0.0 0.0 0.0 0.0 )
( 0.0 0.0 0.0 0.0 0.0 0.0 ))
(( 0.0 0.0 0.0 0.0 0.0 0.0 )
( 0.0 0.0 0.0 0.0 0.0 0.0 )
( 0.0 0.0 0.0 0.0 0.0 0.0 )
( 0.0 0.0 0.0 0.0 0.0 0.0 )))
((( 0.0 0.0 0.0 0.0 0.0 0.0 )
( 0.0 0.0 0.0 0.0 0.0 0.0 )
( 0.0 0.0 0.0 0.0 0.0 0.0 )
( 0.0 0.0 0.0 0.0 0.0 0.0 ))
(( 0.0 0.0 0.0 0.0 0.0 0.0 )
( 0.0 0.0 0.0 0.0 0.0 0.0 )
( 0.0 0.0 0.0 0.0 0.0 0.0 )
( 0.0 0.0 0.0 0.0 0.0 0.0 )))
((( 0.0 0.0 0.0 0.0 0.0 0.0 )
( 0.0 0.0 0.0 0.0 0.0 0.0 )
( 0.0 0.0 0.0 0.0 0.0 0.0 )
( 0.0 0.0 0.0 0.0 0.0 0.0 ))
(( 0.0 0.0 0.0 0.0 0.0 0.0 )
( 0.0 0.0 0.0 0.0 0.0 0.0 )
( 0.0 0.0 0.0 0.0 0.0 0.0 )
( 0.0 0.0 0.0 0.0 0.0 0.0 ))))
(((( 0.0 0.0 0.0 0.0 0.0 0.0 )
( 0.0 0.0 0.0 0.0 0.0 0.0 )
( 0.0 0.0 0.0 0.0 0.0 0.0 )
( 0.0 0.0 0.0 0.0 0.0 0.0 ))
(( 0.0 0.0 0.0 0.0 0.0 0.0 )
( 0.0 0.0 0.0 0.0 0.0 0.0 )
( 0.0 0.0 0.0 0.0 0.0 0.0 )
( 0.0 0.0 0.0 0.0 0.0 0.0 )))
((( 0.0 0.0 0.0 0.0 0.0 0.0 )
( 0.0 0.0 0.0 0.0 0.0 0.0 )
( 0.0 0.0 0.0 0.0 0.0 0.0 )
( 0.0 0.0 0.0 0.0 0.0 0.0 ))
(( 0.0 0.0 0.0 0.0 0.0 0.0 )
( 0.0 0.0 0.0 0.0 0.0 0.0 )
( 0.0 0.0 0.0 0.0 0.0 0.0 )
( 0.0 0.0 0.0 0.0 0.0 0.0 )))
((( 0.0 0.0 0.0 0.0 0.0 0.0 )
( 0.0 0.0 0.0 0.0 0.0 0.0 )
( 0.0 0.0 0.0 0.0 0.0 0.0 )
( 0.0 0.0 0.0 0.0 0.0 0.0 ))
(( 0.0 0.0 0.0 0.0 0.0 0.0 )
( 0.0 0.0 0.0 0.0 0.0 0.0 )
( 0.0 0.0 0.0 0.0 0.0 0.0 )
( 0.0 0.0 0.0 0.0 0.0 0.0 )))
((( 0.0 0.0 0.0 0.0 0.0 0.0 )
( 0.0 0.0 0.0 0.0 0.0 0.0 )
( 0.0 0.0 0.0 0.0 0.0 0.0 )
( 0.0 0.0 0.0 0.0 0.0 0.0 ))
(( 0.0 0.0 0.0 0.0 0.0 0.0 )
( 0.0 0.0 0.0 0.0 0.0 0.0 )
( 0.0 0.0 0.0 0.0 0.0 0.0 )
( 0.0 0.0 0.0 0.0 0.0 0.0 )))
((( 0.0 0.0 0.0 0.0 0.0 0.0 )
( 0.0 0.0 0.0 0.0 0.0 0.0 )
( 0.0 0.0 0.0 0.0 0.0 0.0 )
( 0.0 0.0 0.0 0.0 0.0 0.0 ))
(( 0.0 0.0 0.0 0.0 0.0 0.0 )
( 0.0 0.0 0.0 0.0 0.0 0.0 )
( 0.0 0.0 0.0 0.0 0.0 0.0 )
( 0.0 0.0 0.0 0.0 0.0 0.0 )))
((( 0.0 0.0 0.0 0.0 0.0 0.0 )
( 0.0 0.0 0.0 0.0 0.0 0.0 )
( 0.0 0.0 0.0 0.0 0.0 0.0 )
( 0.0 0.0 0.0 0.0 0.0 0.0 ))
(( 0.0 0.0 0.0 0.0 0.0 0.0 )
( 0.0 0.0 0.0 0.0 0.0 0.0 )
( 0.0 0.0 0.0 0.0 0.0 0.0 )
( 0.0 0.0 0.0 0.0 0.0 0.0 )))
((( 0.0 0.0 0.0 0.0 0.0 0.0 )
( 0.0 0.0 0.0 0.0 0.0 0.0 )
( 0.0 0.0 0.0 0.0 0.0 0.0 )
( 0.0 0.0 0.0 0.0 0.0 0.0 ))
(( 0.0 0.0 0.0 0.0 0.0 0.0 )
( 0.0 0.0 0.0 0.0 0.0 0.0 )
( 0.0 0.0 0.0 0.0 0.0 0.0 )
( 0.0 0.0 0.0 0.0 0.0 0.0 )))
((( 0.0 0.0 0.0 0.0 0.0 0.0 )
( 0.0 0.0 0.0 0.0 0.0 0.0 )
( 0.0 0.0 0.0 0.0 0.0 0.0 )
( 0.0 0.0 0.0 0.0 0.0 0.0 ))
(( 0.0 0.0 0.0 0.0 0.0 0.0 )
( 0.0 0.0 0.0 0.0 0.0 0.0 )
( 0.0 0.0 0.0 0.0 0.0 0.0 )
( 0.0 0.0 0.0 0.0 0.0 0.0 )))
((( 0.0 0.0 0.0 0.0 0.0 0.0 )
( 0.0 0.0 0.0 0.0 0.0 0.0 )
( 0.0 0.0 0.0 0.0 0.0 0.0 )
( 0.0 0.0 0.0 0.0 0.0 0.0 ))
(( 0.0 0.0 0.0 0.0 0.0 0.0 )
( 0.0 0.0 0.0 0.0 0.0 0.0 )
( 0.0 0.0 0.0 0.0 0.0 0.0 )
( 0.0 0.0 0.0 0.0 0.0 0.0 )))
((( 0.0 0.0 0.0 0.0 0.0 0.0 )
( 0.0 0.0 0.0 0.0 0.0 0.0 )
( 0.0 0.0 0.0 0.0 0.0 0.0 )
( 0.0 0.0 0.0 0.0 0.0 0.0 ))
(( 0.0 0.0 0.0 0.0 0.0 0.0 )
( 0.0 0.0 0.0 0.0 0.0 0.0 )
( 0.0 0.0 0.0 0.0 0.0 0.0 )
( 0.0 0.0 0.0 0.0 0.0 0.0 )))));
}

