net
{
     node_size = (0 0);
     name = "DAGGRE";
     tree = "()";
     UnBBayes_Color_Probabilistic_Description = "-256";
     UnBBayes_Color_Probabilistic_Explanation = "-16711936";
}

node 20
{
     label = "";
     position = (346 47);
     states = ("0" "1");
}

node 36
{
     label = "";
     position = (631 322);
     states = ("0" "1");
}

node 22
{
     label = "";
     position = (227 147);
     states = ("0" "1");
}

node 25
{
     label = "";
     position = (493 214);
     states = ("0" "1" "2");
}

node 38
{
     label = "";
     position = (387 320);
     states = ("0" "1");
}

node 30
{
     label = "";
     position = (259 516);
     states = ("0" "1");
}

node 21
{
     label = "";
     position = (630 47);
     states = ("0" "1" "2");
}

node 29
{
     label = "";
     position = (808 140);
     states = ("0" "1" "2");
}

node 26
{
     label = "";
     position = (743 407);
     states = ("0" "1" "2");
}

node 34
{
     label = "";
     position = (45 393);
     states = ("0" "1" "2");
}

potential (20)
{
 data = ( 0.5 0.5 );
}

potential (36 | 29 21 25)
{
 data = (((( 0.5 0.5 )
( 0.5 0.5 )
( 0.5 0.5 ))
(( 0.5 0.5 )
( 0.5 0.5 )
( 0.5 0.5 ))
(( 0.5 0.5 )
( 0.5 0.5 )
( 0.5 0.5 )))
((( 0.5 0.5 )
( 0.5 0.5 )
( 0.5 0.5 ))
(( 0.5 0.5 )
( 0.5 0.5 )
( 0.5 0.5 ))
(( 0.5 0.5 )
( 0.5 0.5 )
( 0.5 0.5 )))
((( 0.5 0.5 )
( 0.5 0.5 )
( 0.5 0.5 ))
(( 0.5 0.5 )
( 0.5 0.5 )
( 0.5 0.5 ))
(( 0.5 0.5 )
( 0.5 0.5 )
( 0.5 0.5 ))));
}

potential (22 | 20)
{
 data = (( 0.5 0.5 )
( 0.5 0.5 ));
}

potential (25 | 21 22)
{
 data = ((( 0.33333334 0.33333334 0.33333334 )
( 0.33333334 0.33333334 0.33333334 ))
(( 0.33333334 0.33333334 0.33333334 )
( 0.33333334 0.33333334 0.33333334 ))
(( 0.33333334 0.33333334 0.33333334 )
( 0.33333334 0.33333334 0.33333334 )));
}

potential (38 | 36 25)
{
 data = ((( 0.5 0.5 )
( 0.5 0.5 )
( 0.5 0.5 ))
(( 0.5 0.5 )
( 0.5 0.5 )
( 0.5 0.5 )));
}

potential (30 | 34 26 36 22)
{
 data = ((((( 0.5 0.5 )
( 0.5 0.5 ))
(( 0.5 0.5 )
( 0.5 0.5 )))
((( 0.5 0.5 )
( 0.5 0.5 ))
(( 0.5 0.5 )
( 0.5 0.5 )))
((( 0.5 0.5 )
( 0.5 0.5 ))
(( 0.5 0.5 )
( 0.5 0.5 ))))
(((( 0.5 0.5 )
( 0.5 0.5 ))
(( 0.5 0.5 )
( 0.5 0.5 )))
((( 0.5 0.5 )
( 0.5 0.5 ))
(( 0.5 0.5 )
( 0.5 0.5 )))
((( 0.5 0.5 )
( 0.5 0.5 ))
(( 0.5 0.5 )
( 0.5 0.5 ))))
(((( 0.5 0.5 )
( 0.5 0.5 ))
(( 0.5 0.5 )
( 0.5 0.5 )))
((( 0.5 0.5 )
( 0.5 0.5 ))
(( 0.5 0.5 )
( 0.5 0.5 )))
((( 0.5 0.5 )
( 0.5 0.5 ))
(( 0.5 0.5 )
( 0.5 0.5 )))));
}

potential (21 | 20)
{
 data = (( 0.33333334 0.33333334 0.33333334 )
( 0.33333334 0.33333334 0.33333334 ));
}

potential (29 | 25 22 20 21)
{
 data = ((((( 0.33333334 0.33333334 0.33333334 )
( 0.33333334 0.33333334 0.33333334 )
( 0.33333334 0.33333334 0.33333334 ))
(( 0.33333334 0.33333334 0.33333334 )
( 0.33333334 0.33333334 0.33333334 )
( 0.33333334 0.33333334 0.33333334 )))
((( 0.33333334 0.33333334 0.33333334 )
( 0.33333334 0.33333334 0.33333334 )
( 0.33333334 0.33333334 0.33333334 ))
(( 0.33333334 0.33333334 0.33333334 )
( 0.33333334 0.33333334 0.33333334 )
( 0.33333334 0.33333334 0.33333334 ))))
(((( 0.33333334 0.33333334 0.33333334 )
( 0.33333334 0.33333334 0.33333334 )
( 0.33333334 0.33333334 0.33333334 ))
(( 0.33333334 0.33333334 0.33333334 )
( 0.33333334 0.33333334 0.33333334 )
( 0.33333334 0.33333334 0.33333334 )))
((( 0.33333334 0.33333334 0.33333334 )
( 0.33333334 0.33333334 0.33333334 )
( 0.33333334 0.33333334 0.33333334 ))
(( 0.33333334 0.33333334 0.33333334 )
( 0.33333334 0.33333334 0.33333334 )
( 0.33333334 0.33333334 0.33333334 ))))
(((( 0.33333334 0.33333334 0.33333334 )
( 0.33333334 0.33333334 0.33333334 )
( 0.33333334 0.33333334 0.33333334 ))
(( 0.33333334 0.33333334 0.33333334 )
( 0.33333334 0.33333334 0.33333334 )
( 0.33333334 0.33333334 0.33333334 )))
((( 0.33333334 0.33333334 0.33333334 )
( 0.33333334 0.33333334 0.33333334 )
( 0.33333334 0.33333334 0.33333334 ))
(( 0.33333334 0.33333334 0.33333334 )
( 0.33333334 0.33333334 0.33333334 )
( 0.33333334 0.33333334 0.33333334 )))));
}

potential (26 | 38 36)
{
 data = ((( 0.33333334 0.33333334 0.33333334 )
( 0.33333334 0.33333334 0.33333334 ))
(( 0.33333334 0.33333334 0.33333334 )
( 0.33333334 0.33333334 0.33333334 )));
}

potential (34 | 22 36 26 21)
{
 data = ((((( 0.33333334 0.33333334 0.33333334 )
( 0.33333334 0.33333334 0.33333334 )
( 0.33333334 0.33333334 0.33333334 ))
(( 0.33333334 0.33333334 0.33333334 )
( 0.33333334 0.33333334 0.33333334 )
( 0.33333334 0.33333334 0.33333334 ))
(( 0.33333334 0.33333334 0.33333334 )
( 0.33333334 0.33333334 0.33333334 )
( 0.33333334 0.33333334 0.33333334 )))
((( 0.33333334 0.33333334 0.33333334 )
( 0.33333334 0.33333334 0.33333334 )
( 0.33333334 0.33333334 0.33333334 ))
(( 0.33333334 0.33333334 0.33333334 )
( 0.33333334 0.33333334 0.33333334 )
( 0.33333334 0.33333334 0.33333334 ))
(( 0.33333334 0.33333334 0.33333334 )
( 0.33333334 0.33333334 0.33333334 )
( 0.33333334 0.33333334 0.33333334 ))))
(((( 0.33333334 0.33333334 0.33333334 )
( 0.33333334 0.33333334 0.33333334 )
( 0.33333334 0.33333334 0.33333334 ))
(( 0.33333334 0.33333334 0.33333334 )
( 0.33333334 0.33333334 0.33333334 )
( 0.33333334 0.33333334 0.33333334 ))
(( 0.33333334 0.33333334 0.33333334 )
( 0.33333334 0.33333334 0.33333334 )
( 0.33333334 0.33333334 0.33333334 )))
((( 0.33333334 0.33333334 0.33333334 )
( 0.33333334 0.33333334 0.33333334 )
( 0.33333334 0.33333334 0.33333334 ))
(( 0.33333334 0.33333334 0.33333334 )
( 0.33333334 0.33333334 0.33333334 )
( 0.33333334 0.33333334 0.33333334 ))
(( 0.33333334 0.33333334 0.33333334 )
( 0.33333334 0.33333334 0.33333334 )
( 0.33333334 0.33333334 0.33333334 )))));
}

