net
{
     node_size = (0 0);
     name = "DAGGRE";
     tree = "()";
     UnBBayes_Color_Probabilistic_Description = "-256";
     UnBBayes_Color_Probabilistic_Explanation = "-16711936";
}

node 36
{
     label = "";
     position = (890 269);
     states = ("0" "1");
}

node 22
{
     label = "";
     position = (173 103);
     states = ("0" "1");
}

node 25
{
     label = "";
     position = (419 103);
     states = ("0" "1" "2");
}

node 38
{
     label = "";
     position = (305 404);
     states = ("0" "1");
}

node 30
{
     label = "";
     position = (163 262);
     states = ("0" "1");
}

node 29
{
     label = "";
     position = (908 110);
     states = ("0" "1" "2");
}

node 26
{
     label = "";
     position = (669 107);
     states = ("0" "1" "2");
}

node 34
{
     label = "";
     position = (651 250);
     states = ("0" "1" "2");
}

node 39
{
     label = "";
     position = (704 389);
     states = ("0" "1" "2");
}

node 32
{
     label = "";
     position = (411 256);
     states = ("0" "1" "2");
}

node 28
{
     label = "";
     position = (431 501);
     states = ("0" "1" "2");
}

potential (36 | 29 22 25)
{
 data = (((( 0.5 0.5 )
( 0.5 0.5 )
( 0.5 0.5 ))
(( 0.5 0.5 )
( 0.5 0.5 )
( 0.5 0.5 )))
((( 0.5 0.5 )
( 0.5 0.5 )
( 0.5 0.5 ))
(( 0.5 0.5 )
( 0.5 0.5 )
( 0.5 0.5 )))
((( 0.5 0.5 )
( 0.5 0.5 )
( 0.5 0.5 ))
(( 0.5 0.5 )
( 0.5 0.5 )
( 0.5 0.5 ))));
}

potential (22)
{
 data = ( 0.5 0.5 );
}

potential (25 | 22)
{
 data = (( 0.33333334 0.33333334 0.33333334 )
( 0.33333334 0.33333334 0.33333334 ));
}

potential (38 | 29 22 36 25)
{
 data = ((((( 0.5 0.5 )
( 0.5 0.5 )
( 0.5 0.5 ))
(( 0.5 0.5 )
( 0.5 0.5 )
( 0.5 0.5 )))
((( 0.5 0.5 )
( 0.5 0.5 )
( 0.5 0.5 ))
(( 0.5 0.5 )
( 0.5 0.5 )
( 0.5 0.5 ))))
(((( 0.5 0.5 )
( 0.5 0.5 )
( 0.5 0.5 ))
(( 0.5 0.5 )
( 0.5 0.5 )
( 0.5 0.5 )))
((( 0.5 0.5 )
( 0.5 0.5 )
( 0.5 0.5 ))
(( 0.5 0.5 )
( 0.5 0.5 )
( 0.5 0.5 ))))
(((( 0.5 0.5 )
( 0.5 0.5 )
( 0.5 0.5 ))
(( 0.5 0.5 )
( 0.5 0.5 )
( 0.5 0.5 )))
((( 0.5 0.5 )
( 0.5 0.5 )
( 0.5 0.5 ))
(( 0.5 0.5 )
( 0.5 0.5 )
( 0.5 0.5 )))));
}

potential (30 | 39 34 26 36 22)
{
 data = (((((( 0.5 0.5 )
( 0.5 0.5 ))
(( 0.5 0.5 )
( 0.5 0.5 )))
((( 0.5 0.5 )
( 0.5 0.5 ))
(( 0.5 0.5 )
( 0.5 0.5 )))
((( 0.5 0.5 )
( 0.5 0.5 ))
(( 0.5 0.5 )
( 0.5 0.5 ))))
(((( 0.5 0.5 )
( 0.5 0.5 ))
(( 0.5 0.5 )
( 0.5 0.5 )))
((( 0.5 0.5 )
( 0.5 0.5 ))
(( 0.5 0.5 )
( 0.5 0.5 )))
((( 0.5 0.5 )
( 0.5 0.5 ))
(( 0.5 0.5 )
( 0.5 0.5 ))))
(((( 0.5 0.5 )
( 0.5 0.5 ))
(( 0.5 0.5 )
( 0.5 0.5 )))
((( 0.5 0.5 )
( 0.5 0.5 ))
(( 0.5 0.5 )
( 0.5 0.5 )))
((( 0.5 0.5 )
( 0.5 0.5 ))
(( 0.5 0.5 )
( 0.5 0.5 )))))
((((( 0.5 0.5 )
( 0.5 0.5 ))
(( 0.5 0.5 )
( 0.5 0.5 )))
((( 0.5 0.5 )
( 0.5 0.5 ))
(( 0.5 0.5 )
( 0.5 0.5 )))
((( 0.5 0.5 )
( 0.5 0.5 ))
(( 0.5 0.5 )
( 0.5 0.5 ))))
(((( 0.5 0.5 )
( 0.5 0.5 ))
(( 0.5 0.5 )
( 0.5 0.5 )))
((( 0.5 0.5 )
( 0.5 0.5 ))
(( 0.5 0.5 )
( 0.5 0.5 )))
((( 0.5 0.5 )
( 0.5 0.5 ))
(( 0.5 0.5 )
( 0.5 0.5 ))))
(((( 0.5 0.5 )
( 0.5 0.5 ))
(( 0.5 0.5 )
( 0.5 0.5 )))
((( 0.5 0.5 )
( 0.5 0.5 ))
(( 0.5 0.5 )
( 0.5 0.5 )))
((( 0.5 0.5 )
( 0.5 0.5 ))
(( 0.5 0.5 )
( 0.5 0.5 )))))
((((( 0.5 0.5 )
( 0.5 0.5 ))
(( 0.5 0.5 )
( 0.5 0.5 )))
((( 0.5 0.5 )
( 0.5 0.5 ))
(( 0.5 0.5 )
( 0.5 0.5 )))
((( 0.5 0.5 )
( 0.5 0.5 ))
(( 0.5 0.5 )
( 0.5 0.5 ))))
(((( 0.5 0.5 )
( 0.5 0.5 ))
(( 0.5 0.5 )
( 0.5 0.5 )))
((( 0.5 0.5 )
( 0.5 0.5 ))
(( 0.5 0.5 )
( 0.5 0.5 )))
((( 0.5 0.5 )
( 0.5 0.5 ))
(( 0.5 0.5 )
( 0.5 0.5 ))))
(((( 0.5 0.5 )
( 0.5 0.5 ))
(( 0.5 0.5 )
( 0.5 0.5 )))
((( 0.5 0.5 )
( 0.5 0.5 ))
(( 0.5 0.5 )
( 0.5 0.5 )))
((( 0.5 0.5 )
( 0.5 0.5 ))
(( 0.5 0.5 )
( 0.5 0.5 ))))));
}

potential (29 | 25 22)
{
 data = ((( 0.33333334 0.33333334 0.33333334 )
( 0.33333334 0.33333334 0.33333334 ))
(( 0.33333334 0.33333334 0.33333334 )
( 0.33333334 0.33333334 0.33333334 ))
(( 0.33333334 0.33333334 0.33333334 )
( 0.33333334 0.33333334 0.33333334 )));
}

potential (26 | 29 25 22 38 36)
{
 data = (((((( 0.33333334 0.33333334 0.33333334 )
( 0.33333334 0.33333334 0.33333334 ))
(( 0.33333334 0.33333334 0.33333334 )
( 0.33333334 0.33333334 0.33333334 )))
((( 0.33333334 0.33333334 0.33333334 )
( 0.33333334 0.33333334 0.33333334 ))
(( 0.33333334 0.33333334 0.33333334 )
( 0.33333334 0.33333334 0.33333334 ))))
(((( 0.33333334 0.33333334 0.33333334 )
( 0.33333334 0.33333334 0.33333334 ))
(( 0.33333334 0.33333334 0.33333334 )
( 0.33333334 0.33333334 0.33333334 )))
((( 0.33333334 0.33333334 0.33333334 )
( 0.33333334 0.33333334 0.33333334 ))
(( 0.33333334 0.33333334 0.33333334 )
( 0.33333334 0.33333334 0.33333334 ))))
(((( 0.33333334 0.33333334 0.33333334 )
( 0.33333334 0.33333334 0.33333334 ))
(( 0.33333334 0.33333334 0.33333334 )
( 0.33333334 0.33333334 0.33333334 )))
((( 0.33333334 0.33333334 0.33333334 )
( 0.33333334 0.33333334 0.33333334 ))
(( 0.33333334 0.33333334 0.33333334 )
( 0.33333334 0.33333334 0.33333334 )))))
((((( 0.33333334 0.33333334 0.33333334 )
( 0.33333334 0.33333334 0.33333334 ))
(( 0.33333334 0.33333334 0.33333334 )
( 0.33333334 0.33333334 0.33333334 )))
((( 0.33333334 0.33333334 0.33333334 )
( 0.33333334 0.33333334 0.33333334 ))
(( 0.33333334 0.33333334 0.33333334 )
( 0.33333334 0.33333334 0.33333334 ))))
(((( 0.33333334 0.33333334 0.33333334 )
( 0.33333334 0.33333334 0.33333334 ))
(( 0.33333334 0.33333334 0.33333334 )
( 0.33333334 0.33333334 0.33333334 )))
((( 0.33333334 0.33333334 0.33333334 )
( 0.33333334 0.33333334 0.33333334 ))
(( 0.33333334 0.33333334 0.33333334 )
( 0.33333334 0.33333334 0.33333334 ))))
(((( 0.33333334 0.33333334 0.33333334 )
( 0.33333334 0.33333334 0.33333334 ))
(( 0.33333334 0.33333334 0.33333334 )
( 0.33333334 0.33333334 0.33333334 )))
((( 0.33333334 0.33333334 0.33333334 )
( 0.33333334 0.33333334 0.33333334 ))
(( 0.33333334 0.33333334 0.33333334 )
( 0.33333334 0.33333334 0.33333334 )))))
((((( 0.33333334 0.33333334 0.33333334 )
( 0.33333334 0.33333334 0.33333334 ))
(( 0.33333334 0.33333334 0.33333334 )
( 0.33333334 0.33333334 0.33333334 )))
((( 0.33333334 0.33333334 0.33333334 )
( 0.33333334 0.33333334 0.33333334 ))
(( 0.33333334 0.33333334 0.33333334 )
( 0.33333334 0.33333334 0.33333334 ))))
(((( 0.33333334 0.33333334 0.33333334 )
( 0.33333334 0.33333334 0.33333334 ))
(( 0.33333334 0.33333334 0.33333334 )
( 0.33333334 0.33333334 0.33333334 )))
((( 0.33333334 0.33333334 0.33333334 )
( 0.33333334 0.33333334 0.33333334 ))
(( 0.33333334 0.33333334 0.33333334 )
( 0.33333334 0.33333334 0.33333334 ))))
(((( 0.33333334 0.33333334 0.33333334 )
( 0.33333334 0.33333334 0.33333334 ))
(( 0.33333334 0.33333334 0.33333334 )
( 0.33333334 0.33333334 0.33333334 )))
((( 0.33333334 0.33333334 0.33333334 )
( 0.33333334 0.33333334 0.33333334 ))
(( 0.33333334 0.33333334 0.33333334 )
( 0.33333334 0.33333334 0.33333334 ))))));
}

potential (34 | 29 25 22 36 26)
{
 data = (((((( 0.33333334 0.33333334 0.33333334 )
( 0.33333334 0.33333334 0.33333334 )
( 0.33333334 0.33333334 0.33333334 ))
(( 0.33333334 0.33333334 0.33333334 )
( 0.33333334 0.33333334 0.33333334 )
( 0.33333334 0.33333334 0.33333334 )))
((( 0.33333334 0.33333334 0.33333334 )
( 0.33333334 0.33333334 0.33333334 )
( 0.33333334 0.33333334 0.33333334 ))
(( 0.33333334 0.33333334 0.33333334 )
( 0.33333334 0.33333334 0.33333334 )
( 0.33333334 0.33333334 0.33333334 ))))
(((( 0.33333334 0.33333334 0.33333334 )
( 0.33333334 0.33333334 0.33333334 )
( 0.33333334 0.33333334 0.33333334 ))
(( 0.33333334 0.33333334 0.33333334 )
( 0.33333334 0.33333334 0.33333334 )
( 0.33333334 0.33333334 0.33333334 )))
((( 0.33333334 0.33333334 0.33333334 )
( 0.33333334 0.33333334 0.33333334 )
( 0.33333334 0.33333334 0.33333334 ))
(( 0.33333334 0.33333334 0.33333334 )
( 0.33333334 0.33333334 0.33333334 )
( 0.33333334 0.33333334 0.33333334 ))))
(((( 0.33333334 0.33333334 0.33333334 )
( 0.33333334 0.33333334 0.33333334 )
( 0.33333334 0.33333334 0.33333334 ))
(( 0.33333334 0.33333334 0.33333334 )
( 0.33333334 0.33333334 0.33333334 )
( 0.33333334 0.33333334 0.33333334 )))
((( 0.33333334 0.33333334 0.33333334 )
( 0.33333334 0.33333334 0.33333334 )
( 0.33333334 0.33333334 0.33333334 ))
(( 0.33333334 0.33333334 0.33333334 )
( 0.33333334 0.33333334 0.33333334 )
( 0.33333334 0.33333334 0.33333334 )))))
((((( 0.33333334 0.33333334 0.33333334 )
( 0.33333334 0.33333334 0.33333334 )
( 0.33333334 0.33333334 0.33333334 ))
(( 0.33333334 0.33333334 0.33333334 )
( 0.33333334 0.33333334 0.33333334 )
( 0.33333334 0.33333334 0.33333334 )))
((( 0.33333334 0.33333334 0.33333334 )
( 0.33333334 0.33333334 0.33333334 )
( 0.33333334 0.33333334 0.33333334 ))
(( 0.33333334 0.33333334 0.33333334 )
( 0.33333334 0.33333334 0.33333334 )
( 0.33333334 0.33333334 0.33333334 ))))
(((( 0.33333334 0.33333334 0.33333334 )
( 0.33333334 0.33333334 0.33333334 )
( 0.33333334 0.33333334 0.33333334 ))
(( 0.33333334 0.33333334 0.33333334 )
( 0.33333334 0.33333334 0.33333334 )
( 0.33333334 0.33333334 0.33333334 )))
((( 0.33333334 0.33333334 0.33333334 )
( 0.33333334 0.33333334 0.33333334 )
( 0.33333334 0.33333334 0.33333334 ))
(( 0.33333334 0.33333334 0.33333334 )
( 0.33333334 0.33333334 0.33333334 )
( 0.33333334 0.33333334 0.33333334 ))))
(((( 0.33333334 0.33333334 0.33333334 )
( 0.33333334 0.33333334 0.33333334 )
( 0.33333334 0.33333334 0.33333334 ))
(( 0.33333334 0.33333334 0.33333334 )
( 0.33333334 0.33333334 0.33333334 )
( 0.33333334 0.33333334 0.33333334 )))
((( 0.33333334 0.33333334 0.33333334 )
( 0.33333334 0.33333334 0.33333334 )
( 0.33333334 0.33333334 0.33333334 ))
(( 0.33333334 0.33333334 0.33333334 )
( 0.33333334 0.33333334 0.33333334 )
( 0.33333334 0.33333334 0.33333334 )))))
((((( 0.33333334 0.33333334 0.33333334 )
( 0.33333334 0.33333334 0.33333334 )
( 0.33333334 0.33333334 0.33333334 ))
(( 0.33333334 0.33333334 0.33333334 )
( 0.33333334 0.33333334 0.33333334 )
( 0.33333334 0.33333334 0.33333334 )))
((( 0.33333334 0.33333334 0.33333334 )
( 0.33333334 0.33333334 0.33333334 )
( 0.33333334 0.33333334 0.33333334 ))
(( 0.33333334 0.33333334 0.33333334 )
( 0.33333334 0.33333334 0.33333334 )
( 0.33333334 0.33333334 0.33333334 ))))
(((( 0.33333334 0.33333334 0.33333334 )
( 0.33333334 0.33333334 0.33333334 )
( 0.33333334 0.33333334 0.33333334 ))
(( 0.33333334 0.33333334 0.33333334 )
( 0.33333334 0.33333334 0.33333334 )
( 0.33333334 0.33333334 0.33333334 )))
((( 0.33333334 0.33333334 0.33333334 )
( 0.33333334 0.33333334 0.33333334 )
( 0.33333334 0.33333334 0.33333334 ))
(( 0.33333334 0.33333334 0.33333334 )
( 0.33333334 0.33333334 0.33333334 )
( 0.33333334 0.33333334 0.33333334 ))))
(((( 0.33333334 0.33333334 0.33333334 )
( 0.33333334 0.33333334 0.33333334 )
( 0.33333334 0.33333334 0.33333334 ))
(( 0.33333334 0.33333334 0.33333334 )
( 0.33333334 0.33333334 0.33333334 )
( 0.33333334 0.33333334 0.33333334 )))
((( 0.33333334 0.33333334 0.33333334 )
( 0.33333334 0.33333334 0.33333334 )
( 0.33333334 0.33333334 0.33333334 ))
(( 0.33333334 0.33333334 0.33333334 )
( 0.33333334 0.33333334 0.33333334 )
( 0.33333334 0.33333334 0.33333334 ))))));
}

potential (39 | 28 26 32 36 34 22)
{
 data = ((((((( 0.33333334 0.33333334 0.33333334 )
( 0.33333334 0.33333334 0.33333334 ))
(( 0.33333334 0.33333334 0.33333334 )
( 0.33333334 0.33333334 0.33333334 ))
(( 0.33333334 0.33333334 0.33333334 )
( 0.33333334 0.33333334 0.33333334 )))
((( 0.33333334 0.33333334 0.33333334 )
( 0.33333334 0.33333334 0.33333334 ))
(( 0.33333334 0.33333334 0.33333334 )
( 0.33333334 0.33333334 0.33333334 ))
(( 0.33333334 0.33333334 0.33333334 )
( 0.33333334 0.33333334 0.33333334 ))))
(((( 0.33333334 0.33333334 0.33333334 )
( 0.33333334 0.33333334 0.33333334 ))
(( 0.33333334 0.33333334 0.33333334 )
( 0.33333334 0.33333334 0.33333334 ))
(( 0.33333334 0.33333334 0.33333334 )
( 0.33333334 0.33333334 0.33333334 )))
((( 0.33333334 0.33333334 0.33333334 )
( 0.33333334 0.33333334 0.33333334 ))
(( 0.33333334 0.33333334 0.33333334 )
( 0.33333334 0.33333334 0.33333334 ))
(( 0.33333334 0.33333334 0.33333334 )
( 0.33333334 0.33333334 0.33333334 ))))
(((( 0.33333334 0.33333334 0.33333334 )
( 0.33333334 0.33333334 0.33333334 ))
(( 0.33333334 0.33333334 0.33333334 )
( 0.33333334 0.33333334 0.33333334 ))
(( 0.33333334 0.33333334 0.33333334 )
( 0.33333334 0.33333334 0.33333334 )))
((( 0.33333334 0.33333334 0.33333334 )
( 0.33333334 0.33333334 0.33333334 ))
(( 0.33333334 0.33333334 0.33333334 )
( 0.33333334 0.33333334 0.33333334 ))
(( 0.33333334 0.33333334 0.33333334 )
( 0.33333334 0.33333334 0.33333334 )))))
((((( 0.33333334 0.33333334 0.33333334 )
( 0.33333334 0.33333334 0.33333334 ))
(( 0.33333334 0.33333334 0.33333334 )
( 0.33333334 0.33333334 0.33333334 ))
(( 0.33333334 0.33333334 0.33333334 )
( 0.33333334 0.33333334 0.33333334 )))
((( 0.33333334 0.33333334 0.33333334 )
( 0.33333334 0.33333334 0.33333334 ))
(( 0.33333334 0.33333334 0.33333334 )
( 0.33333334 0.33333334 0.33333334 ))
(( 0.33333334 0.33333334 0.33333334 )
( 0.33333334 0.33333334 0.33333334 ))))
(((( 0.33333334 0.33333334 0.33333334 )
( 0.33333334 0.33333334 0.33333334 ))
(( 0.33333334 0.33333334 0.33333334 )
( 0.33333334 0.33333334 0.33333334 ))
(( 0.33333334 0.33333334 0.33333334 )
( 0.33333334 0.33333334 0.33333334 )))
((( 0.33333334 0.33333334 0.33333334 )
( 0.33333334 0.33333334 0.33333334 ))
(( 0.33333334 0.33333334 0.33333334 )
( 0.33333334 0.33333334 0.33333334 ))
(( 0.33333334 0.33333334 0.33333334 )
( 0.33333334 0.33333334 0.33333334 ))))
(((( 0.33333334 0.33333334 0.33333334 )
( 0.33333334 0.33333334 0.33333334 ))
(( 0.33333334 0.33333334 0.33333334 )
( 0.33333334 0.33333334 0.33333334 ))
(( 0.33333334 0.33333334 0.33333334 )
( 0.33333334 0.33333334 0.33333334 )))
((( 0.33333334 0.33333334 0.33333334 )
( 0.33333334 0.33333334 0.33333334 ))
(( 0.33333334 0.33333334 0.33333334 )
( 0.33333334 0.33333334 0.33333334 ))
(( 0.33333334 0.33333334 0.33333334 )
( 0.33333334 0.33333334 0.33333334 )))))
((((( 0.33333334 0.33333334 0.33333334 )
( 0.33333334 0.33333334 0.33333334 ))
(( 0.33333334 0.33333334 0.33333334 )
( 0.33333334 0.33333334 0.33333334 ))
(( 0.33333334 0.33333334 0.33333334 )
( 0.33333334 0.33333334 0.33333334 )))
((( 0.33333334 0.33333334 0.33333334 )
( 0.33333334 0.33333334 0.33333334 ))
(( 0.33333334 0.33333334 0.33333334 )
( 0.33333334 0.33333334 0.33333334 ))
(( 0.33333334 0.33333334 0.33333334 )
( 0.33333334 0.33333334 0.33333334 ))))
(((( 0.33333334 0.33333334 0.33333334 )
( 0.33333334 0.33333334 0.33333334 ))
(( 0.33333334 0.33333334 0.33333334 )
( 0.33333334 0.33333334 0.33333334 ))
(( 0.33333334 0.33333334 0.33333334 )
( 0.33333334 0.33333334 0.33333334 )))
((( 0.33333334 0.33333334 0.33333334 )
( 0.33333334 0.33333334 0.33333334 ))
(( 0.33333334 0.33333334 0.33333334 )
( 0.33333334 0.33333334 0.33333334 ))
(( 0.33333334 0.33333334 0.33333334 )
( 0.33333334 0.33333334 0.33333334 ))))
(((( 0.33333334 0.33333334 0.33333334 )
( 0.33333334 0.33333334 0.33333334 ))
(( 0.33333334 0.33333334 0.33333334 )
( 0.33333334 0.33333334 0.33333334 ))
(( 0.33333334 0.33333334 0.33333334 )
( 0.33333334 0.33333334 0.33333334 )))
((( 0.33333334 0.33333334 0.33333334 )
( 0.33333334 0.33333334 0.33333334 ))
(( 0.33333334 0.33333334 0.33333334 )
( 0.33333334 0.33333334 0.33333334 ))
(( 0.33333334 0.33333334 0.33333334 )
( 0.33333334 0.33333334 0.33333334 ))))))
(((((( 0.33333334 0.33333334 0.33333334 )
( 0.33333334 0.33333334 0.33333334 ))
(( 0.33333334 0.33333334 0.33333334 )
( 0.33333334 0.33333334 0.33333334 ))
(( 0.33333334 0.33333334 0.33333334 )
( 0.33333334 0.33333334 0.33333334 )))
((( 0.33333334 0.33333334 0.33333334 )
( 0.33333334 0.33333334 0.33333334 ))
(( 0.33333334 0.33333334 0.33333334 )
( 0.33333334 0.33333334 0.33333334 ))
(( 0.33333334 0.33333334 0.33333334 )
( 0.33333334 0.33333334 0.33333334 ))))
(((( 0.33333334 0.33333334 0.33333334 )
( 0.33333334 0.33333334 0.33333334 ))
(( 0.33333334 0.33333334 0.33333334 )
( 0.33333334 0.33333334 0.33333334 ))
(( 0.33333334 0.33333334 0.33333334 )
( 0.33333334 0.33333334 0.33333334 )))
((( 0.33333334 0.33333334 0.33333334 )
( 0.33333334 0.33333334 0.33333334 ))
(( 0.33333334 0.33333334 0.33333334 )
( 0.33333334 0.33333334 0.33333334 ))
(( 0.33333334 0.33333334 0.33333334 )
( 0.33333334 0.33333334 0.33333334 ))))
(((( 0.33333334 0.33333334 0.33333334 )
( 0.33333334 0.33333334 0.33333334 ))
(( 0.33333334 0.33333334 0.33333334 )
( 0.33333334 0.33333334 0.33333334 ))
(( 0.33333334 0.33333334 0.33333334 )
( 0.33333334 0.33333334 0.33333334 )))
((( 0.33333334 0.33333334 0.33333334 )
( 0.33333334 0.33333334 0.33333334 ))
(( 0.33333334 0.33333334 0.33333334 )
( 0.33333334 0.33333334 0.33333334 ))
(( 0.33333334 0.33333334 0.33333334 )
( 0.33333334 0.33333334 0.33333334 )))))
((((( 0.33333334 0.33333334 0.33333334 )
( 0.33333334 0.33333334 0.33333334 ))
(( 0.33333334 0.33333334 0.33333334 )
( 0.33333334 0.33333334 0.33333334 ))
(( 0.33333334 0.33333334 0.33333334 )
( 0.33333334 0.33333334 0.33333334 )))
((( 0.33333334 0.33333334 0.33333334 )
( 0.33333334 0.33333334 0.33333334 ))
(( 0.33333334 0.33333334 0.33333334 )
( 0.33333334 0.33333334 0.33333334 ))
(( 0.33333334 0.33333334 0.33333334 )
( 0.33333334 0.33333334 0.33333334 ))))
(((( 0.33333334 0.33333334 0.33333334 )
( 0.33333334 0.33333334 0.33333334 ))
(( 0.33333334 0.33333334 0.33333334 )
( 0.33333334 0.33333334 0.33333334 ))
(( 0.33333334 0.33333334 0.33333334 )
( 0.33333334 0.33333334 0.33333334 )))
((( 0.33333334 0.33333334 0.33333334 )
( 0.33333334 0.33333334 0.33333334 ))
(( 0.33333334 0.33333334 0.33333334 )
( 0.33333334 0.33333334 0.33333334 ))
(( 0.33333334 0.33333334 0.33333334 )
( 0.33333334 0.33333334 0.33333334 ))))
(((( 0.33333334 0.33333334 0.33333334 )
( 0.33333334 0.33333334 0.33333334 ))
(( 0.33333334 0.33333334 0.33333334 )
( 0.33333334 0.33333334 0.33333334 ))
(( 0.33333334 0.33333334 0.33333334 )
( 0.33333334 0.33333334 0.33333334 )))
((( 0.33333334 0.33333334 0.33333334 )
( 0.33333334 0.33333334 0.33333334 ))
(( 0.33333334 0.33333334 0.33333334 )
( 0.33333334 0.33333334 0.33333334 ))
(( 0.33333334 0.33333334 0.33333334 )
( 0.33333334 0.33333334 0.33333334 )))))
((((( 0.33333334 0.33333334 0.33333334 )
( 0.33333334 0.33333334 0.33333334 ))
(( 0.33333334 0.33333334 0.33333334 )
( 0.33333334 0.33333334 0.33333334 ))
(( 0.33333334 0.33333334 0.33333334 )
( 0.33333334 0.33333334 0.33333334 )))
((( 0.33333334 0.33333334 0.33333334 )
( 0.33333334 0.33333334 0.33333334 ))
(( 0.33333334 0.33333334 0.33333334 )
( 0.33333334 0.33333334 0.33333334 ))
(( 0.33333334 0.33333334 0.33333334 )
( 0.33333334 0.33333334 0.33333334 ))))
(((( 0.33333334 0.33333334 0.33333334 )
( 0.33333334 0.33333334 0.33333334 ))
(( 0.33333334 0.33333334 0.33333334 )
( 0.33333334 0.33333334 0.33333334 ))
(( 0.33333334 0.33333334 0.33333334 )
( 0.33333334 0.33333334 0.33333334 )))
((( 0.33333334 0.33333334 0.33333334 )
( 0.33333334 0.33333334 0.33333334 ))
(( 0.33333334 0.33333334 0.33333334 )
( 0.33333334 0.33333334 0.33333334 ))
(( 0.33333334 0.33333334 0.33333334 )
( 0.33333334 0.33333334 0.33333334 ))))
(((( 0.33333334 0.33333334 0.33333334 )
( 0.33333334 0.33333334 0.33333334 ))
(( 0.33333334 0.33333334 0.33333334 )
( 0.33333334 0.33333334 0.33333334 ))
(( 0.33333334 0.33333334 0.33333334 )
( 0.33333334 0.33333334 0.33333334 )))
((( 0.33333334 0.33333334 0.33333334 )
( 0.33333334 0.33333334 0.33333334 ))
(( 0.33333334 0.33333334 0.33333334 )
( 0.33333334 0.33333334 0.33333334 ))
(( 0.33333334 0.33333334 0.33333334 )
( 0.33333334 0.33333334 0.33333334 ))))))
(((((( 0.33333334 0.33333334 0.33333334 )
( 0.33333334 0.33333334 0.33333334 ))
(( 0.33333334 0.33333334 0.33333334 )
( 0.33333334 0.33333334 0.33333334 ))
(( 0.33333334 0.33333334 0.33333334 )
( 0.33333334 0.33333334 0.33333334 )))
((( 0.33333334 0.33333334 0.33333334 )
( 0.33333334 0.33333334 0.33333334 ))
(( 0.33333334 0.33333334 0.33333334 )
( 0.33333334 0.33333334 0.33333334 ))
(( 0.33333334 0.33333334 0.33333334 )
( 0.33333334 0.33333334 0.33333334 ))))
(((( 0.33333334 0.33333334 0.33333334 )
( 0.33333334 0.33333334 0.33333334 ))
(( 0.33333334 0.33333334 0.33333334 )
( 0.33333334 0.33333334 0.33333334 ))
(( 0.33333334 0.33333334 0.33333334 )
( 0.33333334 0.33333334 0.33333334 )))
((( 0.33333334 0.33333334 0.33333334 )
( 0.33333334 0.33333334 0.33333334 ))
(( 0.33333334 0.33333334 0.33333334 )
( 0.33333334 0.33333334 0.33333334 ))
(( 0.33333334 0.33333334 0.33333334 )
( 0.33333334 0.33333334 0.33333334 ))))
(((( 0.33333334 0.33333334 0.33333334 )
( 0.33333334 0.33333334 0.33333334 ))
(( 0.33333334 0.33333334 0.33333334 )
( 0.33333334 0.33333334 0.33333334 ))
(( 0.33333334 0.33333334 0.33333334 )
( 0.33333334 0.33333334 0.33333334 )))
((( 0.33333334 0.33333334 0.33333334 )
( 0.33333334 0.33333334 0.33333334 ))
(( 0.33333334 0.33333334 0.33333334 )
( 0.33333334 0.33333334 0.33333334 ))
(( 0.33333334 0.33333334 0.33333334 )
( 0.33333334 0.33333334 0.33333334 )))))
((((( 0.33333334 0.33333334 0.33333334 )
( 0.33333334 0.33333334 0.33333334 ))
(( 0.33333334 0.33333334 0.33333334 )
( 0.33333334 0.33333334 0.33333334 ))
(( 0.33333334 0.33333334 0.33333334 )
( 0.33333334 0.33333334 0.33333334 )))
((( 0.33333334 0.33333334 0.33333334 )
( 0.33333334 0.33333334 0.33333334 ))
(( 0.33333334 0.33333334 0.33333334 )
( 0.33333334 0.33333334 0.33333334 ))
(( 0.33333334 0.33333334 0.33333334 )
( 0.33333334 0.33333334 0.33333334 ))))
(((( 0.33333334 0.33333334 0.33333334 )
( 0.33333334 0.33333334 0.33333334 ))
(( 0.33333334 0.33333334 0.33333334 )
( 0.33333334 0.33333334 0.33333334 ))
(( 0.33333334 0.33333334 0.33333334 )
( 0.33333334 0.33333334 0.33333334 )))
((( 0.33333334 0.33333334 0.33333334 )
( 0.33333334 0.33333334 0.33333334 ))
(( 0.33333334 0.33333334 0.33333334 )
( 0.33333334 0.33333334 0.33333334 ))
(( 0.33333334 0.33333334 0.33333334 )
( 0.33333334 0.33333334 0.33333334 ))))
(((( 0.33333334 0.33333334 0.33333334 )
( 0.33333334 0.33333334 0.33333334 ))
(( 0.33333334 0.33333334 0.33333334 )
( 0.33333334 0.33333334 0.33333334 ))
(( 0.33333334 0.33333334 0.33333334 )
( 0.33333334 0.33333334 0.33333334 )))
((( 0.33333334 0.33333334 0.33333334 )
( 0.33333334 0.33333334 0.33333334 ))
(( 0.33333334 0.33333334 0.33333334 )
( 0.33333334 0.33333334 0.33333334 ))
(( 0.33333334 0.33333334 0.33333334 )
( 0.33333334 0.33333334 0.33333334 )))))
((((( 0.33333334 0.33333334 0.33333334 )
( 0.33333334 0.33333334 0.33333334 ))
(( 0.33333334 0.33333334 0.33333334 )
( 0.33333334 0.33333334 0.33333334 ))
(( 0.33333334 0.33333334 0.33333334 )
( 0.33333334 0.33333334 0.33333334 )))
((( 0.33333334 0.33333334 0.33333334 )
( 0.33333334 0.33333334 0.33333334 ))
(( 0.33333334 0.33333334 0.33333334 )
( 0.33333334 0.33333334 0.33333334 ))
(( 0.33333334 0.33333334 0.33333334 )
( 0.33333334 0.33333334 0.33333334 ))))
(((( 0.33333334 0.33333334 0.33333334 )
( 0.33333334 0.33333334 0.33333334 ))
(( 0.33333334 0.33333334 0.33333334 )
( 0.33333334 0.33333334 0.33333334 ))
(( 0.33333334 0.33333334 0.33333334 )
( 0.33333334 0.33333334 0.33333334 )))
((( 0.33333334 0.33333334 0.33333334 )
( 0.33333334 0.33333334 0.33333334 ))
(( 0.33333334 0.33333334 0.33333334 )
( 0.33333334 0.33333334 0.33333334 ))
(( 0.33333334 0.33333334 0.33333334 )
( 0.33333334 0.33333334 0.33333334 ))))
(((( 0.33333334 0.33333334 0.33333334 )
( 0.33333334 0.33333334 0.33333334 ))
(( 0.33333334 0.33333334 0.33333334 )
( 0.33333334 0.33333334 0.33333334 ))
(( 0.33333334 0.33333334 0.33333334 )
( 0.33333334 0.33333334 0.33333334 )))
((( 0.33333334 0.33333334 0.33333334 )
( 0.33333334 0.33333334 0.33333334 ))
(( 0.33333334 0.33333334 0.33333334 )
( 0.33333334 0.33333334 0.33333334 ))
(( 0.33333334 0.33333334 0.33333334 )
( 0.33333334 0.33333334 0.33333334 )))))));
}

potential (32 | 36 26 34 22 25 29)
{
 data = ((((((( 0.33333334 0.33333334 0.33333334 )
( 0.33333334 0.33333334 0.33333334 )
( 0.33333334 0.33333334 0.33333334 ))
(( 0.33333334 0.33333334 0.33333334 )
( 0.33333334 0.33333334 0.33333334 )
( 0.33333334 0.33333334 0.33333334 ))
(( 0.33333334 0.33333334 0.33333334 )
( 0.33333334 0.33333334 0.33333334 )
( 0.33333334 0.33333334 0.33333334 )))
((( 0.33333334 0.33333334 0.33333334 )
( 0.33333334 0.33333334 0.33333334 )
( 0.33333334 0.33333334 0.33333334 ))
(( 0.33333334 0.33333334 0.33333334 )
( 0.33333334 0.33333334 0.33333334 )
( 0.33333334 0.33333334 0.33333334 ))
(( 0.33333334 0.33333334 0.33333334 )
( 0.33333334 0.33333334 0.33333334 )
( 0.33333334 0.33333334 0.33333334 ))))
(((( 0.33333334 0.33333334 0.33333334 )
( 0.33333334 0.33333334 0.33333334 )
( 0.33333334 0.33333334 0.33333334 ))
(( 0.33333334 0.33333334 0.33333334 )
( 0.33333334 0.33333334 0.33333334 )
( 0.33333334 0.33333334 0.33333334 ))
(( 0.33333334 0.33333334 0.33333334 )
( 0.33333334 0.33333334 0.33333334 )
( 0.33333334 0.33333334 0.33333334 )))
((( 0.33333334 0.33333334 0.33333334 )
( 0.33333334 0.33333334 0.33333334 )
( 0.33333334 0.33333334 0.33333334 ))
(( 0.33333334 0.33333334 0.33333334 )
( 0.33333334 0.33333334 0.33333334 )
( 0.33333334 0.33333334 0.33333334 ))
(( 0.33333334 0.33333334 0.33333334 )
( 0.33333334 0.33333334 0.33333334 )
( 0.33333334 0.33333334 0.33333334 ))))
(((( 0.33333334 0.33333334 0.33333334 )
( 0.33333334 0.33333334 0.33333334 )
( 0.33333334 0.33333334 0.33333334 ))
(( 0.33333334 0.33333334 0.33333334 )
( 0.33333334 0.33333334 0.33333334 )
( 0.33333334 0.33333334 0.33333334 ))
(( 0.33333334 0.33333334 0.33333334 )
( 0.33333334 0.33333334 0.33333334 )
( 0.33333334 0.33333334 0.33333334 )))
((( 0.33333334 0.33333334 0.33333334 )
( 0.33333334 0.33333334 0.33333334 )
( 0.33333334 0.33333334 0.33333334 ))
(( 0.33333334 0.33333334 0.33333334 )
( 0.33333334 0.33333334 0.33333334 )
( 0.33333334 0.33333334 0.33333334 ))
(( 0.33333334 0.33333334 0.33333334 )
( 0.33333334 0.33333334 0.33333334 )
( 0.33333334 0.33333334 0.33333334 )))))
((((( 0.33333334 0.33333334 0.33333334 )
( 0.33333334 0.33333334 0.33333334 )
( 0.33333334 0.33333334 0.33333334 ))
(( 0.33333334 0.33333334 0.33333334 )
( 0.33333334 0.33333334 0.33333334 )
( 0.33333334 0.33333334 0.33333334 ))
(( 0.33333334 0.33333334 0.33333334 )
( 0.33333334 0.33333334 0.33333334 )
( 0.33333334 0.33333334 0.33333334 )))
((( 0.33333334 0.33333334 0.33333334 )
( 0.33333334 0.33333334 0.33333334 )
( 0.33333334 0.33333334 0.33333334 ))
(( 0.33333334 0.33333334 0.33333334 )
( 0.33333334 0.33333334 0.33333334 )
( 0.33333334 0.33333334 0.33333334 ))
(( 0.33333334 0.33333334 0.33333334 )
( 0.33333334 0.33333334 0.33333334 )
( 0.33333334 0.33333334 0.33333334 ))))
(((( 0.33333334 0.33333334 0.33333334 )
( 0.33333334 0.33333334 0.33333334 )
( 0.33333334 0.33333334 0.33333334 ))
(( 0.33333334 0.33333334 0.33333334 )
( 0.33333334 0.33333334 0.33333334 )
( 0.33333334 0.33333334 0.33333334 ))
(( 0.33333334 0.33333334 0.33333334 )
( 0.33333334 0.33333334 0.33333334 )
( 0.33333334 0.33333334 0.33333334 )))
((( 0.33333334 0.33333334 0.33333334 )
( 0.33333334 0.33333334 0.33333334 )
( 0.33333334 0.33333334 0.33333334 ))
(( 0.33333334 0.33333334 0.33333334 )
( 0.33333334 0.33333334 0.33333334 )
( 0.33333334 0.33333334 0.33333334 ))
(( 0.33333334 0.33333334 0.33333334 )
( 0.33333334 0.33333334 0.33333334 )
( 0.33333334 0.33333334 0.33333334 ))))
(((( 0.33333334 0.33333334 0.33333334 )
( 0.33333334 0.33333334 0.33333334 )
( 0.33333334 0.33333334 0.33333334 ))
(( 0.33333334 0.33333334 0.33333334 )
( 0.33333334 0.33333334 0.33333334 )
( 0.33333334 0.33333334 0.33333334 ))
(( 0.33333334 0.33333334 0.33333334 )
( 0.33333334 0.33333334 0.33333334 )
( 0.33333334 0.33333334 0.33333334 )))
((( 0.33333334 0.33333334 0.33333334 )
( 0.33333334 0.33333334 0.33333334 )
( 0.33333334 0.33333334 0.33333334 ))
(( 0.33333334 0.33333334 0.33333334 )
( 0.33333334 0.33333334 0.33333334 )
( 0.33333334 0.33333334 0.33333334 ))
(( 0.33333334 0.33333334 0.33333334 )
( 0.33333334 0.33333334 0.33333334 )
( 0.33333334 0.33333334 0.33333334 )))))
((((( 0.33333334 0.33333334 0.33333334 )
( 0.33333334 0.33333334 0.33333334 )
( 0.33333334 0.33333334 0.33333334 ))
(( 0.33333334 0.33333334 0.33333334 )
( 0.33333334 0.33333334 0.33333334 )
( 0.33333334 0.33333334 0.33333334 ))
(( 0.33333334 0.33333334 0.33333334 )
( 0.33333334 0.33333334 0.33333334 )
( 0.33333334 0.33333334 0.33333334 )))
((( 0.33333334 0.33333334 0.33333334 )
( 0.33333334 0.33333334 0.33333334 )
( 0.33333334 0.33333334 0.33333334 ))
(( 0.33333334 0.33333334 0.33333334 )
( 0.33333334 0.33333334 0.33333334 )
( 0.33333334 0.33333334 0.33333334 ))
(( 0.33333334 0.33333334 0.33333334 )
( 0.33333334 0.33333334 0.33333334 )
( 0.33333334 0.33333334 0.33333334 ))))
(((( 0.33333334 0.33333334 0.33333334 )
( 0.33333334 0.33333334 0.33333334 )
( 0.33333334 0.33333334 0.33333334 ))
(( 0.33333334 0.33333334 0.33333334 )
( 0.33333334 0.33333334 0.33333334 )
( 0.33333334 0.33333334 0.33333334 ))
(( 0.33333334 0.33333334 0.33333334 )
( 0.33333334 0.33333334 0.33333334 )
( 0.33333334 0.33333334 0.33333334 )))
((( 0.33333334 0.33333334 0.33333334 )
( 0.33333334 0.33333334 0.33333334 )
( 0.33333334 0.33333334 0.33333334 ))
(( 0.33333334 0.33333334 0.33333334 )
( 0.33333334 0.33333334 0.33333334 )
( 0.33333334 0.33333334 0.33333334 ))
(( 0.33333334 0.33333334 0.33333334 )
( 0.33333334 0.33333334 0.33333334 )
( 0.33333334 0.33333334 0.33333334 ))))
(((( 0.33333334 0.33333334 0.33333334 )
( 0.33333334 0.33333334 0.33333334 )
( 0.33333334 0.33333334 0.33333334 ))
(( 0.33333334 0.33333334 0.33333334 )
( 0.33333334 0.33333334 0.33333334 )
( 0.33333334 0.33333334 0.33333334 ))
(( 0.33333334 0.33333334 0.33333334 )
( 0.33333334 0.33333334 0.33333334 )
( 0.33333334 0.33333334 0.33333334 )))
((( 0.33333334 0.33333334 0.33333334 )
( 0.33333334 0.33333334 0.33333334 )
( 0.33333334 0.33333334 0.33333334 ))
(( 0.33333334 0.33333334 0.33333334 )
( 0.33333334 0.33333334 0.33333334 )
( 0.33333334 0.33333334 0.33333334 ))
(( 0.33333334 0.33333334 0.33333334 )
( 0.33333334 0.33333334 0.33333334 )
( 0.33333334 0.33333334 0.33333334 ))))))
(((((( 0.33333334 0.33333334 0.33333334 )
( 0.33333334 0.33333334 0.33333334 )
( 0.33333334 0.33333334 0.33333334 ))
(( 0.33333334 0.33333334 0.33333334 )
( 0.33333334 0.33333334 0.33333334 )
( 0.33333334 0.33333334 0.33333334 ))
(( 0.33333334 0.33333334 0.33333334 )
( 0.33333334 0.33333334 0.33333334 )
( 0.33333334 0.33333334 0.33333334 )))
((( 0.33333334 0.33333334 0.33333334 )
( 0.33333334 0.33333334 0.33333334 )
( 0.33333334 0.33333334 0.33333334 ))
(( 0.33333334 0.33333334 0.33333334 )
( 0.33333334 0.33333334 0.33333334 )
( 0.33333334 0.33333334 0.33333334 ))
(( 0.33333334 0.33333334 0.33333334 )
( 0.33333334 0.33333334 0.33333334 )
( 0.33333334 0.33333334 0.33333334 ))))
(((( 0.33333334 0.33333334 0.33333334 )
( 0.33333334 0.33333334 0.33333334 )
( 0.33333334 0.33333334 0.33333334 ))
(( 0.33333334 0.33333334 0.33333334 )
( 0.33333334 0.33333334 0.33333334 )
( 0.33333334 0.33333334 0.33333334 ))
(( 0.33333334 0.33333334 0.33333334 )
( 0.33333334 0.33333334 0.33333334 )
( 0.33333334 0.33333334 0.33333334 )))
((( 0.33333334 0.33333334 0.33333334 )
( 0.33333334 0.33333334 0.33333334 )
( 0.33333334 0.33333334 0.33333334 ))
(( 0.33333334 0.33333334 0.33333334 )
( 0.33333334 0.33333334 0.33333334 )
( 0.33333334 0.33333334 0.33333334 ))
(( 0.33333334 0.33333334 0.33333334 )
( 0.33333334 0.33333334 0.33333334 )
( 0.33333334 0.33333334 0.33333334 ))))
(((( 0.33333334 0.33333334 0.33333334 )
( 0.33333334 0.33333334 0.33333334 )
( 0.33333334 0.33333334 0.33333334 ))
(( 0.33333334 0.33333334 0.33333334 )
( 0.33333334 0.33333334 0.33333334 )
( 0.33333334 0.33333334 0.33333334 ))
(( 0.33333334 0.33333334 0.33333334 )
( 0.33333334 0.33333334 0.33333334 )
( 0.33333334 0.33333334 0.33333334 )))
((( 0.33333334 0.33333334 0.33333334 )
( 0.33333334 0.33333334 0.33333334 )
( 0.33333334 0.33333334 0.33333334 ))
(( 0.33333334 0.33333334 0.33333334 )
( 0.33333334 0.33333334 0.33333334 )
( 0.33333334 0.33333334 0.33333334 ))
(( 0.33333334 0.33333334 0.33333334 )
( 0.33333334 0.33333334 0.33333334 )
( 0.33333334 0.33333334 0.33333334 )))))
((((( 0.33333334 0.33333334 0.33333334 )
( 0.33333334 0.33333334 0.33333334 )
( 0.33333334 0.33333334 0.33333334 ))
(( 0.33333334 0.33333334 0.33333334 )
( 0.33333334 0.33333334 0.33333334 )
( 0.33333334 0.33333334 0.33333334 ))
(( 0.33333334 0.33333334 0.33333334 )
( 0.33333334 0.33333334 0.33333334 )
( 0.33333334 0.33333334 0.33333334 )))
((( 0.33333334 0.33333334 0.33333334 )
( 0.33333334 0.33333334 0.33333334 )
( 0.33333334 0.33333334 0.33333334 ))
(( 0.33333334 0.33333334 0.33333334 )
( 0.33333334 0.33333334 0.33333334 )
( 0.33333334 0.33333334 0.33333334 ))
(( 0.33333334 0.33333334 0.33333334 )
( 0.33333334 0.33333334 0.33333334 )
( 0.33333334 0.33333334 0.33333334 ))))
(((( 0.33333334 0.33333334 0.33333334 )
( 0.33333334 0.33333334 0.33333334 )
( 0.33333334 0.33333334 0.33333334 ))
(( 0.33333334 0.33333334 0.33333334 )
( 0.33333334 0.33333334 0.33333334 )
( 0.33333334 0.33333334 0.33333334 ))
(( 0.33333334 0.33333334 0.33333334 )
( 0.33333334 0.33333334 0.33333334 )
( 0.33333334 0.33333334 0.33333334 )))
((( 0.33333334 0.33333334 0.33333334 )
( 0.33333334 0.33333334 0.33333334 )
( 0.33333334 0.33333334 0.33333334 ))
(( 0.33333334 0.33333334 0.33333334 )
( 0.33333334 0.33333334 0.33333334 )
( 0.33333334 0.33333334 0.33333334 ))
(( 0.33333334 0.33333334 0.33333334 )
( 0.33333334 0.33333334 0.33333334 )
( 0.33333334 0.33333334 0.33333334 ))))
(((( 0.33333334 0.33333334 0.33333334 )
( 0.33333334 0.33333334 0.33333334 )
( 0.33333334 0.33333334 0.33333334 ))
(( 0.33333334 0.33333334 0.33333334 )
( 0.33333334 0.33333334 0.33333334 )
( 0.33333334 0.33333334 0.33333334 ))
(( 0.33333334 0.33333334 0.33333334 )
( 0.33333334 0.33333334 0.33333334 )
( 0.33333334 0.33333334 0.33333334 )))
((( 0.33333334 0.33333334 0.33333334 )
( 0.33333334 0.33333334 0.33333334 )
( 0.33333334 0.33333334 0.33333334 ))
(( 0.33333334 0.33333334 0.33333334 )
( 0.33333334 0.33333334 0.33333334 )
( 0.33333334 0.33333334 0.33333334 ))
(( 0.33333334 0.33333334 0.33333334 )
( 0.33333334 0.33333334 0.33333334 )
( 0.33333334 0.33333334 0.33333334 )))))
((((( 0.33333334 0.33333334 0.33333334 )
( 0.33333334 0.33333334 0.33333334 )
( 0.33333334 0.33333334 0.33333334 ))
(( 0.33333334 0.33333334 0.33333334 )
( 0.33333334 0.33333334 0.33333334 )
( 0.33333334 0.33333334 0.33333334 ))
(( 0.33333334 0.33333334 0.33333334 )
( 0.33333334 0.33333334 0.33333334 )
( 0.33333334 0.33333334 0.33333334 )))
((( 0.33333334 0.33333334 0.33333334 )
( 0.33333334 0.33333334 0.33333334 )
( 0.33333334 0.33333334 0.33333334 ))
(( 0.33333334 0.33333334 0.33333334 )
( 0.33333334 0.33333334 0.33333334 )
( 0.33333334 0.33333334 0.33333334 ))
(( 0.33333334 0.33333334 0.33333334 )
( 0.33333334 0.33333334 0.33333334 )
( 0.33333334 0.33333334 0.33333334 ))))
(((( 0.33333334 0.33333334 0.33333334 )
( 0.33333334 0.33333334 0.33333334 )
( 0.33333334 0.33333334 0.33333334 ))
(( 0.33333334 0.33333334 0.33333334 )
( 0.33333334 0.33333334 0.33333334 )
( 0.33333334 0.33333334 0.33333334 ))
(( 0.33333334 0.33333334 0.33333334 )
( 0.33333334 0.33333334 0.33333334 )
( 0.33333334 0.33333334 0.33333334 )))
((( 0.33333334 0.33333334 0.33333334 )
( 0.33333334 0.33333334 0.33333334 )
( 0.33333334 0.33333334 0.33333334 ))
(( 0.33333334 0.33333334 0.33333334 )
( 0.33333334 0.33333334 0.33333334 )
( 0.33333334 0.33333334 0.33333334 ))
(( 0.33333334 0.33333334 0.33333334 )
( 0.33333334 0.33333334 0.33333334 )
( 0.33333334 0.33333334 0.33333334 ))))
(((( 0.33333334 0.33333334 0.33333334 )
( 0.33333334 0.33333334 0.33333334 )
( 0.33333334 0.33333334 0.33333334 ))
(( 0.33333334 0.33333334 0.33333334 )
( 0.33333334 0.33333334 0.33333334 )
( 0.33333334 0.33333334 0.33333334 ))
(( 0.33333334 0.33333334 0.33333334 )
( 0.33333334 0.33333334 0.33333334 )
( 0.33333334 0.33333334 0.33333334 )))
((( 0.33333334 0.33333334 0.33333334 )
( 0.33333334 0.33333334 0.33333334 )
( 0.33333334 0.33333334 0.33333334 ))
(( 0.33333334 0.33333334 0.33333334 )
( 0.33333334 0.33333334 0.33333334 )
( 0.33333334 0.33333334 0.33333334 ))
(( 0.33333334 0.33333334 0.33333334 )
( 0.33333334 0.33333334 0.33333334 )
( 0.33333334 0.33333334 0.33333334 )))))));
}

potential (28 | 25 22 26 34 32)
{
 data = (((((( 0.33333334 0.33333334 0.33333334 )
( 0.33333334 0.33333334 0.33333334 )
( 0.33333334 0.33333334 0.33333334 ))
(( 0.33333334 0.33333334 0.33333334 )
( 0.33333334 0.33333334 0.33333334 )
( 0.33333334 0.33333334 0.33333334 ))
(( 0.33333334 0.33333334 0.33333334 )
( 0.33333334 0.33333334 0.33333334 )
( 0.33333334 0.33333334 0.33333334 )))
((( 0.33333334 0.33333334 0.33333334 )
( 0.33333334 0.33333334 0.33333334 )
( 0.33333334 0.33333334 0.33333334 ))
(( 0.33333334 0.33333334 0.33333334 )
( 0.33333334 0.33333334 0.33333334 )
( 0.33333334 0.33333334 0.33333334 ))
(( 0.33333334 0.33333334 0.33333334 )
( 0.33333334 0.33333334 0.33333334 )
( 0.33333334 0.33333334 0.33333334 )))
((( 0.33333334 0.33333334 0.33333334 )
( 0.33333334 0.33333334 0.33333334 )
( 0.33333334 0.33333334 0.33333334 ))
(( 0.33333334 0.33333334 0.33333334 )
( 0.33333334 0.33333334 0.33333334 )
( 0.33333334 0.33333334 0.33333334 ))
(( 0.33333334 0.33333334 0.33333334 )
( 0.33333334 0.33333334 0.33333334 )
( 0.33333334 0.33333334 0.33333334 ))))
(((( 0.33333334 0.33333334 0.33333334 )
( 0.33333334 0.33333334 0.33333334 )
( 0.33333334 0.33333334 0.33333334 ))
(( 0.33333334 0.33333334 0.33333334 )
( 0.33333334 0.33333334 0.33333334 )
( 0.33333334 0.33333334 0.33333334 ))
(( 0.33333334 0.33333334 0.33333334 )
( 0.33333334 0.33333334 0.33333334 )
( 0.33333334 0.33333334 0.33333334 )))
((( 0.33333334 0.33333334 0.33333334 )
( 0.33333334 0.33333334 0.33333334 )
( 0.33333334 0.33333334 0.33333334 ))
(( 0.33333334 0.33333334 0.33333334 )
( 0.33333334 0.33333334 0.33333334 )
( 0.33333334 0.33333334 0.33333334 ))
(( 0.33333334 0.33333334 0.33333334 )
( 0.33333334 0.33333334 0.33333334 )
( 0.33333334 0.33333334 0.33333334 )))
((( 0.33333334 0.33333334 0.33333334 )
( 0.33333334 0.33333334 0.33333334 )
( 0.33333334 0.33333334 0.33333334 ))
(( 0.33333334 0.33333334 0.33333334 )
( 0.33333334 0.33333334 0.33333334 )
( 0.33333334 0.33333334 0.33333334 ))
(( 0.33333334 0.33333334 0.33333334 )
( 0.33333334 0.33333334 0.33333334 )
( 0.33333334 0.33333334 0.33333334 )))))
((((( 0.33333334 0.33333334 0.33333334 )
( 0.33333334 0.33333334 0.33333334 )
( 0.33333334 0.33333334 0.33333334 ))
(( 0.33333334 0.33333334 0.33333334 )
( 0.33333334 0.33333334 0.33333334 )
( 0.33333334 0.33333334 0.33333334 ))
(( 0.33333334 0.33333334 0.33333334 )
( 0.33333334 0.33333334 0.33333334 )
( 0.33333334 0.33333334 0.33333334 )))
((( 0.33333334 0.33333334 0.33333334 )
( 0.33333334 0.33333334 0.33333334 )
( 0.33333334 0.33333334 0.33333334 ))
(( 0.33333334 0.33333334 0.33333334 )
( 0.33333334 0.33333334 0.33333334 )
( 0.33333334 0.33333334 0.33333334 ))
(( 0.33333334 0.33333334 0.33333334 )
( 0.33333334 0.33333334 0.33333334 )
( 0.33333334 0.33333334 0.33333334 )))
((( 0.33333334 0.33333334 0.33333334 )
( 0.33333334 0.33333334 0.33333334 )
( 0.33333334 0.33333334 0.33333334 ))
(( 0.33333334 0.33333334 0.33333334 )
( 0.33333334 0.33333334 0.33333334 )
( 0.33333334 0.33333334 0.33333334 ))
(( 0.33333334 0.33333334 0.33333334 )
( 0.33333334 0.33333334 0.33333334 )
( 0.33333334 0.33333334 0.33333334 ))))
(((( 0.33333334 0.33333334 0.33333334 )
( 0.33333334 0.33333334 0.33333334 )
( 0.33333334 0.33333334 0.33333334 ))
(( 0.33333334 0.33333334 0.33333334 )
( 0.33333334 0.33333334 0.33333334 )
( 0.33333334 0.33333334 0.33333334 ))
(( 0.33333334 0.33333334 0.33333334 )
( 0.33333334 0.33333334 0.33333334 )
( 0.33333334 0.33333334 0.33333334 )))
((( 0.33333334 0.33333334 0.33333334 )
( 0.33333334 0.33333334 0.33333334 )
( 0.33333334 0.33333334 0.33333334 ))
(( 0.33333334 0.33333334 0.33333334 )
( 0.33333334 0.33333334 0.33333334 )
( 0.33333334 0.33333334 0.33333334 ))
(( 0.33333334 0.33333334 0.33333334 )
( 0.33333334 0.33333334 0.33333334 )
( 0.33333334 0.33333334 0.33333334 )))
((( 0.33333334 0.33333334 0.33333334 )
( 0.33333334 0.33333334 0.33333334 )
( 0.33333334 0.33333334 0.33333334 ))
(( 0.33333334 0.33333334 0.33333334 )
( 0.33333334 0.33333334 0.33333334 )
( 0.33333334 0.33333334 0.33333334 ))
(( 0.33333334 0.33333334 0.33333334 )
( 0.33333334 0.33333334 0.33333334 )
( 0.33333334 0.33333334 0.33333334 )))))
((((( 0.33333334 0.33333334 0.33333334 )
( 0.33333334 0.33333334 0.33333334 )
( 0.33333334 0.33333334 0.33333334 ))
(( 0.33333334 0.33333334 0.33333334 )
( 0.33333334 0.33333334 0.33333334 )
( 0.33333334 0.33333334 0.33333334 ))
(( 0.33333334 0.33333334 0.33333334 )
( 0.33333334 0.33333334 0.33333334 )
( 0.33333334 0.33333334 0.33333334 )))
((( 0.33333334 0.33333334 0.33333334 )
( 0.33333334 0.33333334 0.33333334 )
( 0.33333334 0.33333334 0.33333334 ))
(( 0.33333334 0.33333334 0.33333334 )
( 0.33333334 0.33333334 0.33333334 )
( 0.33333334 0.33333334 0.33333334 ))
(( 0.33333334 0.33333334 0.33333334 )
( 0.33333334 0.33333334 0.33333334 )
( 0.33333334 0.33333334 0.33333334 )))
((( 0.33333334 0.33333334 0.33333334 )
( 0.33333334 0.33333334 0.33333334 )
( 0.33333334 0.33333334 0.33333334 ))
(( 0.33333334 0.33333334 0.33333334 )
( 0.33333334 0.33333334 0.33333334 )
( 0.33333334 0.33333334 0.33333334 ))
(( 0.33333334 0.33333334 0.33333334 )
( 0.33333334 0.33333334 0.33333334 )
( 0.33333334 0.33333334 0.33333334 ))))
(((( 0.33333334 0.33333334 0.33333334 )
( 0.33333334 0.33333334 0.33333334 )
( 0.33333334 0.33333334 0.33333334 ))
(( 0.33333334 0.33333334 0.33333334 )
( 0.33333334 0.33333334 0.33333334 )
( 0.33333334 0.33333334 0.33333334 ))
(( 0.33333334 0.33333334 0.33333334 )
( 0.33333334 0.33333334 0.33333334 )
( 0.33333334 0.33333334 0.33333334 )))
((( 0.33333334 0.33333334 0.33333334 )
( 0.33333334 0.33333334 0.33333334 )
( 0.33333334 0.33333334 0.33333334 ))
(( 0.33333334 0.33333334 0.33333334 )
( 0.33333334 0.33333334 0.33333334 )
( 0.33333334 0.33333334 0.33333334 ))
(( 0.33333334 0.33333334 0.33333334 )
( 0.33333334 0.33333334 0.33333334 )
( 0.33333334 0.33333334 0.33333334 )))
((( 0.33333334 0.33333334 0.33333334 )
( 0.33333334 0.33333334 0.33333334 )
( 0.33333334 0.33333334 0.33333334 ))
(( 0.33333334 0.33333334 0.33333334 )
( 0.33333334 0.33333334 0.33333334 )
( 0.33333334 0.33333334 0.33333334 ))
(( 0.33333334 0.33333334 0.33333334 )
( 0.33333334 0.33333334 0.33333334 )
( 0.33333334 0.33333334 0.33333334 ))))));
}

