net
{
     node_size = (0 0);
     name = "New BN";
     UnBBayes_Color_Probabilistic_Description = "-256";
     UnBBayes_Color_Probabilistic_Explanation = "-16711936";
}

node 0
{
     label = "C0";
     position = (116 70);
     states = ("State 0" "State 1");
}

node 1
{
     label = "C1";
     position = (254 8);
     states = ("State 0" "State 1");
}

node 2
{
     label = "C2";
     position = (376 69);
     states = ("State 0" "State 1");
}

node 3
{
     label = "C3";
     position = (376 168);
     states = ("State 0" "State 1");
}

node 4
{
     label = "C4";
     position = (254 245);
     states = ("State 0" "State 1");
}

node 5
{
     label = "C5";
     position = (116 169);
     states = ("State 0" "State 1" "State 2");
}

potential (0)
{
 data = ( 0.5 0.5 );
}

potential (1 | 0)
{
 data = (( 0.5 0.5 )
( 0.5 0.5 ));
}

potential (2 | 1 0)
{
 data = ((( 0.5 0.5 )
( 0.5 0.5 ))
(( 0.5 0.5 )
( 0.5 0.5 )));
}

potential (3 | 2 1 0)
{
 data = (((( 0.5 0.5 )
( 0.5 0.5 ))
(( 0.5 0.5 )
( 0.5 0.5 )))
((( 0.5 0.5 )
( 0.5 0.5 ))
(( 0.5 0.5 )
( 0.5 0.5 ))));
}

potential (4 | 3 2 1 0)
{
 data = ((((( 0.5 0.5 )
( 0.5 0.5 ))
(( 0.5 0.5 )
( 0.5 0.5 )))
((( 0.5 0.5 )
( 0.5 0.5 ))
(( 0.5 0.5 )
( 0.5 0.5 ))))
(((( 0.5 0.5 )
( 0.5 0.5 ))
(( 0.5 0.5 )
( 0.5 0.5 )))
((( 0.5 0.5 )
( 0.5 0.5 ))
(( 0.5 0.5 )
( 0.5 0.5 )))));
}

potential (5 | 4 3 2 1 0)
{
 data = (((((( 0.33333334 0.33333334 0.33333334 )
( 0.33333334 0.33333334 0.33333334 ))
(( 0.33333334 0.33333334 0.33333334 )
( 0.33333334 0.33333334 0.33333334 )))
((( 0.33333334 0.33333334 0.33333334 )
( 0.33333334 0.33333334 0.33333334 ))
(( 0.33333334 0.33333334 0.33333334 )
( 0.33333334 0.33333334 0.33333334 ))))
(((( 0.33333334 0.33333334 0.33333334 )
( 0.33333334 0.33333334 0.33333334 ))
(( 0.33333334 0.33333334 0.33333334 )
( 0.33333334 0.33333334 0.33333334 )))
((( 0.33333334 0.33333334 0.33333334 )
( 0.33333334 0.33333334 0.33333334 ))
(( 0.33333334 0.33333334 0.33333334 )
( 0.33333334 0.33333334 0.33333334 )))))
((((( 0.33333334 0.33333334 0.33333334 )
( 0.33333334 0.33333334 0.33333334 ))
(( 0.33333334 0.33333334 0.33333334 )
( 0.33333334 0.33333334 0.33333334 )))
((( 0.33333334 0.33333334 0.33333334 )
( 0.33333334 0.33333334 0.33333334 ))
(( 0.33333334 0.33333334 0.33333334 )
( 0.33333334 0.33333334 0.33333334 ))))
(((( 0.33333334 0.33333334 0.33333334 )
( 0.33333334 0.33333334 0.33333334 ))
(( 0.33333334 0.33333334 0.33333334 )
( 0.33333334 0.33333334 0.33333334 )))
((( 0.33333334 0.33333334 0.33333334 )
( 0.33333334 0.33333334 0.33333334 ))
(( 0.33333334 0.33333334 0.33333334 )
( 0.33333334 0.33333334 0.33333334 ))))));
}

