net
{
     node_size = (0 0);
     name = "AutomaticallyCreatedNet";
     UnBBayes_Color_Probabilistic_Description = "-256";
     UnBBayes_Color_Probabilistic_Explanation = "-16711936";
}

node isGoodSuggestion__MyConfig_F2
{
     label = "isGoodSuggestion(MyConfig,F2)";
     position = (50 320);
     states = ("true" "false" "absurd");
}

node hasSuggestion__MyConfig_F2
{
     label = "hasSuggestion(MyConfig,F2)";
     position = (50 170);
     states = ("false" "true" "absurd");
}

node fulfills__F2_AppReq1
{
     label = "fulfills(F2,AppReq1)";
     position = (350 170);
     states = ("true" "false" "absurd");
}

node isStorageRequirement__DomReq1
{
     label = "isStorageRequirement(DomReq1)";
     position = (50 20);
     states = ("true" "false" "absurd");
}

node isBNStorageFeature__F1
{
     label = "isBNStorageFeature(F1)";
     position = (350 20);
     states = ("true" "false" "absurd");
}

node fulfills__F2_DomReq1
{
     label = "fulfills(F2,DomReq1)";
     position = (650 20);
     states = ("true" "false" "absurd");
}



potential (isGoodSuggestion__MyConfig_F2 | fulfills__F2_AppReq1 hasSuggestion__MyConfig_F2)
{
 data = ((( 0.45000002 0.54999995 0.0 )
( 0.75 0.25 0.0 )
( 0.0 0.0 1.0 ))
(( 0.01 0.99 0.0 )
( 0.6 0.4 0.0 )
( 0.0 0.0 1.0 ))
(( 0.01 0.99 0.0 )
( 0.6 0.4 0.0 )
( 0.0 0.0 1.0 )));
}

potential (hasSuggestion__MyConfig_F2 | fulfills__F2_DomReq1 isBNStorageFeature__F1 isStorageRequirement__DomReq1)
{
 data = (((( 0.19999999 0.8 0.0 )
( 0.34999996 0.65000004 0.0 )
( 0.34999996 0.65000004 0.0 ))
(( 0.34999996 0.65000004 0.0 )
( 0.34999996 0.65000004 0.0 )
( 0.34999996 0.65000004 0.0 ))
(( 0.34999996 0.65000004 0.0 )
( 0.34999996 0.65000004 0.0 )
( 0.34999996 0.65000004 0.0 )))
((( 0.75 0.25 0.0 )
( 0.75 0.25 0.0 )
( 0.75 0.25 0.0 ))
(( 0.75 0.25 0.0 )
( 0.75 0.25 0.0 )
( 0.75 0.25 0.0 ))
(( 0.75 0.25 0.0 )
( 0.75 0.25 0.0 )
( 0.75 0.25 0.0 )))
((( 0.0 0.0 1.0 )
( 0.0 0.0 1.0 )
( 0.0 0.0 1.0 ))
(( 0.0 0.0 1.0 )
( 0.0 0.0 1.0 )
( 0.0 0.0 1.0 ))
(( 0.0 0.0 1.0 )
( 0.0 0.0 1.0 )
( 0.0 0.0 1.0 ))));
}

potential (fulfills__F2_AppReq1 | fulfills__F2_DomReq1)
{
 data = (( 0.7 0.3 0.0 )
( 0.1 0.9 0.0 )
( 0.0 0.0 1.0 ));
}

potential (isStorageRequirement__DomReq1)
{
 data = ( 0.33333334 0.33333334 0.33333334 );
}

potential (isBNStorageFeature__F1)
{
 data = ( 0.33333334 0.33333334 0.33333334 );
}



potential (fulfills__F2_DomReq1)
{
 data = ( 0.5 0.5 0.0 );
}

