net
{
     node_size = (0 0);
     name = "New BN";
     tree = "(C1,C2,C3,C4,C5,C6,C7,C8)";
     UnBBayes_Color_Probabilistic_Description = "-256";
     UnBBayes_Color_Probabilistic_Explanation = "-16711936";
}

node P1
{
     label = "C1";
     position = (132 83);
     states = ("State 0" "State 1" "State 2");
}

node P2
{
     label = "C2";
     position = (429 82);
     states = ("0" "1" "2");
}

node NoLeak
{
     label = "C3";
     position = (143 444);
     states = ("State 0" "State 1" "State 2");
}

node WithLeak
{
     label = "C4";
     position = (402 445);
     states = ("State 0" "State 1" "State 2");
}

node LeakP1
{
     label = "C5";
     position = (32 233);
     states = ("State 0" "State 1" "State 2");
}

node LeakP2
{
     label = "C7";
     position = (323 233);
     states = ("State 0" "State 1" "State 2");
}

node P3
{
     label = "C8";
     position = (729 85);
     states = ("State 0" "State 1" "State 2");
}

node LeakP3
{
     label = "C9";
     position = (603 229);
     states = ("State 0" "State 1" "State 2");
}

node Factored
{
     label = "C10";
     position = (663 446);
     states = ("State 0" "State 1" "State 2");
}

node Divorce1
{
     label = "C11";
     position = (888 226);
     states = ("State 0" "State 1" "State 2");
}

potential (P1)
{
 data = ( 0.33333334 0.33333334 0.33333334 );
}

potential (P2)
{
 data = ( 0.33333334 0.33333334 0.33333334 );
}

potential (NoLeak | P3 P2 P1)
{
 data = (((( 1.0 0.0 0.0 )
( 0.2 0.6 0.2 )
( 0.05 0.15 0.8 ))
(( 0.05 0.9 0.05 )
( 0.010000001 0.75 0.24 )
( 0.0025000002 0.1875 0.81 ))
(( 0.1 0.2 0.7 )
( 0.020000001 0.22000001 0.76 )
( 0.0050000004 0.055000003 0.94 )))
((( 0.5 0.5 0.0 )
( 0.1 0.7 0.20000002 )
( 0.025 0.175 0.8 ))
(( 0.025 0.925 0.04999999 )
( 0.0050000004 0.755 0.24000001 )
( 0.0012500001 0.18875 0.80999994 ))
(( 0.05 0.25 0.7 )
( 0.010000001 0.23 0.76 )
( 0.0025000002 0.0575 0.94 )))
((( 0.0 0.5 0.5 )
( 0.0 0.4 0.6 )
( 0.0 0.1 0.9 ))
(( 0.0 0.475 0.525 )
( 0.0 0.38 0.62 )
( 0.0 0.095 0.905 ))
(( 0.0 0.15 0.85 )
( 0.0 0.120000005 0.88 )
( 0.0 0.030000001 0.97 ))));
}

potential (WithLeak | LeakP3 LeakP2 LeakP1)
{
 data = (((( 1.0 0.0 0.0 )
( 0.0 1.0 0.0 )
( 0.0 0.0 1.0 ))
(( 0.0 1.0 0.0 )
( 0.0 1.0 0.0 )
( 0.0 0.0 1.0 ))
(( 0.0 0.0 1.0 )
( 0.0 0.0 1.0 )
( 0.0 0.0 1.0 )))
((( 0.0 1.0 0.0 )
( 0.0 1.0 0.0 )
( 0.0 0.0 1.0 ))
(( 0.0 1.0 0.0 )
( 0.0 1.0 0.0 )
( 0.0 0.0 1.0 ))
(( 0.0 0.0 1.0 )
( 0.0 0.0 1.0 )
( 0.0 0.0 1.0 )))
((( 0.0 0.0 1.0 )
( 0.0 0.0 1.0 )
( 0.0 0.0 1.0 ))
(( 0.0 0.0 1.0 )
( 0.0 0.0 1.0 )
( 0.0 0.0 1.0 ))
(( 0.0 0.0 1.0 )
( 0.0 0.0 1.0 )
( 0.0 0.0 1.0 ))));
}

potential (LeakP1 | P1)
{
 data = (( 1.0 0.0 0.0 )
( 0.2 0.6 0.2 )
( 0.05 0.15 0.8 ));
}

potential (LeakP2 | P2)
{
 data = (( 1.0 0.0 0.0 )
( 0.05 0.9 0.05 )
( 0.1 0.2 0.7 ));
}

potential (P3)
{
 data = ( 0.33333334 0.33333334 0.33333334 );
}

potential (LeakP3 | P3)
{
 data = (( 1.0 0.0 0.0 )
( 0.5 0.5 0.0 )
( 0.0 0.5 0.5 ));
}

potential (Factored | Divorce1 LeakP1)
{
 data = ((( 1.0 0.0 0.0 )
( 0.0 1.0 0.0 )
( 0.0 0.0 1.0 ))
(( 0.0 1.0 0.0 )
( 0.0 1.0 0.0 )
( 0.0 0.0 1.0 ))
(( 0.0 0.0 1.0 )
( 0.0 0.0 1.0 )
( 0.0 0.0 1.0 )));
}

potential (Divorce1 | LeakP3 LeakP2)
{
 data = ((( 1.0 0.0 0.0 )
( 0.0 1.0 0.0 )
( 0.0 0.0 1.0 ))
(( 0.0 1.0 0.0 )
( 0.0 1.0 0.0 )
( 0.0 0.0 1.0 ))
(( 0.0 0.0 1.0 )
( 0.0 0.0 1.0 )
( 0.0 0.0 1.0 )));
}

