net
{
     node_size = (0 0);
     name = "New BN";
     tree = "(C1,C2,C3,C4,C5,C6,C7,C8,C9,C10,C11)";
     UnBBayes_Color_Probabilistic_Description = "-256";
     UnBBayes_Color_Probabilistic_Explanation = "-16711936";
}

node P1
{
     label = "C1";
     position = (136 55);
     states = ("State 0" "State 1" "State 2");
}

node P2
{
     label = "C2";
     position = (421 50);
     states = ("0" "1" "2");
}

node NoLeak
{
     label = "C3";
     position = (143 444);
     states = ("State 0" "State 1" "State 2" "State 3");
}

node WithLeak
{
     label = "C4";
     position = (402 445);
     states = ("State 0" "State 1" "State 2" "State 3");
}

node LeakP1
{
     label = "C5";
     position = (128 160);
     states = ("State 0" "State 1" "State 2" "State 3");
}

node LeakP2
{
     label = "C7";
     position = (418 154);
     states = ("State 0" "State 1" "State 2" "State 3");
}

node P3
{
     label = "C8";
     position = (693 46);
     states = ("State 0" "State 1" "State 2");
}

node LeakP3
{
     label = "C9";
     position = (686 152);
     states = ("State 0" "State 1" "State 2" "State 3");
}

node P4
{
     label = "C4";
     position = (951 40);
     states = ("State 0" "State 1" "State 2" "State 3");
}

node Leak
{
     label = "C5";
     position = (951 161);
     states = ("State 0" "State 1" "State 2" "State 3");
}

potential (P1)
{
 data = ( 0.33333334 0.33333334 0.33333334 );
}

potential (P2)
{
 data = ( 0.33333334 0.33333334 0.33333334 );
}

potential (NoLeak | P4 P3 P2 P1)
{
 data = ((((( 1.0 0.0 0.0 0.0 )
( 0.2 0.5 0.2 0.100000024 )
( 0.1 0.2 0.5 0.19999999 ))
(( 0.0 0.1 0.8 0.099999964 )
( 0.0 0.07 0.74 0.19 )
( 0.0 0.030000001 0.69000006 0.27999994 ))
(( 0.0 0.1 0.1 0.8 )
( 0.0 0.07 0.10999999 0.82 )
( 0.0 0.030000001 0.13000001 0.84000003 )))
((( 0.1 0.9 0.0 0.0 )
( 0.020000001 0.68 0.19999997 0.1 )
( 0.010000001 0.29000002 0.5 0.19999997 ))
(( 0.0 0.1 0.8 0.09999999 )
( 0.0 0.07 0.74 0.19 )
( 0.0 0.030000001 0.69000006 0.27999994 ))
(( 0.0 0.1 0.1 0.79999995 )
( 0.0 0.07 0.10999999 0.82 )
( 0.0 0.030000001 0.13000001 0.84000003 )))
((( 0.0 0.0 0.9 0.100000024 )
( 0.0 0.0 0.80999994 0.19000006 )
( 0.0 0.0 0.71999997 0.28000003 ))
(( 0.0 0.0 0.81 0.19 )
( 0.0 0.0 0.729 0.27100003 )
( 0.0 0.0 0.648 0.352 ))
(( 0.0 0.0 0.17999999 0.82 )
( 0.0 0.0 0.16199999 0.838 )
( 0.0 0.0 0.14400001 0.856 ))))
(((( 0.2 0.2 0.3 0.29999995 )
( 0.040000003 0.24 0.35000005 0.36999997 )
( 0.020000001 0.1 0.44000006 0.43999994 ))
(( 0.0 0.040000003 0.59000003 0.36999997 )
( 0.0 0.028 0.53900003 0.43299997 )
( 0.0 0.012000001 0.49200007 0.4959999 ))
(( 0.0 0.040000003 0.10000001 0.85999995 )
( 0.0 0.028 0.098000005 0.874 )
( 0.0 0.012000001 0.10000002 0.88799995 )))
((( 0.020000001 0.38 0.30000004 0.29999992 )
( 0.0040 0.276 0.35000005 0.36999997 )
( 0.0020 0.11800001 0.44000006 0.43999994 ))
(( 0.0 0.040000003 0.59000003 0.36999997 )
( 0.0 0.028 0.53900003 0.43299997 )
( 0.0 0.012000001 0.49200007 0.4959999 ))
(( 0.0 0.040000003 0.10000001 0.85999995 )
( 0.0 0.028 0.098000005 0.874 )
( 0.0 0.012000001 0.10000002 0.88799995 )))
((( 0.0 0.0 0.63000005 0.36999995 )
( 0.0 0.0 0.567 0.43300003 )
( 0.0 0.0 0.504 0.496 ))
(( 0.0 0.0 0.56700003 0.43299997 )
( 0.0 0.0 0.51030004 0.48969996 )
( 0.0 0.0 0.45360002 0.54639995 ))
(( 0.0 0.0 0.126 0.874 )
( 0.0 0.0 0.1134 0.8866 )
( 0.0 0.0 0.100800015 0.89919996 ))))
(((( 0.1 0.3 0.4 0.19999999 )
( 0.020000001 0.26 0.43999997 0.28000006 )
( 0.010000001 0.11000001 0.52000004 0.35999995 ))
(( 0.0 0.040000003 0.68 0.28 )
( 0.0 0.028 0.62 0.352 )
( 0.0 0.012000001 0.564 0.424 ))
(( 0.0 0.040000003 0.120000005 0.84 )
( 0.0 0.028 0.116 0.856 )
( 0.0 0.012000001 0.116000004 0.872 )))
((( 0.010000001 0.39000002 0.4 0.2 )
( 0.0020 0.278 0.43999997 0.28000006 )
( 0.0010 0.119 0.52000004 0.35999995 ))
(( 0.0 0.040000003 0.68 0.28 )
( 0.0 0.028 0.62 0.352 )
( 0.0 0.012000001 0.564 0.424 ))
(( 0.0 0.040000003 0.120000005 0.84 )
( 0.0 0.028 0.116 0.856 )
( 0.0 0.012000001 0.116000004 0.872 )))
((( 0.0 0.0 0.71999997 0.28000003 )
( 0.0 0.0 0.64799994 0.35200006 )
( 0.0 0.0 0.576 0.42400002 ))
(( 0.0 0.0 0.648 0.352 )
( 0.0 0.0 0.5832 0.41680002 )
( 0.0 0.0 0.5184 0.4816 ))
(( 0.0 0.0 0.144 0.856 )
( 0.0 0.0 0.12959999 0.8704 )
( 0.0 0.0 0.115200005 0.8848 ))))
(((( 0.1 0.2 0.3 0.39999998 )
( 0.020000001 0.19000001 0.33 0.45999995 )
( 0.010000001 0.080000006 0.39000002 0.52000004 ))
(( 0.0 0.030000001 0.51 0.46 )
( 0.0 0.021000002 0.46500003 0.51399994 )
( 0.0 0.009000001 0.42300004 0.56799996 ))
(( 0.0 0.030000001 0.09 0.88 )
( 0.0 0.021000002 0.087 0.89199996 )
( 0.0 0.009000001 0.087000005 0.904 )))
((( 0.010000001 0.29000002 0.3 0.39999998 )
( 0.0020 0.208 0.33 0.45999995 )
( 0.0010 0.089 0.39000005 0.52 ))
(( 0.0 0.030000001 0.51 0.46 )
( 0.0 0.021000002 0.46500003 0.51399994 )
( 0.0 0.009000001 0.42300004 0.56799996 ))
(( 0.0 0.030000001 0.09 0.88 )
( 0.0 0.021000002 0.087 0.89199996 )
( 0.0 0.009000001 0.087000005 0.904 )))
((( 0.0 0.0 0.54 0.45999998 )
( 0.0 0.0 0.48599997 0.51400006 )
( 0.0 0.0 0.432 0.56799996 ))
(( 0.0 0.0 0.48600003 0.51399994 )
( 0.0 0.0 0.4374 0.5626 )
( 0.0 0.0 0.38880002 0.6112 ))
(( 0.0 0.0 0.108 0.892 )
( 0.0 0.0 0.0972 0.9028 )
( 0.0 0.0 0.08640001 0.91359997 )))));
}

potential (WithLeak | Leak LeakP3 LeakP2 LeakP1)
{
 data = ((((( 1.0 0.0 0.0 0.0 )
( 0.0 1.0 0.0 0.0 )
( 0.0 0.0 1.0 0.0 )
( 0.0 0.0 0.0 1.0 ))
(( 0.0 1.0 0.0 0.0 )
( 0.0 1.0 0.0 0.0 )
( 0.0 0.0 1.0 0.0 )
( 0.0 0.0 0.0 1.0 ))
(( 0.0 0.0 1.0 0.0 )
( 0.0 0.0 1.0 0.0 )
( 0.0 0.0 1.0 0.0 )
( 0.0 0.0 0.0 1.0 ))
(( 0.0 0.0 0.0 1.0 )
( 0.0 0.0 0.0 1.0 )
( 0.0 0.0 0.0 1.0 )
( 0.0 0.0 0.0 1.0 )))
((( 0.0 1.0 0.0 0.0 )
( 0.0 1.0 0.0 0.0 )
( 0.0 0.0 1.0 0.0 )
( 0.0 0.0 0.0 1.0 ))
(( 0.0 1.0 0.0 0.0 )
( 0.0 1.0 0.0 0.0 )
( 0.0 0.0 1.0 0.0 )
( 0.0 0.0 0.0 1.0 ))
(( 0.0 0.0 1.0 0.0 )
( 0.0 0.0 1.0 0.0 )
( 0.0 0.0 1.0 0.0 )
( 0.0 0.0 0.0 1.0 ))
(( 0.0 0.0 0.0 1.0 )
( 0.0 0.0 0.0 1.0 )
( 0.0 0.0 0.0 1.0 )
( 0.0 0.0 0.0 1.0 )))
((( 0.0 0.0 1.0 0.0 )
( 0.0 0.0 1.0 0.0 )
( 0.0 0.0 1.0 0.0 )
( 0.0 0.0 0.0 1.0 ))
(( 0.0 0.0 1.0 0.0 )
( 0.0 0.0 1.0 0.0 )
( 0.0 0.0 1.0 0.0 )
( 0.0 0.0 0.0 1.0 ))
(( 0.0 0.0 1.0 0.0 )
( 0.0 0.0 1.0 0.0 )
( 0.0 0.0 1.0 0.0 )
( 0.0 0.0 0.0 1.0 ))
(( 0.0 0.0 0.0 1.0 )
( 0.0 0.0 0.0 1.0 )
( 0.0 0.0 0.0 1.0 )
( 0.0 0.0 0.0 1.0 )))
((( 0.0 0.0 0.0 1.0 )
( 0.0 0.0 0.0 1.0 )
( 0.0 0.0 0.0 1.0 )
( 0.0 0.0 0.0 1.0 ))
(( 0.0 0.0 0.0 1.0 )
( 0.0 0.0 0.0 1.0 )
( 0.0 0.0 0.0 1.0 )
( 0.0 0.0 0.0 1.0 ))
(( 0.0 0.0 0.0 1.0 )
( 0.0 0.0 0.0 1.0 )
( 0.0 0.0 0.0 1.0 )
( 0.0 0.0 0.0 1.0 ))
(( 0.0 0.0 0.0 1.0 )
( 0.0 0.0 0.0 1.0 )
( 0.0 0.0 0.0 1.0 )
( 0.0 0.0 0.0 1.0 ))))
(((( 0.0 1.0 0.0 0.0 )
( 0.0 1.0 0.0 0.0 )
( 0.0 0.0 1.0 0.0 )
( 0.0 0.0 0.0 1.0 ))
(( 0.0 1.0 0.0 0.0 )
( 0.0 1.0 0.0 0.0 )
( 0.0 0.0 1.0 0.0 )
( 0.0 0.0 0.0 1.0 ))
(( 0.0 0.0 1.0 0.0 )
( 0.0 0.0 1.0 0.0 )
( 0.0 0.0 1.0 0.0 )
( 0.0 0.0 0.0 1.0 ))
(( 0.0 0.0 0.0 1.0 )
( 0.0 0.0 0.0 1.0 )
( 0.0 0.0 0.0 1.0 )
( 0.0 0.0 0.0 1.0 )))
((( 0.0 1.0 0.0 0.0 )
( 0.0 1.0 0.0 0.0 )
( 0.0 0.0 1.0 0.0 )
( 0.0 0.0 0.0 1.0 ))
(( 0.0 1.0 0.0 0.0 )
( 0.0 1.0 0.0 0.0 )
( 0.0 0.0 1.0 0.0 )
( 0.0 0.0 0.0 1.0 ))
(( 0.0 0.0 1.0 0.0 )
( 0.0 0.0 1.0 0.0 )
( 0.0 0.0 1.0 0.0 )
( 0.0 0.0 0.0 1.0 ))
(( 0.0 0.0 0.0 1.0 )
( 0.0 0.0 0.0 1.0 )
( 0.0 0.0 0.0 1.0 )
( 0.0 0.0 0.0 1.0 )))
((( 0.0 0.0 1.0 0.0 )
( 0.0 0.0 1.0 0.0 )
( 0.0 0.0 1.0 0.0 )
( 0.0 0.0 0.0 1.0 ))
(( 0.0 0.0 1.0 0.0 )
( 0.0 0.0 1.0 0.0 )
( 0.0 0.0 1.0 0.0 )
( 0.0 0.0 0.0 1.0 ))
(( 0.0 0.0 1.0 0.0 )
( 0.0 0.0 1.0 0.0 )
( 0.0 0.0 1.0 0.0 )
( 0.0 0.0 0.0 1.0 ))
(( 0.0 0.0 0.0 1.0 )
( 0.0 0.0 0.0 1.0 )
( 0.0 0.0 0.0 1.0 )
( 0.0 0.0 0.0 1.0 )))
((( 0.0 0.0 0.0 1.0 )
( 0.0 0.0 0.0 1.0 )
( 0.0 0.0 0.0 1.0 )
( 0.0 0.0 0.0 1.0 ))
(( 0.0 0.0 0.0 1.0 )
( 0.0 0.0 0.0 1.0 )
( 0.0 0.0 0.0 1.0 )
( 0.0 0.0 0.0 1.0 ))
(( 0.0 0.0 0.0 1.0 )
( 0.0 0.0 0.0 1.0 )
( 0.0 0.0 0.0 1.0 )
( 0.0 0.0 0.0 1.0 ))
(( 0.0 0.0 0.0 1.0 )
( 0.0 0.0 0.0 1.0 )
( 0.0 0.0 0.0 1.0 )
( 0.0 0.0 0.0 1.0 ))))
(((( 0.0 0.0 1.0 0.0 )
( 0.0 0.0 1.0 0.0 )
( 0.0 0.0 1.0 0.0 )
( 0.0 0.0 0.0 1.0 ))
(( 0.0 0.0 1.0 0.0 )
( 0.0 0.0 1.0 0.0 )
( 0.0 0.0 1.0 0.0 )
( 0.0 0.0 0.0 1.0 ))
(( 0.0 0.0 1.0 0.0 )
( 0.0 0.0 1.0 0.0 )
( 0.0 0.0 1.0 0.0 )
( 0.0 0.0 0.0 1.0 ))
(( 0.0 0.0 0.0 1.0 )
( 0.0 0.0 0.0 1.0 )
( 0.0 0.0 0.0 1.0 )
( 0.0 0.0 0.0 1.0 )))
((( 0.0 0.0 1.0 0.0 )
( 0.0 0.0 1.0 0.0 )
( 0.0 0.0 1.0 0.0 )
( 0.0 0.0 0.0 1.0 ))
(( 0.0 0.0 1.0 0.0 )
( 0.0 0.0 1.0 0.0 )
( 0.0 0.0 1.0 0.0 )
( 0.0 0.0 0.0 1.0 ))
(( 0.0 0.0 1.0 0.0 )
( 0.0 0.0 1.0 0.0 )
( 0.0 0.0 1.0 0.0 )
( 0.0 0.0 0.0 1.0 ))
(( 0.0 0.0 0.0 1.0 )
( 0.0 0.0 0.0 1.0 )
( 0.0 0.0 0.0 1.0 )
( 0.0 0.0 0.0 1.0 )))
((( 0.0 0.0 1.0 0.0 )
( 0.0 0.0 1.0 0.0 )
( 0.0 0.0 1.0 0.0 )
( 0.0 0.0 0.0 1.0 ))
(( 0.0 0.0 1.0 0.0 )
( 0.0 0.0 1.0 0.0 )
( 0.0 0.0 1.0 0.0 )
( 0.0 0.0 0.0 1.0 ))
(( 0.0 0.0 1.0 0.0 )
( 0.0 0.0 1.0 0.0 )
( 0.0 0.0 1.0 0.0 )
( 0.0 0.0 0.0 1.0 ))
(( 0.0 0.0 0.0 1.0 )
( 0.0 0.0 0.0 1.0 )
( 0.0 0.0 0.0 1.0 )
( 0.0 0.0 0.0 1.0 )))
((( 0.0 0.0 0.0 1.0 )
( 0.0 0.0 0.0 1.0 )
( 0.0 0.0 0.0 1.0 )
( 0.0 0.0 0.0 1.0 ))
(( 0.0 0.0 0.0 1.0 )
( 0.0 0.0 0.0 1.0 )
( 0.0 0.0 0.0 1.0 )
( 0.0 0.0 0.0 1.0 ))
(( 0.0 0.0 0.0 1.0 )
( 0.0 0.0 0.0 1.0 )
( 0.0 0.0 0.0 1.0 )
( 0.0 0.0 0.0 1.0 ))
(( 0.0 0.0 0.0 1.0 )
( 0.0 0.0 0.0 1.0 )
( 0.0 0.0 0.0 1.0 )
( 0.0 0.0 0.0 1.0 ))))
(((( 0.0 0.0 0.0 1.0 )
( 0.0 0.0 0.0 1.0 )
( 0.0 0.0 0.0 1.0 )
( 0.0 0.0 0.0 1.0 ))
(( 0.0 0.0 0.0 1.0 )
( 0.0 0.0 0.0 1.0 )
( 0.0 0.0 0.0 1.0 )
( 0.0 0.0 0.0 1.0 ))
(( 0.0 0.0 0.0 1.0 )
( 0.0 0.0 0.0 1.0 )
( 0.0 0.0 0.0 1.0 )
( 0.0 0.0 0.0 1.0 ))
(( 0.0 0.0 0.0 1.0 )
( 0.0 0.0 0.0 1.0 )
( 0.0 0.0 0.0 1.0 )
( 0.0 0.0 0.0 1.0 )))
((( 0.0 0.0 0.0 1.0 )
( 0.0 0.0 0.0 1.0 )
( 0.0 0.0 0.0 1.0 )
( 0.0 0.0 0.0 1.0 ))
(( 0.0 0.0 0.0 1.0 )
( 0.0 0.0 0.0 1.0 )
( 0.0 0.0 0.0 1.0 )
( 0.0 0.0 0.0 1.0 ))
(( 0.0 0.0 0.0 1.0 )
( 0.0 0.0 0.0 1.0 )
( 0.0 0.0 0.0 1.0 )
( 0.0 0.0 0.0 1.0 ))
(( 0.0 0.0 0.0 1.0 )
( 0.0 0.0 0.0 1.0 )
( 0.0 0.0 0.0 1.0 )
( 0.0 0.0 0.0 1.0 )))
((( 0.0 0.0 0.0 1.0 )
( 0.0 0.0 0.0 1.0 )
( 0.0 0.0 0.0 1.0 )
( 0.0 0.0 0.0 1.0 ))
(( 0.0 0.0 0.0 1.0 )
( 0.0 0.0 0.0 1.0 )
( 0.0 0.0 0.0 1.0 )
( 0.0 0.0 0.0 1.0 ))
(( 0.0 0.0 0.0 1.0 )
( 0.0 0.0 0.0 1.0 )
( 0.0 0.0 0.0 1.0 )
( 0.0 0.0 0.0 1.0 ))
(( 0.0 0.0 0.0 1.0 )
( 0.0 0.0 0.0 1.0 )
( 0.0 0.0 0.0 1.0 )
( 0.0 0.0 0.0 1.0 )))
((( 0.0 0.0 0.0 1.0 )
( 0.0 0.0 0.0 1.0 )
( 0.0 0.0 0.0 1.0 )
( 0.0 0.0 0.0 1.0 ))
(( 0.0 0.0 0.0 1.0 )
( 0.0 0.0 0.0 1.0 )
( 0.0 0.0 0.0 1.0 )
( 0.0 0.0 0.0 1.0 ))
(( 0.0 0.0 0.0 1.0 )
( 0.0 0.0 0.0 1.0 )
( 0.0 0.0 0.0 1.0 )
( 0.0 0.0 0.0 1.0 ))
(( 0.0 0.0 0.0 1.0 )
( 0.0 0.0 0.0 1.0 )
( 0.0 0.0 0.0 1.0 )
( 0.0 0.0 0.0 1.0 )))));
}

potential (LeakP1 | P1)
{
 data = (( 1.0 0.0 0.0 0.0 )
( 0.2 0.5 0.2 0.1 )
( 0.1 0.2 0.5 0.2 ));
}

potential (LeakP2 | P2)
{
 data = (( 1.0 0.0 0.0 0.0 )
( 0.0 0.1 0.8 0.1 )
( 0.0 0.1 0.1 0.8 ));
}

potential (P3)
{
 data = ( 0.33333334 0.33333334 0.33333334 );
}

potential (LeakP3 | P3)
{
 data = (( 1.0 0.0 0.0 0.0 )
( 0.1 0.9 0.0 0.0 )
( 0.0 0.0 0.9 0.1 ));
}

potential (P4)
{
 data = ( 0.25 0.25 0.25 0.25 );
}

potential (Leak | P4)
{
 data = (( 1.0 0.0 0.0 0.0 )
( 0.2 0.2 0.3 0.3 )
( 0.1 0.3 0.4 0.2 )
( 0.1 0.2 0.3 0.4 ));
}

