net
{
     node_size = (179 50);
     name = "null";
}

node SEXO
{
     label = "SEXO";
     position = (211 112);
     states = ("F" "M" "X");
}

node IDADE
{
     label = "IDADE";
     position = (106 154);
     states = ("1.0" "2.0" "3.0");
}

node LIMCONC
{
     label = "LIMCONC";
     position = (18 265);
     states = ("1.0" "2.0" "3.0" "4.0");
}

node VLTRAN
{
     label = "VLTRAN";
     position = (316 79);
     states = ("1.0" "2.0" "3.0" "4.0" "5.0");
}

node LOCALIDADE
{
     label = "LOCALIDADE";
     position = (330 542);
     states = ("N" "S");
}

node HORARIO
{
     label = "HORARIO";
     position = (109 465);
     states = ("1.0" "2.0" "3.0" "4.0");
}

node MCC
{
     label = "MCC";
     position = (567 237);
     states = ("1.0" "3.0" "4.0" "5.0" "6.0" "7.0" "8.0" "9.0" "10.0" "11.0" "12.0" "13.0" "14.0");
}

node DOMESTICO
{
     label = "DOMESTICO";
     position = (570 477);
     states = ("N" "S");
}

node QTDTOT
{
     label = "QTDTOT";
     position = (471 69);
     states = ("1.0" "2.0" "3.0");
}

node QTDTOTMCC
{
     label = "QTDTOTMCC";
     position = (25 389);
     states = ("1.0" "2.0" "3.0" "4.0" "5.0" "6.0" "7.0" "8.0" "9.0" "10.0" "11.0" "12.0");
}

node MODALIDADE
{
     label = "MODALIDADE";
     position = (698 304);
     states = ("1.0" "4.0" "5.0" "3.0" "2.0");
}

node LIMDISP
{
     label = "LIMDISP";
     position = (674 102);
     states = ("1.0" "2.0" "3.0" "4.0");
}

node ENTRYMODE
{
     label = "ENTRYMODE";
     position = (844 326);
     states = ("1.0" "2.0" "3.0");
}

node DIF30MIN
{
     label = "DIF30MIN";
     position = (746 530);
     states = ("N" "S");
}

node VLTOT
{
     label = "VLTOT";
     position = (801 192);
     states = ("1.0" "2.0" "4.0" "3.0");
}

node APROVADA
{
     label = "APROVADA";
     position = (819 451);
     states = ("N" "S");
}

node FRAUDE
{
     label = "FRAUDE";
     position = (370 237);
     states = ("N" "S");
}

potential (SEXO)
{
 data = ( 0.4501917130488559 0.5123122380265237 0.03749604892462036 );
}

potential (IDADE | SEXO)
{
 data = (( 0.21538771498171472 0.4818643043353501 0.3027479806829352 )
( 0.2186497419444832 0.48136206101054757 0.29998819704496926 )
( 0.2967604807974201 0.4025212547639988 0.3007182644385811 ));
}

potential (LIMCONC | IDADE SEXO)
{
 data = ((( 0.18397483135876652 0.3426676492262343 0.27283033841618953 0.2005271809988096 )
( 0.1272789469016458 0.3280796665357473 0.3204272193997137 0.22421416716289325 )
( 0.10727753019701157 0.32070335343106615 0.3239297453166906 0.24808937105523182 ))
(( 0.19959271799401346 0.33985965945335883 0.27660827322243486 0.18393934933019285 )
( 0.11447072197579297 0.31840269264204357 0.3266277333214453 0.2404988520607182 )
( 0.08038412704089844 0.2807453638298253 0.3353421913839661 0.3035283177453102 ))
(( 0.033070088845014806 0.23790720631786771 0.3121915103652517 0.41683119447186573 )
( 0.033121019108280254 0.24968152866242038 0.3725204731574158 0.34467697907188355 )
( 0.023136872868972237 0.24792985874330248 0.3490014612761812 0.37993180711154406 )));
}

potential (VLTRAN | LIMCONC SEXO)
{
 data = ((( 0.5122375223020266 0.24090763529896153 0.18623907772542203 0.0489500892081065 0.011665675465483324 )
( 0.4520420849492494 0.22784880592306694 0.21064741793620456 0.08433690226568444 0.02512478892579466 )
( 0.4407939901535806 0.21742541631524234 0.20626483337583115 0.09565933742620089 0.03985642272914501 ))
(( 0.4082854599886722 0.2204870944251153 0.21172155244491195 0.10356824985840278 0.055937643282897756 )
( 0.5069641531677074 0.2269135047810331 0.19163428371829022 0.057634371043094795 0.016853687289874693 )
( 0.4458380647603316 0.21723271738756403 0.21074636110250847 0.09588451877086127 0.03029833797873438 ))
(( 0.4327125642538131 0.20989298053425465 0.20581444341451083 0.10413752422684756 0.04744248757057386 )
( 0.38672341534385796 0.2126772491368266 0.21276410935701726 0.11663156066100629 0.07120366550129206 )
( 0.7839805825242719 0.15776699029126215 0.05097087378640778 0.0 0.0072815533980582535 ))
(( 0.6436233611442194 0.19427890345649582 0.11859356376638856 0.0366507747318236 0.0068533969010727055 )
( 0.607752264588161 0.19106804297451024 0.13882452074994736 0.04845165367600591 0.013903518011375607 )
( 0.5105928085519923 0.20602526724975706 0.17920310981535473 0.0676384839650146 0.03654033041788145 )));
}

potential (LOCALIDADE | IDADE LIMCONC SEXO)
{
 data = (((( 0.8872458410351202 0.11275415896487985 )
( 0.8212401711953817 0.1787598288046183 )
( 0.8293553843262544 0.17064461567374553 ))
(( 0.8938053097345132 0.10619469026548672 )
( 0.8328699413036762 0.16713005869632375 )
( 0.8635649166928638 0.1364350833071361 ))
(( 0.9357016723797652 0.06429832762023475 )
( 0.8728847066266013 0.1271152933733987 )
( 0.8967320261437909 0.10326797385620914 ))
(( 0.929055963821368 0.070944036178632 )
( 0.87433608317324 0.1256639168267601 )
( 0.8872724317295189 0.11272756827048114 )))
((( 0.8640609636184857 0.13593903638151425 )
( 0.8296339563862928 0.17036604361370716 )
( 0.8563167259786477 0.1436832740213523 ))
(( 0.8940301739695373 0.10596982603046272 )
( 0.8387469373468673 0.16125306265313266 )
( 0.8689171974522293 0.1310828025477707 ))
(( 0.9299334811529933 0.07006651884700665 )
( 0.8748464583048997 0.12515354169510032 )
( 0.889084413160561 0.11091558683943903 ))
(( 0.9258468925046679 0.07415310749533209 )
( 0.8821130676552363 0.11788693234476368 )
( 0.8960174384352539 0.10398256156474608 )))
((( 0.9555555555555556 0.044444444444444446 )
( 0.9726775956284153 0.0273224043715847 )
( 1.0 0.0 ))
(( 0.9658031088082901 0.03419689119170984 )
( 0.9497450837581938 0.050254916241806266 )
( 0.9803729146221786 0.019627085377821395 ))
(( 0.9589257503949447 0.04107424960505529 )
( 0.92138671875 0.07861328125 )
( 0.9616457461645747 0.038354253835425386 ))
(( 0.9414201183431953 0.058579881656804736 )
( 0.9424802110817943 0.057519788918205805 )
( 0.9481101857783472 0.051889814221652786 ))));
}

potential (HORARIO | VLTRAN LOCALIDADE SEXO)
{
 data = (((( 0.4637456255641241 0.2580323351965923 0.1632436540989058 0.11497838514037782 )
( 0.5137229477323948 0.25136612021857924 0.13735296841715292 0.09755796363187305 )
( 0.5302744886975242 0.2459970398277718 0.12446178686759957 0.09926668460710442 ))
(( 0.5718895097190525 0.22916502715038956 0.10254190603604313 0.09640355709451484 )
( 0.5861382194781917 0.2139016132244573 0.10137422824138619 0.09858593905596497 )
( 0.530632608261824 0.24665735382159248 0.12073438435442027 0.10197565356216325 )))
((( 0.6086464463558171 0.2383431416930738 0.08035310095065641 0.0726573110004527 )
( 0.6297662976629766 0.21943419434194342 0.07183271832718327 0.07896678966789668 )
( 0.6764886433394721 0.18477593615715163 0.0570902394106814 0.0816451810926949 ))
(( 0.7005730659025788 0.17335243553008595 0.0673352435530086 0.05873925501432665 )
( 0.43060909791827295 0.2480796139238699 0.1860704189154459 0.13524086924241127 )
( 0.4849577464788733 0.23667605633802818 0.1594647887323944 0.11890140845070424 )))
((( 0.4985072005619951 0.23521835850602973 0.1485189087928814 0.11775553213909379 )
( 0.5293294389679932 0.21911889984179142 0.13514664719483996 0.11640501399537544 )
( 0.5397985929093668 0.21547799696509864 0.1284315077941785 0.11629190233135604 ))
(( 0.4897940586841626 0.2351922726444323 0.14616365955895755 0.1288500091124476 )
( 0.5792349726775956 0.21770491803278688 0.09967213114754099 0.10338797814207651 )
( 0.6002673796791443 0.20610516934046347 0.08467023172905526 0.1089572192513369 )))
((( 0.6477893691008445 0.17386984600099353 0.07004470938897168 0.10829607550919026 )
( 0.6224899598393574 0.20582329317269077 0.0823293172690763 0.0893574297188755 )
( 0.497029702970297 0.24475247524752475 0.15141914191419142 0.1067986798679868 ))
(( 0.5926213592233011 0.23417475728155343 0.10951456310679614 0.06368932038834953 )
( 0.6398305084745762 0.2044491525423729 0.08845338983050847 0.06726694915254237 )
( 0.6794117647058824 0.17941176470588235 0.057352941176470586 0.0838235294117647 )))
((( 0.6893939393939394 0.14393939393939395 0.07196969696969698 0.0946969696969697 )
( 0.6037735849056604 0.21462264150943397 0.09433962264150944 0.08726415094339622 )
( 0.7345132743362832 0.1504424778761062 0.05309734513274336 0.061946902654867256 ))
(( 0.6724137931034483 0.20689655172413793 0.06896551724137931 0.05172413793103448 )
( 0.76 0.16000000000000003 0.0 0.08000000000000002 )
( 0.5555555555555556 0.4444444444444445 0.0 0.0 ))));
}

potential (MCC | VLTRAN HORARIO LOCALIDADE)
{
 data = (((( 0.12331540651692505 0.009411578614362546 0.12344194875039548 0.011705156596013922 0.07564062005694402 0.014631445745017404 0.033944954128440376 0.0999050933248972 0.0816039228092376 0.022255615311610254 0.055188231572287264 0.08611198987662133 0.26284403669724776 )
( 0.1296620705244123 0.0034471066907775768 0.14774525316455697 0.030063291139240507 0.040206826401446655 0.015964059674502713 0.041054475587703435 0.06589059674502712 0.08363471971066908 0.02961121157323689 0.05419303797468354 0.04385171790235081 0.3146756329113924 ))
(( 0.11707288389733338 0.0031458559962367332 0.13512480522153295 0.06865022197395114 0.017463910857613264 0.017228706670978745 0.06235850998147767 0.04224855202422603 0.07720577426278188 0.03339899450210214 0.06597477435098345 0.024784641166612765 0.33534236909416987 )
( 0.07945005475118627 0.0026158900109502373 0.1161941842073245 0.09289451271444214 0.013079450054751186 0.017824552865312083 0.07726000730015817 0.015391166808614187 0.06557975422800827 0.03230319990266456 0.08042340917386544 0.010159386786713713 0.39682443119600924 ))
(( 0.055051078320090804 0.0029795686719636776 0.09477866061293984 0.0927922814982974 0.01177639046538025 0.012202043132803632 0.08740068104426787 0.012911464245175936 0.06001702610669694 0.03504540295119183 0.09052213393870602 0.009080590238365494 0.4354426787741203 )
( 0.14963133899926834 0.009033601620982722 0.12255867619744472 0.006106827264028818 0.08268137558394778 0.006303821691900716 0.026397253334834246 0.11690212191140881 0.08099285191647437 0.01879889683120392 0.04936117521247257 0.08842235605335737 0.24280970338267577 ))
(( 0.1708923471469371 9.908492160634144E-4 0.16249927143439996 0.017019292417089233 0.04377222125080142 0.007110800256455091 0.03421344057818966 0.07209885178061433 0.08754444250160284 0.026694643585708458 0.04377222125080142 0.03584542752229411 0.29754619105904295 )
( 0.155350905049222 0.001143220069863449 0.16309939663385203 0.03804382343601144 0.017275325500158784 0.009717370593839316 0.05366783105747857 0.043251825976500485 0.07456335344553829 0.03766275007939029 0.055509685614480796 0.01981581454429978 0.33089869799936494 )))
((( 0.10413844996237773 6.019563581640331E-4 0.13905191873589165 0.052219714070729874 0.008878856282919489 0.00782543265613243 0.08171557562076749 0.01218961625282167 0.06139954853273138 0.036418359668924004 0.06952595936794582 0.006621519939804364 0.41941309255079007 )
( 0.080849478390462 0.004470938897168405 0.09575260804769002 0.05886736214605067 0.00819672131147541 0.00894187779433681 0.10581222056631892 0.013785394932935917 0.05216095380029806 0.03390461997019374 0.07451564828614009 0.00856929955290611 0.45417287630402386 ))
(( 0.12270389419544453 0.009021144583231284 0.08372112009143604 0.004041146216017634 0.09282390399216263 0.0010613111274389746 0.01522573271287452 0.11245815984978366 0.05833129235039595 0.010817209568128011 0.07261817291207445 0.1777287941872806 0.23944811821373174 )
( 0.16535281676600655 0.007210151893866564 0.12728321476639107 0.010767160161507403 0.05220149971159392 0.0010574889444337628 0.019515477792732168 0.06287252451451644 0.070082676408383 0.014131897711978465 0.045183618534897135 0.13680061526629494 0.28754085752739855 ))
(( 0.17104234163780582 0.008378952072394147 0.13417495251927158 0.025695453022008714 0.017428220310579823 4.468774438610211E-4 0.03128142107027148 0.03262205340185454 0.05943470003351581 0.0222321528320858 0.05988157747737683 0.09619036979108479 0.3411909283878896 )
( 0.12034704729918835 0.00559753708368318 0.10887209627763784 0.03218583823117828 0.0061572907920514975 0.001119507416736636 0.0531766022949902 0.008396305625524769 0.03806325216904562 0.023509655751469353 0.10411418975650713 0.051777218024069406 0.4466834592779177 ))
(( 0.08849557522123895 0.004765146358066713 0.07079646017699116 0.025867937372362156 0.010211027910142957 0.0013614703880190607 0.09257998638529613 0.004765146358066713 0.029952348536419336 0.01974132062627638 0.12117086453369641 0.040163376446562295 0.49012933968686184 )
( 0.13297629899726526 0.013160893345487694 0.047288058340929806 0.010995897903372834 0.12682315405651778 0.010768003646308113 0.013445761166818596 0.10517319963536918 0.03332953509571559 0.007976298997265268 0.06927985414767548 0.0680264357338195 0.3607566089334549 )))
((( 0.12031767041694243 0.0035737921906022502 0.05731303772336201 0.027399073461283917 0.07690271343481138 0.01098610191925877 0.014956982131039047 0.05771012574454004 0.04050297816015883 0.010324288550628722 0.04963600264725347 0.039973527465254795 0.49040370615486434 )
( 0.08986077907467305 0.003093798340599072 0.04936014625228519 0.06679791871747996 0.027984812262691606 0.008859513429897343 0.01659400928139502 0.02629728589509211 0.03164111939249051 0.010547039797496835 0.0712979890310786 0.024187877935592742 0.5734777105892279 ))
(( 0.02995319812792512 0.00218408736349454 0.033073322932917315 0.07457098283931357 0.018408736349453978 0.006864274570982839 0.01341653666146646 0.008424336973478939 0.02215288611544462 0.009672386895475818 0.08580343213728549 0.013104524180967239 0.682371294851794 )
( 0.02112163146394756 0.003641660597232338 0.03058994901675164 0.055353241077931534 0.010924981791697014 0.00873998543335761 0.011653313911143482 0.00873998543335761 0.012381646030589949 0.023306627822286964 0.11580480699198835 0.01529497450837582 0.6824471959213402 ))
(( 0.11278401313988502 0.012683639018158591 0.10265535176567205 0.007299936125558902 0.09088420476320833 0.012683639018158591 0.010949904188338352 0.08686923989415092 0.07090062961949083 0.017976092709188794 0.049457067250661554 0.06058946984213888 0.3642668126653892 )
( 0.11395434462444771 0.002025036818851252 0.13052282768777615 0.02411634756995582 0.03240058910162003 0.012150220913107511 0.015463917525773196 0.04804860088365243 0.059278350515463915 0.025036818851251842 0.034425625920471284 0.018225331369661268 0.4843519882179676 ))
(( 0.10071134406589292 0.001497566454511419 0.11437663796330962 0.07094721078247847 0.007487832272557095 0.014414077124672407 0.030138524897042305 0.024335454885810556 0.05896667914638712 0.027330587794833397 0.03051291651067016 0.008611007113440658 0.5106701609883939 )
( 0.05010266940451746 0.0012320328542094457 0.08049281314168377 0.10718685831622177 0.010677618069815195 0.014373716632443531 0.04763860369609856 0.003696098562628337 0.042299794661190965 0.024640657084188913 0.027104722792607804 0.004928131416837783 0.5856262833675565 )))
((( 0.03723404255319149 0.0 0.05673758865248227 0.13031914893617022 0.009751773049645389 0.016843971631205674 0.05673758865248227 0.008865248226950355 0.03280141843971631 0.02127659574468085 0.03191489361702128 0.009751773049645389 0.5877659574468085 )
( 0.13872720217306947 0.014745828482731859 0.10322079937912301 0.00446255335661622 0.1030267753201397 0.002522312766783081 0.005238649592549476 0.11233993015133877 0.0653861078773768 0.015521924718665115 0.05587892898719441 0.05626697710516104 0.32266201008925105 ))
(( 0.17734939759036147 0.0 0.14216867469879518 0.011566265060240964 0.03951807228915663 0.0024096385542168672 0.012048192771084338 0.06024096385542169 0.06843373493975904 0.021204819277108433 0.02313253012048193 0.011566265060240964 0.4303614457831325 )
( 0.15667206915180984 0.0010804970286331713 0.14154511075094545 0.03511615343057806 0.005942733657482442 0.0037817396002160996 0.03079416531604538 0.01242571582928147 0.050243111831442464 0.030253916801728797 0.017828200972447326 0.0037817396002160996 0.5105348460291734 ))
(( 0.10407239819004525 0.0 0.08295625942684766 0.04374057315233786 0.010558069381598792 0.012066365007541479 0.05128205128205128 0.0 0.048265460030165915 0.013574660633484163 0.01809954751131222 0.004524886877828055 0.6108597285067874 )
( 0.08163265306122448 0.0 0.05830903790087462 0.10787172011661805 0.008746355685131194 0.014577259475218655 0.08163265306122448 0.011661807580174925 0.0379008746355685 0.017492711370262388 0.04373177842565597 0.005830903790087463 0.5306122448979591 ))
(( 0.09710094306671324 0.008732099196646874 0.07369891721969962 0.0038421236465246244 0.10827803003842124 0.0 0.002794271742927 0.10164163464896961 0.03318197694725812 0.0013971358714635 0.10862731400628711 0.173244848061474 0.2874607055536151 )
( 0.18280871670702178 0.003631961259079903 0.11380145278450363 0.00847457627118644 0.048426150121065374 0.0 0.00847457627118644 0.03147699757869249 0.03026634382566586 0.009685230024213074 0.021791767554479417 0.11622276029055689 0.42493946731234866 )))
((( 0.23657474600870831 0.020319303338171266 0.13062409288824384 0.014513788098693761 0.0058055152394775045 0.0 0.013062409288824385 0.024673439767779394 0.03338171262699565 0.011611030478955009 0.04063860667634253 0.06531204644412192 0.4034833091436866 )
( 0.12863070539419086 0.0 0.11203319502074689 0.024896265560165973 0.0 0.0 0.03319502074688797 0.0 0.02074688796680498 0.012448132780082987 0.02904564315352697 0.04149377593360996 0.5975103734439834 ))
(( 0.16176470588235295 0.0 0.11029411764705883 0.029411764705882356 0.0 0.0 0.05147058823529413 0.0 0.03676470588235294 0.029411764705882356 0.05147058823529413 0.0661764705882353 0.46323529411764713 )
( 0.11196133709222715 0.014095851792186871 0.022956101490132903 0.004832863471606927 0.13934756343133306 0.005235602094240838 0.002013693113169553 0.0801449859041482 0.009665726943213854 0.003221908981071285 0.08981071284736206 0.05034232782923882 0.46637132501006845 ))
(( 0.10864197530864196 0.0 0.02345679012345679 0.014814814814814814 0.04938271604938271 0.0049382716049382715 0.0024691358024691358 0.019753086419753086 0.006172839506172839 0.008641975308641974 0.024691358024691357 0.014814814814814814 0.7222222222222222 )
( 0.0387409200968523 0.004842615012106538 0.021791767554479417 0.05205811138014528 0.010895883777239709 0.0036319612590799033 0.0036319612590799033 0.009685230024213076 0.009685230024213076 0.006053268765133172 0.012106537530266344 0.006053268765133172 0.8208232445520581 ))
(( 0.011111111111111112 0.0 0.013888888888888888 0.08055555555555556 0.011111111111111112 0.005555555555555556 0.005555555555555556 0.008333333333333333 0.005555555555555556 0.0 0.008333333333333333 0.0 0.85 )
( 0.014814814814814815 0.0 0.0 0.10370370370370371 0.022222222222222223 0.014814814814814815 0.0 0.014814814814814815 0.0 0.0 0.044444444444444446 0.0 0.7851851851851852 ))));
}

potential (DOMESTICO | LOCALIDADE MCC LIMCONC)
{
 data = (((( 0.35890321527664437 0.6410967847233556 )
( 0.0 1.0 )
( 0.01 0.99 )
( 0.0 1.0 ))
(( 0.3740425531914894 0.6259574468085106 )
( 0.0 1.0 )
( 0.10014306151645208 0.899856938483548 )
( 0.0 1.0 ))
(( 0.0031023784901758012 0.9968976215098242 )
( 0.0 1.0 )
( 0.0 1.0 )
( 0.0 1.0 ))
(( 0.4300822561692127 0.5699177438307873 )
( 0.0 1.0 )
( 0.33179886685552407 0.6682011331444759 )
( 0.0 1.0 ))
(( 0.29916897506925205 0.7008310249307479 )
( 0.0 1.0 )
( 0.006726457399103139 0.9932735426008968 )
( 0.0 1.0 ))
(( 0.5220293724966623 0.4779706275033378 )
( 0.0 1.0 )
( 0.3317204301075269 0.6682795698924732 )
( 0.0 1.0 ))
(( 0.3108910891089109 0.689108910891089 )
( 0.0 1.0 )
( 0.403721432983323 0.5962785670166769 )
( 0.0 1.0 ))
(( 0.008319467554076539 0.9916805324459235 )
( 0.0 1.0 )
( 0.4198435570193495 0.5801564429806505 )
( 0.0 1.0 ))
(( 0.09348230912476722 0.9065176908752328 )
( 0.0 1.0 )
( 0.06826078070713264 0.9317392192928674 )
( 0.0 1.0 ))
(( 0.0017050298380221654 0.9982949701619779 )
( 0.0 1.0 )
( 0.5110748426206575 0.4889251573793425 )
( 0.0 1.0 ))
(( 0.39777355416779797 0.602226445832202 )
( 0.0 1.0 )
( 0.3666620053139421 0.6333379946860579 )
( 0.0 1.0 ))
(( 0.059383499546690845 0.9406165004533091 )
( 0.0 1.0 )
( 0.5658687031869585 0.4341312968130416 )
( 0.0 1.0 ))
(( 0.40038650737877723 0.5996134926212228 )
( 0.0 1.0 )
( 0.38445364765848994 0.61554635234151 )
( 0.0 1.0 )))
((( 0.3755984555984556 0.6244015444015444 )
( 0.0 1.0 )
( 0.030405405405405407 0.9695945945945946 )
( 0.0 1.0 ))
(( 0.4115942028985507 0.5884057971014492 )
( 0.0 1.0 )
( 0.09563812600969306 0.904361873990307 )
( 0.0 1.0 ))
(( 0.08772903942254304 0.9122709605774569 )
( 0.0 1.0 )
( 0.003036437246963563 0.9969635627530364 )
( 0.0 1.0 ))
(( 0.5013829519738496 0.49861704802615037 )
( 0.0 1.0 )
( 0.3488278092158448 0.6511721907841552 )
( 0.0 1.0 ))
(( 0.3376940770557792 0.6623059229442209 )
( 0.0 1.0 )
( 0.08695652173913043 0.9130434782608695 )
( 0.0 1.0 ))
(( 0.5242937853107345 0.47570621468926555 )
( 0.0 1.0 )
( 0.3988472622478386 0.6011527377521614 )
( 0.0 1.0 ))
(( 0.4034732358285425 0.5965267641714576 )
( 0.0 1.0 )
( 0.2579308712121212 0.7420691287878788 )
( 0.0 1.0 ))
(( 0.08440366972477065 0.9155963302752294 )
( 0.0 1.0 )
( 0.2913440425286028 0.7086559574713972 )
( 0.0 1.0 ))
(( 0.10942343459392437 0.8905765654060757 )
( 0.0 1.0 )
( 0.15660717866452778 0.8433928213354722 )
( 0.0 1.0 ))
(( 0.018156424581005588 0.9818435754189944 )
( 0.0 1.0 )
( 0.39865665744764917 0.6013433425523509 )
( 0.0 1.0 ))
(( 0.2322075939706163 0.7677924060293837 )
( 0.0 1.0 )
( 0.3545706371191136 0.6454293628808865 )
( 0.0 1.0 ))
(( 0.16177861873226113 0.8382213812677389 )
( 0.0 1.0 )
( 0.39497180451127817 0.6050281954887218 )
( 0.0 1.0 ))
(( 0.34220110847189233 0.6577988915281077 )
( 0.0 1.0 )
( 0.40584672109560177 0.5941532789043982 )
( 0.0 1.0 ))));
}

potential (QTDTOT | VLTRAN MCC HORARIO)
{
 data = (((( 0.41680504815675856 0.39023580205911657 0.19295914978412487 )
( 0.523900940679593 0.3620656555960837 0.11403340372432329 )
( 0.6668878566688786 0.2583499225834992 0.0747622207476222 )
( 0.7767669699090273 0.17634709587123862 0.04688593421973408 ))
(( 0.8167053364269141 0.14617169373549885 0.037122969837587005 )
( 0.7591836734693878 0.2217687074829932 0.01904761904761905 )
( 0.9104477611940299 0.05970149253731344 0.02985074626865672 )
( 0.9391304347826087 0.060869565217391314 0.0 ))
(( 0.8936170212765958 0.04255319148936171 0.06382978723404256 )
( 0.9090909090909091 0.0 0.0909090909090909 )
( 0.4213885778275476 0.39988801791713324 0.17872340425531916 )
( 0.5216366391648426 0.3628556996127294 0.11550766122242802 ))
(( 0.6395929339477726 0.28513824884792627 0.07526881720430108 )
( 0.7351684859990508 0.201233981964879 0.06359753203607024 )
( 0.6821282401091405 0.24556616643929058 0.0723055934515689 )
( 0.7624847746650426 0.20341047503045068 0.0341047503045067 ))
(( 0.8085284280936454 0.16387959866220736 0.027591973244147156 )
( 0.8014732965009208 0.16243093922651933 0.03609576427255985 )
( 0.8574622694242594 0.11514812744550028 0.02738960313024036 )
( 0.7880299251870324 0.16708229426433915 0.04488778054862843 ))
(( 0.45890292438138086 0.3678837169060391 0.17321335871258003 )
( 0.631875 0.295625 0.0725 )
( 0.8 0.15433070866141732 0.04566929133858268 )
( 0.8471074380165289 0.12396694214876033 0.028925619834710745 ))
(( 0.8105263157894737 0.14736842105263157 0.042105263157894736 )
( 0.6863849765258216 0.2676056338028169 0.046009389671361506 )
( 0.754746835443038 0.20727848101265822 0.0379746835443038 )
( 0.8569277108433735 0.1144578313253012 0.0286144578313253 ))
(( 0.8541033434650456 0.12462006079027356 0.02127659574468085 )
( 0.8773584905660378 0.10377358490566038 0.018867924528301886 )
( 0.643140714600794 0.290251433612704 0.06660785178650198 )
( 0.7412223667100131 0.2184655396618986 0.040312093628088436 ))
(( 0.7660972404730618 0.18878668418747266 0.04511607533946562 )
( 0.8255227108868061 0.13338139870223503 0.0410958904109589 )
( 0.7650513950073421 0.19089574155653452 0.04405286343612335 )
( 0.504471041408722 0.37254092722520293 0.12298803136607511 ))
(( 0.6746337702390132 0.2636854279105629 0.061680801850424065 )
( 0.7991071428571429 0.16454081632653061 0.03635204081632653 )
( 0.844106463878327 0.11787072243346007 0.03802281368821293 )
( 0.8529411764705882 0.12745098039215685 0.0196078431372549 ))
(( 0.4849250463196901 0.3737577901296951 0.1413171635506148 )
( 0.6018885166006701 0.31769722814498935 0.08041425525434054 )
( 0.729775662814412 0.21651937457511897 0.053704962610469066 )
( 0.8045685279187818 0.14382402707275804 0.051607445008460234 ))
(( 0.7787418655097614 0.16268980477223427 0.05856832971800434 )
( 0.6074766355140186 0.3152647975077882 0.07725856697819315 )
( 0.6919831223628692 0.26751054852320677 0.04050632911392405 )
( 0.774746687451286 0.18550272798129383 0.03975058456742011 ))
(( 0.8023648648648649 0.16385135135135134 0.033783783783783786 )
( 0.7022058823529411 0.23529411764705882 0.0625 )
( 0.5682043650793651 0.3159722222222222 0.1158234126984127 )
( 0.7507122507122507 0.20797720797720798 0.04131054131054131 )))
((( 0.8156146179401993 0.1511627906976744 0.03322259136212625 )
( 0.8243340532757379 0.13390928725701945 0.04175665946724262 )
( 0.7377777777777778 0.16592592592592592 0.0962962962962963 )
( 0.5374038304141431 0.35504992633818955 0.10754624324766737 ))
(( 0.7263922518159807 0.2330508474576271 0.04055690072639225 )
( 0.853932584269663 0.12808988764044946 0.017977528089887646 )
( 0.9222222222222223 0.05 0.027777777777777776 )
( 0.9066666666666667 0.09333333333333334 0.0 ))
(( 0.37680737506065015 0.4004366812227074 0.2227559437166424 )
( 0.4868908417459511 0.3740286150047208 0.13908054324932823 )
( 0.5880438627520339 0.3019455252918288 0.11001061195613725 )
( 0.6825157232704403 0.23672955974842766 0.08075471698113207 ))
(( 0.5861237610500938 0.30431288507902493 0.10956335387088133 )
( 0.455329023702967 0.3760981269683408 0.16857284932869218 )
( 0.5780066646470766 0.3389881853983641 0.08300514995455922 )
( 0.6993058092802338 0.2422360248447205 0.05845816587504567 ))
(( 0.8254593175853019 0.14566929133858267 0.028871391076115485 )
( 0.7439024390243902 0.2032520325203252 0.052845528455284556 )
( 0.6331658291457287 0.35929648241206036 0.007537688442211056 )
( 1.0 0.0 0.0 ))
(( 0.6666666666666666 0.14285714285714285 0.19047619047619047 )
( 0.6000000000000001 0.0 0.4 )
( 0.4285714285714286 0.28571428571428575 0.28571428571428575 )
( 0.4826104746317513 0.38031914893617025 0.1370703764320786 ))
(( 0.5885214007782101 0.32749675745784695 0.08398184176394292 )
( 0.6891557753444013 0.2557400211939244 0.05510420346167432 )
( 0.7673469387755102 0.18775510204081633 0.044897959183673466 )
( 0.7266187050359713 0.2158273381294964 0.05755395683453238 ))
(( 0.8713692946058091 0.11203319502074689 0.016597510373443983 )
( 0.8454258675078865 0.1356466876971609 0.018927444794952685 )
( 0.8842105263157896 0.09473684210526317 0.02105263157894737 )
( 0.8620689655172413 0.10610079575596817 0.03183023872679045 ))
(( 0.8520408163265306 0.11224489795918367 0.03571428571428571 )
( 0.49538904899135444 0.35014409221902015 0.15446685878962535 )
( 0.684652278177458 0.2434052757793765 0.07194244604316546 )
( 0.8380281690140846 0.1302816901408451 0.03169014084507043 ))
(( 0.9090909090909091 0.0909090909090909 0.0 )
( 0.84 0.16 0.0 )
( 0.8109243697478992 0.1638655462184874 0.025210084033613446 )
( 0.859375 0.1171875 0.0234375 ))
(( 0.906832298136646 0.07453416149068323 0.018633540372670808 )
( 0.7868852459016393 0.11475409836065574 0.09836065573770492 )
( 0.8275862068965517 0.17241379310344826 0.0 )
( 0.7298136645962734 0.23291925465838512 0.03726708074534162 ))
(( 0.7879282218597065 0.1745513866231648 0.03752039151712888 )
( 0.8073089700996677 0.16832779623477298 0.024363233665559248 )
( 0.8373702422145329 0.12110726643598617 0.041522491349480974 )
( 0.8146964856230032 0.1501597444089457 0.03514376996805112 ))
(( 0.5576679340937896 0.3428390367553866 0.09949302915082382 )
( 0.7446808510638298 0.21129860601614087 0.04402054292002935 )
( 0.8226950354609929 0.14893617021276595 0.028368794326241134 )
( 0.8433734939759037 0.12048192771084337 0.03614457831325301 )))
((( 0.9024390243902439 0.0975609756097561 0.0 )
( 0.5478855721393034 0.34888059701492535 0.10323383084577115 )
( 0.6498480243161094 0.2924012158054711 0.057750759878419454 )
( 0.7665615141955836 0.19400630914826497 0.03943217665615142 ))
(( 0.8390022675736961 0.1292517006802721 0.031746031746031744 )
( 0.7857142857142857 0.16883116883116883 0.045454545454545456 )
( 0.6488651535380507 0.2857142857142857 0.06542056074766354 )
( 0.73558648111332 0.21669980119284293 0.04771371769383698 ))
(( 0.8092307692307693 0.1553846153846154 0.03538461538461539 )
( 0.8253968253968255 0.14285714285714288 0.03174603174603175 )
( 0.8367346938775511 0.11224489795918367 0.05102040816326531 )
( 0.6441507586882036 0.2692119432207538 0.08663729809104258 ))
(( 0.8575 0.12 0.0225 )
( 0.8546255506607929 0.11343612334801761 0.031938325991189426 )
( 0.8842105263157896 0.09473684210526317 0.02105263157894737 )
( 0.7638888888888888 0.125 0.1111111111111111 ))
(( 0.6035537430818526 0.31896300611709877 0.07748325080104865 )
( 0.771875 0.178125 0.05 )
( 0.834375 0.13125 0.034375 )
( 0.9148936170212766 0.08510638297872339 0.0 ))
(( 0.8076923076923077 0.11538461538461539 0.07692307692307693 )
( 0.45044694908666927 0.37602020987174506 0.1735328410415857 )
( 0.5732622103683948 0.32522087014502415 0.10151691948658109 )
( 0.688434048083171 0.2358674463937622 0.07569850552306694 ))
(( 0.7701221421860319 0.1782023175696837 0.05167554024428437 )
( 0.7325249643366619 0.20827389443651925 0.05920114122681883 )
( 0.5062404870624049 0.37534246575342467 0.11841704718417047 )
( 0.6041666666666666 0.3189102564102564 0.07692307692307693 ))
(( 0.7315634218289085 0.2200589970501475 0.04837758112094395 )
( 0.8138528138528138 0.1471861471861472 0.03896103896103896 )
( 0.6470588235294118 0.22875816993464052 0.12418300653594772 )
( 0.8582995951417004 0.13360323886639677 0.008097165991902834 ))
(( 0.858974358974359 0.14102564102564102 0.0 )
( 0.9325842696629214 0.06741573033707865 0.0 )
( 1.0 0.0 0.0 )
( 0.75 0.25 0.0 ))
(( 0.5603181617322139 0.34246575342465757 0.0972160848431286 )
( 0.642706131078224 0.28259337561663145 0.07470049330514447 )
( 0.7538699690402477 0.20588235294117646 0.04024767801857585 )
( 0.7673860911270983 0.17985611510791366 0.05275779376498801 ))
(( 0.775 0.16666666666666666 0.058333333333333334 )
( 0.8738738738738738 0.0990990990990991 0.02702702702702703 )
( 0.9243697478991597 0.07563025210084034 0.0 )
( 0.8838174273858922 0.10373443983402492 0.012448132780082988 ))
(( 0.9098360655737705 0.05737704918032787 0.03278688524590164 )
( 0.8604651162790699 0.0930232558139535 0.04651162790697675 )
( 0.4951644100580271 0.35319148936170214 0.15164410058027078 )
( 0.7003424657534246 0.21575342465753425 0.0839041095890411 ))
(( 0.84472049689441 0.10559006211180125 0.049689440993788817 )
( 0.7826086956521738 0.21739130434782608 0.0 )
( 0.7058823529411765 0.17647058823529413 0.11764705882352941 )
( 0.8571428571428572 0.07142857142857144 0.07142857142857144 )))
((( 1.0 0.0 0.0 )
( 1.0 0.0 0.0 )
( 1.0 0.0 0.0 )
( 1.0 0.0 0.0 ))
(( 0.7827225130890053 0.18062827225130892 0.03664921465968587 )
( 0.7819905213270142 0.18009478672985782 0.037914691943127965 )
( 0.8517241379310345 0.13793103448275862 0.010344827586206896 )
( 0.864321608040201 0.12562814070351758 0.010050251256281407 ))
(( 0.8402777777777778 0.1388888888888889 0.020833333333333332 )
( 0.6137184115523466 0.31309484739087634 0.07318674105677717 )
( 0.775330396475771 0.18355359765051396 0.041116005873715125 )
( 0.8483870967741935 0.11612903225806452 0.035483870967741936 ))
(( 0.8709677419354839 0.12903225806451613 0.0 )
( 0.6250000000000001 0.375 0.0 )
( 0.5967213114754099 0.31868852459016395 0.08459016393442623 )
( 0.6980132450331126 0.2423841059602649 0.059602649006622516 ))
(( 0.7859712230215827 0.17446043165467626 0.039568345323741004 )
( 0.8802816901408451 0.09154929577464789 0.028169014084507043 )
( 0.8979591836734694 0.10204081632653061 0.0 )
( 0.8074074074074075 0.17407407407407408 0.018518518518518517 ))
(( 0.8910256410256411 0.08974358974358974 0.019230769230769232 )
( 0.8269230769230769 0.15384615384615385 0.019230769230769232 )
( 0.7613636363636364 0.20454545454545456 0.03409090909090909 )
( 0.7941176470588235 0.14705882352941177 0.058823529411764705 ))
(( 0.6207556193208991 0.28359636537541844 0.09564801530368244 )
( 0.8650306748466258 0.11860940695296524 0.016359918200409 )
( 0.8601769911504424 0.11858407079646018 0.021238938053097345 )
( 0.7710526315789473 0.18157894736842106 0.04736842105263158 ))
(( 0.6559139784946236 0.24193548387096775 0.10215053763440861 )
( 0.5565862708719852 0.3417851989280561 0.10162853019995877 )
( 0.7164473684210527 0.2368421052631579 0.04671052631578948 )
( 0.8125689084895259 0.14994487320837926 0.037486218302094816 ))
(( 0.8367346938775511 0.15306122448979592 0.01020408163265306 )
( 0.8970588235294118 0.10294117647058823 0.0 )
( 0.5171898355754858 0.3515695067264574 0.1312406576980568 )
( 0.6440323063116961 0.27550104696380495 0.08046664672449895 ))
(( 0.7503750375037503 0.19501950195019502 0.054605460546054606 )
( 0.8093049971280873 0.14646754738655945 0.04422745548535324 )
( 0.7461734693877551 0.1747448979591837 0.07908163265306123 )
( 0.5644852659778034 0.33716035208572526 0.0983543819364715 ))
(( 0.7354709418837675 0.22645290581162325 0.03807615230460922 )
( 0.8571428571428571 0.11607142857142858 0.026785714285714284 )
( 0.8712871287128713 0.07920792079207921 0.04950495049504951 )
( 0.84375 0.09375 0.0625 ))
(( 0.9511278195488722 0.048872180451127824 0.0 )
( 1.0 0.0 0.0 )
( 1.0 0.0 0.0 )
( 1.0 0.0 0.0 ))
(( 1.0 0.0 0.0 )
( 0.7623873873873874 0.17792792792792791 0.059684684684684686 )
( 0.7770419426048565 0.17439293598233996 0.04856512141280353 )
( 0.8189189189189189 0.14054054054054055 0.04054054054054054 )))
((( 0.8571428571428572 0.09821428571428573 0.04464285714285715 )
( 0.75 0.18181818181818182 0.06818181818181818 )
( 0.8640776699029127 0.10679611650485438 0.029126213592233014 )
( 0.8727272727272727 0.09545454545454546 0.031818181818181815 ))
(( 0.8978805394990367 0.09441233140655107 0.007707129094412332 )
( 0.9256505576208178 0.06691449814126393 0.007434944237918215 )
( 0.9111111111111111 0.08888888888888889 0.0 )
( 0.5561601243684415 0.3276331130975515 0.116206762534007 ))
(( 0.7090032154340836 0.2427652733118971 0.04823151125401929 )
( 0.8755980861244019 0.10526315789473684 0.019138755980861243 )
( 0.921875 0.046875 0.03125 )
( 0.736842105263158 0.15789473684210528 0.10526315789473685 ))
(( 0.8669950738916257 0.11330049261083744 0.019704433497536946 )
( 0.942528735632184 0.0574712643678161 0.0 )
( 0.9242424242424242 0.07575757575757576 0.0 )
( 0.875 0.0 0.125 ))
(( 0.7857142857142857 0.2142857142857143 0.0 )
( 0.8760330578512396 0.10330578512396695 0.02066115702479339 )
( 0.8879310344827585 0.08620689655172413 0.025862068965517234 )
( 0.8852459016393442 0.07377049180327869 0.040983606557377046 ))
(( 0.8888888888888888 0.0 0.1111111111111111 )
( 1.0 0.0 0.0 )
( 0.6999022482893451 0.25317693059628543 0.0469208211143695 )
( 0.8543046357615894 0.12582781456953643 0.019867549668874173 ))
(( 0.9438775510204082 0.04591836734693878 0.01020408163265306 )
( 0.8333333333333334 0.16666666666666669 0.0 )
( 1.0 0.0 0.0 )
( 0.7885245901639344 0.17540983606557378 0.036065573770491806 ))
(( 0.842948717948718 0.13141025641025642 0.02564102564102564 )
( 0.8376068376068376 0.1452991452991453 0.017094017094017096 )
( 0.8513513513513513 0.12162162162162163 0.02702702702702703 )
( 0.7894736842105263 0.10526315789473684 0.10526315789473684 ))
(( 0.8926174496644296 0.087248322147651 0.020134228187919462 )
( 0.8837209302325582 0.046511627906976744 0.06976744186046512 )
( 0.8024691358024691 0.1111111111111111 0.08641975308641975 )
( 0.9374999999999999 0.0 0.0625 ))
(( 0.7058823529411765 0.23529411764705882 0.058823529411764705 )
( 0.6361111111111111 0.2263888888888889 0.1375 )
( 0.9166666666666667 0.07323232323232325 0.010101010101010104 )
( 0.8783783783783784 0.10231660231660232 0.019305019305019305 ))
(( 0.7634408602150538 0.16845878136200718 0.06810035842293907 )
( 0.6144578313253012 0.22289156626506024 0.16265060240963855 )
( 0.7151515151515152 0.23939393939393938 0.045454545454545456 )
( 0.8158730158730159 0.1619047619047619 0.022222222222222223 ))
(( 0.898876404494382 0.0898876404494382 0.011235955056179775 )
( 0.8409090909090909 0.09090909090909091 0.06818181818181818 )
( 0.7727272727272727 0.2272727272727273 0.0 )
( 0.5107462288079028 0.35309037511680685 0.13616339607529035 ))
(( 0.6157072943369843 0.2980657189466325 0.08622698671638312 )
( 0.7284002522598276 0.21147782215682154 0.06012192558335085 )
( 0.7971130713712911 0.15236567762630313 0.05052125100240577 )
( 0.7040229885057472 0.2088122605363985 0.08716475095785442 ))));
}

potential (QTDTOTMCC | HORARIO QTDTOT LIMCONC)
{
 data = (((( 1.0 0.0 0.0 0.0 0.0 0.0 0.0 0.0 0.0 0.0 0.0 0.0 )
( 0.0 0.0 0.0 1.0 0.0 0.0 0.0 0.0 0.0 0.0 0.0 0.0 )
( 0.0 0.0 0.0 0.0 0.0 0.0 1.0 0.0 0.0 0.0 0.0 0.0 )
( 0.0 0.0 0.0 0.0 0.0 0.0 0.0 0.0 0.0 1.0 0.0 0.0 ))
(( 0.5245747957680461 0.4754252042319539 0.0 0.0 0.0 0.0 0.0 0.0 0.0 0.0 0.0 0.0 )
( 0.0 0.0 0.0 0.5120627261761158 0.48793727382388424 0.0 0.0 0.0 0.0 0.0 0.0 0.0 )
( 0.0 0.0 0.0 0.0 0.0 0.0 0.5301353013530136 0.4698646986469865 0.0 0.0 0.0 0.0 )
( 0.0 0.0 0.0 0.0 0.0 0.0 0.0 0.0 0.0 0.5956937799043063 0.4043062200956938 0.0 ))
(( 0.368551724137931 0.2791724137931034 0.35227586206896544 0.0 0.0 0.0 0.0 0.0 0.0 0.0 0.0 0.0 )
( 0.0 0.0 0.0 0.3182135380321005 0.27424982554082344 0.40753663642707605 0.0 0.0 0.0 0.0 0.0 0.0 )
( 0.0 0.0 0.0 0.0 0.0 0.0 0.37277147487844403 0.26580226904376014 0.36142625607779577 0.0 0.0 0.0 )
( 0.0 0.0 0.0 0.0 0.0 0.0 0.0 0.0 0.0 0.5132075471698113 0.23773584905660375 0.24905660377358488 )))
((( 1.0 0.0 0.0 0.0 0.0 0.0 0.0 0.0 0.0 0.0 0.0 0.0 )
( 0.0 0.0 0.0 1.0 0.0 0.0 0.0 0.0 0.0 0.0 0.0 0.0 )
( 0.0 0.0 0.0 0.0 0.0 0.0 1.0 0.0 0.0 0.0 0.0 0.0 )
( 0.0 0.0 0.0 0.0 0.0 0.0 0.0 0.0 0.0 1.0 0.0 0.0 ))
(( 0.635854816824966 0.3641451831750339 0.0 0.0 0.0 0.0 0.0 0.0 0.0 0.0 0.0 0.0 )
( 0.0 0.0 0.0 0.637731196054254 0.362268803945746 0.0 0.0 0.0 0.0 0.0 0.0 0.0 )
( 0.0 0.0 0.0 0.0 0.0 0.0 0.6801421590404265 0.31985784095957354 0.0 0.0 0.0 0.0 )
( 0.0 0.0 0.0 0.0 0.0 0.0 0.0 0.0 0.0 0.6901998710509349 0.3098001289490651 0.0 ))
(( 0.45610630038817557 0.2612720214989549 0.28262167811286953 0.0 0.0 0.0 0.0 0.0 0.0 0.0 0.0 0.0 )
( 0.0 0.0 0.0 0.44051691372101864 0.2519954389965793 0.30748764728240213 0.0 0.0 0.0 0.0 0.0 0.0 )
( 0.0 0.0 0.0 0.0 0.0 0.0 0.5077047850770479 0.22546634225466342 0.26682887266828875 0.0 0.0 0.0 )
( 0.0 0.0 0.0 0.0 0.0 0.0 0.0 0.0 0.0 0.5599613152804642 0.230174081237911 0.20986460348162475 )))
((( 1.0 0.0 0.0 0.0 0.0 0.0 0.0 0.0 0.0 0.0 0.0 0.0 )
( 0.0 0.0 0.0 1.0 0.0 0.0 0.0 0.0 0.0 0.0 0.0 0.0 )
( 0.0 0.0 0.0 0.0 0.0 0.0 1.0 0.0 0.0 0.0 0.0 0.0 )
( 0.0 0.0 0.0 0.0 0.0 0.0 0.0 0.0 0.0 1.0 0.0 0.0 ))
(( 0.734894831905844 0.265105168094156 0.0 0.0 0.0 0.0 0.0 0.0 0.0 0.0 0.0 0.0 )
( 0.0 0.0 0.0 0.7593126967471143 0.24068730325288562 0.0 0.0 0.0 0.0 0.0 0.0 0.0 )
( 0.0 0.0 0.0 0.0 0.0 0.0 0.7910412757973734 0.20895872420262662 0.0 0.0 0.0 0.0 )
( 0.0 0.0 0.0 0.0 0.0 0.0 0.0 0.0 0.0 0.7947536334633108 0.20524636653668915 0.0 ))
(( 0.5868263473053893 0.22380239520958084 0.18937125748502995 0.0 0.0 0.0 0.0 0.0 0.0 0.0 0.0 0.0 )
( 0.0 0.0 0.0 0.6147015293537247 0.20572274296990625 0.17957572767636903 0.0 0.0 0.0 0.0 0.0 0.0 )
( 0.0 0.0 0.0 0.0 0.0 0.0 0.643312101910828 0.16196542311191994 0.19472247497725204 0.0 0.0 0.0 )
( 0.0 0.0 0.0 0.0 0.0 0.0 0.0 0.0 0.0 0.6517739816031538 0.17608409986859397 0.1721419185282523 )))
((( 1.0 0.0 0.0 0.0 0.0 0.0 0.0 0.0 0.0 0.0 0.0 0.0 )
( 0.0 0.0 0.0 1.0 0.0 0.0 0.0 0.0 0.0 0.0 0.0 0.0 )
( 0.0 0.0 0.0 0.0 0.0 0.0 1.0 0.0 0.0 0.0 0.0 0.0 )
( 0.0 0.0 0.0 0.0 0.0 0.0 0.0 0.0 0.0 1.0 0.0 0.0 ))
(( 0.7654732784819509 0.23452672151804907 0.0 0.0 0.0 0.0 0.0 0.0 0.0 0.0 0.0 0.0 )
( 0.0 0.0 0.0 0.7924000658002961 0.2075999341997039 0.0 0.0 0.0 0.0 0.0 0.0 0.0 )
( 0.0 0.0 0.0 0.0 0.0 0.0 0.8193939393939393 0.1806060606060606 0.0 0.0 0.0 0.0 )
( 0.0 0.0 0.0 0.0 0.0 0.0 0.0 0.0 0.0 0.8299270072992702 0.17007299270072992 0.0 ))
(( 0.6270531400966184 0.2166183574879227 0.15632850241545895 0.0 0.0 0.0 0.0 0.0 0.0 0.0 0.0 0.0 )
( 0.0 0.0 0.0 0.6784203102961919 0.18570756934649743 0.13587212035731075 0.0 0.0 0.0 0.0 0.0 0.0 )
( 0.0 0.0 0.0 0.0 0.0 0.0 0.7026239067055393 0.1661807580174927 0.13119533527696794 0.0 0.0 0.0 )
( 0.0 0.0 0.0 0.0 0.0 0.0 0.0 0.0 0.0 0.7396593673965937 0.14720194647201945 0.11313868613138685 ))));
}

potential (MODALIDADE | LIMCONC DOMESTICO QTDTOT LOCALIDADE)
{
 data = ((((( 0.10278495549813381 0.18288831467126043 0.7024117140396211 0.011340798162503591 5.742176284811945E-4 )
( 0.2993596820490175 0.04672113049238243 0.6525943916979466 6.62397880326783E-4 6.62397880326783E-4 ))
(( 0.5447387845485114 0.009554662511276962 0.43643894037562536 0.007176248667268105 0.002091363897318133 )
( 0.8883285780638313 7.298785747462014E-4 7.962311724504014E-4 0.10118771149890518 0.008957600690067015 ))
(( 0.10482904476559746 0.0698625308424392 0.7921043355657384 0.021290095170955235 0.01191399365526965 )
( 0.4663244463556224 0.008412169425929908 0.4653300365512793 0.0211244893571275 0.03880885831004085 )))
((( 0.6076849979289004 0.0030944665091006554 0.2989936892375917 0.046173338856265685 0.044053507468141614 )
( 0.8265099701377516 3.5320938894775714E-4 0.0010596281668432714 0.11312333429663167 0.058953858009825645 ))
(( 0.036010288653901115 0.1834809945698771 0.7739354101171764 0.006001714775650186 5.715918833952558E-4 )
( 0.2081132075471698 0.019056603773584906 0.7724528301886793 1.8867924528301886E-4 1.8867924528301886E-4 ))
(( 0.5653117600631413 0.002663772691397001 0.42797947908445144 0.0031570639305445935 8.87924230465667E-4 )
( 0.926022868163659 0.0 0.0012398401983744318 0.0702576112412178 0.0024796803967488635 ))))
(((( 0.04331241540543866 0.03851359665313154 0.9144825889011936 0.0018456995201181247 0.0018456995201181247 )
( 0.4363117358754779 0.004254860774492378 0.5448914741207518 0.004201001777346905 0.010340927451930843 ))
(( 0.7046568627450981 6.393861892583121E-4 0.2631606990622336 0.017849531116794545 0.013693520886615516 )
( 0.9064817029418799 0.0 4.7835446065534564E-4 0.07408514709399665 0.01895479550346807 ))
(( 0.015211640211640213 0.1541005291005291 0.7923280423280423 0.03835978835978836 0.0 )
( 0.13306666666666667 0.013333333333333332 0.8536 0.0 0.0 )))
((( 0.5713312904324139 0.0034048348655090223 0.4201566224038134 0.005107252298263534 0.0 )
( 0.9399029488615154 0.0 0.0 0.05599104143337066 0.004106009705113847 ))
(( 0.025511492801212426 0.02904773932811316 0.9421571103814095 0.0022733013387218996 0.0010103561505430665 )
( 0.3787970838396112 0.0016707168894289186 0.6149756986634265 0.002278250303766707 0.002278250303766707 ))
(( 0.7578337257743163 3.622532149972831E-4 0.22640825937330195 0.011229849664915775 0.004165911972468755 )
( 0.9310456984875589 0.0 6.505122784192551E-4 0.06066026996259555 0.007643519271426248 ))))
(((( 0.2 0.2 0.2 0.2 0.2 )
( 0.2 0.2 0.2 0.2 0.2 ))
(( 0.2 0.2 0.2 0.2 0.2 )
( 0.2 0.2 0.2 0.2 0.2 ))
(( 0.031848659003831416 0.023227969348659006 0.9375 0.0028735632183908046 0.004549808429118774 )
( 0.46849497058265327 0.0038906813437084835 0.5167014613778705 0.0013285253368760675 0.00958436135889163 )))
((( 0.7438924605493864 3.506721215663355E-4 0.24301578024547052 0.006545879602571596 0.006195207481005261 )
( 0.963228115847706 0.0 0.0 0.023267165636186138 0.013504718516108039 ))
(( 0.2 0.2 0.2 0.2 0.2 )
( 0.2 0.2 0.2 0.2 0.2 ))
(( 0.2 0.2 0.2 0.2 0.2 )
( 0.2 0.2 0.2 0.2 0.2 ))))
(((( 0.018101761252446183 0.01223091976516634 0.9662426614481409 9.784735812133072E-4 0.002446183953033268 )
( 0.41711860410280593 0.0018863475595378447 0.5786371138882338 0.0 0.002357934449422306 ))
(( 0.8130464021519839 0.0 0.17989240080699395 0.004034969737726967 0.003026227303295225 )
( 0.9853360488798372 0.0 0.0 0.0109979633401222 0.0036659877800407333 ))
(( 0.2 0.2 0.2 0.2 0.2 )
( 0.2 0.2 0.2 0.2 0.2 )))
((( 0.2 0.2 0.2 0.2 0.2 )
( 0.2 0.2 0.2 0.2 0.2 ))
(( 0.0163265306122449 0.013605442176870748 0.9619047619047619 0.0 0.00816326530612245 )
( 0.34365079365079365 0.0 0.6563492063492063 0.0 0.0 ))
(( 0.8540051679586563 0.0 0.13824289405684756 0.002583979328165375 0.00516795865633075 )
( 0.9924924924924926 0.0 0.0 0.0045045045045045045 0.0030030030030030034 )))));
}

potential (LIMDISP | LIMCONC MODALIDADE QTDTOT)
{
 data = (((( 0.6033376123234917 0.23577235772357724 0.06033376123234917 0.10055626872058195 )
( 0.3520710059171598 0.31866657492775563 0.26310719691757256 0.06615522223751204 )
( 0.23925183341182804 0.2248312364035973 0.25465922088407456 0.28125770930050015 ))
(( 0.19687451441763412 0.15159049035494684 0.1830229305866945 0.46851206464072453 )
( 0.856840321897501 0.14315967810249894 0.0 0.0 )
( 0.571529745042493 0.37535410764872523 0.05311614730878188 0.0 ))
(( 0.24725274725274726 0.31043956043956045 0.3269230769230769 0.11538461538461539 )
( 0.0 0.08695652173913043 0.13043478260869565 0.782608695652174 )
( 0.7066600149663258 0.2844599650785732 0.006734846595160888 0.0021451733599401348 ))
(( 0.45314081730513084 0.36275241089029786 0.16346102616015773 0.020645745644413665 )
( 0.26062254941185886 0.2558213971353125 0.2694646715211651 0.2140913819316636 )
( 0.0 0.0 0.15555555555555556 0.8444444444444444 ))
(( 0.5 0.17766497461928935 0.03299492385786802 0.2893401015228426 )
( 0.30392156862745096 0.3284313725490196 0.21200980392156862 0.1556372549019608 )
( 0.18194640338504936 0.1922896097790315 0.3145275035260931 0.31123648330982606 )))
((( 0.1469568567026194 0.0812788906009245 0.11036209553158706 0.661402157164869 )
( 0.8952879581151832 0.10471204188481674 0.0 0.0 )
( 0.41639974375400385 0.3382447149263293 0.2158872517616912 0.029468289557975657 ))
(( 0.2190277051751176 0.23784631468897022 0.2843700993204391 0.25875588081547307 )
( 0.12798053527980535 0.11727493917274939 0.17956204379562044 0.5751824817518248 )
( 0.7906976744186047 0.12790697674418608 0.04263565891472869 0.03875968992248063 ))
(( 0.45681874637741166 0.3081063177941542 0.2083298832491513 0.02674505257928294 )
( 0.29306634228501915 0.21016187891831198 0.24487695330775708 0.2518948254889118 )
( 0.20352234384001316 0.127602666447206 0.15319726771459138 0.5156777219981894 ))
(( 0.9560776302349336 0.043922369765066395 0.0 0.0 )
( 0.7708333333333334 0.22916666666666669 0.0 0.0 )
( 0.4146341463414634 0.4146341463414634 0.12195121951219512 0.04878048780487805 ))
(( 0.25 0.25 0.25 0.25 )
( 0.8529217563552328 0.1452624628590294 0.0013205678441729947 4.95212941564873E-4 )
( 0.5848747591522158 0.31122350674373794 0.09990366088631984 0.003998073217726397 )))
((( 0.34362580250687863 0.23621726281463365 0.26342606746153063 0.1567308672169571 )
( 0.0 0.0 0.3529411764705882 0.6470588235294118 )
( 0.42105263157894735 0.13157894736842105 0.0 0.4473684210526316 ))
(( 0.573170731707317 0.18292682926829268 0.12195121951219512 0.12195121951219512 )
( 0.2657894736842105 0.26842105263157895 0.24473684210526317 0.22105263157894736 )
( 0.11986494091164884 0.057962858750703436 0.07259425998874508 0.7495779403489027 ))
(( 1.0 0.0 0.0 0.0 )
( 0.6390243902439025 0.22926829268292684 0.11707317073170732 0.014634146341463415 )
( 0.2463768115942029 0.2427536231884058 0.3079710144927536 0.2028985507246377 ))
(( 0.1246376811594203 0.06376811594202898 0.13333333333333333 0.6782608695652174 )
( 0.7518248175182483 0.20437956204379565 0.021897810218978107 0.021897810218978107 )
( 0.5322439451415232 0.27487598482637876 0.17332944266121972 0.01955062737087832 ))
(( 0.3628142244022073 0.19144696505211528 0.22348252605763338 0.22225628448804416 )
( 0.22212240314430096 0.10072992700729927 0.1231892195395845 0.5539584503088153 )
( 0.9635854341736695 0.036414565826330535 0.0 0.0 )))
((( 0.7540983606557378 0.24590163934426232 0.0 0.0 )
( 0.38461538461538464 0.3076923076923077 0.3076923076923077 0.0 )
( 0.25 0.25 0.25 0.25 ))
(( 0.8977817213842059 0.1007985803016859 0.001419698314108252 0.0 )
( 0.6694726417430057 0.26603119584055457 0.0620203020549641 0.0024758603614756128 )
( 0.42939814814814814 0.20679012345679013 0.23842592592592593 0.1253858024691358 ))
(( 0.0 0.0 0.0 1.0 )
( 0.1492537313432836 0.0 0.0 0.8507462686567164 )
( 0.4444444444444444 0.2777777777777778 0.16666666666666666 0.1111111111111111 ))
(( 0.3875 0.175 0.1875 0.25 )
( 0.0967741935483871 0.020872865275142316 0.0683111954459203 0.8140417457305503 )
( 1.0 0.0 0.0 0.0 ))
(( 0.8125 0.0 0.1875 0.0 )
( 0.46428571428571425 0.35714285714285715 0.17857142857142858 0.0 )
( 0.3114754098360656 0.08196721311475409 0.04918032786885246 0.5573770491803278 ))));
}

potential (ENTRYMODE | MCC DOMESTICO QTDTOT HORARIO)
{
 data = ((((( 0.79976717112922 0.17578579743888242 0.024447031431897557 )
( 0.0 0.8529411764705882 0.14705882352941174 )
( 0.627790973871734 0.3434679334916865 0.028741092636579573 )
( 0.049600000000000005 0.9440000000000001 0.006400000000000001 ))
(( 0.8943661971830986 0.0539906103286385 0.051643192488262914 )
( 1.0 0.0 0.0 )
( 0.7145708582834331 0.2698602794411178 0.015568862275449102 )
( 0.645605700712589 0.32494061757719717 0.029453681710213776 ))
(( 0.763855421686747 0.20321285140562248 0.03293172690763052 )
( 0.8253424657534247 0.12328767123287672 0.051369863013698634 )
( 0.3735294117647059 0.5623529411764706 0.06411764705882353 )
( 0.7410032715376227 0.23500545256270447 0.023991275899672846 )))
((( 0.47709755560449246 0.3906628495926008 0.13223959480290687 )
( 0.7038216560509554 0.11743630573248408 0.1787420382165605 )
( 0.1482843137254902 0.6004901960784313 0.2512254901960784 )
( 0.5805527888446215 0.14168326693227093 0.2777639442231076 ))
(( 0.2323479570702316 0.40933910751270947 0.35831293541705894 )
( 0.8515392254220456 0.12636544190665341 0.022095332671300892 )
( 0.6268656716417911 0.07835820895522388 0.2947761194029851 )
( 0.7004844685095469 0.1085779424337418 0.19093758905671132 ))
(( 0.5493333333333333 0.17784615384615385 0.27282051282051284 )
( 0.6343809033144427 0.10956551605701528 0.256053580628542 )
( 0.6396965865992414 0.07553729456384324 0.28476611883691527 )
( 0.26495098039215687 0.6240196078431373 0.11102941176470588 ))))
(((( 0.6339187705817783 0.13529088913282108 0.23079034028540066 )
( 0.48829462819610603 0.24339666901243256 0.2683087027914614 )
( 0.8787037037037037 0.1125 0.008796296296296297 )
( 0.3333333333333333 0.3333333333333333 0.3333333333333333 ))
(( 0.7134853941576631 0.2549019607843137 0.031612645058023206 )
( 0.06818181818181818 0.9090909090909091 0.022727272727272728 )
( 0.9239766081871345 0.03508771929824561 0.04093567251461988 )
( 1.0 0.0 0.0 ))
(( 0.8192019950124689 0.15960099750623444 0.021197007481296763 )
( 0.7025023169601483 0.26876737720111216 0.028730305838739572 )
( 0.8881524440762221 0.1035625517812759 0.008285004142502071 )
( 0.8939393939393939 0.045454545454545456 0.06060606060606061 )))
((( 0.3539019963702359 0.6361161524500907 0.00998185117967332 )
( 0.8044198895027624 0.1878453038674033 0.0077348066298342545 )
( 0.576662143826323 0.3368385345997286 0.08649932157394843 )
( 0.778247096092925 0.11066525871172123 0.11108764519535375 ))
(( 0.1005586592178771 0.7262569832402235 0.17318435754189945 )
( 0.6289260861388001 0.18111717133722025 0.18995674252397968 )
( 0.21759697256385999 0.45411542100283825 0.3282876064333018 )
( 0.8891481913652275 0.10929599377674057 0.0015558148580318942 ))
(( 0.6987060998151571 0.06839186691312385 0.23290203327171904 )
( 0.8210862619808307 0.07454739084132056 0.10436634717784878 )
( 0.6494648318042814 0.154434250764526 0.19610091743119265 )
( 0.7212389380530974 0.1133424098025868 0.16541865214431586 ))))
(((( 0.7476231633535004 0.06482281763180639 0.18755401901469318 )
( 0.2733699921445405 0.6897093479968579 0.03692065985860173 )
( 0.7106741573033708 0.1252808988764045 0.16404494382022472 )
( 0.6262674057050156 0.17912667297553062 0.19460592131945384 ))
(( 0.8775267538644471 0.10107015457788347 0.02140309155766944 )
( 1.0 0.0 0.0 )
( 0.7373167981961668 0.2277339346110485 0.03494926719278467 )
( 0.0 0.8928571428571429 0.10714285714285715 ))
(( 0.9242424242424243 0.04545454545454546 0.030303030303030307 )
( 0.3333333333333333 0.3333333333333333 0.3333333333333333 )
( 0.7974683544303798 0.14767932489451477 0.05485232067510549 )
( 0.7886435331230284 0.17981072555205047 0.031545741324921134 )))
((( 0.931350114416476 0.05034324942791762 0.018306636155606407 )
( 0.6 0.13333333333333333 0.26666666666666666 )
( 0.1883656509695291 0.7867036011080333 0.024930747922437674 )
( 0.8588709677419355 0.125 0.016129032258064516 ))
(( 0.630817364098553 0.2733672272193977 0.09581540868204928 )
( 0.79718456725756 0.07977059436913453 0.12304483837330554 )
( 0.0 0.7 0.3 )
( 0.6683544303797468 0.17316455696202532 0.15848101265822784 ))
(( 0.1574074074074074 0.4351851851851852 0.4074074074074074 )
( 0.9605866177818515 0.03941338221814849 0.0 )
( 0.7777777777777778 0.04040404040404041 0.18181818181818182 )
( 0.8203592814371258 0.0718562874251497 0.10778443113772455 ))))
(((( 0.7298636926889716 0.09541511771995044 0.17472118959107807 )
( 0.7929901423877328 0.0700985761226725 0.13691128148959475 )
( 0.8292682926829269 0.04471544715447155 0.12601626016260165 )
( 0.1486146095717884 0.8413098236775819 0.010075566750629723 ))
(( 0.8096192384769539 0.056112224448897796 0.1342685370741483 )
( 0.7402379499694937 0.12050030506406346 0.13926174496644297 )
( 0.8520255863539445 0.13688699360341153 0.011087420042643924 )
( 0.0 0.6666666666666666 0.3333333333333333 ))
(( 0.7218463987266216 0.26860326303223236 0.00955033824114604 )
( 0.04 0.9600000000000001 0.0 )
( 0.8854625550660793 0.07488986784140969 0.039647577092511016 )
( 1.0 0.0 0.0 )))
((( 0.8045685279187818 0.19204737732656516 0.00338409475465313 )
( 0.6812453669384729 0.3046701260192735 0.014084507042253521 )
( 0.8548644338118022 0.1331738437001595 0.011961722488038277 )
( 0.9066666666666667 0.09333333333333334 0.0 ))
(( 0.3786531130876747 0.5730622617534943 0.048284625158831 )
( 0.746954076850984 0.23617619493908154 0.016869728209934397 )
( 0.562890625 0.358984375 0.078125 )
( 0.7804248560651181 0.09330950962874728 0.1262656343061346 ))
(( 0.09440559440559441 0.8111888111888113 0.09440559440559441 )
( 0.6706809721918108 0.11254652945040508 0.21677249835778412 )
( 0.29658060013956733 0.4361479413817167 0.267271458478716 )
( 0.8762064624422996 0.11665967268149391 0.007133864876206463 ))))
(((( 0.6963249516441006 0.04642166344294004 0.2572533849129594 )
( 0.8183050847457627 0.07525423728813559 0.1064406779661017 )
( 0.5811623246492986 0.1676686706746827 0.2511690046760187 )
( 0.7221308780006577 0.1012824728707662 0.17658664912857613 ))
(( 0.7269881026925485 0.056355666875391355 0.21665623043206012 )
( 0.32849162011173183 0.6201117318435754 0.05139664804469274 )
( 0.624795193883124 0.1632987438558165 0.21190606226105954 )
( 0.5528089887640449 0.225187265917603 0.22200374531835207 ))
(( 0.9029126213592233 0.09111277072442121 0.00597460791635549 )
( 0.3333333333333333 0.3333333333333333 0.3333333333333333 )
( 0.7851500789889415 0.20063191153238547 0.014218009478672985 )
( 0.0 1.0 0.0 )))
((( 0.9518072289156626 0.048192771084337345 0.0 )
( 1.0 0.0 0.0 )
( 0.8976377952755906 0.08661417322834647 0.015748031496062995 )
( 0.740924092409241 0.24917491749174916 0.009900990099009901 ))
(( 0.9312714776632303 0.058419243986254296 0.010309278350515464 )
( 1.0 0.0 0.0 )
( 0.3890675241157556 0.5852090032154341 0.02572347266881029 )
( 0.8051948051948052 0.18614718614718614 0.008658008658008658 ))
(( 0.7113071371291099 0.24258219727345628 0.04611066559743384 )
( 0.8469032707028532 0.07132915796798886 0.08176757132915796 )
( 0.05333333333333334 0.9266666666666666 0.02 )
( 0.7177293934681181 0.14307931570762053 0.13919129082426127 ))))
(((( 0.29411764705882354 0.45454545454545453 0.25133689839572193 )
( 0.9081041968162084 0.09044862518089725 0.001447178002894356 )
( 0.72 0.06666666666666667 0.21333333333333335 )
( 0.8735632183908046 0.07471264367816093 0.05172413793103448 ))
(( 0.6610526315789473 0.14526315789473684 0.1936842105263158 )
( 0.7964470762398224 0.08586232420429311 0.11769059955588453 )
( 0.8026030368763557 0.06073752711496746 0.13665943600867678 )
( 0.3033268101761253 0.6849315068493151 0.011741682974559688 ))
(( 0.7239648682559598 0.12672521957340024 0.1493099121706399 )
( 0.720262364828931 0.14323701471370323 0.13650062045736572 )
( 0.9260869565217391 0.06304347826086956 0.010869565217391304 )
( 0.3333333333333333 0.3333333333333333 0.3333333333333333 )))
((( 0.8687150837988827 0.11452513966480447 0.01675977653631285 )
( 0.0 1.0 0.0 )
( 1.0 0.0 0.0 )
( 0.3333333333333333 0.3333333333333333 0.3333333333333333 ))
(( 0.8928571428571429 0.03571428571428571 0.07142857142857142 )
( 0.7597402597402598 0.20779220779220783 0.03246753246753247 )
( 0.910958904109589 0.06164383561643835 0.0273972602739726 )
( 0.8333333333333334 0.16666666666666666 0.0 ))
(( 0.30841121495327106 0.6448598130841122 0.04672897196261683 )
( 0.8790322580645161 0.0967741935483871 0.024193548387096774 )
( 0.751730959446093 0.19881305637982197 0.04945598417408507 )
( 0.872444011684518 0.03018500486854917 0.09737098344693282 ))))
(((( 0.5454545454545454 0.45454545454545453 0.0 )
( 0.75 0.13071065989847716 0.11928934010152284 )
( 0.25806451612903225 0.41935483870967744 0.3225806451612903 )
( 0.9743150684931506 0.025684931506849314 0.0 ))
(( 0.5 0.0 0.5 )
( 0.7704918032786885 0.11475409836065574 0.11475409836065574 )
( 0.7437810945273632 0.08706467661691543 0.1691542288557214 )
( 0.8895184135977338 0.039660056657223795 0.0708215297450425 ))
(( 0.7628865979381444 0.04123711340206186 0.19587628865979384 )
( 0.1513157894736842 0.8355263157894737 0.013157894736842105 )
( 0.8518518518518519 0.042328042328042326 0.10582010582010581 )
( 0.8351595998094331 0.07527393997141496 0.08956646021915197 )))
((( 0.9295323510570147 0.06534272901985906 0.005124919923126201 )
( 0.0 0.8846153846153846 0.11538461538461538 )
( 0.7954360228198859 0.1980440097799511 0.006519967400162999 )
( 0.10714285714285715 0.8928571428571429 0.0 ))
(( 0.9295154185022027 0.03524229074889868 0.03524229074889868 )
( 0.3333333333333333 0.3333333333333333 0.3333333333333333 )
( 0.8585657370517928 0.12350597609561753 0.017928286852589643 )
( 0.6977299880525688 0.29510155316606934 0.007168458781362008 ))
(( 0.91324200913242 0.076103500761035 0.0106544901065449 )
( 0.7966101694915254 0.15254237288135594 0.05084745762711865 )
( 0.22062168309325247 0.7103866565579985 0.06899166034874905 )
( 0.77625 0.2025 0.02125 ))))
(((( 0.5442631058358062 0.35311572700296734 0.1026211671612265 )
( 0.8596134282807731 0.0671414038657172 0.07324516785350967 )
( 0.027624309392265192 0.9613259668508287 0.011049723756906077 )
( 0.7236223835967536 0.09354976505766767 0.1828278513455788 ))
(( 0.3888888888888889 0.43333333333333335 0.17777777777777778 )
( 0.9165131982811541 0.07734806629834254 0.006138735420503376 )
( 0.6428571428571429 0.0 0.35714285714285715 )
( 0.9145129224652088 0.041749502982107355 0.0437375745526839 ))
(( 0.5697361335487345 0.1830910070005385 0.24717285945072698 )
( 0.7707281903388609 0.06993511175198269 0.15933669790915644 )
( 0.7823008849557522 0.03716814159292035 0.18053097345132743 )
( 0.19938650306748465 0.7753067484662577 0.02530674846625767 )))
((( 0.664022842639594 0.13578680203045687 0.20019035532994928 )
( 0.5413025556471559 0.283924154987634 0.17477328936521025 )
( 0.9608865710560626 0.03650586701434159 0.002607561929595828 )
( 0.0 1.0 0.0 ))
(( 0.88 0.112 0.0080 )
( 1.0 0.0 0.0 )
( 0.9655172413793104 0.034482758620689655 0.0 )
( 0.3333333333333333 0.3333333333333333 0.3333333333333333 ))
(( 0.8829787234042554 0.07446808510638299 0.04255319148936171 )
( 0.780952380952381 0.2126984126984127 0.006349206349206349 )
( 0.967479674796748 0.032520325203252036 0.0 )
( 1.0 0.0 0.0 ))))
(((( 0.14025974025974025 0.8441558441558441 0.015584415584415584 )
( 0.8233657858136301 0.16133518776077885 0.015299026425591099 )
( 0.6698699830412663 0.2673827020915772 0.0627473148671566 )
( 0.8850649350649351 0.06233766233766234 0.052597402597402594 ))
(( 0.0 1.0 0.0 )
( 0.7947976878612717 0.10211946050096339 0.10308285163776493 )
( 0.4339622641509434 0.33962264150943394 0.22641509433962265 )
( 0.9467213114754098 0.05327868852459017 0.0 ))
(( 0.0 0.0 1.0 )
( 0.9183673469387755 0.0816326530612245 0.0 )
( 0.6757425742574258 0.15965346534653466 0.1646039603960396 )
( 0.8754646840148699 0.06505576208178439 0.05947955390334572 )))
((( 0.819047619047619 0.0380952380952381 0.14285714285714285 )
( 0.10714285714285715 0.8883928571428572 0.004464285714285715 )
( 0.7549219280380177 0.11473183978275629 0.13034623217922608 )
( 0.6870828425598744 0.19081272084805653 0.1221044365920691 ))
(( 0.875 0.10869565217391304 0.016304347826086956 )
( 0.3333333333333333 0.3333333333333333 0.3333333333333333 )
( 0.8943089430894309 0.08130081300813008 0.024390243902439025 )
( 0.3333333333333333 0.3333333333333333 0.3333333333333333 ))
(( 0.84375 0.09375 0.0625 )
( 0.3333333333333333 0.3333333333333333 0.3333333333333333 )
( 0.7894736842105263 0.10526315789473684 0.10526315789473684 )
( 0.7777777777777778 0.2222222222222222 0.0 ))))
(((( 0.972972972972973 0.027027027027027032 0.0 )
( 0.3333333333333333 0.3333333333333333 0.3333333333333333 )
( 0.07228915662650602 0.927710843373494 0.0 )
( 0.8541666666666666 0.13020833333333334 0.015625 ))
(( 0.7053824362606232 0.20254957507082152 0.09206798866855524 )
( 0.8891257995735607 0.042643923240938165 0.06823027718550106 )
( 0.0 1.0 0.0 )
( 0.8035087719298246 0.11578947368421053 0.08070175438596491 ))
(( 0.2727272727272727 0.2727272727272727 0.45454545454545453 )
( 0.9833333333333334 0.016666666666666666 0.0 )
( 1.0 0.0 0.0 )
( 1.0 0.0 0.0 )))
((( 0.7095238095238096 0.14761904761904762 0.14285714285714285 )
( 0.905511811023622 0.03937007874015748 0.05511811023622047 )
( 0.6666666666666666 0.13333333333333333 0.2 )
( 0.04046242774566474 0.9595375722543352 0.0 ))
(( 0.8439024390243902 0.046341463414634146 0.10975609756097561 )
( 0.7850589777195282 0.1363040629095675 0.07863695937090433 )
( 0.8010309278350516 0.18041237113402062 0.018556701030927835 )
( 0.0 0.7142857142857143 0.2857142857142857 ))
(( 0.683288409703504 0.2830188679245283 0.03369272237196765 )
( 0.140625 0.8593749999999999 0.0 )
( 0.9151785714285714 0.026785714285714284 0.05803571428571429 )
( 1.0 0.0 0.0 ))))
(((( 0.769811320754717 0.21509433962264152 0.01509433962264151 )
( 0.6318114874815907 0.325478645066274 0.0427098674521355 )
( 0.8467289719626169 0.12149532710280374 0.03177570093457944 )
( 0.8467741935483871 0.08870967741935484 0.06451612903225806 ))
(( 0.1750245821042281 0.7463126843657817 0.07866273352999016 )
( 0.7786116322701689 0.20262664165103192 0.018761726078799255 )
( 0.5406626506024097 0.36230636833046476 0.09703098106712565 )
( 0.68720870015536 0.11548420507509062 0.19730709476954947 ))
(( 0.012903225806451613 0.9806451612903225 0.0064516129032258064 )
( 0.5347222222222222 0.09583333333333334 0.36944444444444446 )
( 0.3345421577515866 0.4442429737080689 0.22121486854034453 )
( 0.8887139107611548 0.09343832020997375 0.01784776902887139 )))
((( 0.6239067055393586 0.04664723032069971 0.3294460641399417 )
( 0.6604651162790698 0.04186046511627907 0.29767441860465116 )
( 0.5549853372434017 0.16348973607038123 0.28152492668621704 )
( 0.6177685950413223 0.07231404958677685 0.30991735537190085 ))
(( 0.5658536585365853 0.02926829268292683 0.40487804878048783 )
( 0.07163601161665054 0.8673765730880929 0.06098741529525654 )
( 0.6681766704416761 0.06342015855039637 0.26840317100792754 )
( 0.5448870021226121 0.21925333999250843 0.2358596578848795 ))
(( 0.9014084507042254 0.07042253521126761 0.028169014084507043 )
( 0.3333333333333333 0.3333333333333333 0.3333333333333333 )
( 0.825503355704698 0.1610738255033557 0.013422818791946308 )
( 0.42857142857142855 0.5714285714285714 0.0 ))))
(((( 1.0 0.0 0.0 )
( 0.3333333333333333 0.3333333333333333 0.3333333333333333 )
( 0.7857142857142857 0.14285714285714285 0.07142857142857142 )
( 0.7443181818181818 0.2159090909090909 0.03977272727272727 ))
(( 0.953125 0.046875 0.0 )
( 0.8 0.0 0.2 )
( 0.07203389830508475 0.9067796610169492 0.0211864406779661 )
( 0.8732394366197184 0.10563380281690142 0.021126760563380285 ))
(( 0.6125680356259278 0.30875804057397327 0.07867392380009897 )
( 0.7102137767220903 0.22684085510688837 0.06294536817102138 )
( 0.0 1.0 0.0 )
( 0.4625 0.33125 0.20625 )))
((( 0.32432432432432434 0.45045045045045046 0.22522522522522523 )
( 0.9405737704918032 0.05942622950819671 0.0 )
( 0.6285714285714286 0.08571428571428572 0.2857142857142857 )
( 0.5789473684210527 0.15789473684210525 0.2631578947368421 ))
(( 0.6698795180722892 0.14698795180722893 0.18313253012048192 )
( 0.7692307692307693 0.07692307692307693 0.15384615384615385 )
( 0.5714285714285714 0.0 0.4285714285714286 )
( 0.019455252918287938 0.9727626459143969 0.007782101167315175 ))
(( 0.800796812749004 0.03984063745019921 0.15936254980079684 )
( 0.7317559863169898 0.15022805017103763 0.11801596351197263 )
( 0.8352941176470589 0.11764705882352941 0.047058823529411764 )
( 0.3333333333333333 0.3333333333333333 0.3333333333333333 ))))
(((( 0.7708333333333334 0.16666666666666666 0.0625 )
( 0.3333333333333333 0.3333333333333333 0.3333333333333333 )
( 0.8333333333333334 0.0 0.16666666666666666 )
( 0.3333333333333333 0.3333333333333333 0.3333333333333333 ))
(( 0.7857142857142857 0.2142857142857143 0.0 )
( 0.5454545454545455 0.3030303030303031 0.15151515151515155 )
( 0.7857142857142857 0.14285714285714285 0.07142857142857142 )
( 1.0 0.0 0.0 ))
(( 0.03296703296703297 0.945054945054945 0.02197802197802198 )
( 0.8666666666666667 0.13333333333333333 0.0 )
( 0.6561151079136691 0.25755395683453236 0.08633093525179857 )
( 0.614406779661017 0.3347457627118644 0.05084745762711865 )))
((( 0.3333333333333333 0.3333333333333333 0.3333333333333333 )
( 0.4117647058823529 0.5294117647058824 0.058823529411764705 )
( 0.3333333333333333 0.5555555555555556 0.1111111111111111 )
( 0.9907407407407407 0.00925925925925926 0.0 ))
(( 0.5 0.25 0.25 )
( 0.5 0.0 0.5 )
( 0.6623376623376623 0.12987012987012986 0.2077922077922078 )
( 0.5454545454545454 0.18181818181818182 0.2727272727272727 ))
(( 1.0 0.0 0.0 )
( 0.0 1.0 0.0 )
( 0.8333333333333334 0.0 0.16666666666666669 )
( 0.8265221017514596 0.08757297748123437 0.08590492076730609 )))));
}

potential (DIF30MIN | DOMESTICO LOCALIDADE VLTRAN HORARIO)
{
 data = ((((( 0.9888729538598486 0.011127046140151328 )
( 0.9197953012328448 0.08020469876715515 )
( 0.5 0.5 )
( 0.7989587139203508 0.20104128607964925 ))
(( 0.9981014842940974 0.0018985157059026579 )
( 0.946207186383694 0.053792813616305946 )
( 0.5 0.5 )
( 0.8690278546393654 0.13097214536063456 ))
(( 0.9979504696840308 0.002049530315969257 )
( 0.9584193056427739 0.04158069435722616 )
( 0.5 0.5 )
( 0.8921403113862315 0.10785968861376852 ))
(( 0.9961660276712786 0.0038339723287214534 )
( 0.972770853307766 0.02722914669223394 )
( 0.5 0.5 )
( 0.9141914191419142 0.0858085808580858 ))
(( 0.9953687210545066 0.004631278945493409 )
( 0.9650283553875236 0.03497164461247637 )
( 0.5 0.5 )
( 0.9132379248658319 0.08676207513416816 )))
((( 0.9927190777498484 0.007280922250151686 )
( 0.9403034850758712 0.05969651492412873 )
( 0.5 0.5 )
( 0.8191716896752868 0.1808283103247132 ))
(( 0.9979152189020153 0.0020847810979847115 )
( 0.9660287921348315 0.03397120786516854 )
( 0.5 0.5 )
( 0.8939467312348668 0.10605326876513317 ))
(( 0.9992975061468212 7.024938531787847E-4 )
( 0.9726150169288986 0.027384983071101373 )
( 0.5 0.5 )
( 0.9157608695652174 0.08423913043478261 ))
(( 0.9988014382740711 0.0011985617259288853 )
( 0.980643600290346 0.019356399709654006 )
( 0.5 0.5 )
( 0.9281345565749235 0.07186544342507645 ))
(( 0.9982517482517482 0.0017482517482517483 )
( 0.9751796211626388 0.024820378837361202 )
( 0.5 0.5 )
( 0.9279279279279279 0.07207207207207207 ))))
(((( 0.9984675232818578 0.0015324767181421667 )
( 0.9614519555166813 0.03854804448331876 )
( 0.5 0.5 )
( 0.8990536277602523 0.10094637223974763 ))
(( 0.9992281965526113 7.718034473887317E-4 )
( 0.9795573316938211 0.020442668306178913 )
( 0.5 0.5 )
( 0.9264705882352942 0.07352941176470588 ))
(( 1.0 0.0 )
( 0.9843808806925104 0.01561911930748965 )
( 0.5 0.5 )
( 0.9322533136966127 0.06774668630338733 ))
(( 1.0 0.0 )
( 0.986336032388664 0.013663967611336033 )
( 0.5 0.5 )
( 0.9572649572649573 0.042735042735042736 ))
(( 0.9974619289340102 0.0025380710659898475 )
( 0.9836309523809523 0.01636904761904762 )
( 0.5 0.5 )
( 0.9224806201550387 0.07751937984496124 )))
((( 0.9953271028037384 0.004672897196261682 )
( 0.9645052376417627 0.03549476235823738 )
( 0.5 0.5 )
( 0.926779935275081 0.0732200647249191 ))
(( 0.9993053143452588 6.946856547412296E-4 )
( 0.9858581529890722 0.01414184701092779 )
( 0.5 0.5 )
( 0.935 0.065 ))
(( 0.9993096306523991 6.903693476009665E-4 )
( 0.9869203329369798 0.013079667063020214 )
( 0.5 0.5 )
( 0.9730061349693252 0.026993865030674847 ))
(( 0.9986833443054641 0.0013166556945358788 )
( 0.9874776386404294 0.012522361359570662 )
( 0.5 0.5 )
( 0.9545454545454546 0.045454545454545456 ))
(( 1.0 0.0 )
( 0.9874326750448833 0.012567324955116697 )
( 0.5 0.5 )
( 0.9615384615384616 0.038461538461538464 )))));
}

potential (VLTOT | VLTRAN QTDTOT ENTRYMODE DIF30MIN)
{
 data = ((((( 0.6694172936478168 0.18147518919753766 0.06822143282660018 0.08088608432804537 )
( 0.5844091195699068 0.2651909866259583 0.06119536720538945 0.08920452659874557 ))
(( 0.3371872030408616 0.363351282863478 0.1274627811213177 0.17199873297434273 )
( 0.0 0.3096598458676588 0.3085968642040925 0.38174328992824874 ))
(( 0.0 0.0 1.0 0.0 )
( 0.45537194650160273 0.2840444346192108 0.1271415938985299 0.13344202498065658 )))
((( 0.18572357147077942 0.36110618684630386 0.20989186314483246 0.24327837853808426 )
( 0.02969228000719813 0.22692100053985964 0.47507648011517006 0.2683102393377722 ))
(( 0.0 0.01798257937622928 0.8249508288845181 0.1570665917392526 )
( 0.0 0.0 1.0 0.0 ))
(( 0.2600905088062622 0.29464285714285715 0.2568493150684932 0.18841731898238748 )
( 0.024741866354958113 0.16715371127995324 0.5612702123514514 0.24683421001363726 )))
((( 0.002148557397176182 0.060466543891958255 0.8287292817679558 0.10865561694290976 )
( 0.0 0.001851851851851852 0.9787037037037036 0.019444444444444445 ))
(( 0.0 0.0 1.0 0.0 )
( 0.8437767807632203 0.09603266622977265 0.028734183596309925 0.03145636941069718 ))
(( 0.6477637290054726 0.27325910549160215 0.03302509907529722 0.04595206642762785 )
( 0.3107687395226311 0.3916340704079189 0.12173704797637104 0.17586014209307896 ))))
(((( 0.0 0.28384345972285674 0.35267245317496576 0.36348408710217756 )
( 0.0 0.0 1.0 0.0 ))
(( 0.6580732700135685 0.21999095431931254 0.06178199909543193 0.060153776571687016 )
( 0.10902145166029974 0.4255069056714664 0.19071407581545696 0.27475756685277697 ))
(( 0.009866102889358703 0.15997181113460182 0.6042988019732206 0.22586328400281888 )
( 0.0 0.009900990099009903 0.9067656765676568 0.08333333333333334 )))
((( 0.0 0.0 1.0 0.0 )
( 0.4878487848784879 0.2601260126012601 0.1413141314131413 0.11071107110711072 ))
(( 0.006418485237483954 0.10269576379974327 0.6739409499358151 0.21694480102695765 )
( 0.0028368794326241137 0.02695035460992908 0.9106382978723404 0.059574468085106386 ))
(( 0.0 0.0 0.9887005649717514 0.011299435028248588 )
( 0.0 0.0 1.0 0.0 )))
((( 0.8448114677469617 0.09527890308507324 0.031162355874104083 0.028747273293861016 )
( 0.6973174580404533 0.2311002725577392 0.029837899870893702 0.04174436953091379 ))
(( 0.3436421882700838 0.40327747658945295 0.10239034006899951 0.15068999507146377 )
( 0.0 0.28734491315136473 0.3183622828784119 0.3942928039702233 ))
(( 0.0 0.0 1.0 0.0 )
( 0.5931814167108285 0.2556085497261968 0.07737148913619502 0.07383854442677971 ))))
(((( 0.16729147141518275 0.40112464854732893 0.17057169634489222 0.26101218369259604 )
( 0.015938606847697757 0.1741440377804014 0.5832349468713105 0.22668240850059032 ))
(( 0.0 0.005788712011577424 0.8726483357452967 0.1215629522431259 )
( 0.0 0.0 1.0 0.0 ))
(( 0.3131370328425821 0.3233295583238958 0.1896942242355606 0.1738391845979615 )
( 0.013888888888888888 0.11458333333333333 0.6458333333333334 0.22569444444444445 )))
((( 0.0 0.04158004158004158 0.8856548856548857 0.07276507276507278 )
( 0.0 0.0 0.9829787234042553 0.01702127659574468 ))
(( 0.0 0.0 1.0 0.0 )
( 0.8627636134718287 0.0969468051621026 0.02045955303745672 0.019830028328611898 ))
(( 0.3904761904761905 0.4961038961038961 0.03896103896103896 0.07445887445887446 )
( 0.0776361529548088 0.3105446118192352 0.2734646581691773 0.3383545770567787 )))
((( 0.0 0.0931899641577061 0.7670250896057347 0.13978494623655915 )
( 0.0 0.0 1.0 0.0 ))
(( 0.6173503698722259 0.2568930733019502 0.05514458641560188 0.07061197041022192 )
( 0.09914320685434516 0.4320685434516524 0.20807833537331702 0.2607099143206854 ))
(( 0.01509433962264151 0.09056603773584905 0.6679245283018868 0.22641509433962265 )
( 0.0 0.0 0.9370629370629371 0.06293706293706294 ))))
(((( 0.0 0.0 1.0 0.0 )
( 0.28841607565011823 0.3215130023640662 0.21749408983451538 0.17257683215130024 ))
(( 0.017241379310344827 0.13218390804597702 0.6781609195402298 0.1724137931034483 )
( 0.0 0.017699115044247784 0.9380530973451326 0.04424778761061946 ))
(( 0.0 0.0 1.0 0.0 )
( 0.0 0.0 1.0 0.0 )))
((( 0.9284731774415407 0.05089408528198075 0.005502063273727649 0.015130674002751034 )
( 0.29090909090909095 0.640909090909091 0.02272727272727273 0.04545454545454546 ))
(( 0.015151515151515152 0.26262626262626265 0.36363636363636365 0.35858585858585856 )
( 0.0 0.0 0.8636363636363636 0.13636363636363635 ))
(( 0.0 0.0 1.0 0.0 )
( 0.6957364341085271 0.2189922480620155 0.04263565891472868 0.04263565891472868 )))
((( 0.03174603174603175 0.4920634920634921 0.22222222222222224 0.253968253968254 )
( 0.0 0.06122448979591836 0.683673469387755 0.2551020408163265 ))
(( 0.0 0.0 0.8974358974358975 0.10256410256410257 )
( 0.0 0.0 1.0 0.0 ))
(( 0.3717948717948718 0.28205128205128205 0.1794871794871795 0.16666666666666666 )
( 0.0 0.13157894736842105 0.6842105263157895 0.1842105263157895 ))))
(((( 0.0 0.0 1.0 0.0 )
( 0.0 0.0 1.0 0.0 ))
(( 0.0 0.0 1.0 0.0 )
( 0.9143700787401575 0.054133858267716536 0.023622047244094488 0.007874015748031496 ))
(( 0.4429530201342282 0.4664429530201342 0.050335570469798654 0.040268456375838924 )
( 0.03409090909090909 0.3977272727272727 0.22348484848484848 0.3446969696969697 )))
((( 0.0 0.03225806451612903 0.8602150537634409 0.10752688172043011 )
( 0.0 0.0 1.0 0.0 ))
(( 0.6993603411513859 0.22174840085287847 0.0255863539445629 0.053304904051172705 )
( 0.07547169811320754 0.39622641509433965 0.16981132075471697 0.3584905660377358 ))
(( 0.0 0.10958904109589042 0.6712328767123288 0.21917808219178084 )
( 0.0 0.058823529411764705 0.9411764705882353 0.0 )))
((( 0.0 0.0 1.0 0.0 )
( 0.34615384615384615 0.38461538461538464 0.1794871794871795 0.08974358974358974 ))
(( 0.0 0.0 0.7272727272727273 0.2727272727272727 )
( 0.0 0.08333333333333333 0.9166666666666666 0.0 ))
(( 0.0 0.0 1.0 0.0 )
( 0.0 0.0 1.0 0.0 )))));
}

potential (APROVADA | LIMDISP MCC ENTRYMODE DIF30MIN)
{
 data = ((((( 0.44433326662664263 0.5556667333733574 )
( 0.3442379182156134 0.6557620817843867 ))
(( 0.25862367828046456 0.7413763217195355 )
( 0.26350108677478684 0.7364989132252132 ))
(( 0.44 0.56 )
( 0.2608695652173913 0.7391304347826086 )))
((( 0.06451612903225806 0.9354838709677419 )
( 0.07352941176470588 0.9264705882352942 ))
(( 0.470821325648415 0.529178674351585 )
( 0.34738372093023256 0.6526162790697675 ))
(( 0.2520679146713104 0.7479320853286896 )
( 0.23434383725568408 0.7656561627443159 )))
((( 0.3837072018890201 0.6162927981109799 )
( 0.23627287853577372 0.7637271214642263 ))
(( 0.11691022964509394 0.8830897703549061 )
( 0.12073863636363637 0.8792613636363636 ))
(( 0.4975676497415628 0.5024323502584372 )
( 0.3839794754846066 0.6160205245153934 )))
((( 0.3055269481634054 0.6944730518365946 )
( 0.3303263465110109 0.6696736534889891 ))
(( 0.4044489383215369 0.5955510616784631 )
( 0.2830820770519263 0.7169179229480737 ))
(( 0.12894736842105264 0.8710526315789474 )
( 0.1271186440677966 0.8728813559322034 )))
((( 0.42568093385214006 0.5743190661478599 )
( 0.3074856046065259 0.692514395393474 ))
(( 0.19036427732079905 0.8096357226792009 )
( 0.1565126050420168 0.8434873949579832 ))
(( 0.4440061738981307 0.5559938261018693 )
( 0.30272108843537415 0.6972789115646258 )))
((( 0.23330914368650219 0.7666908563134979 )
( 0.21829386960752514 0.7817061303924748 ))
(( 0.4471066274344963 0.5528933725655037 )
( 0.3286510050859772 0.6713489949140228 ))
(( 0.22225827384815056 0.7777417261518494 )
( 0.22124622563821025 0.7787537743617897 )))
((( 0.4205949656750572 0.5794050343249428 )
( 0.2782258064516129 0.7217741935483871 ))
(( 0.16717019133937563 0.8328298086606244 )
( 0.14557926829268292 0.854420731707317 ))
(( 0.4133651551312649 0.5866348448687351 )
( 0.2744956772334294 0.7255043227665706 )))
((( 0.14516129032258066 0.8548387096774194 )
( 0.11449016100178891 0.8855098389982111 ))
(( 0.4518906776488207 0.5481093223511794 )
( 0.32827004219409284 0.6717299578059072 ))
(( 0.26666666666666666 0.7333333333333333 )
( 0.23804780876494025 0.7619521912350598 )))
((( 0.48107299011305 0.5189270098869501 )
( 0.4095831392640894 0.5904168607359106 ))
(( 0.3684453329232662 0.6315546670767338 )
( 0.3484778597785978 0.6515221402214022 ))
(( 0.3142857142857143 0.6857142857142857 )
( 0.20941402497598463 0.7905859750240154 )))
((( 0.09897172236503857 0.9010282776349614 )
( 0.09108527131782945 0.9089147286821705 ))
(( 0.5801217038539553 0.4198782961460446 )
( 0.4789473684210526 0.5210526315789473 ))
(( 0.4713896457765668 0.5286103542234333 )
( 0.44299065420560746 0.5570093457943925 )))
((( 0.426495437647854 0.573504562352146 )
( 0.27884615384615385 0.7211538461538461 ))
(( 0.18130539887187752 0.8186946011281225 )
( 0.13381201044386423 0.8661879895561357 ))
(( 0.419737663960025 0.580262336039975 )
( 0.2850953206239168 0.7149046793760832 )))
((( 0.2011111111111111 0.7988888888888889 )
( 0.20629114850036576 0.7937088514996342 ))
(( 0.294811320754717 0.7051886792452831 )
( 0.19164619164619165 0.8083538083538083 ))
(( 0.08430232558139535 0.9156976744186046 )
( 0.07566462167689161 0.9243353783231084 )))
((( 0.24242424242424243 0.7575757575757576 )
( 0.16417910447761194 0.835820895522388 ))
(( 0.0425531914893617 0.9574468085106383 )
( 0.025974025974025976 0.974025974025974 ))
(( 0.4080560420315236 0.5919439579684763 )
( 0.23076923076923078 0.7692307692307693 ))))
(((( 0.17543859649122806 0.8245614035087719 )
( 0.12304250559284116 0.8769574944071589 ))
(( 0.40384615384615385 0.5961538461538461 )
( 0.27411167512690354 0.7258883248730964 ))
(( 0.16494845360824742 0.8350515463917526 )
( 0.12883435582822086 0.8711656441717791 )))
((( 0.34571062740076824 0.6542893725992317 )
( 0.2080745341614907 0.7919254658385093 ))
(( 0.07472527472527472 0.9252747252747253 )
( 0.0861812778603269 0.9138187221396731 ))
(( 0.3053435114503817 0.6946564885496184 )
( 0.19130434782608696 0.808695652173913 )))
((( 0.06172839506172839 0.9382716049382716 )
( 0.07614213197969544 0.9238578680203046 ))
(( 0.5104483668086833 0.48955163319131667 )
( 0.44906204906204905 0.550937950937951 ))
(( 0.40963405526512325 0.5903659447348768 )
( 0.416 0.584 )))
((( 0.3968565815324165 0.6031434184675835 )
( 0.2712975098296199 0.72870249017038 ))
(( 0.16507936507936508 0.834920634920635 )
( 0.13968957871396895 0.8603104212860311 ))
(( 0.4622280324960314 0.5377719675039686 )
( 0.38101525821596244 0.6189847417840375 )))
((( 0.31254932912391475 0.6874506708760852 )
( 0.31915215745647235 0.6808478425435276 ))
(( 0.40858416945373466 0.5914158305462653 )
( 0.2496732026143791 0.7503267973856209 ))
(( 0.1596330275229358 0.8403669724770643 )
( 0.15782312925170067 0.8421768707482993 )))
((( 0.5079365079365079 0.49206349206349204 )
( 0.3088235294117647 0.6911764705882353 ))
(( 0.3157894736842105 0.6842105263157895 )
( 0.2222222222222222 0.7777777777777778 ))
(( 0.44536652835408025 0.5546334716459198 )
( 0.26486079759217457 0.7351392024078255 )))
((( 0.17347956131605186 0.8265204386839482 )
( 0.15146831530139104 0.848531684698609 ))
(( 0.43656343656343655 0.5634365634365635 )
( 0.31175693527080584 0.6882430647291942 ))
(( 0.218213058419244 0.781786941580756 )
( 0.20410958904109588 0.7958904109589041 )))
((( 0.36363636363636365 0.6363636363636364 )
( 0.06382978723404255 0.9361702127659575 ))
(( 0.23529411764705882 0.7647058823529411 )
( 0.13924050632911392 0.8607594936708861 ))
(( 0.3594132029339853 0.6405867970660146 )
( 0.23333333333333334 0.7666666666666667 )))
((( 0.13953488372093023 0.8604651162790697 )
( 0.08928571428571429 0.9107142857142857 ))
(( 0.34549878345498786 0.6545012165450121 )
( 0.2392857142857143 0.7607142857142857 ))
(( 0.13861386138613863 0.8613861386138614 )
( 0.1059322033898305 0.8940677966101694 )))
((( 0.4152892561983471 0.5847107438016529 )
( 0.2645161290322581 0.7354838709677419 ))
(( 0.18635170603674542 0.8136482939632546 )
( 0.17478813559322035 0.8252118644067796 ))
(( 0.4298245614035088 0.5701754385964912 )
( 0.2471590909090909 0.7528409090909091 )))
((( 0.1596330275229358 0.8403669724770643 )
( 0.13001383125864455 0.8699861687413555 ))
(( 0.391304347826087 0.6086956521739131 )
( 0.23383084577114427 0.7661691542288557 ))
(( 0.1038961038961039 0.8961038961038961 )
( 0.13636363636363635 0.8636363636363636 )))
((( 0.43389830508474575 0.5661016949152542 )
( 0.22456140350877193 0.775438596491228 ))
(( 0.1187214611872146 0.8812785388127854 )
( 0.13994910941475827 0.8600508905852418 ))
(( 0.40601503759398494 0.5939849624060151 )
( 0.25625 0.74375 )))
((( 0.18882466281310212 0.8111753371868978 )
( 0.17525773195876287 0.8247422680412371 ))
(( 0.42440668033987694 0.5755933196601231 )
( 0.325874429719748 0.674125570280252 ))
(( 0.2684869169510808 0.7315130830489193 )
( 0.24737456242707118 0.7526254375729288 ))))
(((( 0.3735050597976081 0.6264949402023919 )
( 0.1259259259259259 0.8740740740740741 ))
(( 0.06637168141592921 0.9336283185840708 )
( 0.037162162162162164 0.9628378378378378 ))
(( 0.5 0.5 )
( 0.5 0.5 )))
((( 0.5 0.5 )
( 0.0 1.0 ))
(( 0.4025 0.5975 )
( 0.0963302752293578 0.9036697247706422 ))
(( 0.05917159763313609 0.9408284023668639 )
( 0.05172413793103448 0.9482758620689655 )))
((( 0.3103448275862069 0.6896551724137931 )
( 0.0 1.0 ))
(( 0.0 1.0 )
( 0.0 1.0 ))
(( 0.42150170648464164 0.5784982935153583 )
( 0.1443850267379679 0.8556149732620321 )))
((( 0.09615384615384616 0.9038461538461539 )
( 0.04186046511627907 0.958139534883721 ))
(( 0.29545454545454547 0.7045454545454546 )
( 0.4444444444444444 0.5555555555555556 ))
(( 0.0 1.0 )
( 0.0 1.0 )))
((( 0.33695652173913043 0.6630434782608695 )
( 0.13513513513513514 0.8648648648648649 ))
(( 0.08695652173913043 0.9130434782608695 )
( 0.09090909090909091 0.9090909090909091 ))
(( 0.35013262599469497 0.649867374005305 )
( 0.12751677852348994 0.87248322147651 )))
((( 0.06944444444444445 0.9305555555555556 )
( 0.03773584905660377 0.9622641509433962 ))
(( 0.38010204081632654 0.6198979591836735 )
( 0.11475409836065574 0.8852459016393442 ))
(( 0.10112359550561797 0.898876404494382 )
( 0.05421686746987952 0.9457831325301205 )))
((( 0.2803738317757009 0.719626168224299 )
( 0.16 0.84 ))
(( 0.13043478260869565 0.8695652173913043 )
( 0.05084745762711865 0.9491525423728814 ))
(( 0.3 0.7 )
( 0.0 1.0 )))
((( 0.0 1.0 )
( 0.0 1.0 ))
(( 0.31297709923664124 0.6870229007633588 )
( 0.14942528735632185 0.8505747126436781 ))
(( 0.0759493670886076 0.9240506329113924 )
( 0.055900621118012424 0.9440993788819876 )))
((( 0.4078549848942598 0.5921450151057401 )
( 0.2018111254851229 0.7981888745148771 ))
(( 0.10869565217391304 0.8913043478260869 )
( 0.07454289732770746 0.9254571026722925 ))
(( 0.1875 0.8125 )
( 0.05263157894736842 0.9473684210526315 )))
((( 0.1 0.9 )
( 0.0 1.0 ))
(( 0.5 0.5 )
( 0.5 0.5 ))
(( 0.5 0.5 )
( 1.0 0.0 )))
((( 0.36 0.64 )
( 0.12962962962962962 0.8703703703703703 ))
(( 0.13793103448275862 0.8620689655172413 )
( 0.08653846153846154 0.9134615384615384 ))
(( 0.3559322033898305 0.6440677966101694 )
( 0.16666666666666666 0.8333333333333334 )))
((( 0.11538461538461539 0.8846153846153846 )
( 0.031746031746031744 0.9682539682539683 ))
(( 0.29411764705882354 0.7058823529411765 )
( 0.1111111111111111 0.8888888888888888 ))
(( 0.0 1.0 )
( 0.0 1.0 )))
((( 0.5 0.5 )
( 0.5 0.5 ))
(( 0.5 0.5 )
( 0.0 1.0 ))
(( 0.3333333333333333 0.6666666666666666 )
( 0.0 1.0 ))))
(((( 0.0 1.0 )
( 0.0 1.0 ))
(( 0.2 0.8 )
( 0.10526315789473684 0.8947368421052632 ))
(( 0.0 1.0 )
( 0.0273972602739726 0.9726027397260274 )))
((( 0.2857142857142857 0.7142857142857143 )
( 0.17391304347826086 0.8260869565217391 ))
(( 0.1111111111111111 0.8888888888888888 )
( 0.0 1.0 ))
(( 0.0 1.0 )
( 0.0 1.0 )))
((( 0.0 1.0 )
( 0.0 1.0 ))
(( 0.29850746268656714 0.7014925373134329 )
( 0.1 0.9 ))
(( 0.08823529411764706 0.9117647058823529 )
( 0.13095238095238096 0.8690476190476191 )))
((( 0.0 1.0 )
( 0.10526315789473684 0.8947368421052632 ))
(( 0.0 1.0 )
( 0.05 0.95 ))
(( 0.3201320132013201 0.6798679867986799 )
( 0.15789473684210525 0.8421052631578947 )))
((( 0.026845637583892617 0.9731543624161074 )
( 0.04316546762589928 0.9568345323741008 ))
(( 0.31521739130434784 0.6847826086956522 )
( 0.07894736842105263 0.9210526315789473 ))
(( 0.12 0.88 )
( 0.05172413793103448 0.9482758620689655 )))
((( 0.5 0.5 )
( 0.5 0.5 ))
(( 0.5 0.5 )
( 0.5 0.5 ))
(( 0.2786885245901639 0.7213114754098361 )
( 0.189873417721519 0.810126582278481 )))
((( 0.04918032786885246 0.9508196721311475 )
( 0.02608695652173913 0.9739130434782609 ))
(( 0.2857142857142857 0.7142857142857143 )
( 0.15789473684210525 0.8421052631578947 ))
(( 0.0 1.0 )
( 0.12195121951219512 0.8780487804878049 )))
((( 0.5 0.5 )
( 0.5 0.5 ))
(( 0.5 0.5 )
( 0.5 0.5 ))
(( 0.2 0.8 )
( 0.0 1.0 )))
((( 0.0 1.0 )
( 0.0 1.0 ))
(( 0.4166666666666667 0.5833333333333334 )
( 0.0 1.0 ))
(( 0.0 1.0 )
( 0.0 1.0 )))
((( 0.2727272727272727 0.7272727272727273 )
( 0.09523809523809523 0.9047619047619048 ))
(( 0.06818181818181818 0.9318181818181818 )
( 0.037037037037037035 0.9629629629629629 ))
(( 0.28 0.72 )
( 0.09090909090909091 0.9090909090909091 )))
((( 0.07407407407407407 0.9259259259259259 )
( 0.07462686567164178 0.9253731343283582 ))
(( 0.3076923076923077 0.6923076923076923 )
( 0.0 1.0 ))
(( 0.14285714285714285 0.8571428571428571 )
( 0.0 1.0 )))
((( 0.5 0.5 )
( 0.0 1.0 ))
(( 0.0 1.0 )
( 0.0 1.0 ))
(( 0.3333333333333333 0.6666666666666666 )
( 0.10256410256410256 0.8974358974358975 )))
((( 0.11538461538461539 0.8846153846153846 )
( 0.043478260869565216 0.9565217391304348 ))
(( 0.3054298642533937 0.6945701357466063 )
( 0.1062992125984252 0.8937007874015748 ))
(( 0.06511627906976744 0.9348837209302325 )
( 0.05161290322580645 0.9483870967741935 )))));
}

potential (FRAUDE | APROVADA MCC LOCALIDADE)
{
 data = (((( 0.9722055738687444 0.027794426131255618 )
( 0.9960921658986175 0.003907834101382488 ))
(( 0.9973787680209698 0.002621231979030144 )
( 1.0 0.0 ))
(( 0.9830062230732408 0.016993776926759217 )
( 0.9973207249802994 0.0026792750197005516 ))
(( 0.9966467958271237 0.0033532041728763042 )
( 0.9987174005985464 0.0012825994014536127 ))
(( 0.8705506783719075 0.12944932162809258 )
( 0.979539641943734 0.020460358056265986 ))
(( 0.982373678025852 0.01762632197414806 )
( 0.9972857696781698 0.002714230321830167 ))
(( 0.9840291398150742 0.015970860184925748 )
( 0.998319516020614 0.0016804839793860631 ))
(( 0.9626854708388424 0.037314529161157635 )
( 0.9952000997381872 0.004799900261812742 ))
(( 0.9827055547413162 0.017294445258683865 )
( 0.9977539626516075 0.002246037348392479 ))
(( 0.9864935064935065 0.013506493506493506 )
( 0.9987410071942446 0.0012589928057553956 ))
(( 0.9948589690148673 0.005141030985132695 )
( 0.9943117178612059 0.005688282138794084 ))
(( 0.9705148205928237 0.029485179407176286 )
( 0.9943722642951435 0.005627735704856527 ))
(( 0.9742781490354306 0.02572185096456941 )
( 0.9929759354919995 0.007024064508000504 )))
((( 1.0 0.0 )
( 1.0 0.0 ))
(( 1.0 0.0 )
( 1.0 0.0 ))
(( 1.0 0.0 )
( 1.0 0.0 ))
(( 1.0 0.0 )
( 1.0 0.0 ))
(( 1.0 0.0 )
( 1.0 0.0 ))
(( 1.0 0.0 )
( 1.0 0.0 ))
(( 1.0 0.0 )
( 1.0 0.0 ))
(( 1.0 0.0 )
( 1.0 0.0 ))
(( 1.0 0.0 )
( 1.0 0.0 ))
(( 1.0 0.0 )
( 1.0 0.0 ))
(( 1.0 0.0 )
( 1.0 0.0 ))
(( 1.0 0.0 )
( 1.0 0.0 ))
(( 1.0 0.0 )
( 1.0 0.0 ))));
}

