% File created using PowerConstructor
% on 04/10/01 at 17:04:30.

net 
{
 node_size = (100 40);
 label = "[fraude_lim2$]";
 name = "[fraude_lim2$]";
}

node fraude
{
   label = "fraude";
   position = (0 0);
   states = ("N" "S" );
}

node sexo
{
   label = "sexo";
   position = (150 0);
   states = ("F" "M" "X" );
}

node idade
{
   label = "idade";
   position = (300 0);
   states = ("1" "2" "3" );
}

node limite
{
   label = "limite";
   position = (450 0);
   states = ("1" "2" "3" "4" );
}

node valor
{
   label = "valor";
   position = (0 80);
   states = ("1" "2" "3" "4" );
}

node localidade
{
   label = "localidade";
   position = (150 80);
   states = ("N" "S" );
}

node horario
{
   label = "horario";
   position = (300 80);
   states = ("1" "2" "3" );
}

node mcc
{
   label = "mcc";
   position = (450 80);
   states = ("1" "3" "4" "5" "6" "7" "8" "9" "10" "11" "12" "13" "14" );
}

node domestica
{
   label = "domestica";
   position = (0 160);
   states = ("N" "S" );
}

node qtdtot
{
   label = "qtdtot";
   position = (150 160);
   states = ("1" "2" "3" "4" "5" "6" "7" "8" "9" "10" "11" "12" "13" "14" "15" "16" "17" "18" "19" );
}

node qtdtotmcc
{
   label = "qtdtotmcc";
   position = (300 160);
   states = ("1" "2" "3" "4" "5" "6" "7" "8" "9" "10" "11" );
}

potential (fraude | limite valor mcc qtdtot)
{
 data = (((((0.5833333 0.4166667 )
       (0.2777778 0.7222222 )
       (0.5 0.5 )
       (0.5 0.5 )
       (0.5 0.5 )
       (0.5 0.5 )
       (0.5 0.5 )
       (0.5 0.5 )
       (0.5 0.5 )
       (0.5 0.5 )
       (0.5 0.5 )
       (0.5 0.5 )
       (0.5 0.5 )
       (0.5 0.5 )
       (0.5 0.5 )
       (0.5 0.5 )
       (0.5 0.5 )
       (0.5 0.5 )
       (0.5 0.5 ))
       ((0.5 0.5 )
       (0.5 0.5 )
       (0.5 0.5 )
       (0.5 0.5 )
       (0.5 0.5 )
       (0.5 0.5 )
       (0.5 0.5 )
       (0.5 0.5 )
       (0.5 0.5 )
       (0.5 0.5 )
       (0.5 0.5 )
       (0.5 0.5 )
       (0.5 0.5 )
       (0.5 0.5 )
       (0.5 0.5 )
       (0.5 0.5 )
       (0.5 0.5 )
       (0.5 0.5 )
       (0.5 0.5 ))
       ((0.5 0.5 )
       (0.4583333 0.5416667 )
       (0.3571429 0.6428571 )
       (0.5 0.5 )
       (0.5 0.5 )
       (0.5 0.5 )
       (0.5 0.5 )
       (0.5 0.5 )
       (0.5 0.5 )
       (0.5 0.5 )
       (0.5 0.5 )
       (0.5 0.5 )
       (0.5 0.5 )
       (0.5 0.5 )
       (0.5 0.5 )
       (0.5 0.5 )
       (0.5 0.5 )
       (0.5 0.5 )
       (0.5 0.5 ))
       ((0.5 0.5 )
       (0.5 0.5 )
       (0.5 0.5 )
       (0.5 0.5 )
       (0.5 0.5 )
       (0.5 0.5 )
       (0.5 0.5 )
       (0.5 0.5 )
       (0.5 0.5 )
       (0.5 0.5 )
       (0.5 0.5 )
       (0.5 0.5 )
       (0.5 0.5 )
       (0.5 0.5 )
       (0.5 0.5 )
       (0.5 0.5 )
       (0.5 0.5 )
       (0.5 0.5 )
       (0.5 0.5 ))
       ((0.26 0.74 )
       (0.2083333 0.7916667 )
       (0.3571429 0.6428571 )
       (0.3571429 0.6428571 )
       (0.5 0.5 )
       (0.4166667 0.5833333 )
       (0.5 0.5 )
       (0.5 0.5 )
       (0.5 0.5 )
       (0.5 0.5 )
       (0.5 0.5 )
       (0.5 0.5 )
       (0.5 0.5 )
       (0.5 0.5 )
       (0.5 0.5 )
       (0.5 0.5 )
       (0.5 0.5 )
       (0.5 0.5 )
       (0.5 0.5 ))
       ((0.5 0.5 )
       (0.5 0.5 )
       (0.5 0.5 )
       (0.5 0.5 )
       (0.5 0.5 )
       (0.5 0.5 )
       (0.5 0.5 )
       (0.5 0.5 )
       (0.5 0.5 )
       (0.5 0.5 )
       (0.5 0.5 )
       (0.5 0.5 )
       (0.5 0.5 )
       (0.5 0.5 )
       (0.5 0.5 )
       (0.5 0.5 )
       (0.5 0.5 )
       (0.5 0.5 )
       (0.5 0.5 ))
       ((0.5833333 0.4166667 )
       (0.5 0.5 )
       (0.5 0.5 )
       (0.5 0.5 )
       (0.5 0.5 )
       (0.5 0.5 )
       (0.5 0.5 )
       (0.5 0.5 )
       (0.5 0.5 )
       (0.5 0.5 )
       (0.5 0.5 )
       (0.5 0.5 )
       (0.5 0.5 )
       (0.5 0.5 )
       (0.5 0.5 )
       (0.5 0.5 )
       (0.5 0.5 )
       (0.5 0.5 )
       (0.5 0.5 ))
       ((0.5 0.5 )
       (0.3571429 0.6428571 )
       (0.4166667 0.5833333 )
       (0.5 0.5 )
       (0.5 0.5 )
       (0.5 0.5 )
       (0.5 0.5 )
       (0.5 0.5 )
       (0.5 0.5 )
       (0.5 0.5 )
       (0.5 0.5 )
       (0.5 0.5 )
       (0.5 0.5 )
       (0.5 0.5 )
       (0.5 0.5 )
       (0.5 0.5 )
       (0.5 0.5 )
       (0.5 0.5 )
       (0.5 0.5 ))
       ((0.5833333 0.4166667 )
       (0.4166667 0.5833333 )
       (0.3571429 0.6428571 )
       (0.5 0.5 )
       (0.5 0.5 )
       (0.5 0.5 )
       (0.5 0.5 )
       (0.5 0.5 )
       (0.5 0.5 )
       (0.5 0.5 )
       (0.5 0.5 )
       (0.5 0.5 )
       (0.5 0.5 )
       (0.5 0.5 )
       (0.5 0.5 )
       (0.5 0.5 )
       (0.5 0.5 )
       (0.5 0.5 )
       (0.5 0.5 ))
       ((0.5833333 0.4166667 )
       (0.5 0.5 )
       (0.5 0.5 )
       (0.5 0.5 )
       (0.5 0.5 )
       (0.5 0.5 )
       (0.5 0.5 )
       (0.5 0.5 )
       (0.5 0.5 )
       (0.5 0.5 )
       (0.5 0.5 )
       (0.5 0.5 )
       (0.5 0.5 )
       (0.5 0.5 )
       (0.5 0.5 )
       (0.5 0.5 )
       (0.5 0.5 )
       (0.5 0.5 )
       (0.5 0.5 ))
       ((0.45 0.55 )
       (0.5 0.5 )
       (0.5 0.5 )
       (0.5 0.5 )
       (0.5 0.5 )
       (0.5 0.5 )
       (0.5 0.5 )
       (0.5 0.5 )
       (0.5 0.5 )
       (0.5 0.5 )
       (0.5 0.5 )
       (0.5 0.5 )
       (0.5 0.5 )
       (0.5 0.5 )
       (0.5 0.5 )
       (0.5 0.5 )
       (0.5 0.5 )
       (0.5 0.5 )
       (0.5 0.5 ))
       ((0.4166667 0.5833333 )
       (0.5 0.5 )
       (0.5 0.5 )
       (0.5 0.5 )
       (0.5 0.5 )
       (0.5 0.5 )
       (0.5 0.5 )
       (0.5 0.5 )
       (0.5 0.5 )
       (0.5 0.5 )
       (0.5 0.5 )
       (0.5 0.5 )
       (0.5 0.5 )
       (0.5 0.5 )
       (0.5 0.5 )
       (0.5 0.5 )
       (0.5 0.5 )
       (0.5 0.5 )
       (0.5 0.5 ))
       ((0.5972222 0.4027778 )
       (0.53125 0.46875 )
       (0.6428571 0.3571429 )
       (0.6875 0.3125 )
       (0.5833333 0.4166667 )
       (0.5 0.5 )
       (0.5 0.5 )
       (0.5 0.5 )
       (0.5 0.5 )
       (0.5 0.5 )
       (0.5 0.5 )
       (0.5 0.5 )
       (0.5 0.5 )
       (0.5 0.5 )
       (0.5 0.5 )
       (0.5 0.5 )
       (0.5 0.5 )
       (0.5 0.5 )
       (0.5 0.5 )))
       (((0.3947369 0.6052631 )
       (0.5 0.5 )
       (0.5 0.5 )
       (0.5 0.5 )
       (0.5 0.5 )
       (0.5 0.5 )
       (0.4166667 0.5833333 )
       (0.5 0.5 )
       (0.5 0.5 )
       (0.5 0.5 )
       (0.5 0.5 )
       (0.5 0.5 )
       (0.5 0.5 )
       (0.5 0.5 )
       (0.5 0.5 )
       (0.5 0.5 )
       (0.5 0.5 )
       (0.5 0.5 )
       (0.5 0.5 ))
       ((0.5 0.5 )
       (0.5 0.5 )
       (0.5 0.5 )
       (0.5 0.5 )
       (0.5 0.5 )
       (0.5 0.5 )
       (0.5 0.5 )
       (0.5 0.5 )
       (0.5 0.5 )
       (0.5 0.5 )
       (0.5 0.5 )
       (0.5 0.5 )
       (0.5 0.5 )
       (0.5 0.5 )
       (0.5 0.5 )
       (0.5 0.5 )
       (0.5 0.5 )
       (0.5 0.5 )
       (0.5 0.5 ))
       ((0.3888889 0.6111111 )
       (0.5 0.5 )
       (0.5 0.5 )
       (0.5 0.5 )
       (0.5 0.5 )
       (0.5 0.5 )
       (0.5 0.5 )
       (0.5 0.5 )
       (0.5 0.5 )
       (0.5 0.5 )
       (0.5 0.5 )
       (0.5 0.5 )
       (0.5 0.5 )
       (0.5 0.5 )
       (0.5 0.5 )
       (0.5 0.5 )
       (0.5 0.5 )
       (0.5 0.5 )
       (0.5 0.5 ))
       ((0.5 0.5 )
       (0.5 0.5 )
       (0.5 0.5 )
       (0.5 0.5 )
       (0.5 0.5 )
       (0.5 0.5 )
       (0.5 0.5 )
       (0.5 0.5 )
       (0.5 0.5 )
       (0.5 0.5 )
       (0.5 0.5 )
       (0.5 0.5 )
       (0.5 0.5 )
       (0.5 0.5 )
       (0.5 0.5 )
       (0.5 0.5 )
       (0.5 0.5 )
       (0.5 0.5 )
       (0.5 0.5 ))
       ((0.1923077 0.8076923 )
       (0.25 0.75 )
       (0.5 0.5 )
       (0.5 0.5 )
       (0.5 0.5 )
       (0.5 0.5 )
       (0.5 0.5 )
       (0.5 0.5 )
       (0.5 0.5 )
       (0.5 0.5 )
       (0.5 0.5 )
       (0.5 0.5 )
       (0.5 0.5 )
       (0.5 0.5 )
       (0.5 0.5 )
       (0.5 0.5 )
       (0.5 0.5 )
       (0.5 0.5 )
       (0.5 0.5 ))
       ((0.4166667 0.5833333 )
       (0.5 0.5 )
       (0.5 0.5 )
       (0.5 0.5 )
       (0.5 0.5 )
       (0.5 0.5 )
       (0.5 0.5 )
       (0.5 0.5 )
       (0.5 0.5 )
       (0.5 0.5 )
       (0.5 0.5 )
       (0.5 0.5 )
       (0.5 0.5 )
       (0.5 0.5 )
       (0.5 0.5 )
       (0.5 0.5 )
       (0.5 0.5 )
       (0.5 0.5 )
       (0.5 0.5 ))
       ((0.5 0.5 )
       (0.5 0.5 )
       (0.5 0.5 )
       (0.5 0.5 )
       (0.5 0.5 )
       (0.5 0.5 )
       (0.5 0.5 )
       (0.5 0.5 )
       (0.5 0.5 )
       (0.5 0.5 )
       (0.5 0.5 )
       (0.5 0.5 )
       (0.5 0.5 )
       (0.5 0.5 )
       (0.5 0.5 )
       (0.5 0.5 )
       (0.5 0.5 )
       (0.5 0.5 )
       (0.5 0.5 ))
       ((0.5 0.5 )
       (0.4166667 0.5833333 )
       (0.5 0.5 )
       (0.5 0.5 )
       (0.5 0.5 )
       (0.5 0.5 )
       (0.5 0.5 )
       (0.5 0.5 )
       (0.5 0.5 )
       (0.5 0.5 )
       (0.5 0.5 )
       (0.5 0.5 )
       (0.5 0.5 )
       (0.5 0.5 )
       (0.5 0.5 )
       (0.5 0.5 )
       (0.5 0.5 )
       (0.5 0.5 )
       (0.5 0.5 ))
       ((0.5 0.5 )
       (0.5 0.5 )
       (0.5 0.5 )
       (0.5 0.5 )
       (0.5 0.5 )
       (0.5 0.5 )
       (0.5 0.5 )
       (0.5 0.5 )
       (0.5 0.5 )
       (0.5 0.5 )
       (0.5 0.5 )
       (0.5 0.5 )
       (0.5 0.5 )
       (0.5 0.5 )
       (0.5 0.5 )
       (0.5 0.5 )
       (0.5 0.5 )
       (0.5 0.5 )
       (0.5 0.5 ))
       ((0.5 0.5 )
       (0.5 0.5 )
       (0.5 0.5 )
       (0.5 0.5 )
       (0.5 0.5 )
       (0.5 0.5 )
       (0.5 0.5 )
       (0.5 0.5 )
       (0.5 0.5 )
       (0.5 0.5 )
       (0.5 0.5 )
       (0.5 0.5 )
       (0.5 0.5 )
       (0.5 0.5 )
       (0.5 0.5 )
       (0.5 0.5 )
       (0.5 0.5 )
       (0.5 0.5 )
       (0.5 0.5 ))
       ((0.3125 0.6875 )
       (0.5 0.5 )
       (0.5 0.5 )
       (0.5 0.5 )
       (0.5 0.5 )
       (0.5 0.5 )
       (0.5 0.5 )
       (0.5 0.5 )
       (0.5 0.5 )
       (0.5 0.5 )
       (0.5 0.5 )
       (0.5 0.5 )
       (0.5 0.5 )
       (0.5 0.5 )
       (0.5 0.5 )
       (0.5 0.5 )
       (0.5 0.5 )
       (0.5 0.5 )
       (0.5 0.5 ))
       ((0.3571429 0.6428571 )
       (0.5 0.5 )
       (0.5 0.5 )
       (0.5 0.5 )
       (0.5 0.5 )
       (0.5 0.5 )
       (0.5 0.5 )
       (0.5 0.5 )
       (0.5 0.5 )
       (0.5 0.5 )
       (0.5 0.5 )
       (0.5 0.5 )
       (0.5 0.5 )
       (0.5 0.5 )
       (0.5 0.5 )
       (0.5 0.5 )
       (0.5 0.5 )
       (0.5 0.5 )
       (0.5 0.5 ))
       ((0.3214286 0.6785714 )
       (0.35 0.65 )
       (0.5625 0.4375 )
       (0.5 0.5 )
       (0.5 0.5 )
       (0.5 0.5 )
       (0.5 0.5 )
       (0.5 0.5 )
       (0.5 0.5 )
       (0.5 0.5 )
       (0.5 0.5 )
       (0.5 0.5 )
       (0.5 0.5 )
       (0.5 0.5 )
       (0.5 0.5 )
       (0.5 0.5 )
       (0.5 0.5 )
       (0.5 0.5 )
       (0.5 0.5 )))
       (((0.5 0.5 )
       (0.5 0.5 )
       (0.5 0.5 )
       (0.5 0.5 )
       (0.5 0.5 )
       (0.5 0.5 )
       (0.5 0.5 )
       (0.5 0.5 )
       (0.5 0.5 )
       (0.5 0.5 )
       (0.5 0.5 )
       (0.5 0.5 )
       (0.5 0.5 )
       (0.5 0.5 )
       (0.5 0.5 )
       (0.5 0.5 )
       (0.5 0.5 )
       (0.5 0.5 )
       (0.5 0.5 ))
       ((0.5 0.5 )
       (0.5 0.5 )
       (0.5 0.5 )
       (0.5 0.5 )
       (0.5 0.5 )
       (0.5 0.5 )
       (0.5 0.5 )
       (0.5 0.5 )
       (0.5 0.5 )
       (0.5 0.5 )
       (0.5 0.5 )
       (0.5 0.5 )
       (0.5 0.5 )
       (0.5 0.5 )
       (0.5 0.5 )
       (0.5 0.5 )
       (0.5 0.5 )
       (0.5 0.5 )
       (0.5 0.5 ))
       ((0.5 0.5 )
       (0.5 0.5 )
       (0.5 0.5 )
       (0.5 0.5 )
       (0.5 0.5 )
       (0.5 0.5 )
       (0.5 0.5 )
       (0.5 0.5 )
       (0.5 0.5 )
       (0.5 0.5 )
       (0.5 0.5 )
       (0.5 0.5 )
       (0.5 0.5 )
       (0.5 0.5 )
       (0.5 0.5 )
       (0.5 0.5 )
       (0.5 0.5 )
       (0.5 0.5 )
       (0.5 0.5 ))
       ((0.5 0.5 )
       (0.5 0.5 )
       (0.5 0.5 )
       (0.5 0.5 )
       (0.5 0.5 )
       (0.5 0.5 )
       (0.5 0.5 )
       (0.5 0.5 )
       (0.5 0.5 )
       (0.5 0.5 )
       (0.5 0.5 )
       (0.5 0.5 )
       (0.5 0.5 )
       (0.5 0.5 )
       (0.5 0.5 )
       (0.5 0.5 )
       (0.5 0.5 )
       (0.5 0.5 )
       (0.5 0.5 ))
       ((0.5 0.5 )
       (0.5 0.5 )
       (0.5 0.5 )
       (0.5 0.5 )
       (0.5 0.5 )
       (0.5 0.5 )
       (0.5 0.5 )
       (0.5 0.5 )
       (0.5 0.5 )
       (0.5 0.5 )
       (0.5 0.5 )
       (0.5 0.5 )
       (0.5 0.5 )
       (0.5 0.5 )
       (0.5 0.5 )
       (0.5 0.5 )
       (0.5 0.5 )
       (0.5 0.5 )
       (0.5 0.5 ))
       ((0.5 0.5 )
       (0.5 0.5 )
       (0.5 0.5 )
       (0.5 0.5 )
       (0.5 0.5 )
       (0.5 0.5 )
       (0.5 0.5 )
       (0.5 0.5 )
       (0.5 0.5 )
       (0.5 0.5 )
       (0.5 0.5 )
       (0.5 0.5 )
       (0.5 0.5 )
       (0.5 0.5 )
       (0.5 0.5 )
       (0.5 0.5 )
       (0.5 0.5 )
       (0.5 0.5 )
       (0.5 0.5 ))
       ((0.5 0.5 )
       (0.5 0.5 )
       (0.5 0.5 )
       (0.5 0.5 )
       (0.5 0.5 )
       (0.5 0.5 )
       (0.5 0.5 )
       (0.5 0.5 )
       (0.5 0.5 )
       (0.5 0.5 )
       (0.5 0.5 )
       (0.5 0.5 )
       (0.5 0.5 )
       (0.5 0.5 )
       (0.5 0.5 )
       (0.5 0.5 )
       (0.5 0.5 )
       (0.5 0.5 )
       (0.5 0.5 ))
       ((0.5 0.5 )
       (0.5 0.5 )
       (0.5 0.5 )
       (0.5 0.5 )
       (0.5 0.5 )
       (0.5 0.5 )
       (0.5 0.5 )
       (0.5 0.5 )
       (0.5 0.5 )
       (0.5 0.5 )
       (0.5 0.5 )
       (0.5 0.5 )
       (0.5 0.5 )
       (0.5 0.5 )
       (0.5 0.5 )
       (0.5 0.5 )
       (0.5 0.5 )
       (0.5 0.5 )
       (0.5 0.5 ))
       ((0.5 0.5 )
       (0.5 0.5 )
       (0.5 0.5 )
       (0.5 0.5 )
       (0.5 0.5 )
       (0.5 0.5 )
       (0.5 0.5 )
       (0.5 0.5 )
       (0.5 0.5 )
       (0.5 0.5 )
       (0.5 0.5 )
       (0.5 0.5 )
       (0.5 0.5 )
       (0.5 0.5 )
       (0.5 0.5 )
       (0.5 0.5 )
       (0.5 0.5 )
       (0.5 0.5 )
       (0.5 0.5 ))
       ((0.5 0.5 )
       (0.5 0.5 )
       (0.5 0.5 )
       (0.5 0.5 )
       (0.5 0.5 )
       (0.5 0.5 )
       (0.5 0.5 )
       (0.5 0.5 )
       (0.5 0.5 )
       (0.5 0.5 )
       (0.5 0.5 )
       (0.5 0.5 )
       (0.5 0.5 )
       (0.5 0.5 )
       (0.5 0.5 )
       (0.5 0.5 )
       (0.5 0.5 )
       (0.5 0.5 )
       (0.5 0.5 ))
       ((0.5 0.5 )
       (0.5 0.5 )
       (0.5 0.5 )
       (0.5 0.5 )
       (0.5 0.5 )
       (0.5 0.5 )
       (0.5 0.5 )
       (0.5 0.5 )
       (0.5 0.5 )
       (0.5 0.5 )
       (0.5 0.5 )
       (0.5 0.5 )
       (0.5 0.5 )
       (0.5 0.5 )
       (0.5 0.5 )
       (0.5 0.5 )
       (0.5 0.5 )
       (0.5 0.5 )
       (0.5 0.5 ))
       ((0.5 0.5 )
       (0.5 0.5 )
       (0.5 0.5 )
       (0.5 0.5 )
       (0.5 0.5 )
       (0.5 0.5 )
       (0.5 0.5 )
       (0.5 0.5 )
       (0.5 0.5 )
       (0.5 0.5 )
       (0.5 0.5 )
       (0.5 0.5 )
       (0.5 0.5 )
       (0.5 0.5 )
       (0.5 0.5 )
       (0.5 0.5 )
       (0.5 0.5 )
       (0.5 0.5 )
       (0.5 0.5 ))
       ((0.4166667 0.5833333 )
       (0.4166667 0.5833333 )
       (0.5 0.5 )
       (0.5 0.5 )
       (0.5 0.5 )
       (0.5 0.5 )
       (0.5 0.5 )
       (0.4166667 0.5833333 )
       (0.5 0.5 )
       (0.5 0.5 )
       (0.5 0.5 )
       (0.5 0.5 )
       (0.5 0.5 )
       (0.5 0.5 )
       (0.5 0.5 )
       (0.5 0.5 )
       (0.5 0.5 )
       (0.5 0.5 )
       (0.5 0.5 )))
       (((0.5 0.5 )
       (0.5 0.5 )
       (0.5 0.5 )
       (0.5 0.5 )
       (0.5 0.5 )
       (0.5 0.5 )
       (0.5 0.5 )
       (0.5 0.5 )
       (0.5 0.5 )
       (0.5 0.5 )
       (0.5 0.5 )
       (0.5 0.5 )
       (0.5 0.5 )
       (0.5 0.5 )
       (0.5 0.5 )
       (0.5 0.5 )
       (0.5 0.5 )
       (0.5 0.5 )
       (0.5 0.5 ))
       ((0.5 0.5 )
       (0.5 0.5 )
       (0.5 0.5 )
       (0.5 0.5 )
       (0.5 0.5 )
       (0.5 0.5 )
       (0.5 0.5 )
       (0.5 0.5 )
       (0.5 0.5 )
       (0.5 0.5 )
       (0.5 0.5 )
       (0.5 0.5 )
       (0.5 0.5 )
       (0.5 0.5 )
       (0.5 0.5 )
       (0.5 0.5 )
       (0.5 0.5 )
       (0.5 0.5 )
       (0.5 0.5 ))
       ((0.5 0.5 )
       (0.5 0.5 )
       (0.5 0.5 )
       (0.5 0.5 )
       (0.4166667 0.5833333 )
       (0.5 0.5 )
       (0.5 0.5 )
       (0.5 0.5 )
       (0.5 0.5 )
       (0.5 0.5 )
       (0.5 0.5 )
       (0.5 0.5 )
       (0.5 0.5 )
       (0.5 0.5 )
       (0.5 0.5 )
       (0.5 0.5 )
       (0.5 0.5 )
       (0.5 0.5 )
       (0.5 0.5 ))
       ((0.5 0.5 )
       (0.5 0.5 )
       (0.5 0.5 )
       (0.5 0.5 )
       (0.5 0.5 )
       (0.5 0.5 )
       (0.5 0.5 )
       (0.5 0.5 )
       (0.5 0.5 )
       (0.5 0.5 )
       (0.5 0.5 )
       (0.5 0.5 )
       (0.5 0.5 )
       (0.5 0.5 )
       (0.5 0.5 )
       (0.5 0.5 )
       (0.5 0.5 )
       (0.5 0.5 )
       (0.5 0.5 ))
       ((0.5 0.5 )
       (0.5 0.5 )
       (0.5 0.5 )
       (0.5 0.5 )
       (0.5 0.5 )
       (0.5 0.5 )
       (0.5 0.5 )
       (0.5 0.5 )
       (0.5 0.5 )
       (0.5 0.5 )
       (0.5 0.5 )
       (0.5 0.5 )
       (0.5 0.5 )
       (0.5 0.5 )
       (0.5 0.5 )
       (0.5 0.5 )
       (0.5 0.5 )
       (0.5 0.5 )
       (0.5 0.5 ))
       ((0.5 0.5 )
       (0.5 0.5 )
       (0.5 0.5 )
       (0.5 0.5 )
       (0.5 0.5 )
       (0.5 0.5 )
       (0.5 0.5 )
       (0.5 0.5 )
       (0.5 0.5 )
       (0.5 0.5 )
       (0.5 0.5 )
       (0.5 0.5 )
       (0.5 0.5 )
       (0.5 0.5 )
       (0.5 0.5 )
       (0.5 0.5 )
       (0.5 0.5 )
       (0.5 0.5 )
       (0.5 0.5 ))
       ((0.5 0.5 )
       (0.5 0.5 )
       (0.5 0.5 )
       (0.5 0.5 )
       (0.5 0.5 )
       (0.5 0.5 )
       (0.5 0.5 )
       (0.5 0.5 )
       (0.5 0.5 )
       (0.5 0.5 )
       (0.5 0.5 )
       (0.5 0.5 )
       (0.5 0.5 )
       (0.5 0.5 )
       (0.5 0.5 )
       (0.5 0.5 )
       (0.5 0.5 )
       (0.5 0.5 )
       (0.5 0.5 ))
       ((0.5 0.5 )
       (0.5 0.5 )
       (0.5 0.5 )
       (0.5 0.5 )
       (0.5 0.5 )
       (0.5 0.5 )
       (0.5 0.5 )
       (0.5 0.5 )
       (0.5 0.5 )
       (0.5 0.5 )
       (0.5 0.5 )
       (0.5 0.5 )
       (0.5 0.5 )
       (0.5 0.5 )
       (0.5 0.5 )
       (0.5 0.5 )
       (0.5 0.5 )
       (0.5 0.5 )
       (0.5 0.5 ))
       ((0.5 0.5 )
       (0.5 0.5 )
       (0.5 0.5 )
       (0.5 0.5 )
       (0.5 0.5 )
       (0.5 0.5 )
       (0.5 0.5 )
       (0.5 0.5 )
       (0.5 0.5 )
       (0.5 0.5 )
       (0.5 0.5 )
       (0.5 0.5 )
       (0.5 0.5 )
       (0.5 0.5 )
       (0.5 0.5 )
       (0.5 0.5 )
       (0.5 0.5 )
       (0.5 0.5 )
       (0.5 0.5 ))
       ((0.5 0.5 )
       (0.5 0.5 )
       (0.5 0.5 )
       (0.5 0.5 )
       (0.5 0.5 )
       (0.5 0.5 )
       (0.5 0.5 )
       (0.5 0.5 )
       (0.5 0.5 )
       (0.5 0.5 )
       (0.5 0.5 )
       (0.5 0.5 )
       (0.5 0.5 )
       (0.5 0.5 )
       (0.5 0.5 )
       (0.5 0.5 )
       (0.5 0.5 )
       (0.5 0.5 )
       (0.5 0.5 ))
       ((0.5 0.5 )
       (0.5 0.5 )
       (0.5 0.5 )
       (0.5 0.5 )
       (0.5 0.5 )
       (0.5 0.5 )
       (0.5 0.5 )
       (0.5 0.5 )
       (0.5 0.5 )
       (0.5 0.5 )
       (0.5 0.5 )
       (0.5 0.5 )
       (0.5 0.5 )
       (0.5 0.5 )
       (0.5 0.5 )
       (0.5 0.5 )
       (0.5 0.5 )
       (0.5 0.5 )
       (0.5 0.5 ))
       ((0.5 0.5 )
       (0.5 0.5 )
       (0.5 0.5 )
       (0.5 0.5 )
       (0.5 0.5 )
       (0.5 0.5 )
       (0.5 0.5 )
       (0.5 0.5 )
       (0.5 0.5 )
       (0.5 0.5 )
       (0.5 0.5 )
       (0.5 0.5 )
       (0.5 0.5 )
       (0.5 0.5 )
       (0.5 0.5 )
       (0.5 0.5 )
       (0.5 0.5 )
       (0.5 0.5 )
       (0.5 0.5 ))
       ((0.4166667 0.5833333 )
       (0.4166667 0.5833333 )
       (0.4166667 0.5833333 )
       (0.4166667 0.5833333 )
       (0.5 0.5 )
       (0.5 0.5 )
       (0.5 0.5 )
       (0.5 0.5 )
       (0.5 0.5 )
       (0.5 0.5 )
       (0.5 0.5 )
       (0.5 0.5 )
       (0.5 0.5 )
       (0.5 0.5 )
       (0.5 0.5 )
       (0.5 0.5 )
       (0.5 0.5 )
       (0.5 0.5 )
       (0.5 0.5 ))))
       ((((0.9244792 7.552081E-02 )
       (0.7702703 0.2297297 )
       (0.5833333 0.4166667 )
       (0.5 0.5 )
       (0.2777778 0.7222222 )
       (0.5 0.5 )
       (0.5 0.5 )
       (0.5 0.5 )
       (0.5 0.5 )
       (0.5 0.5 )
       (0.5 0.5 )
       (0.5 0.5 )
       (0.5 0.5 )
       (0.5 0.5 )
       (0.5 0.5 )
       (0.5 0.5 )
       (0.5 0.5 )
       (0.5 0.5 )
       (0.5 0.5 ))
       ((0.5 0.5 )
       (0.5 0.5 )
       (0.5 0.5 )
       (0.5 0.5 )
       (0.5 0.5 )
       (0.5 0.5 )
       (0.5 0.5 )
       (0.5 0.5 )
       (0.5 0.5 )
       (0.5 0.5 )
       (0.5 0.5 )
       (0.5 0.5 )
       (0.5 0.5 )
       (0.5 0.5 )
       (0.5 0.5 )
       (0.5 0.5 )
       (0.5 0.5 )
       (0.5 0.5 )
       (0.5 0.5 ))
       ((0.9155844 8.441561E-02 )
       (0.66 0.34 )
       (0.5 0.5 )
       (0.35 0.65 )
       (0.3125 0.6875 )
       (0.5 0.5 )
       (0.4166667 0.5833333 )
       (0.5 0.5 )
       (0.5 0.5 )
       (0.5 0.5 )
       (0.5 0.5 )
       (0.5 0.5 )
       (0.5 0.5 )
       (0.5 0.5 )
       (0.5 0.5 )
       (0.5 0.5 )
       (0.5 0.5 )
       (0.5 0.5 )
       (0.5 0.5 ))
       ((0.5 0.5 )
       (0.5 0.5 )
       (0.5 0.5 )
       (0.5833333 0.4166667 )
       (0.5833333 0.4166667 )
       (0.5 0.5 )
       (0.5 0.5 )
       (0.5 0.5 )
       (0.5 0.5 )
       (0.5 0.5 )
       (0.5 0.5 )
       (0.5 0.5 )
       (0.5 0.5 )
       (0.5 0.5 )
       (0.5 0.5 )
       (0.5 0.5 )
       (0.5 0.5 )
       (0.5 0.5 )
       (0.5 0.5 ))
       ((0.6842857 0.3157143 )
       (0.4345794 0.5654206 )
       (0.1057692 0.8942308 )
       (0.140625 0.859375 )
       (0.1190476 0.8809524 )
       (0.1785714 0.8214286 )
       (0.2272727 0.7727273 )
       (0.2777778 0.7222222 )
       (0.4166667 0.5833333 )
       (0.4166667 0.5833333 )
       (0.5 0.5 )
       (0.5 0.5 )
       (0.5 0.5 )
       (0.5 0.5 )
       (0.5 0.5 )
       (0.5 0.5 )
       (0.5 0.5 )
       (0.5 0.5 )
       (0.5 0.5 ))
       ((0.5625 0.4375 )
       (0.5833333 0.4166667 )
       (0.4166667 0.5833333 )
       (0.5 0.5 )
       (0.5 0.5 )
       (0.5 0.5 )
       (0.5 0.5 )
       (0.5 0.5 )
       (0.5 0.5 )
       (0.5 0.5 )
       (0.5 0.5 )
       (0.5 0.5 )
       (0.5 0.5 )
       (0.5 0.5 )
       (0.5 0.5 )
       (0.5 0.5 )
       (0.5 0.5 )
       (0.5 0.5 )
       (0.5 0.5 ))
       ((0.7727273 0.2272727 )
       (0.5 0.5 )
       (0.5 0.5 )
       (0.4166667 0.5833333 )
       (0.5 0.5 )
       (0.5 0.5 )
       (0.5 0.5 )
       (0.5 0.5 )
       (0.5 0.5 )
       (0.5 0.5 )
       (0.5 0.5 )
       (0.5 0.5 )
       (0.5 0.5 )
       (0.5 0.5 )
       (0.5 0.5 )
       (0.5 0.5 )
       (0.5 0.5 )
       (0.5 0.5 )
       (0.5 0.5 ))
       ((0.8134328 0.1865672 )
       (0.525 0.475 )
       (0.3235294 0.6764706 )
       (0.3181818 0.6818182 )
       (0.3125 0.6875 )
       (0.4166667 0.5833333 )
       (0.3571429 0.6428571 )
       (0.5 0.5 )
       (0.5 0.5 )
       (0.5 0.5 )
       (0.5 0.5 )
       (0.5 0.5 )
       (0.5 0.5 )
       (0.5 0.5 )
       (0.5 0.5 )
       (0.5 0.5 )
       (0.5 0.5 )
       (0.5 0.5 )
       (0.5 0.5 ))
       ((0.8375 0.1625 )
       (0.6785714 0.3214286 )
       (0.65 0.35 )
       (0.3571429 0.6428571 )
       (0.4375 0.5625 )
       (0.5833333 0.4166667 )
       (0.5 0.5 )
       (0.5 0.5 )
       (0.5 0.5 )
       (0.5 0.5 )
       (0.5 0.5 )
       (0.5 0.5 )
       (0.5 0.5 )
       (0.5 0.5 )
       (0.5 0.5 )
       (0.5 0.5 )
       (0.5 0.5 )
       (0.5 0.5 )
       (0.5 0.5 ))
       ((0.6428571 0.3571429 )
       (0.5833333 0.4166667 )
       (0.4166667 0.5833333 )
       (0.5 0.5 )
       (0.5 0.5 )
       (0.5 0.5 )
       (0.5 0.5 )
       (0.5 0.5 )
       (0.5 0.5 )
       (0.5 0.5 )
       (0.5 0.5 )
       (0.5 0.5 )
       (0.5 0.5 )
       (0.5 0.5 )
       (0.5 0.5 )
       (0.5 0.5 )
       (0.5 0.5 )
       (0.5 0.5 )
       (0.5 0.5 ))
       ((0.3666667 0.6333333 )
       (0.6111111 0.3888889 )
       (0.5 0.5 )
       (0.5 0.5 )
       (0.5 0.5 )
       (0.5 0.5 )
       (0.5 0.5 )
       (0.5 0.5 )
       (0.5 0.5 )
       (0.5 0.5 )
       (0.5 0.5 )
       (0.5 0.5 )
       (0.5 0.5 )
       (0.5 0.5 )
       (0.5 0.5 )
       (0.5 0.5 )
       (0.5 0.5 )
       (0.5 0.5 )
       (0.5 0.5 ))
       ((0.8712121 0.1287879 )
       (0.4821429 0.5178571 )
       (0.3888889 0.6111111 )
       (0.4166667 0.5833333 )
       (0.5 0.5 )
       (0.4166667 0.5833333 )
       (0.5 0.5 )
       (0.5 0.5 )
       (0.5 0.5 )
       (0.5 0.5 )
       (0.5 0.5 )
       (0.5 0.5 )
       (0.5 0.5 )
       (0.5 0.5 )
       (0.5 0.5 )
       (0.5 0.5 )
       (0.5 0.5 )
       (0.5 0.5 )
       (0.5 0.5 ))
       ((0.7404092 0.2595908 )
       (0.5 0.5 )
       (0.4112903 0.5887097 )
       (0.1458333 0.8541667 )
       (0.25 0.75 )
       (0.375 0.625 )
       (0.5 0.5 )
       (0.5 0.5 )
       (0.3888889 0.6111111 )
       (0.3571429 0.6428571 )
       (0.3571429 0.6428571 )
       (0.5 0.5 )
       (0.5 0.5 )
       (0.5 0.5 )
       (0.5 0.5 )
       (0.5 0.5 )
       (0.5 0.5 )
       (0.5 0.5 )
       (0.5 0.5 )))
       (((0.8312102 0.1687898 )
       (0.3444445 0.6555555 )
       (0.25 0.75 )
       (0.2692308 0.7307692 )
       (0.5 0.5 )
       (0.3125 0.6875 )
       (0.5 0.5 )
       (0.5 0.5 )
       (0.5 0.5 )
       (0.5 0.5 )
       (0.5 0.5 )
       (0.5 0.5 )
       (0.5 0.5 )
       (0.5 0.5 )
       (0.5 0.5 )
       (0.5 0.5 )
       (0.5 0.5 )
       (0.5 0.5 )
       (0.5 0.5 ))
       ((0.5833333 0.4166667 )
       (0.5 0.5 )
       (0.5 0.5 )
       (0.5 0.5 )
       (0.5 0.5 )
       (0.5 0.5 )
       (0.5 0.5 )
       (0.5 0.5 )
       (0.5 0.5 )
       (0.5 0.5 )
       (0.5 0.5 )
       (0.5 0.5 )
       (0.5 0.5 )
       (0.5 0.5 )
       (0.5 0.5 )
       (0.5 0.5 )
       (0.5 0.5 )
       (0.5 0.5 )
       (0.5 0.5 ))
       ((0.7588235 0.2411765 )
       (0.5394737 0.4605263 )
       (0.4047619 0.5952381 )
       (0.55 0.45 )
       (0.2777778 0.7222222 )
       (0.2777778 0.7222222 )
       (0.4166667 0.5833333 )
       (0.5 0.5 )
       (0.5 0.5 )
       (0.5 0.5 )
       (0.5 0.5 )
       (0.5 0.5 )
       (0.5 0.5 )
       (0.5 0.5 )
       (0.5 0.5 )
       (0.5 0.5 )
       (0.5 0.5 )
       (0.5 0.5 )
       (0.5 0.5 ))
       ((0.4230769 0.5769231 )
       (0.3571429 0.6428571 )
       (0.5 0.5 )
       (0.5 0.5 )
       (0.5 0.5 )
       (0.5 0.5 )
       (0.5 0.5 )
       (0.5 0.5 )
       (0.5 0.5 )
       (0.5 0.5 )
       (0.5 0.5 )
       (0.5 0.5 )
       (0.5 0.5 )
       (0.5 0.5 )
       (0.5 0.5 )
       (0.5 0.5 )
       (0.5 0.5 )
       (0.5 0.5 )
       (0.5 0.5 ))
       ((0.3303571 0.6696429 )
       (0.0957447 0.9042553 )
       (0.2045455 0.7954545 )
       (0.15625 0.84375 )
       (0.35 0.65 )
       (0.25 0.75 )
       (0.3125 0.6875 )
       (0.4166667 0.5833333 )
       (0.4166667 0.5833333 )
       (0.5 0.5 )
       (0.5 0.5 )
       (0.5 0.5 )
       (0.5 0.5 )
       (0.5 0.5 )
       (0.5 0.5 )
       (0.5 0.5 )
       (0.5 0.5 )
       (0.5 0.5 )
       (0.5 0.5 ))
       ((0.5833333 0.4166667 )
       (0.5 0.5 )
       (0.4166667 0.5833333 )
       (0.5 0.5 )
       (0.5 0.5 )
       (0.5 0.5 )
       (0.5 0.5 )
       (0.5 0.5 )
       (0.5 0.5 )
       (0.5 0.5 )
       (0.5 0.5 )
       (0.5 0.5 )
       (0.5 0.5 )
       (0.5 0.5 )
       (0.5 0.5 )
       (0.5 0.5 )
       (0.5 0.5 )
       (0.5 0.5 )
       (0.5 0.5 ))
       ((0.6071429 0.3928571 )
       (0.3181818 0.6818182 )
       (0.3571429 0.6428571 )
       (0.4166667 0.5833333 )
       (0.5 0.5 )
       (0.5 0.5 )
       (0.4166667 0.5833333 )
       (0.5 0.5 )
       (0.5 0.5 )
       (0.5 0.5 )
       (0.5 0.5 )
       (0.5 0.5 )
       (0.5 0.5 )
       (0.5 0.5 )
       (0.5 0.5 )
       (0.5 0.5 )
       (0.5 0.5 )
       (0.5 0.5 )
       (0.5 0.5 ))
       ((0.49 0.51 )
       (0.3695652 0.6304348 )
       (0.25 0.75 )
       (0.2777778 0.7222222 )
       (0.4166667 0.5833333 )
       (0.3125 0.6875 )
       (0.5 0.5 )
       (0.4166667 0.5833333 )
       (0.5 0.5 )
       (0.5 0.5 )
       (0.5 0.5 )
       (0.5 0.5 )
       (0.5 0.5 )
       (0.5 0.5 )
       (0.5 0.5 )
       (0.5 0.5 )
       (0.5 0.5 )
       (0.5 0.5 )
       (0.5 0.5 ))
       ((0.6621622 0.3378378 )
       (0.53125 0.46875 )
       (0.3181818 0.6818182 )
       (0.5625 0.4375 )
       (0.4166667 0.5833333 )
       (0.5 0.5 )
       (0.4166667 0.5833333 )
       (0.5 0.5 )
       (0.5 0.5 )
       (0.5 0.5 )
       (0.5 0.5 )
       (0.5 0.5 )
       (0.5 0.5 )
       (0.5 0.5 )
       (0.5 0.5 )
       (0.5 0.5 )
       (0.5 0.5 )
       (0.5 0.5 )
       (0.5 0.5 ))
       ((0.7 0.3 )
       (0.4166667 0.5833333 )
       (0.4166667 0.5833333 )
       (0.4166667 0.5833333 )
       (0.5 0.5 )
       (0.5 0.5 )
       (0.5 0.5 )
       (0.5 0.5 )
       (0.5 0.5 )
       (0.5 0.5 )
       (0.5 0.5 )
       (0.5 0.5 )
       (0.5 0.5 )
       (0.5 0.5 )
       (0.5 0.5 )
       (0.5 0.5 )
       (0.5 0.5 )
       (0.5 0.5 )
       (0.5 0.5 ))
       ((0.35 0.65 )
       (0.375 0.625 )
       (0.3571429 0.6428571 )
       (0.4166667 0.5833333 )
       (0.4166667 0.5833333 )
       (0.5 0.5 )
       (0.5 0.5 )
       (0.5 0.5 )
       (0.5 0.5 )
       (0.5 0.5 )
       (0.5 0.5 )
       (0.5 0.5 )
       (0.5 0.5 )
       (0.5 0.5 )
       (0.5 0.5 )
       (0.5 0.5 )
       (0.5 0.5 )
       (0.5 0.5 )
       (0.5 0.5 ))
       ((0.625 0.375 )
       (0.2692308 0.7307692 )
       (0.35 0.65 )
       (0.4166667 0.5833333 )
       (0.5 0.5 )
       (0.5 0.5 )
       (0.5 0.5 )
       (0.5 0.5 )
       (0.5 0.5 )
       (0.5 0.5 )
       (0.5 0.5 )
       (0.5 0.5 )
       (0.5 0.5 )
       (0.5 0.5 )
       (0.5 0.5 )
       (0.5 0.5 )
       (0.5 0.5 )
       (0.5 0.5 )
       (0.5 0.5 ))
       ((0.6008645 0.3991355 )
       (0.4349315 0.5650685 )
       (0.2672414 0.7327586 )
       (0.234375 0.765625 )
       (0.2391304 0.7608696 )
       (0.5 0.5 )
       (0.2777778 0.7222222 )
       (0.5 0.5 )
       (0.5 0.5 )
       (0.5 0.5 )
       (0.5 0.5 )
       (0.5 0.5 )
       (0.5 0.5 )
       (0.5 0.5 )
       (0.5 0.5 )
       (0.5 0.5 )
       (0.5 0.5 )
       (0.5 0.5 )
       (0.5 0.5 )))
       (((0.4583333 0.5416667 )
       (0.4166667 0.5833333 )
       (0.5 0.5 )
       (0.5 0.5 )
       (0.5 0.5 )
       (0.5 0.5 )
       (0.5 0.5 )
       (0.5 0.5 )
       (0.5 0.5 )
       (0.5 0.5 )
       (0.5 0.5 )
       (0.5 0.5 )
       (0.5 0.5 )
       (0.5 0.5 )
       (0.5 0.5 )
       (0.5 0.5 )
       (0.5 0.5 )
       (0.5 0.5 )
       (0.5 0.5 ))
       ((0.5 0.5 )
       (0.5 0.5 )
       (0.5 0.5 )
       (0.5 0.5 )
       (0.5 0.5 )
       (0.5 0.5 )
       (0.5 0.5 )
       (0.5 0.5 )
       (0.5 0.5 )
       (0.5 0.5 )
       (0.5 0.5 )
       (0.5 0.5 )
       (0.5 0.5 )
       (0.5 0.5 )
       (0.5 0.5 )
       (0.5 0.5 )
       (0.5 0.5 )
       (0.5 0.5 )
       (0.5 0.5 ))
       ((0.45 0.55 )
       (0.2272727 0.7727273 )
       (0.3125 0.6875 )
       (0.5 0.5 )
       (0.5 0.5 )
       (0.5 0.5 )
       (0.5 0.5 )
       (0.5 0.5 )
       (0.5 0.5 )
       (0.5 0.5 )
       (0.5 0.5 )
       (0.5 0.5 )
       (0.5 0.5 )
       (0.5 0.5 )
       (0.5 0.5 )
       (0.5 0.5 )
       (0.5 0.5 )
       (0.5 0.5 )
       (0.5 0.5 ))
       ((0.5 0.5 )
       (0.5 0.5 )
       (0.5 0.5 )
       (0.5 0.5 )
       (0.5 0.5 )
       (0.5 0.5 )
       (0.5 0.5 )
       (0.5 0.5 )
       (0.5 0.5 )
       (0.5 0.5 )
       (0.5 0.5 )
       (0.5 0.5 )
       (0.5 0.5 )
       (0.5 0.5 )
       (0.5 0.5 )
       (0.5 0.5 )
       (0.5 0.5 )
       (0.5 0.5 )
       (0.5 0.5 ))
       ((0.4166667 0.5833333 )
       (0.5 0.5 )
       (0.5 0.5 )
       (0.5 0.5 )
       (0.5 0.5 )
       (0.5 0.5 )
       (0.5 0.5 )
       (0.5 0.5 )
       (0.5 0.5 )
       (0.5 0.5 )
       (0.5 0.5 )
       (0.5 0.5 )
       (0.5 0.5 )
       (0.5 0.5 )
       (0.5 0.5 )
       (0.5 0.5 )
       (0.5 0.5 )
       (0.5 0.5 )
       (0.5 0.5 ))
       ((0.5833333 0.4166667 )
       (0.5 0.5 )
       (0.5 0.5 )
       (0.5 0.5 )
       (0.5 0.5 )
       (0.5 0.5 )
       (0.5 0.5 )
       (0.5 0.5 )
       (0.5 0.5 )
       (0.5 0.5 )
       (0.5 0.5 )
       (0.5 0.5 )
       (0.5 0.5 )
       (0.5 0.5 )
       (0.5 0.5 )
       (0.5 0.5 )
       (0.5 0.5 )
       (0.5 0.5 )
       (0.5 0.5 ))
       ((0.2916667 0.7083333 )
       (0.4166667 0.5833333 )
       (0.5 0.5 )
       (0.5 0.5 )
       (0.5 0.5 )
       (0.5 0.5 )
       (0.5 0.5 )
       (0.5 0.5 )
       (0.5 0.5 )
       (0.5 0.5 )
       (0.5 0.5 )
       (0.5 0.5 )
       (0.5 0.5 )
       (0.5 0.5 )
       (0.5 0.5 )
       (0.5 0.5 )
       (0.5 0.5 )
       (0.5 0.5 )
       (0.5 0.5 ))
       ((0.5 0.5 )
       (0.5 0.5 )
       (0.5 0.5 )
       (0.5 0.5 )
       (0.5 0.5 )
       (0.5 0.5 )
       (0.4166667 0.5833333 )
       (0.5 0.5 )
       (0.5 0.5 )
       (0.5 0.5 )
       (0.5 0.5 )
       (0.5 0.5 )
       (0.5 0.5 )
       (0.5 0.5 )
       (0.5 0.5 )
       (0.5 0.5 )
       (0.5 0.5 )
       (0.5 0.5 )
       (0.5 0.5 ))
       ((0.5 0.5 )
       (0.2777778 0.7222222 )
       (0.4166667 0.5833333 )
       (0.4166667 0.5833333 )
       (0.5833333 0.4166667 )
       (0.5 0.5 )
       (0.5 0.5 )
       (0.5 0.5 )
       (0.5 0.5 )
       (0.5 0.5 )
       (0.5 0.5 )
       (0.5 0.5 )
       (0.5 0.5 )
       (0.5 0.5 )
       (0.5 0.5 )
       (0.5 0.5 )
       (0.5 0.5 )
       (0.5 0.5 )
       (0.5 0.5 ))
       ((0.4166667 0.5833333 )
       (0.5 0.5 )
       (0.5 0.5 )
       (0.5 0.5 )
       (0.5 0.5 )
       (0.5 0.5 )
       (0.5 0.5 )
       (0.5 0.5 )
       (0.5 0.5 )
       (0.5 0.5 )
       (0.5 0.5 )
       (0.5 0.5 )
       (0.5 0.5 )
       (0.5 0.5 )
       (0.5 0.5 )
       (0.5 0.5 )
       (0.5 0.5 )
       (0.5 0.5 )
       (0.5 0.5 ))
       ((0.2916667 0.7083333 )
       (0.5 0.5 )
       (0.5 0.5 )
       (0.5 0.5 )
       (0.5 0.5 )
       (0.3571429 0.6428571 )
       (0.5 0.5 )
       (0.4166667 0.5833333 )
       (0.5 0.5 )
       (0.5 0.5 )
       (0.5 0.5 )
       (0.5 0.5 )
       (0.5 0.5 )
       (0.5 0.5 )
       (0.5 0.5 )
       (0.5 0.5 )
       (0.5 0.5 )
       (0.5 0.5 )
       (0.5 0.5 ))
       ((0.5 0.5 )
       (0.5 0.5 )
       (0.5833333 0.4166667 )
       (0.5 0.5 )
       (0.5 0.5 )
       (0.5 0.5 )
       (0.5 0.5 )
       (0.5 0.5 )
       (0.5 0.5 )
       (0.5 0.5 )
       (0.5 0.5 )
       (0.5 0.5 )
       (0.5 0.5 )
       (0.5 0.5 )
       (0.5 0.5 )
       (0.5 0.5 )
       (0.5 0.5 )
       (0.5 0.5 )
       (0.5 0.5 ))
       ((0.4416667 0.5583333 )
       (0.3269231 0.6730769 )
       (0.1923077 0.8076923 )
       (0.25 0.75 )
       (0.5 0.5 )
       (0.5 0.5 )
       (0.4166667 0.5833333 )
       (0.4166667 0.5833333 )
       (0.5 0.5 )
       (0.5 0.5 )
       (0.5 0.5 )
       (0.5 0.5 )
       (0.5 0.5 )
       (0.5 0.5 )
       (0.5 0.5 )
       (0.5 0.5 )
       (0.5 0.5 )
       (0.5 0.5 )
       (0.5 0.5 )))
       (((0.4166667 0.5833333 )
       (0.5 0.5 )
       (0.5 0.5 )
       (0.5 0.5 )
       (0.5 0.5 )
       (0.5 0.5 )
       (0.5 0.5 )
       (0.5 0.5 )
       (0.5 0.5 )
       (0.5 0.5 )
       (0.5 0.5 )
       (0.5 0.5 )
       (0.5 0.5 )
       (0.5 0.5 )
       (0.5 0.5 )
       (0.5 0.5 )
       (0.5 0.5 )
       (0.5 0.5 )
       (0.5 0.5 ))
       ((0.5 0.5 )
       (0.5 0.5 )
       (0.5 0.5 )
       (0.5 0.5 )
       (0.5 0.5 )
       (0.5 0.5 )
       (0.5 0.5 )
       (0.5 0.5 )
       (0.5 0.5 )
       (0.5 0.5 )
       (0.5 0.5 )
       (0.5 0.5 )
       (0.5 0.5 )
       (0.5 0.5 )
       (0.5 0.5 )
       (0.5 0.5 )
       (0.5 0.5 )
       (0.5 0.5 )
       (0.5 0.5 ))
       ((0.3571429 0.6428571 )
       (0.5 0.5 )
       (0.4166667 0.5833333 )
       (0.5 0.5 )
       (0.5 0.5 )
       (0.5 0.5 )
       (0.5 0.5 )
       (0.5 0.5 )
       (0.5 0.5 )
       (0.5 0.5 )
       (0.5 0.5 )
       (0.5 0.5 )
       (0.5 0.5 )
       (0.5 0.5 )
       (0.5 0.5 )
       (0.5 0.5 )
       (0.5 0.5 )
       (0.5 0.5 )
       (0.5 0.5 ))
       ((0.4166667 0.5833333 )
       (0.5 0.5 )
       (0.5 0.5 )
       (0.5 0.5 )
       (0.5 0.5 )
       (0.5 0.5 )
       (0.5 0.5 )
       (0.5 0.5 )
       (0.5 0.5 )
       (0.5 0.5 )
       (0.5 0.5 )
       (0.5 0.5 )
       (0.5 0.5 )
       (0.5 0.5 )
       (0.5 0.5 )
       (0.5 0.5 )
       (0.5 0.5 )
       (0.5 0.5 )
       (0.5 0.5 ))
       ((0.5 0.5 )
       (0.5 0.5 )
       (0.5 0.5 )
       (0.5 0.5 )
       (0.5 0.5 )
       (0.5 0.5 )
       (0.5 0.5 )
       (0.5 0.5 )
       (0.5 0.5 )
       (0.5 0.5 )
       (0.5 0.5 )
       (0.5 0.5 )
       (0.5 0.5 )
       (0.5 0.5 )
       (0.5 0.5 )
       (0.5 0.5 )
       (0.5 0.5 )
       (0.5 0.5 )
       (0.5 0.5 ))
       ((0.5 0.5 )
       (0.5 0.5 )
       (0.5 0.5 )
       (0.5 0.5 )
       (0.5 0.5 )
       (0.5 0.5 )
       (0.5 0.5 )
       (0.5 0.5 )
       (0.5 0.5 )
       (0.5 0.5 )
       (0.5 0.5 )
       (0.5 0.5 )
       (0.5 0.5 )
       (0.5 0.5 )
       (0.5 0.5 )
       (0.5 0.5 )
       (0.5 0.5 )
       (0.5 0.5 )
       (0.5 0.5 ))
       ((0.3125 0.6875 )
       (0.5 0.5 )
       (0.5 0.5 )
       (0.5 0.5 )
       (0.5 0.5 )
       (0.5 0.5 )
       (0.5 0.5 )
       (0.5 0.5 )
       (0.5 0.5 )
       (0.5 0.5 )
       (0.5 0.5 )
       (0.5 0.5 )
       (0.5 0.5 )
       (0.5 0.5 )
       (0.5 0.5 )
       (0.5 0.5 )
       (0.5 0.5 )
       (0.5 0.5 )
       (0.5 0.5 ))
       ((0.5 0.5 )
       (0.5 0.5 )
       (0.5 0.5 )
       (0.5 0.5 )
       (0.5 0.5 )
       (0.5 0.5 )
       (0.5 0.5 )
       (0.5 0.5 )
       (0.5 0.5 )
       (0.5 0.5 )
       (0.5 0.5 )
       (0.5 0.5 )
       (0.5 0.5 )
       (0.5 0.5 )
       (0.5 0.5 )
       (0.5 0.5 )
       (0.5 0.5 )
       (0.5 0.5 )
       (0.5 0.5 ))
       ((0.5833333 0.4166667 )
       (0.5 0.5 )
       (0.5 0.5 )
       (0.5 0.5 )
       (0.5 0.5 )
       (0.5 0.5 )
       (0.5 0.5 )
       (0.5 0.5 )
       (0.5 0.5 )
       (0.5 0.5 )
       (0.5 0.5 )
       (0.5 0.5 )
       (0.5 0.5 )
       (0.5 0.5 )
       (0.5 0.5 )
       (0.5 0.5 )
       (0.5 0.5 )
       (0.5 0.5 )
       (0.5 0.5 ))
       ((0.5 0.5 )
       (0.5 0.5 )
       (0.5 0.5 )
       (0.5 0.5 )
       (0.5 0.5 )
       (0.5 0.5 )
       (0.5 0.5 )
       (0.5 0.5 )
       (0.5 0.5 )
       (0.5 0.5 )
       (0.5 0.5 )
       (0.5 0.5 )
       (0.5 0.5 )
       (0.5 0.5 )
       (0.5 0.5 )
       (0.5 0.5 )
       (0.5 0.5 )
       (0.5 0.5 )
       (0.5 0.5 ))
       ((0.5 0.5 )
       (0.5 0.5 )
       (0.5 0.5 )
       (0.5 0.5 )
       (0.5 0.5 )
       (0.5 0.5 )
       (0.5 0.5 )
       (0.5 0.5 )
       (0.5 0.5 )
       (0.5 0.5 )
       (0.5 0.5 )
       (0.5 0.5 )
       (0.5 0.5 )
       (0.5 0.5 )
       (0.5 0.5 )
       (0.5 0.5 )
       (0.5 0.5 )
       (0.5 0.5 )
       (0.5 0.5 ))
       ((0.5 0.5 )
       (0.5 0.5 )
       (0.5 0.5 )
       (0.5 0.5 )
       (0.5 0.5 )
       (0.5 0.5 )
       (0.5 0.5 )
       (0.5 0.5 )
       (0.5 0.5 )
       (0.5 0.5 )
       (0.5 0.5 )
       (0.5 0.5 )
       (0.5 0.5 )
       (0.5 0.5 )
       (0.5 0.5 )
       (0.5 0.5 )
       (0.5 0.5 )
       (0.5 0.5 )
       (0.5 0.5 ))
       ((0.2954545 0.7045455 )
       (0.35 0.65 )
       (0.4375 0.5625 )
       (0.4375 0.5625 )
       (0.5 0.5 )
       (0.3571429 0.6428571 )
       (0.3571429 0.6428571 )
       (0.5 0.5 )
       (0.5 0.5 )
       (0.5 0.5 )
       (0.5 0.5 )
       (0.5 0.5 )
       (0.5 0.5 )
       (0.5 0.5 )
       (0.5 0.5 )
       (0.5 0.5 )
       (0.5 0.5 )
       (0.5 0.5 )
       (0.5 0.5 ))))
       ((((0.9736842 2.631581E-02 )
       (0.8557692 0.1442308 )
       (0.7 0.3 )
       (0.45 0.55 )
       (0.4166667 0.5833333 )
       (0.4166667 0.5833333 )
       (0.5 0.5 )
       (0.4166667 0.5833333 )
       (0.5 0.5 )
       (0.4166667 0.5833333 )
       (0.5 0.5 )
       (0.5 0.5 )
       (0.5 0.5 )
       (0.5 0.5 )
       (0.5 0.5 )
       (0.5 0.5 )
       (0.5 0.5 )
       (0.5 0.5 )
       (0.5 0.5 ))
       ((0.5 0.5 )
       (0.5 0.5 )
       (0.5 0.5 )
       (0.5 0.5 )
       (0.5 0.5 )
       (0.5 0.5 )
       (0.5 0.5 )
       (0.5 0.5 )
       (0.5 0.5 )
       (0.5 0.5 )
       (0.5 0.5 )
       (0.5 0.5 )
       (0.5 0.5 )
       (0.5 0.5 )
       (0.5 0.5 )
       (0.5 0.5 )
       (0.5 0.5 )
       (0.5 0.5 )
       (0.5 0.5 ))
       ((0.9210526 7.894742E-02 )
       (0.825 0.175 )
       (0.59375 0.40625 )
       (0.5909091 0.4090909 )
       (0.6428571 0.3571429 )
       (0.3571429 0.6428571 )
       (0.4166667 0.5833333 )
       (0.4166667 0.5833333 )
       (0.4166667 0.5833333 )
       (0.5 0.5 )
       (0.5 0.5 )
       (0.5 0.5 )
       (0.5 0.5 )
       (0.5 0.5 )
       (0.5 0.5 )
       (0.5 0.5 )
       (0.5 0.5 )
       (0.5 0.5 )
       (0.5 0.5 ))
       ((0.5833333 0.4166667 )
       (0.6875 0.3125 )
       (0.5 0.5 )
       (0.5 0.5 )
       (0.5 0.5 )
       (0.5 0.5 )
       (0.5 0.5 )
       (0.5 0.5 )
       (0.5 0.5 )
       (0.5 0.5 )
       (0.5 0.5 )
       (0.5 0.5 )
       (0.5 0.5 )
       (0.5 0.5 )
       (0.5 0.5 )
       (0.5 0.5 )
       (0.5 0.5 )
       (0.5 0.5 )
       (0.5 0.5 ))
       ((0.8224932 0.1775068 )
       (0.692623 0.307377 )
       (0.3474576 0.6525424 )
       (0.1666667 0.8333333 )
       (0.1964286 0.8035714 )
       (0.22 0.78 )
       (0.225 0.775 )
       (0.2083333 0.7916667 )
       (0.2692308 0.7307692 )
       (0.25 0.75 )
       (0.3125 0.6875 )
       (0.3571429 0.6428571 )
       (0.5 0.5 )
       (0.5 0.5 )
       (0.5 0.5 )
       (0.5 0.5 )
       (0.5 0.5 )
       (0.5 0.5 )
       (0.5 0.5 ))
       ((0.6428571 0.3571429 )
       (0.5833333 0.4166667 )
       (0.5 0.5 )
       (0.5 0.5 )
       (0.5 0.5 )
       (0.5 0.5 )
       (0.5 0.5 )
       (0.5 0.5 )
       (0.5 0.5 )
       (0.5 0.5 )
       (0.5 0.5 )
       (0.5 0.5 )
       (0.5 0.5 )
       (0.5 0.5 )
       (0.5 0.5 )
       (0.5 0.5 )
       (0.5 0.5 )
       (0.5 0.5 )
       (0.5 0.5 ))
       ((0.6875 0.3125 )
       (0.5 0.5 )
       (0.5833333 0.4166667 )
       (0.5 0.5 )
       (0.5 0.5 )
       (0.5 0.5 )
       (0.5 0.5 )
       (0.5 0.5 )
       (0.5 0.5 )
       (0.5 0.5 )
       (0.5 0.5 )
       (0.5 0.5 )
       (0.5 0.5 )
       (0.5 0.5 )
       (0.5 0.5 )
       (0.5 0.5 )
       (0.5 0.5 )
       (0.5 0.5 )
       (0.5 0.5 ))
       ((0.85 0.15 )
       (0.609375 0.390625 )
       (0.46875 0.53125 )
       (0.3125 0.6875 )
       (0.3125 0.6875 )
       (0.4166667 0.5833333 )
       (0.3125 0.6875 )
       (0.5 0.5 )
       (0.5 0.5 )
       (0.5 0.5 )
       (0.5 0.5 )
       (0.5 0.5 )
       (0.5 0.5 )
       (0.5 0.5 )
       (0.5 0.5 )
       (0.5 0.5 )
       (0.5 0.5 )
       (0.5 0.5 )
       (0.5 0.5 ))
       ((0.8333333 0.1666667 )
       (0.75 0.25 )
       (0.5625 0.4375 )
       (0.4375 0.5625 )
       (0.3571429 0.6428571 )
       (0.4166667 0.5833333 )
       (0.4166667 0.5833333 )
       (0.5 0.5 )
       (0.5 0.5 )
       (0.5 0.5 )
       (0.5 0.5 )
       (0.5 0.5 )
       (0.5 0.5 )
       (0.5 0.5 )
       (0.5 0.5 )
       (0.5 0.5 )
       (0.5 0.5 )
       (0.5 0.5 )
       (0.5 0.5 ))
       ((0.75 0.25 )
       (0.5833333 0.4166667 )
       (0.5 0.5 )
       (0.5 0.5 )
       (0.5 0.5 )
       (0.5 0.5 )
       (0.5 0.5 )
       (0.5 0.5 )
       (0.5 0.5 )
       (0.5 0.5 )
       (0.5 0.5 )
       (0.5 0.5 )
       (0.5 0.5 )
       (0.5 0.5 )
       (0.5 0.5 )
       (0.5 0.5 )
       (0.5 0.5 )
       (0.5 0.5 )
       (0.5 0.5 ))
       ((0.6944444 0.3055556 )
       (0.625 0.375 )
       (0.5833333 0.4166667 )
       (0.5 0.5 )
       (0.5 0.5 )
       (0.5 0.5 )
       (0.5 0.5 )
       (0.5 0.5 )
       (0.5 0.5 )
       (0.5 0.5 )
       (0.5 0.5 )
       (0.5 0.5 )
       (0.5 0.5 )
       (0.5 0.5 )
       (0.5 0.5 )
       (0.5 0.5 )
       (0.5 0.5 )
       (0.5 0.5 )
       (0.5 0.5 ))
       ((0.9518518 4.814821E-02 )
       (0.8229167 0.1770833 )
       (0.6764706 0.3235294 )
       (0.5769231 0.4230769 )
       (0.5 0.5 )
       (0.35 0.65 )
       (0.4166667 0.5833333 )
       (0.5 0.5 )
       (0.5 0.5 )
       (0.5 0.5 )
       (0.5 0.5 )
       (0.5 0.5 )
       (0.5 0.5 )
       (0.5 0.5 )
       (0.5 0.5 )
       (0.5 0.5 )
       (0.5 0.5 )
       (0.5 0.5 )
       (0.5 0.5 ))
       ((0.8819019 0.1180981 )
       (0.8289474 0.1710526 )
       (0.6071429 0.3928571 )
       (0.3541667 0.6458333 )
       (0.2058824 0.7941176 )
       (0.2916667 0.7083333 )
       (0.35 0.65 )
       (0.375 0.625 )
       (0.3125 0.6875 )
       (0.4166667 0.5833333 )
       (0.5 0.5 )
       (0.5 0.5 )
       (0.5 0.5 )
       (0.5 0.5 )
       (0.5 0.5 )
       (0.5 0.5 )
       (0.5 0.5 )
       (0.5 0.5 )
       (0.5 0.5 )))
       (((0.8350254 0.1649746 )
       (0.6118421 0.3881579 )
       (0.390625 0.609375 )
       (0.326087 0.673913 )
       (0.21875 0.78125 )
       (0.2272727 0.7727273 )
       (0.2777778 0.7222222 )
       (0.5 0.5 )
       (0.3571429 0.6428571 )
       (0.4166667 0.5833333 )
       (0.4166667 0.5833333 )
       (0.4166667 0.5833333 )
       (0.5 0.5 )
       (0.5 0.5 )
       (0.5 0.5 )
       (0.5 0.5 )
       (0.5 0.5 )
       (0.5 0.5 )
       (0.5 0.5 ))
       ((0.5 0.5 )
       (0.5 0.5 )
       (0.5 0.5 )
       (0.5 0.5 )
       (0.5 0.5 )
       (0.5 0.5 )
       (0.5 0.5 )
       (0.5 0.5 )
       (0.5 0.5 )
       (0.5 0.5 )
       (0.5 0.5 )
       (0.5 0.5 )
       (0.5 0.5 )
       (0.5 0.5 )
       (0.5 0.5 )
       (0.5 0.5 )
       (0.5 0.5 )
       (0.5 0.5 )
       (0.5 0.5 ))
       ((0.875 0.125 )
       (0.6886792 0.3113208 )
       (0.5 0.5 )
       (0.6764706 0.3235294 )
       (0.5 0.5 )
       (0.35 0.65 )
       (0.4375 0.5625 )
       (0.4166667 0.5833333 )
       (0.5 0.5 )
       (0.5 0.5 )
       (0.4166667 0.5833333 )
       (0.5 0.5 )
       (0.4166667 0.5833333 )
       (0.5 0.5 )
       (0.5 0.5 )
       (0.5 0.5 )
       (0.5 0.5 )
       (0.5 0.5 )
       (0.5 0.5 ))
       ((0.75 0.25 )
       (0.7222222 0.2777778 )
       (0.5833333 0.4166667 )
       (0.5833333 0.4166667 )
       (0.5 0.5 )
       (0.5 0.5 )
       (0.4166667 0.5833333 )
       (0.5 0.5 )
       (0.5 0.5 )
       (0.5 0.5 )
       (0.5 0.5 )
       (0.5 0.5 )
       (0.5 0.5 )
       (0.5 0.5 )
       (0.5 0.5 )
       (0.5 0.5 )
       (0.5 0.5 )
       (0.5 0.5 )
       (0.5 0.5 ))
       ((0.7 0.3 )
       (0.3918919 0.6081081 )
       (0.25 0.75 )
       (0.2368421 0.7631579 )
       (0.25 0.75 )
       (0.3125 0.6875 )
       (0.3125 0.6875 )
       (0.3125 0.6875 )
       (0.4166667 0.5833333 )
       (0.3571429 0.6428571 )
       (0.4166667 0.5833333 )
       (0.5 0.5 )
       (0.5 0.5 )
       (0.5 0.5 )
       (0.5 0.5 )
       (0.5 0.5 )
       (0.5 0.5 )
       (0.5 0.5 )
       (0.5 0.5 ))
       ((0.5 0.5 )
       (0.5 0.5 )
       (0.4166667 0.5833333 )
       (0.3125 0.6875 )
       (0.5 0.5 )
       (0.4166667 0.5833333 )
       (0.5 0.5 )
       (0.5 0.5 )
       (0.5 0.5 )
       (0.5 0.5 )
       (0.5 0.5 )
       (0.5 0.5 )
       (0.5 0.5 )
       (0.5 0.5 )
       (0.5 0.5 )
       (0.5 0.5 )
       (0.5 0.5 )
       (0.5 0.5 )
       (0.5 0.5 ))
       ((0.45 0.55 )
       (0.3181818 0.6818182 )
       (0.2777778 0.7222222 )
       (0.5 0.5 )
       (0.5 0.5 )
       (0.4166667 0.5833333 )
       (0.5 0.5 )
       (0.4166667 0.5833333 )
       (0.5 0.5 )
       (0.5 0.5 )
       (0.5 0.5 )
       (0.5 0.5 )
       (0.5 0.5 )
       (0.5 0.5 )
       (0.5 0.5 )
       (0.5 0.5 )
       (0.5 0.5 )
       (0.5 0.5 )
       (0.5 0.5 ))
       ((0.475 0.525 )
       (0.326087 0.673913 )
       (0.3055556 0.6944444 )
       (0.28125 0.71875 )
       (0.2083333 0.7916667 )
       (0.3181818 0.6818182 )
       (0.3125 0.6875 )
       (0.3571429 0.6428571 )
       (0.4166667 0.5833333 )
       (0.5 0.5 )
       (0.5 0.5 )
       (0.5 0.5 )
       (0.5 0.5 )
       (0.5 0.5 )
       (0.5 0.5 )
       (0.5 0.5 )
       (0.5 0.5 )
       (0.5 0.5 )
       (0.5 0.5 ))
       ((0.7 0.3 )
       (0.6136364 0.3863636 )
       (0.5277778 0.4722222 )
       (0.2777778 0.7222222 )
       (0.4166667 0.5833333 )
       (0.4166667 0.5833333 )
       (0.3571429 0.6428571 )
       (0.5 0.5 )
       (0.5 0.5 )
       (0.5 0.5 )
       (0.5 0.5 )
       (0.5 0.5 )
       (0.5 0.5 )
       (0.5 0.5 )
       (0.5 0.5 )
       (0.5 0.5 )
       (0.5 0.5 )
       (0.5 0.5 )
       (0.5 0.5 ))
       ((0.3888889 0.6111111 )
       (0.5833333 0.4166667 )
       (0.5 0.5 )
       (0.5 0.5 )
       (0.4166667 0.5833333 )
       (0.5 0.5 )
       (0.5 0.5 )
       (0.5 0.5 )
       (0.5 0.5 )
       (0.5 0.5 )
       (0.5 0.5 )
       (0.5 0.5 )
       (0.5 0.5 )
       (0.5 0.5 )
       (0.5 0.5 )
       (0.5 0.5 )
       (0.5 0.5 )
       (0.5 0.5 )
       (0.5 0.5 ))
       ((0.5892857 0.4107143 )
       (0.3888889 0.6111111 )
       (0.5 0.5 )
       (0.4166667 0.5833333 )
       (0.5 0.5 )
       (0.5 0.5 )
       (0.5 0.5 )
       (0.5 0.5 )
       (0.5 0.5 )
       (0.5 0.5 )
       (0.5 0.5 )
       (0.5 0.5 )
       (0.5 0.5 )
       (0.5 0.5 )
       (0.5 0.5 )
       (0.5 0.5 )
       (0.5 0.5 )
       (0.5 0.5 )
       (0.5 0.5 ))
       ((0.9366197 0.0633803 )
       (0.7222222 0.2777778 )
       (0.5769231 0.4230769 )
       (0.6428571 0.3571429 )
       (0.5 0.5 )
       (0.5625 0.4375 )
       (0.5 0.5 )
       (0.5 0.5 )
       (0.4166667 0.5833333 )
       (0.5 0.5 )
       (0.5 0.5 )
       (0.5 0.5 )
       (0.5 0.5 )
       (0.5 0.5 )
       (0.5 0.5 )
       (0.5 0.5 )
       (0.5 0.5 )
       (0.5 0.5 )
       (0.5 0.5 ))
       ((0.777027 0.222973 )
       (0.63 0.37 )
       (0.4940476 0.5059524 )
       (0.2234043 0.7765957 )
       (0.3970588 0.6029412 )
       (0.2826087 0.7173913 )
       (0.225 0.775 )
       (0.25 0.75 )
       (0.2272727 0.7727273 )
       (0.2777778 0.7222222 )
       (0.3125 0.6875 )
       (0.4166667 0.5833333 )
       (0.5 0.5 )
       (0.5833333 0.4166667 )
       (0.5 0.5 )
       (0.5 0.5 )
       (0.5 0.5 )
       (0.5 0.5 )
       (0.5 0.5 )))
       (((0.3181818 0.6818182 )
       (0.2647059 0.7352941 )
       (0.3125 0.6875 )
       (0.5 0.5 )
       (0.3125 0.6875 )
       (0.5 0.5 )
       (0.5 0.5 )
       (0.5 0.5 )
       (0.5 0.5 )
       (0.5 0.5 )
       (0.5 0.5 )
       (0.5 0.5 )
       (0.5 0.5 )
       (0.5 0.5 )
       (0.5 0.5 )
       (0.5 0.5 )
       (0.5 0.5 )
       (0.5 0.5 )
       (0.5 0.5 ))
       ((0.5 0.5 )
       (0.5 0.5 )
       (0.5 0.5 )
       (0.5 0.5 )
       (0.5 0.5 )
       (0.5 0.5 )
       (0.5 0.5 )
       (0.5 0.5 )
       (0.5 0.5 )
       (0.5 0.5 )
       (0.5 0.5 )
       (0.5 0.5 )
       (0.5 0.5 )
       (0.5 0.5 )
       (0.5 0.5 )
       (0.5 0.5 )
       (0.5 0.5 )
       (0.5 0.5 )
       (0.5 0.5 ))
       ((0.4583333 0.5416667 )
       (0.3571429 0.6428571 )
       (0.3125 0.6875 )
       (0.3571429 0.6428571 )
       (0.3571429 0.6428571 )
       (0.5 0.5 )
       (0.3125 0.6875 )
       (0.5 0.5 )
       (0.5 0.5 )
       (0.5 0.5 )
       (0.5 0.5 )
       (0.5 0.5 )
       (0.5 0.5 )
       (0.5 0.5 )
       (0.5 0.5 )
       (0.5 0.5 )
       (0.5 0.5 )
       (0.5 0.5 )
       (0.5 0.5 ))
       ((0.75 0.25 )
       (0.65 0.35 )
       (0.5625 0.4375 )
       (0.5 0.5 )
       (0.5 0.5 )
       (0.4166667 0.5833333 )
       (0.5 0.5 )
       (0.5 0.5 )
       (0.5 0.5 )
       (0.5 0.5 )
       (0.5 0.5 )
       (0.5 0.5 )
       (0.5 0.5 )
       (0.5 0.5 )
       (0.5 0.5 )
       (0.5 0.5 )
       (0.5 0.5 )
       (0.5 0.5 )
       (0.5 0.5 ))
       ((0.5833333 0.4166667 )
       (0.5 0.5 )
       (0.5 0.5 )
       (0.5 0.5 )
       (0.5 0.5 )
       (0.5 0.5 )
       (0.5 0.5 )
       (0.5 0.5 )
       (0.5 0.5 )
       (0.5 0.5 )
       (0.5 0.5 )
       (0.5 0.5 )
       (0.5 0.5 )
       (0.5 0.5 )
       (0.5 0.5 )
       (0.5 0.5 )
       (0.5 0.5 )
       (0.5 0.5 )
       (0.5 0.5 ))
       ((0.5 0.5 )
       (0.5 0.5 )
       (0.5 0.5 )
       (0.5 0.5 )
       (0.5 0.5 )
       (0.5 0.5 )
       (0.5 0.5 )
       (0.5 0.5 )
       (0.5 0.5 )
       (0.5 0.5 )
       (0.5 0.5 )
       (0.5 0.5 )
       (0.5 0.5 )
       (0.5 0.5 )
       (0.5 0.5 )
       (0.5 0.5 )
       (0.5 0.5 )
       (0.5 0.5 )
       (0.5 0.5 ))
       ((0.3181818 0.6818182 )
       (0.4375 0.5625 )
       (0.2777778 0.7222222 )
       (0.3571429 0.6428571 )
       (0.5 0.5 )
       (0.3571429 0.6428571 )
       (0.5 0.5 )
       (0.3125 0.6875 )
       (0.5 0.5 )
       (0.5 0.5 )
       (0.5 0.5 )
       (0.5 0.5 )
       (0.5 0.5 )
       (0.5 0.5 )
       (0.5 0.5 )
       (0.5 0.5 )
       (0.5 0.5 )
       (0.5 0.5 )
       (0.5 0.5 ))
       ((0.4166667 0.5833333 )
       (0.4166667 0.5833333 )
       (0.4166667 0.5833333 )
       (0.4166667 0.5833333 )
       (0.5 0.5 )
       (0.5 0.5 )
       (0.5 0.5 )
       (0.5 0.5 )
       (0.5 0.5 )
       (0.5 0.5 )
       (0.5 0.5 )
       (0.5 0.5 )
       (0.5 0.5 )
       (0.5 0.5 )
       (0.5 0.5 )
       (0.5 0.5 )
       (0.5 0.5 )
       (0.5 0.5 )
       (0.5 0.5 ))
       ((0.3571429 0.6428571 )
       (0.3125 0.6875 )
       (0.2272727 0.7727273 )
       (0.4166667 0.5833333 )
       (0.5 0.5 )
       (0.3571429 0.6428571 )
       (0.5 0.5 )
       (0.5 0.5 )
       (0.5 0.5 )
       (0.5 0.5 )
       (0.5 0.5 )
       (0.5 0.5 )
       (0.5 0.5 )
       (0.5 0.5 )
       (0.5 0.5 )
       (0.5 0.5 )
       (0.5 0.5 )
       (0.5 0.5 )
       (0.5 0.5 ))
       ((0.5 0.5 )
       (0.6428571 0.3571429 )
       (0.4166667 0.5833333 )
       (0.5 0.5 )
       (0.5 0.5 )
       (0.5 0.5 )
       (0.5 0.5 )
       (0.4166667 0.5833333 )
       (0.5 0.5 )
       (0.5 0.5 )
       (0.5 0.5 )
       (0.5 0.5 )
       (0.5 0.5 )
       (0.5 0.5 )
       (0.5 0.5 )
       (0.5 0.5 )
       (0.5 0.5 )
       (0.5 0.5 )
       (0.5 0.5 ))
       ((0.3928571 0.6071429 )
       (0.3888889 0.6111111 )
       (0.4166667 0.5833333 )
       (0.5 0.5 )
       (0.5 0.5 )
       (0.5 0.5 )
       (0.5 0.5 )
       (0.5 0.5 )
       (0.5 0.5 )
       (0.5 0.5 )
       (0.5 0.5 )
       (0.5 0.5 )
       (0.5 0.5 )
       (0.5 0.5 )
       (0.5 0.5 )
       (0.5 0.5 )
       (0.5 0.5 )
       (0.5 0.5 )
       (0.5 0.5 ))
       ((0.5833333 0.4166667 )
       (0.5 0.5 )
       (0.5 0.5 )
       (0.5 0.5 )
       (0.5 0.5 )
       (0.5 0.5 )
       (0.5 0.5 )
       (0.5 0.5 )
       (0.5 0.5 )
       (0.5 0.5 )
       (0.5 0.5 )
       (0.5 0.5 )
       (0.5 0.5 )
       (0.5 0.5 )
       (0.5 0.5 )
       (0.5 0.5 )
       (0.5 0.5 )
       (0.5 0.5 )
       (0.5 0.5 ))
       ((0.5705882 0.4294118 )
       (0.3852459 0.6147541 )
       (0.265625 0.734375 )
       (0.2916667 0.7083333 )
       (0.3571429 0.6428571 )
       (0.4375 0.5625 )
       (0.3571429 0.6428571 )
       (0.5 0.5 )
       (0.4166667 0.5833333 )
       (0.5 0.5 )
       (0.4166667 0.5833333 )
       (0.5 0.5 )
       (0.5 0.5 )
       (0.5 0.5 )
       (0.5 0.5 )
       (0.5 0.5 )
       (0.5 0.5 )
       (0.5 0.5 )
       (0.5 0.5 )))
       (((0.2272727 0.7727273 )
       (0.2083333 0.7916667 )
       (0.5 0.5 )
       (0.5 0.5 )
       (0.5 0.5 )
       (0.5 0.5 )
       (0.5 0.5 )
       (0.5 0.5 )
       (0.5 0.5 )
       (0.5 0.5 )
       (0.5 0.5 )
       (0.5 0.5 )
       (0.5 0.5 )
       (0.5 0.5 )
       (0.5 0.5 )
       (0.5 0.5 )
       (0.5 0.5 )
       (0.5 0.5 )
       (0.5 0.5 ))
       ((0.6428571 0.3571429 )
       (0.5 0.5 )
       (0.5 0.5 )
       (0.5833333 0.4166667 )
       (0.5 0.5 )
       (0.5 0.5 )
       (0.5 0.5 )
       (0.5 0.5 )
       (0.5 0.5 )
       (0.5 0.5 )
       (0.5 0.5 )
       (0.5 0.5 )
       (0.5 0.5 )
       (0.5 0.5 )
       (0.5 0.5 )
       (0.5 0.5 )
       (0.5 0.5 )
       (0.5 0.5 )
       (0.5 0.5 ))
       ((0.4375 0.5625 )
       (0.4166667 0.5833333 )
       (0.5833333 0.4166667 )
       (0.4166667 0.5833333 )
       (0.5 0.5 )
       (0.4166667 0.5833333 )
       (0.5 0.5 )
       (0.5 0.5 )
       (0.5 0.5 )
       (0.5 0.5 )
       (0.5 0.5 )
       (0.5 0.5 )
       (0.5 0.5 )
       (0.5 0.5 )
       (0.5 0.5 )
       (0.5 0.5 )
       (0.5 0.5 )
       (0.5 0.5 )
       (0.5 0.5 ))
       ((0.75 0.25 )
       (0.5 0.5 )
       (0.5 0.5 )
       (0.5 0.5 )
       (0.5 0.5 )
       (0.5 0.5 )
       (0.5 0.5 )
       (0.5 0.5 )
       (0.5 0.5 )
       (0.5 0.5 )
       (0.5 0.5 )
       (0.5 0.5 )
       (0.5 0.5 )
       (0.5 0.5 )
       (0.5 0.5 )
       (0.5 0.5 )
       (0.5 0.5 )
       (0.5 0.5 )
       (0.5 0.5 ))
       ((0.5 0.5 )
       (0.5 0.5 )
       (0.5 0.5 )
       (0.5 0.5 )
       (0.5 0.5 )
       (0.5 0.5 )
       (0.5 0.5 )
       (0.5 0.5 )
       (0.5 0.5 )
       (0.5 0.5 )
       (0.5 0.5 )
       (0.5 0.5 )
       (0.5 0.5 )
       (0.5 0.5 )
       (0.5 0.5 )
       (0.5 0.5 )
       (0.5 0.5 )
       (0.5 0.5 )
       (0.5 0.5 ))
       ((0.5 0.5 )
       (0.4166667 0.5833333 )
       (0.4166667 0.5833333 )
       (0.5 0.5 )
       (0.5 0.5 )
       (0.5 0.5 )
       (0.5 0.5 )
       (0.5 0.5 )
       (0.5 0.5 )
       (0.5 0.5 )
       (0.5 0.5 )
       (0.5 0.5 )
       (0.5 0.5 )
       (0.5 0.5 )
       (0.5 0.5 )
       (0.5 0.5 )
       (0.5 0.5 )
       (0.5 0.5 )
       (0.5 0.5 ))
       ((0.3888889 0.6111111 )
       (0.3125 0.6875 )
       (0.5 0.5 )
       (0.5 0.5 )
       (0.4166667 0.5833333 )
       (0.5 0.5 )
       (0.5 0.5 )
       (0.5 0.5 )
       (0.5 0.5 )
       (0.5 0.5 )
       (0.5 0.5 )
       (0.5 0.5 )
       (0.5 0.5 )
       (0.5 0.5 )
       (0.5 0.5 )
       (0.5 0.5 )
       (0.5 0.5 )
       (0.5 0.5 )
       (0.5 0.5 ))
       ((0.5 0.5 )
       (0.5 0.5 )
       (0.5 0.5 )
       (0.5 0.5 )
       (0.5 0.5 )
       (0.5 0.5 )
       (0.5 0.5 )
       (0.5 0.5 )
       (0.5 0.5 )
       (0.5 0.5 )
       (0.5 0.5 )
       (0.5 0.5 )
       (0.5 0.5 )
       (0.5 0.5 )
       (0.5 0.5 )
       (0.5 0.5 )
       (0.5 0.5 )
       (0.5 0.5 )
       (0.5 0.5 ))
       ((0.3125 0.6875 )
       (0.4166667 0.5833333 )
       (0.5 0.5 )
       (0.4166667 0.5833333 )
       (0.5 0.5 )
       (0.5 0.5 )
       (0.5 0.5 )
       (0.5 0.5 )
       (0.5 0.5 )
       (0.5 0.5 )
       (0.5 0.5 )
       (0.5 0.5 )
       (0.5 0.5 )
       (0.5 0.5 )
       (0.5 0.5 )
       (0.5 0.5 )
       (0.5 0.5 )
       (0.5 0.5 )
       (0.5 0.5 ))
       ((0.5 0.5 )
       (0.4166667 0.5833333 )
       (0.5 0.5 )
       (0.4166667 0.5833333 )
       (0.5833333 0.4166667 )
       (0.5 0.5 )
       (0.5 0.5 )
       (0.5 0.5 )
       (0.5 0.5 )
       (0.5 0.5 )
       (0.5 0.5 )
       (0.5 0.5 )
       (0.5 0.5 )
       (0.5 0.5 )
       (0.5 0.5 )
       (0.5 0.5 )
       (0.5 0.5 )
       (0.5 0.5 )
       (0.5 0.5 ))
       ((0.5 0.5 )
       (0.5 0.5 )
       (0.5 0.5 )
       (0.5 0.5 )
       (0.5 0.5 )
       (0.5 0.5 )
       (0.5 0.5 )
       (0.5 0.5 )
       (0.5 0.5 )
       (0.5 0.5 )
       (0.5 0.5 )
       (0.5 0.5 )
       (0.5 0.5 )
       (0.5 0.5 )
       (0.5 0.5 )
       (0.5 0.5 )
       (0.5 0.5 )
       (0.5 0.5 )
       (0.5 0.5 ))
       ((0.5833333 0.4166667 )
       (0.4166667 0.5833333 )
       (0.5833333 0.4166667 )
       (0.5 0.5 )
       (0.5 0.5 )
       (0.5 0.5 )
       (0.5 0.5 )
       (0.5 0.5 )
       (0.5 0.5 )
       (0.5 0.5 )
       (0.5 0.5 )
       (0.5 0.5 )
       (0.5 0.5 )
       (0.5 0.5 )
       (0.5 0.5 )
       (0.5 0.5 )
       (0.5 0.5 )
       (0.5 0.5 )
       (0.5 0.5 ))
       ((0.287037 0.712963 )
       (0.2954545 0.7045455 )
       (0.4090909 0.5909091 )
       (0.3571429 0.6428571 )
       (0.3571429 0.6428571 )
       (0.4166667 0.5833333 )
       (0.4166667 0.5833333 )
       (0.4166667 0.5833333 )
       (0.5 0.5 )
       (0.5 0.5 )
       (0.5 0.5 )
       (0.5 0.5 )
       (0.5 0.5 )
       (0.5 0.5 )
       (0.5 0.5 )
       (0.5 0.5 )
       (0.5 0.5 )
       (0.5 0.5 )
       (0.5 0.5 ))))
       ((((0.8963414 0.1036586 )
       (0.796875 0.203125 )
       (0.5416667 0.4583333 )
       (0.5833333 0.4166667 )
       (0.4375 0.5625 )
       (0.5 0.5 )
       (0.5 0.5 )
       (0.4166667 0.5833333 )
       (0.4166667 0.5833333 )
       (0.5 0.5 )
       (0.5 0.5 )
       (0.5 0.5 )
       (0.5 0.5 )
       (0.5 0.5 )
       (0.5 0.5 )
       (0.5 0.5 )
       (0.5 0.5 )
       (0.5 0.5 )
       (0.5 0.5 ))
       ((0.5 0.5 )
       (0.5 0.5 )
       (0.5 0.5 )
       (0.5 0.5 )
       (0.5 0.5 )
       (0.5 0.5 )
       (0.5 0.5 )
       (0.5 0.5 )
       (0.5 0.5 )
       (0.5 0.5 )
       (0.5 0.5 )
       (0.5 0.5 )
       (0.5 0.5 )
       (0.5 0.5 )
       (0.5 0.5 )
       (0.5 0.5 )
       (0.5 0.5 )
       (0.5 0.5 )
       (0.5 0.5 ))
       ((0.9375 0.0625 )
       (0.8714285 0.1285715 )
       (0.6785714 0.3214286 )
       (0.6111111 0.3888889 )
       (0.5 0.5 )
       (0.3571429 0.6428571 )
       (0.5 0.5 )
       (0.5 0.5 )
       (0.5 0.5 )
       (0.5 0.5 )
       (0.5 0.5 )
       (0.5 0.5 )
       (0.5 0.5 )
       (0.5 0.5 )
       (0.5 0.5 )
       (0.5 0.5 )
       (0.5 0.5 )
       (0.5 0.5 )
       (0.5 0.5 ))
       ((0.5 0.5 )
       (0.5 0.5 )
       (0.5 0.5 )
       (0.5 0.5 )
       (0.5 0.5 )
       (0.5 0.5 )
       (0.5 0.5 )
       (0.5 0.5 )
       (0.5 0.5 )
       (0.5 0.5 )
       (0.5 0.5 )
       (0.5 0.5 )
       (0.5 0.5 )
       (0.5 0.5 )
       (0.5 0.5 )
       (0.5 0.5 )
       (0.5 0.5 )
       (0.5 0.5 )
       (0.5 0.5 ))
       ((0.8812155 0.1187845 )
       (0.5793651 0.4206349 )
       (0.2714286 0.7285714 )
       (0.2407407 0.7592593 )
       (0.1666667 0.8333333 )
       (0.25 0.75 )
       (0.3125 0.6875 )
       (0.4166667 0.5833333 )
       (0.4166667 0.5833333 )
       (0.4166667 0.5833333 )
       (0.2777778 0.7222222 )
       (0.5 0.5 )
       (0.5 0.5 )
       (0.5 0.5 )
       (0.5 0.5 )
       (0.5 0.5 )
       (0.5 0.5 )
       (0.5 0.5 )
       (0.5 0.5 ))
       ((0.5 0.5 )
       (0.5 0.5 )
       (0.4166667 0.5833333 )
       (0.5 0.5 )
       (0.5 0.5 )
       (0.5 0.5 )
       (0.5 0.5 )
       (0.5 0.5 )
       (0.5 0.5 )
       (0.5 0.5 )
       (0.5 0.5 )
       (0.5 0.5 )
       (0.5 0.5 )
       (0.5 0.5 )
       (0.5 0.5 )
       (0.5 0.5 )
       (0.5 0.5 )
       (0.5 0.5 )
       (0.5 0.5 ))
       ((0.5833333 0.4166667 )
       (0.5833333 0.4166667 )
       (0.6875 0.3125 )
       (0.4166667 0.5833333 )
       (0.5 0.5 )
       (0.5 0.5 )
       (0.5 0.5 )
       (0.5 0.5 )
       (0.5 0.5 )
       (0.5 0.5 )
       (0.5 0.5 )
       (0.5 0.5 )
       (0.5 0.5 )
       (0.5 0.5 )
       (0.5 0.5 )
       (0.5 0.5 )
       (0.5 0.5 )
       (0.5 0.5 )
       (0.5 0.5 ))
       ((0.8714285 0.1285715 )
       (0.75 0.25 )
       (0.7307692 0.2692308 )
       (0.4375 0.5625 )
       (0.5 0.5 )
       (0.5 0.5 )
       (0.5 0.5 )
       (0.5 0.5 )
       (0.5 0.5 )
       (0.4166667 0.5833333 )
       (0.5 0.5 )
       (0.4166667 0.5833333 )
       (0.5 0.5 )
       (0.5 0.5 )
       (0.5 0.5 )
       (0.5 0.5 )
       (0.5 0.5 )
       (0.5 0.5 )
       (0.5 0.5 ))
       ((0.8333333 0.1666667 )
       (0.7916667 0.2083333 )
       (0.4166667 0.5833333 )
       (0.5833333 0.4166667 )
       (0.5 0.5 )
       (0.4166667 0.5833333 )
       (0.5 0.5 )
       (0.5 0.5 )
       (0.5 0.5 )
       (0.5 0.5 )
       (0.5 0.5 )
       (0.5 0.5 )
       (0.5 0.5 )
       (0.5 0.5 )
       (0.5 0.5 )
       (0.5 0.5 )
       (0.5 0.5 )
       (0.5 0.5 )
       (0.5 0.5 ))
       ((0.5833333 0.4166667 )
       (0.5 0.5 )
       (0.5833333 0.4166667 )
       (0.5 0.5 )
       (0.5 0.5 )
       (0.5 0.5 )
       (0.5 0.5 )
       (0.5 0.5 )
       (0.5 0.5 )
       (0.5 0.5 )
       (0.5 0.5 )
       (0.5 0.5 )
       (0.5 0.5 )
       (0.5 0.5 )
       (0.5 0.5 )
       (0.5 0.5 )
       (0.5 0.5 )
       (0.5 0.5 )
       (0.5 0.5 ))
       ((0.55 0.45 )
       (0.5833333 0.4166667 )
       (0.5 0.5 )
       (0.4166667 0.5833333 )
       (0.5 0.5 )
       (0.5 0.5 )
       (0.5 0.5 )
       (0.5 0.5 )
       (0.5 0.5 )
       (0.5 0.5 )
       (0.5 0.5 )
       (0.5 0.5 )
       (0.5 0.5 )
       (0.5 0.5 )
       (0.5 0.5 )
       (0.5 0.5 )
       (0.5 0.5 )
       (0.5 0.5 )
       (0.5 0.5 ))
       ((0.9301471 6.985289E-02 )
       (0.8414634 0.1585366 )
       (0.75 0.25 )
       (0.5 0.5 )
       (0.3571429 0.6428571 )
       (0.3571429 0.6428571 )
       (0.5 0.5 )
       (0.5 0.5 )
       (0.3571429 0.6428571 )
       (0.5 0.5 )
       (0.5 0.5 )
       (0.5 0.5 )
       (0.5 0.5 )
       (0.5 0.5 )
       (0.5 0.5 )
       (0.5 0.5 )
       (0.5 0.5 )
       (0.5 0.5 )
       (0.5 0.5 ))
       ((0.8803681 0.1196319 )
       (0.8376623 0.1623377 )
       (0.7205882 0.2794118 )
       (0.6176471 0.3823529 )
       (0.5 0.5 )
       (0.4166667 0.5833333 )
       (0.4166667 0.5833333 )
       (0.5 0.5 )
       (0.5 0.5 )
       (0.5 0.5 )
       (0.4166667 0.5833333 )
       (0.4166667 0.5833333 )
       (0.5 0.5 )
       (0.5 0.5 )
       (0.4166667 0.5833333 )
       (0.5 0.5 )
       (0.4166667 0.5833333 )
       (0.4166667 0.5833333 )
       (0.5 0.5 )))
       (((0.8458334 0.1541666 )
       (0.6891892 0.3108108 )
       (0.4166667 0.5833333 )
       (0.4047619 0.5952381 )
       (0.2916667 0.7083333 )
       (0.4230769 0.5769231 )
       (0.5 0.5 )
       (0.3571429 0.6428571 )
       (0.5 0.5 )
       (0.4166667 0.5833333 )
       (0.5 0.5 )
       (0.5 0.5 )
       (0.5 0.5 )
       (0.5 0.5 )
       (0.5 0.5 )
       (0.5 0.5 )
       (0.5 0.5 )
       (0.5 0.5 )
       (0.5 0.5 ))
       ((0.5 0.5 )
       (0.5 0.5 )
       (0.5 0.5 )
       (0.5 0.5 )
       (0.5 0.5 )
       (0.5 0.5 )
       (0.5 0.5 )
       (0.5 0.5 )
       (0.5 0.5 )
       (0.5 0.5 )
       (0.5 0.5 )
       (0.5 0.5 )
       (0.5 0.5 )
       (0.5 0.5 )
       (0.5 0.5 )
       (0.5 0.5 )
       (0.5 0.5 )
       (0.5 0.5 )
       (0.5 0.5 ))
       ((0.9140625 0.0859375 )
       (0.765625 0.234375 )
       (0.6052632 0.3947368 )
       (0.5 0.5 )
       (0.375 0.625 )
       (0.55 0.45 )
       (0.4166667 0.5833333 )
       (0.4166667 0.5833333 )
       (0.4166667 0.5833333 )
       (0.4166667 0.5833333 )
       (0.5 0.5 )
       (0.5 0.5 )
       (0.5 0.5 )
       (0.4166667 0.5833333 )
       (0.4166667 0.5833333 )
       (0.4166667 0.5833333 )
       (0.5 0.5 )
       (0.5 0.5 )
       (0.5 0.5 ))
       ((0.875 0.125 )
       (0.75 0.25 )
       (0.5625 0.4375 )
       (0.5 0.5 )
       (0.5 0.5 )
       (0.5 0.5 )
       (0.5 0.5 )
       (0.5 0.5 )
       (0.5 0.5 )
       (0.5 0.5 )
       (0.5 0.5 )
       (0.5 0.5 )
       (0.5 0.5 )
       (0.5 0.5 )
       (0.5 0.5 )
       (0.5 0.5 )
       (0.5 0.5 )
       (0.5 0.5 )
       (0.5 0.5 ))
       ((0.4038461 0.5961539 )
       (0.3055556 0.6944444 )
       (0.3235294 0.6764706 )
       (0.2692308 0.7307692 )
       (0.3181818 0.6818182 )
       (0.4166667 0.5833333 )
       (0.5 0.5 )
       (0.4166667 0.5833333 )
       (0.3571429 0.6428571 )
       (0.3125 0.6875 )
       (0.5 0.5 )
       (0.5 0.5 )
       (0.5 0.5 )
       (0.5 0.5 )
       (0.5 0.5 )
       (0.5 0.5 )
       (0.5 0.5 )
       (0.5 0.5 )
       (0.5 0.5 ))
       ((0.2777778 0.7222222 )
       (0.3571429 0.6428571 )
       (0.4166667 0.5833333 )
       (0.5 0.5 )
       (0.5 0.5 )
       (0.5 0.5 )
       (0.5 0.5 )
       (0.5 0.5 )
       (0.5 0.5 )
       (0.5 0.5 )
       (0.5 0.5 )
       (0.5 0.5 )
       (0.5 0.5 )
       (0.5 0.5 )
       (0.5 0.5 )
       (0.5 0.5 )
       (0.5 0.5 )
       (0.5 0.5 )
       (0.5 0.5 ))
       ((0.5 0.5 )
       (0.5 0.5 )
       (0.4166667 0.5833333 )
       (0.4166667 0.5833333 )
       (0.3571429 0.6428571 )
       (0.5 0.5 )
       (0.5 0.5 )
       (0.5 0.5 )
       (0.5 0.5 )
       (0.5 0.5 )
       (0.5 0.5 )
       (0.5 0.5 )
       (0.5 0.5 )
       (0.5 0.5 )
       (0.5 0.5 )
       (0.5 0.5 )
       (0.5 0.5 )
       (0.5 0.5 )
       (0.5 0.5 ))
       ((0.6724138 0.3275862 )
       (0.34375 0.65625 )
       (0.5625 0.4375 )
       (0.3571429 0.6428571 )
       (0.2777778 0.7222222 )
       (0.3888889 0.6111111 )
       (0.3571429 0.6428571 )
       (0.5 0.5 )
       (0.5 0.5 )
       (0.5 0.5 )
       (0.5 0.5 )
       (0.5 0.5 )
       (0.5 0.5 )
       (0.5 0.5 )
       (0.5 0.5 )
       (0.5 0.5 )
       (0.5 0.5 )
       (0.5 0.5 )
       (0.5 0.5 ))
       ((0.6333333 0.3666667 )
       (0.5 0.5 )
       (0.3125 0.6875 )
       (0.4375 0.5625 )
       (0.6428571 0.3571429 )
       (0.4166667 0.5833333 )
       (0.5833333 0.4166667 )
       (0.3571429 0.6428571 )
       (0.5 0.5 )
       (0.5 0.5 )
       (0.5 0.5 )
       (0.5 0.5 )
       (0.5 0.5 )
       (0.5 0.5 )
       (0.5 0.5 )
       (0.5 0.5 )
       (0.5 0.5 )
       (0.5 0.5 )
       (0.5 0.5 ))
       ((0.5 0.5 )
       (0.5833333 0.4166667 )
       (0.4166667 0.5833333 )
       (0.5 0.5 )
       (0.5 0.5 )
       (0.4166667 0.5833333 )
       (0.5 0.5 )
       (0.4166667 0.5833333 )
       (0.5 0.5 )
       (0.5 0.5 )
       (0.5 0.5 )
       (0.5 0.5 )
       (0.5 0.5 )
       (0.5 0.5 )
       (0.5 0.5 )
       (0.5 0.5 )
       (0.5 0.5 )
       (0.5 0.5 )
       (0.5 0.5 ))
       ((0.75 0.25 )
       (0.55 0.45 )
       (0.6428571 0.3571429 )
       (0.5 0.5 )
       (0.5 0.5 )
       (0.5 0.5 )
       (0.5 0.5 )
       (0.5 0.5 )
       (0.5 0.5 )
       (0.5 0.5 )
       (0.5 0.5 )
       (0.5 0.5 )
       (0.5 0.5 )
       (0.5 0.5 )
       (0.5 0.5 )
       (0.5 0.5 )
       (0.5 0.5 )
       (0.5 0.5 )
       (0.5 0.5 ))
       ((0.9121622 8.783782E-02 )
       (0.8589743 0.1410257 )
       (0.6538461 0.3461539 )
       (0.3125 0.6875 )
       (0.5625 0.4375 )
       (0.3571429 0.6428571 )
       (0.4166667 0.5833333 )
       (0.5 0.5 )
       (0.5 0.5 )
       (0.5 0.5 )
       (0.5 0.5 )
       (0.5 0.5 )
       (0.5 0.5 )
       (0.5 0.5 )
       (0.5 0.5 )
       (0.5 0.5 )
       (0.5 0.5 )
       (0.5 0.5 )
       (0.5 0.5 ))
       ((0.8150406 0.1849594 )
       (0.6462264 0.3537736 )
       (0.4859155 0.5140845 )
       (0.4714286 0.5285714 )
       (0.4473684 0.5526316 )
       (0.3181818 0.6818182 )
       (0.3181818 0.6818182 )
       (0.25 0.75 )
       (0.3571429 0.6428571 )
       (0.5833333 0.4166667 )
       (0.5833333 0.4166667 )
       (0.5 0.5 )
       (0.5 0.5 )
       (0.5 0.5 )
       (0.5 0.5 )
       (0.5 0.5 )
       (0.5 0.5 )
       (0.5 0.5 )
       (0.4166667 0.5833333 )))
       (((0.45 0.55 )
       (0.4583333 0.5416667 )
       (0.2777778 0.7222222 )
       (0.3125 0.6875 )
       (0.5 0.5 )
       (0.5 0.5 )
       (0.3125 0.6875 )
       (0.5 0.5 )
       (0.5 0.5 )
       (0.5 0.5 )
       (0.5 0.5 )
       (0.5 0.5 )
       (0.5 0.5 )
       (0.5 0.5 )
       (0.5 0.5 )
       (0.5 0.5 )
       (0.5 0.5 )
       (0.5 0.5 )
       (0.5 0.5 ))
       ((0.5 0.5 )
       (0.5 0.5 )
       (0.5 0.5 )
       (0.5 0.5 )
       (0.5 0.5 )
       (0.5 0.5 )
       (0.5 0.5 )
       (0.5 0.5 )
       (0.5 0.5 )
       (0.5 0.5 )
       (0.5 0.5 )
       (0.5 0.5 )
       (0.5 0.5 )
       (0.5 0.5 )
       (0.5 0.5 )
       (0.5 0.5 )
       (0.5 0.5 )
       (0.5 0.5 )
       (0.5 0.5 ))
       ((0.65 0.35 )
       (0.625 0.375 )
       (0.5833333 0.4166667 )
       (0.4166667 0.5833333 )
       (0.5 0.5 )
       (0.5 0.5 )
       (0.5 0.5 )
       (0.5 0.5 )
       (0.5 0.5 )
       (0.5 0.5 )
       (0.5 0.5 )
       (0.4166667 0.5833333 )
       (0.5 0.5 )
       (0.5 0.5 )
       (0.5 0.5 )
       (0.5 0.5 )
       (0.5 0.5 )
       (0.5 0.5 )
       (0.5 0.5 ))
       ((0.5769231 0.4230769 )
       (0.6428571 0.3571429 )
       (0.5833333 0.4166667 )
       (0.5833333 0.4166667 )
       (0.5833333 0.4166667 )
       (0.5 0.5 )
       (0.5 0.5 )
       (0.5 0.5 )
       (0.5 0.5 )
       (0.5 0.5 )
       (0.5 0.5 )
       (0.5 0.5 )
       (0.5 0.5 )
       (0.5 0.5 )
       (0.5 0.5 )
       (0.5 0.5 )
       (0.5 0.5 )
       (0.5 0.5 )
       (0.5 0.5 ))
       ((0.5 0.5 )
       (0.5 0.5 )
       (0.5 0.5 )
       (0.5 0.5 )
       (0.5 0.5 )
       (0.5 0.5 )
       (0.5 0.5 )
       (0.5 0.5 )
       (0.5 0.5 )
       (0.5 0.5 )
       (0.5 0.5 )
       (0.5 0.5 )
       (0.5 0.5 )
       (0.5 0.5 )
       (0.5 0.5 )
       (0.5 0.5 )
       (0.5 0.5 )
       (0.5 0.5 )
       (0.5 0.5 ))
       ((0.5 0.5 )
       (0.4166667 0.5833333 )
       (0.5625 0.4375 )
       (0.5 0.5 )
       (0.5 0.5 )
       (0.5 0.5 )
       (0.5 0.5 )
       (0.5 0.5 )
       (0.5 0.5 )
       (0.5 0.5 )
       (0.5 0.5 )
       (0.5 0.5 )
       (0.5 0.5 )
       (0.5 0.5 )
       (0.5 0.5 )
       (0.5 0.5 )
       (0.5 0.5 )
       (0.5 0.5 )
       (0.5 0.5 ))
       ((0.5 0.5 )
       (0.4375 0.5625 )
       (0.2777778 0.7222222 )
       (0.3571429 0.6428571 )
       (0.3571429 0.6428571 )
       (0.5 0.5 )
       (0.5 0.5 )
       (0.5 0.5 )
       (0.5 0.5 )
       (0.5 0.5 )
       (0.5 0.5 )
       (0.5 0.5 )
       (0.5 0.5 )
       (0.5 0.5 )
       (0.5 0.5 )
       (0.5 0.5 )
       (0.5 0.5 )
       (0.5 0.5 )
       (0.5 0.5 ))
       ((0.5 0.5 )
       (0.5 0.5 )
       (0.5 0.5 )
       (0.5 0.5 )
       (0.5 0.5 )
       (0.5 0.5 )
       (0.5 0.5 )
       (0.5 0.5 )
       (0.5 0.5 )
       (0.5 0.5 )
       (0.5 0.5 )
       (0.5 0.5 )
       (0.5 0.5 )
       (0.5 0.5 )
       (0.5 0.5 )
       (0.5 0.5 )
       (0.5 0.5 )
       (0.5 0.5 )
       (0.5 0.5 ))
       ((0.5 0.5 )
       (0.3125 0.6875 )
       (0.2777778 0.7222222 )
       (0.5 0.5 )
       (0.4166667 0.5833333 )
       (0.5 0.5 )
       (0.4166667 0.5833333 )
       (0.5 0.5 )
       (0.5 0.5 )
       (0.5 0.5 )
       (0.5 0.5 )
       (0.5 0.5 )
       (0.5 0.5 )
       (0.5 0.5 )
       (0.5 0.5 )
       (0.5 0.5 )
       (0.5 0.5 )
       (0.5 0.5 )
       (0.5 0.5 ))
       ((0.5833333 0.4166667 )
       (0.5 0.5 )
       (0.5 0.5 )
       (0.5 0.5 )
       (0.5 0.5 )
       (0.5 0.5 )
       (0.5 0.5 )
       (0.5 0.5 )
       (0.5 0.5 )
       (0.5 0.5 )
       (0.5 0.5 )
       (0.5 0.5 )
       (0.5 0.5 )
       (0.5 0.5 )
       (0.5 0.5 )
       (0.5 0.5 )
       (0.5 0.5 )
       (0.5 0.5 )
       (0.5 0.5 ))
       ((0.35 0.65 )
       (0.6428571 0.3571429 )
       (0.5 0.5 )
       (0.5 0.5 )
       (0.5 0.5 )
       (0.5 0.5 )
       (0.5 0.5 )
       (0.5 0.5 )
       (0.5 0.5 )
       (0.5 0.5 )
       (0.5 0.5 )
       (0.5 0.5 )
       (0.4166667 0.5833333 )
       (0.5 0.5 )
       (0.5 0.5 )
       (0.5 0.5 )
       (0.5 0.5 )
       (0.5 0.5 )
       (0.5 0.5 ))
       ((0.5 0.5 )
       (0.5833333 0.4166667 )
       (0.5 0.5 )
       (0.5 0.5 )
       (0.5 0.5 )
       (0.5 0.5 )
       (0.5 0.5 )
       (0.5 0.5 )
       (0.5 0.5 )
       (0.5 0.5 )
       (0.5 0.5 )
       (0.5 0.5 )
       (0.5 0.5 )
       (0.5 0.5 )
       (0.5 0.5 )
       (0.5 0.5 )
       (0.5 0.5 )
       (0.5 0.5 )
       (0.5 0.5 ))
       ((0.6269841 0.3730159 )
       (0.402439 0.597561 )
       (0.4130435 0.5869565 )
       (0.3214286 0.6785714 )
       (0.4375 0.5625 )
       (0.5 0.5 )
       (0.4375 0.5625 )
       (0.5 0.5 )
       (0.5 0.5 )
       (0.5 0.5 )
       (0.4166667 0.5833333 )
       (0.5 0.5 )
       (0.5 0.5 )
       (0.5 0.5 )
       (0.5 0.5 )
       (0.5 0.5 )
       (0.5 0.5 )
       (0.5 0.5 )
       (0.5 0.5 )))
       (((0.3571429 0.6428571 )
       (0.3125 0.6875 )
       (0.5 0.5 )
       (0.4166667 0.5833333 )
       (0.5 0.5 )
       (0.5 0.5 )
       (0.5 0.5 )
       (0.5 0.5 )
       (0.5 0.5 )
       (0.5 0.5 )
       (0.5 0.5 )
       (0.5 0.5 )
       (0.5 0.5 )
       (0.5 0.5 )
       (0.5 0.5 )
       (0.5 0.5 )
       (0.5 0.5 )
       (0.5 0.5 )
       (0.5 0.5 ))
       ((0.5 0.5 )
       (0.5 0.5 )
       (0.5 0.5 )
       (0.5 0.5 )
       (0.5 0.5 )
       (0.5 0.5 )
       (0.5 0.5 )
       (0.5 0.5 )
       (0.5 0.5 )
       (0.5 0.5 )
       (0.5 0.5 )
       (0.5 0.5 )
       (0.5 0.5 )
       (0.5 0.5 )
       (0.5 0.5 )
       (0.5 0.5 )
       (0.5 0.5 )
       (0.5 0.5 )
       (0.5 0.5 ))
       ((0.5 0.5 )
       (0.3571429 0.6428571 )
       (0.5 0.5 )
       (0.5 0.5 )
       (0.5 0.5 )
       (0.5 0.5 )
       (0.5 0.5 )
       (0.5 0.5 )
       (0.5 0.5 )
       (0.5 0.5 )
       (0.5 0.5 )
       (0.5 0.5 )
       (0.5 0.5 )
       (0.5 0.5 )
       (0.5 0.5 )
       (0.5 0.5 )
       (0.5 0.5 )
       (0.5 0.5 )
       (0.5 0.5 ))
       ((0.6875 0.3125 )
       (0.6428571 0.3571429 )
       (0.5 0.5 )
       (0.5833333 0.4166667 )
       (0.5 0.5 )
       (0.5 0.5 )
       (0.5 0.5 )
       (0.5 0.5 )
       (0.5 0.5 )
       (0.5 0.5 )
       (0.5 0.5 )
       (0.5 0.5 )
       (0.5 0.5 )
       (0.5 0.5 )
       (0.5 0.5 )
       (0.5 0.5 )
       (0.5 0.5 )
       (0.5 0.5 )
       (0.5 0.5 ))
       ((0.5 0.5 )
       (0.5 0.5 )
       (0.5 0.5 )
       (0.5 0.5 )
       (0.5 0.5 )
       (0.5 0.5 )
       (0.5 0.5 )
       (0.5 0.5 )
       (0.5 0.5 )
       (0.5 0.5 )
       (0.5 0.5 )
       (0.5 0.5 )
       (0.5 0.5 )
       (0.5 0.5 )
       (0.5 0.5 )
       (0.5 0.5 )
       (0.5 0.5 )
       (0.5 0.5 )
       (0.5 0.5 ))
       ((0.5 0.5 )
       (0.5 0.5 )
       (0.5 0.5 )
       (0.5 0.5 )
       (0.5 0.5 )
       (0.5 0.5 )
       (0.5 0.5 )
       (0.5 0.5 )
       (0.5 0.5 )
       (0.5 0.5 )
       (0.5 0.5 )
       (0.5 0.5 )
       (0.5 0.5 )
       (0.5 0.5 )
       (0.5 0.5 )
       (0.5 0.5 )
       (0.5 0.5 )
       (0.5 0.5 )
       (0.5 0.5 ))
       ((0.6538461 0.3461539 )
       (0.3571429 0.6428571 )
       (0.5 0.5 )
       (0.5 0.5 )
       (0.5 0.5 )
       (0.5 0.5 )
       (0.5 0.5 )
       (0.5 0.5 )
       (0.5 0.5 )
       (0.5 0.5 )
       (0.5 0.5 )
       (0.5 0.5 )
       (0.5 0.5 )
       (0.5 0.5 )
       (0.5 0.5 )
       (0.5 0.5 )
       (0.5 0.5 )
       (0.5 0.5 )
       (0.5 0.5 ))
       ((0.5 0.5 )
       (0.5 0.5 )
       (0.5 0.5 )
       (0.5 0.5 )
       (0.5 0.5 )
       (0.5 0.5 )
       (0.5 0.5 )
       (0.5 0.5 )
       (0.5 0.5 )
       (0.5 0.5 )
       (0.5 0.5 )
       (0.5 0.5 )
       (0.5 0.5 )
       (0.5 0.5 )
       (0.5 0.5 )
       (0.5 0.5 )
       (0.5 0.5 )
       (0.5 0.5 )
       (0.5 0.5 ))
       ((0.5 0.5 )
       (0.4166667 0.5833333 )
       (0.5 0.5 )
       (0.4166667 0.5833333 )
       (0.5 0.5 )
       (0.5 0.5 )
       (0.5 0.5 )
       (0.5 0.5 )
       (0.5 0.5 )
       (0.5 0.5 )
       (0.5 0.5 )
       (0.5 0.5 )
       (0.5 0.5 )
       (0.5 0.5 )
       (0.5 0.5 )
       (0.5 0.5 )
       (0.5 0.5 )
       (0.5 0.5 )
       (0.5 0.5 ))
       ((0.5 0.5 )
       (0.5 0.5 )
       (0.5 0.5 )
       (0.5 0.5 )
       (0.5 0.5 )
       (0.5 0.5 )
       (0.5 0.5 )
       (0.5 0.5 )
       (0.5 0.5 )
       (0.5 0.5 )
       (0.5 0.5 )
       (0.5 0.5 )
       (0.5 0.5 )
       (0.5 0.5 )
       (0.5 0.5 )
       (0.5 0.5 )
       (0.5 0.5 )
       (0.5 0.5 )
       (0.5 0.5 ))
       ((0.3888889 0.6111111 )
       (0.5 0.5 )
       (0.5 0.5 )
       (0.5 0.5 )
       (0.5 0.5 )
       (0.5 0.5 )
       (0.5 0.5 )
       (0.5 0.5 )
       (0.5 0.5 )
       (0.5 0.5 )
       (0.5 0.5 )
       (0.5 0.5 )
       (0.5 0.5 )
       (0.5 0.5 )
       (0.5 0.5 )
       (0.5 0.5 )
       (0.5 0.5 )
       (0.5 0.5 )
       (0.5 0.5 ))
       ((0.6428571 0.3571429 )
       (0.5 0.5 )
       (0.5 0.5 )
       (0.5 0.5 )
       (0.5 0.5 )
       (0.5 0.5 )
       (0.5 0.5 )
       (0.5 0.5 )
       (0.5 0.5 )
       (0.5 0.5 )
       (0.5 0.5 )
       (0.5 0.5 )
       (0.5 0.5 )
       (0.5 0.5 )
       (0.5 0.5 )
       (0.5 0.5 )
       (0.5 0.5 )
       (0.5 0.5 )
       (0.5 0.5 ))
       ((0.5727273 0.4272727 )
       (0.54 0.46 )
       (0.4473684 0.5526316 )
       (0.5 0.5 )
       (0.6428571 0.3571429 )
       (0.3125 0.6875 )
       (0.4166667 0.5833333 )
       (0.4166667 0.5833333 )
       (0.5 0.5 )
       (0.5 0.5 )
       (0.5 0.5 )
       (0.5 0.5 )
       (0.5 0.5 )
       (0.5 0.5 )
       (0.5 0.5 )
       (0.5 0.5 )
       (0.5 0.5 )
       (0.5 0.5 )
       (0.5 0.5 )))));
}

potential (sexo)
{
 data = ( 0.311275 0.6862996 2.425373E-03 );
}

potential (idade)
{
 data = ( 0.0870862 0.5116683 0.4012455 );
}

potential (limite | sexo idade valor mcc)
{
 data = (((((0.3035714 0.375 0.1607143 0.1607143 )
       (0.25 0.25 0.25 0.25 )
       (0.0625 0.6625 0.1625 0.1125 )
       (0.25 0.25 0.25 0.25 )
       (0.0880282 0.5528169 0.2147887 0.1443661 )
       (0.25 0.25 0.25 0.25 )
       (0.25 0.25 0.25 0.25 )
       (0.0833333 0.35 0.0833333 0.4833334 )
       (0.1785714 0.4642857 0.1785714 0.1785715 )
       (0.25 0.25 0.25 0.25 )
       (0.53125 0.15625 0.15625 0.15625 )
       (0.0378788 0.1287879 0.1893939 0.6439394 )
       (0.0368852 0.4795082 0.1844262 0.2991804 ))
       ((0.140625 0.203125 0.203125 0.453125 )
       (0.25 0.25 0.25 0.25 )
       (0.0681818 0.3106061 0.3409091 0.280303 )
       (0.1388889 0.25 0.1388889 0.4722222 )
       (0.0833333 0.6388889 0.0833333 0.1944445 )
       (0.25 0.25 0.25 0.25 )
       (0.2083333 0.375 0.2083333 0.2083334 )
       (0.15625 0.40625 0.15625 0.28125 )
       (0.0892857 0.4464286 0.1607143 0.3035715 )
       (0.25 0.25 0.25 0.25 )
       (0.375 0.2083333 0.2083333 0.2083334 )
       (0.0431034 0.0431034 0.1465517 0.7672415 )
       (0.0844595 0.3412162 0.1790541 0.3952702 ))
       ((0.2083333 0.2083333 0.2083333 0.3750001 )
       (0.25 0.25 0.25 0.25 )
       (0.1785714 0.1785714 0.4642857 0.1785715 )
       (0.2083333 0.2083333 0.375 0.2083334 )
       (0.25 0.25 0.25 0.25 )
       (0.25 0.25 0.25 0.25 )
       (0.2083333 0.375 0.2083333 0.2083334 )
       (0.25 0.25 0.25 0.25 )
       (0.2083333 0.2083333 0.375 0.2083334 )
       (0.25 0.25 0.25 0.25 )
       (0.25 0.25 0.25 0.25 )
       (0.25 0.25 0.25 0.25 )
       (0.15 0.0833333 0.4166667 0.35 ))
       ((0.1785714 0.1785714 0.4642857 0.1785715 )
       (0.25 0.25 0.25 0.25 )
       (0.375 0.2083333 0.2083333 0.2083334 )
       (0.25 0.25 0.25 0.25 )
       (0.25 0.25 0.25 0.25 )
       (0.25 0.25 0.25 0.25 )
       (0.25 0.25 0.25 0.25 )
       (0.25 0.25 0.25 0.25 )
       (0.25 0.25 0.25 0.25 )
       (0.25 0.25 0.25 0.25 )
       (0.25 0.25 0.25 0.25 )
       (0.25 0.25 0.25 0.25 )
       (0.328125 0.140625 0.390625 0.140625 )))
       (((0.075 0.3477273 0.3113636 0.2659091 )
       (0.25 0.25 0.25 0.25 )
       (0.0400943 0.3891509 0.2665094 0.3042454 )
       (0.25 0.25 0.25 0.25 )
       (0.0502451 0.3590686 0.314951 0.2757353 )
       (0.1785714 0.3214286 0.3214286 0.1785714 )
       (0.1875 0.5208333 0.1041667 0.1875 )
       (0.0722222 0.3611111 0.25 0.3166667 )
       (0.0855263 0.3223684 0.2960526 0.2960527 )
       (0.1041667 0.2708333 0.4375 0.1875 )
       (0.15 0.35 0.2833333 0.2166667 )
       (0.048913 0.3315217 0.2880435 0.3315218 )
       (0.0617409 0.409919 0.2520243 0.2763158 ))
       ((0.0391791 0.3600746 0.2406716 0.3600746 )
       (0.25 0.25 0.25 0.25 )
       (0.0119048 0.3547619 0.2880952 0.3452381 )
       (0.0892857 0.1607143 0.3035714 0.4464286 )
       (0.0944444 0.5388889 0.2944444 7.222235E-02 )
       (0.15625 0.15625 0.28125 0.40625 )
       (0.1388889 0.3611111 0.25 0.25 )
       (0.0511364 0.3693182 0.2556818 0.3238636 )
       (0.0328947 0.2960526 0.4539474 0.2171053 )
       (0.25 0.25 0.25 0.25 )
       (0.0833333 0.6833333 0.0833333 0.1500001 )
       (0.0480769 0.2403846 0.2403846 0.4711539 )
       (0.0400356 0.3496441 0.3532028 0.2571175 ))
       ((0.0892857 0.1607143 0.2321429 0.5178571 )
       (0.25 0.25 0.25 0.25 )
       (0.0735294 0.1911765 0.1911765 0.5441176 )
       (0.0833333 0.0833333 0.6166667 0.2166667 )
       (0.25 0.25 0.25 0.25 )
       (0.2083333 0.375 0.2083333 0.2083334 )
       (0.1388889 0.3611111 0.25 0.25 )
       (0.25 0.25 0.25 0.25 )
       (0.0961538 0.4038461 0.25 0.2500001 )
       (0.1785714 0.3214286 0.3214286 0.1785714 )
       (0.1041667 0.4375 0.2708333 0.1875 )
       (0.2083333 0.2083333 0.2083333 0.3750001 )
       (0.0192308 0.3269231 0.3884615 0.2653846 ))
       ((0.1388889 0.1388889 0.4722222 0.25 )
       (0.25 0.25 0.25 0.25 )
       (0.15625 0.15625 0.15625 0.53125 )
       (0.125 0.225 0.325 0.325 )
       (0.25 0.25 0.25 0.25 )
       (0.25 0.25 0.25 0.25 )
       (0.25 0.25 0.25 0.25 )
       (0.25 0.25 0.25 0.25 )
       (0.15625 0.15625 0.40625 0.28125 )
       (0.2083333 0.2083333 0.375 0.2083334 )
       (0.25 0.25 0.25 0.25 )
       (0.25 0.25 0.25 0.25 )
       (0.0403226 0.1370968 0.3951613 0.4274193 )))
       (((0.0206422 0.5894495 0.25 0.1399083 )
       (0.25 0.25 0.25 0.25 )
       (0.0691489 0.3670213 0.3457447 0.2180851 )
       (0.1388889 0.3611111 0.3611111 0.1388889 )
       (0.0153061 0.5323129 0.4030612 4.931974E-02 )
       (0.25 0.25 0.25 0.25 )
       (0.25 0.25 0.25 0.25 )
       (0.0663265 0.494898 0.3928571 4.591846E-02 )
       (0.13 0.53 0.25 9.000003E-02 )
       (0.25 0.25 0.25 0.25 )
       (0.1785714 0.1785714 0.4642857 0.1785715 )
       (0.0284091 0.3011364 0.5284091 0.1420454 )
       (0.0777512 0.4892344 0.3409091 9.210527E-02 ))
       ((0.0433673 0.4515306 0.3392857 0.1658164 )
       (0.25 0.25 0.25 0.25 )
       (0.0346154 0.3730769 0.4807692 0.1115385 )
       (0.125 0.125 0.325 0.425 )
       (0.0328947 0.5065789 0.4013158 5.921054E-02 )
       (0.2083333 0.2083333 0.375 0.2083334 )
       (0.2083333 0.2083333 0.375 0.2083334 )
       (0.0520833 0.5104167 0.34375 0.09375 )
       (0.05 0.29 0.45 0.21 )
       (0.125 0.525 0.225 0.125 )
       (0.0833333 0.6833333 0.15 8.333337E-02 )
       (0.0735294 0.3088235 0.4852941 0.132353 )
       (0.0436321 0.4445755 0.4115566 0.1002358 ))
       ((0.1388889 0.3611111 0.3611111 0.1388889 )
       (0.25 0.25 0.25 0.25 )
       (0.1388889 0.4722222 0.1388889 0.25 )
       (0.15625 0.15625 0.40625 0.28125 )
       (0.2083333 0.375 0.2083333 0.2083334 )
       (0.2083333 0.2083333 0.2083333 0.3750001 )
       (0.15625 0.40625 0.28125 0.15625 )
       (0.25 0.25 0.25 0.25 )
       (0.0961538 0.25 0.3269231 0.3269231 )
       (0.25 0.25 0.25 0.25 )
       (0.2083333 0.375 0.2083333 0.2083334 )
       (0.25 0.25 0.25 0.25 )
       (0.0260417 0.234375 0.5260417 0.2135416 ))
       ((0.1388889 0.1388889 0.3611111 0.3611111 )
       (0.25 0.25 0.25 0.25 )
       (0.1785714 0.3214286 0.1785714 0.3214286 )
       (0.25 0.25 0.25 0.25 )
       (0.25 0.25 0.25 0.25 )
       (0.25 0.25 0.25 0.25 )
       (0.2083333 0.375 0.2083333 0.2083334 )
       (0.25 0.25 0.25 0.25 )
       (0.2083333 0.375 0.2083333 0.2083334 )
       (0.1785714 0.1785714 0.4642857 0.1785715 )
       (0.1785714 0.1785714 0.4642857 0.1785715 )
       (0.25 0.25 0.25 0.25 )
       (0.0625 0.2625 0.4625 0.2125 ))))
       ((((0.1160714 0.5089286 0.3303571 4.464293E-02 )
       (0.25 0.25 0.25 0.25 )
       (0.35 0.4833333 0.0833333 8.333343E-02 )
       (0.25 0.25 0.25 0.25 )
       (0.0850515 0.7551546 0.0953608 0.0644331 )
       (0.25 0.25 0.25 0.25 )
       (0.15625 0.28125 0.15625 0.40625 )
       (0.2321429 0.2321429 0.2321429 0.3035713 )
       (0.1388889 0.5833333 0.1388889 0.1388889 )
       (0.3214286 0.3214286 0.1785714 0.1785714 )
       (0.25 0.4722222 0.1388889 0.1388889 )
       (0.0543478 0.4021739 0.2282609 0.3152174 )
       (0.1346154 0.5961539 0.2115385 5.769217E-02 ))
       ((0.15 0.6071429 0.1785714 0.0642857 )
       (0.25 0.25 0.25 0.25 )
       (0.1022727 0.375 0.2386364 0.2840909 )
       (0.2083333 0.2083333 0.375 0.2083334 )
       (0.112069 0.6293104 0.1810345 7.758605E-02 )
       (0.375 0.2083333 0.2083333 0.2083334 )
       (0.15625 0.53125 0.15625 0.15625 )
       (0.0961538 0.3269231 0.4807692 9.615391E-02 )
       (0.0833333 0.75 0.0833333 8.333337E-02 )
       (0.2083333 0.375 0.2083333 0.2083334 )
       (0.15 0.55 0.2166667 8.333325E-02 )
       (0.13 0.17 0.33 0.37 )
       (0.1278409 0.59375 0.1732955 0.1051136 ))
       ((0.15625 0.28125 0.15625 0.40625 )
       (0.25 0.25 0.25 0.25 )
       (0.15625 0.40625 0.28125 0.15625 )
       (0.2083333 0.2083333 0.375 0.2083334 )
       (0.25 0.25 0.25 0.25 )
       (0.25 0.25 0.25 0.25 )
       (0.15625 0.15625 0.53125 0.15625 )
       (0.25 0.25 0.25 0.25 )
       (0.2083333 0.375 0.2083333 0.2083334 )
       (0.25 0.25 0.25 0.25 )
       (0.2083333 0.375 0.2083333 0.2083334 )
       (0.2083333 0.2083333 0.375 0.2083334 )
       (0.2321429 0.5178571 0.1607143 8.928573E-02 ))
       ((0.2083333 0.2083333 0.375 0.2083334 )
       (0.25 0.25 0.25 0.25 )
       (0.2083333 0.375 0.2083333 0.2083334 )
       (0.25 0.25 0.25 0.25 )
       (0.25 0.25 0.25 0.25 )
       (0.25 0.25 0.25 0.25 )
       (0.15625 0.40625 0.28125 0.15625 )
       (0.25 0.25 0.25 0.25 )
       (0.2083333 0.2083333 0.375 0.2083334 )
       (0.2083333 0.2083333 0.2083333 0.3750001 )
       (0.25 0.25 0.25 0.25 )
       (0.25 0.25 0.25 0.25 )
       (0.125 0.225 0.125 0.525 )))
       (((0.0182584 0.383427 0.4620787 0.136236 )
       (0.25 0.25 0.25 0.25 )
       (0.0690789 0.319079 0.3717105 0.2401316 )
       (0.1785714 0.1785714 0.4642857 0.1785715 )
       (0.0130126 0.3568612 0.4388801 0.1912462 )
       (0.15625 0.53125 0.15625 0.15625 )
       (0.1136364 0.2045455 0.3863636 0.2954545 )
       (0.0477528 0.3848315 0.4073034 0.1601123 )
       (0.0219298 0.3903509 0.4254386 0.1622807 )
       (0.1388889 0.25 0.3611111 0.25 )
       (0.0625 0.2625 0.5125 0.1625 )
       (0.0061881 0.1893564 0.4764852 0.3279703 )
       (0.0127033 0.4110772 0.4070122 0.1692073 ))
       ((0.0188172 0.2589606 0.4919355 0.2302867 )
       (0.2083333 0.375 0.2083333 0.2083334 )
       (0.0098425 0.3720472 0.3877953 0.230315 )
       (0.0431034 0.2844827 0.4913793 0.1810346 )
       (0.0419463 0.3238255 0.4043624 0.2298658 )
       (0.15625 0.15625 0.40625 0.28125 )
       (0.0543478 0.5760869 0.2717391 9.782624E-02 )
       (0.0164474 0.4901316 0.2927631 0.2006579 )
       (0.0219298 0.3377193 0.4605263 0.1798246 )
       (0.0961538 0.4807692 0.3269231 9.615386E-02 )
       (0.0478723 0.4521277 0.3031915 0.1968085 )
       (0.0121359 0.118932 0.5364078 0.3325243 )
       (0.0151403 0.334195 0.3947563 0.2559084 ))
       ((0.05 0.17 0.53 0.25 )
       (0.25 0.25 0.25 0.25 )
       (0.0625 0.3125 0.3125 0.3125 )
       (0.0833333 0.2833333 0.35 0.2833334 )
       (0.2083333 0.2083333 0.375 0.2083334 )
       (0.15625 0.15625 0.15625 0.53125 )
       (0.0694444 0.125 0.4027778 0.4027778 )
       (0.1785714 0.3214286 0.3214286 0.1785714 )
       (0.1041667 0.1041667 0.4375 0.3541666 )
       (0.25 0.25 0.25 0.25 )
       (0.0625 0.2125 0.3625 0.3625 )
       (0.1785714 0.1785714 0.1785714 0.4642858 )
       (0.0080128 0.2195513 0.4310897 0.3413462 ))
       ((0.15625 0.15625 0.40625 0.28125 )
       (0.15625 0.15625 0.53125 0.15625 )
       (0.1388889 0.25 0.4722222 0.1388889 )
       (0.15625 0.15625 0.53125 0.15625 )
       (0.25 0.25 0.25 0.25 )
       (0.25 0.25 0.25 0.25 )
       (0.1388889 0.1388889 0.25 0.4722222 )
       (0.25 0.25 0.25 0.25 )
       (0.1785714 0.1785714 0.3214286 0.3214286 )
       (0.25 0.25 0.25 0.25 )
       (0.1136364 0.1136364 0.4772727 0.2954545 )
       (0.1785714 0.1785714 0.4642857 0.1785715 )
       (0.0160256 0.2467949 0.4134615 0.323718 )))
       (((0.0160891 0.2586634 0.4665841 0.2586634 )
       (0.25 0.25 0.25 0.25 )
       (0.0219298 0.1973684 0.372807 0.4078948 )
       (0.25 0.25 0.25 0.25 )
       (0.0097701 0.1683908 0.5293103 0.2925288 )
       (0.1136364 0.2045455 0.4772727 0.2045454 )
       (0.1785714 0.1785714 0.3214286 0.3214286 )
       (0.0130208 0.2526042 0.5130208 0.2213542 )
       (0.0378788 0.1893939 0.5227273 0.25 )
       (0.25 0.25 0.25 0.25 )
       (0.0694444 0.2361111 0.4583333 0.2361112 )
       (0.0074405 0.1026786 0.3943452 0.4955357 )
       (0.0085752 0.3014512 0.4307388 0.2592348 ))
       ((0.0094538 0.1733193 0.5430672 0.2741597 )
       (0.25 0.25 0.25 0.25 )
       (0.0197368 0.2039474 0.370614 0.4057018 )
       (0.0657895 0.1184211 0.3289474 0.486842 )
       (0.0382353 0.1911765 0.4264706 0.3441176 )
       (0.1041667 0.2708333 0.1875 0.4375 )
       (0.0520833 0.09375 0.46875 0.3854167 )
       (0.0178571 0.175 0.4892857 0.3178572 )
       (0.0357143 0.1785714 0.4928571 0.2928572 )
       (0.1607143 0.2321429 0.3035714 0.3035714 )
       (0.0378788 0.3712121 0.4621212 0.1287879 )
       (0.0147059 0.0852941 0.3441176 0.5558824 )
       (0.0081888 0.1893064 0.4629094 0.3395954 ))
       ((0.0480769 0.0865385 0.4326923 0.4326923 )
       (0.25 0.25 0.25 0.25 )
       (0.0543478 0.1413043 0.4456522 0.3586957 )
       (0.0657895 0.1184211 0.381579 0.4342104 )
       (0.25 0.25 0.25 0.25 )
       (0.25 0.25 0.25 0.25 )
       (0.0568182 0.1477273 0.4659091 0.3295454 )
       (0.125 0.125 0.625 0.125 )
       (0.0892857 0.375 0.375 0.1607143 )
       (0.1388889 0.1388889 0.4722222 0.25 )
       (0.0833333 0.2833333 0.4833333 0.1500001 )
       (0.2083333 0.375 0.2083333 0.2083334 )
       (0.0094697 0.1761364 0.4564394 0.3579545 ))
       ((0.1136364 0.2045455 0.3863636 0.2954545 )
       (0.25 0.25 0.25 0.25 )
       (0.1136364 0.1136364 0.4772727 0.2954545 )
       (0.1388889 0.1388889 0.1388889 0.5833333 )
       (0.25 0.25 0.25 0.25 )
       (0.1785714 0.1785714 0.4642857 0.1785715 )
       (0.0694444 0.0694444 0.4027778 0.4583334 )
       (0.25 0.25 0.25 0.25 )
       (0.2083333 0.2083333 0.375 0.2083334 )
       (0.15625 0.15625 0.40625 0.28125 )
       (0.1388889 0.1388889 0.3611111 0.3611111 )
       (0.15625 0.15625 0.28125 0.40625 )
       (0.0143678 0.0948276 0.2902299 0.6005747 ))))
       ((((0.25 0.25 0.25 0.25 )
       (0.25 0.25 0.25 0.25 )
       (0.25 0.25 0.25 0.25 )
       (0.25 0.25 0.25 0.25 )
       (0.25 0.25 0.25 0.25 )
       (0.25 0.25 0.25 0.25 )
       (0.25 0.25 0.25 0.25 )
       (0.25 0.25 0.25 0.25 )
       (0.25 0.25 0.25 0.25 )
       (0.25 0.25 0.25 0.25 )
       (0.25 0.25 0.25 0.25 )
       (0.25 0.25 0.25 0.25 )
       (0.25 0.25 0.25 0.25 ))
       ((0.25 0.25 0.25 0.25 )
       (0.25 0.25 0.25 0.25 )
       (0.25 0.25 0.25 0.25 )
       (0.25 0.25 0.25 0.25 )
       (0.25 0.25 0.25 0.25 )
       (0.25 0.25 0.25 0.25 )
       (0.25 0.25 0.25 0.25 )
       (0.25 0.25 0.25 0.25 )
       (0.25 0.25 0.25 0.25 )
       (0.25 0.25 0.25 0.25 )
       (0.25 0.25 0.25 0.25 )
       (0.25 0.25 0.25 0.25 )
       (0.25 0.25 0.25 0.25 ))
       ((0.25 0.25 0.25 0.25 )
       (0.25 0.25 0.25 0.25 )
       (0.25 0.25 0.25 0.25 )
       (0.25 0.25 0.25 0.25 )
       (0.25 0.25 0.25 0.25 )
       (0.25 0.25 0.25 0.25 )
       (0.25 0.25 0.25 0.25 )
       (0.25 0.25 0.25 0.25 )
       (0.25 0.25 0.25 0.25 )
       (0.25 0.25 0.25 0.25 )
       (0.25 0.25 0.25 0.25 )
       (0.25 0.25 0.25 0.25 )
       (0.25 0.25 0.25 0.25 ))
       ((0.25 0.25 0.25 0.25 )
       (0.25 0.25 0.25 0.25 )
       (0.25 0.25 0.25 0.25 )
       (0.25 0.25 0.25 0.25 )
       (0.25 0.25 0.25 0.25 )
       (0.25 0.25 0.25 0.25 )
       (0.25 0.25 0.25 0.25 )
       (0.25 0.25 0.25 0.25 )
       (0.25 0.25 0.25 0.25 )
       (0.25 0.25 0.25 0.25 )
       (0.25 0.25 0.25 0.25 )
       (0.25 0.25 0.25 0.25 )
       (0.25 0.25 0.25 0.25 )))
       (((0.25 0.25 0.25 0.25 )
       (0.25 0.25 0.25 0.25 )
       (0.25 0.25 0.25 0.25 )
       (0.25 0.25 0.25 0.25 )
       (0.25 0.25 0.25 0.25 )
       (0.25 0.25 0.25 0.25 )
       (0.25 0.25 0.25 0.25 )
       (0.25 0.25 0.25 0.25 )
       (0.25 0.25 0.25 0.25 )
       (0.25 0.25 0.25 0.25 )
       (0.25 0.25 0.25 0.25 )
       (0.25 0.25 0.25 0.25 )
       (0.25 0.25 0.25 0.25 ))
       ((0.25 0.25 0.25 0.25 )
       (0.25 0.25 0.25 0.25 )
       (0.25 0.25 0.25 0.25 )
       (0.25 0.25 0.25 0.25 )
       (0.25 0.25 0.25 0.25 )
       (0.25 0.25 0.25 0.25 )
       (0.25 0.25 0.25 0.25 )
       (0.25 0.25 0.25 0.25 )
       (0.25 0.25 0.25 0.25 )
       (0.25 0.25 0.25 0.25 )
       (0.25 0.25 0.25 0.25 )
       (0.25 0.25 0.25 0.25 )
       (0.25 0.25 0.25 0.25 ))
       ((0.25 0.25 0.25 0.25 )
       (0.25 0.25 0.25 0.25 )
       (0.25 0.25 0.25 0.25 )
       (0.25 0.25 0.25 0.25 )
       (0.25 0.25 0.25 0.25 )
       (0.25 0.25 0.25 0.25 )
       (0.25 0.25 0.25 0.25 )
       (0.25 0.25 0.25 0.25 )
       (0.25 0.25 0.25 0.25 )
       (0.25 0.25 0.25 0.25 )
       (0.25 0.25 0.25 0.25 )
       (0.25 0.25 0.25 0.25 )
       (0.25 0.25 0.25 0.25 ))
