net
{
     node_size = (0 0);
     name = "learned net";
     tree = "(sexo,idadenumero,fronte,mentoproeminencia,incisivos,orbita,mentoredondo,glabela)";
     UnBBayes_Color_Probabilistic_Description = "-256";
     UnBBayes_Color_Probabilistic_Explanation = "-16711936";
     UnBBayes_Color_Utility = "-16711681";
     UnBBayes_Color_Decision = "-14336";
}

node sexo
{
     label = "sexo";
     position = (210 36);
     states = ("Feminino" "Masculino");
}

node idadenumero
{
     label = "idadenumero";
     position = (423 40);
     states = ("De30a43" "De54a66" "De23a29" "De44a53" "De18a22");
}

node fronte
{
     label = "fronte";
     position = (90 219);
     states = ("MuitoVertical" "Inclinada" "Vertical" "MuitoInclinada" "Indisponivel");
}

node mentoproeminencia
{
     label = "mentoproeminencia";
     position = (331 220);
     states = ("Discreto" "Proeminente" "MuitoProeminente" "MuitoDiscreto" "Indisponivel");
}

node incisivos
{
     label = "incisivos";
     position = (327 119);
     states = ("Quadrado" "Redondo" "MuitoQuadrado" "MuitoRedondo" "Indisponivel");
}

node orbita
{
     label = "orbita";
     position = (51 147);
     states = ("Angulosa" "Redonda" "MuitoRedonda" "Indisponivel" "MuitoAngulosa");
}

node mentoredondo
{
     label = "mentoredondo";
     position = (249 290);
     states = ("Arredondado" "Quadrado" "MuitoArredondado" "MuitoQuadrado" "Indisponivel");
}

node glabela
{
     label = "glabela";
     position = (164 355);
     states = ("NadaProeminente" "Proeminente" "PoucoProeminente" "MuitoProeminente" "Indisponivel");
}

potential (sexo)
{
 data = ( 0.46865037 0.5313496 );
}

potential (idadenumero)
{
 data = ( 0.1684322 0.12182204 0.13135593 0.12711865 0.45127118 );
}

potential (fronte | sexo)
{
 data = (( 0.13932584 0.27415732 0.38651684 0.19325842 0.006741573 )
( 0.10119048 0.3690476 0.30952382 0.21428572 0.005952381 ));
}

potential (mentoproeminencia | sexo idadenumero)
{
 data = ((( 0.7012987 0.20779221 0.012987013 0.064935066 0.012987013 )
( 0.2967033 0.5934066 0.032967035 0.06593407 0.010989011 ))
(( 0.29166666 0.083333336 0.375 0.22916667 0.020833334 )
( 0.10526316 0.35526314 0.27631578 0.25 0.013157895 ))
(( 0.22058824 0.27941176 0.4117647 0.073529415 0.014705882 )
( 0.15384616 0.46153846 0.2 0.15384616 0.03076923 ))
(( 0.37142858 0.44285715 0.114285715 0.042857144 0.028571429 )
( 0.3559322 0.33898306 0.15254237 0.118644066 0.033898305 ))
(( 0.5247525 0.26237625 0.07920792 0.12376238 0.00990099 )
( 0.19313304 0.53648067 0.1416309 0.12446352 0.0042918455 )));
}

potential (incisivos | sexo idadenumero)
{
 data = ((( 0.09090909 0.8701299 0.012987013 0.012987013 0.012987013 )
( 0.9010989 0.054945055 0.021978023 0.010989011 0.010989011 ))
(( 0.45833334 0.47916666 0.020833334 0.020833334 0.020833334 )
( 0.93421054 0.013157895 0.013157895 0.013157895 0.02631579 ))
(( 0.04411765 0.75 0.014705882 0.1764706 0.014705882 )
( 0.8 0.13846155 0.015384615 0.015384615 0.03076923 ))
(( 0.014285714 0.9285714 0.014285714 0.014285714 0.028571429 )
( 0.91525424 0.016949153 0.016949153 0.016949153 0.033898305 ))
(( 0.47029704 0.15841584 0.12376238 0.23762377 0.00990099 )
( 0.6051502 0.2274678 0.08583691 0.07725322 0.0042918455 )));
}

potential (orbita | sexo)
{
 data = (( 0.4 0.5820225 0.008988764 0.004494382 0.004494382 )
( 0.59126985 0.3888889 0.011904762 0.003968254 0.003968254 ));
}

potential (mentoredondo | sexo mentoproeminencia)
{
 data = ((( 0.40930232 0.24186046 0.09767442 0.24651162 0.004651163 )
( 0.3063063 0.27027026 0.06306306 0.35135135 0.009009009 ))
(( 0.40650406 0.45528457 0.12195122 0.008130081 0.008130081 )
( 0.1796875 0.4375 0.22265625 0.15625 0.00390625 ))
(( 0.32394367 0.45070422 0.1971831 0.014084507 0.014084507 )
( 0.12658228 0.43037975 0.4050633 0.025316456 0.012658228 ))
(( 0.63265306 0.2244898 0.10204082 0.020408163 0.020408163 )
( 0.23943663 0.3802817 0.23943663 0.12676056 0.014084507 ))
(( 0.14285715 0.14285715 0.14285715 0.14285715 0.42857143 )
( 0.14285715 0.14285715 0.14285715 0.14285715 0.42857143 )));
}

potential (glabela | sexo fronte mentoredondo)
{
 data = (((( 0.20833333 0.083333336 0.625 0.041666668 0.041666668 )
( 0.083333336 0.083333336 0.083333336 0.6666667 0.083333336 ))
(( 0.82258064 0.048387095 0.09677419 0.016129032 0.016129032 )
( 0.022222223 0.62222224 0.31111112 0.022222223 0.022222223 ))
(( 0.045454547 0.022727273 0.90909094 0.011363637 0.011363637 )
( 0.02631579 0.8684211 0.05263158 0.02631579 0.02631579 ))
(( 0.88235295 0.029411765 0.029411765 0.029411765 0.029411765 )
( 0.5 0.035714287 0.35714287 0.071428575 0.035714287 ))
(( 0.2 0.2 0.2 0.2 0.2 )
( 0.2 0.2 0.2 0.2 0.2 )))
((( 0.045454547 0.045454547 0.8181818 0.045454547 0.045454547 )
( 0.032258064 0.06451613 0.032258064 0.83870965 0.032258064 ))
(( 0.31428573 0.08571429 0.54285717 0.028571429 0.028571429 )
( 0.011764706 0.92941177 0.023529412 0.023529412 0.011764706 ))
(( 0.032258064 0.032258064 0.9032258 0.016129032 0.016129032 )
( 0.016666668 0.8 0.1 0.06666667 0.016666668 ))
(( 0.9166667 0.020833334 0.020833334 0.020833334 0.020833334 )
( 0.41860464 0.11627907 0.41860464 0.023255814 0.023255814 ))
(( 0.2 0.2 0.2 0.2 0.2 )
( 0.2 0.2 0.2 0.2 0.2 )))
((( 0.083333336 0.083333336 0.6666667 0.083333336 0.083333336 )
( 0.05263158 0.05263158 0.05263158 0.7894737 0.05263158 ))
(( 0.75 0.0625 0.0625 0.0625 0.0625 )
( 0.027027028 0.5945946 0.3243243 0.027027028 0.027027028 ))
(( 0.071428575 0.035714287 0.8214286 0.035714287 0.035714287 )
( 0.023255814 0.88372093 0.046511628 0.023255814 0.023255814 ))
(( 0.73333335 0.06666667 0.06666667 0.06666667 0.06666667 )
( 0.033333335 0.033333335 0.8666667 0.033333335 0.033333335 ))
(( 0.2 0.2 0.2 0.2 0.2 )
( 0.2 0.2 0.2 0.2 0.2 )))
((( 0.04347826 0.04347826 0.82608694 0.04347826 0.04347826 )
( 0.125 0.125 0.125 0.5 0.125 ))
(( 0.85714287 0.035714287 0.035714287 0.035714287 0.035714287 )
( 0.02631579 0.8947368 0.02631579 0.02631579 0.02631579 ))
(( 0.07692308 0.07692308 0.6923077 0.07692308 0.07692308 )
( 0.029411765 0.88235295 0.029411765 0.029411765 0.029411765 ))
(( 0.5 0.125 0.125 0.125 0.125 )
( 0.03846154 0.03846154 0.84615386 0.03846154 0.03846154 ))
(( 0.2 0.2 0.2 0.2 0.2 )
( 0.2 0.2 0.2 0.2 0.2 )))
((( 0.2 0.2 0.2 0.2 0.2 )
( 0.2 0.2 0.2 0.2 0.2 ))
(( 0.2 0.2 0.2 0.2 0.2 )
( 0.2 0.2 0.2 0.2 0.2 ))
(( 0.2 0.2 0.2 0.2 0.2 )
( 0.2 0.2 0.2 0.2 0.2 ))
(( 0.2 0.2 0.2 0.2 0.2 )
( 0.2 0.2 0.2 0.2 0.2 ))
(( 0.14285715 0.14285715 0.14285715 0.14285715 0.42857143 )
( 0.14285715 0.14285715 0.14285715 0.14285715 0.42857143 ))));
}

