net
{
     node_size = (0 0);
     name = "learned net";
     tree = "(idadenumero,sexo,glabela,fronte,incisivos,mentoredondo,mentoproeminencia,orbita)";
     UnBBayes_Color_Probabilistic_Description = "-256";
     UnBBayes_Color_Probabilistic_Explanation = "-16711936";
     UnBBayes_Color_Utility = "-16711681";
     UnBBayes_Color_Decision = "-14336";
}

node idadenumero
{
     label = "idadenumero";
     position = (63 96);
     states = ("Adulto" "PosPuberal" "Velho");
}

node sexo
{
     label = "sexo";
     position = (188 18);
     states = ("Feminino" "Masculino");
}

node glabela
{
     label = "glabela";
     position = (290 277);
     states = ("NadaProeminente" "Proeminente" "PoucoProeminente" "MuitoProeminente");
}

node fronte
{
     label = "fronte";
     position = (246 154);
     states = ("MuitoVertical" "Inclinada" "Vertical" "MuitoInclinada");
}

node incisivos
{
     label = "incisivos";
     position = (185 290);
     states = ("Quadrado" "Redondo" "MuitoQuadrado" "MuitoRedondo" "Indisponivel");
}

node mentoredondo
{
     label = "mentoredondo";
     position = (408 263);
     states = ("Arredondado" "Quadrado" "MuitoArredondado" "MuitoQuadrado");
}

node mentoproeminencia
{
     label = "mentoproeminencia";
     position = (331 157);
     states = ("Discreto" "Proeminente" "MuitoProeminente" "MuitoDiscreto");
}

node orbita
{
     label = "orbita";
     position = (58 291);
     states = ("Angulosa" "Redonda" "MuitoRedonda");
}

potential (idadenumero)
{
 data = ( 0.77267873 0.16862327 0.058697972 );
}

potential (sexo)
{
 data = ( 0.4679487 0.53205127 );
}

potential (glabela | fronte)
{
 data = (( 0.03508772 0.02631579 0.5 0.4385965 )
( 0.30645162 0.52903223 0.15806451 0.006451613 )
( 0.018181818 0.44848484 0.5212121 0.012121212 )
( 0.59183675 0.025510205 0.37244898 0.010204081 ));
}

potential (fronte | sexo)
{
 data = (( 0.138322 0.276644 0.39002267 0.19501133 )
( 0.1017964 0.37125748 0.31137726 0.21556886 ));
}

potential (incisivos | idadenumero sexo)
{
 data = ((( 0.2857143 0.6457143 0.0028571428 0.06285714 0.0028571428 )
( 0.051948052 0.116883114 0.32467532 0.4935065 0.012987013 )
( 0.84 0.04 0.04 0.04 0.04 ))
(( 0.82506526 0.14360313 0.007832898 0.018276762 0.005221932 )
( 0.5222222 0.12222222 0.21111111 0.13333334 0.011111111 )
( 0.8974359 0.025641026 0.025641026 0.025641026 0.025641026 )));
}

potential (mentoredondo | mentoproeminencia)
{
 data = (( 0.37617555 0.2539185 0.0846395 0.28526646 )
( 0.2546917 0.44772118 0.19034852 0.107238606 )
( 0.22222222 0.4513889 0.3125 0.013888889 )
( 0.4122807 0.32456142 0.18421052 0.078947365 ));
}

potential (mentoproeminencia | sexo)
{
 data = (( 0.47619048 0.26984128 0.15192744 0.10204082 )
( 0.21357286 0.502994 0.1497006 0.13373253 ));
}

potential (orbita | idadenumero sexo)
{
 data = ((( 0.3591954 0.62931037 0.011494253 )
( 0.6533333 0.33333334 0.013333334 )
( 0.2173913 0.73913044 0.04347826 ))
(( 0.5931758 0.39107612 0.015748031 )
( 0.6818182 0.3068182 0.011363637 )
( 0.3783784 0.5945946 0.027027028 )));
}

