net
{
     node_size = (0 0);
     name = "learned net";
     tree = "(sexo,fronte,mentoproeminencia,incisivos,orbita,mentoredondo,glabela)";
     UnBBayes_Color_Probabilistic_Description = "-256";
     UnBBayes_Color_Probabilistic_Explanation = "-16711936";
     UnBBayes_Color_Utility = "-16711681";
     UnBBayes_Color_Decision = "-14336";
}

node sexo
{
     label = "sexo";
     position = (220 30);
     states = ("Feminino" "Masculino");
}

node fronte
{
     label = "fronte";
     position = (391 93);
     states = ("MuitoVertical" "Inclinada" "Vertical" "MuitoInclinada" "Indisponivel");
}

node mentoproeminencia
{
     label = "mentoproeminencia";
     position = (167 158);
     states = ("Discreto" "Proeminente" "MuitoProeminente" "MuitoDiscreto" "Indisponivel");
}

node incisivos
{
     label = "incisivos";
     position = (32 137);
     states = ("Quadrado" "Redondo" "MuitoQuadrado" "MuitoRedondo" "Indisponivel");
}

node orbita
{
     label = "orbita";
     position = (262 175);
     states = ("Angulosa" "Redonda" "MuitoRedonda" "Indisponivel" "MuitoAngulosa");
}

node mentoredondo
{
     label = "mentoredondo";
     position = (163 272);
     states = ("Arredondado" "Quadrado" "MuitoArredondado" "MuitoQuadrado" "Indisponivel");
}

node glabela
{
     label = "glabela";
     position = (392 266);
     states = ("NadaProeminente" "Proeminente" "PoucoProeminente" "MuitoProeminente" "Indisponivel");
}

potential (sexo)
{
 data = ( 0.46865037 0.5313496 );
}

potential (fronte | sexo)
{
 data = (( 0.13932584 0.27415732 0.38651684 0.19325842 0.006741573 )
( 0.10119048 0.3690476 0.30952382 0.21428572 0.005952381 ));
}

potential (mentoproeminencia | sexo)
{
 data = (( 0.4741573 0.26741573 0.1505618 0.101123594 0.006741573 )
( 0.21230158 0.5 0.14880952 0.13293651 0.005952381 ));
}

potential (incisivos | sexo)
{
 data = (( 0.27865168 0.5258427 0.056179777 0.13258427 0.006741573 )
( 0.78571427 0.12896825 0.041666668 0.035714287 0.007936508 ));
}

potential (orbita | sexo)
{
 data = (( 0.4 0.5820225 0.008988764 0.004494382 0.004494382 )
( 0.59126985 0.3888889 0.011904762 0.003968254 0.003968254 ));
}

potential (mentoredondo | mentoproeminencia)
{
 data = (( 0.37694705 0.25233644 0.08411215 0.2834891 0.0031152647 )
( 0.2540107 0.44652405 0.18983957 0.10695187 0.0026737968 )
( 0.22068965 0.44827586 0.31034482 0.013793103 0.0068965517 )
( 0.40869564 0.32173914 0.1826087 0.07826087 0.008695652 )
( 0.11111111 0.11111111 0.11111111 0.11111111 0.5555556 ));
}

potential (glabela | fronte)
{
 data = (( 0.04310345 0.02586207 0.49137932 0.43103448 0.00862069 )
( 0.30546623 0.5273312 0.15755627 0.006430868 0.003215434 )
( 0.018126888 0.4471299 0.51963747 0.012084592 0.003021148 )
( 0.5888325 0.02538071 0.37055838 0.010152284 0.005076142 )
( 0.11111111 0.11111111 0.11111111 0.11111111 0.5555556 ));
}

