net
{
     node_size = (0 0);
     name = "learned net";
     tree = "(sexo,fronte,mentoproeminencia,incisivos,orbita,mentoredondo,glabela)";
     UnBBayes_Color_Probabilistic_Description = "-256";
     UnBBayes_Color_Probabilistic_Explanation = "-16711936";
     UnBBayes_Color_Utility = "-16711681";
     UnBBayes_Color_Decision = "-14336";
}

node sexo
{
     label = "sexo";
     position = (399 80);
     states = ("Feminino" "Masculino");
}

node fronte
{
     label = "fronte";
     position = (32 230);
     states = ("MuitoVertical" "Inclinada" "Vertical" "MuitoInclinada" "Indisponivel");
}

node mentoproeminencia
{
     label = "mentoproeminencia";
     position = (217 193);
     states = ("Discreto" "Proeminente" "MuitoProeminente" "MuitoDiscreto" "Indisponivel");
}

node incisivos
{
     label = "incisivos";
     position = (468 230);
     states = ("Quadrado" "Redondo" "MuitoQuadrado" "MuitoRedondo" "Indisponivel");
}

node orbita
{
     label = "orbita";
     position = (382 379);
     states = ("Angulosa" "Redonda" "MuitoRedonda" "Indisponivel" "MuitoAngulosa");
}

node mentoredondo
{
     label = "mentoredondo";
     position = (168 493);
     states = ("Arredondado" "Quadrado" "MuitoArredondado" "MuitoQuadrado" "Indisponivel");
}

node glabela
{
     label = "glabela";
     position = (37 429);
     states = ("NadaProeminente" "Proeminente" "PoucoProeminente" "MuitoProeminente" "Indisponivel");
}

potential (sexo)
{
 data = ( 0.46865037 0.5313496 );
}

potential (fronte | sexo)
{
 data = (( 0.13932584 0.27415732 0.38651684 0.19325842 0.006741573 )
( 0.10119048 0.3690476 0.30952382 0.21428572 0.005952381 ));
}

potential (mentoproeminencia | sexo fronte)
{
 data = ((( 0.37878788 0.3181818 0.1969697 0.09090909 0.015151516 )
( 0.054545455 0.6545454 0.18181819 0.09090909 0.018181818 ))
(( 0.4920635 0.20634921 0.17460318 0.11904762 0.007936508 )
( 0.29473683 0.36842105 0.17894737 0.15263158 0.005263158 ))
(( 0.46022728 0.30113637 0.1534091 0.07954545 0.0056818184 )
( 0.19375 0.53125 0.125 0.14375 0.00625 ))
(( 0.51111114 0.24444444 0.08888889 0.14444445 0.011111111 )
( 0.17857143 0.5714286 0.125 0.116071425 0.008928572 ))
(( 0.14285715 0.14285715 0.14285715 0.14285715 0.42857143 )
( 0.14285715 0.14285715 0.14285715 0.14285715 0.42857143 )));
}

potential (incisivos | fronte sexo mentoproeminencia)
{
 data = (((( 0.3448276 0.2413793 0.1724138 0.20689656 0.03448276 )
( 0.1969697 0.45454547 0.060606062 0.27272728 0.015151516 )
( 0.27058825 0.5764706 0.011764706 0.12941177 0.011764706 )
( 0.26 0.5 0.02 0.2 0.02 )
( 0.2 0.2 0.2 0.2 0.2 ))
(( 0.42857143 0.14285715 0.14285715 0.14285715 0.14285715 )
( 0.85 0.083333336 0.033333335 0.016666668 0.016666668 )
( 0.6571429 0.2 0.057142857 0.057142857 0.028571429 )
( 0.5416667 0.33333334 0.041666668 0.041666668 0.041666668 )
( 0.2 0.2 0.2 0.2 0.2 )))
((( 0.32 0.56 0.04 0.04 0.04 )
( 0.6 0.3 0.033333335 0.033333335 0.033333335 )
( 0.12280702 0.6315789 0.01754386 0.21052632 0.01754386 )
( 0.30769232 0.5769231 0.03846154 0.03846154 0.03846154 )
( 0.2 0.2 0.2 0.2 0.2 ))
(( 0.85 0.075 0.025 0.025 0.025 )
( 0.4864865 0.43243244 0.054054055 0.013513514 0.013513514 )
( 0.76404494 0.123595506 0.011235955 0.07865169 0.02247191 )
( 0.75 0.05882353 0.014705882 0.16176471 0.014705882 )
( 0.2 0.2 0.2 0.2 0.2 )))
((( 0.3529412 0.23529412 0.29411766 0.05882353 0.05882353 )
( 0.03846154 0.84615386 0.03846154 0.03846154 0.03846154 )
( 0.19354838 0.516129 0.032258064 0.22580644 0.032258064 )
( 0.083333336 0.6666667 0.083333336 0.083333336 0.083333336 )
( 0.2 0.2 0.2 0.2 0.2 ))
(( 0.71428573 0.071428575 0.071428575 0.071428575 0.071428575 )
( 0.8684211 0.05263158 0.02631579 0.02631579 0.02631579 )
( 0.6666667 0.041666668 0.20833333 0.041666668 0.041666668 )
( 0.7777778 0.055555556 0.055555556 0.055555556 0.055555556 )
( 0.2 0.2 0.2 0.2 0.2 )))
((( 0.1 0.6 0.1 0.1 0.1 )
( 0.42105263 0.05263158 0.42105263 0.05263158 0.05263158 )
( 0.3888889 0.11111111 0.3888889 0.055555556 0.055555556 )
( 0.5294118 0.29411766 0.05882353 0.05882353 0.05882353 )
( 0.2 0.2 0.2 0.2 0.2 ))
(( 0.5555556 0.11111111 0.11111111 0.11111111 0.11111111 )
( 0.54545456 0.030303031 0.36363637 0.030303031 0.030303031 )
( 0.8518519 0.037037037 0.037037037 0.037037037 0.037037037 )
( 0.7647059 0.05882353 0.05882353 0.05882353 0.05882353 )
( 0.2 0.2 0.2 0.2 0.2 )))
((( 0.2 0.2 0.2 0.2 0.2 )
( 0.2 0.2 0.2 0.2 0.2 )
( 0.2 0.2 0.2 0.2 0.2 )
( 0.2 0.2 0.2 0.2 0.2 )
( 0.14285715 0.14285715 0.14285715 0.14285715 0.42857143 ))
(( 0.2 0.2 0.2 0.2 0.2 )
( 0.2 0.2 0.2 0.2 0.2 )
( 0.2 0.2 0.2 0.2 0.2 )
( 0.2 0.2 0.2 0.2 0.2 )
( 0.14285715 0.14285715 0.14285715 0.14285715 0.42857143 ))));
}

potential (orbita | mentoproeminencia incisivos sexo)
{
 data = (((( 0.36666667 0.5833333 0.016666668 0.016666668 0.016666668 )
( 0.0952381 0.8333333 0.023809524 0.023809524 0.023809524 ))
(( 0.2 0.6 0.06666667 0.06666667 0.06666667 )
( 0.23076923 0.65384614 0.03846154 0.03846154 0.03846154 ))
(( 0.2 0.2 0.2 0.2 0.2 )
( 0.6 0.2 0.06666667 0.06666667 0.06666667 ))
(( 0.2 0.2 0.2 0.2 0.2 )
( 0.7777778 0.055555556 0.055555556 0.055555556 0.055555556 ))
(( 0.2 0.2 0.2 0.2 0.2 )
( 0.2 0.2 0.2 0.2 0.2 )))
((( 0.2 0.2 0.2 0.2 0.2 )
( 0.2 0.2 0.2 0.2 0.2 ))
(( 0.14285715 0.14285715 0.14285715 0.2857143 0.2857143 )
( 0.71666664 0.23333333 0.016666668 0.016666668 0.016666668 ))
(( 0.2 0.2 0.2 0.2 0.2 )
( 0.2 0.2 0.2 0.2 0.2 ))
(( 0.2 0.2 0.2 0.2 0.2 )
( 0.75 0.0625 0.0625 0.0625 0.0625 ))
(( 0.2 0.2 0.2 0.2 0.2 )
( 0.2 0.2 0.2 0.2 0.2 )))
((( 0.2 0.2 0.2 0.2 0.2 )
( 0.2 0.2 0.2 0.2 0.2 ))
(( 0.14285715 0.14285715 0.14285715 0.2857143 0.2857143 )
( 0.2 0.2 0.2 0.2 0.2 ))
(( 0.2 0.2 0.2 0.2 0.2 )
( 0.2 0.2 0.2 0.2 0.2 ))
(( 0.2 0.2 0.2 0.2 0.2 )
( 0.2 0.2 0.2 0.2 0.2 ))
(( 0.2 0.2 0.2 0.2 0.2 )
( 0.2 0.2 0.2 0.2 0.2 )))
((( 0.2 0.2 0.2 0.2 0.2 )
( 0.2 0.2 0.2 0.2 0.2 ))
(( 0.2 0.2 0.2 0.2 0.2 )
( 0.2 0.2 0.2 0.2 0.2 ))
(( 0.2 0.2 0.2 0.2 0.2 )
( 0.2 0.2 0.2 0.2 0.2 ))
(( 0.2 0.2 0.2 0.2 0.2 )
( 0.2 0.2 0.2 0.2 0.2 ))
(( 0.2 0.2 0.2 0.2 0.2 )
( 0.2 0.2 0.2 0.2 0.2 )))
((( 0.2 0.2 0.2 0.2 0.2 )
( 0.2 0.2 0.2 0.2 0.2 ))
(( 0.2 0.2 0.2 0.2 0.2 )
( 0.2 0.2 0.2 0.2 0.2 ))
(( 0.2 0.2 0.2 0.2 0.2 )
( 0.2 0.2 0.2 0.2 0.2 ))
(( 0.2 0.2 0.2 0.2 0.2 )
( 0.2 0.2 0.2 0.2 0.2 ))
(( 0.2 0.2 0.2 0.2 0.2 )
( 0.2 0.2 0.2 0.2 0.0 ))));
}

potential (mentoredondo | sexo mentoproeminencia sexo incisivos sexo fronte orbita)
{
 data = (((((( 0.2 0.2 0.2 0.2 0.2 )
( 0.2 0.2 0.2 0.2 0.2 ))
(( 0.2 0.2 0.2 0.2 0.2 )
( 0.2 0.2 0.2 0.2 0.2 ))
(( 0.2 0.2 0.2 0.2 0.2 )
( 0.2 0.2 0.2 0.2 0.2 ))
(( 0.2 0.2 0.2 0.2 0.2 )
( 0.2 0.2 0.2 0.2 0.2 ))
(( 0.2 0.2 0.2 0.2 0.2 )
( 0.2 0.2 0.2 0.2 0.2 )))
((( 0.2 0.2 0.2 0.2 0.2 )
( 0.2 0.2 0.2 0.2 0.2 ))
(( 0.2 0.2 0.2 0.2 0.2 )
( 0.2 0.2 0.2 0.2 0.2 ))
(( 0.2 0.2 0.2 0.2 0.2 )
( 0.2 0.2 0.2 0.2 0.2 ))
(( 0.2 0.2 0.2 0.2 0.2 )
( 0.2 0.2 0.2 0.2 0.2 ))
(( 0.2 0.2 0.2 0.2 0.2 )
( 0.2 0.2 0.2 0.2 0.2 )))
((( 0.0 0.0 0.0 0.0 0.0 )
( 0.0 0.0 0.0 0.0 0.0 ))
(( 0.0 0.0 0.0 0.0 0.0 )
( 0.0 0.0 0.0 0.0 0.0 ))
(( 0.0 0.0 0.0 0.0 0.0 )
( 0.0 0.0 0.0 0.0 0.0 ))
(( 0.0 0.0 0.0 0.0 0.0 )
( 0.0 0.0 0.0 0.0 0.0 ))
(( 0.0 0.0 0.0 0.0 0.0 )
( 0.0 0.0 0.0 0.0 0.0 )))
((( 0.0 0.0 0.0 0.0 0.0 )
( 0.0 0.0 0.0 0.0 0.0 ))
(( 0.0 0.0 0.0 0.0 0.0 )
( 0.0 0.0 0.0 0.0 0.0 ))
(( 0.0 0.0 0.0 0.0 0.0 )
( 0.0 0.0 0.0 0.0 0.0 ))
(( 0.0 0.0 0.0 0.0 0.0 )
( 0.0 0.0 0.0 0.0 0.0 ))
(( 0.0 0.0 0.0 0.0 0.0 )
( 0.0 0.0 0.0 0.0 0.0 )))
((( 0.0 0.0 0.0 0.0 0.0 )
( 0.0 0.0 0.0 0.0 0.0 ))
(( 0.0 0.0 0.0 0.0 0.0 )
( 0.0 0.0 0.0 0.0 0.0 ))
(( 0.0 0.0 0.0 0.0 0.0 )
( 0.0 0.0 0.0 0.0 0.0 ))
(( 0.0 0.0 0.0 0.0 0.0 )
( 0.0 0.0 0.0 0.0 0.0 ))
(( 0.0 0.0 0.0 0.0 0.0 )
( 0.0 0.0 0.0 0.0 0.0 ))))
(((( 0.2 0.2 0.2 0.2 0.2 )
( 0.2 0.2 0.2 0.2 0.2 ))
(( 0.2 0.2 0.2 0.2 0.2 )
( 0.2 0.2 0.2 0.2 0.2 ))
(( 0.2 0.2 0.2 0.2 0.2 )
( 0.2 0.2 0.2 0.2 0.2 ))
(( 0.2 0.2 0.2 0.2 0.2 )
( 0.2 0.2 0.2 0.2 0.2 ))
(( 0.2 0.2 0.2 0.2 0.2 )
( 0.2 0.2 0.2 0.2 0.2 )))
((( 0.2 0.2 0.2 0.2 0.2 )
( 0.2 0.2 0.2 0.2 0.2 ))
(( 0.2 0.2 0.2 0.2 0.2 )
( 0.2 0.2 0.2 0.2 0.2 ))
(( 0.2 0.2 0.2 0.2 0.2 )
( 0.2 0.2 0.2 0.2 0.2 ))
(( 0.2 0.2 0.2 0.2 0.2 )
( 0.2 0.2 0.2 0.2 0.2 ))
(( 0.2 0.2 0.2 0.2 0.2 )
( 0.2 0.2 0.2 0.2 0.2 )))
((( 0.0 0.0 0.0 0.0 0.0 )
( 0.0 0.0 0.0 0.0 0.0 ))
(( 0.0 0.0 0.0 0.0 0.0 )
( 0.0 0.0 0.0 0.0 0.0 ))
(( 0.0 0.0 0.0 0.0 0.0 )
( 0.0 0.0 0.0 0.0 0.0 ))
(( 0.0 0.0 0.0 0.0 0.0 )
( 0.0 0.0 0.0 0.0 0.0 ))
(( 0.0 0.0 0.0 0.0 0.0 )
( 0.0 0.0 0.0 0.0 0.0 )))
((( 0.0 0.0 0.0 0.0 0.0 )
( 0.0 0.0 0.0 0.0 0.0 ))
(( 0.0 0.0 0.0 0.0 0.0 )
( 0.0 0.0 0.0 0.0 0.0 ))
(( 0.0 0.0 0.0 0.0 0.0 )
( 0.0 0.0 0.0 0.0 0.0 ))
(( 0.0 0.0 0.0 0.0 0.0 )
( 0.0 0.0 0.0 0.0 0.0 ))
(( 0.0 0.0 0.0 0.0 0.0 )
( 0.0 0.0 0.0 0.0 0.0 )))
((( 0.0 0.0 0.0 0.0 0.0 )
( 0.0 0.0 0.0 0.0 0.0 ))
(( 0.0 0.0 0.0 0.0 0.0 )
( 0.0 0.0 0.0 0.0 0.0 ))
(( 0.0 0.0 0.0 0.0 0.0 )
( 0.0 0.0 0.0 0.0 0.0 ))
(( 0.0 0.0 0.0 0.0 0.0 )
( 0.0 0.0 0.0 0.0 0.0 ))
(( 0.0 0.0 0.0 0.0 0.0 )
( 0.0 0.0 0.0 0.0 0.0 ))))
(((( 0.2 0.2 0.2 0.2 0.2 )
( 0.2 0.2 0.2 0.2 0.2 ))
(( 0.2 0.2 0.2 0.2 0.2 )
( 0.2 0.2 0.2 0.2 0.2 ))
(( 0.2 0.2 0.2 0.2 0.2 )
( 0.2 0.2 0.2 0.2 0.2 ))
(( 0.2 0.2 0.2 0.2 0.2 )
( 0.2 0.2 0.2 0.2 0.2 ))
(( 0.2 0.2 0.2 0.2 0.2 )
( 0.2 0.2 0.2 0.2 0.2 )))
((( 0.2 0.2 0.2 0.2 0.2 )
( 0.2 0.2 0.2 0.2 0.2 ))
(( 0.2 0.2 0.2 0.2 0.2 )
( 0.2 0.2 0.2 0.2 0.2 ))
(( 0.2 0.2 0.2 0.2 0.2 )
( 0.2 0.2 0.2 0.2 0.2 ))
(( 0.2 0.2 0.2 0.2 0.2 )
( 0.2 0.2 0.2 0.2 0.2 ))
(( 0.2 0.2 0.2 0.2 0.2 )
( 0.2 0.2 0.2 0.2 0.2 )))
((( 0.0 0.0 0.0 0.0 0.0 )
( 0.0 0.0 0.0 0.0 0.0 ))
(( 0.0 0.0 0.0 0.0 0.0 )
( 0.0 0.0 0.0 0.0 0.0 ))
(( 0.0 0.0 0.0 0.0 0.0 )
( 0.0 0.0 0.0 0.0 0.0 ))
(( 0.0 0.0 0.0 0.0 0.0 )
( 0.0 0.0 0.0 0.0 0.0 ))
(( 0.0 0.0 0.0 0.0 0.0 )
( 0.0 0.0 0.0 0.0 0.0 )))
((( 0.0 0.0 0.0 0.0 0.0 )
( 0.0 0.0 0.0 0.0 0.0 ))
(( 0.0 0.0 0.0 0.0 0.0 )
( 0.0 0.0 0.0 0.0 0.0 ))
(( 0.0 0.0 0.0 0.0 0.0 )
( 0.0 0.0 0.0 0.0 0.0 ))
(( 0.0 0.0 0.0 0.0 0.0 )
( 0.0 0.0 0.0 0.0 0.0 ))
(( 0.0 0.0 0.0 0.0 0.0 )
( 0.0 0.0 0.0 0.0 0.0 )))
((( 0.0 0.0 0.0 0.0 0.0 )
( 0.0 0.0 0.0 0.0 0.0 ))
(( 0.0 0.0 0.0 0.0 0.0 )
( 0.0 0.0 0.0 0.0 0.0 ))
(( 0.0 0.0 0.0 0.0 0.0 )
( 0.0 0.0 0.0 0.0 0.0 ))
(( 0.0 0.0 0.0 0.0 0.0 )
( 0.0 0.0 0.0 0.0 0.0 ))
(( 0.0 0.0 0.0 0.0 0.0 )
( 0.0 0.0 0.0 0.0 0.0 ))))
(((( 0.2 0.2 0.2 0.2 0.2 )
( 0.2 0.2 0.2 0.2 0.2 ))
(( 0.2 0.2 0.2 0.2 0.2 )
( 0.2 0.2 0.2 0.2 0.2 ))
(( 0.2 0.2 0.2 0.2 0.2 )
( 0.2 0.2 0.2 0.2 0.2 ))
(( 0.2 0.2 0.2 0.2 0.2 )
( 0.2 0.2 0.2 0.2 0.2 ))
(( 0.2 0.2 0.2 0.2 0.2 )
( 0.2 0.2 0.2 0.2 0.2 )))
((( 0.2 0.2 0.2 0.2 0.2 )
( 0.2 0.2 0.2 0.2 0.2 ))
(( 0.2 0.2 0.2 0.2 0.2 )
( 0.2 0.2 0.2 0.2 0.2 ))
(( 0.2 0.2 0.2 0.2 0.2 )
( 0.2 0.2 0.2 0.2 0.2 ))
(( 0.2 0.2 0.2 0.2 0.2 )
( 0.2 0.2 0.2 0.2 0.2 ))
(( 0.2 0.2 0.2 0.2 0.2 )
( 0.2 0.2 0.2 0.2 0.2 )))
((( 0.0 0.0 0.0 0.0 0.0 )
( 0.0 0.0 0.0 0.0 0.0 ))
(( 0.0 0.0 0.0 0.0 0.0 )
( 0.0 0.0 0.0 0.0 0.0 ))
(( 0.0 0.0 0.0 0.0 0.0 )
( 0.0 0.0 0.0 0.0 0.0 ))
(( 0.0 0.0 0.0 0.0 0.0 )
( 0.0 0.0 0.0 0.0 0.0 ))
(( 0.0 0.0 0.0 0.0 0.0 )
( 0.0 0.0 0.0 0.0 0.0 )))
((( 0.0 0.0 0.0 0.0 0.0 )
( 0.0 0.0 0.0 0.0 0.0 ))
(( 0.0 0.0 0.0 0.0 0.0 )
( 0.0 0.0 0.0 0.0 0.0 ))
(( 0.0 0.0 0.0 0.0 0.0 )
( 0.0 0.0 0.0 0.0 0.0 ))
(( 0.0 0.0 0.0 0.0 0.0 )
( 0.0 0.0 0.0 0.0 0.0 ))
(( 0.0 0.0 0.0 0.0 0.0 )
( 0.0 0.0 0.0 0.0 0.0 )))
((( 0.0 0.0 0.0 0.0 0.0 )
( 0.0 0.0 0.0 0.0 0.0 ))
(( 0.0 0.0 0.0 0.0 0.0 )
( 0.0 0.0 0.0 0.0 0.0 ))
(( 0.0 0.0 0.0 0.0 0.0 )
( 0.0 0.0 0.0 0.0 0.0 ))
(( 0.0 0.0 0.0 0.0 0.0 )
( 0.0 0.0 0.0 0.0 0.0 ))
(( 0.0 0.0 0.0 0.0 0.0 )
( 0.0 0.0 0.0 0.0 0.0 ))))
(((( 0.2 0.2 0.2 0.2 0.2 )
( 0.2 0.2 0.2 0.2 0.2 ))
(( 0.2 0.2 0.2 0.2 0.2 )
( 0.2 0.2 0.2 0.2 0.2 ))
(( 0.2 0.2 0.2 0.2 0.2 )
( 0.2 0.2 0.2 0.2 0.2 ))
(( 0.2 0.2 0.2 0.2 0.2 )
( 0.2 0.2 0.2 0.2 0.2 ))
(( 0.16666667 0.16666667 0.16666667 0.16666667 0.33333334 )
( 0.2 0.2 0.2 0.2 0.2 )))
((( 0.2 0.2 0.2 0.2 0.2 )
( 0.2 0.2 0.2 0.2 0.2 ))
(( 0.2 0.2 0.2 0.2 0.2 )
( 0.2 0.2 0.2 0.2 0.2 ))
(( 0.2 0.2 0.2 0.2 0.2 )
( 0.2 0.2 0.2 0.2 0.2 ))
(( 0.2 0.2 0.2 0.2 0.2 )
( 0.2 0.2 0.2 0.2 0.2 ))
(( 0.2 0.2 0.2 0.2 0.2 )
( 0.2 0.2 0.2 0.2 0.2 )))
((( 0.0 0.0 0.0 0.0 0.0 )
( 0.0 0.0 0.0 0.0 0.0 ))
(( 0.0 0.0 0.0 0.0 0.0 )
( 0.0 0.0 0.0 0.0 0.0 ))
(( 0.0 0.0 0.0 0.0 0.0 )
( 0.0 0.0 0.0 0.0 0.0 ))
(( 0.0 0.0 0.0 0.0 0.0 )
( 0.0 0.0 0.0 0.0 0.0 ))
(( 0.0 0.0 0.0 0.0 0.0 )
( 0.0 0.0 0.0 0.0 0.0 )))
((( 0.0 0.0 0.0 0.0 0.0 )
( 0.0 0.0 0.0 0.0 0.0 ))
(( 0.0 0.0 0.0 0.0 0.0 )
( 0.0 0.0 0.0 0.0 0.0 ))
(( 0.0 0.0 0.0 0.0 0.0 )
( 0.0 0.0 0.0 0.0 0.0 ))
(( 0.0 0.0 0.0 0.0 0.0 )
( 0.0 0.0 0.0 0.0 0.0 ))
(( 0.0 0.0 0.0 0.0 0.0 )
( 0.0 0.0 0.0 0.0 0.0 )))
((( 0.0 0.0 0.0 0.0 0.0 )
( 0.0 0.0 0.0 0.0 0.0 ))
(( 0.0 0.0 0.0 0.0 0.0 )
( 0.0 0.0 0.0 0.0 0.0 ))
(( 0.0 0.0 0.0 0.0 0.0 )
( 0.0 0.0 0.0 0.0 0.0 ))
(( 0.0 0.0 0.0 0.0 0.0 )
( 0.0 0.0 0.0 0.0 0.0 ))
(( 0.0 0.0 0.0 0.0 0.0 )
( 0.0 0.0 0.0 0.0 0.0 )))))
((((( 0.2 0.2 0.2 0.2 0.2 )
( 0.2 0.2 0.2 0.2 0.2 ))
(( 0.2 0.2 0.2 0.2 0.2 )
( 0.2 0.2 0.2 0.2 0.2 ))
(( 0.2 0.2 0.2 0.2 0.2 )
( 0.2 0.2 0.2 0.2 0.2 ))
(( 0.2 0.2 0.2 0.2 0.2 )
( 0.2 0.2 0.2 0.2 0.2 ))
(( 0.2 0.2 0.2 0.2 0.2 )
( 0.2 0.2 0.2 0.2 0.2 )))
((( 0.2 0.2 0.2 0.2 0.2 )
( 0.2 0.2 0.2 0.2 0.2 ))
(( 0.2 0.2 0.2 0.2 0.2 )
( 0.2 0.2 0.2 0.2 0.2 ))
(( 0.2 0.2 0.2 0.2 0.2 )
( 0.2 0.2 0.2 0.2 0.2 ))
(( 0.2 0.2 0.2 0.2 0.2 )
( 0.2 0.2 0.2 0.2 0.2 ))
(( 0.2 0.2 0.2 0.2 0.2 )
( 0.2 0.2 0.2 0.2 0.2 )))
((( 0.0 0.0 0.0 0.0 0.0 )
( 0.0 0.0 0.0 0.0 0.0 ))
(( 0.0 0.0 0.0 0.0 0.0 )
( 0.0 0.0 0.0 0.0 0.0 ))
(( 0.0 0.0 0.0 0.0 0.0 )
( 0.0 0.0 0.0 0.0 0.0 ))
(( 0.0 0.0 0.0 0.0 0.0 )
( 0.0 0.0 0.0 0.0 0.0 ))
(( 0.0 0.0 0.0 0.0 0.0 )
( 0.0 0.0 0.0 0.0 0.0 )))
((( 0.0 0.0 0.0 0.0 0.0 )
( 0.0 0.0 0.0 0.0 0.0 ))
(( 0.0 0.0 0.0 0.0 0.0 )
( 0.0 0.0 0.0 0.0 0.0 ))
(( 0.0 0.0 0.0 0.0 0.0 )
( 0.0 0.0 0.0 0.0 0.0 ))
(( 0.0 0.0 0.0 0.0 0.0 )
( 0.0 0.0 0.0 0.0 0.0 ))
(( 0.0 0.0 0.0 0.0 0.0 )
( 0.0 0.0 0.0 0.0 0.0 )))
((( 0.0 0.0 0.0 0.0 0.0 )
( 0.0 0.0 0.0 0.0 0.0 ))
(( 0.0 0.0 0.0 0.0 0.0 )
( 0.0 0.0 0.0 0.0 0.0 ))
(( 0.0 0.0 0.0 0.0 0.0 )
( 0.0 0.0 0.0 0.0 0.0 ))
(( 0.0 0.0 0.0 0.0 0.0 )
( 0.0 0.0 0.0 0.0 0.0 ))
(( 0.0 0.0 0.0 0.0 0.0 )
( 0.0 0.0 0.0 0.0 0.0 ))))
(((( 0.2 0.2 0.2 0.2 0.2 )
( 0.2 0.2 0.2 0.2 0.2 ))
(( 0.2 0.2 0.2 0.2 0.2 )
( 0.2 0.2 0.2 0.2 0.2 ))
(( 0.2 0.2 0.2 0.2 0.2 )
( 0.2 0.2 0.2 0.2 0.2 ))
(( 0.2 0.2 0.2 0.2 0.2 )
( 0.2 0.2 0.2 0.2 0.2 ))
(( 0.2 0.2 0.2 0.2 0.2 )
( 0.2 0.2 0.2 0.2 0.2 )))
((( 0.2 0.2 0.2 0.2 0.2 )
( 0.2 0.2 0.2 0.2 0.2 ))
(( 0.2 0.2 0.2 0.2 0.2 )
( 0.2 0.2 0.2 0.2 0.2 ))
(( 0.2 0.2 0.2 0.2 0.2 )
( 0.2 0.2 0.2 0.2 0.2 ))
(( 0.2 0.2 0.2 0.2 0.2 )
( 0.2 0.2 0.2 0.2 0.2 ))
(( 0.2 0.2 0.2 0.2 0.2 )
( 0.2 0.2 0.2 0.2 0.2 )))
((( 0.0 0.0 0.0 0.0 0.0 )
( 0.0 0.0 0.0 0.0 0.0 ))
(( 0.0 0.0 0.0 0.0 0.0 )
( 0.0 0.0 0.0 0.0 0.0 ))
(( 0.0 0.0 0.0 0.0 0.0 )
( 0.0 0.0 0.0 0.0 0.0 ))
(( 0.0 0.0 0.0 0.0 0.0 )
( 0.0 0.0 0.0 0.0 0.0 ))
(( 0.0 0.0 0.0 0.0 0.0 )
( 0.0 0.0 0.0 0.0 0.0 )))
((( 0.0 0.0 0.0 0.0 0.0 )
( 0.0 0.0 0.0 0.0 0.0 ))
(( 0.0 0.0 0.0 0.0 0.0 )
( 0.0 0.0 0.0 0.0 0.0 ))
(( 0.0 0.0 0.0 0.0 0.0 )
( 0.0 0.0 0.0 0.0 0.0 ))
(( 0.0 0.0 0.0 0.0 0.0 )
( 0.0 0.0 0.0 0.0 0.0 ))
(( 0.0 0.0 0.0 0.0 0.0 )
( 0.0 0.0 0.0 0.0 0.0 )))
((( 0.0 0.0 0.0 0.0 0.0 )
( 0.0 0.0 0.0 0.0 0.0 ))
(( 0.0 0.0 0.0 0.0 0.0 )
( 0.0 0.0 0.0 0.0 0.0 ))
(( 0.0 0.0 0.0 0.0 0.0 )
( 0.0 0.0 0.0 0.0 0.0 ))
(( 0.0 0.0 0.0 0.0 0.0 )
( 0.0 0.0 0.0 0.0 0.0 ))
(( 0.0 0.0 0.0 0.0 0.0 )
( 0.0 0.0 0.0 0.0 0.0 ))))
(((( 0.2 0.2 0.2 0.2 0.2 )
( 0.2 0.2 0.2 0.2 0.2 ))
(( 0.2 0.2 0.2 0.2 0.2 )
( 0.2 0.2 0.2 0.2 0.2 ))
(( 0.2 0.2 0.2 0.2 0.2 )
( 0.2 0.2 0.2 0.2 0.2 ))
(( 0.2 0.2 0.2 0.2 0.2 )
( 0.2 0.2 0.2 0.2 0.2 ))
(( 0.2 0.2 0.2 0.2 0.2 )
( 0.2 0.2 0.2 0.2 0.2 )))
((( 0.2 0.2 0.2 0.2 0.2 )
( 0.2 0.2 0.2 0.2 0.2 ))
(( 0.2 0.2 0.2 0.2 0.2 )
( 0.2 0.2 0.2 0.2 0.2 ))
(( 0.2 0.2 0.2 0.2 0.2 )
( 0.2 0.2 0.2 0.2 0.2 ))
(( 0.2 0.2 0.2 0.2 0.2 )
( 0.2 0.2 0.2 0.2 0.2 ))
(( 0.2 0.2 0.2 0.2 0.2 )
( 0.2 0.2 0.2 0.2 0.2 )))
((( 0.0 0.0 0.0 0.0 0.0 )
( 0.0 0.0 0.0 0.0 0.0 ))
(( 0.0 0.0 0.0 0.0 0.0 )
( 0.0 0.0 0.0 0.0 0.0 ))
(( 0.0 0.0 0.0 0.0 0.0 )
( 0.0 0.0 0.0 0.0 0.0 ))
(( 0.0 0.0 0.0 0.0 0.0 )
( 0.0 0.0 0.0 0.0 0.0 ))
(( 0.0 0.0 0.0 0.0 0.0 )
( 0.0 0.0 0.0 0.0 0.0 )))
((( 0.0 0.0 0.0 0.0 0.0 )
( 0.0 0.0 0.0 0.0 0.0 ))
(( 0.0 0.0 0.0 0.0 0.0 )
( 0.0 0.0 0.0 0.0 0.0 ))
(( 0.0 0.0 0.0 0.0 0.0 )
( 0.0 0.0 0.0 0.0 0.0 ))
(( 0.0 0.0 0.0 0.0 0.0 )
( 0.0 0.0 0.0 0.0 0.0 ))
(( 0.0 0.0 0.0 0.0 0.0 )
( 0.0 0.0 0.0 0.0 0.0 )))
((( 0.0 0.0 0.0 0.0 0.0 )
( 0.0 0.0 0.0 0.0 0.0 ))
(( 0.0 0.0 0.0 0.0 0.0 )
( 0.0 0.0 0.0 0.0 0.0 ))
(( 0.0 0.0 0.0 0.0 0.0 )
( 0.0 0.0 0.0 0.0 0.0 ))
(( 0.0 0.0 0.0 0.0 0.0 )
( 0.0 0.0 0.0 0.0 0.0 ))
(( 0.0 0.0 0.0 0.0 0.0 )
( 0.0 0.0 0.0 0.0 0.0 ))))
(((( 0.2 0.2 0.2 0.2 0.2 )
( 0.2 0.2 0.2 0.2 0.2 ))
(( 0.2 0.2 0.2 0.2 0.2 )
( 0.2 0.2 0.2 0.2 0.2 ))
(( 0.2 0.2 0.2 0.2 0.2 )
( 0.2 0.2 0.2 0.2 0.2 ))
(( 0.2 0.2 0.2 0.2 0.2 )
( 0.2 0.2 0.2 0.2 0.2 ))
(( 0.2 0.2 0.2 0.2 0.2 )
( 0.2 0.2 0.2 0.2 0.2 )))
((( 0.2 0.2 0.2 0.2 0.2 )
( 0.2 0.2 0.2 0.2 0.2 ))
(( 0.2 0.2 0.2 0.2 0.2 )
( 0.2 0.2 0.2 0.2 0.2 ))
(( 0.2 0.2 0.2 0.2 0.2 )
( 0.2 0.2 0.2 0.2 0.2 ))
(( 0.2 0.2 0.2 0.2 0.2 )
( 0.2 0.2 0.2 0.2 0.2 ))
(( 0.2 0.2 0.2 0.2 0.2 )
( 0.2 0.2 0.2 0.2 0.2 )))
((( 0.0 0.0 0.0 0.0 0.0 )
( 0.0 0.0 0.0 0.0 0.0 ))
(( 0.0 0.0 0.0 0.0 0.0 )
( 0.0 0.0 0.0 0.0 0.0 ))
(( 0.0 0.0 0.0 0.0 0.0 )
( 0.0 0.0 0.0 0.0 0.0 ))
(( 0.0 0.0 0.0 0.0 0.0 )
( 0.0 0.0 0.0 0.0 0.0 ))
(( 0.0 0.0 0.0 0.0 0.0 )
( 0.0 0.0 0.0 0.0 0.0 )))
((( 0.0 0.0 0.0 0.0 0.0 )
( 0.0 0.0 0.0 0.0 0.0 ))
(( 0.0 0.0 0.0 0.0 0.0 )
( 0.0 0.0 0.0 0.0 0.0 ))
(( 0.0 0.0 0.0 0.0 0.0 )
( 0.0 0.0 0.0 0.0 0.0 ))
(( 0.0 0.0 0.0 0.0 0.0 )
( 0.0 0.0 0.0 0.0 0.0 ))
(( 0.0 0.0 0.0 0.0 0.0 )
( 0.0 0.0 0.0 0.0 0.0 )))
((( 0.0 0.0 0.0 0.0 0.0 )
( 0.0 0.0 0.0 0.0 0.0 ))
(( 0.0 0.0 0.0 0.0 0.0 )
( 0.0 0.0 0.0 0.0 0.0 ))
(( 0.0 0.0 0.0 0.0 0.0 )
( 0.0 0.0 0.0 0.0 0.0 ))
(( 0.0 0.0 0.0 0.0 0.0 )
( 0.0 0.0 0.0 0.0 0.0 ))
(( 0.0 0.0 0.0 0.0 0.0 )
( 0.0 0.0 0.0 0.0 0.0 ))))
(((( 0.2 0.2 0.2 0.2 0.2 )
( 0.2 0.2 0.2 0.2 0.2 ))
(( 0.2 0.2 0.2 0.2 0.2 )
( 0.2 0.2 0.2 0.2 0.2 ))
(( 0.2 0.2 0.2 0.2 0.2 )
( 0.2 0.2 0.2 0.2 0.2 ))
(( 0.2 0.2 0.2 0.2 0.2 )
( 0.2 0.2 0.2 0.2 0.2 ))
(( 0.2 0.2 0.2 0.2 0.2 )
( 0.2 0.2 0.2 0.2 0.2 )))
((( 0.2 0.2 0.2 0.2 0.2 )
( 0.2 0.2 0.2 0.2 0.2 ))
(( 0.2 0.2 0.2 0.2 0.2 )
( 0.2 0.2 0.2 0.2 0.2 ))
(( 0.2 0.2 0.2 0.2 0.2 )
( 0.2 0.2 0.2 0.2 0.2 ))
(( 0.2 0.2 0.2 0.2 0.2 )
( 0.2 0.2 0.2 0.2 0.2 ))
(( 0.2 0.2 0.2 0.2 0.2 )
( 0.16666667 0.16666667 0.16666667 0.16666667 0.33333334 )))
((( 0.0 0.0 0.0 0.0 0.0 )
( 0.0 0.0 0.0 0.0 0.0 ))
(( 0.0 0.0 0.0 0.0 0.0 )
( 0.0 0.0 0.0 0.0 0.0 ))
(( 0.0 0.0 0.0 0.0 0.0 )
( 0.0 0.0 0.0 0.0 0.0 ))
(( 0.0 0.0 0.0 0.0 0.0 )
( 0.0 0.0 0.0 0.0 0.0 ))
(( 0.0 0.0 0.0 0.0 0.0 )
( 0.0 0.0 0.0 0.0 0.0 )))
((( 0.0 0.0 0.0 0.0 0.0 )
( 0.0 0.0 0.0 0.0 0.0 ))
(( 0.0 0.0 0.0 0.0 0.0 )
( 0.0 0.0 0.0 0.0 0.0 ))
(( 0.0 0.0 0.0 0.0 0.0 )
( 0.0 0.0 0.0 0.0 0.0 ))
(( 0.0 0.0 0.0 0.0 0.0 )
( 0.0 0.0 0.0 0.0 0.0 ))
(( 0.0 0.0 0.0 0.0 0.0 )
( 0.0 0.0 0.0 0.0 0.0 )))
((( 0.0 0.0 0.0 0.0 0.0 )
( 0.0 0.0 0.0 0.0 0.0 ))
(( 0.0 0.0 0.0 0.0 0.0 )
( 0.0 0.0 0.0 0.0 0.0 ))
(( 0.0 0.0 0.0 0.0 0.0 )
( 0.0 0.0 0.0 0.0 0.0 ))
(( 0.0 0.0 0.0 0.0 0.0 )
( 0.0 0.0 0.0 0.0 0.0 ))
(( 0.0 0.0 0.0 0.0 0.0 )
( 0.0 0.0 0.0 0.0 0.0 )))))
((((( 0.0 0.0 0.0 0.0 0.0 )
( 0.0 0.0 0.0 0.0 0.0 ))
(( 0.0 0.0 0.0 0.0 0.0 )
( 0.0 0.0 0.0 0.0 0.0 ))
(( 0.0 0.0 0.0 0.0 0.0 )
( 0.0 0.0 0.0 0.0 0.0 ))
(( 0.0 0.0 0.0 0.0 0.0 )
( 0.0 0.0 0.0 0.0 0.0 ))
(( 0.0 0.0 0.0 0.0 0.0 )
( 0.0 0.0 0.0 0.0 0.0 )))
((( 0.0 0.0 0.0 0.0 0.0 )
( 0.0 0.0 0.0 0.0 0.0 ))
(( 0.0 0.0 0.0 0.0 0.0 )
( 0.0 0.0 0.0 0.0 0.0 ))
(( 0.0 0.0 0.0 0.0 0.0 )
( 0.0 0.0 0.0 0.0 0.0 ))
(( 0.0 0.0 0.0 0.0 0.0 )
( 0.0 0.0 0.0 0.0 0.0 ))
(( 0.0 0.0 0.0 0.0 0.0 )
( 0.0 0.0 0.0 0.0 0.0 )))
((( 0.0 0.0 0.0 0.0 0.0 )
( 0.0 0.0 0.0 0.0 0.0 ))
(( 0.0 0.0 0.0 0.0 0.0 )
( 0.0 0.0 0.0 0.0 0.0 ))
(( 0.0 0.0 0.0 0.0 0.0 )
( 0.0 0.0 0.0 0.0 0.0 ))
(( 0.0 0.0 0.0 0.0 0.0 )
( 0.0 0.0 0.0 0.0 0.0 ))
(( 0.0 0.0 0.0 0.0 0.0 )
( 0.0 0.0 0.0 0.0 0.0 )))
((( 0.0 0.0 0.0 0.0 0.0 )
( 0.0 0.0 0.0 0.0 0.0 ))
(( 0.0 0.0 0.0 0.0 0.0 )
( 0.0 0.0 0.0 0.0 0.0 ))
(( 0.0 0.0 0.0 0.0 0.0 )
( 0.0 0.0 0.0 0.0 0.0 ))
(( 0.0 0.0 0.0 0.0 0.0 )
( 0.0 0.0 0.0 0.0 0.0 ))
(( 0.0 0.0 0.0 0.0 0.0 )
( 0.0 0.0 0.0 0.0 0.0 )))
((( 0.0 0.0 0.0 0.0 0.0 )
( 0.0 0.0 0.0 0.0 0.0 ))
(( 0.0 0.0 0.0 0.0 0.0 )
( 0.0 0.0 0.0 0.0 0.0 ))
(( 0.0 0.0 0.0 0.0 0.0 )
( 0.0 0.0 0.0 0.0 0.0 ))
(( 0.0 0.0 0.0 0.0 0.0 )
( 0.0 0.0 0.0 0.0 0.0 ))
(( 0.0 0.0 0.0 0.0 0.0 )
( 0.0 0.0 0.0 0.0 0.0 ))))
(((( 0.0 0.0 0.0 0.0 0.0 )
( 0.0 0.0 0.0 0.0 0.0 ))
(( 0.0 0.0 0.0 0.0 0.0 )
( 0.0 0.0 0.0 0.0 0.0 ))
(( 0.0 0.0 0.0 0.0 0.0 )
( 0.0 0.0 0.0 0.0 0.0 ))
(( 0.0 0.0 0.0 0.0 0.0 )
( 0.0 0.0 0.0 0.0 0.0 ))
(( 0.0 0.0 0.0 0.0 0.0 )
( 0.0 0.0 0.0 0.0 0.0 )))
((( 0.0 0.0 0.0 0.0 0.0 )
( 0.0 0.0 0.0 0.0 0.0 ))
(( 0.0 0.0 0.0 0.0 0.0 )
( 0.0 0.0 0.0 0.0 0.0 ))
(( 0.0 0.0 0.0 0.0 0.0 )
( 0.0 0.0 0.0 0.0 0.0 ))
(( 0.0 0.0 0.0 0.0 0.0 )
( 0.0 0.0 0.0 0.0 0.0 ))
(( 0.0 0.0 0.0 0.0 0.0 )
( 0.0 0.0 0.0 0.0 0.0 )))
((( 0.0 0.0 0.0 0.0 0.0 )
( 0.0 0.0 0.0 0.0 0.0 ))
(( 0.0 0.0 0.0 0.0 0.0 )
( 0.0 0.0 0.0 0.0 0.0 ))
(( 0.0 0.0 0.0 0.0 0.0 )
( 0.0 0.0 0.0 0.0 0.0 ))
(( 0.0 0.0 0.0 0.0 0.0 )
( 0.0 0.0 0.0 0.0 0.0 ))
(( 0.0 0.0 0.0 0.0 0.0 )
( 0.0 0.0 0.0 0.0 0.0 )))
((( 0.0 0.0 0.0 0.0 0.0 )
( 0.0 0.0 0.0 0.0 0.0 ))
(( 0.0 0.0 0.0 0.0 0.0 )
( 0.0 0.0 0.0 0.0 0.0 ))
(( 0.0 0.0 0.0 0.0 0.0 )
( 0.0 0.0 0.0 0.0 0.0 ))
(( 0.0 0.0 0.0 0.0 0.0 )
( 0.0 0.0 0.0 0.0 0.0 ))
(( 0.0 0.0 0.0 0.0 0.0 )
( 0.0 0.0 0.0 0.0 0.0 )))
((( 0.0 0.0 0.0 0.0 0.0 )
( 0.0 0.0 0.0 0.0 0.0 ))
(( 0.0 0.0 0.0 0.0 0.0 )
( 0.0 0.0 0.0 0.0 0.0 ))
(( 0.0 0.0 0.0 0.0 0.0 )
( 0.0 0.0 0.0 0.0 0.0 ))
(( 0.0 0.0 0.0 0.0 0.0 )
( 0.0 0.0 0.0 0.0 0.0 ))
(( 0.0 0.0 0.0 0.0 0.0 )
( 0.0 0.0 0.0 0.0 0.0 ))))
(((( 0.0 0.0 0.0 0.0 0.0 )
( 0.0 0.0 0.0 0.0 0.0 ))
(( 0.0 0.0 0.0 0.0 0.0 )
( 0.0 0.0 0.0 0.0 0.0 ))
(( 0.0 0.0 0.0 0.0 0.0 )
( 0.0 0.0 0.0 0.0 0.0 ))
(( 0.0 0.0 0.0 0.0 0.0 )
( 0.0 0.0 0.0 0.0 0.0 ))
(( 0.0 0.0 0.0 0.0 0.0 )
( 0.0 0.0 0.0 0.0 0.0 )))
((( 0.0 0.0 0.0 0.0 0.0 )
( 0.0 0.0 0.0 0.0 0.0 ))
(( 0.0 0.0 0.0 0.0 0.0 )
( 0.0 0.0 0.0 0.0 0.0 ))
(( 0.0 0.0 0.0 0.0 0.0 )
( 0.0 0.0 0.0 0.0 0.0 ))
(( 0.0 0.0 0.0 0.0 0.0 )
( 0.0 0.0 0.0 0.0 0.0 ))
(( 0.0 0.0 0.0 0.0 0.0 )
( 0.0 0.0 0.0 0.0 0.0 )))
((( 0.0 0.0 0.0 0.0 0.0 )
( 0.0 0.0 0.0 0.0 0.0 ))
(( 0.0 0.0 0.0 0.0 0.0 )
( 0.0 0.0 0.0 0.0 0.0 ))
(( 0.0 0.0 0.0 0.0 0.0 )
( 0.0 0.0 0.0 0.0 0.0 ))
(( 0.0 0.0 0.0 0.0 0.0 )
( 0.0 0.0 0.0 0.0 0.0 ))
(( 0.0 0.0 0.0 0.0 0.0 )
( 0.0 0.0 0.0 0.0 0.0 )))
((( 0.0 0.0 0.0 0.0 0.0 )
( 0.0 0.0 0.0 0.0 0.0 ))
(( 0.0 0.0 0.0 0.0 0.0 )
( 0.0 0.0 0.0 0.0 0.0 ))
(( 0.0 0.0 0.0 0.0 0.0 )
( 0.0 0.0 0.0 0.0 0.0 ))
(( 0.0 0.0 0.0 0.0 0.0 )
( 0.0 0.0 0.0 0.0 0.0 ))
(( 0.0 0.0 0.0 0.0 0.0 )
( 0.0 0.0 0.0 0.0 0.0 )))
((( 0.0 0.0 0.0 0.0 0.0 )
( 0.0 0.0 0.0 0.0 0.0 ))
(( 0.0 0.0 0.0 0.0 0.0 )
( 0.0 0.0 0.0 0.0 0.0 ))
(( 0.0 0.0 0.0 0.0 0.0 )
( 0.0 0.0 0.0 0.0 0.0 ))
(( 0.0 0.0 0.0 0.0 0.0 )
( 0.0 0.0 0.0 0.0 0.0 ))
(( 0.0 0.0 0.0 0.0 0.0 )
( 0.0 0.0 0.0 0.0 0.0 ))))
(((( 0.0 0.0 0.0 0.0 0.0 )
( 0.0 0.0 0.0 0.0 0.0 ))
(( 0.0 0.0 0.0 0.0 0.0 )
( 0.0 0.0 0.0 0.0 0.0 ))
(( 0.0 0.0 0.0 0.0 0.0 )
( 0.0 0.0 0.0 0.0 0.0 ))
(( 0.0 0.0 0.0 0.0 0.0 )
( 0.0 0.0 0.0 0.0 0.0 ))
(( 0.0 0.0 0.0 0.0 0.0 )
( 0.0 0.0 0.0 0.0 0.0 )))
((( 0.0 0.0 0.0 0.0 0.0 )
( 0.0 0.0 0.0 0.0 0.0 ))
(( 0.0 0.0 0.0 0.0 0.0 )
( 0.0 0.0 0.0 0.0 0.0 ))
(( 0.0 0.0 0.0 0.0 0.0 )
( 0.0 0.0 0.0 0.0 0.0 ))
(( 0.0 0.0 0.0 0.0 0.0 )
( 0.0 0.0 0.0 0.0 0.0 ))
(( 0.0 0.0 0.0 0.0 0.0 )
( 0.0 0.0 0.0 0.0 0.0 )))
((( 0.0 0.0 0.0 0.0 0.0 )
( 0.0 0.0 0.0 0.0 0.0 ))
(( 0.0 0.0 0.0 0.0 0.0 )
( 0.0 0.0 0.0 0.0 0.0 ))
(( 0.0 0.0 0.0 0.0 0.0 )
( 0.0 0.0 0.0 0.0 0.0 ))
(( 0.0 0.0 0.0 0.0 0.0 )
( 0.0 0.0 0.0 0.0 0.0 ))
(( 0.0 0.0 0.0 0.0 0.0 )
( 0.0 0.0 0.0 0.0 0.0 )))
((( 0.0 0.0 0.0 0.0 0.0 )
( 0.0 0.0 0.0 0.0 0.0 ))
(( 0.0 0.0 0.0 0.0 0.0 )
( 0.0 0.0 0.0 0.0 0.0 ))
(( 0.0 0.0 0.0 0.0 0.0 )
( 0.0 0.0 0.0 0.0 0.0 ))
(( 0.0 0.0 0.0 0.0 0.0 )
( 0.0 0.0 0.0 0.0 0.0 ))
(( 0.0 0.0 0.0 0.0 0.0 )
( 0.0 0.0 0.0 0.0 0.0 )))
((( 0.0 0.0 0.0 0.0 0.0 )
( 0.0 0.0 0.0 0.0 0.0 ))
(( 0.0 0.0 0.0 0.0 0.0 )
( 0.0 0.0 0.0 0.0 0.0 ))
(( 0.0 0.0 0.0 0.0 0.0 )
( 0.0 0.0 0.0 0.0 0.0 ))
(( 0.0 0.0 0.0 0.0 0.0 )
( 0.0 0.0 0.0 0.0 0.0 ))
(( 0.0 0.0 0.0 0.0 0.0 )
( 0.0 0.0 0.0 0.0 0.0 ))))
(((( 0.0 0.0 0.0 0.0 0.0 )
( 0.0 0.0 0.0 0.0 0.0 ))
(( 0.0 0.0 0.0 0.0 0.0 )
( 0.0 0.0 0.0 0.0 0.0 ))
(( 0.0 0.0 0.0 0.0 0.0 )
( 0.0 0.0 0.0 0.0 0.0 ))
(( 0.0 0.0 0.0 0.0 0.0 )
( 0.0 0.0 0.0 0.0 0.0 ))
(( 0.0 0.0 0.0 0.0 0.0 )
( 0.0 0.0 0.0 0.0 0.0 )))
((( 0.0 0.0 0.0 0.0 0.0 )
( 0.0 0.0 0.0 0.0 0.0 ))
(( 0.0 0.0 0.0 0.0 0.0 )
( 0.0 0.0 0.0 0.0 0.0 ))
(( 0.0 0.0 0.0 0.0 0.0 )
( 0.0 0.0 0.0 0.0 0.0 ))
(( 0.0 0.0 0.0 0.0 0.0 )
( 0.0 0.0 0.0 0.0 0.0 ))
(( 0.0 0.0 0.0 0.0 0.0 )
( 0.0 0.0 0.0 0.0 0.0 )))
((( 0.0 0.0 0.0 0.0 0.0 )
( 0.0 0.0 0.0 0.0 0.0 ))
(( 0.0 0.0 0.0 0.0 0.0 )
( 0.0 0.0 0.0 0.0 0.0 ))
(( 0.0 0.0 0.0 0.0 0.0 )
( 0.0 0.0 0.0 0.0 0.0 ))
(( 0.0 0.0 0.0 0.0 0.0 )
( 0.0 0.0 0.0 0.0 0.0 ))
(( 0.0 0.0 0.0 0.0 0.0 )
( 0.0 0.0 0.0 0.0 0.0 )))
((( 0.0 0.0 0.0 0.0 0.0 )
( 0.0 0.0 0.0 0.0 0.0 ))
(( 0.0 0.0 0.0 0.0 0.0 )
( 0.0 0.0 0.0 0.0 0.0 ))
(( 0.0 0.0 0.0 0.0 0.0 )
( 0.0 0.0 0.0 0.0 0.0 ))
(( 0.0 0.0 0.0 0.0 0.0 )
( 0.0 0.0 0.0 0.0 0.0 ))
(( 0.0 0.0 0.0 0.0 0.0 )
( 0.0 0.0 0.0 0.0 0.0 )))
((( 0.0 0.0 0.0 0.0 0.0 )
( 0.0 0.0 0.0 0.0 0.0 ))
(( 0.0 0.0 0.0 0.0 0.0 )
( 0.0 0.0 0.0 0.0 0.0 ))
(( 0.0 0.0 0.0 0.0 0.0 )
( 0.0 0.0 0.0 0.0 0.0 ))
(( 0.0 0.0 0.0 0.0 0.0 )
( 0.0 0.0 0.0 0.0 0.0 ))
(( 0.0 0.0 0.0 0.0 0.0 )
( 0.0 0.0 0.0 0.0 0.0 )))))
((((( 0.0 0.0 0.0 0.0 0.0 )
( 0.0 0.0 0.0 0.0 0.0 ))
(( 0.0 0.0 0.0 0.0 0.0 )
( 0.0 0.0 0.0 0.0 0.0 ))
(( 0.0 0.0 0.0 0.0 0.0 )
( 0.0 0.0 0.0 0.0 0.0 ))
(( 0.0 0.0 0.0 0.0 0.0 )
( 0.0 0.0 0.0 0.0 0.0 ))
(( 0.0 0.0 0.0 0.0 0.0 )
( 0.0 0.0 0.0 0.0 0.0 )))
((( 0.0 0.0 0.0 0.0 0.0 )
( 0.0 0.0 0.0 0.0 0.0 ))
(( 0.0 0.0 0.0 0.0 0.0 )
( 0.0 0.0 0.0 0.0 0.0 ))
(( 0.0 0.0 0.0 0.0 0.0 )
( 0.0 0.0 0.0 0.0 0.0 ))
(( 0.0 0.0 0.0 0.0 0.0 )
( 0.0 0.0 0.0 0.0 0.0 ))
(( 0.0 0.0 0.0 0.0 0.0 )
( 0.0 0.0 0.0 0.0 0.0 )))
((( 0.0 0.0 0.0 0.0 0.0 )
( 0.0 0.0 0.0 0.0 0.0 ))
(( 0.0 0.0 0.0 0.0 0.0 )
( 0.0 0.0 0.0 0.0 0.0 ))
(( 0.0 0.0 0.0 0.0 0.0 )
( 0.0 0.0 0.0 0.0 0.0 ))
(( 0.0 0.0 0.0 0.0 0.0 )
( 0.0 0.0 0.0 0.0 0.0 ))
(( 0.0 0.0 0.0 0.0 0.0 )
( 0.0 0.0 0.0 0.0 0.0 )))
((( 0.0 0.0 0.0 0.0 0.0 )
( 0.0 0.0 0.0 0.0 0.0 ))
(( 0.0 0.0 0.0 0.0 0.0 )
( 0.0 0.0 0.0 0.0 0.0 ))
(( 0.0 0.0 0.0 0.0 0.0 )
( 0.0 0.0 0.0 0.0 0.0 ))
(( 0.0 0.0 0.0 0.0 0.0 )
( 0.0 0.0 0.0 0.0 0.0 ))
(( 0.0 0.0 0.0 0.0 0.0 )
( 0.0 0.0 0.0 0.0 0.0 )))
((( 0.0 0.0 0.0 0.0 0.0 )
( 0.0 0.0 0.0 0.0 0.0 ))
(( 0.0 0.0 0.0 0.0 0.0 )
( 0.0 0.0 0.0 0.0 0.0 ))
(( 0.0 0.0 0.0 0.0 0.0 )
( 0.0 0.0 0.0 0.0 0.0 ))
(( 0.0 0.0 0.0 0.0 0.0 )
( 0.0 0.0 0.0 0.0 0.0 ))
(( 0.0 0.0 0.0 0.0 0.0 )
( 0.0 0.0 0.0 0.0 0.0 ))))
(((( 0.0 0.0 0.0 0.0 0.0 )
( 0.0 0.0 0.0 0.0 0.0 ))
(( 0.0 0.0 0.0 0.0 0.0 )
( 0.0 0.0 0.0 0.0 0.0 ))
(( 0.0 0.0 0.0 0.0 0.0 )
( 0.0 0.0 0.0 0.0 0.0 ))
(( 0.0 0.0 0.0 0.0 0.0 )
( 0.0 0.0 0.0 0.0 0.0 ))
(( 0.0 0.0 0.0 0.0 0.0 )
( 0.0 0.0 0.0 0.0 0.0 )))
((( 0.0 0.0 0.0 0.0 0.0 )
( 0.0 0.0 0.0 0.0 0.0 ))
(( 0.0 0.0 0.0 0.0 0.0 )
( 0.0 0.0 0.0 0.0 0.0 ))
(( 0.0 0.0 0.0 0.0 0.0 )
( 0.0 0.0 0.0 0.0 0.0 ))
(( 0.0 0.0 0.0 0.0 0.0 )
( 0.0 0.0 0.0 0.0 0.0 ))
(( 0.0 0.0 0.0 0.0 0.0 )
( 0.0 0.0 0.0 0.0 0.0 )))
((( 0.0 0.0 0.0 0.0 0.0 )
( 0.0 0.0 0.0 0.0 0.0 ))
(( 0.0 0.0 0.0 0.0 0.0 )
( 0.0 0.0 0.0 0.0 0.0 ))
(( 0.0 0.0 0.0 0.0 0.0 )
( 0.0 0.0 0.0 0.0 0.0 ))
(( 0.0 0.0 0.0 0.0 0.0 )
( 0.0 0.0 0.0 0.0 0.0 ))
(( 0.0 0.0 0.0 0.0 0.0 )
( 0.0 0.0 0.0 0.0 0.0 )))
((( 0.0 0.0 0.0 0.0 0.0 )
( 0.0 0.0 0.0 0.0 0.0 ))
(( 0.0 0.0 0.0 0.0 0.0 )
( 0.0 0.0 0.0 0.0 0.0 ))
(( 0.0 0.0 0.0 0.0 0.0 )
( 0.0 0.0 0.0 0.0 0.0 ))
(( 0.0 0.0 0.0 0.0 0.0 )
( 0.0 0.0 0.0 0.0 0.0 ))
(( 0.0 0.0 0.0 0.0 0.0 )
( 0.0 0.0 0.0 0.0 0.0 )))
((( 0.0 0.0 0.0 0.0 0.0 )
( 0.0 0.0 0.0 0.0 0.0 ))
(( 0.0 0.0 0.0 0.0 0.0 )
( 0.0 0.0 0.0 0.0 0.0 ))
(( 0.0 0.0 0.0 0.0 0.0 )
( 0.0 0.0 0.0 0.0 0.0 ))
(( 0.0 0.0 0.0 0.0 0.0 )
( 0.0 0.0 0.0 0.0 0.0 ))
(( 0.0 0.0 0.0 0.0 0.0 )
( 0.0 0.0 0.0 0.0 0.0 ))))
(((( 0.0 0.0 0.0 0.0 0.0 )
( 0.0 0.0 0.0 0.0 0.0 ))
(( 0.0 0.0 0.0 0.0 0.0 )
( 0.0 0.0 0.0 0.0 0.0 ))
(( 0.0 0.0 0.0 0.0 0.0 )
( 0.0 0.0 0.0 0.0 0.0 ))
(( 0.0 0.0 0.0 0.0 0.0 )
( 0.0 0.0 0.0 0.0 0.0 ))
(( 0.0 0.0 0.0 0.0 0.0 )
( 0.0 0.0 0.0 0.0 0.0 )))
((( 0.0 0.0 0.0 0.0 0.0 )
( 0.0 0.0 0.0 0.0 0.0 ))
(( 0.0 0.0 0.0 0.0 0.0 )
( 0.0 0.0 0.0 0.0 0.0 ))
(( 0.0 0.0 0.0 0.0 0.0 )
( 0.0 0.0 0.0 0.0 0.0 ))
(( 0.0 0.0 0.0 0.0 0.0 )
( 0.0 0.0 0.0 0.0 0.0 ))
(( 0.0 0.0 0.0 0.0 0.0 )
( 0.0 0.0 0.0 0.0 0.0 )))
((( 0.0 0.0 0.0 0.0 0.0 )
( 0.0 0.0 0.0 0.0 0.0 ))
(( 0.0 0.0 0.0 0.0 0.0 )
( 0.0 0.0 0.0 0.0 0.0 ))
(( 0.0 0.0 0.0 0.0 0.0 )
( 0.0 0.0 0.0 0.0 0.0 ))
(( 0.0 0.0 0.0 0.0 0.0 )
( 0.0 0.0 0.0 0.0 0.0 ))
(( 0.0 0.0 0.0 0.0 0.0 )
( 0.0 0.0 0.0 0.0 0.0 )))
((( 0.0 0.0 0.0 0.0 0.0 )
( 0.0 0.0 0.0 0.0 0.0 ))
(( 0.0 0.0 0.0 0.0 0.0 )
( 0.0 0.0 0.0 0.0 0.0 ))
(( 0.0 0.0 0.0 0.0 0.0 )
( 0.0 0.0 0.0 0.0 0.0 ))
(( 0.0 0.0 0.0 0.0 0.0 )
( 0.0 0.0 0.0 0.0 0.0 ))
(( 0.0 0.0 0.0 0.0 0.0 )
( 0.0 0.0 0.0 0.0 0.0 )))
((( 0.0 0.0 0.0 0.0 0.0 )
( 0.0 0.0 0.0 0.0 0.0 ))
(( 0.0 0.0 0.0 0.0 0.0 )
( 0.0 0.0 0.0 0.0 0.0 ))
(( 0.0 0.0 0.0 0.0 0.0 )
( 0.0 0.0 0.0 0.0 0.0 ))
(( 0.0 0.0 0.0 0.0 0.0 )
( 0.0 0.0 0.0 0.0 0.0 ))
(( 0.0 0.0 0.0 0.0 0.0 )
( 0.0 0.0 0.0 0.0 0.0 ))))
(((( 0.0 0.0 0.0 0.0 0.0 )
( 0.0 0.0 0.0 0.0 0.0 ))
(( 0.0 0.0 0.0 0.0 0.0 )
( 0.0 0.0 0.0 0.0 0.0 ))
(( 0.0 0.0 0.0 0.0 0.0 )
( 0.0 0.0 0.0 0.0 0.0 ))
(( 0.0 0.0 0.0 0.0 0.0 )
( 0.0 0.0 0.0 0.0 0.0 ))
(( 0.0 0.0 0.0 0.0 0.0 )
( 0.0 0.0 0.0 0.0 0.0 )))
((( 0.0 0.0 0.0 0.0 0.0 )
( 0.0 0.0 0.0 0.0 0.0 ))
(( 0.0 0.0 0.0 0.0 0.0 )
( 0.0 0.0 0.0 0.0 0.0 ))
(( 0.0 0.0 0.0 0.0 0.0 )
( 0.0 0.0 0.0 0.0 0.0 ))
(( 0.0 0.0 0.0 0.0 0.0 )
( 0.0 0.0 0.0 0.0 0.0 ))
(( 0.0 0.0 0.0 0.0 0.0 )
( 0.0 0.0 0.0 0.0 0.0 )))
((( 0.0 0.0 0.0 0.0 0.0 )
( 0.0 0.0 0.0 0.0 0.0 ))
(( 0.0 0.0 0.0 0.0 0.0 )
( 0.0 0.0 0.0 0.0 0.0 ))
(( 0.0 0.0 0.0 0.0 0.0 )
( 0.0 0.0 0.0 0.0 0.0 ))
(( 0.0 0.0 0.0 0.0 0.0 )
( 0.0 0.0 0.0 0.0 0.0 ))
(( 0.0 0.0 0.0 0.0 0.0 )
( 0.0 0.0 0.0 0.0 0.0 )))
((( 0.0 0.0 0.0 0.0 0.0 )
( 0.0 0.0 0.0 0.0 0.0 ))
(( 0.0 0.0 0.0 0.0 0.0 )
( 0.0 0.0 0.0 0.0 0.0 ))
(( 0.0 0.0 0.0 0.0 0.0 )
( 0.0 0.0 0.0 0.0 0.0 ))
(( 0.0 0.0 0.0 0.0 0.0 )
( 0.0 0.0 0.0 0.0 0.0 ))
(( 0.0 0.0 0.0 0.0 0.0 )
( 0.0 0.0 0.0 0.0 0.0 )))
((( 0.0 0.0 0.0 0.0 0.0 )
( 0.0 0.0 0.0 0.0 0.0 ))
(( 0.0 0.0 0.0 0.0 0.0 )
( 0.0 0.0 0.0 0.0 0.0 ))
(( 0.0 0.0 0.0 0.0 0.0 )
( 0.0 0.0 0.0 0.0 0.0 ))
(( 0.0 0.0 0.0 0.0 0.0 )
( 0.0 0.0 0.0 0.0 0.0 ))
(( 0.0 0.0 0.0 0.0 0.0 )
( 0.0 0.0 0.0 0.0 0.0 ))))
(((( 0.0 0.0 0.0 0.0 0.0 )
( 0.0 0.0 0.0 0.0 0.0 ))
(( 0.0 0.0 0.0 0.0 0.0 )
( 0.0 0.0 0.0 0.0 0.0 ))
(( 0.0 0.0 0.0 0.0 0.0 )
( 0.0 0.0 0.0 0.0 0.0 ))
(( 0.0 0.0 0.0 0.0 0.0 )
( 0.0 0.0 0.0 0.0 0.0 ))
(( 0.0 0.0 0.0 0.0 0.0 )
( 0.0 0.0 0.0 0.0 0.0 )))
((( 0.0 0.0 0.0 0.0 0.0 )
( 0.0 0.0 0.0 0.0 0.0 ))
(( 0.0 0.0 0.0 0.0 0.0 )
( 0.0 0.0 0.0 0.0 0.0 ))
(( 0.0 0.0 0.0 0.0 0.0 )
( 0.0 0.0 0.0 0.0 0.0 ))
(( 0.0 0.0 0.0 0.0 0.0 )
( 0.0 0.0 0.0 0.0 0.0 ))
(( 0.0 0.0 0.0 0.0 0.0 )
( 0.0 0.0 0.0 0.0 0.0 )))
((( 0.0 0.0 0.0 0.0 0.0 )
( 0.0 0.0 0.0 0.0 0.0 ))
(( 0.0 0.0 0.0 0.0 0.0 )
( 0.0 0.0 0.0 0.0 0.0 ))
(( 0.0 0.0 0.0 0.0 0.0 )
( 0.0 0.0 0.0 0.0 0.0 ))
(( 0.0 0.0 0.0 0.0 0.0 )
( 0.0 0.0 0.0 0.0 0.0 ))
(( 0.0 0.0 0.0 0.0 0.0 )
( 0.0 0.0 0.0 0.0 0.0 )))
((( 0.0 0.0 0.0 0.0 0.0 )
( 0.0 0.0 0.0 0.0 0.0 ))
(( 0.0 0.0 0.0 0.0 0.0 )
( 0.0 0.0 0.0 0.0 0.0 ))
(( 0.0 0.0 0.0 0.0 0.0 )
( 0.0 0.0 0.0 0.0 0.0 ))
(( 0.0 0.0 0.0 0.0 0.0 )
( 0.0 0.0 0.0 0.0 0.0 ))
(( 0.0 0.0 0.0 0.0 0.0 )
( 0.0 0.0 0.0 0.0 0.0 )))
((( 0.0 0.0 0.0 0.0 0.0 )
( 0.0 0.0 0.0 0.0 0.0 ))
(( 0.0 0.0 0.0 0.0 0.0 )
( 0.0 0.0 0.0 0.0 0.0 ))
(( 0.0 0.0 0.0 0.0 0.0 )
( 0.0 0.0 0.0 0.0 0.0 ))
(( 0.0 0.0 0.0 0.0 0.0 )
( 0.0 0.0 0.0 0.0 0.0 ))
(( 0.0 0.0 0.0 0.0 0.0 )
( 0.0 0.0 0.0 0.0 0.0 )))))
((((( 0.0 0.0 0.0 0.0 0.0 )
( 0.0 0.0 0.0 0.0 0.0 ))
(( 0.0 0.0 0.0 0.0 0.0 )
( 0.0 0.0 0.0 0.0 0.0 ))
(( 0.0 0.0 0.0 0.0 0.0 )
( 0.0 0.0 0.0 0.0 0.0 ))
(( 0.0 0.0 0.0 0.0 0.0 )
( 0.0 0.0 0.0 0.0 0.0 ))
(( 0.0 0.0 0.0 0.0 0.0 )
( 0.0 0.0 0.0 0.0 0.0 )))
((( 0.0 0.0 0.0 0.0 0.0 )
( 0.0 0.0 0.0 0.0 0.0 ))
(( 0.0 0.0 0.0 0.0 0.0 )
( 0.0 0.0 0.0 0.0 0.0 ))
(( 0.0 0.0 0.0 0.0 0.0 )
( 0.0 0.0 0.0 0.0 0.0 ))
(( 0.0 0.0 0.0 0.0 0.0 )
( 0.0 0.0 0.0 0.0 0.0 ))
(( 0.0 0.0 0.0 0.0 0.0 )
( 0.0 0.0 0.0 0.0 0.0 )))
((( 0.0 0.0 0.0 0.0 0.0 )
( 0.0 0.0 0.0 0.0 0.0 ))
(( 0.0 0.0 0.0 0.0 0.0 )
( 0.0 0.0 0.0 0.0 0.0 ))
(( 0.0 0.0 0.0 0.0 0.0 )
( 0.0 0.0 0.0 0.0 0.0 ))
(( 0.0 0.0 0.0 0.0 0.0 )
( 0.0 0.0 0.0 0.0 0.0 ))
(( 0.0 0.0 0.0 0.0 0.0 )
( 0.0 0.0 0.0 0.0 0.0 )))
((( 0.0 0.0 0.0 0.0 0.0 )
( 0.0 0.0 0.0 0.0 0.0 ))
(( 0.0 0.0 0.0 0.0 0.0 )
( 0.0 0.0 0.0 0.0 0.0 ))
(( 0.0 0.0 0.0 0.0 0.0 )
( 0.0 0.0 0.0 0.0 0.0 ))
(( 0.0 0.0 0.0 0.0 0.0 )
( 0.0 0.0 0.0 0.0 0.0 ))
(( 0.0 0.0 0.0 0.0 0.0 )
( 0.0 0.0 0.0 0.0 0.0 )))
((( 0.0 0.0 0.0 0.0 0.0 )
( 0.0 0.0 0.0 0.0 0.0 ))
(( 0.0 0.0 0.0 0.0 0.0 )
( 0.0 0.0 0.0 0.0 0.0 ))
(( 0.0 0.0 0.0 0.0 0.0 )
( 0.0 0.0 0.0 0.0 0.0 ))
(( 0.0 0.0 0.0 0.0 0.0 )
( 0.0 0.0 0.0 0.0 0.0 ))
(( 0.0 0.0 0.0 0.0 0.0 )
( 0.0 0.0 0.0 0.0 0.0 ))))
(((( 0.0 0.0 0.0 0.0 0.0 )
( 0.0 0.0 0.0 0.0 0.0 ))
(( 0.0 0.0 0.0 0.0 0.0 )
( 0.0 0.0 0.0 0.0 0.0 ))
(( 0.0 0.0 0.0 0.0 0.0 )
( 0.0 0.0 0.0 0.0 0.0 ))
(( 0.0 0.0 0.0 0.0 0.0 )
( 0.0 0.0 0.0 0.0 0.0 ))
(( 0.0 0.0 0.0 0.0 0.0 )
( 0.0 0.0 0.0 0.0 0.0 )))
((( 0.0 0.0 0.0 0.0 0.0 )
( 0.0 0.0 0.0 0.0 0.0 ))
(( 0.0 0.0 0.0 0.0 0.0 )
( 0.0 0.0 0.0 0.0 0.0 ))
(( 0.0 0.0 0.0 0.0 0.0 )
( 0.0 0.0 0.0 0.0 0.0 ))
(( 0.0 0.0 0.0 0.0 0.0 )
( 0.0 0.0 0.0 0.0 0.0 ))
(( 0.0 0.0 0.0 0.0 0.0 )
( 0.0 0.0 0.0 0.0 0.0 )))
((( 0.0 0.0 0.0 0.0 0.0 )
( 0.0 0.0 0.0 0.0 0.0 ))
(( 0.0 0.0 0.0 0.0 0.0 )
( 0.0 0.0 0.0 0.0 0.0 ))
(( 0.0 0.0 0.0 0.0 0.0 )
( 0.0 0.0 0.0 0.0 0.0 ))
(( 0.0 0.0 0.0 0.0 0.0 )
( 0.0 0.0 0.0 0.0 0.0 ))
(( 0.0 0.0 0.0 0.0 0.0 )
( 0.0 0.0 0.0 0.0 0.0 )))
((( 0.0 0.0 0.0 0.0 0.0 )
( 0.0 0.0 0.0 0.0 0.0 ))
(( 0.0 0.0 0.0 0.0 0.0 )
( 0.0 0.0 0.0 0.0 0.0 ))
(( 0.0 0.0 0.0 0.0 0.0 )
( 0.0 0.0 0.0 0.0 0.0 ))
(( 0.0 0.0 0.0 0.0 0.0 )
( 0.0 0.0 0.0 0.0 0.0 ))
(( 0.0 0.0 0.0 0.0 0.0 )
( 0.0 0.0 0.0 0.0 0.0 )))
((( 0.0 0.0 0.0 0.0 0.0 )
( 0.0 0.0 0.0 0.0 0.0 ))
(( 0.0 0.0 0.0 0.0 0.0 )
( 0.0 0.0 0.0 0.0 0.0 ))
(( 0.0 0.0 0.0 0.0 0.0 )
( 0.0 0.0 0.0 0.0 0.0 ))
(( 0.0 0.0 0.0 0.0 0.0 )
( 0.0 0.0 0.0 0.0 0.0 ))
(( 0.0 0.0 0.0 0.0 0.0 )
( 0.0 0.0 0.0 0.0 0.0 ))))
(((( 0.0 0.0 0.0 0.0 0.0 )
( 0.0 0.0 0.0 0.0 0.0 ))
(( 0.0 0.0 0.0 0.0 0.0 )
( 0.0 0.0 0.0 0.0 0.0 ))
(( 0.0 0.0 0.0 0.0 0.0 )
( 0.0 0.0 0.0 0.0 0.0 ))
(( 0.0 0.0 0.0 0.0 0.0 )
( 0.0 0.0 0.0 0.0 0.0 ))
(( 0.0 0.0 0.0 0.0 0.0 )
( 0.0 0.0 0.0 0.0 0.0 )))
((( 0.0 0.0 0.0 0.0 0.0 )
( 0.0 0.0 0.0 0.0 0.0 ))
(( 0.0 0.0 0.0 0.0 0.0 )
( 0.0 0.0 0.0 0.0 0.0 ))
(( 0.0 0.0 0.0 0.0 0.0 )
( 0.0 0.0 0.0 0.0 0.0 ))
(( 0.0 0.0 0.0 0.0 0.0 )
( 0.0 0.0 0.0 0.0 0.0 ))
(( 0.0 0.0 0.0 0.0 0.0 )
( 0.0 0.0 0.0 0.0 0.0 )))
((( 0.0 0.0 0.0 0.0 0.0 )
( 0.0 0.0 0.0 0.0 0.0 ))
(( 0.0 0.0 0.0 0.0 0.0 )
( 0.0 0.0 0.0 0.0 0.0 ))
(( 0.0 0.0 0.0 0.0 0.0 )
( 0.0 0.0 0.0 0.0 0.0 ))
(( 0.0 0.0 0.0 0.0 0.0 )
( 0.0 0.0 0.0 0.0 0.0 ))
(( 0.0 0.0 0.0 0.0 0.0 )
( 0.0 0.0 0.0 0.0 0.0 )))
((( 0.0 0.0 0.0 0.0 0.0 )
( 0.0 0.0 0.0 0.0 0.0 ))
(( 0.0 0.0 0.0 0.0 0.0 )
( 0.0 0.0 0.0 0.0 0.0 ))
(( 0.0 0.0 0.0 0.0 0.0 )
( 0.0 0.0 0.0 0.0 0.0 ))
(( 0.0 0.0 0.0 0.0 0.0 )
( 0.0 0.0 0.0 0.0 0.0 ))
(( 0.0 0.0 0.0 0.0 0.0 )
( 0.0 0.0 0.0 0.0 0.0 )))
((( 0.0 0.0 0.0 0.0 0.0 )
( 0.0 0.0 0.0 0.0 0.0 ))
(( 0.0 0.0 0.0 0.0 0.0 )
( 0.0 0.0 0.0 0.0 0.0 ))
(( 0.0 0.0 0.0 0.0 0.0 )
( 0.0 0.0 0.0 0.0 0.0 ))
(( 0.0 0.0 0.0 0.0 0.0 )
( 0.0 0.0 0.0 0.0 0.0 ))
(( 0.0 0.0 0.0 0.0 0.0 )
( 0.0 0.0 0.0 0.0 0.0 ))))
(((( 0.0 0.0 0.0 0.0 0.0 )
( 0.0 0.0 0.0 0.0 0.0 ))
(( 0.0 0.0 0.0 0.0 0.0 )
( 0.0 0.0 0.0 0.0 0.0 ))
(( 0.0 0.0 0.0 0.0 0.0 )
( 0.0 0.0 0.0 0.0 0.0 ))
(( 0.0 0.0 0.0 0.0 0.0 )
( 0.0 0.0 0.0 0.0 0.0 ))
(( 0.0 0.0 0.0 0.0 0.0 )
( 0.0 0.0 0.0 0.0 0.0 )))
((( 0.0 0.0 0.0 0.0 0.0 )
( 0.0 0.0 0.0 0.0 0.0 ))
(( 0.0 0.0 0.0 0.0 0.0 )
( 0.0 0.0 0.0 0.0 0.0 ))
(( 0.0 0.0 0.0 0.0 0.0 )
( 0.0 0.0 0.0 0.0 0.0 ))
(( 0.0 0.0 0.0 0.0 0.0 )
( 0.0 0.0 0.0 0.0 0.0 ))
(( 0.0 0.0 0.0 0.0 0.0 )
( 0.0 0.0 0.0 0.0 0.0 )))
((( 0.0 0.0 0.0 0.0 0.0 )
( 0.0 0.0 0.0 0.0 0.0 ))
(( 0.0 0.0 0.0 0.0 0.0 )
( 0.0 0.0 0.0 0.0 0.0 ))
(( 0.0 0.0 0.0 0.0 0.0 )
( 0.0 0.0 0.0 0.0 0.0 ))
(( 0.0 0.0 0.0 0.0 0.0 )
( 0.0 0.0 0.0 0.0 0.0 ))
(( 0.0 0.0 0.0 0.0 0.0 )
( 0.0 0.0 0.0 0.0 0.0 )))
((( 0.0 0.0 0.0 0.0 0.0 )
( 0.0 0.0 0.0 0.0 0.0 ))
(( 0.0 0.0 0.0 0.0 0.0 )
( 0.0 0.0 0.0 0.0 0.0 ))
(( 0.0 0.0 0.0 0.0 0.0 )
( 0.0 0.0 0.0 0.0 0.0 ))
(( 0.0 0.0 0.0 0.0 0.0 )
( 0.0 0.0 0.0 0.0 0.0 ))
(( 0.0 0.0 0.0 0.0 0.0 )
( 0.0 0.0 0.0 0.0 0.0 )))
((( 0.0 0.0 0.0 0.0 0.0 )
( 0.0 0.0 0.0 0.0 0.0 ))
(( 0.0 0.0 0.0 0.0 0.0 )
( 0.0 0.0 0.0 0.0 0.0 ))
(( 0.0 0.0 0.0 0.0 0.0 )
( 0.0 0.0 0.0 0.0 0.0 ))
(( 0.0 0.0 0.0 0.0 0.0 )
( 0.0 0.0 0.0 0.0 0.0 ))
(( 0.0 0.0 0.0 0.0 0.0 )
( 0.0 0.0 0.0 0.0 0.0 ))))
(((( 0.0 0.0 0.0 0.0 0.0 )
( 0.0 0.0 0.0 0.0 0.0 ))
(( 0.0 0.0 0.0 0.0 0.0 )
( 0.0 0.0 0.0 0.0 0.0 ))
(( 0.0 0.0 0.0 0.0 0.0 )
( 0.0 0.0 0.0 0.0 0.0 ))
(( 0.0 0.0 0.0 0.0 0.0 )
( 0.0 0.0 0.0 0.0 0.0 ))
(( 0.0 0.0 0.0 0.0 0.0 )
( 0.0 0.0 0.0 0.0 0.0 )))
((( 0.0 0.0 0.0 0.0 0.0 )
( 0.0 0.0 0.0 0.0 0.0 ))
(( 0.0 0.0 0.0 0.0 0.0 )
( 0.0 0.0 0.0 0.0 0.0 ))
(( 0.0 0.0 0.0 0.0 0.0 )
( 0.0 0.0 0.0 0.0 0.0 ))
(( 0.0 0.0 0.0 0.0 0.0 )
( 0.0 0.0 0.0 0.0 0.0 ))
(( 0.0 0.0 0.0 0.0 0.0 )
( 0.0 0.0 0.0 0.0 0.0 )))
((( 0.0 0.0 0.0 0.0 0.0 )
( 0.0 0.0 0.0 0.0 0.0 ))
(( 0.0 0.0 0.0 0.0 0.0 )
( 0.0 0.0 0.0 0.0 0.0 ))
(( 0.0 0.0 0.0 0.0 0.0 )
( 0.0 0.0 0.0 0.0 0.0 ))
(( 0.0 0.0 0.0 0.0 0.0 )
( 0.0 0.0 0.0 0.0 0.0 ))
(( 0.0 0.0 0.0 0.0 0.0 )
( 0.0 0.0 0.0 0.0 0.0 )))
((( 0.0 0.0 0.0 0.0 0.0 )
( 0.0 0.0 0.0 0.0 0.0 ))
(( 0.0 0.0 0.0 0.0 0.0 )
( 0.0 0.0 0.0 0.0 0.0 ))
(( 0.0 0.0 0.0 0.0 0.0 )
( 0.0 0.0 0.0 0.0 0.0 ))
(( 0.0 0.0 0.0 0.0 0.0 )
( 0.0 0.0 0.0 0.0 0.0 ))
(( 0.0 0.0 0.0 0.0 0.0 )
( 0.0 0.0 0.0 0.0 0.0 )))
((( 0.0 0.0 0.0 0.0 0.0 )
( 0.0 0.0 0.0 0.0 0.0 ))
(( 0.0 0.0 0.0 0.0 0.0 )
( 0.0 0.0 0.0 0.0 0.0 ))
(( 0.0 0.0 0.0 0.0 0.0 )
( 0.0 0.0 0.0 0.0 0.0 ))
(( 0.0 0.0 0.0 0.0 0.0 )
( 0.0 0.0 0.0 0.0 0.0 ))
(( 0.0 0.0 0.0 0.0 0.0 )
( 0.0 0.0 0.0 0.0 0.0 ))))));
}

potential (glabela | sexo fronte sexo incisivos sexo mentoredondo sexo orbita mentoproeminencia)
{
 data = ((((((( 0.2 0.2 0.2 0.2 0.2 )
( 0.2 0.2 0.2 0.2 0.2 ))
(( 0.2 0.2 0.2 0.2 0.2 )
( 0.2 0.2 0.2 0.2 0.2 ))
(( 0.2 0.2 0.2 0.2 0.2 )
( 0.2 0.2 0.2 0.2 0.2 ))
(( 0.2 0.2 0.2 0.2 0.2 )
( 0.2 0.2 0.2 0.2 0.2 ))
(( 0.2 0.2 0.2 0.2 0.2 )
( 0.2 0.2 0.2 0.2 0.2 )))
((( 0.2 0.2 0.2 0.2 0.2 )
( 0.2 0.2 0.2 0.2 0.2 ))
(( 0.2 0.2 0.2 0.2 0.2 )
( 0.2 0.2 0.2 0.2 0.2 ))
(( 0.2 0.2 0.2 0.2 0.2 )
( 0.2 0.2 0.2 0.2 0.2 ))
(( 0.2 0.2 0.2 0.2 0.2 )
( 0.2 0.2 0.2 0.2 0.2 ))
(( 0.2 0.2 0.2 0.2 0.2 )
( 0.2 0.2 0.2 0.2 0.2 )))
((( 0.0 0.0 0.0 0.0 0.0 )
( 0.0 0.0 0.0 0.0 0.0 ))
(( 0.0 0.0 0.0 0.0 0.0 )
( 0.0 0.0 0.0 0.0 0.0 ))
(( 0.0 0.0 0.0 0.0 0.0 )
( 0.0 0.0 0.0 0.0 0.0 ))
(( 0.0 0.0 0.0 0.0 0.0 )
( 0.0 0.0 0.0 0.0 0.0 ))
(( 0.0 0.0 0.0 0.0 0.0 )
( 0.0 0.0 0.0 0.0 0.0 )))
((( 0.0 0.0 0.0 0.0 0.0 )
( 0.0 0.0 0.0 0.0 0.0 ))
(( 0.0 0.0 0.0 0.0 0.0 )
( 0.0 0.0 0.0 0.0 0.0 ))
(( 0.0 0.0 0.0 0.0 0.0 )
( 0.0 0.0 0.0 0.0 0.0 ))
(( 0.0 0.0 0.0 0.0 0.0 )
( 0.0 0.0 0.0 0.0 0.0 ))
(( 0.0 0.0 0.0 0.0 0.0 )
( 0.0 0.0 0.0 0.0 0.0 )))
((( 0.0 0.0 0.0 0.0 0.0 )
( 0.0 0.0 0.0 0.0 0.0 ))
(( 0.0 0.0 0.0 0.0 0.0 )
( 0.0 0.0 0.0 0.0 0.0 ))
(( 0.0 0.0 0.0 0.0 0.0 )
( 0.0 0.0 0.0 0.0 0.0 ))
(( 0.0 0.0 0.0 0.0 0.0 )
( 0.0 0.0 0.0 0.0 0.0 ))
(( 0.0 0.0 0.0 0.0 0.0 )
( 0.0 0.0 0.0 0.0 0.0 ))))
(((( 0.2 0.2 0.2 0.2 0.2 )
( 0.2 0.2 0.2 0.2 0.2 ))
(( 0.2 0.2 0.2 0.2 0.2 )
( 0.2 0.2 0.2 0.2 0.2 ))
(( 0.2 0.2 0.2 0.2 0.2 )
( 0.2 0.2 0.2 0.2 0.2 ))
(( 0.2 0.2 0.2 0.2 0.2 )
( 0.2 0.2 0.2 0.2 0.2 ))
(( 0.2 0.2 0.2 0.2 0.2 )
( 0.2 0.2 0.2 0.2 0.2 )))
((( 0.2 0.2 0.2 0.2 0.2 )
( 0.2 0.2 0.2 0.2 0.2 ))
(( 0.2 0.2 0.2 0.2 0.2 )
( 0.2 0.2 0.2 0.2 0.2 ))
(( 0.2 0.2 0.2 0.2 0.2 )
( 0.2 0.2 0.2 0.2 0.2 ))
(( 0.2 0.2 0.2 0.2 0.2 )
( 0.2 0.2 0.2 0.2 0.2 ))
(( 0.2 0.2 0.2 0.2 0.2 )
( 0.2 0.2 0.2 0.2 0.2 )))
((( 0.0 0.0 0.0 0.0 0.0 )
( 0.0 0.0 0.0 0.0 0.0 ))
(( 0.0 0.0 0.0 0.0 0.0 )
( 0.0 0.0 0.0 0.0 0.0 ))
(( 0.0 0.0 0.0 0.0 0.0 )
( 0.0 0.0 0.0 0.0 0.0 ))
(( 0.0 0.0 0.0 0.0 0.0 )
( 0.0 0.0 0.0 0.0 0.0 ))
(( 0.0 0.0 0.0 0.0 0.0 )
( 0.0 0.0 0.0 0.0 0.0 )))
((( 0.0 0.0 0.0 0.0 0.0 )
( 0.0 0.0 0.0 0.0 0.0 ))
(( 0.0 0.0 0.0 0.0 0.0 )
( 0.0 0.0 0.0 0.0 0.0 ))
(( 0.0 0.0 0.0 0.0 0.0 )
( 0.0 0.0 0.0 0.0 0.0 ))
(( 0.0 0.0 0.0 0.0 0.0 )
( 0.0 0.0 0.0 0.0 0.0 ))
(( 0.0 0.0 0.0 0.0 0.0 )
( 0.0 0.0 0.0 0.0 0.0 )))
((( 0.0 0.0 0.0 0.0 0.0 )
( 0.0 0.0 0.0 0.0 0.0 ))
(( 0.0 0.0 0.0 0.0 0.0 )
( 0.0 0.0 0.0 0.0 0.0 ))
(( 0.0 0.0 0.0 0.0 0.0 )
( 0.0 0.0 0.0 0.0 0.0 ))
(( 0.0 0.0 0.0 0.0 0.0 )
( 0.0 0.0 0.0 0.0 0.0 ))
(( 0.0 0.0 0.0 0.0 0.0 )
( 0.0 0.0 0.0 0.0 0.0 ))))
(((( 0.2 0.2 0.2 0.2 0.2 )
( 0.2 0.2 0.2 0.2 0.2 ))
(( 0.2 0.2 0.2 0.2 0.2 )
( 0.2 0.2 0.2 0.2 0.2 ))
(( 0.2 0.2 0.2 0.2 0.2 )
( 0.2 0.2 0.2 0.2 0.2 ))
(( 0.2 0.2 0.2 0.2 0.2 )
( 0.2 0.2 0.2 0.2 0.2 ))
(( 0.2 0.2 0.2 0.2 0.2 )
( 0.2 0.2 0.2 0.2 0.2 )))
((( 0.2 0.2 0.2 0.2 0.2 )
( 0.2 0.2 0.2 0.2 0.2 ))
(( 0.2 0.2 0.2 0.2 0.2 )
( 0.2 0.2 0.2 0.2 0.2 ))
(( 0.2 0.2 0.2 0.2 0.2 )
( 0.2 0.2 0.2 0.2 0.2 ))
(( 0.2 0.2 0.2 0.2 0.2 )
( 0.2 0.2 0.2 0.2 0.2 ))
(( 0.2 0.2 0.2 0.2 0.2 )
( 0.2 0.2 0.2 0.2 0.2 )))
((( 0.0 0.0 0.0 0.0 0.0 )
( 0.0 0.0 0.0 0.0 0.0 ))
(( 0.0 0.0 0.0 0.0 0.0 )
( 0.0 0.0 0.0 0.0 0.0 ))
(( 0.0 0.0 0.0 0.0 0.0 )
( 0.0 0.0 0.0 0.0 0.0 ))
(( 0.0 0.0 0.0 0.0 0.0 )
( 0.0 0.0 0.0 0.0 0.0 ))
(( 0.0 0.0 0.0 0.0 0.0 )
( 0.0 0.0 0.0 0.0 0.0 )))
((( 0.0 0.0 0.0 0.0 0.0 )
( 0.0 0.0 0.0 0.0 0.0 ))
(( 0.0 0.0 0.0 0.0 0.0 )
( 0.0 0.0 0.0 0.0 0.0 ))
(( 0.0 0.0 0.0 0.0 0.0 )
( 0.0 0.0 0.0 0.0 0.0 ))
(( 0.0 0.0 0.0 0.0 0.0 )
( 0.0 0.0 0.0 0.0 0.0 ))
(( 0.0 0.0 0.0 0.0 0.0 )
( 0.0 0.0 0.0 0.0 0.0 )))
((( 0.0 0.0 0.0 0.0 0.0 )
( 0.0 0.0 0.0 0.0 0.0 ))
(( 0.0 0.0 0.0 0.0 0.0 )
( 0.0 0.0 0.0 0.0 0.0 ))
(( 0.0 0.0 0.0 0.0 0.0 )
( 0.0 0.0 0.0 0.0 0.0 ))
(( 0.0 0.0 0.0 0.0 0.0 )
( 0.0 0.0 0.0 0.0 0.0 ))
(( 0.0 0.0 0.0 0.0 0.0 )
( 0.0 0.0 0.0 0.0 0.0 ))))
(((( 0.2 0.2 0.2 0.2 0.2 )
( 0.2 0.2 0.2 0.2 0.2 ))
(( 0.2 0.2 0.2 0.2 0.2 )
( 0.2 0.2 0.2 0.2 0.2 ))
(( 0.2 0.2 0.2 0.2 0.2 )
( 0.2 0.2 0.2 0.2 0.2 ))
(( 0.2 0.2 0.2 0.2 0.2 )
( 0.2 0.2 0.2 0.2 0.2 ))
(( 0.2 0.2 0.2 0.2 0.2 )
( 0.2 0.2 0.2 0.2 0.2 )))
((( 0.2 0.2 0.2 0.2 0.2 )
( 0.2 0.2 0.2 0.2 0.2 ))
(( 0.2 0.2 0.2 0.2 0.2 )
( 0.2 0.2 0.2 0.2 0.2 ))
(( 0.2 0.2 0.2 0.2 0.2 )
( 0.2 0.2 0.2 0.2 0.2 ))
(( 0.2 0.2 0.2 0.2 0.2 )
( 0.2 0.2 0.2 0.2 0.2 ))
(( 0.2 0.2 0.2 0.2 0.2 )
( 0.2 0.2 0.2 0.2 0.2 )))
((( 0.0 0.0 0.0 0.0 0.0 )
( 0.0 0.0 0.0 0.0 0.0 ))
(( 0.0 0.0 0.0 0.0 0.0 )
( 0.0 0.0 0.0 0.0 0.0 ))
(( 0.0 0.0 0.0 0.0 0.0 )
( 0.0 0.0 0.0 0.0 0.0 ))
(( 0.0 0.0 0.0 0.0 0.0 )
( 0.0 0.0 0.0 0.0 0.0 ))
(( 0.0 0.0 0.0 0.0 0.0 )
( 0.0 0.0 0.0 0.0 0.0 )))
((( 0.0 0.0 0.0 0.0 0.0 )
( 0.0 0.0 0.0 0.0 0.0 ))
(( 0.0 0.0 0.0 0.0 0.0 )
( 0.0 0.0 0.0 0.0 0.0 ))
(( 0.0 0.0 0.0 0.0 0.0 )
( 0.0 0.0 0.0 0.0 0.0 ))
(( 0.0 0.0 0.0 0.0 0.0 )
( 0.0 0.0 0.0 0.0 0.0 ))
(( 0.0 0.0 0.0 0.0 0.0 )
( 0.0 0.0 0.0 0.0 0.0 )))
((( 0.0 0.0 0.0 0.0 0.0 )
( 0.0 0.0 0.0 0.0 0.0 ))
(( 0.0 0.0 0.0 0.0 0.0 )
( 0.0 0.0 0.0 0.0 0.0 ))
(( 0.0 0.0 0.0 0.0 0.0 )
( 0.0 0.0 0.0 0.0 0.0 ))
(( 0.0 0.0 0.0 0.0 0.0 )
( 0.0 0.0 0.0 0.0 0.0 ))
(( 0.0 0.0 0.0 0.0 0.0 )
( 0.0 0.0 0.0 0.0 0.0 ))))
(((( 0.2 0.2 0.2 0.2 0.2 )
( 0.2 0.2 0.2 0.2 0.2 ))
(( 0.2 0.2 0.2 0.2 0.2 )
( 0.2 0.2 0.2 0.2 0.2 ))
(( 0.2 0.2 0.2 0.2 0.2 )
( 0.2 0.2 0.2 0.2 0.2 ))
(( 0.2 0.2 0.2 0.2 0.2 )
( 0.2 0.2 0.2 0.2 0.2 ))
(( 0.2 0.2 0.2 0.2 0.2 )
( 0.2 0.2 0.2 0.2 0.2 )))
((( 0.2 0.2 0.2 0.2 0.2 )
( 0.2 0.2 0.2 0.2 0.2 ))
(( 0.2 0.2 0.2 0.2 0.2 )
( 0.2 0.2 0.2 0.2 0.2 ))
(( 0.2 0.2 0.2 0.2 0.2 )
( 0.2 0.2 0.2 0.2 0.2 ))
(( 0.2 0.2 0.2 0.2 0.2 )
( 0.2 0.2 0.2 0.2 0.2 ))
(( 0.2 0.2 0.2 0.2 0.2 )
( 0.2 0.2 0.2 0.2 0.2 )))
((( 0.0 0.0 0.0 0.0 0.0 )
( 0.0 0.0 0.0 0.0 0.0 ))
(( 0.0 0.0 0.0 0.0 0.0 )
( 0.0 0.0 0.0 0.0 0.0 ))
(( 0.0 0.0 0.0 0.0 0.0 )
( 0.0 0.0 0.0 0.0 0.0 ))
(( 0.0 0.0 0.0 0.0 0.0 )
( 0.0 0.0 0.0 0.0 0.0 ))
(( 0.0 0.0 0.0 0.0 0.0 )
( 0.0 0.0 0.0 0.0 0.0 )))
((( 0.0 0.0 0.0 0.0 0.0 )
( 0.0 0.0 0.0 0.0 0.0 ))
(( 0.0 0.0 0.0 0.0 0.0 )
( 0.0 0.0 0.0 0.0 0.0 ))
(( 0.0 0.0 0.0 0.0 0.0 )
( 0.0 0.0 0.0 0.0 0.0 ))
(( 0.0 0.0 0.0 0.0 0.0 )
( 0.0 0.0 0.0 0.0 0.0 ))
(( 0.0 0.0 0.0 0.0 0.0 )
( 0.0 0.0 0.0 0.0 0.0 )))
((( 0.0 0.0 0.0 0.0 0.0 )
( 0.0 0.0 0.0 0.0 0.0 ))
(( 0.0 0.0 0.0 0.0 0.0 )
( 0.0 0.0 0.0 0.0 0.0 ))
(( 0.0 0.0 0.0 0.0 0.0 )
( 0.0 0.0 0.0 0.0 0.0 ))
(( 0.0 0.0 0.0 0.0 0.0 )
( 0.0 0.0 0.0 0.0 0.0 ))
(( 0.0 0.0 0.0 0.0 0.0 )
( 0.0 0.0 0.0 0.0 0.0 )))))
((((( 0.2 0.2 0.2 0.2 0.2 )
( 0.2 0.2 0.2 0.2 0.2 ))
(( 0.2 0.2 0.2 0.2 0.2 )
( 0.2 0.2 0.2 0.2 0.2 ))
(( 0.2 0.2 0.2 0.2 0.2 )
( 0.2 0.2 0.2 0.2 0.2 ))
(( 0.2 0.2 0.2 0.2 0.2 )
( 0.2 0.2 0.2 0.2 0.2 ))
(( 0.2 0.2 0.2 0.2 0.2 )
( 0.2 0.2 0.2 0.2 0.2 )))
((( 0.2 0.2 0.2 0.2 0.2 )
( 0.2 0.2 0.2 0.2 0.2 ))
(( 0.2 0.2 0.2 0.2 0.2 )
( 0.2 0.2 0.2 0.2 0.2 ))
(( 0.2 0.2 0.2 0.2 0.2 )
( 0.2 0.2 0.2 0.2 0.2 ))
(( 0.2 0.2 0.2 0.2 0.2 )
( 0.2 0.2 0.2 0.2 0.2 ))
(( 0.2 0.2 0.2 0.2 0.2 )
( 0.2 0.2 0.2 0.2 0.2 )))
((( 0.0 0.0 0.0 0.0 0.0 )
( 0.0 0.0 0.0 0.0 0.0 ))
(( 0.0 0.0 0.0 0.0 0.0 )
( 0.0 0.0 0.0 0.0 0.0 ))
(( 0.0 0.0 0.0 0.0 0.0 )
( 0.0 0.0 0.0 0.0 0.0 ))
(( 0.0 0.0 0.0 0.0 0.0 )
( 0.0 0.0 0.0 0.0 0.0 ))
(( 0.0 0.0 0.0 0.0 0.0 )
( 0.0 0.0 0.0 0.0 0.0 )))
((( 0.0 0.0 0.0 0.0 0.0 )
( 0.0 0.0 0.0 0.0 0.0 ))
(( 0.0 0.0 0.0 0.0 0.0 )
( 0.0 0.0 0.0 0.0 0.0 ))
(( 0.0 0.0 0.0 0.0 0.0 )
( 0.0 0.0 0.0 0.0 0.0 ))
(( 0.0 0.0 0.0 0.0 0.0 )
( 0.0 0.0 0.0 0.0 0.0 ))
(( 0.0 0.0 0.0 0.0 0.0 )
( 0.0 0.0 0.0 0.0 0.0 )))
((( 0.0 0.0 0.0 0.0 0.0 )
( 0.0 0.0 0.0 0.0 0.0 ))
(( 0.0 0.0 0.0 0.0 0.0 )
( 0.0 0.0 0.0 0.0 0.0 ))
(( 0.0 0.0 0.0 0.0 0.0 )
( 0.0 0.0 0.0 0.0 0.0 ))
(( 0.0 0.0 0.0 0.0 0.0 )
( 0.0 0.0 0.0 0.0 0.0 ))
(( 0.0 0.0 0.0 0.0 0.0 )
( 0.0 0.0 0.0 0.0 0.0 ))))
(((( 0.2 0.2 0.2 0.2 0.2 )
( 0.2 0.2 0.2 0.2 0.2 ))
(( 0.2 0.2 0.2 0.2 0.2 )
( 0.2 0.2 0.2 0.2 0.2 ))
(( 0.2 0.2 0.2 0.2 0.2 )
( 0.2 0.2 0.2 0.2 0.2 ))
(( 0.2 0.2 0.2 0.2 0.2 )
( 0.2 0.2 0.2 0.2 0.2 ))
(( 0.2 0.2 0.2 0.2 0.2 )
( 0.2 0.2 0.2 0.2 0.2 )))
((( 0.2 0.2 0.2 0.2 0.2 )
( 0.2 0.2 0.2 0.2 0.2 ))
(( 0.2 0.2 0.2 0.2 0.2 )
( 0.2 0.2 0.2 0.2 0.2 ))
(( 0.2 0.2 0.2 0.2 0.2 )
( 0.2 0.2 0.2 0.2 0.2 ))
(( 0.2 0.2 0.2 0.2 0.2 )
( 0.2 0.2 0.2 0.2 0.2 ))
(( 0.2 0.2 0.2 0.2 0.2 )
( 0.2 0.2 0.2 0.2 0.2 )))
((( 0.0 0.0 0.0 0.0 0.0 )
( 0.0 0.0 0.0 0.0 0.0 ))
(( 0.0 0.0 0.0 0.0 0.0 )
( 0.0 0.0 0.0 0.0 0.0 ))
(( 0.0 0.0 0.0 0.0 0.0 )
( 0.0 0.0 0.0 0.0 0.0 ))
(( 0.0 0.0 0.0 0.0 0.0 )
( 0.0 0.0 0.0 0.0 0.0 ))
(( 0.0 0.0 0.0 0.0 0.0 )
( 0.0 0.0 0.0 0.0 0.0 )))
((( 0.0 0.0 0.0 0.0 0.0 )
( 0.0 0.0 0.0 0.0 0.0 ))
(( 0.0 0.0 0.0 0.0 0.0 )
( 0.0 0.0 0.0 0.0 0.0 ))
(( 0.0 0.0 0.0 0.0 0.0 )
( 0.0 0.0 0.0 0.0 0.0 ))
(( 0.0 0.0 0.0 0.0 0.0 )
( 0.0 0.0 0.0 0.0 0.0 ))
(( 0.0 0.0 0.0 0.0 0.0 )
( 0.0 0.0 0.0 0.0 0.0 )))
((( 0.0 0.0 0.0 0.0 0.0 )
( 0.0 0.0 0.0 0.0 0.0 ))
(( 0.0 0.0 0.0 0.0 0.0 )
( 0.0 0.0 0.0 0.0 0.0 ))
(( 0.0 0.0 0.0 0.0 0.0 )
( 0.0 0.0 0.0 0.0 0.0 ))
(( 0.0 0.0 0.0 0.0 0.0 )
( 0.0 0.0 0.0 0.0 0.0 ))
(( 0.0 0.0 0.0 0.0 0.0 )
( 0.0 0.0 0.0 0.0 0.0 ))))
(((( 0.2 0.2 0.2 0.2 0.2 )
( 0.2 0.2 0.2 0.2 0.2 ))
(( 0.2 0.2 0.2 0.2 0.2 )
( 0.2 0.2 0.2 0.2 0.2 ))
(( 0.2 0.2 0.2 0.2 0.2 )
( 0.2 0.2 0.2 0.2 0.2 ))
(( 0.2 0.2 0.2 0.2 0.2 )
( 0.2 0.2 0.2 0.2 0.2 ))
(( 0.2 0.2 0.2 0.2 0.2 )
( 0.2 0.2 0.2 0.2 0.2 )))
((( 0.2 0.2 0.2 0.2 0.2 )
( 0.2 0.2 0.2 0.2 0.2 ))
(( 0.2 0.2 0.2 0.2 0.2 )
( 0.2 0.2 0.2 0.2 0.2 ))
(( 0.2 0.2 0.2 0.2 0.2 )
( 0.2 0.2 0.2 0.2 0.2 ))
(( 0.2 0.2 0.2 0.2 0.2 )
( 0.2 0.2 0.2 0.2 0.2 ))
(( 0.2 0.2 0.2 0.2 0.2 )
( 0.2 0.2 0.2 0.2 0.2 )))
((( 0.0 0.0 0.0 0.0 0.0 )
( 0.0 0.0 0.0 0.0 0.0 ))
(( 0.0 0.0 0.0 0.0 0.0 )
( 0.0 0.0 0.0 0.0 0.0 ))
(( 0.0 0.0 0.0 0.0 0.0 )
( 0.0 0.0 0.0 0.0 0.0 ))
(( 0.0 0.0 0.0 0.0 0.0 )
( 0.0 0.0 0.0 0.0 0.0 ))
(( 0.0 0.0 0.0 0.0 0.0 )
( 0.0 0.0 0.0 0.0 0.0 )))
((( 0.0 0.0 0.0 0.0 0.0 )
( 0.0 0.0 0.0 0.0 0.0 ))
(( 0.0 0.0 0.0 0.0 0.0 )
( 0.0 0.0 0.0 0.0 0.0 ))
(( 0.0 0.0 0.0 0.0 0.0 )
( 0.0 0.0 0.0 0.0 0.0 ))
(( 0.0 0.0 0.0 0.0 0.0 )
( 0.0 0.0 0.0 0.0 0.0 ))
(( 0.0 0.0 0.0 0.0 0.0 )
( 0.0 0.0 0.0 0.0 0.0 )))
((( 0.0 0.0 0.0 0.0 0.0 )
( 0.0 0.0 0.0 0.0 0.0 ))
(( 0.0 0.0 0.0 0.0 0.0 )
( 0.0 0.0 0.0 0.0 0.0 ))
(( 0.0 0.0 0.0 0.0 0.0 )
( 0.0 0.0 0.0 0.0 0.0 ))
(( 0.0 0.0 0.0 0.0 0.0 )
( 0.0 0.0 0.0 0.0 0.0 ))
(( 0.0 0.0 0.0 0.0 0.0 )
( 0.0 0.0 0.0 0.0 0.0 ))))
(((( 0.2 0.2 0.2 0.2 0.2 )
( 0.2 0.2 0.2 0.2 0.2 ))
(( 0.2 0.2 0.2 0.2 0.2 )
( 0.2 0.2 0.2 0.2 0.2 ))
(( 0.2 0.2 0.2 0.2 0.2 )
( 0.2 0.2 0.2 0.2 0.2 ))
(( 0.2 0.2 0.2 0.2 0.2 )
( 0.2 0.2 0.2 0.2 0.2 ))
(( 0.2 0.2 0.2 0.2 0.2 )
( 0.2 0.2 0.2 0.2 0.2 )))
((( 0.2 0.2 0.2 0.2 0.2 )
( 0.2 0.2 0.2 0.2 0.2 ))
(( 0.2 0.2 0.2 0.2 0.2 )
( 0.2 0.2 0.2 0.2 0.2 ))
(( 0.2 0.2 0.2 0.2 0.2 )
( 0.2 0.2 0.2 0.2 0.2 ))
(( 0.2 0.2 0.2 0.2 0.2 )
( 0.2 0.2 0.2 0.2 0.2 ))
(( 0.2 0.2 0.2 0.2 0.2 )
( 0.2 0.2 0.2 0.2 0.2 )))
((( 0.0 0.0 0.0 0.0 0.0 )
( 0.0 0.0 0.0 0.0 0.0 ))
(( 0.0 0.0 0.0 0.0 0.0 )
( 0.0 0.0 0.0 0.0 0.0 ))
(( 0.0 0.0 0.0 0.0 0.0 )
( 0.0 0.0 0.0 0.0 0.0 ))
(( 0.0 0.0 0.0 0.0 0.0 )
( 0.0 0.0 0.0 0.0 0.0 ))
(( 0.0 0.0 0.0 0.0 0.0 )
( 0.0 0.0 0.0 0.0 0.0 )))
((( 0.0 0.0 0.0 0.0 0.0 )
( 0.0 0.0 0.0 0.0 0.0 ))
(( 0.0 0.0 0.0 0.0 0.0 )
( 0.0 0.0 0.0 0.0 0.0 ))
(( 0.0 0.0 0.0 0.0 0.0 )
( 0.0 0.0 0.0 0.0 0.0 ))
(( 0.0 0.0 0.0 0.0 0.0 )
( 0.0 0.0 0.0 0.0 0.0 ))
(( 0.0 0.0 0.0 0.0 0.0 )
( 0.0 0.0 0.0 0.0 0.0 )))
((( 0.0 0.0 0.0 0.0 0.0 )
( 0.0 0.0 0.0 0.0 0.0 ))
(( 0.0 0.0 0.0 0.0 0.0 )
( 0.0 0.0 0.0 0.0 0.0 ))
(( 0.0 0.0 0.0 0.0 0.0 )
( 0.0 0.0 0.0 0.0 0.0 ))
(( 0.0 0.0 0.0 0.0 0.0 )
( 0.0 0.0 0.0 0.0 0.0 ))
(( 0.0 0.0 0.0 0.0 0.0 )
( 0.0 0.0 0.0 0.0 0.0 ))))
(((( 0.2 0.2 0.2 0.2 0.2 )
( 0.2 0.2 0.2 0.2 0.2 ))
(( 0.2 0.2 0.2 0.2 0.2 )
( 0.2 0.2 0.2 0.2 0.2 ))
(( 0.2 0.2 0.2 0.2 0.2 )
( 0.2 0.2 0.2 0.2 0.2 ))
(( 0.2 0.2 0.2 0.2 0.2 )
( 0.2 0.2 0.2 0.2 0.2 ))
(( 0.2 0.2 0.2 0.2 0.2 )
( 0.2 0.2 0.2 0.2 0.2 )))
((( 0.2 0.2 0.2 0.2 0.2 )
( 0.2 0.2 0.2 0.2 0.2 ))
(( 0.2 0.2 0.2 0.2 0.2 )
( 0.2 0.2 0.2 0.2 0.2 ))
(( 0.2 0.2 0.2 0.2 0.2 )
( 0.2 0.2 0.2 0.2 0.2 ))
(( 0.2 0.2 0.2 0.2 0.2 )
( 0.2 0.2 0.2 0.2 0.2 ))
(( 0.2 0.2 0.2 0.2 0.2 )
( 0.2 0.2 0.2 0.2 0.2 )))
((( 0.0 0.0 0.0 0.0 0.0 )
( 0.0 0.0 0.0 0.0 0.0 ))
(( 0.0 0.0 0.0 0.0 0.0 )
( 0.0 0.0 0.0 0.0 0.0 ))
(( 0.0 0.0 0.0 0.0 0.0 )
( 0.0 0.0 0.0 0.0 0.0 ))
(( 0.0 0.0 0.0 0.0 0.0 )
( 0.0 0.0 0.0 0.0 0.0 ))
(( 0.0 0.0 0.0 0.0 0.0 )
( 0.0 0.0 0.0 0.0 0.0 )))
((( 0.0 0.0 0.0 0.0 0.0 )
( 0.0 0.0 0.0 0.0 0.0 ))
(( 0.0 0.0 0.0 0.0 0.0 )
( 0.0 0.0 0.0 0.0 0.0 ))
(( 0.0 0.0 0.0 0.0 0.0 )
( 0.0 0.0 0.0 0.0 0.0 ))
(( 0.0 0.0 0.0 0.0 0.0 )
( 0.0 0.0 0.0 0.0 0.0 ))
(( 0.0 0.0 0.0 0.0 0.0 )
( 0.0 0.0 0.0 0.0 0.0 )))
((( 0.0 0.0 0.0 0.0 0.0 )
( 0.0 0.0 0.0 0.0 0.0 ))
(( 0.0 0.0 0.0 0.0 0.0 )
( 0.0 0.0 0.0 0.0 0.0 ))
(( 0.0 0.0 0.0 0.0 0.0 )
( 0.0 0.0 0.0 0.0 0.0 ))
(( 0.0 0.0 0.0 0.0 0.0 )
( 0.0 0.0 0.0 0.0 0.0 ))
(( 0.0 0.0 0.0 0.0 0.0 )
( 0.0 0.0 0.0 0.0 0.0 )))))
((((( 0.0 0.0 0.0 0.0 0.0 )
( 0.0 0.0 0.0 0.0 0.0 ))
(( 0.0 0.0 0.0 0.0 0.0 )
( 0.0 0.0 0.0 0.0 0.0 ))
(( 0.0 0.0 0.0 0.0 0.0 )
( 0.0 0.0 0.0 0.0 0.0 ))
(( 0.0 0.0 0.0 0.0 0.0 )
( 0.0 0.0 0.0 0.0 0.0 ))
(( 0.0 0.0 0.0 0.0 0.0 )
( 0.0 0.0 0.0 0.0 0.0 )))
((( 0.0 0.0 0.0 0.0 0.0 )
( 0.0 0.0 0.0 0.0 0.0 ))
(( 0.0 0.0 0.0 0.0 0.0 )
( 0.0 0.0 0.0 0.0 0.0 ))
(( 0.0 0.0 0.0 0.0 0.0 )
( 0.0 0.0 0.0 0.0 0.0 ))
(( 0.0 0.0 0.0 0.0 0.0 )
( 0.0 0.0 0.0 0.0 0.0 ))
(( 0.0 0.0 0.0 0.0 0.0 )
( 0.0 0.0 0.0 0.0 0.0 )))
((( 0.0 0.0 0.0 0.0 0.0 )
( 0.0 0.0 0.0 0.0 0.0 ))
(( 0.0 0.0 0.0 0.0 0.0 )
( 0.0 0.0 0.0 0.0 0.0 ))
(( 0.0 0.0 0.0 0.0 0.0 )
( 0.0 0.0 0.0 0.0 0.0 ))
(( 0.0 0.0 0.0 0.0 0.0 )
( 0.0 0.0 0.0 0.0 0.0 ))
(( 0.0 0.0 0.0 0.0 0.0 )
( 0.0 0.0 0.0 0.0 0.0 )))
((( 0.0 0.0 0.0 0.0 0.0 )
( 0.0 0.0 0.0 0.0 0.0 ))
(( 0.0 0.0 0.0 0.0 0.0 )
( 0.0 0.0 0.0 0.0 0.0 ))
(( 0.0 0.0 0.0 0.0 0.0 )
( 0.0 0.0 0.0 0.0 0.0 ))
(( 0.0 0.0 0.0 0.0 0.0 )
( 0.0 0.0 0.0 0.0 0.0 ))
(( 0.0 0.0 0.0 0.0 0.0 )
( 0.0 0.0 0.0 0.0 0.0 )))
((( 0.0 0.0 0.0 0.0 0.0 )
( 0.0 0.0 0.0 0.0 0.0 ))
(( 0.0 0.0 0.0 0.0 0.0 )
( 0.0 0.0 0.0 0.0 0.0 ))
(( 0.0 0.0 0.0 0.0 0.0 )
( 0.0 0.0 0.0 0.0 0.0 ))
(( 0.0 0.0 0.0 0.0 0.0 )
( 0.0 0.0 0.0 0.0 0.0 ))
(( 0.0 0.0 0.0 0.0 0.0 )
( 0.0 0.0 0.0 0.0 0.0 ))))
(((( 0.0 0.0 0.0 0.0 0.0 )
( 0.0 0.0 0.0 0.0 0.0 ))
(( 0.0 0.0 0.0 0.0 0.0 )
( 0.0 0.0 0.0 0.0 0.0 ))
(( 0.0 0.0 0.0 0.0 0.0 )
( 0.0 0.0 0.0 0.0 0.0 ))
(( 0.0 0.0 0.0 0.0 0.0 )
( 0.0 0.0 0.0 0.0 0.0 ))
(( 0.0 0.0 0.0 0.0 0.0 )
( 0.0 0.0 0.0 0.0 0.0 )))
((( 0.0 0.0 0.0 0.0 0.0 )
( 0.0 0.0 0.0 0.0 0.0 ))
(( 0.0 0.0 0.0 0.0 0.0 )
( 0.0 0.0 0.0 0.0 0.0 ))
(( 0.0 0.0 0.0 0.0 0.0 )
( 0.0 0.0 0.0 0.0 0.0 ))
(( 0.0 0.0 0.0 0.0 0.0 )
( 0.0 0.0 0.0 0.0 0.0 ))
(( 0.0 0.0 0.0 0.0 0.0 )
( 0.0 0.0 0.0 0.0 0.0 )))
((( 0.0 0.0 0.0 0.0 0.0 )
( 0.0 0.0 0.0 0.0 0.0 ))
(( 0.0 0.0 0.0 0.0 0.0 )
( 0.0 0.0 0.0 0.0 0.0 ))
(( 0.0 0.0 0.0 0.0 0.0 )
( 0.0 0.0 0.0 0.0 0.0 ))
(( 0.0 0.0 0.0 0.0 0.0 )
( 0.0 0.0 0.0 0.0 0.0 ))
(( 0.0 0.0 0.0 0.0 0.0 )
( 0.0 0.0 0.0 0.0 0.0 )))
((( 0.0 0.0 0.0 0.0 0.0 )
( 0.0 0.0 0.0 0.0 0.0 ))
(( 0.0 0.0 0.0 0.0 0.0 )
( 0.0 0.0 0.0 0.0 0.0 ))
(( 0.0 0.0 0.0 0.0 0.0 )
( 0.0 0.0 0.0 0.0 0.0 ))
(( 0.0 0.0 0.0 0.0 0.0 )
( 0.0 0.0 0.0 0.0 0.0 ))
(( 0.0 0.0 0.0 0.0 0.0 )
( 0.0 0.0 0.0 0.0 0.0 )))
((( 0.0 0.0 0.0 0.0 0.0 )
( 0.0 0.0 0.0 0.0 0.0 ))
(( 0.0 0.0 0.0 0.0 0.0 )
( 0.0 0.0 0.0 0.0 0.0 ))
(( 0.0 0.0 0.0 0.0 0.0 )
( 0.0 0.0 0.0 0.0 0.0 ))
(( 0.0 0.0 0.0 0.0 0.0 )
( 0.0 0.0 0.0 0.0 0.0 ))
(( 0.0 0.0 0.0 0.0 0.0 )
( 0.0 0.0 0.0 0.0 0.0 ))))
(((( 0.0 0.0 0.0 0.0 0.0 )
( 0.0 0.0 0.0 0.0 0.0 ))
(( 0.0 0.0 0.0 0.0 0.0 )
( 0.0 0.0 0.0 0.0 0.0 ))
(( 0.0 0.0 0.0 0.0 0.0 )
( 0.0 0.0 0.0 0.0 0.0 ))
(( 0.0 0.0 0.0 0.0 0.0 )
( 0.0 0.0 0.0 0.0 0.0 ))
(( 0.0 0.0 0.0 0.0 0.0 )
( 0.0 0.0 0.0 0.0 0.0 )))
((( 0.0 0.0 0.0 0.0 0.0 )
( 0.0 0.0 0.0 0.0 0.0 ))
(( 0.0 0.0 0.0 0.0 0.0 )
( 0.0 0.0 0.0 0.0 0.0 ))
(( 0.0 0.0 0.0 0.0 0.0 )
( 0.0 0.0 0.0 0.0 0.0 ))
(( 0.0 0.0 0.0 0.0 0.0 )
( 0.0 0.0 0.0 0.0 0.0 ))
(( 0.0 0.0 0.0 0.0 0.0 )
( 0.0 0.0 0.0 0.0 0.0 )))
((( 0.0 0.0 0.0 0.0 0.0 )
( 0.0 0.0 0.0 0.0 0.0 ))
(( 0.0 0.0 0.0 0.0 0.0 )
( 0.0 0.0 0.0 0.0 0.0 ))
(( 0.0 0.0 0.0 0.0 0.0 )
( 0.0 0.0 0.0 0.0 0.0 ))
(( 0.0 0.0 0.0 0.0 0.0 )
( 0.0 0.0 0.0 0.0 0.0 ))
(( 0.0 0.0 0.0 0.0 0.0 )
( 0.0 0.0 0.0 0.0 0.0 )))
((( 0.0 0.0 0.0 0.0 0.0 )
( 0.0 0.0 0.0 0.0 0.0 ))
(( 0.0 0.0 0.0 0.0 0.0 )
( 0.0 0.0 0.0 0.0 0.0 ))
(( 0.0 0.0 0.0 0.0 0.0 )
( 0.0 0.0 0.0 0.0 0.0 ))
(( 0.0 0.0 0.0 0.0 0.0 )
( 0.0 0.0 0.0 0.0 0.0 ))
(( 0.0 0.0 0.0 0.0 0.0 )
( 0.0 0.0 0.0 0.0 0.0 )))
((( 0.0 0.0 0.0 0.0 0.0 )
( 0.0 0.0 0.0 0.0 0.0 ))
(( 0.0 0.0 0.0 0.0 0.0 )
( 0.0 0.0 0.0 0.0 0.0 ))
(( 0.0 0.0 0.0 0.0 0.0 )
( 0.0 0.0 0.0 0.0 0.0 ))
(( 0.0 0.0 0.0 0.0 0.0 )
( 0.0 0.0 0.0 0.0 0.0 ))
(( 0.0 0.0 0.0 0.0 0.0 )
( 0.0 0.0 0.0 0.0 0.0 ))))
(((( 0.0 0.0 0.0 0.0 0.0 )
( 0.0 0.0 0.0 0.0 0.0 ))
(( 0.0 0.0 0.0 0.0 0.0 )
( 0.0 0.0 0.0 0.0 0.0 ))
(( 0.0 0.0 0.0 0.0 0.0 )
( 0.0 0.0 0.0 0.0 0.0 ))
(( 0.0 0.0 0.0 0.0 0.0 )
( 0.0 0.0 0.0 0.0 0.0 ))
(( 0.0 0.0 0.0 0.0 0.0 )
( 0.0 0.0 0.0 0.0 0.0 )))
((( 0.0 0.0 0.0 0.0 0.0 )
( 0.0 0.0 0.0 0.0 0.0 ))
(( 0.0 0.0 0.0 0.0 0.0 )
( 0.0 0.0 0.0 0.0 0.0 ))
(( 0.0 0.0 0.0 0.0 0.0 )
( 0.0 0.0 0.0 0.0 0.0 ))
(( 0.0 0.0 0.0 0.0 0.0 )
( 0.0 0.0 0.0 0.0 0.0 ))
(( 0.0 0.0 0.0 0.0 0.0 )
( 0.0 0.0 0.0 0.0 0.0 )))
((( 0.0 0.0 0.0 0.0 0.0 )
( 0.0 0.0 0.0 0.0 0.0 ))
(( 0.0 0.0 0.0 0.0 0.0 )
( 0.0 0.0 0.0 0.0 0.0 ))
(( 0.0 0.0 0.0 0.0 0.0 )
( 0.0 0.0 0.0 0.0 0.0 ))
(( 0.0 0.0 0.0 0.0 0.0 )
( 0.0 0.0 0.0 0.0 0.0 ))
(( 0.0 0.0 0.0 0.0 0.0 )
( 0.0 0.0 0.0 0.0 0.0 )))
((( 0.0 0.0 0.0 0.0 0.0 )
( 0.0 0.0 0.0 0.0 0.0 ))
(( 0.0 0.0 0.0 0.0 0.0 )
( 0.0 0.0 0.0 0.0 0.0 ))
(( 0.0 0.0 0.0 0.0 0.0 )
( 0.0 0.0 0.0 0.0 0.0 ))
(( 0.0 0.0 0.0 0.0 0.0 )
( 0.0 0.0 0.0 0.0 0.0 ))
(( 0.0 0.0 0.0 0.0 0.0 )
( 0.0 0.0 0.0 0.0 0.0 )))
((( 0.0 0.0 0.0 0.0 0.0 )
( 0.0 0.0 0.0 0.0 0.0 ))
(( 0.0 0.0 0.0 0.0 0.0 )
( 0.0 0.0 0.0 0.0 0.0 ))
(( 0.0 0.0 0.0 0.0 0.0 )
( 0.0 0.0 0.0 0.0 0.0 ))
(( 0.0 0.0 0.0 0.0 0.0 )
( 0.0 0.0 0.0 0.0 0.0 ))
(( 0.0 0.0 0.0 0.0 0.0 )
( 0.0 0.0 0.0 0.0 0.0 ))))
(((( 0.0 0.0 0.0 0.0 0.0 )
( 0.0 0.0 0.0 0.0 0.0 ))
(( 0.0 0.0 0.0 0.0 0.0 )
( 0.0 0.0 0.0 0.0 0.0 ))
(( 0.0 0.0 0.0 0.0 0.0 )
( 0.0 0.0 0.0 0.0 0.0 ))
(( 0.0 0.0 0.0 0.0 0.0 )
( 0.0 0.0 0.0 0.0 0.0 ))
(( 0.0 0.0 0.0 0.0 0.0 )
( 0.0 0.0 0.0 0.0 0.0 )))
((( 0.0 0.0 0.0 0.0 0.0 )
( 0.0 0.0 0.0 0.0 0.0 ))
(( 0.0 0.0 0.0 0.0 0.0 )
( 0.0 0.0 0.0 0.0 0.0 ))
(( 0.0 0.0 0.0 0.0 0.0 )
( 0.0 0.0 0.0 0.0 0.0 ))
(( 0.0 0.0 0.0 0.0 0.0 )
( 0.0 0.0 0.0 0.0 0.0 ))
(( 0.0 0.0 0.0 0.0 0.0 )
( 0.0 0.0 0.0 0.0 0.0 )))
((( 0.0 0.0 0.0 0.0 0.0 )
( 0.0 0.0 0.0 0.0 0.0 ))
(( 0.0 0.0 0.0 0.0 0.0 )
( 0.0 0.0 0.0 0.0 0.0 ))
(( 0.0 0.0 0.0 0.0 0.0 )
( 0.0 0.0 0.0 0.0 0.0 ))
(( 0.0 0.0 0.0 0.0 0.0 )
( 0.0 0.0 0.0 0.0 0.0 ))
(( 0.0 0.0 0.0 0.0 0.0 )
( 0.0 0.0 0.0 0.0 0.0 )))
((( 0.0 0.0 0.0 0.0 0.0 )
( 0.0 0.0 0.0 0.0 0.0 ))
(( 0.0 0.0 0.0 0.0 0.0 )
( 0.0 0.0 0.0 0.0 0.0 ))
(( 0.0 0.0 0.0 0.0 0.0 )
( 0.0 0.0 0.0 0.0 0.0 ))
(( 0.0 0.0 0.0 0.0 0.0 )
( 0.0 0.0 0.0 0.0 0.0 ))
(( 0.0 0.0 0.0 0.0 0.0 )
( 0.0 0.0 0.0 0.0 0.0 )))
((( 0.0 0.0 0.0 0.0 0.0 )
( 0.0 0.0 0.0 0.0 0.0 ))
(( 0.0 0.0 0.0 0.0 0.0 )
( 0.0 0.0 0.0 0.0 0.0 ))
(( 0.0 0.0 0.0 0.0 0.0 )
( 0.0 0.0 0.0 0.0 0.0 ))
(( 0.0 0.0 0.0 0.0 0.0 )
( 0.0 0.0 0.0 0.0 0.0 ))
(( 0.0 0.0 0.0 0.0 0.0 )
( 0.0 0.0 0.0 0.0 0.0 )))))
((((( 0.0 0.0 0.0 0.0 0.0 )
( 0.0 0.0 0.0 0.0 0.0 ))
(( 0.0 0.0 0.0 0.0 0.0 )
( 0.0 0.0 0.0 0.0 0.0 ))
(( 0.0 0.0 0.0 0.0 0.0 )
( 0.0 0.0 0.0 0.0 0.0 ))
(( 0.0 0.0 0.0 0.0 0.0 )
( 0.0 0.0 0.0 0.0 0.0 ))
(( 0.0 0.0 0.0 0.0 0.0 )
( 0.0 0.0 0.0 0.0 0.0 )))
((( 0.0 0.0 0.0 0.0 0.0 )
( 0.0 0.0 0.0 0.0 0.0 ))
(( 0.0 0.0 0.0 0.0 0.0 )
( 0.0 0.0 0.0 0.0 0.0 ))
(( 0.0 0.0 0.0 0.0 0.0 )
( 0.0 0.0 0.0 0.0 0.0 ))
(( 0.0 0.0 0.0 0.0 0.0 )
( 0.0 0.0 0.0 0.0 0.0 ))
(( 0.0 0.0 0.0 0.0 0.0 )
( 0.0 0.0 0.0 0.0 0.0 )))
((( 0.0 0.0 0.0 0.0 0.0 )
( 0.0 0.0 0.0 0.0 0.0 ))
(( 0.0 0.0 0.0 0.0 0.0 )
( 0.0 0.0 0.0 0.0 0.0 ))
(( 0.0 0.0 0.0 0.0 0.0 )
( 0.0 0.0 0.0 0.0 0.0 ))
(( 0.0 0.0 0.0 0.0 0.0 )
( 0.0 0.0 0.0 0.0 0.0 ))
(( 0.0 0.0 0.0 0.0 0.0 )
( 0.0 0.0 0.0 0.0 0.0 )))
((( 0.0 0.0 0.0 0.0 0.0 )
( 0.0 0.0 0.0 0.0 0.0 ))
(( 0.0 0.0 0.0 0.0 0.0 )
( 0.0 0.0 0.0 0.0 0.0 ))
(( 0.0 0.0 0.0 0.0 0.0 )
( 0.0 0.0 0.0 0.0 0.0 ))
(( 0.0 0.0 0.0 0.0 0.0 )
( 0.0 0.0 0.0 0.0 0.0 ))
(( 0.0 0.0 0.0 0.0 0.0 )
( 0.0 0.0 0.0 0.0 0.0 )))
((( 0.0 0.0 0.0 0.0 0.0 )
( 0.0 0.0 0.0 0.0 0.0 ))
(( 0.0 0.0 0.0 0.0 0.0 )
( 0.0 0.0 0.0 0.0 0.0 ))
(( 0.0 0.0 0.0 0.0 0.0 )
( 0.0 0.0 0.0 0.0 0.0 ))
(( 0.0 0.0 0.0 0.0 0.0 )
( 0.0 0.0 0.0 0.0 0.0 ))
(( 0.0 0.0 0.0 0.0 0.0 )
( 0.0 0.0 0.0 0.0 0.0 ))))
(((( 0.0 0.0 0.0 0.0 0.0 )
( 0.0 0.0 0.0 0.0 0.0 ))
(( 0.0 0.0 0.0 0.0 0.0 )
( 0.0 0.0 0.0 0.0 0.0 ))
(( 0.0 0.0 0.0 0.0 0.0 )
( 0.0 0.0 0.0 0.0 0.0 ))
(( 0.0 0.0 0.0 0.0 0.0 )
( 0.0 0.0 0.0 0.0 0.0 ))
(( 0.0 0.0 0.0 0.0 0.0 )
( 0.0 0.0 0.0 0.0 0.0 )))
((( 0.0 0.0 0.0 0.0 0.0 )
( 0.0 0.0 0.0 0.0 0.0 ))
(( 0.0 0.0 0.0 0.0 0.0 )
( 0.0 0.0 0.0 0.0 0.0 ))
(( 0.0 0.0 0.0 0.0 0.0 )
( 0.0 0.0 0.0 0.0 0.0 ))
(( 0.0 0.0 0.0 0.0 0.0 )
( 0.0 0.0 0.0 0.0 0.0 ))
(( 0.0 0.0 0.0 0.0 0.0 )
( 0.0 0.0 0.0 0.0 0.0 )))
((( 0.0 0.0 0.0 0.0 0.0 )
( 0.0 0.0 0.0 0.0 0.0 ))
(( 0.0 0.0 0.0 0.0 0.0 )
( 0.0 0.0 0.0 0.0 0.0 ))
(( 0.0 0.0 0.0 0.0 0.0 )
( 0.0 0.0 0.0 0.0 0.0 ))
(( 0.0 0.0 0.0 0.0 0.0 )
( 0.0 0.0 0.0 0.0 0.0 ))
(( 0.0 0.0 0.0 0.0 0.0 )
( 0.0 0.0 0.0 0.0 0.0 )))
((( 0.0 0.0 0.0 0.0 0.0 )
( 0.0 0.0 0.0 0.0 0.0 ))
(( 0.0 0.0 0.0 0.0 0.0 )
( 0.0 0.0 0.0 0.0 0.0 ))
(( 0.0 0.0 0.0 0.0 0.0 )
( 0.0 0.0 0.0 0.0 0.0 ))
(( 0.0 0.0 0.0 0.0 0.0 )
( 0.0 0.0 0.0 0.0 0.0 ))
(( 0.0 0.0 0.0 0.0 0.0 )
( 0.0 0.0 0.0 0.0 0.0 )))
((( 0.0 0.0 0.0 0.0 0.0 )
( 0.0 0.0 0.0 0.0 0.0 ))
(( 0.0 0.0 0.0 0.0 0.0 )
( 0.0 0.0 0.0 0.0 0.0 ))
(( 0.0 0.0 0.0 0.0 0.0 )
( 0.0 0.0 0.0 0.0 0.0 ))
(( 0.0 0.0 0.0 0.0 0.0 )
( 0.0 0.0 0.0 0.0 0.0 ))
(( 0.0 0.0 0.0 0.0 0.0 )
( 0.0 0.0 0.0 0.0 0.0 ))))
(((( 0.0 0.0 0.0 0.0 0.0 )
( 0.0 0.0 0.0 0.0 0.0 ))
(( 0.0 0.0 0.0 0.0 0.0 )
( 0.0 0.0 0.0 0.0 0.0 ))
(( 0.0 0.0 0.0 0.0 0.0 )
( 0.0 0.0 0.0 0.0 0.0 ))
(( 0.0 0.0 0.0 0.0 0.0 )
( 0.0 0.0 0.0 0.0 0.0 ))
(( 0.0 0.0 0.0 0.0 0.0 )
( 0.0 0.0 0.0 0.0 0.0 )))
((( 0.0 0.0 0.0 0.0 0.0 )
( 0.0 0.0 0.0 0.0 0.0 ))
(( 0.0 0.0 0.0 0.0 0.0 )
( 0.0 0.0 0.0 0.0 0.0 ))
(( 0.0 0.0 0.0 0.0 0.0 )
( 0.0 0.0 0.0 0.0 0.0 ))
(( 0.0 0.0 0.0 0.0 0.0 )
( 0.0 0.0 0.0 0.0 0.0 ))
(( 0.0 0.0 0.0 0.0 0.0 )
( 0.0 0.0 0.0 0.0 0.0 )))
((( 0.0 0.0 0.0 0.0 0.0 )
( 0.0 0.0 0.0 0.0 0.0 ))
(( 0.0 0.0 0.0 0.0 0.0 )
( 0.0 0.0 0.0 0.0 0.0 ))
(( 0.0 0.0 0.0 0.0 0.0 )
( 0.0 0.0 0.0 0.0 0.0 ))
(( 0.0 0.0 0.0 0.0 0.0 )
( 0.0 0.0 0.0 0.0 0.0 ))
(( 0.0 0.0 0.0 0.0 0.0 )
( 0.0 0.0 0.0 0.0 0.0 )))
((( 0.0 0.0 0.0 0.0 0.0 )
( 0.0 0.0 0.0 0.0 0.0 ))
(( 0.0 0.0 0.0 0.0 0.0 )
( 0.0 0.0 0.0 0.0 0.0 ))
(( 0.0 0.0 0.0 0.0 0.0 )
( 0.0 0.0 0.0 0.0 0.0 ))
(( 0.0 0.0 0.0 0.0 0.0 )
( 0.0 0.0 0.0 0.0 0.0 ))
(( 0.0 0.0 0.0 0.0 0.0 )
( 0.0 0.0 0.0 0.0 0.0 )))
((( 0.0 0.0 0.0 0.0 0.0 )
( 0.0 0.0 0.0 0.0 0.0 ))
(( 0.0 0.0 0.0 0.0 0.0 )
( 0.0 0.0 0.0 0.0 0.0 ))
(( 0.0 0.0 0.0 0.0 0.0 )
( 0.0 0.0 0.0 0.0 0.0 ))
(( 0.0 0.0 0.0 0.0 0.0 )
( 0.0 0.0 0.0 0.0 0.0 ))
(( 0.0 0.0 0.0 0.0 0.0 )
( 0.0 0.0 0.0 0.0 0.0 ))))
(((( 0.0 0.0 0.0 0.0 0.0 )
( 0.0 0.0 0.0 0.0 0.0 ))
(( 0.0 0.0 0.0 0.0 0.0 )
( 0.0 0.0 0.0 0.0 0.0 ))
(( 0.0 0.0 0.0 0.0 0.0 )
( 0.0 0.0 0.0 0.0 0.0 ))
(( 0.0 0.0 0.0 0.0 0.0 )
( 0.0 0.0 0.0 0.0 0.0 ))
(( 0.0 0.0 0.0 0.0 0.0 )
( 0.0 0.0 0.0 0.0 0.0 )))
((( 0.0 0.0 0.0 0.0 0.0 )
( 0.0 0.0 0.0 0.0 0.0 ))
(( 0.0 0.0 0.0 0.0 0.0 )
( 0.0 0.0 0.0 0.0 0.0 ))
(( 0.0 0.0 0.0 0.0 0.0 )
( 0.0 0.0 0.0 0.0 0.0 ))
(( 0.0 0.0 0.0 0.0 0.0 )
( 0.0 0.0 0.0 0.0 0.0 ))
(( 0.0 0.0 0.0 0.0 0.0 )
( 0.0 0.0 0.0 0.0 0.0 )))
((( 0.0 0.0 0.0 0.0 0.0 )
( 0.0 0.0 0.0 0.0 0.0 ))
(( 0.0 0.0 0.0 0.0 0.0 )
( 0.0 0.0 0.0 0.0 0.0 ))
(( 0.0 0.0 0.0 0.0 0.0 )
( 0.0 0.0 0.0 0.0 0.0 ))
(( 0.0 0.0 0.0 0.0 0.0 )
( 0.0 0.0 0.0 0.0 0.0 ))
(( 0.0 0.0 0.0 0.0 0.0 )
( 0.0 0.0 0.0 0.0 0.0 )))
((( 0.0 0.0 0.0 0.0 0.0 )
( 0.0 0.0 0.0 0.0 0.0 ))
(( 0.0 0.0 0.0 0.0 0.0 )
( 0.0 0.0 0.0 0.0 0.0 ))
(( 0.0 0.0 0.0 0.0 0.0 )
( 0.0 0.0 0.0 0.0 0.0 ))
(( 0.0 0.0 0.0 0.0 0.0 )
( 0.0 0.0 0.0 0.0 0.0 ))
(( 0.0 0.0 0.0 0.0 0.0 )
( 0.0 0.0 0.0 0.0 0.0 )))
((( 0.0 0.0 0.0 0.0 0.0 )
( 0.0 0.0 0.0 0.0 0.0 ))
(( 0.0 0.0 0.0 0.0 0.0 )
( 0.0 0.0 0.0 0.0 0.0 ))
(( 0.0 0.0 0.0 0.0 0.0 )
( 0.0 0.0 0.0 0.0 0.0 ))
(( 0.0 0.0 0.0 0.0 0.0 )
( 0.0 0.0 0.0 0.0 0.0 ))
(( 0.0 0.0 0.0 0.0 0.0 )
( 0.0 0.0 0.0 0.0 0.0 ))))
(((( 0.0 0.0 0.0 0.0 0.0 )
( 0.0 0.0 0.0 0.0 0.0 ))
(( 0.0 0.0 0.0 0.0 0.0 )
( 0.0 0.0 0.0 0.0 0.0 ))
(( 0.0 0.0 0.0 0.0 0.0 )
( 0.0 0.0 0.0 0.0 0.0 ))
(( 0.0 0.0 0.0 0.0 0.0 )
( 0.0 0.0 0.0 0.0 0.0 ))
(( 0.0 0.0 0.0 0.0 0.0 )
( 0.0 0.0 0.0 0.0 0.0 )))
((( 0.0 0.0 0.0 0.0 0.0 )
( 0.0 0.0 0.0 0.0 0.0 ))
(( 0.0 0.0 0.0 0.0 0.0 )
( 0.0 0.0 0.0 0.0 0.0 ))
(( 0.0 0.0 0.0 0.0 0.0 )
( 0.0 0.0 0.0 0.0 0.0 ))
(( 0.0 0.0 0.0 0.0 0.0 )
( 0.0 0.0 0.0 0.0 0.0 ))
(( 0.0 0.0 0.0 0.0 0.0 )
( 0.0 0.0 0.0 0.0 0.0 )))
((( 0.0 0.0 0.0 0.0 0.0 )
( 0.0 0.0 0.0 0.0 0.0 ))
(( 0.0 0.0 0.0 0.0 0.0 )
( 0.0 0.0 0.0 0.0 0.0 ))
(( 0.0 0.0 0.0 0.0 0.0 )
( 0.0 0.0 0.0 0.0 0.0 ))
(( 0.0 0.0 0.0 0.0 0.0 )
( 0.0 0.0 0.0 0.0 0.0 ))
(( 0.0 0.0 0.0 0.0 0.0 )
( 0.0 0.0 0.0 0.0 0.0 )))
((( 0.0 0.0 0.0 0.0 0.0 )
( 0.0 0.0 0.0 0.0 0.0 ))
(( 0.0 0.0 0.0 0.0 0.0 )
( 0.0 0.0 0.0 0.0 0.0 ))
(( 0.0 0.0 0.0 0.0 0.0 )
( 0.0 0.0 0.0 0.0 0.0 ))
(( 0.0 0.0 0.0 0.0 0.0 )
( 0.0 0.0 0.0 0.0 0.0 ))
(( 0.0 0.0 0.0 0.0 0.0 )
( 0.0 0.0 0.0 0.0 0.0 )))
((( 0.0 0.0 0.0 0.0 0.0 )
( 0.0 0.0 0.0 0.0 0.0 ))
(( 0.0 0.0 0.0 0.0 0.0 )
( 0.0 0.0 0.0 0.0 0.0 ))
(( 0.0 0.0 0.0 0.0 0.0 )
( 0.0 0.0 0.0 0.0 0.0 ))
(( 0.0 0.0 0.0 0.0 0.0 )
( 0.0 0.0 0.0 0.0 0.0 ))
(( 0.0 0.0 0.0 0.0 0.0 )
( 0.0 0.0 0.0 0.0 0.0 )))))
((((( 0.0 0.0 0.0 0.0 0.0 )
( 0.0 0.0 0.0 0.0 0.0 ))
(( 0.0 0.0 0.0 0.0 0.0 )
( 0.0 0.0 0.0 0.0 0.0 ))
(( 0.0 0.0 0.0 0.0 0.0 )
( 0.0 0.0 0.0 0.0 0.0 ))
(( 0.0 0.0 0.0 0.0 0.0 )
( 0.0 0.0 0.0 0.0 0.0 ))
(( 0.0 0.0 0.0 0.0 0.0 )
( 0.0 0.0 0.0 0.0 0.0 )))
((( 0.0 0.0 0.0 0.0 0.0 )
( 0.0 0.0 0.0 0.0 0.0 ))
(( 0.0 0.0 0.0 0.0 0.0 )
( 0.0 0.0 0.0 0.0 0.0 ))
(( 0.0 0.0 0.0 0.0 0.0 )
( 0.0 0.0 0.0 0.0 0.0 ))
(( 0.0 0.0 0.0 0.0 0.0 )
( 0.0 0.0 0.0 0.0 0.0 ))
(( 0.0 0.0 0.0 0.0 0.0 )
( 0.0 0.0 0.0 0.0 0.0 )))
((( 0.0 0.0 0.0 0.0 0.0 )
( 0.0 0.0 0.0 0.0 0.0 ))
(( 0.0 0.0 0.0 0.0 0.0 )
( 0.0 0.0 0.0 0.0 0.0 ))
(( 0.0 0.0 0.0 0.0 0.0 )
( 0.0 0.0 0.0 0.0 0.0 ))
(( 0.0 0.0 0.0 0.0 0.0 )
( 0.0 0.0 0.0 0.0 0.0 ))
(( 0.0 0.0 0.0 0.0 0.0 )
( 0.0 0.0 0.0 0.0 0.0 )))
((( 0.0 0.0 0.0 0.0 0.0 )
( 0.0 0.0 0.0 0.0 0.0 ))
(( 0.0 0.0 0.0 0.0 0.0 )
( 0.0 0.0 0.0 0.0 0.0 ))
(( 0.0 0.0 0.0 0.0 0.0 )
( 0.0 0.0 0.0 0.0 0.0 ))
(( 0.0 0.0 0.0 0.0 0.0 )
( 0.0 0.0 0.0 0.0 0.0 ))
(( 0.0 0.0 0.0 0.0 0.0 )
( 0.0 0.0 0.0 0.0 0.0 )))
((( 0.0 0.0 0.0 0.0 0.0 )
( 0.0 0.0 0.0 0.0 0.0 ))
(( 0.0 0.0 0.0 0.0 0.0 )
( 0.0 0.0 0.0 0.0 0.0 ))
(( 0.0 0.0 0.0 0.0 0.0 )
( 0.0 0.0 0.0 0.0 0.0 ))
(( 0.0 0.0 0.0 0.0 0.0 )
( 0.0 0.0 0.0 0.0 0.0 ))
(( 0.0 0.0 0.0 0.0 0.0 )
( 0.0 0.0 0.0 0.0 0.0 ))))
(((( 0.0 0.0 0.0 0.0 0.0 )
( 0.0 0.0 0.0 0.0 0.0 ))
(( 0.0 0.0 0.0 0.0 0.0 )
( 0.0 0.0 0.0 0.0 0.0 ))
(( 0.0 0.0 0.0 0.0 0.0 )
( 0.0 0.0 0.0 0.0 0.0 ))
(( 0.0 0.0 0.0 0.0 0.0 )
( 0.0 0.0 0.0 0.0 0.0 ))
(( 0.0 0.0 0.0 0.0 0.0 )
( 0.0 0.0 0.0 0.0 0.0 )))
((( 0.0 0.0 0.0 0.0 0.0 )
( 0.0 0.0 0.0 0.0 0.0 ))
(( 0.0 0.0 0.0 0.0 0.0 )
( 0.0 0.0 0.0 0.0 0.0 ))
(( 0.0 0.0 0.0 0.0 0.0 )
( 0.0 0.0 0.0 0.0 0.0 ))
(( 0.0 0.0 0.0 0.0 0.0 )
( 0.0 0.0 0.0 0.0 0.0 ))
(( 0.0 0.0 0.0 0.0 0.0 )
( 0.0 0.0 0.0 0.0 0.0 )))
((( 0.0 0.0 0.0 0.0 0.0 )
( 0.0 0.0 0.0 0.0 0.0 ))
(( 0.0 0.0 0.0 0.0 0.0 )
( 0.0 0.0 0.0 0.0 0.0 ))
(( 0.0 0.0 0.0 0.0 0.0 )
( 0.0 0.0 0.0 0.0 0.0 ))
(( 0.0 0.0 0.0 0.0 0.0 )
( 0.0 0.0 0.0 0.0 0.0 ))
(( 0.0 0.0 0.0 0.0 0.0 )
( 0.0 0.0 0.0 0.0 0.0 )))
((( 0.0 0.0 0.0 0.0 0.0 )
( 0.0 0.0 0.0 0.0 0.0 ))
(( 0.0 0.0 0.0 0.0 0.0 )
( 0.0 0.0 0.0 0.0 0.0 ))
(( 0.0 0.0 0.0 0.0 0.0 )
( 0.0 0.0 0.0 0.0 0.0 ))
(( 0.0 0.0 0.0 0.0 0.0 )
( 0.0 0.0 0.0 0.0 0.0 ))
(( 0.0 0.0 0.0 0.0 0.0 )
( 0.0 0.0 0.0 0.0 0.0 )))
((( 0.0 0.0 0.0 0.0 0.0 )
( 0.0 0.0 0.0 0.0 0.0 ))
(( 0.0 0.0 0.0 0.0 0.0 )
( 0.0 0.0 0.0 0.0 0.0 ))
(( 0.0 0.0 0.0 0.0 0.0 )
( 0.0 0.0 0.0 0.0 0.0 ))
(( 0.0 0.0 0.0 0.0 0.0 )
( 0.0 0.0 0.0 0.0 0.0 ))
(( 0.0 0.0 0.0 0.0 0.0 )
( 0.0 0.0 0.0 0.0 0.0 ))))
(((( 0.0 0.0 0.0 0.0 0.0 )
( 0.0 0.0 0.0 0.0 0.0 ))
(( 0.0 0.0 0.0 0.0 0.0 )
( 0.0 0.0 0.0 0.0 0.0 ))
(( 0.0 0.0 0.0 0.0 0.0 )
( 0.0 0.0 0.0 0.0 0.0 ))
(( 0.0 0.0 0.0 0.0 0.0 )
( 0.0 0.0 0.0 0.0 0.0 ))
(( 0.0 0.0 0.0 0.0 0.0 )
( 0.0 0.0 0.0 0.0 0.0 )))
((( 0.0 0.0 0.0 0.0 0.0 )
( 0.0 0.0 0.0 0.0 0.0 ))
(( 0.0 0.0 0.0 0.0 0.0 )
( 0.0 0.0 0.0 0.0 0.0 ))
(( 0.0 0.0 0.0 0.0 0.0 )
( 0.0 0.0 0.0 0.0 0.0 ))
(( 0.0 0.0 0.0 0.0 0.0 )
( 0.0 0.0 0.0 0.0 0.0 ))
(( 0.0 0.0 0.0 0.0 0.0 )
( 0.0 0.0 0.0 0.0 0.0 )))
((( 0.0 0.0 0.0 0.0 0.0 )
( 0.0 0.0 0.0 0.0 0.0 ))
(( 0.0 0.0 0.0 0.0 0.0 )
( 0.0 0.0 0.0 0.0 0.0 ))
(( 0.0 0.0 0.0 0.0 0.0 )
( 0.0 0.0 0.0 0.0 0.0 ))
(( 0.0 0.0 0.0 0.0 0.0 )
( 0.0 0.0 0.0 0.0 0.0 ))
(( 0.0 0.0 0.0 0.0 0.0 )
( 0.0 0.0 0.0 0.0 0.0 )))
((( 0.0 0.0 0.0 0.0 0.0 )
( 0.0 0.0 0.0 0.0 0.0 ))
(( 0.0 0.0 0.0 0.0 0.0 )
( 0.0 0.0 0.0 0.0 0.0 ))
(( 0.0 0.0 0.0 0.0 0.0 )
( 0.0 0.0 0.0 0.0 0.0 ))
(( 0.0 0.0 0.0 0.0 0.0 )
( 0.0 0.0 0.0 0.0 0.0 ))
(( 0.0 0.0 0.0 0.0 0.0 )
( 0.0 0.0 0.0 0.0 0.0 )))
((( 0.0 0.0 0.0 0.0 0.0 )
( 0.0 0.0 0.0 0.0 0.0 ))
(( 0.0 0.0 0.0 0.0 0.0 )
( 0.0 0.0 0.0 0.0 0.0 ))
(( 0.0 0.0 0.0 0.0 0.0 )
( 0.0 0.0 0.0 0.0 0.0 ))
(( 0.0 0.0 0.0 0.0 0.0 )
( 0.0 0.0 0.0 0.0 0.0 ))
(( 0.0 0.0 0.0 0.0 0.0 )
( 0.0 0.0 0.0 0.0 0.0 ))))
(((( 0.0 0.0 0.0 0.0 0.0 )
( 0.0 0.0 0.0 0.0 0.0 ))
(( 0.0 0.0 0.0 0.0 0.0 )
( 0.0 0.0 0.0 0.0 0.0 ))
(( 0.0 0.0 0.0 0.0 0.0 )
( 0.0 0.0 0.0 0.0 0.0 ))
(( 0.0 0.0 0.0 0.0 0.0 )
( 0.0 0.0 0.0 0.0 0.0 ))
(( 0.0 0.0 0.0 0.0 0.0 )
( 0.0 0.0 0.0 0.0 0.0 )))
((( 0.0 0.0 0.0 0.0 0.0 )
( 0.0 0.0 0.0 0.0 0.0 ))
(( 0.0 0.0 0.0 0.0 0.0 )
( 0.0 0.0 0.0 0.0 0.0 ))
(( 0.0 0.0 0.0 0.0 0.0 )
( 0.0 0.0 0.0 0.0 0.0 ))
(( 0.0 0.0 0.0 0.0 0.0 )
( 0.0 0.0 0.0 0.0 0.0 ))
(( 0.0 0.0 0.0 0.0 0.0 )
( 0.0 0.0 0.0 0.0 0.0 )))
((( 0.0 0.0 0.0 0.0 0.0 )
( 0.0 0.0 0.0 0.0 0.0 ))
(( 0.0 0.0 0.0 0.0 0.0 )
( 0.0 0.0 0.0 0.0 0.0 ))
(( 0.0 0.0 0.0 0.0 0.0 )
( 0.0 0.0 0.0 0.0 0.0 ))
(( 0.0 0.0 0.0 0.0 0.0 )
( 0.0 0.0 0.0 0.0 0.0 ))
(( 0.0 0.0 0.0 0.0 0.0 )
( 0.0 0.0 0.0 0.0 0.0 )))
((( 0.0 0.0 0.0 0.0 0.0 )
( 0.0 0.0 0.0 0.0 0.0 ))
(( 0.0 0.0 0.0 0.0 0.0 )
( 0.0 0.0 0.0 0.0 0.0 ))
(( 0.0 0.0 0.0 0.0 0.0 )
( 0.0 0.0 0.0 0.0 0.0 ))
(( 0.0 0.0 0.0 0.0 0.0 )
( 0.0 0.0 0.0 0.0 0.0 ))
(( 0.0 0.0 0.0 0.0 0.0 )
( 0.0 0.0 0.0 0.0 0.0 )))
((( 0.0 0.0 0.0 0.0 0.0 )
( 0.0 0.0 0.0 0.0 0.0 ))
(( 0.0 0.0 0.0 0.0 0.0 )
( 0.0 0.0 0.0 0.0 0.0 ))
(( 0.0 0.0 0.0 0.0 0.0 )
( 0.0 0.0 0.0 0.0 0.0 ))
(( 0.0 0.0 0.0 0.0 0.0 )
( 0.0 0.0 0.0 0.0 0.0 ))
(( 0.0 0.0 0.0 0.0 0.0 )
( 0.0 0.0 0.0 0.0 0.0 ))))
(((( 0.0 0.0 0.0 0.0 0.0 )
( 0.0 0.0 0.0 0.0 0.0 ))
(( 0.0 0.0 0.0 0.0 0.0 )
( 0.0 0.0 0.0 0.0 0.0 ))
(( 0.0 0.0 0.0 0.0 0.0 )
( 0.0 0.0 0.0 0.0 0.0 ))
(( 0.0 0.0 0.0 0.0 0.0 )
( 0.0 0.0 0.0 0.0 0.0 ))
(( 0.0 0.0 0.0 0.0 0.0 )
( 0.0 0.0 0.0 0.0 0.0 )))
((( 0.0 0.0 0.0 0.0 0.0 )
( 0.0 0.0 0.0 0.0 0.0 ))
(( 0.0 0.0 0.0 0.0 0.0 )
( 0.0 0.0 0.0 0.0 0.0 ))
(( 0.0 0.0 0.0 0.0 0.0 )
( 0.0 0.0 0.0 0.0 0.0 ))
(( 0.0 0.0 0.0 0.0 0.0 )
( 0.0 0.0 0.0 0.0 0.0 ))
(( 0.0 0.0 0.0 0.0 0.0 )
( 0.0 0.0 0.0 0.0 0.0 )))
((( 0.0 0.0 0.0 0.0 0.0 )
( 0.0 0.0 0.0 0.0 0.0 ))
(( 0.0 0.0 0.0 0.0 0.0 )
( 0.0 0.0 0.0 0.0 0.0 ))
(( 0.0 0.0 0.0 0.0 0.0 )
( 0.0 0.0 0.0 0.0 0.0 ))
(( 0.0 0.0 0.0 0.0 0.0 )
( 0.0 0.0 0.0 0.0 0.0 ))
(( 0.0 0.0 0.0 0.0 0.0 )
( 0.0 0.0 0.0 0.0 0.0 )))
((( 0.0 0.0 0.0 0.0 0.0 )
( 0.0 0.0 0.0 0.0 0.0 ))
(( 0.0 0.0 0.0 0.0 0.0 )
( 0.0 0.0 0.0 0.0 0.0 ))
(( 0.0 0.0 0.0 0.0 0.0 )
( 0.0 0.0 0.0 0.0 0.0 ))
(( 0.0 0.0 0.0 0.0 0.0 )
( 0.0 0.0 0.0 0.0 0.0 ))
(( 0.0 0.0 0.0 0.0 0.0 )
( 0.0 0.0 0.0 0.0 0.0 )))
((( 0.0 0.0 0.0 0.0 0.0 )
( 0.0 0.0 0.0 0.0 0.0 ))
(( 0.0 0.0 0.0 0.0 0.0 )
( 0.0 0.0 0.0 0.0 0.0 ))
(( 0.0 0.0 0.0 0.0 0.0 )
( 0.0 0.0 0.0 0.0 0.0 ))
(( 0.0 0.0 0.0 0.0 0.0 )
( 0.0 0.0 0.0 0.0 0.0 ))
(( 0.0 0.0 0.0 0.0 0.0 )
( 0.0 0.0 0.0 0.0 0.0 ))))))
(((((( 0.2 0.2 0.2 0.2 0.2 )
( 0.2 0.2 0.2 0.2 0.2 ))
(( 0.2 0.2 0.2 0.2 0.2 )
( 0.2 0.2 0.2 0.2 0.2 ))
(( 0.2 0.2 0.2 0.2 0.2 )
( 0.2 0.2 0.2 0.2 0.2 ))
(( 0.2 0.2 0.2 0.2 0.2 )
( 0.2 0.2 0.2 0.2 0.2 ))
(( 0.2 0.2 0.2 0.2 0.2 )
( 0.2 0.2 0.2 0.2 0.2 )))
((( 0.2 0.2 0.2 0.2 0.2 )
( 0.2 0.2 0.2 0.2 0.2 ))
(( 0.2 0.2 0.2 0.2 0.2 )
( 0.2 0.2 0.2 0.2 0.2 ))
(( 0.2 0.2 0.2 0.2 0.2 )
( 0.2 0.2 0.2 0.2 0.2 ))
(( 0.2 0.2 0.2 0.2 0.2 )
( 0.2 0.2 0.2 0.2 0.2 ))
(( 0.2 0.2 0.2 0.2 0.2 )
( 0.2 0.2 0.2 0.2 0.2 )))
((( 0.0 0.0 0.0 0.0 0.0 )
( 0.0 0.0 0.0 0.0 0.0 ))
(( 0.0 0.0 0.0 0.0 0.0 )
( 0.0 0.0 0.0 0.0 0.0 ))
(( 0.0 0.0 0.0 0.0 0.0 )
( 0.0 0.0 0.0 0.0 0.0 ))
(( 0.0 0.0 0.0 0.0 0.0 )
( 0.0 0.0 0.0 0.0 0.0 ))
(( 0.0 0.0 0.0 0.0 0.0 )
( 0.0 0.0 0.0 0.0 0.0 )))
((( 0.0 0.0 0.0 0.0 0.0 )
( 0.0 0.0 0.0 0.0 0.0 ))
(( 0.0 0.0 0.0 0.0 0.0 )
( 0.0 0.0 0.0 0.0 0.0 ))
(( 0.0 0.0 0.0 0.0 0.0 )
( 0.0 0.0 0.0 0.0 0.0 ))
(( 0.0 0.0 0.0 0.0 0.0 )
( 0.0 0.0 0.0 0.0 0.0 ))
(( 0.0 0.0 0.0 0.0 0.0 )
( 0.0 0.0 0.0 0.0 0.0 )))
((( 0.0 0.0 0.0 0.0 0.0 )
( 0.0 0.0 0.0 0.0 0.0 ))
(( 0.0 0.0 0.0 0.0 0.0 )
( 0.0 0.0 0.0 0.0 0.0 ))
(( 0.0 0.0 0.0 0.0 0.0 )
( 0.0 0.0 0.0 0.0 0.0 ))
(( 0.0 0.0 0.0 0.0 0.0 )
( 0.0 0.0 0.0 0.0 0.0 ))
(( 0.0 0.0 0.0 0.0 0.0 )
( 0.0 0.0 0.0 0.0 0.0 ))))
(((( 0.2 0.2 0.2 0.2 0.2 )
( 0.2 0.2 0.2 0.2 0.2 ))
(( 0.2 0.2 0.2 0.2 0.2 )
( 0.2 0.2 0.2 0.2 0.2 ))
(( 0.2 0.2 0.2 0.2 0.2 )
( 0.2 0.2 0.2 0.2 0.2 ))
(( 0.2 0.2 0.2 0.2 0.2 )
( 0.2 0.2 0.2 0.2 0.2 ))
(( 0.2 0.2 0.2 0.2 0.2 )
( 0.2 0.2 0.2 0.2 0.2 )))
((( 0.2 0.2 0.2 0.2 0.2 )
( 0.2 0.2 0.2 0.2 0.2 ))
(( 0.2 0.2 0.2 0.2 0.2 )
( 0.2 0.2 0.2 0.2 0.2 ))
(( 0.2 0.2 0.2 0.2 0.2 )
( 0.2 0.2 0.2 0.2 0.2 ))
(( 0.2 0.2 0.2 0.2 0.2 )
( 0.2 0.2 0.2 0.2 0.2 ))
(( 0.2 0.2 0.2 0.2 0.2 )
( 0.2 0.2 0.2 0.2 0.2 )))
((( 0.0 0.0 0.0 0.0 0.0 )
( 0.0 0.0 0.0 0.0 0.0 ))
(( 0.0 0.0 0.0 0.0 0.0 )
( 0.0 0.0 0.0 0.0 0.0 ))
(( 0.0 0.0 0.0 0.0 0.0 )
( 0.0 0.0 0.0 0.0 0.0 ))
(( 0.0 0.0 0.0 0.0 0.0 )
( 0.0 0.0 0.0 0.0 0.0 ))
(( 0.0 0.0 0.0 0.0 0.0 )
( 0.0 0.0 0.0 0.0 0.0 )))
((( 0.0 0.0 0.0 0.0 0.0 )
( 0.0 0.0 0.0 0.0 0.0 ))
(( 0.0 0.0 0.0 0.0 0.0 )
( 0.0 0.0 0.0 0.0 0.0 ))
(( 0.0 0.0 0.0 0.0 0.0 )
( 0.0 0.0 0.0 0.0 0.0 ))
(( 0.0 0.0 0.0 0.0 0.0 )
( 0.0 0.0 0.0 0.0 0.0 ))
(( 0.0 0.0 0.0 0.0 0.0 )
( 0.0 0.0 0.0 0.0 0.0 )))
((( 0.0 0.0 0.0 0.0 0.0 )
( 0.0 0.0 0.0 0.0 0.0 ))
(( 0.0 0.0 0.0 0.0 0.0 )
( 0.0 0.0 0.0 0.0 0.0 ))
(( 0.0 0.0 0.0 0.0 0.0 )
( 0.0 0.0 0.0 0.0 0.0 ))
(( 0.0 0.0 0.0 0.0 0.0 )
( 0.0 0.0 0.0 0.0 0.0 ))
(( 0.0 0.0 0.0 0.0 0.0 )
( 0.0 0.0 0.0 0.0 0.0 ))))
(((( 0.2 0.2 0.2 0.2 0.2 )
( 0.2 0.2 0.2 0.2 0.2 ))
(( 0.2 0.2 0.2 0.2 0.2 )
( 0.2 0.2 0.2 0.2 0.2 ))
(( 0.2 0.2 0.2 0.2 0.2 )
( 0.2 0.2 0.2 0.2 0.2 ))
(( 0.2 0.2 0.2 0.2 0.2 )
( 0.2 0.2 0.2 0.2 0.2 ))
(( 0.2 0.2 0.2 0.2 0.2 )
( 0.2 0.2 0.2 0.2 0.2 )))
((( 0.2 0.2 0.2 0.2 0.2 )
( 0.2 0.2 0.2 0.2 0.2 ))
(( 0.2 0.2 0.2 0.2 0.2 )
( 0.2 0.2 0.2 0.2 0.2 ))
(( 0.2 0.2 0.2 0.2 0.2 )
( 0.2 0.2 0.2 0.2 0.2 ))
(( 0.2 0.2 0.2 0.2 0.2 )
( 0.2 0.2 0.2 0.2 0.2 ))
(( 0.2 0.2 0.2 0.2 0.2 )
( 0.2 0.2 0.2 0.2 0.2 )))
((( 0.0 0.0 0.0 0.0 0.0 )
( 0.0 0.0 0.0 0.0 0.0 ))
(( 0.0 0.0 0.0 0.0 0.0 )
( 0.0 0.0 0.0 0.0 0.0 ))
(( 0.0 0.0 0.0 0.0 0.0 )
( 0.0 0.0 0.0 0.0 0.0 ))
(( 0.0 0.0 0.0 0.0 0.0 )
( 0.0 0.0 0.0 0.0 0.0 ))
(( 0.0 0.0 0.0 0.0 0.0 )
( 0.0 0.0 0.0 0.0 0.0 )))
((( 0.0 0.0 0.0 0.0 0.0 )
( 0.0 0.0 0.0 0.0 0.0 ))
(( 0.0 0.0 0.0 0.0 0.0 )
( 0.0 0.0 0.0 0.0 0.0 ))
(( 0.0 0.0 0.0 0.0 0.0 )
( 0.0 0.0 0.0 0.0 0.0 ))
(( 0.0 0.0 0.0 0.0 0.0 )
( 0.0 0.0 0.0 0.0 0.0 ))
(( 0.0 0.0 0.0 0.0 0.0 )
( 0.0 0.0 0.0 0.0 0.0 )))
((( 0.0 0.0 0.0 0.0 0.0 )
( 0.0 0.0 0.0 0.0 0.0 ))
(( 0.0 0.0 0.0 0.0 0.0 )
( 0.0 0.0 0.0 0.0 0.0 ))
(( 0.0 0.0 0.0 0.0 0.0 )
( 0.0 0.0 0.0 0.0 0.0 ))
(( 0.0 0.0 0.0 0.0 0.0 )
( 0.0 0.0 0.0 0.0 0.0 ))
(( 0.0 0.0 0.0 0.0 0.0 )
( 0.0 0.0 0.0 0.0 0.0 ))))
(((( 0.2 0.2 0.2 0.2 0.2 )
( 0.2 0.2 0.2 0.2 0.2 ))
(( 0.2 0.2 0.2 0.2 0.2 )
( 0.2 0.2 0.2 0.2 0.2 ))
(( 0.2 0.2 0.2 0.2 0.2 )
( 0.2 0.2 0.2 0.2 0.2 ))
(( 0.2 0.2 0.2 0.2 0.2 )
( 0.2 0.2 0.2 0.2 0.2 ))
(( 0.2 0.2 0.2 0.2 0.2 )
( 0.2 0.2 0.2 0.2 0.2 )))
((( 0.2 0.2 0.2 0.2 0.2 )
( 0.2 0.2 0.2 0.2 0.2 ))
(( 0.2 0.2 0.2 0.2 0.2 )
( 0.2 0.2 0.2 0.2 0.2 ))
(( 0.2 0.2 0.2 0.2 0.2 )
( 0.2 0.2 0.2 0.2 0.2 ))
(( 0.2 0.2 0.2 0.2 0.2 )
( 0.2 0.2 0.2 0.2 0.2 ))
(( 0.2 0.2 0.2 0.2 0.2 )
( 0.2 0.2 0.2 0.2 0.2 )))
((( 0.0 0.0 0.0 0.0 0.0 )
( 0.0 0.0 0.0 0.0 0.0 ))
(( 0.0 0.0 0.0 0.0 0.0 )
( 0.0 0.0 0.0 0.0 0.0 ))
(( 0.0 0.0 0.0 0.0 0.0 )
( 0.0 0.0 0.0 0.0 0.0 ))
(( 0.0 0.0 0.0 0.0 0.0 )
( 0.0 0.0 0.0 0.0 0.0 ))
(( 0.0 0.0 0.0 0.0 0.0 )
( 0.0 0.0 0.0 0.0 0.0 )))
((( 0.0 0.0 0.0 0.0 0.0 )
( 0.0 0.0 0.0 0.0 0.0 ))
(( 0.0 0.0 0.0 0.0 0.0 )
( 0.0 0.0 0.0 0.0 0.0 ))
(( 0.0 0.0 0.0 0.0 0.0 )
( 0.0 0.0 0.0 0.0 0.0 ))
(( 0.0 0.0 0.0 0.0 0.0 )
( 0.0 0.0 0.0 0.0 0.0 ))
(( 0.0 0.0 0.0 0.0 0.0 )
( 0.0 0.0 0.0 0.0 0.0 )))
((( 0.0 0.0 0.0 0.0 0.0 )
( 0.0 0.0 0.0 0.0 0.0 ))
(( 0.0 0.0 0.0 0.0 0.0 )
( 0.0 0.0 0.0 0.0 0.0 ))
(( 0.0 0.0 0.0 0.0 0.0 )
( 0.0 0.0 0.0 0.0 0.0 ))
(( 0.0 0.0 0.0 0.0 0.0 )
( 0.0 0.0 0.0 0.0 0.0 ))
(( 0.0 0.0 0.0 0.0 0.0 )
( 0.0 0.0 0.0 0.0 0.0 ))))
(((( 0.2 0.2 0.2 0.2 0.2 )
( 0.2 0.2 0.2 0.2 0.2 ))
(( 0.2 0.2 0.2 0.2 0.2 )
( 0.2 0.2 0.2 0.2 0.2 ))
(( 0.2 0.2 0.2 0.2 0.2 )
( 0.2 0.2 0.2 0.2 0.2 ))
(( 0.2 0.2 0.2 0.2 0.2 )
( 0.2 0.2 0.2 0.2 0.2 ))
(( 0.2 0.2 0.2 0.2 0.2 )
( 0.2 0.2 0.2 0.2 0.2 )))
((( 0.2 0.2 0.2 0.2 0.2 )
( 0.2 0.2 0.2 0.2 0.2 ))
(( 0.2 0.2 0.2 0.2 0.2 )
( 0.2 0.2 0.2 0.2 0.2 ))
(( 0.2 0.2 0.2 0.2 0.2 )
( 0.2 0.2 0.2 0.2 0.2 ))
(( 0.2 0.2 0.2 0.2 0.2 )
( 0.2 0.2 0.2 0.2 0.2 ))
(( 0.2 0.2 0.2 0.2 0.2 )
( 0.2 0.2 0.2 0.2 0.2 )))
((( 0.0 0.0 0.0 0.0 0.0 )
( 0.0 0.0 0.0 0.0 0.0 ))
(( 0.0 0.0 0.0 0.0 0.0 )
( 0.0 0.0 0.0 0.0 0.0 ))
(( 0.0 0.0 0.0 0.0 0.0 )
( 0.0 0.0 0.0 0.0 0.0 ))
(( 0.0 0.0 0.0 0.0 0.0 )
( 0.0 0.0 0.0 0.0 0.0 ))
(( 0.0 0.0 0.0 0.0 0.0 )
( 0.0 0.0 0.0 0.0 0.0 )))
((( 0.0 0.0 0.0 0.0 0.0 )
( 0.0 0.0 0.0 0.0 0.0 ))
(( 0.0 0.0 0.0 0.0 0.0 )
( 0.0 0.0 0.0 0.0 0.0 ))
(( 0.0 0.0 0.0 0.0 0.0 )
( 0.0 0.0 0.0 0.0 0.0 ))
(( 0.0 0.0 0.0 0.0 0.0 )
( 0.0 0.0 0.0 0.0 0.0 ))
(( 0.0 0.0 0.0 0.0 0.0 )
( 0.0 0.0 0.0 0.0 0.0 )))
((( 0.0 0.0 0.0 0.0 0.0 )
( 0.0 0.0 0.0 0.0 0.0 ))
(( 0.0 0.0 0.0 0.0 0.0 )
( 0.0 0.0 0.0 0.0 0.0 ))
(( 0.0 0.0 0.0 0.0 0.0 )
( 0.0 0.0 0.0 0.0 0.0 ))
(( 0.0 0.0 0.0 0.0 0.0 )
( 0.0 0.0 0.0 0.0 0.0 ))
(( 0.0 0.0 0.0 0.0 0.0 )
( 0.0 0.0 0.0 0.0 0.0 )))))
((((( 0.2 0.2 0.2 0.2 0.2 )
( 0.2 0.2 0.2 0.2 0.2 ))
(( 0.2 0.2 0.2 0.2 0.2 )
( 0.2 0.2 0.2 0.2 0.2 ))
(( 0.2 0.2 0.2 0.2 0.2 )
( 0.2 0.2 0.2 0.2 0.2 ))
(( 0.2 0.2 0.2 0.2 0.2 )
( 0.2 0.2 0.2 0.2 0.2 ))
(( 0.2 0.2 0.2 0.2 0.2 )
( 0.2 0.2 0.2 0.2 0.2 )))
((( 0.2 0.2 0.2 0.2 0.2 )
( 0.2 0.2 0.2 0.2 0.2 ))
(( 0.2 0.2 0.2 0.2 0.2 )
( 0.2 0.2 0.2 0.2 0.2 ))
(( 0.2 0.2 0.2 0.2 0.2 )
( 0.2 0.2 0.2 0.2 0.2 ))
(( 0.2 0.2 0.2 0.2 0.2 )
( 0.2 0.2 0.2 0.2 0.2 ))
(( 0.2 0.2 0.2 0.2 0.2 )
( 0.2 0.2 0.2 0.2 0.2 )))
((( 0.0 0.0 0.0 0.0 0.0 )
( 0.0 0.0 0.0 0.0 0.0 ))
(( 0.0 0.0 0.0 0.0 0.0 )
( 0.0 0.0 0.0 0.0 0.0 ))
(( 0.0 0.0 0.0 0.0 0.0 )
( 0.0 0.0 0.0 0.0 0.0 ))
(( 0.0 0.0 0.0 0.0 0.0 )
( 0.0 0.0 0.0 0.0 0.0 ))
(( 0.0 0.0 0.0 0.0 0.0 )
( 0.0 0.0 0.0 0.0 0.0 )))
((( 0.0 0.0 0.0 0.0 0.0 )
( 0.0 0.0 0.0 0.0 0.0 ))
(( 0.0 0.0 0.0 0.0 0.0 )
( 0.0 0.0 0.0 0.0 0.0 ))
(( 0.0 0.0 0.0 0.0 0.0 )
( 0.0 0.0 0.0 0.0 0.0 ))
(( 0.0 0.0 0.0 0.0 0.0 )
( 0.0 0.0 0.0 0.0 0.0 ))
(( 0.0 0.0 0.0 0.0 0.0 )
( 0.0 0.0 0.0 0.0 0.0 )))
((( 0.0 0.0 0.0 0.0 0.0 )
( 0.0 0.0 0.0 0.0 0.0 ))
(( 0.0 0.0 0.0 0.0 0.0 )
( 0.0 0.0 0.0 0.0 0.0 ))
(( 0.0 0.0 0.0 0.0 0.0 )
( 0.0 0.0 0.0 0.0 0.0 ))
(( 0.0 0.0 0.0 0.0 0.0 )
( 0.0 0.0 0.0 0.0 0.0 ))
(( 0.0 0.0 0.0 0.0 0.0 )
( 0.0 0.0 0.0 0.0 0.0 ))))
(((( 0.2 0.2 0.2 0.2 0.2 )
( 0.2 0.2 0.2 0.2 0.2 ))
(( 0.2 0.2 0.2 0.2 0.2 )
( 0.2 0.2 0.2 0.2 0.2 ))
(( 0.2 0.2 0.2 0.2 0.2 )
( 0.2 0.2 0.2 0.2 0.2 ))
(( 0.2 0.2 0.2 0.2 0.2 )
( 0.2 0.2 0.2 0.2 0.2 ))
(( 0.2 0.2 0.2 0.2 0.2 )
( 0.2 0.2 0.2 0.2 0.2 )))
((( 0.2 0.2 0.2 0.2 0.2 )
( 0.2 0.2 0.2 0.2 0.2 ))
(( 0.2 0.2 0.2 0.2 0.2 )
( 0.2 0.2 0.2 0.2 0.2 ))
(( 0.2 0.2 0.2 0.2 0.2 )
( 0.2 0.2 0.2 0.2 0.2 ))
(( 0.2 0.2 0.2 0.2 0.2 )
( 0.2 0.2 0.2 0.2 0.2 ))
(( 0.2 0.2 0.2 0.2 0.2 )
( 0.2 0.2 0.2 0.2 0.2 )))
((( 0.0 0.0 0.0 0.0 0.0 )
( 0.0 0.0 0.0 0.0 0.0 ))
(( 0.0 0.0 0.0 0.0 0.0 )
( 0.0 0.0 0.0 0.0 0.0 ))
(( 0.0 0.0 0.0 0.0 0.0 )
( 0.0 0.0 0.0 0.0 0.0 ))
(( 0.0 0.0 0.0 0.0 0.0 )
( 0.0 0.0 0.0 0.0 0.0 ))
(( 0.0 0.0 0.0 0.0 0.0 )
( 0.0 0.0 0.0 0.0 0.0 )))
((( 0.0 0.0 0.0 0.0 0.0 )
( 0.0 0.0 0.0 0.0 0.0 ))
(( 0.0 0.0 0.0 0.0 0.0 )
( 0.0 0.0 0.0 0.0 0.0 ))
(( 0.0 0.0 0.0 0.0 0.0 )
( 0.0 0.0 0.0 0.0 0.0 ))
(( 0.0 0.0 0.0 0.0 0.0 )
( 0.0 0.0 0.0 0.0 0.0 ))
(( 0.0 0.0 0.0 0.0 0.0 )
( 0.0 0.0 0.0 0.0 0.0 )))
((( 0.0 0.0 0.0 0.0 0.0 )
( 0.0 0.0 0.0 0.0 0.0 ))
(( 0.0 0.0 0.0 0.0 0.0 )
( 0.0 0.0 0.0 0.0 0.0 ))
(( 0.0 0.0 0.0 0.0 0.0 )
( 0.0 0.0 0.0 0.0 0.0 ))
(( 0.0 0.0 0.0 0.0 0.0 )
( 0.0 0.0 0.0 0.0 0.0 ))
(( 0.0 0.0 0.0 0.0 0.0 )
( 0.0 0.0 0.0 0.0 0.0 ))))
(((( 0.2 0.2 0.2 0.2 0.2 )
( 0.2 0.2 0.2 0.2 0.2 ))
(( 0.2 0.2 0.2 0.2 0.2 )
( 0.2 0.2 0.2 0.2 0.2 ))
(( 0.2 0.2 0.2 0.2 0.2 )
( 0.2 0.2 0.2 0.2 0.2 ))
(( 0.2 0.2 0.2 0.2 0.2 )
( 0.2 0.2 0.2 0.2 0.2 ))
(( 0.2 0.2 0.2 0.2 0.2 )
( 0.2 0.2 0.2 0.2 0.2 )))
((( 0.2 0.2 0.2 0.2 0.2 )
( 0.2 0.2 0.2 0.2 0.2 ))
(( 0.2 0.2 0.2 0.2 0.2 )
( 0.2 0.2 0.2 0.2 0.2 ))
(( 0.2 0.2 0.2 0.2 0.2 )
( 0.2 0.2 0.2 0.2 0.2 ))
(( 0.2 0.2 0.2 0.2 0.2 )
( 0.2 0.2 0.2 0.2 0.2 ))
(( 0.2 0.2 0.2 0.2 0.2 )
( 0.2 0.2 0.2 0.2 0.2 )))
((( 0.0 0.0 0.0 0.0 0.0 )
( 0.0 0.0 0.0 0.0 0.0 ))
(( 0.0 0.0 0.0 0.0 0.0 )
( 0.0 0.0 0.0 0.0 0.0 ))
(( 0.0 0.0 0.0 0.0 0.0 )
( 0.0 0.0 0.0 0.0 0.0 ))
(( 0.0 0.0 0.0 0.0 0.0 )
( 0.0 0.0 0.0 0.0 0.0 ))
(( 0.0 0.0 0.0 0.0 0.0 )
( 0.0 0.0 0.0 0.0 0.0 )))
((( 0.0 0.0 0.0 0.0 0.0 )
( 0.0 0.0 0.0 0.0 0.0 ))
(( 0.0 0.0 0.0 0.0 0.0 )
( 0.0 0.0 0.0 0.0 0.0 ))
(( 0.0 0.0 0.0 0.0 0.0 )
( 0.0 0.0 0.0 0.0 0.0 ))
(( 0.0 0.0 0.0 0.0 0.0 )
( 0.0 0.0 0.0 0.0 0.0 ))
(( 0.0 0.0 0.0 0.0 0.0 )
( 0.0 0.0 0.0 0.0 0.0 )))
((( 0.0 0.0 0.0 0.0 0.0 )
( 0.0 0.0 0.0 0.0 0.0 ))
(( 0.0 0.0 0.0 0.0 0.0 )
( 0.0 0.0 0.0 0.0 0.0 ))
(( 0.0 0.0 0.0 0.0 0.0 )
( 0.0 0.0 0.0 0.0 0.0 ))
(( 0.0 0.0 0.0 0.0 0.0 )
( 0.0 0.0 0.0 0.0 0.0 ))
(( 0.0 0.0 0.0 0.0 0.0 )
( 0.0 0.0 0.0 0.0 0.0 ))))
(((( 0.2 0.2 0.2 0.2 0.2 )
( 0.2 0.2 0.2 0.2 0.2 ))
(( 0.2 0.2 0.2 0.2 0.2 )
( 0.2 0.2 0.2 0.2 0.2 ))
(( 0.2 0.2 0.2 0.2 0.2 )
( 0.2 0.2 0.2 0.2 0.2 ))
(( 0.2 0.2 0.2 0.2 0.2 )
( 0.2 0.2 0.2 0.2 0.2 ))
(( 0.2 0.2 0.2 0.2 0.2 )
( 0.2 0.2 0.2 0.2 0.2 )))
((( 0.2 0.2 0.2 0.2 0.2 )
( 0.2 0.2 0.2 0.2 0.2 ))
(( 0.2 0.2 0.2 0.2 0.2 )
( 0.2 0.2 0.2 0.2 0.2 ))
(( 0.2 0.2 0.2 0.2 0.2 )
( 0.2 0.2 0.2 0.2 0.2 ))
(( 0.2 0.2 0.2 0.2 0.2 )
( 0.2 0.2 0.2 0.2 0.2 ))
(( 0.2 0.2 0.2 0.2 0.2 )
( 0.2 0.2 0.2 0.2 0.2 )))
((( 0.0 0.0 0.0 0.0 0.0 )
( 0.0 0.0 0.0 0.0 0.0 ))
(( 0.0 0.0 0.0 0.0 0.0 )
( 0.0 0.0 0.0 0.0 0.0 ))
(( 0.0 0.0 0.0 0.0 0.0 )
( 0.0 0.0 0.0 0.0 0.0 ))
(( 0.0 0.0 0.0 0.0 0.0 )
( 0.0 0.0 0.0 0.0 0.0 ))
(( 0.0 0.0 0.0 0.0 0.0 )
( 0.0 0.0 0.0 0.0 0.0 )))
((( 0.0 0.0 0.0 0.0 0.0 )
( 0.0 0.0 0.0 0.0 0.0 ))
(( 0.0 0.0 0.0 0.0 0.0 )
( 0.0 0.0 0.0 0.0 0.0 ))
(( 0.0 0.0 0.0 0.0 0.0 )
( 0.0 0.0 0.0 0.0 0.0 ))
(( 0.0 0.0 0.0 0.0 0.0 )
( 0.0 0.0 0.0 0.0 0.0 ))
(( 0.0 0.0 0.0 0.0 0.0 )
( 0.0 0.0 0.0 0.0 0.0 )))
((( 0.0 0.0 0.0 0.0 0.0 )
( 0.0 0.0 0.0 0.0 0.0 ))
(( 0.0 0.0 0.0 0.0 0.0 )
( 0.0 0.0 0.0 0.0 0.0 ))
(( 0.0 0.0 0.0 0.0 0.0 )
( 0.0 0.0 0.0 0.0 0.0 ))
(( 0.0 0.0 0.0 0.0 0.0 )
( 0.0 0.0 0.0 0.0 0.0 ))
(( 0.0 0.0 0.0 0.0 0.0 )
( 0.0 0.0 0.0 0.0 0.0 ))))
(((( 0.2 0.2 0.2 0.2 0.2 )
( 0.2 0.2 0.2 0.2 0.2 ))
(( 0.2 0.2 0.2 0.2 0.2 )
( 0.2 0.2 0.2 0.2 0.2 ))
(( 0.2 0.2 0.2 0.2 0.2 )
( 0.2 0.2 0.2 0.2 0.2 ))
(( 0.2 0.2 0.2 0.2 0.2 )
( 0.2 0.2 0.2 0.2 0.2 ))
(( 0.2 0.2 0.2 0.2 0.2 )
( 0.2 0.2 0.2 0.2 0.2 )))
((( 0.2 0.2 0.2 0.2 0.2 )
( 0.2 0.2 0.2 0.2 0.2 ))
(( 0.2 0.2 0.2 0.2 0.2 )
( 0.2 0.2 0.2 0.2 0.2 ))
(( 0.2 0.2 0.2 0.2 0.2 )
( 0.2 0.2 0.2 0.2 0.2 ))
(( 0.2 0.2 0.2 0.2 0.2 )
( 0.2 0.2 0.2 0.2 0.2 ))
(( 0.2 0.2 0.2 0.2 0.2 )
( 0.2 0.2 0.2 0.2 0.2 )))
((( 0.0 0.0 0.0 0.0 0.0 )
( 0.0 0.0 0.0 0.0 0.0 ))
(( 0.0 0.0 0.0 0.0 0.0 )
( 0.0 0.0 0.0 0.0 0.0 ))
(( 0.0 0.0 0.0 0.0 0.0 )
( 0.0 0.0 0.0 0.0 0.0 ))
(( 0.0 0.0 0.0 0.0 0.0 )
( 0.0 0.0 0.0 0.0 0.0 ))
(( 0.0 0.0 0.0 0.0 0.0 )
( 0.0 0.0 0.0 0.0 0.0 )))
((( 0.0 0.0 0.0 0.0 0.0 )
( 0.0 0.0 0.0 0.0 0.0 ))
(( 0.0 0.0 0.0 0.0 0.0 )
( 0.0 0.0 0.0 0.0 0.0 ))
(( 0.0 0.0 0.0 0.0 0.0 )
( 0.0 0.0 0.0 0.0 0.0 ))
(( 0.0 0.0 0.0 0.0 0.0 )
( 0.0 0.0 0.0 0.0 0.0 ))
(( 0.0 0.0 0.0 0.0 0.0 )
( 0.0 0.0 0.0 0.0 0.0 )))
((( 0.0 0.0 0.0 0.0 0.0 )
( 0.0 0.0 0.0 0.0 0.0 ))
(( 0.0 0.0 0.0 0.0 0.0 )
( 0.0 0.0 0.0 0.0 0.0 ))
(( 0.0 0.0 0.0 0.0 0.0 )
( 0.0 0.0 0.0 0.0 0.0 ))
(( 0.0 0.0 0.0 0.0 0.0 )
( 0.0 0.0 0.0 0.0 0.0 ))
(( 0.0 0.0 0.0 0.0 0.0 )
( 0.0 0.0 0.0 0.0 0.0 )))))
((((( 0.0 0.0 0.0 0.0 0.0 )
( 0.0 0.0 0.0 0.0 0.0 ))
(( 0.0 0.0 0.0 0.0 0.0 )
( 0.0 0.0 0.0 0.0 0.0 ))
(( 0.0 0.0 0.0 0.0 0.0 )
( 0.0 0.0 0.0 0.0 0.0 ))
(( 0.0 0.0 0.0 0.0 0.0 )
( 0.0 0.0 0.0 0.0 0.0 ))
(( 0.0 0.0 0.0 0.0 0.0 )
( 0.0 0.0 0.0 0.0 0.0 )))
((( 0.0 0.0 0.0 0.0 0.0 )
( 0.0 0.0 0.0 0.0 0.0 ))
(( 0.0 0.0 0.0 0.0 0.0 )
( 0.0 0.0 0.0 0.0 0.0 ))
(( 0.0 0.0 0.0 0.0 0.0 )
( 0.0 0.0 0.0 0.0 0.0 ))
(( 0.0 0.0 0.0 0.0 0.0 )
( 0.0 0.0 0.0 0.0 0.0 ))
(( 0.0 0.0 0.0 0.0 0.0 )
( 0.0 0.0 0.0 0.0 0.0 )))
((( 0.0 0.0 0.0 0.0 0.0 )
( 0.0 0.0 0.0 0.0 0.0 ))
(( 0.0 0.0 0.0 0.0 0.0 )
( 0.0 0.0 0.0 0.0 0.0 ))
(( 0.0 0.0 0.0 0.0 0.0 )
( 0.0 0.0 0.0 0.0 0.0 ))
(( 0.0 0.0 0.0 0.0 0.0 )
( 0.0 0.0 0.0 0.0 0.0 ))
(( 0.0 0.0 0.0 0.0 0.0 )
( 0.0 0.0 0.0 0.0 0.0 )))
((( 0.0 0.0 0.0 0.0 0.0 )
( 0.0 0.0 0.0 0.0 0.0 ))
(( 0.0 0.0 0.0 0.0 0.0 )
( 0.0 0.0 0.0 0.0 0.0 ))
(( 0.0 0.0 0.0 0.0 0.0 )
( 0.0 0.0 0.0 0.0 0.0 ))
(( 0.0 0.0 0.0 0.0 0.0 )
( 0.0 0.0 0.0 0.0 0.0 ))
(( 0.0 0.0 0.0 0.0 0.0 )
( 0.0 0.0 0.0 0.0 0.0 )))
((( 0.0 0.0 0.0 0.0 0.0 )
( 0.0 0.0 0.0 0.0 0.0 ))
(( 0.0 0.0 0.0 0.0 0.0 )
( 0.0 0.0 0.0 0.0 0.0 ))
(( 0.0 0.0 0.0 0.0 0.0 )
( 0.0 0.0 0.0 0.0 0.0 ))
(( 0.0 0.0 0.0 0.0 0.0 )
( 0.0 0.0 0.0 0.0 0.0 ))
(( 0.0 0.0 0.0 0.0 0.0 )
( 0.0 0.0 0.0 0.0 0.0 ))))
(((( 0.0 0.0 0.0 0.0 0.0 )
( 0.0 0.0 0.0 0.0 0.0 ))
(( 0.0 0.0 0.0 0.0 0.0 )
( 0.0 0.0 0.0 0.0 0.0 ))
(( 0.0 0.0 0.0 0.0 0.0 )
( 0.0 0.0 0.0 0.0 0.0 ))
(( 0.0 0.0 0.0 0.0 0.0 )
( 0.0 0.0 0.0 0.0 0.0 ))
(( 0.0 0.0 0.0 0.0 0.0 )
( 0.0 0.0 0.0 0.0 0.0 )))
((( 0.0 0.0 0.0 0.0 0.0 )
( 0.0 0.0 0.0 0.0 0.0 ))
(( 0.0 0.0 0.0 0.0 0.0 )
( 0.0 0.0 0.0 0.0 0.0 ))
(( 0.0 0.0 0.0 0.0 0.0 )
( 0.0 0.0 0.0 0.0 0.0 ))
(( 0.0 0.0 0.0 0.0 0.0 )
( 0.0 0.0 0.0 0.0 0.0 ))
(( 0.0 0.0 0.0 0.0 0.0 )
( 0.0 0.0 0.0 0.0 0.0 )))
((( 0.0 0.0 0.0 0.0 0.0 )
( 0.0 0.0 0.0 0.0 0.0 ))
(( 0.0 0.0 0.0 0.0 0.0 )
( 0.0 0.0 0.0 0.0 0.0 ))
(( 0.0 0.0 0.0 0.0 0.0 )
( 0.0 0.0 0.0 0.0 0.0 ))
(( 0.0 0.0 0.0 0.0 0.0 )
( 0.0 0.0 0.0 0.0 0.0 ))
(( 0.0 0.0 0.0 0.0 0.0 )
( 0.0 0.0 0.0 0.0 0.0 )))
((( 0.0 0.0 0.0 0.0 0.0 )
( 0.0 0.0 0.0 0.0 0.0 ))
(( 0.0 0.0 0.0 0.0 0.0 )
( 0.0 0.0 0.0 0.0 0.0 ))
(( 0.0 0.0 0.0 0.0 0.0 )
( 0.0 0.0 0.0 0.0 0.0 ))
(( 0.0 0.0 0.0 0.0 0.0 )
( 0.0 0.0 0.0 0.0 0.0 ))
(( 0.0 0.0 0.0 0.0 0.0 )
( 0.0 0.0 0.0 0.0 0.0 )))
((( 0.0 0.0 0.0 0.0 0.0 )
( 0.0 0.0 0.0 0.0 0.0 ))
(( 0.0 0.0 0.0 0.0 0.0 )
( 0.0 0.0 0.0 0.0 0.0 ))
(( 0.0 0.0 0.0 0.0 0.0 )
( 0.0 0.0 0.0 0.0 0.0 ))
(( 0.0 0.0 0.0 0.0 0.0 )
( 0.0 0.0 0.0 0.0 0.0 ))
(( 0.0 0.0 0.0 0.0 0.0 )
( 0.0 0.0 0.0 0.0 0.0 ))))
(((( 0.0 0.0 0.0 0.0 0.0 )
( 0.0 0.0 0.0 0.0 0.0 ))
(( 0.0 0.0 0.0 0.0 0.0 )
( 0.0 0.0 0.0 0.0 0.0 ))
(( 0.0 0.0 0.0 0.0 0.0 )
( 0.0 0.0 0.0 0.0 0.0 ))
(( 0.0 0.0 0.0 0.0 0.0 )
( 0.0 0.0 0.0 0.0 0.0 ))
(( 0.0 0.0 0.0 0.0 0.0 )
( 0.0 0.0 0.0 0.0 0.0 )))
((( 0.0 0.0 0.0 0.0 0.0 )
( 0.0 0.0 0.0 0.0 0.0 ))
(( 0.0 0.0 0.0 0.0 0.0 )
( 0.0 0.0 0.0 0.0 0.0 ))
(( 0.0 0.0 0.0 0.0 0.0 )
( 0.0 0.0 0.0 0.0 0.0 ))
(( 0.0 0.0 0.0 0.0 0.0 )
( 0.0 0.0 0.0 0.0 0.0 ))
(( 0.0 0.0 0.0 0.0 0.0 )
( 0.0 0.0 0.0 0.0 0.0 )))
((( 0.0 0.0 0.0 0.0 0.0 )
( 0.0 0.0 0.0 0.0 0.0 ))
(( 0.0 0.0 0.0 0.0 0.0 )
( 0.0 0.0 0.0 0.0 0.0 ))
(( 0.0 0.0 0.0 0.0 0.0 )
( 0.0 0.0 0.0 0.0 0.0 ))
(( 0.0 0.0 0.0 0.0 0.0 )
( 0.0 0.0 0.0 0.0 0.0 ))
(( 0.0 0.0 0.0 0.0 0.0 )
( 0.0 0.0 0.0 0.0 0.0 )))
((( 0.0 0.0 0.0 0.0 0.0 )
( 0.0 0.0 0.0 0.0 0.0 ))
(( 0.0 0.0 0.0 0.0 0.0 )
( 0.0 0.0 0.0 0.0 0.0 ))
(( 0.0 0.0 0.0 0.0 0.0 )
( 0.0 0.0 0.0 0.0 0.0 ))
(( 0.0 0.0 0.0 0.0 0.0 )
( 0.0 0.0 0.0 0.0 0.0 ))
(( 0.0 0.0 0.0 0.0 0.0 )
( 0.0 0.0 0.0 0.0 0.0 )))
((( 0.0 0.0 0.0 0.0 0.0 )
( 0.0 0.0 0.0 0.0 0.0 ))
(( 0.0 0.0 0.0 0.0 0.0 )
( 0.0 0.0 0.0 0.0 0.0 ))
(( 0.0 0.0 0.0 0.0 0.0 )
( 0.0 0.0 0.0 0.0 0.0 ))
(( 0.0 0.0 0.0 0.0 0.0 )
( 0.0 0.0 0.0 0.0 0.0 ))
(( 0.0 0.0 0.0 0.0 0.0 )
( 0.0 0.0 0.0 0.0 0.0 ))))
(((( 0.0 0.0 0.0 0.0 0.0 )
( 0.0 0.0 0.0 0.0 0.0 ))
(( 0.0 0.0 0.0 0.0 0.0 )
( 0.0 0.0 0.0 0.0 0.0 ))
(( 0.0 0.0 0.0 0.0 0.0 )
( 0.0 0.0 0.0 0.0 0.0 ))
(( 0.0 0.0 0.0 0.0 0.0 )
( 0.0 0.0 0.0 0.0 0.0 ))
(( 0.0 0.0 0.0 0.0 0.0 )
( 0.0 0.0 0.0 0.0 0.0 )))
((( 0.0 0.0 0.0 0.0 0.0 )
( 0.0 0.0 0.0 0.0 0.0 ))
(( 0.0 0.0 0.0 0.0 0.0 )
( 0.0 0.0 0.0 0.0 0.0 ))
(( 0.0 0.0 0.0 0.0 0.0 )
( 0.0 0.0 0.0 0.0 0.0 ))
(( 0.0 0.0 0.0 0.0 0.0 )
( 0.0 0.0 0.0 0.0 0.0 ))
(( 0.0 0.0 0.0 0.0 0.0 )
( 0.0 0.0 0.0 0.0 0.0 )))
((( 0.0 0.0 0.0 0.0 0.0 )
( 0.0 0.0 0.0 0.0 0.0 ))
(( 0.0 0.0 0.0 0.0 0.0 )
( 0.0 0.0 0.0 0.0 0.0 ))
(( 0.0 0.0 0.0 0.0 0.0 )
( 0.0 0.0 0.0 0.0 0.0 ))
(( 0.0 0.0 0.0 0.0 0.0 )
( 0.0 0.0 0.0 0.0 0.0 ))
(( 0.0 0.0 0.0 0.0 0.0 )
( 0.0 0.0 0.0 0.0 0.0 )))
((( 0.0 0.0 0.0 0.0 0.0 )
( 0.0 0.0 0.0 0.0 0.0 ))
(( 0.0 0.0 0.0 0.0 0.0 )
( 0.0 0.0 0.0 0.0 0.0 ))
(( 0.0 0.0 0.0 0.0 0.0 )
( 0.0 0.0 0.0 0.0 0.0 ))
(( 0.0 0.0 0.0 0.0 0.0 )
( 0.0 0.0 0.0 0.0 0.0 ))
(( 0.0 0.0 0.0 0.0 0.0 )
( 0.0 0.0 0.0 0.0 0.0 )))
((( 0.0 0.0 0.0 0.0 0.0 )
( 0.0 0.0 0.0 0.0 0.0 ))
(( 0.0 0.0 0.0 0.0 0.0 )
( 0.0 0.0 0.0 0.0 0.0 ))
(( 0.0 0.0 0.0 0.0 0.0 )
( 0.0 0.0 0.0 0.0 0.0 ))
(( 0.0 0.0 0.0 0.0 0.0 )
( 0.0 0.0 0.0 0.0 0.0 ))
(( 0.0 0.0 0.0 0.0 0.0 )
( 0.0 0.0 0.0 0.0 0.0 ))))
(((( 0.0 0.0 0.0 0.0 0.0 )
( 0.0 0.0 0.0 0.0 0.0 ))
(( 0.0 0.0 0.0 0.0 0.0 )
( 0.0 0.0 0.0 0.0 0.0 ))
(( 0.0 0.0 0.0 0.0 0.0 )
( 0.0 0.0 0.0 0.0 0.0 ))
(( 0.0 0.0 0.0 0.0 0.0 )
( 0.0 0.0 0.0 0.0 0.0 ))
(( 0.0 0.0 0.0 0.0 0.0 )
( 0.0 0.0 0.0 0.0 0.0 )))
((( 0.0 0.0 0.0 0.0 0.0 )
( 0.0 0.0 0.0 0.0 0.0 ))
(( 0.0 0.0 0.0 0.0 0.0 )
( 0.0 0.0 0.0 0.0 0.0 ))
(( 0.0 0.0 0.0 0.0 0.0 )
( 0.0 0.0 0.0 0.0 0.0 ))
(( 0.0 0.0 0.0 0.0 0.0 )
( 0.0 0.0 0.0 0.0 0.0 ))
(( 0.0 0.0 0.0 0.0 0.0 )
( 0.0 0.0 0.0 0.0 0.0 )))
((( 0.0 0.0 0.0 0.0 0.0 )
( 0.0 0.0 0.0 0.0 0.0 ))
(( 0.0 0.0 0.0 0.0 0.0 )
( 0.0 0.0 0.0 0.0 0.0 ))
(( 0.0 0.0 0.0 0.0 0.0 )
( 0.0 0.0 0.0 0.0 0.0 ))
(( 0.0 0.0 0.0 0.0 0.0 )
( 0.0 0.0 0.0 0.0 0.0 ))
(( 0.0 0.0 0.0 0.0 0.0 )
( 0.0 0.0 0.0 0.0 0.0 )))
((( 0.0 0.0 0.0 0.0 0.0 )
( 0.0 0.0 0.0 0.0 0.0 ))
(( 0.0 0.0 0.0 0.0 0.0 )
( 0.0 0.0 0.0 0.0 0.0 ))
(( 0.0 0.0 0.0 0.0 0.0 )
( 0.0 0.0 0.0 0.0 0.0 ))
(( 0.0 0.0 0.0 0.0 0.0 )
( 0.0 0.0 0.0 0.0 0.0 ))
(( 0.0 0.0 0.0 0.0 0.0 )
( 0.0 0.0 0.0 0.0 0.0 )))
((( 0.0 0.0 0.0 0.0 0.0 )
( 0.0 0.0 0.0 0.0 0.0 ))
(( 0.0 0.0 0.0 0.0 0.0 )
( 0.0 0.0 0.0 0.0 0.0 ))
(( 0.0 0.0 0.0 0.0 0.0 )
( 0.0 0.0 0.0 0.0 0.0 ))
(( 0.0 0.0 0.0 0.0 0.0 )
( 0.0 0.0 0.0 0.0 0.0 ))
(( 0.0 0.0 0.0 0.0 0.0 )
( 0.0 0.0 0.0 0.0 0.0 )))))
((((( 0.0 0.0 0.0 0.0 0.0 )
( 0.0 0.0 0.0 0.0 0.0 ))
(( 0.0 0.0 0.0 0.0 0.0 )
( 0.0 0.0 0.0 0.0 0.0 ))
(( 0.0 0.0 0.0 0.0 0.0 )
( 0.0 0.0 0.0 0.0 0.0 ))
(( 0.0 0.0 0.0 0.0 0.0 )
( 0.0 0.0 0.0 0.0 0.0 ))
(( 0.0 0.0 0.0 0.0 0.0 )
( 0.0 0.0 0.0 0.0 0.0 )))
((( 0.0 0.0 0.0 0.0 0.0 )
( 0.0 0.0 0.0 0.0 0.0 ))
(( 0.0 0.0 0.0 0.0 0.0 )
( 0.0 0.0 0.0 0.0 0.0 ))
(( 0.0 0.0 0.0 0.0 0.0 )
( 0.0 0.0 0.0 0.0 0.0 ))
(( 0.0 0.0 0.0 0.0 0.0 )
( 0.0 0.0 0.0 0.0 0.0 ))
(( 0.0 0.0 0.0 0.0 0.0 )
( 0.0 0.0 0.0 0.0 0.0 )))
((( 0.0 0.0 0.0 0.0 0.0 )
( 0.0 0.0 0.0 0.0 0.0 ))
(( 0.0 0.0 0.0 0.0 0.0 )
( 0.0 0.0 0.0 0.0 0.0 ))
(( 0.0 0.0 0.0 0.0 0.0 )
( 0.0 0.0 0.0 0.0 0.0 ))
(( 0.0 0.0 0.0 0.0 0.0 )
( 0.0 0.0 0.0 0.0 0.0 ))
(( 0.0 0.0 0.0 0.0 0.0 )
( 0.0 0.0 0.0 0.0 0.0 )))
((( 0.0 0.0 0.0 0.0 0.0 )
( 0.0 0.0 0.0 0.0 0.0 ))
(( 0.0 0.0 0.0 0.0 0.0 )
( 0.0 0.0 0.0 0.0 0.0 ))
(( 0.0 0.0 0.0 0.0 0.0 )
( 0.0 0.0 0.0 0.0 0.0 ))
(( 0.0 0.0 0.0 0.0 0.0 )
( 0.0 0.0 0.0 0.0 0.0 ))
(( 0.0 0.0 0.0 0.0 0.0 )
( 0.0 0.0 0.0 0.0 0.0 )))
((( 0.0 0.0 0.0 0.0 0.0 )
( 0.0 0.0 0.0 0.0 0.0 ))
(( 0.0 0.0 0.0 0.0 0.0 )
( 0.0 0.0 0.0 0.0 0.0 ))
(( 0.0 0.0 0.0 0.0 0.0 )
( 0.0 0.0 0.0 0.0 0.0 ))
(( 0.0 0.0 0.0 0.0 0.0 )
( 0.0 0.0 0.0 0.0 0.0 ))
(( 0.0 0.0 0.0 0.0 0.0 )
( 0.0 0.0 0.0 0.0 0.0 ))))
(((( 0.0 0.0 0.0 0.0 0.0 )
( 0.0 0.0 0.0 0.0 0.0 ))
(( 0.0 0.0 0.0 0.0 0.0 )
( 0.0 0.0 0.0 0.0 0.0 ))
(( 0.0 0.0 0.0 0.0 0.0 )
( 0.0 0.0 0.0 0.0 0.0 ))
(( 0.0 0.0 0.0 0.0 0.0 )
( 0.0 0.0 0.0 0.0 0.0 ))
(( 0.0 0.0 0.0 0.0 0.0 )
( 0.0 0.0 0.0 0.0 0.0 )))
((( 0.0 0.0 0.0 0.0 0.0 )
( 0.0 0.0 0.0 0.0 0.0 ))
(( 0.0 0.0 0.0 0.0 0.0 )
( 0.0 0.0 0.0 0.0 0.0 ))
(( 0.0 0.0 0.0 0.0 0.0 )
( 0.0 0.0 0.0 0.0 0.0 ))
(( 0.0 0.0 0.0 0.0 0.0 )
( 0.0 0.0 0.0 0.0 0.0 ))
(( 0.0 0.0 0.0 0.0 0.0 )
( 0.0 0.0 0.0 0.0 0.0 )))
((( 0.0 0.0 0.0 0.0 0.0 )
( 0.0 0.0 0.0 0.0 0.0 ))
(( 0.0 0.0 0.0 0.0 0.0 )
( 0.0 0.0 0.0 0.0 0.0 ))
(( 0.0 0.0 0.0 0.0 0.0 )
( 0.0 0.0 0.0 0.0 0.0 ))
(( 0.0 0.0 0.0 0.0 0.0 )
( 0.0 0.0 0.0 0.0 0.0 ))
(( 0.0 0.0 0.0 0.0 0.0 )
( 0.0 0.0 0.0 0.0 0.0 )))
((( 0.0 0.0 0.0 0.0 0.0 )
( 0.0 0.0 0.0 0.0 0.0 ))
(( 0.0 0.0 0.0 0.0 0.0 )
( 0.0 0.0 0.0 0.0 0.0 ))
(( 0.0 0.0 0.0 0.0 0.0 )
( 0.0 0.0 0.0 0.0 0.0 ))
(( 0.0 0.0 0.0 0.0 0.0 )
( 0.0 0.0 0.0 0.0 0.0 ))
(( 0.0 0.0 0.0 0.0 0.0 )
( 0.0 0.0 0.0 0.0 0.0 )))
((( 0.0 0.0 0.0 0.0 0.0 )
( 0.0 0.0 0.0 0.0 0.0 ))
(( 0.0 0.0 0.0 0.0 0.0 )
( 0.0 0.0 0.0 0.0 0.0 ))
(( 0.0 0.0 0.0 0.0 0.0 )
( 0.0 0.0 0.0 0.0 0.0 ))
(( 0.0 0.0 0.0 0.0 0.0 )
( 0.0 0.0 0.0 0.0 0.0 ))
(( 0.0 0.0 0.0 0.0 0.0 )
( 0.0 0.0 0.0 0.0 0.0 ))))
(((( 0.0 0.0 0.0 0.0 0.0 )
( 0.0 0.0 0.0 0.0 0.0 ))
(( 0.0 0.0 0.0 0.0 0.0 )
( 0.0 0.0 0.0 0.0 0.0 ))
(( 0.0 0.0 0.0 0.0 0.0 )
( 0.0 0.0 0.0 0.0 0.0 ))
(( 0.0 0.0 0.0 0.0 0.0 )
( 0.0 0.0 0.0 0.0 0.0 ))
(( 0.0 0.0 0.0 0.0 0.0 )
( 0.0 0.0 0.0 0.0 0.0 )))
((( 0.0 0.0 0.0 0.0 0.0 )
( 0.0 0.0 0.0 0.0 0.0 ))
(( 0.0 0.0 0.0 0.0 0.0 )
( 0.0 0.0 0.0 0.0 0.0 ))
(( 0.0 0.0 0.0 0.0 0.0 )
( 0.0 0.0 0.0 0.0 0.0 ))
(( 0.0 0.0 0.0 0.0 0.0 )
( 0.0 0.0 0.0 0.0 0.0 ))
(( 0.0 0.0 0.0 0.0 0.0 )
( 0.0 0.0 0.0 0.0 0.0 )))
((( 0.0 0.0 0.0 0.0 0.0 )
( 0.0 0.0 0.0 0.0 0.0 ))
(( 0.0 0.0 0.0 0.0 0.0 )
( 0.0 0.0 0.0 0.0 0.0 ))
(( 0.0 0.0 0.0 0.0 0.0 )
( 0.0 0.0 0.0 0.0 0.0 ))
(( 0.0 0.0 0.0 0.0 0.0 )
( 0.0 0.0 0.0 0.0 0.0 ))
(( 0.0 0.0 0.0 0.0 0.0 )
( 0.0 0.0 0.0 0.0 0.0 )))
((( 0.0 0.0 0.0 0.0 0.0 )
( 0.0 0.0 0.0 0.0 0.0 ))
(( 0.0 0.0 0.0 0.0 0.0 )
( 0.0 0.0 0.0 0.0 0.0 ))
(( 0.0 0.0 0.0 0.0 0.0 )
( 0.0 0.0 0.0 0.0 0.0 ))
(( 0.0 0.0 0.0 0.0 0.0 )
( 0.0 0.0 0.0 0.0 0.0 ))
(( 0.0 0.0 0.0 0.0 0.0 )
( 0.0 0.0 0.0 0.0 0.0 )))
((( 0.0 0.0 0.0 0.0 0.0 )
( 0.0 0.0 0.0 0.0 0.0 ))
(( 0.0 0.0 0.0 0.0 0.0 )
( 0.0 0.0 0.0 0.0 0.0 ))
(( 0.0 0.0 0.0 0.0 0.0 )
( 0.0 0.0 0.0 0.0 0.0 ))
(( 0.0 0.0 0.0 0.0 0.0 )
( 0.0 0.0 0.0 0.0 0.0 ))
(( 0.0 0.0 0.0 0.0 0.0 )
( 0.0 0.0 0.0 0.0 0.0 ))))
(((( 0.0 0.0 0.0 0.0 0.0 )
( 0.0 0.0 0.0 0.0 0.0 ))
(( 0.0 0.0 0.0 0.0 0.0 )
( 0.0 0.0 0.0 0.0 0.0 ))
(( 0.0 0.0 0.0 0.0 0.0 )
( 0.0 0.0 0.0 0.0 0.0 ))
(( 0.0 0.0 0.0 0.0 0.0 )
( 0.0 0.0 0.0 0.0 0.0 ))
(( 0.0 0.0 0.0 0.0 0.0 )
( 0.0 0.0 0.0 0.0 0.0 )))
((( 0.0 0.0 0.0 0.0 0.0 )
( 0.0 0.0 0.0 0.0 0.0 ))
(( 0.0 0.0 0.0 0.0 0.0 )
( 0.0 0.0 0.0 0.0 0.0 ))
(( 0.0 0.0 0.0 0.0 0.0 )
( 0.0 0.0 0.0 0.0 0.0 ))
(( 0.0 0.0 0.0 0.0 0.0 )
( 0.0 0.0 0.0 0.0 0.0 ))
(( 0.0 0.0 0.0 0.0 0.0 )
( 0.0 0.0 0.0 0.0 0.0 )))
((( 0.0 0.0 0.0 0.0 0.0 )
( 0.0 0.0 0.0 0.0 0.0 ))
(( 0.0 0.0 0.0 0.0 0.0 )
( 0.0 0.0 0.0 0.0 0.0 ))
(( 0.0 0.0 0.0 0.0 0.0 )
( 0.0 0.0 0.0 0.0 0.0 ))
(( 0.0 0.0 0.0 0.0 0.0 )
( 0.0 0.0 0.0 0.0 0.0 ))
(( 0.0 0.0 0.0 0.0 0.0 )
( 0.0 0.0 0.0 0.0 0.0 )))
((( 0.0 0.0 0.0 0.0 0.0 )
( 0.0 0.0 0.0 0.0 0.0 ))
(( 0.0 0.0 0.0 0.0 0.0 )
( 0.0 0.0 0.0 0.0 0.0 ))
(( 0.0 0.0 0.0 0.0 0.0 )
( 0.0 0.0 0.0 0.0 0.0 ))
(( 0.0 0.0 0.0 0.0 0.0 )
( 0.0 0.0 0.0 0.0 0.0 ))
(( 0.0 0.0 0.0 0.0 0.0 )
( 0.0 0.0 0.0 0.0 0.0 )))
((( 0.0 0.0 0.0 0.0 0.0 )
( 0.0 0.0 0.0 0.0 0.0 ))
(( 0.0 0.0 0.0 0.0 0.0 )
( 0.0 0.0 0.0 0.0 0.0 ))
(( 0.0 0.0 0.0 0.0 0.0 )
( 0.0 0.0 0.0 0.0 0.0 ))
(( 0.0 0.0 0.0 0.0 0.0 )
( 0.0 0.0 0.0 0.0 0.0 ))
(( 0.0 0.0 0.0 0.0 0.0 )
( 0.0 0.0 0.0 0.0 0.0 ))))
(((( 0.0 0.0 0.0 0.0 0.0 )
( 0.0 0.0 0.0 0.0 0.0 ))
(( 0.0 0.0 0.0 0.0 0.0 )
( 0.0 0.0 0.0 0.0 0.0 ))
(( 0.0 0.0 0.0 0.0 0.0 )
( 0.0 0.0 0.0 0.0 0.0 ))
(( 0.0 0.0 0.0 0.0 0.0 )
( 0.0 0.0 0.0 0.0 0.0 ))
(( 0.0 0.0 0.0 0.0 0.0 )
( 0.0 0.0 0.0 0.0 0.0 )))
((( 0.0 0.0 0.0 0.0 0.0 )
( 0.0 0.0 0.0 0.0 0.0 ))
(( 0.0 0.0 0.0 0.0 0.0 )
( 0.0 0.0 0.0 0.0 0.0 ))
(( 0.0 0.0 0.0 0.0 0.0 )
( 0.0 0.0 0.0 0.0 0.0 ))
(( 0.0 0.0 0.0 0.0 0.0 )
( 0.0 0.0 0.0 0.0 0.0 ))
(( 0.0 0.0 0.0 0.0 0.0 )
( 0.0 0.0 0.0 0.0 0.0 )))
((( 0.0 0.0 0.0 0.0 0.0 )
( 0.0 0.0 0.0 0.0 0.0 ))
(( 0.0 0.0 0.0 0.0 0.0 )
( 0.0 0.0 0.0 0.0 0.0 ))
(( 0.0 0.0 0.0 0.0 0.0 )
( 0.0 0.0 0.0 0.0 0.0 ))
(( 0.0 0.0 0.0 0.0 0.0 )
( 0.0 0.0 0.0 0.0 0.0 ))
(( 0.0 0.0 0.0 0.0 0.0 )
( 0.0 0.0 0.0 0.0 0.0 )))
((( 0.0 0.0 0.0 0.0 0.0 )
( 0.0 0.0 0.0 0.0 0.0 ))
(( 0.0 0.0 0.0 0.0 0.0 )
( 0.0 0.0 0.0 0.0 0.0 ))
(( 0.0 0.0 0.0 0.0 0.0 )
( 0.0 0.0 0.0 0.0 0.0 ))
(( 0.0 0.0 0.0 0.0 0.0 )
( 0.0 0.0 0.0 0.0 0.0 ))
(( 0.0 0.0 0.0 0.0 0.0 )
( 0.0 0.0 0.0 0.0 0.0 )))
((( 0.0 0.0 0.0 0.0 0.0 )
( 0.0 0.0 0.0 0.0 0.0 ))
(( 0.0 0.0 0.0 0.0 0.0 )
( 0.0 0.0 0.0 0.0 0.0 ))
(( 0.0 0.0 0.0 0.0 0.0 )
( 0.0 0.0 0.0 0.0 0.0 ))
(( 0.0 0.0 0.0 0.0 0.0 )
( 0.0 0.0 0.0 0.0 0.0 ))
(( 0.0 0.0 0.0 0.0 0.0 )
( 0.0 0.0 0.0 0.0 0.0 )))))
((((( 0.0 0.0 0.0 0.0 0.0 )
( 0.0 0.0 0.0 0.0 0.0 ))
(( 0.0 0.0 0.0 0.0 0.0 )
( 0.0 0.0 0.0 0.0 0.0 ))
(( 0.0 0.0 0.0 0.0 0.0 )
( 0.0 0.0 0.0 0.0 0.0 ))
(( 0.0 0.0 0.0 0.0 0.0 )
( 0.0 0.0 0.0 0.0 0.0 ))
(( 0.0 0.0 0.0 0.0 0.0 )
( 0.0 0.0 0.0 0.0 0.0 )))
((( 0.0 0.0 0.0 0.0 0.0 )
( 0.0 0.0 0.0 0.0 0.0 ))
(( 0.0 0.0 0.0 0.0 0.0 )
( 0.0 0.0 0.0 0.0 0.0 ))
(( 0.0 0.0 0.0 0.0 0.0 )
( 0.0 0.0 0.0 0.0 0.0 ))
(( 0.0 0.0 0.0 0.0 0.0 )
( 0.0 0.0 0.0 0.0 0.0 ))
(( 0.0 0.0 0.0 0.0 0.0 )
( 0.0 0.0 0.0 0.0 0.0 )))
((( 0.0 0.0 0.0 0.0 0.0 )
( 0.0 0.0 0.0 0.0 0.0 ))
(( 0.0 0.0 0.0 0.0 0.0 )
( 0.0 0.0 0.0 0.0 0.0 ))
(( 0.0 0.0 0.0 0.0 0.0 )
( 0.0 0.0 0.0 0.0 0.0 ))
(( 0.0 0.0 0.0 0.0 0.0 )
( 0.0 0.0 0.0 0.0 0.0 ))
(( 0.0 0.0 0.0 0.0 0.0 )
( 0.0 0.0 0.0 0.0 0.0 )))
((( 0.0 0.0 0.0 0.0 0.0 )
( 0.0 0.0 0.0 0.0 0.0 ))
(( 0.0 0.0 0.0 0.0 0.0 )
( 0.0 0.0 0.0 0.0 0.0 ))
(( 0.0 0.0 0.0 0.0 0.0 )
( 0.0 0.0 0.0 0.0 0.0 ))
(( 0.0 0.0 0.0 0.0 0.0 )
( 0.0 0.0 0.0 0.0 0.0 ))
(( 0.0 0.0 0.0 0.0 0.0 )
( 0.0 0.0 0.0 0.0 0.0 )))
((( 0.0 0.0 0.0 0.0 0.0 )
( 0.0 0.0 0.0 0.0 0.0 ))
(( 0.0 0.0 0.0 0.0 0.0 )
( 0.0 0.0 0.0 0.0 0.0 ))
(( 0.0 0.0 0.0 0.0 0.0 )
( 0.0 0.0 0.0 0.0 0.0 ))
(( 0.0 0.0 0.0 0.0 0.0 )
( 0.0 0.0 0.0 0.0 0.0 ))
(( 0.0 0.0 0.0 0.0 0.0 )
( 0.0 0.0 0.0 0.0 0.0 ))))
(((( 0.0 0.0 0.0 0.0 0.0 )
( 0.0 0.0 0.0 0.0 0.0 ))
(( 0.0 0.0 0.0 0.0 0.0 )
( 0.0 0.0 0.0 0.0 0.0 ))
(( 0.0 0.0 0.0 0.0 0.0 )
( 0.0 0.0 0.0 0.0 0.0 ))
(( 0.0 0.0 0.0 0.0 0.0 )
( 0.0 0.0 0.0 0.0 0.0 ))
(( 0.0 0.0 0.0 0.0 0.0 )
( 0.0 0.0 0.0 0.0 0.0 )))
((( 0.0 0.0 0.0 0.0 0.0 )
( 0.0 0.0 0.0 0.0 0.0 ))
(( 0.0 0.0 0.0 0.0 0.0 )
( 0.0 0.0 0.0 0.0 0.0 ))
(( 0.0 0.0 0.0 0.0 0.0 )
( 0.0 0.0 0.0 0.0 0.0 ))
(( 0.0 0.0 0.0 0.0 0.0 )
( 0.0 0.0 0.0 0.0 0.0 ))
(( 0.0 0.0 0.0 0.0 0.0 )
( 0.0 0.0 0.0 0.0 0.0 )))
((( 0.0 0.0 0.0 0.0 0.0 )
( 0.0 0.0 0.0 0.0 0.0 ))
(( 0.0 0.0 0.0 0.0 0.0 )
( 0.0 0.0 0.0 0.0 0.0 ))
(( 0.0 0.0 0.0 0.0 0.0 )
( 0.0 0.0 0.0 0.0 0.0 ))
(( 0.0 0.0 0.0 0.0 0.0 )
( 0.0 0.0 0.0 0.0 0.0 ))
(( 0.0 0.0 0.0 0.0 0.0 )
( 0.0 0.0 0.0 0.0 0.0 )))
((( 0.0 0.0 0.0 0.0 0.0 )
( 0.0 0.0 0.0 0.0 0.0 ))
(( 0.0 0.0 0.0 0.0 0.0 )
( 0.0 0.0 0.0 0.0 0.0 ))
(( 0.0 0.0 0.0 0.0 0.0 )
( 0.0 0.0 0.0 0.0 0.0 ))
(( 0.0 0.0 0.0 0.0 0.0 )
( 0.0 0.0 0.0 0.0 0.0 ))
(( 0.0 0.0 0.0 0.0 0.0 )
( 0.0 0.0 0.0 0.0 0.0 )))
((( 0.0 0.0 0.0 0.0 0.0 )
( 0.0 0.0 0.0 0.0 0.0 ))
(( 0.0 0.0 0.0 0.0 0.0 )
( 0.0 0.0 0.0 0.0 0.0 ))
(( 0.0 0.0 0.0 0.0 0.0 )
( 0.0 0.0 0.0 0.0 0.0 ))
(( 0.0 0.0 0.0 0.0 0.0 )
( 0.0 0.0 0.0 0.0 0.0 ))
(( 0.0 0.0 0.0 0.0 0.0 )
( 0.0 0.0 0.0 0.0 0.0 ))))
(((( 0.0 0.0 0.0 0.0 0.0 )
( 0.0 0.0 0.0 0.0 0.0 ))
(( 0.0 0.0 0.0 0.0 0.0 )
( 0.0 0.0 0.0 0.0 0.0 ))
(( 0.0 0.0 0.0 0.0 0.0 )
( 0.0 0.0 0.0 0.0 0.0 ))
(( 0.0 0.0 0.0 0.0 0.0 )
( 0.0 0.0 0.0 0.0 0.0 ))
(( 0.0 0.0 0.0 0.0 0.0 )
( 0.0 0.0 0.0 0.0 0.0 )))
((( 0.0 0.0 0.0 0.0 0.0 )
( 0.0 0.0 0.0 0.0 0.0 ))
(( 0.0 0.0 0.0 0.0 0.0 )
( 0.0 0.0 0.0 0.0 0.0 ))
(( 0.0 0.0 0.0 0.0 0.0 )
( 0.0 0.0 0.0 0.0 0.0 ))
(( 0.0 0.0 0.0 0.0 0.0 )
( 0.0 0.0 0.0 0.0 0.0 ))
(( 0.0 0.0 0.0 0.0 0.0 )
( 0.0 0.0 0.0 0.0 0.0 )))
((( 0.0 0.0 0.0 0.0 0.0 )
( 0.0 0.0 0.0 0.0 0.0 ))
(( 0.0 0.0 0.0 0.0 0.0 )
( 0.0 0.0 0.0 0.0 0.0 ))
(( 0.0 0.0 0.0 0.0 0.0 )
( 0.0 0.0 0.0 0.0 0.0 ))
(( 0.0 0.0 0.0 0.0 0.0 )
( 0.0 0.0 0.0 0.0 0.0 ))
(( 0.0 0.0 0.0 0.0 0.0 )
( 0.0 0.0 0.0 0.0 0.0 )))
((( 0.0 0.0 0.0 0.0 0.0 )
( 0.0 0.0 0.0 0.0 0.0 ))
(( 0.0 0.0 0.0 0.0 0.0 )
( 0.0 0.0 0.0 0.0 0.0 ))
(( 0.0 0.0 0.0 0.0 0.0 )
( 0.0 0.0 0.0 0.0 0.0 ))
(( 0.0 0.0 0.0 0.0 0.0 )
( 0.0 0.0 0.0 0.0 0.0 ))
(( 0.0 0.0 0.0 0.0 0.0 )
( 0.0 0.0 0.0 0.0 0.0 )))
((( 0.0 0.0 0.0 0.0 0.0 )
( 0.0 0.0 0.0 0.0 0.0 ))
(( 0.0 0.0 0.0 0.0 0.0 )
( 0.0 0.0 0.0 0.0 0.0 ))
(( 0.0 0.0 0.0 0.0 0.0 )
( 0.0 0.0 0.0 0.0 0.0 ))
(( 0.0 0.0 0.0 0.0 0.0 )
( 0.0 0.0 0.0 0.0 0.0 ))
(( 0.0 0.0 0.0 0.0 0.0 )
( 0.0 0.0 0.0 0.0 0.0 ))))
(((( 0.0 0.0 0.0 0.0 0.0 )
( 0.0 0.0 0.0 0.0 0.0 ))
(( 0.0 0.0 0.0 0.0 0.0 )
( 0.0 0.0 0.0 0.0 0.0 ))
(( 0.0 0.0 0.0 0.0 0.0 )
( 0.0 0.0 0.0 0.0 0.0 ))
(( 0.0 0.0 0.0 0.0 0.0 )
( 0.0 0.0 0.0 0.0 0.0 ))
(( 0.0 0.0 0.0 0.0 0.0 )
( 0.0 0.0 0.0 0.0 0.0 )))
((( 0.0 0.0 0.0 0.0 0.0 )
( 0.0 0.0 0.0 0.0 0.0 ))
(( 0.0 0.0 0.0 0.0 0.0 )
( 0.0 0.0 0.0 0.0 0.0 ))
(( 0.0 0.0 0.0 0.0 0.0 )
( 0.0 0.0 0.0 0.0 0.0 ))
(( 0.0 0.0 0.0 0.0 0.0 )
( 0.0 0.0 0.0 0.0 0.0 ))
(( 0.0 0.0 0.0 0.0 0.0 )
( 0.0 0.0 0.0 0.0 0.0 )))
((( 0.0 0.0 0.0 0.0 0.0 )
( 0.0 0.0 0.0 0.0 0.0 ))
(( 0.0 0.0 0.0 0.0 0.0 )
( 0.0 0.0 0.0 0.0 0.0 ))
(( 0.0 0.0 0.0 0.0 0.0 )
( 0.0 0.0 0.0 0.0 0.0 ))
(( 0.0 0.0 0.0 0.0 0.0 )
( 0.0 0.0 0.0 0.0 0.0 ))
(( 0.0 0.0 0.0 0.0 0.0 )
( 0.0 0.0 0.0 0.0 0.0 )))
((( 0.0 0.0 0.0 0.0 0.0 )
( 0.0 0.0 0.0 0.0 0.0 ))
(( 0.0 0.0 0.0 0.0 0.0 )
( 0.0 0.0 0.0 0.0 0.0 ))
(( 0.0 0.0 0.0 0.0 0.0 )
( 0.0 0.0 0.0 0.0 0.0 ))
(( 0.0 0.0 0.0 0.0 0.0 )
( 0.0 0.0 0.0 0.0 0.0 ))
(( 0.0 0.0 0.0 0.0 0.0 )
( 0.0 0.0 0.0 0.0 0.0 )))
((( 0.0 0.0 0.0 0.0 0.0 )
( 0.0 0.0 0.0 0.0 0.0 ))
(( 0.0 0.0 0.0 0.0 0.0 )
( 0.0 0.0 0.0 0.0 0.0 ))
(( 0.0 0.0 0.0 0.0 0.0 )
( 0.0 0.0 0.0 0.0 0.0 ))
(( 0.0 0.0 0.0 0.0 0.0 )
( 0.0 0.0 0.0 0.0 0.0 ))
(( 0.0 0.0 0.0 0.0 0.0 )
( 0.0 0.0 0.0 0.0 0.0 ))))
