net
{
     node_size = (0 0);
     name = "learned net";
     tree = "(sexo,idadenumero,fronte,mentoproeminencia,incisivos,orbita,mentoredondo,glabela)";
     UnBBayes_Color_Probabilistic_Description = "-256";
     UnBBayes_Color_Probabilistic_Explanation = "-16711936";
     UnBBayes_Color_Utility = "-16711681";
     UnBBayes_Color_Decision = "-14336";
}

node sexo
{
     label = "sexo";
     position = (54 54);
     states = ("Feminino" "Masculino");
}

node idadenumero
{
     label = "idadenumero";
     position = (108 54);
     states = ("Adulto" "PosPuberal" "Velho");
}

node fronte
{
     label = "fronte";
     position = (162 54);
     states = ("Vertical" "Inclinada");
}

node mentoproeminencia
{
     label = "mentoproeminencia";
     position = (216 54);
     states = ("Discreto" "Proeminente");
}

node incisivos
{
     label = "incisivos";
     position = (270 54);
     states = ("Quadrado" "Redondo");
}

node orbita
{
     label = "orbita";
     position = (324 54);
     states = ("Angulosa" "Redonda");
}

node mentoredondo
{
     label = "mentoredondo";
     position = (378 54);
     states = ("Arredondado" "Quadrado");
}

node glabela
{
     label = "glabela";
     position = (432 54);
     states = ("NaoProeminente" "Proeminente");
}

potential (sexo | incisivos mentoproeminencia orbita idadenumero)
{
 data = ((((( 0.25 0.75 )
( 0.90909094 0.09090909 ))
(( 0.043165468 0.95683455 )
( 0.63492066 0.36507937 )))
((( 0.47435898 0.525641 )
( 0.942029 0.057971016 ))
(( 0.31932774 0.6806723 )
( 0.73275864 0.2672414 ))))
(((( 0.4722222 0.5277778 )
( 0.7222222 0.2777778 ))
(( 0.035714287 0.96428573 )
( 0.53333336 0.46666667 )))
((( 0.53333336 0.46666667 )
( 0.84615386 0.15384616 ))
(( 0.25 0.75 )
( 0.4 0.6 ))))
(((( 0.3125 0.6875 )
( 0.5 0.5 ))
(( 0.2 0.8 )
( 0.5 0.5 )))
((( 0.42857143 0.5714286 )
( 0.5 0.5 ))
(( 0.46153846 0.53846157 )
( 0.5 0.5 )))));
}

potential (idadenumero)
{
 data = ( 0.7724359 0.16880342 0.058760684 );
}

potential (fronte | sexo idadenumero)
{
 data = ((( 0.55043226 0.44956774 )
( 0.38522428 0.6147757 ))
(( 0.45945945 0.5405405 )
( 0.54022986 0.4597701 ))
(( 0.4090909 0.59090906 )
( 0.3888889 0.6111111 )));
}

potential (mentoproeminencia | idadenumero)
{
 data = (( 0.40607736 0.5939227 )
( 0.5849057 0.41509435 )
( 0.73214287 0.26785713 ));
}

potential (incisivos | idadenumero)
{
 data = (( 0.57596684 0.42403314 )
( 0.5786164 0.42138365 )
( 0.98214287 0.017857144 ));
}

potential (orbita | idadenumero)
{
 data = (( 0.4820442 0.5179558 )
( 0.6792453 0.3207547 )
( 0.32142857 0.6785714 ));
}

potential (mentoredondo | glabela idadenumero)
{
 data = ((( 0.5720824 0.42791763 )
( 0.3633218 0.6366782 ))
(( 0.52040815 0.47959185 )
( 0.52380955 0.47619048 ))
(( 0.25714287 0.74285716 )
( 0.3478261 0.65217394 )));
}

potential (glabela | sexo fronte idadenumero)
{
 data = (((( 0.984375 0.015625 )
( 0.04761905 0.95238096 ))
(( 0.9681529 0.031847134 )
( 0.3888889 0.6111111 )))
((( 0.94285715 0.057142857 )
( 0.041666668 0.9583333 ))
(( 0.9756098 0.024390243 )
( 0.6097561 0.3902439 )))
((( 0.9 0.1 )
( 0.06666667 0.93333334 ))
(( 0.9285714 0.071428575 )
( 0.6086956 0.39130434 ))));
}

