net
{
     node_size = (0 0);
     name = "learned net";
     tree = "(sexo,glabela,fronte,incisivos,mentoredondo,mentoproeminencia,orbita)";
     UnBBayes_Color_Probabilistic_Description = "-256";
     UnBBayes_Color_Probabilistic_Explanation = "-16711936";
     UnBBayes_Color_Utility = "-16711681";
     UnBBayes_Color_Decision = "-14336";
}

node sexo
{
     label = "sexo";
     position = (54 54);
     states = ("Feminino" "Masculino");
}

node glabela
{
     label = "glabela";
     position = (117 202);
     states = ("NadaProeminente" "Proeminente" "PoucoProeminente" "MuitoProeminente");
}

node fronte
{
     label = "fronte";
     position = (211 186);
     states = ("MuitoVertical" "Inclinada" "Vertical" "MuitoInclinada");
}

node incisivos
{
     label = "incisivos";
     position = (318 219);
     states = ("Quadrado" "Redondo" "MuitoQuadrado" "MuitoRedondo" "Indisponivel");
}

node mentoredondo
{
     label = "mentoredondo";
     position = (270 54);
     states = ("Arredondado" "Quadrado" "MuitoArredondado" "MuitoQuadrado");
}

node mentoproeminencia
{
     label = "mentoproeminencia";
     position = (443 178);
     states = ("Discreto" "Proeminente" "MuitoProeminente" "MuitoDiscreto");
}

node orbita
{
     label = "orbita";
     position = (378 54);
     states = ("Angulosa" "Redonda" "MuitoRedonda");
}

potential (sexo | glabela)
{
 data = (( 0.8584475 0.14155251 )
( 0.025157232 0.9748428 )
( 0.6991404 0.3008596 )
( 0.017857144 0.98214287 ));
}

potential (glabela)
{
 data = ( 0.23240939 0.3379531 0.37100214 0.058635395 );
}

potential (fronte | glabela sexo)
{
 data = ((( 0.020942409 0.4973822 0.03141361 0.45026177 )
( 0.18181819 0.45454547 0.27272728 0.09090909 )
( 0.23076923 0.097165994 0.6680162 0.004048583 )
( 0.25 0.25 0.25 0.25 ))
(( 0.029411765 0.029411765 0.029411765 0.9117647 )
( 0.0063897762 0.5111821 0.46645367 0.015974442 )
( 0.009259259 0.24074075 0.074074075 0.6759259 )
( 0.86206895 0.03448276 0.06896552 0.03448276 )));
}

potential (incisivos | sexo glabela fronte)
{
 data = (((( 0.375 0.25 0.125 0.125 0.125 )
( 0.2 0.2 0.2 0.2 0.2 ))
(( 0.33333334 0.16666667 0.16666667 0.16666667 0.16666667 )
( 0.33333334 0.16666667 0.16666667 0.16666667 0.16666667 ))
(( 0.29508197 0.44262296 0.14754099 0.09836066 0.016393442 )
( 0.2 0.2 0.2 0.2 0.2 ))
(( 0.2 0.2 0.2 0.2 0.2 )
( 0.8888889 0.055555556 0.018518519 0.018518519 0.018518519 )))
((( 0.3030303 0.3939394 0.11111111 0.18181819 0.01010101 )
( 0.2 0.2 0.2 0.2 0.2 ))
(( 0.44444445 0.22222222 0.11111111 0.11111111 0.11111111 )
( 0.70731705 0.22560975 0.05487805 0.0060975607 0.0060975607 ))
(( 0.17857143 0.71428573 0.035714287 0.035714287 0.035714287 )
( 0.6333333 0.033333335 0.26666668 0.033333335 0.033333335 ))
(( 0.2 0.2 0.2 0.2 0.2 )
( 0.33333334 0.16666667 0.16666667 0.16666667 0.16666667 )))
((( 0.1 0.5 0.1 0.2 0.1 )
( 0.2 0.2 0.2 0.2 0.2 ))
(( 0.14285715 0.42857143 0.14285715 0.14285715 0.14285715 )
( 0.8066667 0.093333334 0.033333335 0.053333335 0.013333334 ))
(( 0.2366864 0.556213 0.041420117 0.1597633 0.00591716 )
( 0.33333334 0.33333334 0.16666667 0.083333336 0.083333336 ))
(( 0.2 0.2 0.2 0.2 0.2 )
( 0.5 0.125 0.125 0.125 0.125 )))
((( 0.31111112 0.5555556 0.011111111 0.11111111 0.011111111 )
( 0.6571429 0.028571429 0.028571429 0.25714287 0.028571429 ))
(( 0.2 0.2 0.2 0.2 0.2 )
( 0.44444445 0.22222222 0.11111111 0.11111111 0.11111111 ))
(( 0.2 0.2 0.2 0.2 0.2 )
( 0.8051948 0.12987013 0.012987013 0.038961038 0.012987013 ))
(( 0.2 0.2 0.2 0.2 0.2 )
( 0.33333334 0.16666667 0.16666667 0.16666667 0.16666667 ))));
}

potential (mentoredondo | glabela sexo incisivos fronte)
{
 data = ((((( 0.5 0.16666667 0.16666667 0.16666667 )
( 0.4 0.2 0.2 0.2 )
( 0.1904762 0.33333334 0.14285715 0.33333334 )
( 0.25 0.25 0.25 0.25 ))
(( 0.25 0.25 0.25 0.25 )
( 0.2 0.4 0.2 0.2 )
( 0.25 0.25 0.25 0.25 )
( 0.15686275 0.47058824 0.29411766 0.078431375 )))
((( 0.4 0.2 0.2 0.2 )
( 0.25 0.25 0.25 0.25 )
( 0.26666668 0.4 0.2 0.13333334 )
( 0.25 0.25 0.25 0.25 ))
(( 0.25 0.25 0.25 0.25 )
( 0.25 0.25 0.25 0.25 )
( 0.25 0.25 0.25 0.25 )
( 0.16666667 0.5 0.16666667 0.16666667 )))
((( 0.25 0.25 0.25 0.25 )
( 0.25 0.25 0.25 0.25 )
( 0.41666666 0.083333336 0.083333336 0.41666666 )
( 0.25 0.25 0.25 0.25 ))
(( 0.25 0.25 0.25 0.25 )
( 0.25 0.25 0.25 0.25 )
( 0.25 0.25 0.25 0.25 )
( 0.25 0.25 0.25 0.25 )))
((( 0.25 0.25 0.25 0.25 )
( 0.25 0.25 0.25 0.25 )
( 0.11111111 0.11111111 0.11111111 0.6666667 )
( 0.25 0.25 0.25 0.25 ))
(( 0.25 0.25 0.25 0.25 )
( 0.25 0.25 0.25 0.25 )
( 0.25 0.25 0.25 0.25 )
( 0.25 0.25 0.25 0.25 )))
((( 0.25 0.25 0.25 0.25 )
( 0.25 0.25 0.25 0.25 )
( 0.25 0.25 0.25 0.25 )
( 0.25 0.25 0.25 0.25 ))
(( 0.25 0.25 0.25 0.25 )
( 0.25 0.25 0.25 0.25 )
( 0.25 0.25 0.25 0.25 )
( 0.25 0.25 0.25 0.25 ))))
(((( 0.4848485 0.21212122 0.27272728 0.030303031 )
( 0.2857143 0.42857143 0.14285715 0.14285715 )
( 0.5 0.25 0.125 0.125 )
( 0.25 0.25 0.25 0.25 ))
(( 0.25 0.25 0.25 0.25 )
( 0.14285715 0.5294118 0.13445379 0.19327731 )
( 0.6363636 0.045454547 0.27272728 0.045454547 )
( 0.2 0.4 0.2 0.2 )))
((( 0.5952381 0.04761905 0.0952381 0.26190478 )
( 0.4 0.2 0.2 0.2 )
( 0.13043478 0.7826087 0.04347826 0.04347826 )
( 0.25 0.25 0.25 0.25 ))
(( 0.25 0.25 0.25 0.25 )
( 0.25 0.275 0.175 0.3 )
( 0.25 0.25 0.25 0.25 )
( 0.25 0.25 0.25 0.25 )))
((( 0.5714286 0.2857143 0.071428575 0.071428575 )
( 0.25 0.25 0.25 0.25 )
( 0.25 0.25 0.25 0.25 )
( 0.25 0.25 0.25 0.25 ))
(( 0.25 0.25 0.25 0.25 )
( 0.25 0.5833333 0.083333336 0.083333336 )
( 0.09090909 0.18181819 0.6363636 0.09090909 )
( 0.25 0.25 0.25 0.25 )))
((( 0.23809524 0.04761905 0.04761905 0.6666667 )
( 0.25 0.25 0.25 0.25 )
( 0.25 0.25 0.25 0.25 )
( 0.25 0.25 0.25 0.25 ))
(( 0.25 0.25 0.25 0.25 )
( 0.25 0.25 0.25 0.25 )
( 0.25 0.25 0.25 0.25 )
( 0.25 0.25 0.25 0.25 )))
((( 0.25 0.25 0.25 0.25 )
( 0.25 0.25 0.25 0.25 )
( 0.25 0.25 0.25 0.25 )
( 0.25 0.25 0.25 0.25 ))
(( 0.25 0.25 0.25 0.25 )
( 0.25 0.25 0.25 0.25 )
( 0.25 0.25 0.25 0.25 )
( 0.25 0.25 0.25 0.25 ))))
(((( 0.25 0.25 0.25 0.25 )
( 0.25 0.25 0.25 0.25 )
( 0.4883721 0.41860464 0.023255814 0.069767445 )
( 0.25 0.25 0.25 0.25 ))
(( 0.25 0.25 0.25 0.25 )
( 0.24193548 0.32258064 0.26612905 0.16935484 )
( 0.14285715 0.5714286 0.14285715 0.14285715 )
( 0.14285715 0.5714286 0.14285715 0.14285715 )))
((( 0.375 0.25 0.25 0.125 )
( 0.33333334 0.33333334 0.16666667 0.16666667 )
( 0.4742268 0.2783505 0.17525773 0.072164945 )
( 0.25 0.25 0.25 0.25 ))
(( 0.25 0.25 0.25 0.25 )
( 0.23529412 0.1764706 0.3529412 0.23529412 )
( 0.2857143 0.42857143 0.14285715 0.14285715 )
( 0.25 0.25 0.25 0.25 )))
((( 0.25 0.25 0.25 0.25 )
( 0.25 0.25 0.25 0.25 )
( 0.7 0.1 0.1 0.1 )
( 0.25 0.25 0.25 0.25 ))
(( 0.25 0.25 0.25 0.25 )
( 0.125 0.625 0.125 0.125 )
( 0.2 0.2 0.4 0.2 )
( 0.25 0.25 0.25 0.25 )))
((( 0.4 0.2 0.2 0.2 )
( 0.25 0.25 0.25 0.25 )
( 0.3 0.43333334 0.23333333 0.033333335 )
( 0.25 0.25 0.25 0.25 ))
(( 0.25 0.25 0.25 0.25 )
( 0.09090909 0.18181819 0.09090909 0.6363636 )
( 0.25 0.25 0.25 0.25 )
( 0.25 0.25 0.25 0.25 )))
((( 0.25 0.25 0.25 0.25 )
( 0.25 0.25 0.25 0.25 )
( 0.25 0.25 0.25 0.25 )
( 0.25 0.25 0.25 0.25 ))
(( 0.25 0.25 0.25 0.25 )
( 0.2 0.4 0.2 0.2 )
( 0.25 0.25 0.25 0.25 )
( 0.25 0.25 0.25 0.25 ))))
(((( 0.09677419 0.6451613 0.22580644 0.032258064 )
( 0.25 0.25 0.25 0.25 )
( 0.25 0.25 0.25 0.25 )
( 0.25 0.25 0.25 0.25 ))
(( 0.53846157 0.3846154 0.03846154 0.03846154 )
( 0.14285715 0.5714286 0.14285715 0.14285715 )
( 0.15384616 0.21538462 0.4 0.23076923 )
( 0.4 0.2 0.2 0.2 )))
((( 0.41509435 0.4716981 0.094339624 0.018867925 )
( 0.25 0.25 0.25 0.25 )
( 0.25 0.25 0.25 0.25 )
( 0.25 0.25 0.25 0.25 ))
(( 0.25 0.25 0.25 0.25 )
( 0.2 0.4 0.2 0.2 )
( 0.07692308 0.23076923 0.07692308 0.61538464 )
( 0.25 0.25 0.25 0.25 )))
((( 0.25 0.25 0.25 0.25 )
( 0.25 0.25 0.25 0.25 )
( 0.25 0.25 0.25 0.25 )
( 0.25 0.25 0.25 0.25 ))
(( 0.25 0.25 0.25 0.25 )
( 0.25 0.25 0.25 0.25 )
( 0.25 0.25 0.25 0.25 )
( 0.25 0.25 0.25 0.25 )))
((( 0.53846157 0.07692308 0.07692308 0.30769232 )
( 0.25 0.25 0.25 0.25 )
( 0.25 0.25 0.25 0.25 )
( 0.25 0.25 0.25 0.25 ))
(( 0.083333336 0.75 0.083333336 0.083333336 )
( 0.25 0.25 0.25 0.25 )
( 0.16666667 0.5 0.16666667 0.16666667 )
( 0.25 0.25 0.25 0.25 )))
((( 0.25 0.25 0.25 0.25 )
( 0.25 0.25 0.25 0.25 )
( 0.25 0.25 0.25 0.25 )
( 0.25 0.25 0.25 0.25 ))
(( 0.25 0.25 0.25 0.25 )
( 0.25 0.25 0.25 0.25 )
( 0.25 0.25 0.25 0.25 )
( 0.25 0.25 0.25 0.25 )))));
}

potential (mentoproeminencia | mentoredondo incisivos glabela sexo fronte)
{
 data = (((((( 0.33333334 0.33333334 0.16666667 0.16666667 )
( 0.25 0.25 0.25 0.25 )
( 0.25 0.25 0.25 0.25 )
( 0.25 0.25 0.25 0.25 ))
(( 0.2 0.4 0.2 0.2 )
( 0.25 0.25 0.25 0.25 )
( 0.25 0.25 0.25 0.25 )
( 0.25 0.25 0.25 0.25 ))
(( 0.25 0.25 0.25 0.25 )
( 0.25 0.25 0.25 0.25 )
( 0.25 0.25 0.25 0.25 )
( 0.25 0.25 0.25 0.25 ))
(( 0.25 0.25 0.25 0.25 )
( 0.25 0.25 0.25 0.25 )
( 0.25 0.25 0.25 0.25 )
( 0.25 0.25 0.25 0.25 ))
(( 0.25 0.25 0.25 0.25 )
( 0.25 0.25 0.25 0.25 )
( 0.25 0.25 0.25 0.25 )
( 0.25 0.25 0.25 0.25 )))
((( 0.2 0.4 0.2 0.2 )
( 0.25 0.25 0.25 0.25 )
( 0.25 0.25 0.25 0.25 )
( 0.25 0.25 0.25 0.25 ))
(( 0.25 0.25 0.25 0.25 )
( 0.25 0.25 0.25 0.25 )
( 0.25 0.25 0.25 0.25 )
( 0.25 0.25 0.25 0.25 ))
(( 0.25 0.25 0.25 0.25 )
( 0.25 0.25 0.25 0.25 )
( 0.25 0.25 0.25 0.25 )
( 0.25 0.25 0.25 0.25 ))
(( 0.25 0.25 0.25 0.25 )
( 0.25 0.25 0.25 0.25 )
( 0.25 0.25 0.25 0.25 )
( 0.25 0.25 0.25 0.25 ))
(( 0.25 0.25 0.25 0.25 )
( 0.25 0.25 0.25 0.25 )
( 0.25 0.25 0.25 0.25 )
( 0.25 0.25 0.25 0.25 )))
((( 0.14285715 0.14285715 0.5714286 0.14285715 )
( 0.2 0.6 0.1 0.1 )
( 0.16666667 0.16666667 0.5 0.16666667 )
( 0.7 0.1 0.1 0.1 ))
(( 0.36363637 0.18181819 0.09090909 0.36363637 )
( 0.06666667 0.6666667 0.06666667 0.2 )
( 0.11111111 0.33333334 0.44444445 0.11111111 )
( 0.5714286 0.14285715 0.14285715 0.14285715 ))
(( 0.125 0.125 0.625 0.125 )
( 0.25 0.25 0.25 0.25 )
( 0.25 0.25 0.25 0.25 )
( 0.625 0.125 0.125 0.125 ))
(( 0.25 0.25 0.25 0.25 )
( 0.25 0.25 0.25 0.25 )
( 0.25 0.25 0.25 0.25 )
( 0.6666667 0.11111111 0.11111111 0.11111111 ))
(( 0.25 0.25 0.25 0.25 )
( 0.25 0.25 0.25 0.25 )
( 0.25 0.25 0.25 0.25 )
( 0.25 0.25 0.25 0.25 )))
((( 0.25 0.25 0.25 0.25 )
( 0.25 0.25 0.25 0.25 )
( 0.25 0.25 0.25 0.25 )
( 0.25 0.25 0.25 0.25 ))
(( 0.25 0.25 0.25 0.25 )
( 0.25 0.25 0.25 0.25 )
( 0.25 0.25 0.25 0.25 )
( 0.25 0.25 0.25 0.25 ))
(( 0.25 0.25 0.25 0.25 )
( 0.25 0.25 0.25 0.25 )
( 0.25 0.25 0.25 0.25 )
( 0.25 0.25 0.25 0.25 ))
(( 0.25 0.25 0.25 0.25 )
( 0.25 0.25 0.25 0.25 )
( 0.25 0.25 0.25 0.25 )
( 0.25 0.25 0.25 0.25 ))
(( 0.25 0.25 0.25 0.25 )
( 0.25 0.25 0.25 0.25 )
( 0.25 0.25 0.25 0.25 )
( 0.25 0.25 0.25 0.25 ))))
(((( 0.25 0.25 0.25 0.25 )
( 0.25 0.25 0.25 0.25 )
( 0.25 0.25 0.25 0.25 )
( 0.25 0.25 0.25 0.25 ))
(( 0.25 0.25 0.25 0.25 )
( 0.25 0.25 0.25 0.25 )
( 0.25 0.25 0.25 0.25 )
( 0.25 0.25 0.25 0.25 ))
(( 0.25 0.25 0.25 0.25 )
( 0.25 0.25 0.25 0.25 )
( 0.25 0.25 0.25 0.25 )
( 0.25 0.25 0.25 0.25 ))
(( 0.25 0.25 0.25 0.25 )
( 0.25 0.25 0.25 0.25 )
( 0.25 0.25 0.25 0.25 )
( 0.25 0.25 0.25 0.25 ))
(( 0.25 0.25 0.25 0.25 )
( 0.25 0.25 0.25 0.25 )
( 0.25 0.25 0.25 0.25 )
( 0.25 0.25 0.25 0.25 )))
((( 0.25 0.25 0.25 0.25 )
( 0.2 0.4 0.2 0.2 )
( 0.25 0.25 0.25 0.25 )
( 0.25 0.25 0.25 0.25 ))
(( 0.25 0.25 0.25 0.25 )
( 0.25 0.25 0.25 0.25 )
( 0.25 0.25 0.25 0.25 )
( 0.25 0.25 0.25 0.25 ))
(( 0.25 0.25 0.25 0.25 )
( 0.25 0.25 0.25 0.25 )
( 0.25 0.25 0.25 0.25 )
( 0.25 0.25 0.25 0.25 ))
(( 0.25 0.25 0.25 0.25 )
( 0.25 0.25 0.25 0.25 )
( 0.25 0.25 0.25 0.25 )
( 0.25 0.25 0.25 0.25 ))
(( 0.25 0.25 0.25 0.25 )
( 0.25 0.25 0.25 0.25 )
( 0.25 0.25 0.25 0.25 )
( 0.25 0.25 0.25 0.25 )))
((( 0.25 0.25 0.25 0.25 )
( 0.25 0.25 0.25 0.25 )
( 0.25 0.25 0.25 0.25 )
( 0.25 0.25 0.25 0.25 ))
(( 0.25 0.25 0.25 0.25 )
( 0.25 0.25 0.25 0.25 )
( 0.25 0.25 0.25 0.25 )
( 0.25 0.25 0.25 0.25 ))
(( 0.25 0.25 0.25 0.25 )
( 0.25 0.25 0.25 0.25 )
( 0.25 0.25 0.25 0.25 )
( 0.25 0.25 0.25 0.25 ))
(( 0.25 0.25 0.25 0.25 )
( 0.25 0.25 0.25 0.25 )
( 0.25 0.25 0.25 0.25 )
( 0.25 0.25 0.25 0.25 ))
(( 0.25 0.25 0.25 0.25 )
( 0.25 0.25 0.25 0.25 )
( 0.25 0.25 0.25 0.25 )
( 0.25 0.25 0.25 0.25 )))
((( 0.09090909 0.54545456 0.27272728 0.09090909 )
( 0.037037037 0.7407407 0.037037037 0.18518518 )
( 0.16666667 0.33333334 0.44444445 0.055555556 )
( 0.14285715 0.5714286 0.14285715 0.14285715 ))
(( 0.25 0.25 0.25 0.25 )
( 0.16666667 0.5 0.16666667 0.16666667 )
( 0.25 0.25 0.25 0.25 )
( 0.25 0.25 0.25 0.25 ))
(( 0.25 0.25 0.25 0.25 )
( 0.25 0.25 0.25 0.25 )
( 0.25 0.25 0.25 0.25 )
( 0.25 0.25 0.25 0.25 ))
(( 0.25 0.25 0.25 0.25 )
( 0.25 0.25 0.25 0.25 )
( 0.25 0.25 0.25 0.25 )
( 0.25 0.25 0.25 0.25 ))
(( 0.25 0.25 0.25 0.25 )
( 0.25 0.25 0.25 0.25 )
( 0.25 0.25 0.25 0.25 )
( 0.25 0.25 0.25 0.25 )))))
((((( 0.31578946 0.31578946 0.05263158 0.31578946 )
( 0.7 0.1 0.1 0.1 )
( 0.083333336 0.75 0.083333336 0.083333336 )
( 0.25 0.25 0.25 0.25 ))
(( 0.64285713 0.14285715 0.17857143 0.035714287 )
( 0.2 0.4 0.2 0.2 )
( 0.14285715 0.5714286 0.14285715 0.14285715 )
( 0.78571427 0.071428575 0.071428575 0.071428575 ))
(( 0.09090909 0.09090909 0.09090909 0.72727275 )
( 0.5714286 0.14285715 0.14285715 0.14285715 )
( 0.25 0.25 0.25 0.25 )
( 0.25 0.25 0.25 0.25 ))
(( 0.625 0.125 0.125 0.125 )
( 0.25 0.25 0.25 0.25 )
( 0.25 0.25 0.25 0.25 )
( 0.8235294 0.05882353 0.05882353 0.05882353 ))
(( 0.25 0.25 0.25 0.25 )
( 0.25 0.25 0.25 0.25 )
( 0.25 0.25 0.25 0.25 )
( 0.25 0.25 0.25 0.25 )))
((( 0.2 0.4 0.2 0.2 )
( 0.16666667 0.5 0.16666667 0.16666667 )
( 0.25 0.25 0.25 0.25 )
( 0.25 0.25 0.25 0.25 ))
(( 0.2 0.4 0.2 0.2 )
( 0.25 0.25 0.25 0.25 )
( 0.25 0.25 0.25 0.25 )
( 0.25 0.25 0.25 0.25 ))
(( 0.25 0.25 0.25 0.25 )
( 0.25 0.25 0.25 0.25 )
( 0.25 0.25 0.25 0.25 )
( 0.25 0.25 0.25 0.25 ))
(( 0.25 0.25 0.25 0.25 )
( 0.25 0.25 0.25 0.25 )
( 0.25 0.25 0.25 0.25 )
( 0.25 0.25 0.25 0.25 ))
(( 0.25 0.25 0.25 0.25 )
( 0.25 0.25 0.25 0.25 )
( 0.25 0.25 0.25 0.25 )
( 0.25 0.25 0.25 0.25 )))
((( 0.2857143 0.14285715 0.14285715 0.42857143 )
( 0.2 0.4 0.2 0.2 )
( 0.25 0.25 0.25 0.25 )
( 0.25 0.25 0.25 0.25 ))
(( 0.5 0.16666667 0.16666667 0.16666667 )
( 0.04761905 0.04761905 0.85714287 0.04761905 )
( 0.25 0.25 0.25 0.25 )
( 0.25 0.25 0.25 0.25 ))
(( 0.25 0.25 0.25 0.25 )
( 0.25 0.25 0.25 0.25 )
( 0.25 0.25 0.25 0.25 )
( 0.25 0.25 0.25 0.25 ))
(( 0.25 0.25 0.25 0.25 )
( 0.25 0.25 0.25 0.25 )
( 0.25 0.25 0.25 0.25 )
( 0.25 0.25 0.25 0.25 ))
(( 0.25 0.25 0.25 0.25 )
( 0.25 0.25 0.25 0.25 )
( 0.25 0.25 0.25 0.25 )
( 0.25 0.25 0.25 0.25 )))
((( 0.25 0.25 0.25 0.25 )
( 0.25 0.25 0.25 0.25 )
( 0.25 0.25 0.25 0.25 )
( 0.25 0.25 0.25 0.25 ))
(( 0.25 0.25 0.25 0.25 )
( 0.25 0.25 0.25 0.25 )
( 0.25 0.25 0.25 0.25 )
( 0.25 0.25 0.25 0.25 ))
(( 0.25 0.25 0.25 0.25 )
( 0.25 0.25 0.25 0.25 )
( 0.25 0.25 0.25 0.25 )
( 0.25 0.25 0.25 0.25 ))
(( 0.25 0.25 0.25 0.25 )
( 0.25 0.25 0.25 0.25 )
( 0.25 0.25 0.25 0.25 )
( 0.25 0.25 0.25 0.25 ))
(( 0.25 0.25 0.25 0.25 )
( 0.25 0.25 0.25 0.25 )
( 0.25 0.25 0.25 0.25 )
( 0.25 0.25 0.25 0.25 ))))
(((( 0.25 0.25 0.25 0.25 )
( 0.25 0.25 0.25 0.25 )
( 0.25 0.25 0.25 0.25 )
( 0.25 0.25 0.25 0.25 ))
(( 0.25 0.25 0.25 0.25 )
( 0.25 0.25 0.25 0.25 )
( 0.25 0.25 0.25 0.25 )
( 0.25 0.25 0.25 0.25 ))
(( 0.25 0.25 0.25 0.25 )
( 0.25 0.25 0.25 0.25 )
( 0.25 0.25 0.25 0.25 )
( 0.25 0.25 0.25 0.25 ))
(( 0.25 0.25 0.25 0.25 )
( 0.25 0.25 0.25 0.25 )
( 0.25 0.25 0.25 0.25 )
( 0.25 0.25 0.25 0.25 ))
(( 0.25 0.25 0.25 0.25 )
( 0.25 0.25 0.25 0.25 )
( 0.25 0.25 0.25 0.25 )
( 0.25 0.25 0.25 0.25 )))
((( 0.45 0.3 0.2 0.05 )
( 0.3181818 0.28787878 0.3181818 0.07575758 )
( 0.21052632 0.42105263 0.21052632 0.15789473 )
( 0.7307692 0.15384616 0.07692308 0.03846154 ))
(( 0.30769232 0.53846157 0.07692308 0.07692308 )
( 0.071428575 0.78571427 0.071428575 0.071428575 )
( 0.1 0.6 0.2 0.1 )
( 0.13333334 0.73333335 0.06666667 0.06666667 ))
(( 0.16666667 0.5 0.16666667 0.16666667 )
( 0.1 0.2 0.1 0.6 )
( 0.25 0.25 0.25 0.25 )
( 0.25 0.25 0.25 0.25 ))
(( 0.25 0.25 0.25 0.25 )
( 0.25 0.25 0.25 0.25 )
( 0.25 0.25 0.25 0.25 )
( 0.25 0.25 0.25 0.25 ))
(( 0.25 0.25 0.25 0.25 )
( 0.25 0.25 0.25 0.25 )
( 0.25 0.25 0.25 0.25 )
( 0.25 0.25 0.25 0.25 )))
((( 0.11764706 0.11764706 0.05882353 0.7058824 )
( 0.25 0.25 0.25 0.25 )
( 0.11111111 0.11111111 0.6666667 0.11111111 )
( 0.25 0.25 0.25 0.25 ))
(( 0.25 0.25 0.25 0.25 )
( 0.25 0.25 0.25 0.25 )
( 0.25 0.25 0.25 0.25 )
( 0.25 0.25 0.25 0.25 ))
(( 0.25 0.25 0.25 0.25 )
( 0.4 0.2 0.2 0.2 )
( 0.1 0.1 0.1 0.7 )
( 0.25 0.25 0.25 0.25 ))
(( 0.25 0.25 0.25 0.25 )
( 0.25 0.25 0.25 0.25 )
( 0.25 0.25 0.25 0.25 )
( 0.25 0.25 0.25 0.25 ))
(( 0.25 0.25 0.25 0.25 )
( 0.25 0.25 0.25 0.25 )
( 0.25 0.25 0.25 0.25 )
( 0.25 0.25 0.25 0.25 )))
((( 0.25 0.25 0.25 0.25 )
( 0.2 0.4 0.2 0.2 )
( 0.25 0.25 0.25 0.25 )
( 0.25 0.25 0.25 0.25 ))
(( 0.25 0.25 0.25 0.25 )
( 0.25 0.25 0.25 0.25 )
( 0.25 0.25 0.25 0.25 )
( 0.25 0.25 0.25 0.25 ))
(( 0.25 0.25 0.25 0.25 )
( 0.25 0.25 0.25 0.25 )
( 0.25 0.25 0.25 0.25 )
( 0.25 0.25 0.25 0.25 ))
(( 0.25 0.25 0.25 0.25 )
( 0.25 0.25 0.25 0.25 )
( 0.25 0.25 0.25 0.25 )
( 0.25 0.25 0.25 0.25 ))
(( 0.25 0.25 0.25 0.25 )
( 0.25 0.25 0.25 0.25 )
( 0.25 0.25 0.25 0.25 )
( 0.25 0.25 0.25 0.25 )))))
((((( 0.25 0.25 0.25 0.25 )
( 0.25 0.25 0.25 0.25 )
( 0.25 0.25 0.25 0.25 )
( 0.25 0.25 0.25 0.25 ))
(( 0.5 0.16666667 0.16666667 0.16666667 )
( 0.4 0.2 0.2 0.2 )
( 0.2 0.4 0.2 0.2 )
( 0.25 0.25 0.25 0.25 ))
(( 0.25 0.25 0.25 0.25 )
( 0.25 0.25 0.25 0.25 )
( 0.25 0.25 0.25 0.25 )
( 0.25 0.25 0.25 0.25 ))
(( 0.2 0.4 0.2 0.2 )
( 0.25 0.25 0.25 0.25 )
( 0.25 0.25 0.25 0.25 )
( 0.25 0.25 0.25 0.25 ))
(( 0.25 0.25 0.25 0.25 )
( 0.25 0.25 0.25 0.25 )
( 0.25 0.25 0.25 0.25 )
( 0.25 0.25 0.25 0.25 )))
((( 0.25 0.25 0.25 0.25 )
( 0.25 0.25 0.25 0.25 )
( 0.25 0.25 0.25 0.25 )
( 0.25 0.25 0.25 0.25 ))
(( 0.4 0.2 0.2 0.2 )
( 0.4 0.2 0.2 0.2 )
( 0.25 0.25 0.25 0.25 )
( 0.25 0.25 0.25 0.25 ))
(( 0.25 0.25 0.25 0.25 )
( 0.25 0.25 0.25 0.25 )
( 0.25 0.25 0.25 0.25 )
( 0.25 0.25 0.25 0.25 ))
(( 0.25 0.25 0.25 0.25 )
( 0.25 0.25 0.25 0.25 )
( 0.25 0.25 0.25 0.25 )
( 0.25 0.25 0.25 0.25 ))
(( 0.25 0.25 0.25 0.25 )
( 0.25 0.25 0.25 0.25 )
( 0.25 0.25 0.25 0.25 )
( 0.25 0.25 0.25 0.25 )))
((( 0.375 0.29166666 0.041666668 0.29166666 )
( 0.61904764 0.04761905 0.2857143 0.04761905 )
( 0.25 0.25 0.25 0.25 )
( 0.5 0.16666667 0.16666667 0.16666667 ))
(( 0.30612245 0.40816328 0.24489796 0.040816326 )
( 0.33333334 0.53333336 0.1 0.033333335 )
( 0.75 0.05 0.15 0.05 )
( 0.7 0.1 0.1 0.1 ))
(( 0.1 0.1 0.1 0.7 )
( 0.25 0.25 0.25 0.25 )
( 0.25 0.25 0.25 0.25 )
( 0.25 0.25 0.25 0.25 ))
(( 0.75 0.083333336 0.083333336 0.083333336 )
( 0.1875 0.6875 0.0625 0.0625 )
( 0.1 0.1 0.7 0.1 )
( 0.25 0.25 0.25 0.25 ))
(( 0.25 0.25 0.25 0.25 )
( 0.25 0.25 0.25 0.25 )
( 0.25 0.25 0.25 0.25 )
( 0.25 0.25 0.25 0.25 )))
((( 0.25 0.25 0.25 0.25 )
( 0.25 0.25 0.25 0.25 )
( 0.25 0.25 0.25 0.25 )
( 0.25 0.25 0.25 0.25 ))
(( 0.25 0.25 0.25 0.25 )
( 0.25 0.25 0.25 0.25 )
( 0.25 0.25 0.25 0.25 )
( 0.25 0.25 0.25 0.25 ))
(( 0.25 0.25 0.25 0.25 )
( 0.25 0.25 0.25 0.25 )
( 0.25 0.25 0.25 0.25 )
( 0.25 0.25 0.25 0.25 ))
(( 0.25 0.25 0.25 0.25 )
( 0.25 0.25 0.25 0.25 )
( 0.25 0.25 0.25 0.25 )
( 0.25 0.25 0.25 0.25 ))
(( 0.25 0.25 0.25 0.25 )
( 0.25 0.25 0.25 0.25 )
( 0.25 0.25 0.25 0.25 )
( 0.25 0.25 0.25 0.25 ))))
(((( 0.25 0.25 0.25 0.25 )
( 0.25 0.25 0.25 0.25 )
( 0.25 0.25 0.25 0.25 )
( 0.25 0.25 0.25 0.25 ))
(( 0.25 0.25 0.25 0.25 )
( 0.25 0.25 0.25 0.25 )
( 0.25 0.25 0.25 0.25 )
( 0.25 0.25 0.25 0.25 ))
(( 0.25 0.25 0.25 0.25 )
( 0.25 0.25 0.25 0.25 )
( 0.25 0.25 0.25 0.25 )
( 0.25 0.25 0.25 0.25 ))
(( 0.25 0.25 0.25 0.25 )
( 0.25 0.25 0.25 0.25 )
( 0.25 0.25 0.25 0.25 )
( 0.25 0.25 0.25 0.25 ))
(( 0.25 0.25 0.25 0.25 )
( 0.25 0.25 0.25 0.25 )
( 0.25 0.25 0.25 0.25 )
( 0.25 0.25 0.25 0.25 )))
((( 0.36363637 0.42424244 0.15151516 0.060606062 )
( 0.046511628 0.4651163 0.23255815 0.25581396 )
( 0.027777778 0.6388889 0.083333336 0.25 )
( 0.41666666 0.5 0.041666668 0.041666668 ))
(( 0.2857143 0.42857143 0.14285715 0.14285715 )
( 0.16666667 0.5 0.16666667 0.16666667 )
( 0.11111111 0.6666667 0.11111111 0.11111111 )
( 0.5714286 0.14285715 0.14285715 0.14285715 ))
(( 0.25 0.25 0.25 0.25 )
( 0.125 0.125 0.625 0.125 )
( 0.25 0.25 0.25 0.25 )
( 0.25 0.25 0.25 0.25 ))
(( 0.25 0.25 0.25 0.25 )
( 0.4 0.2 0.2 0.2 )
( 0.25 0.25 0.25 0.25 )
( 0.1 0.7 0.1 0.1 ))
(( 0.25 0.25 0.25 0.25 )
( 0.2 0.4 0.2 0.2 )
( 0.25 0.25 0.25 0.25 )
( 0.25 0.25 0.25 0.25 )))
((( 0.25 0.25 0.25 0.25 )
( 0.2857143 0.42857143 0.14285715 0.14285715 )
( 0.25 0.25 0.25 0.25 )
( 0.25 0.25 0.25 0.25 ))
(( 0.4 0.2 0.2 0.2 )
( 0.33333334 0.33333334 0.16666667 0.16666667 )
( 0.25 0.25 0.25 0.25 )
( 0.25 0.25 0.25 0.25 ))
(( 0.25 0.25 0.25 0.25 )
( 0.25 0.25 0.25 0.25 )
( 0.4 0.2 0.2 0.2 )
( 0.25 0.25 0.25 0.25 ))
(( 0.25 0.25 0.25 0.25 )
( 0.25 0.25 0.25 0.25 )
( 0.25 0.25 0.25 0.25 )
( 0.25 0.25 0.25 0.25 ))
(( 0.25 0.25 0.25 0.25 )
( 0.25 0.25 0.25 0.25 )
( 0.25 0.25 0.25 0.25 )
( 0.25 0.25 0.25 0.25 )))
((( 0.25 0.25 0.25 0.25 )
( 0.14285715 0.14285715 0.14285715 0.5714286 )
( 0.25 0.25 0.25 0.25 )
( 0.25 0.25 0.25 0.25 ))
(( 0.25 0.25 0.25 0.25 )
( 0.25 0.25 0.25 0.25 )
( 0.25 0.25 0.25 0.25 )
( 0.25 0.25 0.25 0.25 ))
(( 0.25 0.25 0.25 0.25 )
( 0.25 0.25 0.25 0.25 )
( 0.25 0.25 0.25 0.25 )
( 0.25 0.25 0.25 0.25 ))
(( 0.25 0.25 0.25 0.25 )
( 0.25 0.25 0.25 0.25 )
( 0.25 0.25 0.25 0.25 )
( 0.25 0.25 0.25 0.25 ))
(( 0.25 0.25 0.25 0.25 )
( 0.25 0.25 0.25 0.25 )
( 0.25 0.25 0.25 0.25 )
( 0.25 0.25 0.25 0.25 )))))
((((( 0.5 0.16666667 0.16666667 0.16666667 )
( 0.2173913 0.3478261 0.04347826 0.39130434 )
( 0.7 0.1 0.1 0.1 )
( 0.25 0.25 0.25 0.25 ))
(( 0.52 0.4 0.04 0.04 )
( 0.4642857 0.21428572 0.2857143 0.035714287 )
( 0.125 0.125 0.125 0.625 )
( 0.25 0.25 0.25 0.25 ))
(( 0.25 0.25 0.25 0.25 )
( 0.25 0.25 0.25 0.25 )
( 0.25 0.25 0.25 0.25 )
( 0.25 0.25 0.25 0.25 ))
(( 0.7 0.1 0.1 0.1 )
( 0.25 0.25 0.25 0.25 )
( 0.25 0.25 0.25 0.25 )
( 0.5714286 0.14285715 0.14285715 0.14285715 ))
(( 0.25 0.25 0.25 0.25 )
( 0.25 0.25 0.25 0.25 )
( 0.25 0.25 0.25 0.25 )
( 0.25 0.25 0.25 0.25 )))
((( 0.25 0.25 0.25 0.25 )
( 0.25 0.25 0.25 0.25 )
( 0.25 0.25 0.25 0.25 )
( 0.25 0.25 0.25 0.25 ))
(( 0.25 0.25 0.25 0.25 )
( 0.25 0.25 0.25 0.25 )
( 0.25 0.25 0.25 0.25 )
( 0.25 0.25 0.25 0.25 ))
(( 0.25 0.25 0.25 0.25 )
( 0.25 0.25 0.25 0.25 )
( 0.25 0.25 0.25 0.25 )
( 0.25 0.25 0.25 0.25 ))
(( 0.25 0.25 0.25 0.25 )
( 0.25 0.25 0.25 0.25 )
( 0.25 0.25 0.25 0.25 )
( 0.25 0.25 0.25 0.25 ))
(( 0.25 0.25 0.25 0.25 )
( 0.25 0.25 0.25 0.25 )
( 0.25 0.25 0.25 0.25 )
( 0.25 0.25 0.25 0.25 )))
((( 0.25 0.25 0.25 0.25 )
( 0.25 0.25 0.25 0.25 )
( 0.25 0.25 0.25 0.25 )
( 0.25 0.25 0.25 0.25 ))
(( 0.25 0.25 0.25 0.25 )
( 0.25 0.25 0.25 0.25 )
( 0.25 0.25 0.25 0.25 )
( 0.25 0.25 0.25 0.25 ))
(( 0.25 0.25 0.25 0.25 )
( 0.25 0.25 0.25 0.25 )
( 0.25 0.25 0.25 0.25 )
( 0.25 0.25 0.25 0.25 ))
(( 0.25 0.25 0.25 0.25 )
( 0.25 0.25 0.25 0.25 )
( 0.25 0.25 0.25 0.25 )
( 0.25 0.25 0.25 0.25 ))
(( 0.25 0.25 0.25 0.25 )
( 0.25 0.25 0.25 0.25 )
( 0.25 0.25 0.25 0.25 )
( 0.25 0.25 0.25 0.25 )))
((( 0.25 0.25 0.25 0.25 )
( 0.25 0.25 0.25 0.25 )
( 0.25 0.25 0.25 0.25 )
( 0.25 0.25 0.25 0.25 ))
(( 0.25 0.25 0.25 0.25 )
( 0.25 0.25 0.25 0.25 )
( 0.25 0.25 0.25 0.25 )
( 0.25 0.25 0.25 0.25 ))
(( 0.25 0.25 0.25 0.25 )
( 0.25 0.25 0.25 0.25 )
( 0.25 0.25 0.25 0.25 )
( 0.25 0.25 0.25 0.25 ))
(( 0.25 0.25 0.25 0.25 )
( 0.25 0.25 0.25 0.25 )
( 0.25 0.25 0.25 0.25 )
( 0.25 0.25 0.25 0.25 ))
(( 0.25 0.25 0.25 0.25 )
( 0.25 0.25 0.25 0.25 )
( 0.25 0.25 0.25 0.25 )
( 0.25 0.25 0.25 0.25 ))))
(((( 0.4117647 0.47058824 0.05882353 0.05882353 )
( 0.07692308 0.7692308 0.07692308 0.07692308 )
( 0.25 0.25 0.25 0.25 )
( 0.25 0.25 0.25 0.25 ))
(( 0.25 0.25 0.25 0.25 )
( 0.25 0.25 0.25 0.25 )
( 0.25 0.25 0.25 0.25 )
( 0.25 0.25 0.25 0.25 ))
(( 0.25 0.25 0.25 0.25 )
( 0.25 0.25 0.25 0.25 )
( 0.25 0.25 0.25 0.25 )
( 0.25 0.25 0.25 0.25 ))
(( 0.25 0.25 0.25 0.25 )
( 0.083333336 0.75 0.083333336 0.083333336 )
( 0.25 0.25 0.25 0.25 )
( 0.25 0.25 0.25 0.25 ))
(( 0.25 0.25 0.25 0.25 )
( 0.25 0.25 0.25 0.25 )
( 0.25 0.25 0.25 0.25 )
( 0.25 0.25 0.25 0.25 )))
((( 0.25 0.25 0.25 0.25 )
( 0.14285715 0.5714286 0.14285715 0.14285715 )
( 0.25 0.25 0.25 0.25 )
( 0.25 0.25 0.25 0.25 ))
(( 0.25 0.25 0.25 0.25 )
( 0.2 0.4 0.2 0.2 )
( 0.25 0.25 0.25 0.25 )
( 0.25 0.25 0.25 0.25 ))
(( 0.25 0.25 0.25 0.25 )
( 0.25 0.25 0.25 0.25 )
( 0.25 0.25 0.25 0.25 )
( 0.25 0.25 0.25 0.25 ))
(( 0.25 0.25 0.25 0.25 )
( 0.25 0.25 0.25 0.25 )
( 0.25 0.25 0.25 0.25 )
( 0.25 0.25 0.25 0.25 ))
(( 0.25 0.25 0.25 0.25 )
( 0.25 0.25 0.25 0.25 )
( 0.25 0.25 0.25 0.25 )
( 0.25 0.25 0.25 0.25 )))
((( 0.23076923 0.30769232 0.07692308 0.3846154 )
( 0.29411766 0.5882353 0.05882353 0.05882353 )
( 0.03448276 0.44827586 0.4827586 0.03448276 )
( 0.055555556 0.3888889 0.055555556 0.5 ))
(( 0.25 0.25 0.25 0.25 )
( 0.16666667 0.5 0.16666667 0.16666667 )
( 0.25 0.25 0.25 0.25 )
( 0.72727275 0.09090909 0.09090909 0.09090909 ))
(( 0.25 0.25 0.25 0.25 )
( 0.25 0.25 0.25 0.25 )
( 0.25 0.25 0.25 0.25 )
( 0.25 0.25 0.25 0.25 ))
(( 0.25 0.25 0.25 0.25 )
( 0.16666667 0.5 0.16666667 0.16666667 )
( 0.25 0.25 0.25 0.25 )
( 0.25 0.25 0.25 0.25 ))
(( 0.25 0.25 0.25 0.25 )
( 0.25 0.25 0.25 0.25 )
( 0.25 0.25 0.25 0.25 )
( 0.25 0.25 0.25 0.25 )))
((( 0.2 0.4 0.2 0.2 )
( 0.25 0.25 0.25 0.25 )
( 0.25 0.25 0.25 0.25 )
( 0.25 0.25 0.25 0.25 ))
(( 0.25 0.25 0.25 0.25 )
( 0.25 0.25 0.25 0.25 )
( 0.25 0.25 0.25 0.25 )
( 0.25 0.25 0.25 0.25 ))
(( 0.25 0.25 0.25 0.25 )
( 0.25 0.25 0.25 0.25 )
( 0.25 0.25 0.25 0.25 )
( 0.25 0.25 0.25 0.25 ))
(( 0.25 0.25 0.25 0.25 )
( 0.25 0.25 0.25 0.25 )
( 0.25 0.25 0.25 0.25 )
( 0.25 0.25 0.25 0.25 ))
(( 0.25 0.25 0.25 0.25 )
( 0.25 0.25 0.25 0.25 )
( 0.25 0.25 0.25 0.25 )
( 0.25 0.25 0.25 0.25 ))))));
}

potential (orbita | mentoproeminencia sexo mentoredondo incisivos glabela fronte)
{
 data = ((((((( 0.5 0.25 0.25 )
( 0.25 0.5 0.25 )
( 0.33333334 0.33333334 0.33333334 )
( 0.33333334 0.33333334 0.33333334 ))
(( 0.33333334 0.33333334 0.33333334 )
( 0.33333334 0.33333334 0.33333334 )
( 0.33333334 0.33333334 0.33333334 )
( 0.33333334 0.33333334 0.33333334 )))
((( 0.33333334 0.33333334 0.33333334 )
( 0.33333334 0.33333334 0.33333334 )
( 0.33333334 0.33333334 0.33333334 )
( 0.33333334 0.33333334 0.33333334 ))
(( 0.33333334 0.33333334 0.33333334 )
( 0.33333334 0.33333334 0.33333334 )
( 0.33333334 0.33333334 0.33333334 )
( 0.33333334 0.33333334 0.33333334 )))
((( 0.33333334 0.33333334 0.33333334 )
( 0.33333334 0.33333334 0.33333334 )
( 0.33333334 0.33333334 0.33333334 )
( 0.33333334 0.33333334 0.33333334 ))
(( 0.33333334 0.33333334 0.33333334 )
( 0.33333334 0.33333334 0.33333334 )
( 0.33333334 0.33333334 0.33333334 )
( 0.33333334 0.33333334 0.33333334 )))
((( 0.33333334 0.33333334 0.33333334 )
( 0.33333334 0.33333334 0.33333334 )
( 0.33333334 0.33333334 0.33333334 )
( 0.33333334 0.33333334 0.33333334 ))
(( 0.33333334 0.33333334 0.33333334 )
( 0.33333334 0.33333334 0.33333334 )
( 0.33333334 0.33333334 0.33333334 )
( 0.33333334 0.33333334 0.33333334 ))))
(((( 0.33333334 0.33333334 0.33333334 )
( 0.25 0.5 0.25 )
( 0.33333334 0.33333334 0.33333334 )
( 0.33333334 0.33333334 0.33333334 ))
(( 0.33333334 0.33333334 0.33333334 )
( 0.33333334 0.33333334 0.33333334 )
( 0.33333334 0.33333334 0.33333334 )
( 0.33333334 0.33333334 0.33333334 )))
((( 0.33333334 0.33333334 0.33333334 )
( 0.33333334 0.33333334 0.33333334 )
( 0.33333334 0.33333334 0.33333334 )
( 0.33333334 0.33333334 0.33333334 ))
(( 0.33333334 0.33333334 0.33333334 )
( 0.33333334 0.33333334 0.33333334 )
( 0.33333334 0.33333334 0.33333334 )
( 0.33333334 0.33333334 0.33333334 )))
((( 0.33333334 0.33333334 0.33333334 )
( 0.33333334 0.33333334 0.33333334 )
( 0.33333334 0.33333334 0.33333334 )
( 0.33333334 0.33333334 0.33333334 ))
(( 0.33333334 0.33333334 0.33333334 )
( 0.33333334 0.33333334 0.33333334 )
( 0.33333334 0.33333334 0.33333334 )
( 0.33333334 0.33333334 0.33333334 )))
((( 0.33333334 0.33333334 0.33333334 )
( 0.33333334 0.33333334 0.33333334 )
( 0.33333334 0.33333334 0.33333334 )
( 0.33333334 0.33333334 0.33333334 ))
(( 0.33333334 0.33333334 0.33333334 )
( 0.33333334 0.33333334 0.33333334 )
( 0.33333334 0.33333334 0.33333334 )
( 0.33333334 0.33333334 0.33333334 ))))
(((( 0.33333334 0.33333334 0.33333334 )
( 0.33333334 0.33333334 0.33333334 )
( 0.33333334 0.33333334 0.33333334 )
( 0.33333334 0.33333334 0.33333334 ))
(( 0.33333334 0.33333334 0.33333334 )
( 0.33333334 0.33333334 0.33333334 )
( 0.33333334 0.33333334 0.33333334 )
( 0.33333334 0.33333334 0.33333334 )))
((( 0.33333334 0.33333334 0.33333334 )
( 0.33333334 0.33333334 0.33333334 )
( 0.33333334 0.33333334 0.33333334 )
( 0.33333334 0.33333334 0.33333334 ))
(( 0.33333334 0.33333334 0.33333334 )
( 0.33333334 0.33333334 0.33333334 )
( 0.33333334 0.33333334 0.33333334 )
( 0.33333334 0.33333334 0.33333334 )))
((( 0.33333334 0.33333334 0.33333334 )
( 0.33333334 0.33333334 0.33333334 )
( 0.33333334 0.33333334 0.33333334 )
( 0.33333334 0.33333334 0.33333334 ))
(( 0.33333334 0.33333334 0.33333334 )
( 0.33333334 0.33333334 0.33333334 )
( 0.33333334 0.33333334 0.33333334 )
( 0.33333334 0.33333334 0.33333334 )))
((( 0.33333334 0.33333334 0.33333334 )
( 0.33333334 0.33333334 0.33333334 )
( 0.33333334 0.33333334 0.33333334 )
( 0.33333334 0.33333334 0.33333334 ))
(( 0.33333334 0.33333334 0.33333334 )
( 0.33333334 0.33333334 0.33333334 )
( 0.33333334 0.33333334 0.33333334 )
( 0.33333334 0.33333334 0.33333334 ))))
(((( 0.33333334 0.33333334 0.33333334 )
( 0.33333334 0.33333334 0.33333334 )
( 0.33333334 0.33333334 0.33333334 )
( 0.33333334 0.33333334 0.33333334 ))
(( 0.33333334 0.33333334 0.33333334 )
( 0.33333334 0.33333334 0.33333334 )
( 0.33333334 0.33333334 0.33333334 )
( 0.33333334 0.33333334 0.33333334 )))
((( 0.33333334 0.33333334 0.33333334 )
( 0.33333334 0.33333334 0.33333334 )
( 0.33333334 0.33333334 0.33333334 )
( 0.33333334 0.33333334 0.33333334 ))
(( 0.33333334 0.33333334 0.33333334 )
( 0.33333334 0.33333334 0.33333334 )
( 0.33333334 0.33333334 0.33333334 )
( 0.33333334 0.33333334 0.33333334 )))
((( 0.33333334 0.33333334 0.33333334 )
( 0.33333334 0.33333334 0.33333334 )
( 0.33333334 0.33333334 0.33333334 )
( 0.33333334 0.33333334 0.33333334 ))
(( 0.33333334 0.33333334 0.33333334 )
( 0.33333334 0.33333334 0.33333334 )
( 0.33333334 0.33333334 0.33333334 )
( 0.33333334 0.33333334 0.33333334 )))
((( 0.33333334 0.33333334 0.33333334 )
( 0.33333334 0.33333334 0.33333334 )
( 0.33333334 0.33333334 0.33333334 )
( 0.33333334 0.33333334 0.33333334 ))
(( 0.33333334 0.33333334 0.33333334 )
( 0.33333334 0.33333334 0.33333334 )
( 0.33333334 0.33333334 0.33333334 )
( 0.33333334 0.33333334 0.33333334 ))))
(((( 0.33333334 0.33333334 0.33333334 )
( 0.33333334 0.33333334 0.33333334 )
( 0.33333334 0.33333334 0.33333334 )
( 0.33333334 0.33333334 0.33333334 ))
(( 0.33333334 0.33333334 0.33333334 )
( 0.33333334 0.33333334 0.33333334 )
( 0.33333334 0.33333334 0.33333334 )
( 0.33333334 0.33333334 0.33333334 )))
((( 0.33333334 0.33333334 0.33333334 )
( 0.33333334 0.33333334 0.33333334 )
( 0.33333334 0.33333334 0.33333334 )
( 0.33333334 0.33333334 0.33333334 ))
(( 0.33333334 0.33333334 0.33333334 )
( 0.33333334 0.33333334 0.33333334 )
( 0.33333334 0.33333334 0.33333334 )
( 0.33333334 0.33333334 0.33333334 )))
((( 0.33333334 0.33333334 0.33333334 )
( 0.33333334 0.33333334 0.33333334 )
( 0.33333334 0.33333334 0.33333334 )
( 0.33333334 0.33333334 0.33333334 ))
(( 0.33333334 0.33333334 0.33333334 )
( 0.33333334 0.33333334 0.33333334 )
( 0.33333334 0.33333334 0.33333334 )
( 0.33333334 0.33333334 0.33333334 )))
((( 0.33333334 0.33333334 0.33333334 )
( 0.33333334 0.33333334 0.33333334 )
( 0.33333334 0.33333334 0.33333334 )
( 0.33333334 0.33333334 0.33333334 ))
(( 0.33333334 0.33333334 0.33333334 )
( 0.33333334 0.33333334 0.33333334 )
( 0.33333334 0.33333334 0.33333334 )
( 0.33333334 0.33333334 0.33333334 )))))
((((( 0.33333334 0.33333334 0.33333334 )
( 0.5 0.25 0.25 )
( 0.33333334 0.33333334 0.33333334 )
( 0.33333334 0.33333334 0.33333334 ))
(( 0.33333334 0.33333334 0.33333334 )
( 0.33333334 0.33333334 0.33333334 )
( 0.33333334 0.33333334 0.33333334 )
( 0.33333334 0.33333334 0.33333334 )))
((( 0.33333334 0.33333334 0.33333334 )
( 0.33333334 0.33333334 0.33333334 )
( 0.33333334 0.33333334 0.33333334 )
( 0.33333334 0.33333334 0.33333334 ))
(( 0.33333334 0.33333334 0.33333334 )
( 0.25 0.5 0.25 )
( 0.33333334 0.33333334 0.33333334 )
( 0.33333334 0.33333334 0.33333334 )))
((( 0.33333334 0.33333334 0.33333334 )
( 0.33333334 0.33333334 0.33333334 )
( 0.33333334 0.33333334 0.33333334 )
( 0.33333334 0.33333334 0.33333334 ))
(( 0.33333334 0.33333334 0.33333334 )
( 0.33333334 0.33333334 0.33333334 )
( 0.33333334 0.33333334 0.33333334 )
( 0.33333334 0.33333334 0.33333334 )))
((( 0.33333334 0.33333334 0.33333334 )
( 0.33333334 0.33333334 0.33333334 )
( 0.33333334 0.33333334 0.33333334 )
( 0.33333334 0.33333334 0.33333334 ))
(( 0.33333334 0.33333334 0.33333334 )
( 0.33333334 0.33333334 0.33333334 )
( 0.33333334 0.33333334 0.33333334 )
( 0.33333334 0.33333334 0.33333334 ))))
(((( 0.33333334 0.33333334 0.33333334 )
( 0.33333334 0.33333334 0.33333334 )
( 0.33333334 0.33333334 0.33333334 )
( 0.33333334 0.33333334 0.33333334 ))
(( 0.33333334 0.33333334 0.33333334 )
( 0.33333334 0.33333334 0.33333334 )
( 0.33333334 0.33333334 0.33333334 )
( 0.33333334 0.33333334 0.33333334 )))
((( 0.33333334 0.33333334 0.33333334 )
( 0.33333334 0.33333334 0.33333334 )
( 0.33333334 0.33333334 0.33333334 )
( 0.33333334 0.33333334 0.33333334 ))
(( 0.33333334 0.33333334 0.33333334 )
( 0.33333334 0.33333334 0.33333334 )
( 0.33333334 0.33333334 0.33333334 )
( 0.33333334 0.33333334 0.33333334 )))
((( 0.33333334 0.33333334 0.33333334 )
( 0.33333334 0.33333334 0.33333334 )
( 0.33333334 0.33333334 0.33333334 )
( 0.33333334 0.33333334 0.33333334 ))
(( 0.33333334 0.33333334 0.33333334 )
( 0.33333334 0.33333334 0.33333334 )
( 0.33333334 0.33333334 0.33333334 )
( 0.33333334 0.33333334 0.33333334 )))
((( 0.33333334 0.33333334 0.33333334 )
( 0.33333334 0.33333334 0.33333334 )
( 0.33333334 0.33333334 0.33333334 )
( 0.33333334 0.33333334 0.33333334 ))
(( 0.33333334 0.33333334 0.33333334 )
( 0.33333334 0.33333334 0.33333334 )
( 0.33333334 0.33333334 0.33333334 )
( 0.33333334 0.33333334 0.33333334 ))))
(((( 0.33333334 0.33333334 0.33333334 )
( 0.33333334 0.33333334 0.33333334 )
( 0.33333334 0.33333334 0.33333334 )
( 0.33333334 0.33333334 0.33333334 ))
(( 0.33333334 0.33333334 0.33333334 )
( 0.33333334 0.33333334 0.33333334 )
( 0.33333334 0.33333334 0.33333334 )
( 0.33333334 0.33333334 0.33333334 )))
((( 0.33333334 0.33333334 0.33333334 )
( 0.33333334 0.33333334 0.33333334 )
( 0.33333334 0.33333334 0.33333334 )
( 0.33333334 0.33333334 0.33333334 ))
(( 0.33333334 0.33333334 0.33333334 )
( 0.33333334 0.33333334 0.33333334 )
( 0.33333334 0.33333334 0.33333334 )
( 0.33333334 0.33333334 0.33333334 )))
((( 0.33333334 0.33333334 0.33333334 )
( 0.33333334 0.33333334 0.33333334 )
( 0.33333334 0.33333334 0.33333334 )
( 0.33333334 0.33333334 0.33333334 ))
(( 0.33333334 0.33333334 0.33333334 )
( 0.33333334 0.33333334 0.33333334 )
( 0.33333334 0.33333334 0.33333334 )
( 0.33333334 0.33333334 0.33333334 )))
((( 0.33333334 0.33333334 0.33333334 )
( 0.33333334 0.33333334 0.33333334 )
( 0.33333334 0.33333334 0.33333334 )
( 0.33333334 0.33333334 0.33333334 ))
(( 0.33333334 0.33333334 0.33333334 )
( 0.33333334 0.33333334 0.33333334 )
( 0.33333334 0.33333334 0.33333334 )
( 0.33333334 0.33333334 0.33333334 ))))
(((( 0.33333334 0.33333334 0.33333334 )
( 0.33333334 0.33333334 0.33333334 )
( 0.33333334 0.33333334 0.33333334 )
( 0.33333334 0.33333334 0.33333334 ))
(( 0.33333334 0.33333334 0.33333334 )
( 0.33333334 0.33333334 0.33333334 )
( 0.33333334 0.33333334 0.33333334 )
( 0.33333334 0.33333334 0.33333334 )))
((( 0.33333334 0.33333334 0.33333334 )
( 0.33333334 0.33333334 0.33333334 )
( 0.33333334 0.33333334 0.33333334 )
( 0.33333334 0.33333334 0.33333334 ))
(( 0.33333334 0.33333334 0.33333334 )
( 0.33333334 0.33333334 0.33333334 )
( 0.33333334 0.33333334 0.33333334 )
( 0.33333334 0.33333334 0.33333334 )))
((( 0.33333334 0.33333334 0.33333334 )
( 0.33333334 0.33333334 0.33333334 )
( 0.33333334 0.33333334 0.33333334 )
( 0.33333334 0.33333334 0.33333334 ))
(( 0.33333334 0.33333334 0.33333334 )
( 0.33333334 0.33333334 0.33333334 )
( 0.33333334 0.33333334 0.33333334 )
( 0.33333334 0.33333334 0.33333334 )))
((( 0.33333334 0.33333334 0.33333334 )
( 0.33333334 0.33333334 0.33333334 )
( 0.33333334 0.33333334 0.33333334 )
( 0.33333334 0.33333334 0.33333334 ))
(( 0.33333334 0.33333334 0.33333334 )
( 0.33333334 0.33333334 0.33333334 )
( 0.33333334 0.33333334 0.33333334 )
( 0.33333334 0.33333334 0.33333334 ))))
(((( 0.33333334 0.33333334 0.33333334 )
( 0.33333334 0.33333334 0.33333334 )
( 0.33333334 0.33333334 0.33333334 )
( 0.33333334 0.33333334 0.33333334 ))
(( 0.33333334 0.33333334 0.33333334 )
( 0.33333334 0.33333334 0.33333334 )
( 0.33333334 0.33333334 0.33333334 )
( 0.33333334 0.33333334 0.33333334 )))
((( 0.33333334 0.33333334 0.33333334 )
( 0.33333334 0.33333334 0.33333334 )
( 0.33333334 0.33333334 0.33333334 )
( 0.33333334 0.33333334 0.33333334 ))
(( 0.33333334 0.33333334 0.33333334 )
( 0.33333334 0.33333334 0.33333334 )
( 0.33333334 0.33333334 0.33333334 )
( 0.33333334 0.33333334 0.33333334 )))
((( 0.33333334 0.33333334 0.33333334 )
( 0.33333334 0.33333334 0.33333334 )
( 0.33333334 0.33333334 0.33333334 )
( 0.33333334 0.33333334 0.33333334 ))
(( 0.33333334 0.33333334 0.33333334 )
( 0.33333334 0.33333334 0.33333334 )
( 0.33333334 0.33333334 0.33333334 )
( 0.33333334 0.33333334 0.33333334 )))
((( 0.33333334 0.33333334 0.33333334 )
( 0.33333334 0.33333334 0.33333334 )
( 0.33333334 0.33333334 0.33333334 )
( 0.33333334 0.33333334 0.33333334 ))
(( 0.33333334 0.33333334 0.33333334 )
( 0.33333334 0.33333334 0.33333334 )
( 0.33333334 0.33333334 0.33333334 )
( 0.33333334 0.33333334 0.33333334 )))))
((((( 0.33333334 0.33333334 0.33333334 )
( 0.33333334 0.33333334 0.33333334 )
( 0.16666667 0.6666667 0.16666667 )
( 0.33333334 0.33333334 0.33333334 ))
(( 0.33333334 0.33333334 0.33333334 )
( 0.33333334 0.33333334 0.33333334 )
( 0.33333334 0.33333334 0.33333334 )
( 0.33333334 0.33333334 0.33333334 )))
((( 0.5 0.25 0.25 )
( 0.125 0.75 0.125 )
( 0.33333334 0.33333334 0.33333334 )
( 0.33333334 0.33333334 0.33333334 ))
(( 0.33333334 0.33333334 0.33333334 )
( 0.33333334 0.33333334 0.33333334 )
( 0.33333334 0.33333334 0.33333334 )
( 0.33333334 0.33333334 0.33333334 )))
((( 0.33333334 0.33333334 0.33333334 )
( 0.33333334 0.33333334 0.33333334 )
( 0.6 0.2 0.2 )
( 0.33333334 0.33333334 0.33333334 ))
(( 0.33333334 0.33333334 0.33333334 )
( 0.33333334 0.33333334 0.33333334 )
( 0.33333334 0.33333334 0.33333334 )
( 0.33333334 0.33333334 0.33333334 )))
((( 0.11111111 0.7777778 0.11111111 )
( 0.33333334 0.33333334 0.33333334 )
( 0.33333334 0.33333334 0.33333334 )
( 0.33333334 0.33333334 0.33333334 ))
(( 0.33333334 0.33333334 0.33333334 )
( 0.33333334 0.33333334 0.33333334 )
( 0.33333334 0.33333334 0.33333334 )
( 0.33333334 0.33333334 0.33333334 ))))
(((( 0.16666667 0.6666667 0.16666667 )
( 0.5 0.25 0.25 )
( 0.33333334 0.33333334 0.33333334 )
( 0.6666667 0.16666667 0.16666667 ))
(( 0.33333334 0.33333334 0.33333334 )
( 0.33333334 0.33333334 0.33333334 )
( 0.33333334 0.33333334 0.33333334 )
( 0.33333334 0.33333334 0.33333334 )))
((( 0.33333334 0.33333334 0.33333334 )
( 0.8333333 0.083333336 0.083333336 )
( 0.33333334 0.33333334 0.33333334 )
( 0.2 0.6 0.2 ))
(( 0.33333334 0.33333334 0.33333334 )
( 0.33333334 0.33333334 0.33333334 )
( 0.33333334 0.33333334 0.33333334 )
( 0.33333334 0.33333334 0.33333334 )))
((( 0.33333334 0.33333334 0.33333334 )
( 0.2 0.6 0.2 )
( 0.6666667 0.16666667 0.16666667 )
( 0.33333334 0.33333334 0.33333334 ))
(( 0.33333334 0.33333334 0.33333334 )
( 0.33333334 0.33333334 0.33333334 )
( 0.33333334 0.33333334 0.33333334 )
( 0.33333334 0.33333334 0.33333334 )))
((( 0.16666667 0.6666667 0.16666667 )
( 0.33333334 0.33333334 0.33333334 )
( 0.33333334 0.33333334 0.33333334 )
( 0.33333334 0.33333334 0.33333334 ))
(( 0.33333334 0.33333334 0.33333334 )
( 0.33333334 0.33333334 0.33333334 )
( 0.33333334 0.33333334 0.33333334 )
( 0.33333334 0.33333334 0.33333334 ))))
(((( 0.33333334 0.33333334 0.33333334 )
( 0.33333334 0.33333334 0.33333334 )
( 0.14285715 0.71428573 0.14285715 )
( 0.33333334 0.33333334 0.33333334 ))
(( 0.33333334 0.33333334 0.33333334 )
( 0.33333334 0.33333334 0.33333334 )
( 0.33333334 0.33333334 0.33333334 )
( 0.33333334 0.33333334 0.33333334 )))
((( 0.33333334 0.33333334 0.33333334 )
( 0.33333334 0.33333334 0.33333334 )
( 0.33333334 0.33333334 0.33333334 )
( 0.33333334 0.33333334 0.33333334 ))
(( 0.33333334 0.33333334 0.33333334 )
( 0.33333334 0.33333334 0.33333334 )
( 0.33333334 0.33333334 0.33333334 )
( 0.33333334 0.33333334 0.33333334 )))
((( 0.33333334 0.33333334 0.33333334 )
( 0.33333334 0.33333334 0.33333334 )
( 0.33333334 0.33333334 0.33333334 )
( 0.33333334 0.33333334 0.33333334 ))
(( 0.33333334 0.33333334 0.33333334 )
( 0.33333334 0.33333334 0.33333334 )
( 0.33333334 0.33333334 0.33333334 )
( 0.33333334 0.33333334 0.33333334 )))
((( 0.14285715 0.71428573 0.14285715 )
( 0.33333334 0.33333334 0.33333334 )
( 0.33333334 0.33333334 0.33333334 )
( 0.33333334 0.33333334 0.33333334 ))
(( 0.33333334 0.33333334 0.33333334 )
( 0.33333334 0.33333334 0.33333334 )
( 0.33333334 0.33333334 0.33333334 )
( 0.33333334 0.33333334 0.33333334 ))))
(((( 0.33333334 0.33333334 0.33333334 )
( 0.33333334 0.33333334 0.33333334 )
( 0.33333334 0.33333334 0.33333334 )
( 0.33333334 0.33333334 0.33333334 ))
(( 0.33333334 0.33333334 0.33333334 )
( 0.33333334 0.33333334 0.33333334 )
( 0.33333334 0.33333334 0.33333334 )
( 0.33333334 0.33333334 0.33333334 )))
((( 0.33333334 0.33333334 0.33333334 )
( 0.33333334 0.33333334 0.33333334 )
( 0.33333334 0.33333334 0.33333334 )
( 0.33333334 0.33333334 0.33333334 ))
(( 0.33333334 0.33333334 0.33333334 )
( 0.33333334 0.33333334 0.33333334 )
( 0.33333334 0.33333334 0.33333334 )
( 0.33333334 0.33333334 0.33333334 )))
((( 0.33333334 0.33333334 0.33333334 )
( 0.33333334 0.33333334 0.33333334 )
( 0.33333334 0.33333334 0.33333334 )
( 0.33333334 0.33333334 0.33333334 ))
(( 0.33333334 0.33333334 0.33333334 )
( 0.33333334 0.33333334 0.33333334 )
( 0.33333334 0.33333334 0.33333334 )
( 0.33333334 0.33333334 0.33333334 )))
((( 0.125 0.75 0.125 )
( 0.33333334 0.33333334 0.33333334 )
( 0.33333334 0.33333334 0.33333334 )
( 0.33333334 0.33333334 0.33333334 ))
(( 0.33333334 0.33333334 0.33333334 )
( 0.33333334 0.33333334 0.33333334 )
( 0.33333334 0.33333334 0.33333334 )
( 0.33333334 0.33333334 0.33333334 ))))
(((( 0.33333334 0.33333334 0.33333334 )
( 0.33333334 0.33333334 0.33333334 )
( 0.33333334 0.33333334 0.33333334 )
( 0.33333334 0.33333334 0.33333334 ))
(( 0.33333334 0.33333334 0.33333334 )
( 0.33333334 0.33333334 0.33333334 )
( 0.33333334 0.33333334 0.33333334 )
( 0.33333334 0.33333334 0.33333334 )))
((( 0.33333334 0.33333334 0.33333334 )
( 0.33333334 0.33333334 0.33333334 )
( 0.33333334 0.33333334 0.33333334 )
( 0.33333334 0.33333334 0.33333334 ))
(( 0.33333334 0.33333334 0.33333334 )
( 0.33333334 0.33333334 0.33333334 )
( 0.33333334 0.33333334 0.33333334 )
( 0.33333334 0.33333334 0.33333334 )))
((( 0.33333334 0.33333334 0.33333334 )
( 0.33333334 0.33333334 0.33333334 )
( 0.33333334 0.33333334 0.33333334 )
( 0.33333334 0.33333334 0.33333334 ))
(( 0.33333334 0.33333334 0.33333334 )
( 0.33333334 0.33333334 0.33333334 )
( 0.33333334 0.33333334 0.33333334 )
( 0.33333334 0.33333334 0.33333334 )))
((( 0.33333334 0.33333334 0.33333334 )
( 0.33333334 0.33333334 0.33333334 )
( 0.33333334 0.33333334 0.33333334 )
( 0.33333334 0.33333334 0.33333334 ))
(( 0.33333334 0.33333334 0.33333334 )
( 0.33333334 0.33333334 0.33333334 )
( 0.33333334 0.33333334 0.33333334 )
( 0.33333334 0.33333334 0.33333334 )))))
((((( 0.33333334 0.33333334 0.33333334 )
( 0.33333334 0.33333334 0.33333334 )
( 0.33333334 0.33333334 0.33333334 )
( 0.33333334 0.33333334 0.33333334 ))
(( 0.33333334 0.33333334 0.33333334 )
( 0.5 0.375 0.125 )
( 0.2 0.6 0.2 )
( 0.33333334 0.33333334 0.33333334 )))
((( 0.33333334 0.33333334 0.33333334 )
( 0.33333334 0.33333334 0.33333334 )
( 0.33333334 0.33333334 0.33333334 )
( 0.33333334 0.33333334 0.33333334 ))
(( 0.33333334 0.33333334 0.33333334 )
( 0.77272725 0.18181819 0.045454547 )
( 0.33333334 0.33333334 0.33333334 )
( 0.71428573 0.14285715 0.14285715 )))
((( 0.33333334 0.33333334 0.33333334 )
( 0.33333334 0.33333334 0.33333334 )
( 0.33333334 0.33333334 0.33333334 )
( 0.33333334 0.33333334 0.33333334 ))
(( 0.2 0.6 0.2 )
( 0.75 0.125 0.125 )
( 0.8 0.1 0.1 )
( 0.33333334 0.33333334 0.33333334 )))
((( 0.33333334 0.33333334 0.33333334 )
( 0.33333334 0.33333334 0.33333334 )
( 0.33333334 0.33333334 0.33333334 )
( 0.33333334 0.33333334 0.33333334 ))
(( 0.33333334 0.33333334 0.33333334 )
( 0.16666667 0.6666667 0.16666667 )
( 0.33333334 0.33333334 0.33333334 )
( 0.33333334 0.33333334 0.33333334 ))))
(((( 0.33333334 0.33333334 0.33333334 )
( 0.33333334 0.33333334 0.33333334 )
( 0.33333334 0.33333334 0.33333334 )
( 0.33333334 0.33333334 0.33333334 ))
(( 0.33333334 0.33333334 0.33333334 )
( 0.33333334 0.33333334 0.33333334 )
( 0.33333334 0.33333334 0.33333334 )
( 0.33333334 0.33333334 0.33333334 )))
((( 0.33333334 0.33333334 0.33333334 )
( 0.33333334 0.33333334 0.33333334 )
( 0.33333334 0.33333334 0.33333334 )
( 0.33333334 0.33333334 0.33333334 ))
(( 0.33333334 0.33333334 0.33333334 )
( 0.6 0.2 0.2 )
( 0.33333334 0.33333334 0.33333334 )
( 0.33333334 0.33333334 0.33333334 )))
((( 0.33333334 0.33333334 0.33333334 )
( 0.33333334 0.33333334 0.33333334 )
( 0.33333334 0.33333334 0.33333334 )
( 0.33333334 0.33333334 0.33333334 ))
(( 0.33333334 0.33333334 0.33333334 )
( 0.33333334 0.33333334 0.33333334 )
( 0.33333334 0.33333334 0.33333334 )
( 0.33333334 0.33333334 0.33333334 )))
((( 0.33333334 0.33333334 0.33333334 )
( 0.33333334 0.33333334 0.33333334 )
( 0.33333334 0.33333334 0.33333334 )
( 0.33333334 0.33333334 0.33333334 ))
(( 0.33333334 0.33333334 0.33333334 )
( 0.33333334 0.33333334 0.33333334 )
( 0.33333334 0.33333334 0.33333334 )
( 0.33333334 0.33333334 0.33333334 ))))
(((( 0.33333334 0.33333334 0.33333334 )
( 0.33333334 0.33333334 0.33333334 )
( 0.33333334 0.33333334 0.33333334 )
( 0.33333334 0.33333334 0.33333334 ))
(( 0.33333334 0.33333334 0.33333334 )
( 0.33333334 0.33333334 0.33333334 )
( 0.33333334 0.33333334 0.33333334 )
( 0.33333334 0.33333334 0.33333334 )))
((( 0.33333334 0.33333334 0.33333334 )
( 0.33333334 0.33333334 0.33333334 )
( 0.33333334 0.33333334 0.33333334 )
( 0.33333334 0.33333334 0.33333334 ))
(( 0.33333334 0.33333334 0.33333334 )
( 0.33333334 0.33333334 0.33333334 )
( 0.33333334 0.33333334 0.33333334 )
( 0.33333334 0.33333334 0.33333334 )))
((( 0.33333334 0.33333334 0.33333334 )
( 0.33333334 0.33333334 0.33333334 )
( 0.33333334 0.33333334 0.33333334 )
( 0.33333334 0.33333334 0.33333334 ))
(( 0.33333334 0.33333334 0.33333334 )
( 0.33333334 0.33333334 0.33333334 )
( 0.33333334 0.33333334 0.33333334 )
( 0.33333334 0.33333334 0.33333334 )))
((( 0.33333334 0.33333334 0.33333334 )
( 0.33333334 0.33333334 0.33333334 )
( 0.33333334 0.33333334 0.33333334 )
( 0.33333334 0.33333334 0.33333334 ))
(( 0.33333334 0.33333334 0.33333334 )
( 0.33333334 0.33333334 0.33333334 )
( 0.33333334 0.33333334 0.33333334 )
( 0.33333334 0.33333334 0.33333334 ))))
(((( 0.33333334 0.33333334 0.33333334 )
( 0.33333334 0.33333334 0.33333334 )
( 0.33333334 0.33333334 0.33333334 )
( 0.33333334 0.33333334 0.33333334 ))
(( 0.33333334 0.33333334 0.33333334 )
( 0.33333334 0.33333334 0.33333334 )
( 0.33333334 0.33333334 0.33333334 )
( 0.33333334 0.33333334 0.33333334 )))
((( 0.33333334 0.33333334 0.33333334 )
( 0.33333334 0.33333334 0.33333334 )
( 0.33333334 0.33333334 0.33333334 )
( 0.33333334 0.33333334 0.33333334 ))
(( 0.33333334 0.33333334 0.33333334 )
( 0.33333334 0.33333334 0.33333334 )
( 0.33333334 0.33333334 0.33333334 )
( 0.33333334 0.33333334 0.33333334 )))
((( 0.33333334 0.33333334 0.33333334 )
( 0.33333334 0.33333334 0.33333334 )
( 0.33333334 0.33333334 0.33333334 )
( 0.33333334 0.33333334 0.33333334 ))
(( 0.33333334 0.33333334 0.33333334 )
( 0.33333334 0.33333334 0.33333334 )
( 0.33333334 0.33333334 0.33333334 )
( 0.33333334 0.33333334 0.33333334 )))
((( 0.33333334 0.33333334 0.33333334 )
( 0.33333334 0.33333334 0.33333334 )
( 0.33333334 0.33333334 0.33333334 )
( 0.33333334 0.33333334 0.33333334 ))
(( 0.33333334 0.33333334 0.33333334 )
( 0.33333334 0.33333334 0.33333334 )
( 0.33333334 0.33333334 0.33333334 )
( 0.33333334 0.33333334 0.33333334 ))))
(((( 0.33333334 0.33333334 0.33333334 )
( 0.33333334 0.33333334 0.33333334 )
( 0.33333334 0.33333334 0.33333334 )
( 0.33333334 0.33333334 0.33333334 ))
(( 0.33333334 0.33333334 0.33333334 )
( 0.33333334 0.33333334 0.33333334 )
( 0.33333334 0.33333334 0.33333334 )
( 0.33333334 0.33333334 0.33333334 )))
((( 0.33333334 0.33333334 0.33333334 )
( 0.33333334 0.33333334 0.33333334 )
( 0.33333334 0.33333334 0.33333334 )
( 0.33333334 0.33333334 0.33333334 ))
(( 0.33333334 0.33333334 0.33333334 )
( 0.33333334 0.33333334 0.33333334 )
( 0.33333334 0.33333334 0.33333334 )
( 0.33333334 0.33333334 0.33333334 )))
((( 0.33333334 0.33333334 0.33333334 )
( 0.33333334 0.33333334 0.33333334 )
( 0.33333334 0.33333334 0.33333334 )
( 0.33333334 0.33333334 0.33333334 ))
(( 0.33333334 0.33333334 0.33333334 )
( 0.33333334 0.33333334 0.33333334 )
( 0.33333334 0.33333334 0.33333334 )
( 0.33333334 0.33333334 0.33333334 )))
((( 0.33333334 0.33333334 0.33333334 )
( 0.33333334 0.33333334 0.33333334 )
( 0.33333334 0.33333334 0.33333334 )
( 0.33333334 0.33333334 0.33333334 ))
(( 0.33333334 0.33333334 0.33333334 )
( 0.33333334 0.33333334 0.33333334 )
( 0.33333334 0.33333334 0.33333334 )
( 0.33333334 0.33333334 0.33333334 ))))))
(((((( 0.75 0.125 0.125 )
( 0.125 0.75 0.125 )
( 0.33333334 0.33333334 0.33333334 )
( 0.75 0.125 0.125 ))
(( 0.33333334 0.33333334 0.33333334 )
( 0.33333334 0.33333334 0.33333334 )
( 0.33333334 0.33333334 0.33333334 )
( 0.33333334 0.33333334 0.33333334 )))
((( 0.44444445 0.44444445 0.11111111 )
( 0.33333334 0.33333334 0.33333334 )
( 0.33333334 0.33333334 0.33333334 )
( 0.33333334 0.33333334 0.33333334 ))
(( 0.33333334 0.33333334 0.33333334 )
( 0.33333334 0.33333334 0.33333334 )
( 0.33333334 0.33333334 0.33333334 )
( 0.33333334 0.33333334 0.33333334 )))
((( 0.33333334 0.33333334 0.33333334 )
( 0.18181819 0.72727275 0.09090909 )
( 0.33333334 0.33333334 0.33333334 )
( 0.33333334 0.33333334 0.33333334 ))
(( 0.33333334 0.33333334 0.33333334 )
( 0.33333334 0.33333334 0.33333334 )
( 0.33333334 0.33333334 0.33333334 )
( 0.33333334 0.33333334 0.33333334 )))
((( 0.33333334 0.33333334 0.33333334 )
( 0.33333334 0.33333334 0.33333334 )
( 0.33333334 0.33333334 0.33333334 )
( 0.33333334 0.33333334 0.33333334 ))
(( 0.33333334 0.33333334 0.33333334 )
( 0.33333334 0.33333334 0.33333334 )
( 0.33333334 0.33333334 0.33333334 )
( 0.33333334 0.33333334 0.33333334 ))))
(((( 0.75 0.2 0.05 )
( 0.16666667 0.6666667 0.16666667 )
( 0.14285715 0.71428573 0.14285715 )
( 0.33333334 0.33333334 0.33333334 ))
(( 0.33333334 0.33333334 0.33333334 )
( 0.33333334 0.33333334 0.33333334 )
( 0.33333334 0.33333334 0.33333334 )
( 0.33333334 0.33333334 0.33333334 )))
((( 0.33333334 0.33333334 0.33333334 )
( 0.25 0.5 0.25 )
( 0.33333334 0.33333334 0.33333334 )
( 0.33333334 0.33333334 0.33333334 ))
(( 0.33333334 0.33333334 0.33333334 )
( 0.33333334 0.33333334 0.33333334 )
( 0.33333334 0.33333334 0.33333334 )
( 0.33333334 0.33333334 0.33333334 )))
((( 0.33333334 0.33333334 0.33333334 )
( 0.16666667 0.6666667 0.16666667 )
( 0.33333334 0.33333334 0.33333334 )
( 0.33333334 0.33333334 0.33333334 ))
(( 0.33333334 0.33333334 0.33333334 )
( 0.33333334 0.33333334 0.33333334 )
( 0.33333334 0.33333334 0.33333334 )
( 0.33333334 0.33333334 0.33333334 )))
((( 0.46153846 0.46153846 0.07692308 )
( 0.33333334 0.33333334 0.33333334 )
( 0.33333334 0.33333334 0.33333334 )
( 0.33333334 0.33333334 0.33333334 ))
(( 0.33333334 0.33333334 0.33333334 )
( 0.33333334 0.33333334 0.33333334 )
( 0.33333334 0.33333334 0.33333334 )
( 0.33333334 0.33333334 0.33333334 ))))
(((( 0.33333334 0.33333334 0.33333334 )
( 0.33333334 0.33333334 0.33333334 )
( 0.33333334 0.33333334 0.33333334 )
( 0.8 0.1 0.1 ))
(( 0.33333334 0.33333334 0.33333334 )
( 0.33333334 0.33333334 0.33333334 )
( 0.33333334 0.33333334 0.33333334 )
( 0.33333334 0.33333334 0.33333334 )))
((( 0.6666667 0.16666667 0.16666667 )
( 0.33333334 0.33333334 0.33333334 )
( 0.33333334 0.33333334 0.33333334 )
( 0.33333334 0.33333334 0.33333334 ))
(( 0.33333334 0.33333334 0.33333334 )
( 0.33333334 0.33333334 0.33333334 )
( 0.33333334 0.33333334 0.33333334 )
( 0.33333334 0.33333334 0.33333334 )))
((( 0.33333334 0.33333334 0.33333334 )
( 0.33333334 0.33333334 0.33333334 )
( 0.33333334 0.33333334 0.33333334 )
( 0.33333334 0.33333334 0.33333334 ))
(( 0.33333334 0.33333334 0.33333334 )
( 0.33333334 0.33333334 0.33333334 )
( 0.33333334 0.33333334 0.33333334 )
( 0.33333334 0.33333334 0.33333334 )))
((( 0.33333334 0.33333334 0.33333334 )
( 0.33333334 0.33333334 0.33333334 )
( 0.33333334 0.33333334 0.33333334 )
( 0.33333334 0.33333334 0.33333334 ))
(( 0.33333334 0.33333334 0.33333334 )
( 0.33333334 0.33333334 0.33333334 )
( 0.33333334 0.33333334 0.33333334 )
( 0.33333334 0.33333334 0.33333334 ))))
(((( 0.2857143 0.5714286 0.14285715 )
( 0.33333334 0.33333334 0.33333334 )
( 0.33333334 0.33333334 0.33333334 )
( 0.33333334 0.33333334 0.33333334 ))
(( 0.33333334 0.33333334 0.33333334 )
( 0.33333334 0.33333334 0.33333334 )
( 0.33333334 0.33333334 0.33333334 )
( 0.33333334 0.33333334 0.33333334 )))
((( 0.33333334 0.33333334 0.33333334 )
( 0.33333334 0.33333334 0.33333334 )
( 0.33333334 0.33333334 0.33333334 )
( 0.33333334 0.33333334 0.33333334 ))
(( 0.33333334 0.33333334 0.33333334 )
( 0.33333334 0.33333334 0.33333334 )
( 0.33333334 0.33333334 0.33333334 )
( 0.33333334 0.33333334 0.33333334 )))
((( 0.33333334 0.33333334 0.33333334 )
( 0.33333334 0.33333334 0.33333334 )
( 0.33333334 0.33333334 0.33333334 )
( 0.33333334 0.33333334 0.33333334 ))
(( 0.33333334 0.33333334 0.33333334 )
( 0.33333334 0.33333334 0.33333334 )
( 0.33333334 0.33333334 0.33333334 )
( 0.33333334 0.33333334 0.33333334 )))
((( 0.875 0.0625 0.0625 )
( 0.33333334 0.33333334 0.33333334 )
( 0.33333334 0.33333334 0.33333334 )
( 0.33333334 0.33333334 0.33333334 ))
(( 0.33333334 0.33333334 0.33333334 )
( 0.33333334 0.33333334 0.33333334 )
( 0.33333334 0.33333334 0.33333334 )
( 0.33333334 0.33333334 0.33333334 ))))
(((( 0.33333334 0.33333334 0.33333334 )
( 0.33333334 0.33333334 0.33333334 )
( 0.33333334 0.33333334 0.33333334 )
( 0.33333334 0.33333334 0.33333334 ))
(( 0.33333334 0.33333334 0.33333334 )
( 0.33333334 0.33333334 0.33333334 )
( 0.33333334 0.33333334 0.33333334 )
( 0.33333334 0.33333334 0.33333334 )))
((( 0.33333334 0.33333334 0.33333334 )
( 0.33333334 0.33333334 0.33333334 )
( 0.33333334 0.33333334 0.33333334 )
( 0.33333334 0.33333334 0.33333334 ))
(( 0.33333334 0.33333334 0.33333334 )
( 0.33333334 0.33333334 0.33333334 )
( 0.33333334 0.33333334 0.33333334 )
( 0.33333334 0.33333334 0.33333334 )))
((( 0.33333334 0.33333334 0.33333334 )
( 0.33333334 0.33333334 0.33333334 )
( 0.33333334 0.33333334 0.33333334 )
( 0.33333334 0.33333334 0.33333334 ))
(( 0.33333334 0.33333334 0.33333334 )
( 0.33333334 0.33333334 0.33333334 )
( 0.33333334 0.33333334 0.33333334 )
( 0.33333334 0.33333334 0.33333334 )))
((( 0.33333334 0.33333334 0.33333334 )
( 0.33333334 0.33333334 0.33333334 )
( 0.33333334 0.33333334 0.33333334 )
( 0.33333334 0.33333334 0.33333334 ))
(( 0.33333334 0.33333334 0.33333334 )
( 0.33333334 0.33333334 0.33333334 )
( 0.33333334 0.33333334 0.33333334 )
( 0.33333334 0.33333334 0.33333334 )))))
((((( 0.33333334 0.33333334 0.33333334 )
( 0.25 0.5 0.25 )
( 0.33333334 0.33333334 0.33333334 )
( 0.33333334 0.33333334 0.33333334 ))
(( 0.45454547 0.45454547 0.09090909 )
( 0.375 0.5 0.125 )
( 0.6666667 0.16666667 0.16666667 )
( 0.33333334 0.33333334 0.33333334 )))
((( 0.33333334 0.33333334 0.33333334 )
( 0.2 0.6 0.2 )
( 0.33333334 0.33333334 0.33333334 )
( 0.33333334 0.33333334 0.33333334 ))
(( 0.6956522 0.04347826 0.26086956 )
( 0.7619048 0.1904762 0.04761905 )
( 0.26086956 0.6956522 0.04347826 )
( 0.71428573 0.14285715 0.14285715 )))
((( 0.33333334 0.33333334 0.33333334 )
( 0.33333334 0.33333334 0.33333334 )
( 0.33333334 0.33333334 0.33333334 )
( 0.33333334 0.33333334 0.33333334 ))
(( 0.16666667 0.6666667 0.16666667 )
( 0.1 0.8 0.1 )
( 0.6666667 0.16666667 0.16666667 )
( 0.6 0.2 0.2 )))
((( 0.33333334 0.33333334 0.33333334 )
( 0.33333334 0.33333334 0.33333334 )
( 0.33333334 0.33333334 0.33333334 )
( 0.33333334 0.33333334 0.33333334 ))
(( 0.71428573 0.23809524 0.04761905 )
( 0.33333334 0.5 0.16666667 )
( 0.25 0.5 0.25 )
( 0.33333334 0.33333334 0.33333334 ))))
(((( 0.33333334 0.33333334 0.33333334 )
( 0.25 0.5 0.25 )
( 0.33333334 0.33333334 0.33333334 )
( 0.33333334 0.33333334 0.33333334 ))
(( 0.16666667 0.6666667 0.16666667 )
( 0.22222222 0.6666667 0.11111111 )
( 0.33333334 0.33333334 0.33333334 )
( 0.33333334 0.33333334 0.33333334 )))
((( 0.33333334 0.33333334 0.33333334 )
( 0.33333334 0.33333334 0.33333334 )
( 0.33333334 0.33333334 0.33333334 )
( 0.33333334 0.33333334 0.33333334 ))
(( 0.33333334 0.33333334 0.33333334 )
( 0.3846154 0.53846157 0.07692308 )
( 0.33333334 0.33333334 0.33333334 )
( 0.33333334 0.33333334 0.33333334 )))
((( 0.33333334 0.33333334 0.33333334 )
( 0.33333334 0.33333334 0.33333334 )
( 0.33333334 0.33333334 0.33333334 )
( 0.33333334 0.33333334 0.33333334 ))
(( 0.33333334 0.33333334 0.33333334 )
( 0.125 0.75 0.125 )
( 0.5 0.25 0.25 )
( 0.33333334 0.33333334 0.33333334 )))
((( 0.33333334 0.33333334 0.33333334 )
( 0.33333334 0.33333334 0.33333334 )
( 0.33333334 0.33333334 0.33333334 )
( 0.33333334 0.33333334 0.33333334 ))
(( 0.5 0.25 0.25 )
( 0.46153846 0.46153846 0.07692308 )
( 0.33333334 0.33333334 0.33333334 )
( 0.33333334 0.33333334 0.33333334 ))))
(((( 0.33333334 0.33333334 0.33333334 )
( 0.33333334 0.33333334 0.33333334 )
( 0.33333334 0.33333334 0.33333334 )
( 0.33333334 0.33333334 0.33333334 ))
(( 0.33333334 0.33333334 0.33333334 )
( 0.2 0.6 0.2 )
( 0.33333334 0.33333334 0.33333334 )
( 0.33333334 0.33333334 0.33333334 )))
((( 0.33333334 0.33333334 0.33333334 )
( 0.33333334 0.33333334 0.33333334 )
( 0.33333334 0.33333334 0.33333334 )
( 0.33333334 0.33333334 0.33333334 ))
(( 0.33333334 0.33333334 0.33333334 )
( 0.25 0.5 0.25 )
( 0.33333334 0.33333334 0.33333334 )
( 0.75 0.125 0.125 )))
((( 0.33333334 0.33333334 0.33333334 )
( 0.33333334 0.33333334 0.33333334 )
( 0.33333334 0.33333334 0.33333334 )
( 0.33333334 0.33333334 0.33333334 ))
(( 0.33333334 0.33333334 0.33333334 )
( 0.33333334 0.33333334 0.33333334 )
( 0.33333334 0.33333334 0.33333334 )
( 0.33333334 0.33333334 0.33333334 )))
((( 0.33333334 0.33333334 0.33333334 )
( 0.33333334 0.33333334 0.33333334 )
( 0.33333334 0.33333334 0.33333334 )
( 0.33333334 0.33333334 0.33333334 ))
(( 0.33333334 0.33333334 0.33333334 )
( 0.33333334 0.33333334 0.33333334 )
( 0.33333334 0.33333334 0.33333334 )
( 0.33333334 0.33333334 0.33333334 ))))
(((( 0.33333334 0.33333334 0.33333334 )
( 0.33333334 0.33333334 0.33333334 )
( 0.33333334 0.33333334 0.33333334 )
( 0.33333334 0.33333334 0.33333334 ))
(( 0.33333334 0.33333334 0.33333334 )
( 0.33333334 0.33333334 0.33333334 )
( 0.33333334 0.33333334 0.33333334 )
( 0.33333334 0.33333334 0.33333334 )))
((( 0.33333334 0.33333334 0.33333334 )
( 0.33333334 0.33333334 0.33333334 )
( 0.33333334 0.33333334 0.33333334 )
( 0.33333334 0.33333334 0.33333334 ))
(( 0.33333334 0.33333334 0.33333334 )
( 0.33333334 0.33333334 0.33333334 )
( 0.33333334 0.33333334 0.33333334 )
( 0.33333334 0.33333334 0.33333334 )))
((( 0.33333334 0.33333334 0.33333334 )
( 0.33333334 0.33333334 0.33333334 )
( 0.33333334 0.33333334 0.33333334 )
( 0.33333334 0.33333334 0.33333334 ))
(( 0.33333334 0.33333334 0.33333334 )
( 0.33333334 0.33333334 0.33333334 )
( 0.33333334 0.33333334 0.33333334 )
( 0.33333334 0.33333334 0.33333334 )))
((( 0.33333334 0.33333334 0.33333334 )
( 0.33333334 0.33333334 0.33333334 )
( 0.33333334 0.33333334 0.33333334 )
( 0.33333334 0.33333334 0.33333334 ))
(( 0.33333334 0.33333334 0.33333334 )
( 0.33333334 0.33333334 0.33333334 )
( 0.33333334 0.33333334 0.33333334 )
( 0.33333334 0.33333334 0.33333334 ))))
(((( 0.33333334 0.33333334 0.33333334 )
( 0.33333334 0.33333334 0.33333334 )
( 0.33333334 0.33333334 0.33333334 )
( 0.33333334 0.33333334 0.33333334 ))
(( 0.33333334 0.33333334 0.33333334 )
( 0.33333334 0.33333334 0.33333334 )
( 0.33333334 0.33333334 0.33333334 )
( 0.33333334 0.33333334 0.33333334 )))
((( 0.33333334 0.33333334 0.33333334 )
( 0.33333334 0.33333334 0.33333334 )
( 0.33333334 0.33333334 0.33333334 )
( 0.33333334 0.33333334 0.33333334 ))
(( 0.33333334 0.33333334 0.33333334 )
( 0.33333334 0.33333334 0.33333334 )
( 0.33333334 0.33333334 0.33333334 )
( 0.33333334 0.33333334 0.33333334 )))
((( 0.33333334 0.33333334 0.33333334 )
( 0.33333334 0.33333334 0.33333334 )
( 0.33333334 0.33333334 0.33333334 )
( 0.33333334 0.33333334 0.33333334 ))
(( 0.33333334 0.33333334 0.33333334 )
( 0.33333334 0.33333334 0.33333334 )
( 0.33333334 0.33333334 0.33333334 )
( 0.33333334 0.33333334 0.33333334 )))
((( 0.33333334 0.33333334 0.33333334 )
( 0.33333334 0.33333334 0.33333334 )
( 0.33333334 0.33333334 0.33333334 )
( 0.33333334 0.33333334 0.33333334 ))
(( 0.33333334 0.33333334 0.33333334 )
( 0.33333334 0.33333334 0.33333334 )
( 0.33333334 0.33333334 0.33333334 )
( 0.33333334 0.33333334 0.33333334 )))))
((((( 0.5 0.25 0.25 )
( 0.33333334 0.33333334 0.33333334 )
( 0.33333334 0.33333334 0.33333334 )
( 0.2 0.6 0.2 ))
(( 0.25 0.5 0.25 )
( 0.25 0.5 0.25 )
( 0.33333334 0.33333334 0.33333334 )
( 0.85714287 0.071428575 0.071428575 )))
((( 0.33333334 0.33333334 0.33333334 )
( 0.5 0.25 0.25 )
( 0.33333334 0.33333334 0.33333334 )
( 0.33333334 0.33333334 0.33333334 ))
(( 0.33333334 0.33333334 0.33333334 )
( 0.33333334 0.33333334 0.33333334 )
( 0.33333334 0.33333334 0.33333334 )
( 0.33333334 0.33333334 0.33333334 )))
((( 0.33333334 0.33333334 0.33333334 )
( 0.33333334 0.33333334 0.33333334 )
( 0.33333334 0.33333334 0.33333334 )
( 0.33333334 0.33333334 0.33333334 ))
(( 0.33333334 0.33333334 0.33333334 )
( 0.33333334 0.33333334 0.33333334 )
( 0.75 0.125 0.125 )
( 0.33333334 0.33333334 0.33333334 )))
((( 0.33333334 0.33333334 0.33333334 )
( 0.33333334 0.33333334 0.33333334 )
( 0.33333334 0.33333334 0.33333334 )
( 0.33333334 0.33333334 0.33333334 ))
(( 0.33333334 0.33333334 0.33333334 )
( 0.33333334 0.33333334 0.33333334 )
( 0.33333334 0.33333334 0.33333334 )
( 0.33333334 0.33333334 0.33333334 ))))
(((( 0.4 0.4 0.2 )
( 0.33333334 0.33333334 0.33333334 )
( 0.33333334 0.33333334 0.33333334 )
( 0.33333334 0.33333334 0.33333334 ))
(( 0.33333334 0.33333334 0.33333334 )
( 0.33333334 0.33333334 0.33333334 )
( 0.33333334 0.33333334 0.33333334 )
( 0.33333334 0.33333334 0.33333334 )))
((( 0.33333334 0.33333334 0.33333334 )
( 0.33333334 0.33333334 0.33333334 )
( 0.05 0.9 0.05 )
( 0.33333334 0.33333334 0.33333334 ))
(( 0.33333334 0.33333334 0.33333334 )
( 0.33333334 0.33333334 0.33333334 )
( 0.33333334 0.33333334 0.33333334 )
( 0.33333334 0.33333334 0.33333334 )))
((( 0.33333334 0.33333334 0.33333334 )
( 0.33333334 0.33333334 0.33333334 )
( 0.33333334 0.33333334 0.33333334 )
( 0.33333334 0.33333334 0.33333334 ))
(( 0.33333334 0.33333334 0.33333334 )
( 0.33333334 0.33333334 0.33333334 )
( 0.33333334 0.33333334 0.33333334 )
( 0.33333334 0.33333334 0.33333334 )))
((( 0.33333334 0.33333334 0.33333334 )
( 0.33333334 0.33333334 0.33333334 )
( 0.33333334 0.33333334 0.33333334 )
( 0.33333334 0.33333334 0.33333334 ))
(( 0.33333334 0.33333334 0.33333334 )
( 0.33333334 0.33333334 0.33333334 )
( 0.33333334 0.33333334 0.33333334 )
( 0.33333334 0.33333334 0.33333334 ))))
(((( 0.33333334 0.33333334 0.33333334 )
( 0.33333334 0.33333334 0.33333334 )
( 0.33333334 0.33333334 0.33333334 )
( 0.33333334 0.33333334 0.33333334 ))
(( 0.33333334 0.33333334 0.33333334 )
( 0.33333334 0.33333334 0.33333334 )
( 0.33333334 0.33333334 0.33333334 )
( 0.33333334 0.33333334 0.33333334 )))
((( 0.33333334 0.33333334 0.33333334 )
( 0.33333334 0.33333334 0.33333334 )
( 0.33333334 0.33333334 0.33333334 )
( 0.33333334 0.33333334 0.33333334 ))
(( 0.5 0.25 0.25 )
( 0.33333334 0.33333334 0.33333334 )
( 0.33333334 0.33333334 0.33333334 )
( 0.33333334 0.33333334 0.33333334 )))
((( 0.33333334 0.33333334 0.33333334 )
( 0.33333334 0.33333334 0.33333334 )
( 0.33333334 0.33333334 0.33333334 )
( 0.33333334 0.33333334 0.33333334 ))
(( 0.33333334 0.33333334 0.33333334 )
( 0.33333334 0.33333334 0.33333334 )
( 0.33333334 0.33333334 0.33333334 )
( 0.7777778 0.11111111 0.11111111 )))
((( 0.33333334 0.33333334 0.33333334 )
( 0.33333334 0.33333334 0.33333334 )
( 0.33333334 0.33333334 0.33333334 )
( 0.33333334 0.33333334 0.33333334 ))
(( 0.33333334 0.33333334 0.33333334 )
( 0.33333334 0.33333334 0.33333334 )
( 0.33333334 0.33333334 0.33333334 )
( 0.33333334 0.33333334 0.33333334 ))))
(((( 0.33333334 0.33333334 0.33333334 )
( 0.33333334 0.33333334 0.33333334 )
( 0.33333334 0.33333334 0.33333334 )
( 0.33333334 0.33333334 0.33333334 ))
(( 0.33333334 0.33333334 0.33333334 )
( 0.33333334 0.33333334 0.33333334 )
( 0.33333334 0.33333334 0.33333334 )
( 0.33333334 0.33333334 0.33333334 )))
((( 0.33333334 0.33333334 0.33333334 )
( 0.33333334 0.33333334 0.33333334 )
( 0.33333334 0.33333334 0.33333334 )
( 0.33333334 0.33333334 0.33333334 ))
(( 0.33333334 0.33333334 0.33333334 )
( 0.33333334 0.33333334 0.33333334 )
( 0.33333334 0.33333334 0.33333334 )
( 0.33333334 0.33333334 0.33333334 )))
((( 0.33333334 0.33333334 0.33333334 )
( 0.33333334 0.33333334 0.33333334 )
( 0.33333334 0.33333334 0.33333334 )
( 0.33333334 0.33333334 0.33333334 ))
(( 0.33333334 0.33333334 0.33333334 )
( 0.33333334 0.33333334 0.33333334 )
( 0.33333334 0.33333334 0.33333334 )
( 0.33333334 0.33333334 0.33333334 )))
((( 0.33333334 0.33333334 0.33333334 )
( 0.33333334 0.33333334 0.33333334 )
( 0.33333334 0.33333334 0.33333334 )
( 0.33333334 0.33333334 0.33333334 ))
(( 0.33333334 0.33333334 0.33333334 )
( 0.33333334 0.33333334 0.33333334 )
( 0.33333334 0.33333334 0.33333334 )
( 0.33333334 0.33333334 0.33333334 ))))
(((( 0.33333334 0.33333334 0.33333334 )
( 0.33333334 0.33333334 0.33333334 )
( 0.33333334 0.33333334 0.33333334 )
( 0.33333334 0.33333334 0.33333334 ))
(( 0.33333334 0.33333334 0.33333334 )
( 0.33333334 0.33333334 0.33333334 )
( 0.33333334 0.33333334 0.33333334 )
( 0.33333334 0.33333334 0.33333334 )))
((( 0.33333334 0.33333334 0.33333334 )
( 0.33333334 0.33333334 0.33333334 )
( 0.33333334 0.33333334 0.33333334 )
( 0.33333334 0.33333334 0.33333334 ))
(( 0.33333334 0.33333334 0.33333334 )
( 0.33333334 0.33333334 0.33333334 )
( 0.33333334 0.33333334 0.33333334 )
( 0.33333334 0.33333334 0.33333334 )))
((( 0.33333334 0.33333334 0.33333334 )
( 0.33333334 0.33333334 0.33333334 )
( 0.33333334 0.33333334 0.33333334 )
( 0.33333334 0.33333334 0.33333334 ))
(( 0.33333334 0.33333334 0.33333334 )
( 0.33333334 0.33333334 0.33333334 )
( 0.33333334 0.33333334 0.33333334 )
( 0.33333334 0.33333334 0.33333334 )))
((( 0.33333334 0.33333334 0.33333334 )
( 0.33333334 0.33333334 0.33333334 )
( 0.33333334 0.33333334 0.33333334 )
( 0.33333334 0.33333334 0.33333334 ))
(( 0.33333334 0.33333334 0.33333334 )
( 0.33333334 0.33333334 0.33333334 )
( 0.33333334 0.33333334 0.33333334 )
( 0.33333334 0.33333334 0.33333334 )))))
((((( 0.33333334 0.33333334 0.33333334 )
( 0.33333334 0.33333334 0.33333334 )
( 0.33333334 0.33333334 0.33333334 )
( 0.33333334 0.33333334 0.33333334 ))
(( 0.33333334 0.33333334 0.33333334 )
( 0.33333334 0.33333334 0.33333334 )
( 0.33333334 0.33333334 0.33333334 )
( 0.33333334 0.33333334 0.33333334 )))
((( 0.33333334 0.33333334 0.33333334 )
( 0.33333334 0.33333334 0.33333334 )
( 0.33333334 0.33333334 0.33333334 )
( 0.33333334 0.33333334 0.33333334 ))
(( 0.33333334 0.33333334 0.33333334 )
( 0.5 0.25 0.25 )
( 0.33333334 0.33333334 0.33333334 )
( 0.33333334 0.33333334 0.33333334 )))
((( 0.33333334 0.33333334 0.33333334 )
( 0.33333334 0.33333334 0.33333334 )
( 0.33333334 0.33333334 0.33333334 )
( 0.33333334 0.33333334 0.33333334 ))
(( 0.33333334 0.33333334 0.33333334 )
( 0.33333334 0.33333334 0.33333334 )
( 0.33333334 0.33333334 0.33333334 )
( 0.33333334 0.33333334 0.33333334 )))
((( 0.33333334 0.33333334 0.33333334 )
( 0.33333334 0.33333334 0.33333334 )
( 0.33333334 0.33333334 0.33333334 )
( 0.33333334 0.33333334 0.33333334 ))
(( 0.33333334 0.33333334 0.33333334 )
( 0.33333334 0.33333334 0.33333334 )
( 0.33333334 0.33333334 0.33333334 )
( 0.33333334 0.33333334 0.33333334 ))))
(((( 0.33333334 0.33333334 0.33333334 )
( 0.33333334 0.33333334 0.33333334 )
( 0.33333334 0.33333334 0.33333334 )
( 0.33333334 0.33333334 0.33333334 ))
(( 0.33333334 0.33333334 0.33333334 )
( 0.33333334 0.33333334 0.33333334 )
( 0.33333334 0.33333334 0.33333334 )
( 0.33333334 0.33333334 0.33333334 )))
((( 0.33333334 0.33333334 0.33333334 )
( 0.33333334 0.33333334 0.33333334 )
( 0.33333334 0.33333334 0.33333334 )
( 0.33333334 0.33333334 0.33333334 ))
(( 0.33333334 0.33333334 0.33333334 )
( 0.33333334 0.33333334 0.33333334 )
( 0.33333334 0.33333334 0.33333334 )
( 0.33333334 0.33333334 0.33333334 )))
((( 0.33333334 0.33333334 0.33333334 )
( 0.33333334 0.33333334 0.33333334 )
( 0.33333334 0.33333334 0.33333334 )
( 0.33333334 0.33333334 0.33333334 ))
(( 0.33333334 0.33333334 0.33333334 )
( 0.33333334 0.33333334 0.33333334 )
( 0.33333334 0.33333334 0.33333334 )
( 0.33333334 0.33333334 0.33333334 )))
((( 0.33333334 0.33333334 0.33333334 )
( 0.33333334 0.33333334 0.33333334 )
( 0.33333334 0.33333334 0.33333334 )
( 0.33333334 0.33333334 0.33333334 ))
(( 0.33333334 0.33333334 0.33333334 )
( 0.33333334 0.33333334 0.33333334 )
( 0.33333334 0.33333334 0.33333334 )
( 0.33333334 0.33333334 0.33333334 ))))
(((( 0.33333334 0.33333334 0.33333334 )
( 0.33333334 0.33333334 0.33333334 )
( 0.33333334 0.33333334 0.33333334 )
( 0.33333334 0.33333334 0.33333334 ))
(( 0.33333334 0.33333334 0.33333334 )
( 0.33333334 0.33333334 0.33333334 )
( 0.33333334 0.33333334 0.33333334 )
( 0.33333334 0.33333334 0.33333334 )))
((( 0.33333334 0.33333334 0.33333334 )
( 0.33333334 0.33333334 0.33333334 )
( 0.33333334 0.33333334 0.33333334 )
( 0.33333334 0.33333334 0.33333334 ))
(( 0.33333334 0.33333334 0.33333334 )
( 0.33333334 0.33333334 0.33333334 )
( 0.33333334 0.33333334 0.33333334 )
( 0.33333334 0.33333334 0.33333334 )))
((( 0.33333334 0.33333334 0.33333334 )
( 0.33333334 0.33333334 0.33333334 )
( 0.33333334 0.33333334 0.33333334 )
( 0.33333334 0.33333334 0.33333334 ))
(( 0.33333334 0.33333334 0.33333334 )
( 0.33333334 0.33333334 0.33333334 )
( 0.33333334 0.33333334 0.33333334 )
( 0.33333334 0.33333334 0.33333334 )))
((( 0.33333334 0.33333334 0.33333334 )
( 0.33333334 0.33333334 0.33333334 )
( 0.33333334 0.33333334 0.33333334 )
( 0.33333334 0.33333334 0.33333334 ))
(( 0.33333334 0.33333334 0.33333334 )
( 0.33333334 0.33333334 0.33333334 )
( 0.33333334 0.33333334 0.33333334 )
( 0.33333334 0.33333334 0.33333334 ))))
(((( 0.33333334 0.33333334 0.33333334 )
( 0.33333334 0.33333334 0.33333334 )
( 0.33333334 0.33333334 0.33333334 )
( 0.33333334 0.33333334 0.33333334 ))
(( 0.33333334 0.33333334 0.33333334 )
( 0.33333334 0.33333334 0.33333334 )
( 0.33333334 0.33333334 0.33333334 )
( 0.33333334 0.33333334 0.33333334 )))
((( 0.33333334 0.33333334 0.33333334 )
( 0.33333334 0.33333334 0.33333334 )
( 0.33333334 0.33333334 0.33333334 )
( 0.33333334 0.33333334 0.33333334 ))
(( 0.33333334 0.33333334 0.33333334 )
( 0.33333334 0.33333334 0.33333334 )
( 0.33333334 0.33333334 0.33333334 )
( 0.33333334 0.33333334 0.33333334 )))
((( 0.33333334 0.33333334 0.33333334 )
( 0.33333334 0.33333334 0.33333334 )
( 0.33333334 0.33333334 0.33333334 )
( 0.33333334 0.33333334 0.33333334 ))
(( 0.33333334 0.33333334 0.33333334 )
( 0.33333334 0.33333334 0.33333334 )
( 0.33333334 0.33333334 0.33333334 )
( 0.33333334 0.33333334 0.33333334 )))
((( 0.33333334 0.33333334 0.33333334 )
( 0.33333334 0.33333334 0.33333334 )
( 0.33333334 0.33333334 0.33333334 )
( 0.33333334 0.33333334 0.33333334 ))
(( 0.33333334 0.33333334 0.33333334 )
( 0.33333334 0.33333334 0.33333334 )
( 0.33333334 0.33333334 0.33333334 )
( 0.33333334 0.33333334 0.33333334 ))))
(((( 0.33333334 0.33333334 0.33333334 )
( 0.33333334 0.33333334 0.33333334 )
( 0.33333334 0.33333334 0.33333334 )
( 0.33333334 0.33333334 0.33333334 ))
(( 0.33333334 0.33333334 0.33333334 )
( 0.33333334 0.33333334 0.33333334 )
( 0.33333334 0.33333334 0.33333334 )
( 0.33333334 0.33333334 0.33333334 )))
((( 0.33333334 0.33333334 0.33333334 )
( 0.33333334 0.33333334 0.33333334 )
( 0.33333334 0.33333334 0.33333334 )
( 0.33333334 0.33333334 0.33333334 ))
(( 0.33333334 0.33333334 0.33333334 )
( 0.33333334 0.33333334 0.33333334 )
( 0.33333334 0.33333334 0.33333334 )
( 0.33333334 0.33333334 0.33333334 )))
((( 0.33333334 0.33333334 0.33333334 )
( 0.33333334 0.33333334 0.33333334 )
( 0.33333334 0.33333334 0.33333334 )
( 0.33333334 0.33333334 0.33333334 ))
(( 0.33333334 0.33333334 0.33333334 )
( 0.33333334 0.33333334 0.33333334 )
( 0.33333334 0.33333334 0.33333334 )
( 0.33333334 0.33333334 0.33333334 )))
((( 0.33333334 0.33333334 0.33333334 )
( 0.33333334 0.33333334 0.33333334 )
( 0.33333334 0.33333334 0.33333334 )
( 0.33333334 0.33333334 0.33333334 ))
(( 0.33333334 0.33333334 0.33333334 )
( 0.33333334 0.33333334 0.33333334 )
( 0.33333334 0.33333334 0.33333334 )
( 0.33333334 0.33333334 0.33333334 ))))))
(((((( 0.33333334 0.33333334 0.33333334 )
( 0.33333334 0.33333334 0.33333334 )
( 0.33333334 0.33333334 0.33333334 )
( 0.33333334 0.33333334 0.33333334 ))
(( 0.33333334 0.33333334 0.33333334 )
( 0.33333334 0.33333334 0.33333334 )
( 0.33333334 0.33333334 0.33333334 )
( 0.33333334 0.33333334 0.33333334 )))
((( 0.33333334 0.33333334 0.33333334 )
( 0.33333334 0.33333334 0.33333334 )
( 0.33333334 0.33333334 0.33333334 )
( 0.33333334 0.33333334 0.33333334 ))
(( 0.33333334 0.33333334 0.33333334 )
( 0.33333334 0.33333334 0.33333334 )
( 0.33333334 0.33333334 0.33333334 )
( 0.33333334 0.33333334 0.33333334 )))
((( 0.33333334 0.33333334 0.33333334 )
( 0.33333334 0.33333334 0.33333334 )
( 0.33333334 0.33333334 0.33333334 )
( 0.33333334 0.33333334 0.33333334 ))
(( 0.33333334 0.33333334 0.33333334 )
( 0.33333334 0.33333334 0.33333334 )
( 0.33333334 0.33333334 0.33333334 )
( 0.33333334 0.33333334 0.33333334 )))
((( 0.33333334 0.33333334 0.33333334 )
( 0.33333334 0.33333334 0.33333334 )
( 0.33333334 0.33333334 0.33333334 )
( 0.33333334 0.33333334 0.33333334 ))
(( 0.33333334 0.33333334 0.33333334 )
( 0.33333334 0.33333334 0.33333334 )
( 0.33333334 0.33333334 0.33333334 )
( 0.33333334 0.33333334 0.33333334 ))))
(((( 0.2 0.6 0.2 )
( 0.33333334 0.33333334 0.33333334 )
( 0.33333334 0.33333334 0.33333334 )
( 0.33333334 0.33333334 0.33333334 ))
(( 0.33333334 0.33333334 0.33333334 )
( 0.33333334 0.33333334 0.33333334 )
( 0.33333334 0.33333334 0.33333334 )
( 0.33333334 0.33333334 0.33333334 )))
((( 0.25 0.5 0.25 )
( 0.33333334 0.33333334 0.33333334 )
( 0.33333334 0.33333334 0.33333334 )
( 0.33333334 0.33333334 0.33333334 ))
(( 0.33333334 0.33333334 0.33333334 )
( 0.33333334 0.33333334 0.33333334 )
( 0.33333334 0.33333334 0.33333334 )
( 0.33333334 0.33333334 0.33333334 )))
((( 0.33333334 0.33333334 0.33333334 )
( 0.25 0.5 0.25 )
( 0.33333334 0.33333334 0.33333334 )
( 0.33333334 0.33333334 0.33333334 ))
(( 0.33333334 0.33333334 0.33333334 )
( 0.33333334 0.33333334 0.33333334 )
( 0.33333334 0.33333334 0.33333334 )
( 0.33333334 0.33333334 0.33333334 )))
((( 0.33333334 0.33333334 0.33333334 )
( 0.33333334 0.33333334 0.33333334 )
( 0.33333334 0.33333334 0.33333334 )
( 0.33333334 0.33333334 0.33333334 ))
(( 0.33333334 0.33333334 0.33333334 )
( 0.33333334 0.33333334 0.33333334 )
( 0.33333334 0.33333334 0.33333334 )
( 0.33333334 0.33333334 0.33333334 ))))
(((( 0.33333334 0.33333334 0.33333334 )
( 0.33333334 0.33333334 0.33333334 )
( 0.33333334 0.33333334 0.33333334 )
( 0.33333334 0.33333334 0.33333334 ))
(( 0.33333334 0.33333334 0.33333334 )
( 0.33333334 0.33333334 0.33333334 )
( 0.33333334 0.33333334 0.33333334 )
( 0.33333334 0.33333334 0.33333334 )))
((( 0.33333334 0.33333334 0.33333334 )
( 0.33333334 0.33333334 0.33333334 )
( 0.33333334 0.33333334 0.33333334 )
( 0.33333334 0.33333334 0.33333334 ))
(( 0.33333334 0.33333334 0.33333334 )
( 0.33333334 0.33333334 0.33333334 )
( 0.33333334 0.33333334 0.33333334 )
( 0.33333334 0.33333334 0.33333334 )))
((( 0.33333334 0.33333334 0.33333334 )
( 0.33333334 0.33333334 0.33333334 )
( 0.33333334 0.33333334 0.33333334 )
( 0.33333334 0.33333334 0.33333334 ))
(( 0.33333334 0.33333334 0.33333334 )
( 0.33333334 0.33333334 0.33333334 )
( 0.33333334 0.33333334 0.33333334 )
( 0.33333334 0.33333334 0.33333334 )))
((( 0.33333334 0.33333334 0.33333334 )
( 0.33333334 0.33333334 0.33333334 )
( 0.33333334 0.33333334 0.33333334 )
( 0.33333334 0.33333334 0.33333334 ))
(( 0.33333334 0.33333334 0.33333334 )
( 0.33333334 0.33333334 0.33333334 )
( 0.33333334 0.33333334 0.33333334 )
( 0.33333334 0.33333334 0.33333334 ))))
(((( 0.33333334 0.33333334 0.33333334 )
( 0.25 0.5 0.25 )
( 0.33333334 0.33333334 0.33333334 )
( 0.33333334 0.33333334 0.33333334 ))
(( 0.33333334 0.33333334 0.33333334 )
( 0.33333334 0.33333334 0.33333334 )
( 0.33333334 0.33333334 0.33333334 )
( 0.33333334 0.33333334 0.33333334 )))
((( 0.33333334 0.33333334 0.33333334 )
( 0.33333334 0.33333334 0.33333334 )
( 0.33333334 0.33333334 0.33333334 )
( 0.33333334 0.33333334 0.33333334 ))
(( 0.33333334 0.33333334 0.33333334 )
( 0.33333334 0.33333334 0.33333334 )
( 0.33333334 0.33333334 0.33333334 )
( 0.33333334 0.33333334 0.33333334 )))
((( 0.33333334 0.33333334 0.33333334 )
( 0.33333334 0.33333334 0.33333334 )
( 0.33333334 0.33333334 0.33333334 )
( 0.33333334 0.33333334 0.33333334 ))
(( 0.33333334 0.33333334 0.33333334 )
( 0.33333334 0.33333334 0.33333334 )
( 0.33333334 0.33333334 0.33333334 )
( 0.33333334 0.33333334 0.33333334 )))
((( 0.33333334 0.33333334 0.33333334 )
( 0.33333334 0.33333334 0.33333334 )
( 0.33333334 0.33333334 0.33333334 )
( 0.33333334 0.33333334 0.33333334 ))
(( 0.33333334 0.33333334 0.33333334 )
( 0.33333334 0.33333334 0.33333334 )
( 0.33333334 0.33333334 0.33333334 )
( 0.33333334 0.33333334 0.33333334 ))))
(((( 0.33333334 0.33333334 0.33333334 )
( 0.33333334 0.33333334 0.33333334 )
( 0.33333334 0.33333334 0.33333334 )
( 0.33333334 0.33333334 0.33333334 ))
(( 0.33333334 0.33333334 0.33333334 )
( 0.33333334 0.33333334 0.33333334 )
( 0.33333334 0.33333334 0.33333334 )
( 0.33333334 0.33333334 0.33333334 )))
((( 0.33333334 0.33333334 0.33333334 )
( 0.33333334 0.33333334 0.33333334 )
( 0.33333334 0.33333334 0.33333334 )
( 0.33333334 0.33333334 0.33333334 ))
(( 0.33333334 0.33333334 0.33333334 )
( 0.33333334 0.33333334 0.33333334 )
( 0.33333334 0.33333334 0.33333334 )
( 0.33333334 0.33333334 0.33333334 )))
((( 0.33333334 0.33333334 0.33333334 )
( 0.33333334 0.33333334 0.33333334 )
( 0.33333334 0.33333334 0.33333334 )
( 0.33333334 0.33333334 0.33333334 ))
(( 0.33333334 0.33333334 0.33333334 )
( 0.33333334 0.33333334 0.33333334 )
( 0.33333334 0.33333334 0.33333334 )
( 0.33333334 0.33333334 0.33333334 )))
((( 0.33333334 0.33333334 0.33333334 )
( 0.33333334 0.33333334 0.33333334 )
( 0.33333334 0.33333334 0.33333334 )
( 0.33333334 0.33333334 0.33333334 ))
(( 0.33333334 0.33333334 0.33333334 )
( 0.33333334 0.33333334 0.33333334 )
( 0.33333334 0.33333334 0.33333334 )
( 0.33333334 0.33333334 0.33333334 )))))
((((( 0.33333334 0.33333334 0.33333334 )
( 0.33333334 0.33333334 0.33333334 )
( 0.33333334 0.33333334 0.33333334 )
( 0.33333334 0.33333334 0.33333334 ))
(( 0.071428575 0.85714287 0.071428575 )
( 0.375 0.5625 0.0625 )
( 0.14285715 0.71428573 0.14285715 )
( 0.5 0.25 0.25 )))
((( 0.33333334 0.33333334 0.33333334 )
( 0.33333334 0.33333334 0.33333334 )
( 0.33333334 0.33333334 0.33333334 )
( 0.33333334 0.33333334 0.33333334 ))
(( 0.5 0.25 0.25 )
( 0.77272725 0.18181819 0.045454547 )
( 0.083333336 0.8333333 0.083333336 )
( 0.46153846 0.46153846 0.07692308 )))
((( 0.33333334 0.33333334 0.33333334 )
( 0.33333334 0.33333334 0.33333334 )
( 0.33333334 0.33333334 0.33333334 )
( 0.33333334 0.33333334 0.33333334 ))
(( 0.33333334 0.33333334 0.33333334 )
( 0.76 0.2 0.04 )
( 0.6 0.2 0.2 )
( 0.8181818 0.09090909 0.09090909 )))
((( 0.33333334 0.33333334 0.33333334 )
( 0.33333334 0.33333334 0.33333334 )
( 0.33333334 0.33333334 0.33333334 )
( 0.33333334 0.33333334 0.33333334 ))
(( 0.083333336 0.8333333 0.083333336 )
( 0.21428572 0.71428573 0.071428575 )
( 0.33333334 0.33333334 0.33333334 )
( 0.33333334 0.33333334 0.33333334 ))))
(((( 0.25 0.5 0.25 )
( 0.33333334 0.33333334 0.33333334 )
( 0.33333334 0.33333334 0.33333334 )
( 0.33333334 0.33333334 0.33333334 ))
(( 0.25 0.5 0.25 )
( 0.4 0.4 0.2 )
( 0.33333334 0.33333334 0.33333334 )
( 0.33333334 0.33333334 0.33333334 )))
((( 0.25 0.5 0.25 )
( 0.33333334 0.33333334 0.33333334 )
( 0.33333334 0.33333334 0.33333334 )
( 0.33333334 0.33333334 0.33333334 ))
(( 0.33333334 0.33333334 0.33333334 )
( 0.4 0.4 0.2 )
( 0.33333334 0.33333334 0.33333334 )
( 0.33333334 0.33333334 0.33333334 )))
((( 0.33333334 0.33333334 0.33333334 )
( 0.33333334 0.33333334 0.33333334 )
( 0.33333334 0.33333334 0.33333334 )
( 0.33333334 0.33333334 0.33333334 ))
(( 0.33333334 0.33333334 0.33333334 )
( 0.75 0.125 0.125 )
( 0.33333334 0.33333334 0.33333334 )
( 0.33333334 0.33333334 0.33333334 )))
((( 0.33333334 0.33333334 0.33333334 )
( 0.33333334 0.33333334 0.33333334 )
( 0.33333334 0.33333334 0.33333334 )
( 0.33333334 0.33333334 0.33333334 ))
(( 0.6666667 0.16666667 0.16666667 )
( 0.33333334 0.33333334 0.33333334 )
( 0.33333334 0.33333334 0.33333334 )
( 0.33333334 0.33333334 0.33333334 ))))
(((( 0.33333334 0.33333334 0.33333334 )
( 0.33333334 0.33333334 0.33333334 )
( 0.33333334 0.33333334 0.33333334 )
( 0.33333334 0.33333334 0.33333334 ))
(( 0.33333334 0.33333334 0.33333334 )
( 0.33333334 0.33333334 0.33333334 )
( 0.33333334 0.33333334 0.33333334 )
( 0.33333334 0.33333334 0.33333334 )))
((( 0.33333334 0.33333334 0.33333334 )
( 0.33333334 0.33333334 0.33333334 )
( 0.33333334 0.33333334 0.33333334 )
( 0.33333334 0.33333334 0.33333334 ))
(( 0.33333334 0.33333334 0.33333334 )
( 0.33333334 0.33333334 0.33333334 )
( 0.14285715 0.71428573 0.14285715 )
( 0.33333334 0.33333334 0.33333334 )))
((( 0.33333334 0.33333334 0.33333334 )
( 0.33333334 0.33333334 0.33333334 )
( 0.33333334 0.33333334 0.33333334 )
( 0.33333334 0.33333334 0.33333334 ))
(( 0.33333334 0.33333334 0.33333334 )
( 0.33333334 0.33333334 0.33333334 )
( 0.33333334 0.33333334 0.33333334 )
( 0.33333334 0.33333334 0.33333334 )))
((( 0.33333334 0.33333334 0.33333334 )
( 0.33333334 0.33333334 0.33333334 )
( 0.33333334 0.33333334 0.33333334 )
( 0.33333334 0.33333334 0.33333334 ))
(( 0.33333334 0.33333334 0.33333334 )
( 0.33333334 0.33333334 0.33333334 )
( 0.33333334 0.33333334 0.33333334 )
( 0.33333334 0.33333334 0.33333334 ))))
(((( 0.33333334 0.33333334 0.33333334 )
( 0.33333334 0.33333334 0.33333334 )
( 0.33333334 0.33333334 0.33333334 )
( 0.33333334 0.33333334 0.33333334 ))
(( 0.33333334 0.33333334 0.33333334 )
( 0.33333334 0.33333334 0.33333334 )
( 0.33333334 0.33333334 0.33333334 )
( 0.33333334 0.33333334 0.33333334 )))
((( 0.33333334 0.33333334 0.33333334 )
( 0.33333334 0.33333334 0.33333334 )
( 0.33333334 0.33333334 0.33333334 )
( 0.33333334 0.33333334 0.33333334 ))
(( 0.5 0.25 0.25 )
( 0.33333334 0.33333334 0.33333334 )
( 0.33333334 0.33333334 0.33333334 )
( 0.33333334 0.33333334 0.33333334 )))
((( 0.33333334 0.33333334 0.33333334 )
( 0.33333334 0.33333334 0.33333334 )
( 0.33333334 0.33333334 0.33333334 )
( 0.33333334 0.33333334 0.33333334 ))
(( 0.33333334 0.33333334 0.33333334 )
( 0.33333334 0.33333334 0.33333334 )
( 0.33333334 0.33333334 0.33333334 )
( 0.33333334 0.33333334 0.33333334 )))
((( 0.33333334 0.33333334 0.33333334 )
( 0.33333334 0.33333334 0.33333334 )
( 0.33333334 0.33333334 0.33333334 )
( 0.33333334 0.33333334 0.33333334 ))
(( 0.33333334 0.33333334 0.33333334 )
( 0.11111111 0.7777778 0.11111111 )
( 0.33333334 0.33333334 0.33333334 )
( 0.33333334 0.33333334 0.33333334 ))))
(((( 0.33333334 0.33333334 0.33333334 )
( 0.33333334 0.33333334 0.33333334 )
( 0.33333334 0.33333334 0.33333334 )
( 0.33333334 0.33333334 0.33333334 ))
(( 0.33333334 0.33333334 0.33333334 )
( 0.33333334 0.33333334 0.33333334 )
( 0.33333334 0.33333334 0.33333334 )
( 0.33333334 0.33333334 0.33333334 )))
((( 0.33333334 0.33333334 0.33333334 )
( 0.33333334 0.33333334 0.33333334 )
( 0.33333334 0.33333334 0.33333334 )
( 0.33333334 0.33333334 0.33333334 ))
(( 0.33333334 0.33333334 0.33333334 )
( 0.5 0.25 0.25 )
( 0.33333334 0.33333334 0.33333334 )
( 0.33333334 0.33333334 0.33333334 )))
((( 0.33333334 0.33333334 0.33333334 )
( 0.33333334 0.33333334 0.33333334 )
( 0.33333334 0.33333334 0.33333334 )
( 0.33333334 0.33333334 0.33333334 ))
(( 0.33333334 0.33333334 0.33333334 )
( 0.33333334 0.33333334 0.33333334 )
( 0.33333334 0.33333334 0.33333334 )
( 0.33333334 0.33333334 0.33333334 )))
((( 0.33333334 0.33333334 0.33333334 )
( 0.33333334 0.33333334 0.33333334 )
( 0.33333334 0.33333334 0.33333334 )
( 0.33333334 0.33333334 0.33333334 ))
(( 0.33333334 0.33333334 0.33333334 )
( 0.33333334 0.33333334 0.33333334 )
( 0.33333334 0.33333334 0.33333334 )
( 0.33333334 0.33333334 0.33333334 )))))
((((( 0.18181819 0.72727275 0.09090909 )
( 0.11111111 0.7777778 0.11111111 )
( 0.33333334 0.33333334 0.33333334 )
( 0.11111111 0.7777778 0.11111111 ))
(( 0.33333334 0.33333334 0.33333334 )
( 0.33333334 0.33333334 0.33333334 )
( 0.33333334 0.33333334 0.33333334 )
( 0.33333334 0.33333334 0.33333334 )))
((( 0.06666667 0.8666667 0.06666667 )
( 0.33333334 0.33333334 0.33333334 )
( 0.125 0.75 0.125 )
( 0.33333334 0.33333334 0.33333334 ))
(( 0.25 0.5 0.25 )
( 0.4 0.4 0.2 )
( 0.33333334 0.33333334 0.33333334 )
( 0.33333334 0.33333334 0.33333334 )))
((( 0.33333334 0.33333334 0.33333334 )
( 0.33333334 0.33333334 0.33333334 )
( 0.33333334 0.33333334 0.33333334 )
( 0.33333334 0.33333334 0.33333334 ))
(( 0.33333334 0.33333334 0.33333334 )
( 0.33333334 0.33333334 0.33333334 )
( 0.33333334 0.33333334 0.33333334 )
( 0.33333334 0.33333334 0.33333334 )))
((( 0.2 0.6 0.2 )
( 0.33333334 0.33333334 0.33333334 )
( 0.33333334 0.33333334 0.33333334 )
( 0.33333334 0.33333334 0.33333334 ))
(( 0.33333334 0.33333334 0.33333334 )
( 0.33333334 0.33333334 0.33333334 )
( 0.33333334 0.33333334 0.33333334 )
( 0.33333334 0.33333334 0.33333334 ))))
(((( 0.4117647 0.3529412 0.23529412 )
( 0.22727273 0.72727275 0.045454547 )
( 0.071428575 0.85714287 0.071428575 )
( 0.5 0.25 0.25 ))
(( 0.5 0.25 0.25 )
( 0.33333334 0.33333334 0.33333334 )
( 0.33333334 0.33333334 0.33333334 )
( 0.33333334 0.33333334 0.33333334 )))
((( 0.8333333 0.083333336 0.083333336 )
( 0.5555556 0.3888889 0.055555556 )
( 0.2 0.6 0.2 )
( 0.33333334 0.33333334 0.33333334 ))
(( 0.5 0.25 0.25 )
( 0.25 0.5 0.25 )
( 0.33333334 0.33333334 0.33333334 )
( 0.33333334 0.33333334 0.33333334 )))
((( 0.05882353 0.88235295 0.05882353 )
( 0.33333334 0.33333334 0.33333334 )
( 0.6 0.2 0.2 )
( 0.33333334 0.33333334 0.33333334 ))
(( 0.33333334 0.33333334 0.33333334 )
( 0.33333334 0.33333334 0.33333334 )
( 0.33333334 0.33333334 0.33333334 )
( 0.33333334 0.33333334 0.33333334 )))
((( 0.7777778 0.11111111 0.11111111 )
( 0.33333334 0.33333334 0.33333334 )
( 0.33333334 0.33333334 0.33333334 )
( 0.33333334 0.33333334 0.33333334 ))
(( 0.33333334 0.33333334 0.33333334 )
( 0.33333334 0.33333334 0.33333334 )
( 0.33333334 0.33333334 0.33333334 )
( 0.33333334 0.33333334 0.33333334 ))))
(((( 0.33333334 0.33333334 0.33333334 )
( 0.33333334 0.33333334 0.33333334 )
( 0.33333334 0.33333334 0.33333334 )
( 0.7777778 0.11111111 0.11111111 ))
(( 0.33333334 0.33333334 0.33333334 )
( 0.33333334 0.33333334 0.33333334 )
( 0.33333334 0.33333334 0.33333334 )
( 0.33333334 0.33333334 0.33333334 )))
((( 0.33333334 0.33333334 0.33333334 )
( 0.33333334 0.33333334 0.33333334 )
( 0.33333334 0.33333334 0.33333334 )
( 0.33333334 0.33333334 0.33333334 ))
(( 0.33333334 0.33333334 0.33333334 )
( 0.33333334 0.33333334 0.33333334 )
( 0.33333334 0.33333334 0.33333334 )
( 0.33333334 0.33333334 0.33333334 )))
((( 0.33333334 0.33333334 0.33333334 )
( 0.33333334 0.33333334 0.33333334 )
( 0.33333334 0.33333334 0.33333334 )
( 0.33333334 0.33333334 0.33333334 ))
(( 0.5 0.25 0.25 )
( 0.33333334 0.33333334 0.33333334 )
( 0.33333334 0.33333334 0.33333334 )
( 0.33333334 0.33333334 0.33333334 )))
((( 0.33333334 0.33333334 0.33333334 )
( 0.33333334 0.33333334 0.33333334 )
( 0.33333334 0.33333334 0.33333334 )
( 0.33333334 0.33333334 0.33333334 ))
(( 0.33333334 0.33333334 0.33333334 )
( 0.33333334 0.33333334 0.33333334 )
( 0.33333334 0.33333334 0.33333334 )
( 0.33333334 0.33333334 0.33333334 ))))
(((( 0.09090909 0.8181818 0.09090909 )
( 0.33333334 0.33333334 0.33333334 )
( 0.33333334 0.33333334 0.33333334 )
( 0.33333334 0.33333334 0.33333334 ))
(( 0.33333334 0.33333334 0.33333334 )
( 0.33333334 0.33333334 0.33333334 )
( 0.33333334 0.33333334 0.33333334 )
( 0.33333334 0.33333334 0.33333334 )))
((( 0.6 0.2 0.2 )
( 0.84615386 0.07692308 0.07692308 )
( 0.33333334 0.33333334 0.33333334 )
( 0.33333334 0.33333334 0.33333334 ))
(( 0.33333334 0.33333334 0.33333334 )
( 0.33333334 0.33333334 0.33333334 )
( 0.33333334 0.33333334 0.33333334 )
( 0.33333334 0.33333334 0.33333334 )))
((( 0.33333334 0.33333334 0.33333334 )
( 0.33333334 0.33333334 0.33333334 )
( 0.7777778 0.11111111 0.11111111 )
( 0.33333334 0.33333334 0.33333334 ))
(( 0.33333334 0.33333334 0.33333334 )
( 0.33333334 0.33333334 0.33333334 )
( 0.33333334 0.33333334 0.33333334 )
( 0.33333334 0.33333334 0.33333334 )))
((( 0.33333334 0.33333334 0.33333334 )
( 0.33333334 0.33333334 0.33333334 )
( 0.33333334 0.33333334 0.33333334 )
( 0.33333334 0.33333334 0.33333334 ))
(( 0.33333334 0.33333334 0.33333334 )
( 0.33333334 0.33333334 0.33333334 )
( 0.33333334 0.33333334 0.33333334 )
( 0.33333334 0.33333334 0.33333334 ))))
(((( 0.33333334 0.33333334 0.33333334 )
( 0.33333334 0.33333334 0.33333334 )
( 0.33333334 0.33333334 0.33333334 )
( 0.33333334 0.33333334 0.33333334 ))
(( 0.33333334 0.33333334 0.33333334 )
( 0.33333334 0.33333334 0.33333334 )
( 0.33333334 0.33333334 0.33333334 )
( 0.33333334 0.33333334 0.33333334 )))
((( 0.33333334 0.33333334 0.33333334 )
( 0.33333334 0.33333334 0.33333334 )
( 0.33333334 0.33333334 0.33333334 )
( 0.33333334 0.33333334 0.33333334 ))
(( 0.33333334 0.33333334 0.33333334 )
( 0.33333334 0.33333334 0.33333334 )
( 0.33333334 0.33333334 0.33333334 )
( 0.33333334 0.33333334 0.33333334 )))
((( 0.33333334 0.33333334 0.33333334 )
( 0.33333334 0.33333334 0.33333334 )
( 0.33333334 0.33333334 0.33333334 )
( 0.33333334 0.33333334 0.33333334 ))
(( 0.33333334 0.33333334 0.33333334 )
( 0.33333334 0.33333334 0.33333334 )
( 0.33333334 0.33333334 0.33333334 )
( 0.33333334 0.33333334 0.33333334 )))
((( 0.33333334 0.33333334 0.33333334 )
( 0.33333334 0.33333334 0.33333334 )
( 0.33333334 0.33333334 0.33333334 )
( 0.33333334 0.33333334 0.33333334 ))
(( 0.33333334 0.33333334 0.33333334 )
( 0.33333334 0.33333334 0.33333334 )
( 0.33333334 0.33333334 0.33333334 )
( 0.33333334 0.33333334 0.33333334 )))))
((((( 0.33333334 0.33333334 0.33333334 )
( 0.33333334 0.33333334 0.33333334 )
( 0.33333334 0.33333334 0.33333334 )
( 0.33333334 0.33333334 0.33333334 ))
(( 0.33333334 0.33333334 0.33333334 )
( 0.33333334 0.33333334 0.33333334 )
( 0.33333334 0.33333334 0.33333334 )
( 0.33333334 0.33333334 0.33333334 )))
((( 0.33333334 0.33333334 0.33333334 )
( 0.33333334 0.33333334 0.33333334 )
( 0.33333334 0.33333334 0.33333334 )
( 0.33333334 0.33333334 0.33333334 ))
(( 0.33333334 0.33333334 0.33333334 )
( 0.33333334 0.33333334 0.33333334 )
( 0.33333334 0.33333334 0.33333334 )
( 0.6666667 0.16666667 0.16666667 )))
((( 0.33333334 0.33333334 0.33333334 )
( 0.33333334 0.33333334 0.33333334 )
( 0.33333334 0.33333334 0.33333334 )
( 0.33333334 0.33333334 0.33333334 ))
(( 0.33333334 0.33333334 0.33333334 )
( 0.33333334 0.33333334 0.33333334 )
( 0.33333334 0.33333334 0.33333334 )
( 0.33333334 0.33333334 0.33333334 )))
((( 0.33333334 0.33333334 0.33333334 )
( 0.33333334 0.33333334 0.33333334 )
( 0.33333334 0.33333334 0.33333334 )
( 0.33333334 0.33333334 0.33333334 ))
(( 0.33333334 0.33333334 0.33333334 )
( 0.33333334 0.33333334 0.33333334 )
( 0.33333334 0.33333334 0.33333334 )
( 0.33333334 0.33333334 0.33333334 ))))
(((( 0.33333334 0.33333334 0.33333334 )
( 0.33333334 0.33333334 0.33333334 )
( 0.33333334 0.33333334 0.33333334 )
( 0.33333334 0.33333334 0.33333334 ))
(( 0.33333334 0.33333334 0.33333334 )
( 0.33333334 0.33333334 0.33333334 )
( 0.33333334 0.33333334 0.33333334 )
( 0.33333334 0.33333334 0.33333334 )))
((( 0.33333334 0.33333334 0.33333334 )
( 0.33333334 0.33333334 0.33333334 )
( 0.33333334 0.33333334 0.33333334 )
( 0.33333334 0.33333334 0.33333334 ))
(( 0.33333334 0.33333334 0.33333334 )
( 0.33333334 0.33333334 0.33333334 )
( 0.33333334 0.33333334 0.33333334 )
( 0.33333334 0.33333334 0.33333334 )))
((( 0.33333334 0.33333334 0.33333334 )
( 0.33333334 0.33333334 0.33333334 )
( 0.33333334 0.33333334 0.33333334 )
( 0.33333334 0.33333334 0.33333334 ))
(( 0.33333334 0.33333334 0.33333334 )
( 0.33333334 0.33333334 0.33333334 )
( 0.33333334 0.33333334 0.33333334 )
( 0.33333334 0.33333334 0.33333334 )))
((( 0.33333334 0.33333334 0.33333334 )
( 0.33333334 0.33333334 0.33333334 )
( 0.33333334 0.33333334 0.33333334 )
( 0.33333334 0.33333334 0.33333334 ))
(( 0.33333334 0.33333334 0.33333334 )
( 0.33333334 0.33333334 0.33333334 )
( 0.33333334 0.33333334 0.33333334 )
( 0.33333334 0.33333334 0.33333334 ))))
(((( 0.33333334 0.33333334 0.33333334 )
( 0.33333334 0.33333334 0.33333334 )
( 0.33333334 0.33333334 0.33333334 )
( 0.33333334 0.33333334 0.33333334 ))
(( 0.33333334 0.33333334 0.33333334 )
( 0.33333334 0.33333334 0.33333334 )
( 0.33333334 0.33333334 0.33333334 )
( 0.33333334 0.33333334 0.33333334 )))
((( 0.33333334 0.33333334 0.33333334 )
( 0.33333334 0.33333334 0.33333334 )
( 0.33333334 0.33333334 0.33333334 )
( 0.33333334 0.33333334 0.33333334 ))
(( 0.33333334 0.33333334 0.33333334 )
( 0.33333334 0.33333334 0.33333334 )
( 0.33333334 0.33333334 0.33333334 )
( 0.33333334 0.33333334 0.33333334 )))
((( 0.33333334 0.33333334 0.33333334 )
( 0.33333334 0.33333334 0.33333334 )
( 0.33333334 0.33333334 0.33333334 )
( 0.33333334 0.33333334 0.33333334 ))
(( 0.33333334 0.33333334 0.33333334 )
( 0.33333334 0.33333334 0.33333334 )
( 0.33333334 0.33333334 0.33333334 )
( 0.33333334 0.33333334 0.33333334 )))
((( 0.33333334 0.33333334 0.33333334 )
( 0.33333334 0.33333334 0.33333334 )
( 0.33333334 0.33333334 0.33333334 )
( 0.33333334 0.33333334 0.33333334 ))
(( 0.33333334 0.33333334 0.33333334 )
( 0.33333334 0.33333334 0.33333334 )
( 0.33333334 0.33333334 0.33333334 )
( 0.33333334 0.33333334 0.33333334 ))))
(((( 0.33333334 0.33333334 0.33333334 )
( 0.33333334 0.33333334 0.33333334 )
( 0.33333334 0.33333334 0.33333334 )
( 0.33333334 0.33333334 0.33333334 ))
(( 0.33333334 0.33333334 0.33333334 )
( 0.33333334 0.33333334 0.33333334 )
( 0.33333334 0.33333334 0.33333334 )
( 0.33333334 0.33333334 0.33333334 )))
((( 0.33333334 0.33333334 0.33333334 )
( 0.33333334 0.33333334 0.33333334 )
( 0.33333334 0.33333334 0.33333334 )
( 0.33333334 0.33333334 0.33333334 ))
(( 0.33333334 0.33333334 0.33333334 )
( 0.33333334 0.33333334 0.33333334 )
( 0.33333334 0.33333334 0.33333334 )
( 0.33333334 0.33333334 0.33333334 )))
((( 0.33333334 0.33333334 0.33333334 )
( 0.33333334 0.33333334 0.33333334 )
( 0.33333334 0.33333334 0.33333334 )
( 0.33333334 0.33333334 0.33333334 ))
(( 0.33333334 0.33333334 0.33333334 )
( 0.33333334 0.33333334 0.33333334 )
( 0.33333334 0.33333334 0.33333334 )
( 0.33333334 0.33333334 0.33333334 )))
((( 0.33333334 0.33333334 0.33333334 )
( 0.33333334 0.33333334 0.33333334 )
( 0.33333334 0.33333334 0.33333334 )
( 0.33333334 0.33333334 0.33333334 ))
(( 0.33333334 0.33333334 0.33333334 )
( 0.33333334 0.33333334 0.33333334 )
( 0.33333334 0.33333334 0.33333334 )
( 0.33333334 0.33333334 0.33333334 ))))
(((( 0.33333334 0.33333334 0.33333334 )
( 0.33333334 0.33333334 0.33333334 )
( 0.33333334 0.33333334 0.33333334 )
( 0.33333334 0.33333334 0.33333334 ))
(( 0.33333334 0.33333334 0.33333334 )
( 0.33333334 0.33333334 0.33333334 )
( 0.33333334 0.33333334 0.33333334 )
( 0.33333334 0.33333334 0.33333334 )))
((( 0.33333334 0.33333334 0.33333334 )
( 0.33333334 0.33333334 0.33333334 )
( 0.33333334 0.33333334 0.33333334 )
( 0.33333334 0.33333334 0.33333334 ))
(( 0.33333334 0.33333334 0.33333334 )
( 0.33333334 0.33333334 0.33333334 )
( 0.33333334 0.33333334 0.33333334 )
( 0.33333334 0.33333334 0.33333334 )))
((( 0.33333334 0.33333334 0.33333334 )
( 0.33333334 0.33333334 0.33333334 )
( 0.33333334 0.33333334 0.33333334 )
( 0.33333334 0.33333334 0.33333334 ))
(( 0.33333334 0.33333334 0.33333334 )
( 0.33333334 0.33333334 0.33333334 )
( 0.33333334 0.33333334 0.33333334 )
( 0.33333334 0.33333334 0.33333334 )))
((( 0.33333334 0.33333334 0.33333334 )
( 0.33333334 0.33333334 0.33333334 )
( 0.33333334 0.33333334 0.33333334 )
( 0.33333334 0.33333334 0.33333334 ))
(( 0.33333334 0.33333334 0.33333334 )
( 0.33333334 0.33333334 0.33333334 )
( 0.33333334 0.33333334 0.33333334 )
( 0.33333334 0.33333334 0.33333334 ))))))
(((((( 0.6 0.2 0.2 )
( 0.33333334 0.33333334 0.33333334 )
( 0.33333334 0.33333334 0.33333334 )
( 0.33333334 0.33333334 0.33333334 ))
(( 0.11111111 0.7777778 0.11111111 )
( 0.8 0.1 0.1 )
( 0.33333334 0.33333334 0.33333334 )
( 0.33333334 0.33333334 0.33333334 )))
((( 0.14285715 0.71428573 0.14285715 )
( 0.1 0.8 0.1 )
( 0.33333334 0.33333334 0.33333334 )
( 0.09090909 0.8181818 0.09090909 ))
(( 0.33333334 0.33333334 0.33333334 )
( 0.5 0.41666666 0.083333336 )
( 0.33333334 0.33333334 0.33333334 )
( 0.33333334 0.33333334 0.33333334 )))
((( 0.7777778 0.11111111 0.11111111 )
( 0.33333334 0.33333334 0.33333334 )
( 0.33333334 0.33333334 0.33333334 )
( 0.33333334 0.33333334 0.33333334 ))
(( 0.33333334 0.33333334 0.33333334 )
( 0.33333334 0.33333334 0.33333334 )
( 0.33333334 0.33333334 0.33333334 )
( 0.33333334 0.33333334 0.33333334 )))
((( 0.33333334 0.33333334 0.33333334 )
( 0.33333334 0.33333334 0.33333334 )
( 0.33333334 0.33333334 0.33333334 )
( 0.33333334 0.33333334 0.33333334 ))
(( 0.33333334 0.33333334 0.33333334 )
( 0.33333334 0.33333334 0.33333334 )
( 0.33333334 0.33333334 0.33333334 )
( 0.33333334 0.33333334 0.33333334 ))))
(((( 0.8666667 0.06666667 0.06666667 )
( 0.083333336 0.8333333 0.083333336 )
( 0.33333334 0.33333334 0.33333334 )
( 0.33333334 0.33333334 0.33333334 ))
(( 0.33333334 0.33333334 0.33333334 )
( 0.33333334 0.33333334 0.33333334 )
( 0.33333334 0.33333334 0.33333334 )
( 0.33333334 0.33333334 0.33333334 )))
((( 0.06666667 0.8666667 0.06666667 )
( 0.375 0.5 0.125 )
( 0.1 0.8 0.1 )
( 0.33333334 0.33333334 0.33333334 ))
(( 0.33333334 0.33333334 0.33333334 )
( 0.33333334 0.33333334 0.33333334 )
( 0.33333334 0.33333334 0.33333334 )
( 0.33333334 0.33333334 0.33333334 )))
((( 0.33333334 0.33333334 0.33333334 )
( 0.33333334 0.33333334 0.33333334 )
( 0.33333334 0.33333334 0.33333334 )
( 0.71428573 0.14285715 0.14285715 ))
(( 0.33333334 0.33333334 0.33333334 )
( 0.33333334 0.33333334 0.33333334 )
( 0.33333334 0.33333334 0.33333334 )
( 0.33333334 0.33333334 0.33333334 )))
((( 0.33333334 0.33333334 0.33333334 )
( 0.33333334 0.33333334 0.33333334 )
( 0.33333334 0.33333334 0.33333334 )
( 0.33333334 0.33333334 0.33333334 ))
(( 0.33333334 0.33333334 0.33333334 )
( 0.33333334 0.33333334 0.33333334 )
( 0.33333334 0.33333334 0.33333334 )
( 0.33333334 0.33333334 0.33333334 ))))
(((( 0.33333334 0.33333334 0.33333334 )
( 0.33333334 0.33333334 0.33333334 )
( 0.33333334 0.33333334 0.33333334 )
( 0.33333334 0.33333334 0.33333334 ))
(( 0.33333334 0.33333334 0.33333334 )
( 0.33333334 0.33333334 0.33333334 )
( 0.33333334 0.33333334 0.33333334 )
( 0.33333334 0.33333334 0.33333334 )))
((( 0.33333334 0.33333334 0.33333334 )
( 0.33333334 0.33333334 0.33333334 )
( 0.33333334 0.33333334 0.33333334 )
( 0.33333334 0.33333334 0.33333334 ))
(( 0.33333334 0.33333334 0.33333334 )
( 0.33333334 0.33333334 0.33333334 )
( 0.33333334 0.33333334 0.33333334 )
( 0.33333334 0.33333334 0.33333334 )))
((( 0.33333334 0.33333334 0.33333334 )
( 0.33333334 0.33333334 0.33333334 )
( 0.33333334 0.33333334 0.33333334 )
( 0.33333334 0.33333334 0.33333334 ))
(( 0.33333334 0.33333334 0.33333334 )
( 0.33333334 0.33333334 0.33333334 )
( 0.33333334 0.33333334 0.33333334 )
