net
{
     node_size = (0 0);
     name = "learned net";
     tree = "(sexo,idadenumero,glabela,fronte,incisivos,mentoredondo,mentoproeminencia,orbita)";
     UnBBayes_Color_Probabilistic_Description = "-256";
     UnBBayes_Color_Probabilistic_Explanation = "-16711936";
     UnBBayes_Color_Utility = "-16711681";
     UnBBayes_Color_Decision = "-14336";
}

node sexo
{
     label = "sexo";
     position = (54 54);
     states = ("Feminino" "Masculino");
}

node idadenumero
{
     label = "idadenumero";
     position = (108 54);
     states = ("Adulto" "PosPuberal" "Velho");
}

node glabela
{
     label = "glabela";
     position = (162 54);
     states = ("NaoProeminente" "Proeminente");
}

node fronte
{
     label = "fronte";
     position = (216 54);
     states = ("Vertical" "Inclinada");
}

node incisivos
{
     label = "incisivos";
     position = (270 54);
     states = ("Quadrado" "Redondo");
}

node mentoredondo
{
     label = "mentoredondo";
     position = (324 54);
     states = ("Arredondado" "Quadrado");
}

node mentoproeminencia
{
     label = "mentoproeminencia";
     position = (378 54);
     states = ("Discreto" "Proeminente");
}

node orbita
{
     label = "orbita";
     position = (432 54);
     states = ("Angulosa" "Redonda");
}

potential (sexo | idadenumero)
{
 data = (( 0.47790056 0.52209944 )
( 0.4591195 0.5408805 )
( 0.375 0.625 ));
}

potential (idadenumero)
{
 data = ( 0.7724359 0.16880342 0.058760684 );
}

potential (glabela | sexo idadenumero)
{
 data = ((( 0.9798271 0.02017291 )
( 0.25593668 0.7440633 ))
(( 0.972973 0.027027028 )
( 0.29885057 0.7011494 ))
(( 0.95454544 0.045454547 )
( 0.3888889 0.6111111 )));
}

potential (fronte | glabela sexo idadenumero)
{
 data = (((( 0.5542522 0.4457478 )
( 0.375 0.625 ))
(( 0.071428575 0.9285714 )
( 0.49469966 0.50530034 )))
((( 0.4520548 0.5479452 )
( 0.6666667 0.33333334 ))
(( 0.074074075 0.9259259 )
( 0.7419355 0.2580645 )))
((( 0.4090909 0.59090906 )
( 0.5 0.5 ))
(( 0.06666667 0.93333334 )
( 0.6086956 0.39130434 ))));
}

potential (incisivos | sexo idadenumero glabela)
{
 data = (((( 0.28152493 0.71847504 )
( 0.9489796 0.05102041 ))
(( 0.38356164 0.6164383 )
( 0.2962963 0.7037037 ))
(( 0.95454544 0.045454547 )
( 0.93333334 0.06666667 )))
((( 0.625 0.375 )
( 0.79858655 0.20141342 ))
(( 0.33333334 0.6666667 )
( 0.9354839 0.06451613 ))
(( 0.5 0.5 )
( 0.95652175 0.04347826 ))));
}

potential (mentoredondo | glabela idadenumero)
{
 data = ((( 0.5720824 0.42791763 )
( 0.3633218 0.6366782 ))
(( 0.52040815 0.47959185 )
( 0.52380955 0.47619048 ))
(( 0.25714287 0.74285716 )
( 0.3478261 0.65217394 )));
}

potential (mentoproeminencia | sexo idadenumero fronte)
{
 data = (((( 0.515625 0.484375 )
( 0.2244898 0.7755102 ))
(( 0.6 0.4 )
( 0.29166666 0.7083333 ))
(( 0.4 0.6 )
( 0.93333334 0.06666667 )))
((( 0.52866244 0.4713376 )
( 0.35042736 0.6495727 ))
(( 0.9512195 0.048780486 )
( 0.5365854 0.46341464 ))
(( 0.9285714 0.071428575 )
( 0.5652174 0.4347826 ))));
}

potential (orbita | sexo idadenumero)
{
 data = ((( 0.36023054 0.63976943 )
( 0.59366757 0.40633246 ))
(( 0.6621622 0.33783785 )
( 0.6896552 0.31034482 ))
(( 0.22727273 0.77272725 )
( 0.3888889 0.6111111 )));
}

