net
{
     node_size = (0 0);
     name = "learned net";
     tree = "(sexo,idadenumero,fronte,mentoproeminencia,incisivos,orbita,mentoredondo,glabela)";
     UnBBayes_Color_Probabilistic_Description = "-256";
     UnBBayes_Color_Probabilistic_Explanation = "-16711936";
     UnBBayes_Color_Utility = "-16711681";
     UnBBayes_Color_Decision = "-14336";
}

node sexo
{
     label = "sexo";
     position = (177 220);
     states = ("Feminino" "Masculino");
}

node idadenumero
{
     label = "idadenumero";
     position = (105 90);
     states = ("Adulto" "PosPuberal" "Velho");
}

node fronte
{
     label = "fronte";
     position = (57 190);
     states = ("MuitoVertical" "Inclinada" "Vertical" "MuitoInclinada");
}

node mentoproeminencia
{
     label = "mentoproeminencia";
     position = (287 238);
     states = ("Discreto" "Proeminente" "MuitoProeminente" "MuitoDiscreto");
}

node incisivos
{
     label = "incisivos";
     position = (389 247);
     states = ("Quadrado" "Redondo" "MuitoQuadrado" "MuitoRedondo" "Indisponivel");
}

node orbita
{
     label = "orbita";
     position = (392 171);
     states = ("Angulosa" "Redonda" "MuitoRedonda");
}

node mentoredondo
{
     label = "mentoredondo";
     position = (410 121);
     states = ("Arredondado" "Quadrado" "MuitoArredondado" "MuitoQuadrado");
}

node glabela
{
     label = "glabela";
     position = (448 50);
     states = ("NadaProeminente" "Proeminente" "PoucoProeminente" "MuitoProeminente");
}

potential (sexo | mentoproeminencia mentoredondo idadenumero)
{
 data = (((( 0.77272725 0.22727273 )
( 0.5764706 0.42352942 )
( 0.7037037 0.2962963 )
( 0.5185185 0.4814815 ))
(( 0.6056338 0.3943662 )
( 0.3802817 0.6197183 )
( 0.5294118 0.47058824 )
( 0.21428572 0.78571427 ))
(( 0.8076923 0.1923077 )
( 0.20588236 0.7941176 )
( 0.25 0.75 )
( 0.3125 0.6875 ))
(( 0.50769234 0.4923077 )
( 0.02631579 0.9736842 )
( 0.33333334 0.6666667 )
( 0.5 0.5 )))
((( 0.6923077 0.30769232 )
( 0.15384616 0.84615386 )
( 0.625 0.375 )
( 0.9411765 0.05882353 ))
(( 0.7 0.3 )
( 0.12 0.88 )
( 0.16666667 0.8333333 )
( 0.083333336 0.9166667 ))
(( 0.25 0.75 )
( 0.33333334 0.6666667 )
( 0.4375 0.5625 )
( 0.125 0.875 ))
(( 0.7241379 0.27586207 )
( 0.2 0.8 )
( 0.5 0.5 )
( 0.5 0.5 )))
((( 0.27272728 0.72727275 )
( 0.5 0.5 )
( 0.5 0.5 )
( 0.375 0.625 ))
(( 0.8 0.2 )
( 0.2 0.8 )
( 0.46153846 0.53846157 )
( 0.5625 0.4375 ))
(( 0.5 0.5 )
( 0.5 0.5 )
( 0.5 0.5 )
( 0.5 0.5 ))
(( 0.5 0.5 )
( 0.5 0.5 )
( 0.5 0.5 )
( 0.1 0.9 ))));
}

potential (idadenumero)
{
 data = ( 0.77267873 0.16862327 0.058697972 );
}

potential (fronte | idadenumero)
{
 data = (( 0.09766162 0.33837688 0.36726272 0.19669876 )
( 0.23602484 0.32919255 0.26708075 0.16770187 )
( 0.06896552 0.1724138 0.3275862 0.43103448 ));
}

potential (mentoproeminencia | mentoredondo orbita idadenumero)
{
 data = (((( 0.4673913 0.27173913 0.04347826 0.2173913 )
( 0.25547445 0.6569343 0.04379562 0.04379562 )
( 0.08988764 0.39325842 0.3483146 0.16853933 )
( 0.63829786 0.31914893 0.021276595 0.021276595 ))
(( 0.3181818 0.45454547 0.17424242 0.053030305 )
( 0.22794117 0.38235295 0.33088234 0.05882353 )
( 0.33962265 0.6226415 0.018867925 0.018867925 )
( 0.57377046 0.37704918 0.032786883 0.016393442 ))
(( 0.5714286 0.14285715 0.14285715 0.14285715 )
( 0.6666667 0.11111111 0.11111111 0.11111111 )
( 0.25 0.25 0.25 0.25 )
( 0.25 0.25 0.25 0.25 )))
((( 0.32258064 0.19354838 0.032258064 0.4516129 )
( 0.21052632 0.47368422 0.02631579 0.28947368 )
( 0.037037037 0.14814815 0.5555556 0.25925925 )
( 0.8888889 0.037037037 0.037037037 0.037037037 ))
(( 0.4848485 0.21212122 0.21212122 0.09090909 )
( 0.13333334 0.46666667 0.33333334 0.06666667 )
( 0.42857143 0.2857143 0.14285715 0.14285715 )
( 0.45454547 0.36363637 0.09090909 0.09090909 ))
(( 0.25 0.25 0.25 0.25 )
( 0.25 0.25 0.25 0.25 )
( 0.25 0.25 0.25 0.25 )
( 0.25 0.25 0.25 0.25 )))
((( 0.25 0.083333336 0.083333336 0.5833333 )
( 0.07692308 0.30769232 0.07692308 0.53846157 )
( 0.25 0.25 0.25 0.25 )
( 0.25 0.25 0.25 0.25 ))
(( 0.72727275 0.09090909 0.09090909 0.09090909 )
( 0.15384616 0.03846154 0.46153846 0.34615386 )
( 0.25 0.25 0.25 0.25 )
( 0.083333336 0.083333336 0.083333336 0.75 ))
(( 0.25 0.25 0.25 0.25 )
( 0.25 0.25 0.25 0.25 )
( 0.25 0.25 0.25 0.25 )
( 0.25 0.25 0.25 0.25 ))));
}

potential (incisivos | sexo idadenumero)
{
 data = ((( 0.2857143 0.6457143 0.0028571428 0.06285714 0.0028571428 )
( 0.82506526 0.14360313 0.007832898 0.018276762 0.005221932 ))
(( 0.051948052 0.116883114 0.32467532 0.4935065 0.012987013 )
( 0.5222222 0.12222222 0.21111111 0.13333334 0.011111111 ))
(( 0.84 0.04 0.04 0.04 0.04 )
( 0.8974359 0.025641026 0.025641026 0.025641026 0.025641026 )));
}

potential (orbita | idadenumero)
{
 data = (( 0.48209366 0.5055096 0.012396694 )
( 0.675 0.31875 0.00625 )
( 0.31578946 0.6666667 0.01754386 ));
}

potential (mentoredondo | idadenumero)
{
 data = (( 0.30261347 0.3727648 0.18569463 0.1389271 )
( 0.35403726 0.2857143 0.16770187 0.19254659 )
( 0.27586207 0.55172414 0.01724138 0.15517241 ));
}

potential (glabela | fronte sexo idadenumero)
{
 data = (((( 0.054545455 0.036363635 0.8909091 0.018181818 )
( 0.6989247 0.05376344 0.23655914 0.010752688 )
( 0.027972028 0.013986014 0.951049 0.006993007 )
( 0.95714283 0.014285714 0.014285714 0.014285714 ))
(( 0.04347826 0.08695652 0.04347826 0.82608694 )
( 0.00625 0.8625 0.11875 0.0125 )
( 0.007633588 0.9312977 0.053435113 0.007633588 )
( 0.275 0.05 0.65 0.025 )))
((( 0.15384616 0.07692308 0.6923077 0.07692308 )
( 0.85294116 0.029411765 0.0882353 0.029411765 )
( 0.10714286 0.071428575 0.78571427 0.035714287 )
( 0.7692308 0.07692308 0.07692308 0.07692308 ))
(( 0.03125 0.03125 0.03125 0.90625 )
( 0.03846154 0.61538464 0.30769232 0.03846154 )
( 0.045454547 0.8181818 0.09090909 0.045454547 )
( 0.42857143 0.04761905 0.47619048 0.04761905 )))
((( 0.25 0.25 0.25 0.25 )
( 0.5 0.16666667 0.16666667 0.16666667 )
( 0.083333336 0.083333336 0.75 0.083333336 )
( 0.78571427 0.071428575 0.071428575 0.071428575 ))
(( 0.14285715 0.14285715 0.14285715 0.5714286 )
( 0.09090909 0.72727275 0.09090909 0.09090909 )
( 0.071428575 0.5714286 0.071428575 0.2857143 )
( 0.11111111 0.11111111 0.7222222 0.055555556 ))));
}

