net
{
     node_size = (0 0);
     name = "learned net";
     tree = "(sexo,idadenumero,fronte,mentoproeminencia,incisivos,orbita,mentoredondo,glabela)";
     UnBBayes_Color_Probabilistic_Description = "-256";
     UnBBayes_Color_Probabilistic_Explanation = "-16711936";
     UnBBayes_Color_Utility = "-16711681";
     UnBBayes_Color_Decision = "-14336";
}

node sexo
{
     label = "sexo";
     position = (341 42);
     states = ("Feminino" "Masculino");
}

node idadenumero
{
     label = "idadenumero";
     position = (76 41);
     states = ("Adulto" "PosPuberal" "Velho");
}

node fronte
{
     label = "fronte";
     position = (185 87);
     states = ("Vertical" "Inclinada");
}

node mentoproeminencia
{
     label = "mentoproeminencia";
     position = (98 207);
     states = ("Discreto" "Proeminente");
}

node incisivos
{
     label = "incisivos";
     position = (173 227);
     states = ("Quadrado" "Redondo");
}

node orbita
{
     label = "orbita";
     position = (279 212);
     states = ("Angulosa" "Redonda");
}

node mentoredondo
{
     label = "mentoredondo";
     position = (340 188);
     states = ("Arredondado" "Quadrado");
}

node glabela
{
     label = "glabela";
     position = (407 130);
     states = ("NaoProeminente" "Proeminente");
}

potential (sexo)
{
 data = ( 0.4684492 0.5315508 );
}

potential (idadenumero)
{
 data = ( 0.7724359 0.16880342 0.058760684 );
}

potential (fronte | sexo)
{
 data = (( 0.5284738 0.4715262 )
( 0.41164657 0.5883534 ));
}

potential (mentoproeminencia | sexo idadenumero fronte)
{
 data = (((( 0.515625 0.484375 )
( 0.2244898 0.7755102 ))
(( 0.6 0.4 )
( 0.29166666 0.7083333 ))
(( 0.4 0.6 )
( 0.93333334 0.06666667 )))
((( 0.52866244 0.4713376 )
( 0.35042736 0.6495727 ))
(( 0.9512195 0.048780486 )
( 0.5365854 0.46341464 ))
(( 0.9285714 0.071428575 )
( 0.5652174 0.4347826 ))));
}

potential (incisivos | sexo idadenumero)
{
 data = ((( 0.28818443 0.71181554 )
( 0.8390501 0.16094987 ))
(( 0.3783784 0.6216216 )
( 0.74712646 0.25287357 ))
(( 0.95454544 0.045454547 )
( 0.9722222 0.027777778 )));
}

potential (orbita | sexo idadenumero)
{
 data = ((( 0.36023054 0.63976943 )
( 0.59366757 0.40633246 ))
(( 0.6621622 0.33783785 )
( 0.6896552 0.31034482 ))
(( 0.22727273 0.77272725 )
( 0.3888889 0.6111111 )));
}

potential (mentoredondo | sexo)
{
 data = (( 0.5444191 0.45558086 )
( 0.42771083 0.57228917 ));
}

potential (glabela | sexo fronte)
{
 data = ((( 0.9828326 0.017167382 )
( 0.03883495 0.9611651 ))
(( 0.97596157 0.024038462 )
( 0.43537414 0.56462586 )));
}

