net
{
     node_size = (0 0);
     name = "learned net";
     tree = "(sexo,idadenumero,fronte,mentoproeminencia,incisivos,orbita,mentoredondo,glabela)";
     UnBBayes_Color_Probabilistic_Description = "-256";
     UnBBayes_Color_Probabilistic_Explanation = "-16711936";
     UnBBayes_Color_Utility = "-16711681";
     UnBBayes_Color_Decision = "-14336";
}

node sexo
{
     label = "sexo";
     position = (64 61);
     states = ("Feminino" "Masculino");
}

node idadenumero
{
     label = "idadenumero";
     position = (109 101);
     states = ("Adulto" "PosPuberal" "Velho");
}

node fronte
{
     label = "fronte";
     position = (193 211);
     states = ("MuitoVertical" "Inclinada" "Vertical" "MuitoInclinada");
}

node mentoproeminencia
{
     label = "mentoproeminencia";
     position = (284 233);
     states = ("Discreto" "Proeminente" "MuitoProeminente" "MuitoDiscreto");
}

node incisivos
{
     label = "incisivos";
     position = (289 111);
     states = ("Quadrado" "Redondo" "MuitoQuadrado" "MuitoRedondo" "Indisponivel");
}

node orbita
{
     label = "orbita";
     position = (324 54);
     states = ("Angulosa" "Redonda" "MuitoRedonda");
}

node mentoredondo
{
     label = "mentoredondo";
     position = (323 304);
     states = ("Arredondado" "Quadrado" "MuitoArredondado" "MuitoQuadrado");
}

node glabela
{
     label = "glabela";
     position = (420 221);
     states = ("NadaProeminente" "Proeminente" "PoucoProeminente" "MuitoProeminente");
}

potential (sexo)
{
 data = ( 0.46851653 0.5314835 );
}

potential (idadenumero)
{
 data = ( 0.7729211 0.1684435 0.058635395 );
}

potential (fronte | idadenumero)
{
 data = (( 0.0989011 0.33791208 0.36675823 0.19642857 )
( 0.23602484 0.32919255 0.26708075 0.16770187 )
( 0.06896552 0.1724138 0.3275862 0.43103448 ));
}

potential (mentoproeminencia | sexo idadenumero)
{
 data = ((( 0.46571428 0.32857144 0.14857143 0.057142857 )
( 0.21465969 0.55497384 0.14397906 0.08638743 ))
(( 0.57894737 0.065789476 0.14473684 0.21052632 )
( 0.21348314 0.42696628 0.16853933 0.19101124 ))
(( 0.25 0.041666668 0.25 0.45833334 )
( 0.21052632 0.10526316 0.18421052 0.5 )));
}

potential (incisivos | idadenumero sexo)
{
 data = ((( 0.2877493 0.64387465 0.0028490028 0.06267806 0.0028490028 )
( 0.051948052 0.116883114 0.32467532 0.4935065 0.012987013 )
( 0.84 0.04 0.04 0.04 0.04 ))
(( 0.82506526 0.14360313 0.007832898 0.018276762 0.005221932 )
( 0.5222222 0.12222222 0.21111111 0.13333334 0.011111111 )
( 0.8974359 0.025641026 0.025641026 0.025641026 0.025641026 )));
}

potential (orbita | sexo)
{
 data = (( 0.4036281 0.5873016 0.009070295 )
( 0.596 0.392 0.012 ));
}

potential (mentoredondo | mentoproeminencia orbita)
{
 data = ((( 0.34810126 0.2658228 0.050632913 0.33544305 )
( 0.15544042 0.5699482 0.19689119 0.07772021 )
( 0.071428575 0.10714286 0.8035714 0.017857144 )
( 0.4698795 0.26506025 0.25301206 0.012048192 ))
(( 0.4050633 0.221519 0.12658228 0.24683544 )
( 0.35869566 0.3152174 0.18478261 0.14130434 )
( 0.3152174 0.65217394 0.010869565 0.02173913 )
( 0.25714287 0.45714286 0.028571429 0.25714287 ))
(( 0.33333334 0.5 0.083333336 0.083333336 )
( 0.25 0.25 0.25 0.25 )
( 0.25 0.25 0.25 0.25 )
( 0.25 0.25 0.25 0.25 )));
}

potential (glabela | fronte sexo)
{
 data = ((( 0.07692308 0.03076923 0.8769231 0.015384615 )
( 0.76 0.04 0.192 0.0080 )
( 0.034285713 0.017142856 0.94285715 0.0057142857 )
( 0.96629214 0.011235955 0.011235955 0.011235955 ))
(( 0.018518519 0.037037037 0.018518519 0.9259259 )
( 0.005291005 0.84656084 0.13756613 0.01058201 )
( 0.006289308 0.918239 0.050314464 0.025157232 )
( 0.2792793 0.045045044 0.6576577 0.018018018 )));
}

