net
{
     node_size = (0 0);
     name = "New PN";
     tree = "(HarmPotential_ST4,StarshipClass_ST4,OpSpec_ST4,StarshipZone_ST4,ZoneEShips_Z0,ZoneFShips_Z0,ZoneEShips_Z1,ZoneFShips_Z1,ZoneFShips_Z2,ZoneEShips_Z2)";
     UnBBayes_Color_Probabilistic_Description = "-256";
     UnBBayes_Color_Probabilistic_Explanation = "-16711936";
     UnBBayes_Color_Utility = "-16711681";
     UnBBayes_Color_Decision = "-14336";
}

node HarmPotential_ST4
{
     label = "HarmPotential_ST4";
     position = (327 356);
     states = ("False" "True");
}

node StarshipClass_ST4
{
     label = "StarshipClass_ST4";
     position = (386 282);
     states = ("WarBird" "Cruiser" "Explorer" "Frigate" "Freighter" "absurd");
}

node OpSpec_ST4
{
     label = "OpSpec_ST4";
     position = (456 223);
     states = ("Cardassian" "Friend" "Klingon" "Romulan" "Unknown" "absurd");
}

node StarshipZone_ST4
{
     label = "StarshipZone_ST4";
     position = (350 176);
     states = ("!Z0" "!Z1" "!Z2");
}

node ZoneEShips_Z0
{
     label = "ZoneEShips_Z0";
     position = (413 137);
     states = ("ES_0" "ES_1" "ES_2" "ES_3" "ES_MoreThan3");
}

node ZoneFShips_Z0
{
     label = "ZoneFShips_Z0";
     position = (456 106);
     states = ("FS_0" "FS_1" "FS_2" "FS_3" "FS_MoreThan3");
}

node ZoneEShips_Z1
{
     label = "ZoneEShips_Z1";
     position = (545 135);
     states = ("ES_0" "ES_1" "ES_2" "ES_3" "ES_MoreThan3");
}

node ZoneFShips_Z1
{
     label = "ZoneFShips_Z1";
     position = (566 172);
     states = ("FS_0" "FS_1" "FS_2" "FS_3" "FS_MoreThan3");
}

node ZoneFShips_Z2
{
     label = "ZoneFShips_Z2";
     position = (537 306);
     states = ("FS_0" "FS_1" "FS_2" "FS_3" "FS_MoreThan3");
}

node ZoneEShips_Z2
{
     label = "ZoneEShips_Z2";
     position = (561 275);
     states = ("ES_0" "ES_1" "ES_2" "ES_3" "ES_MoreThan3");
}

node ZoneNature_Z2
{
     label = "ZoneNature_Z2";
     position = (612 349);
     states = ("BlackHoleBoundary" "DeepSpace" "PlanetarySystem");
}

potential (HarmPotential_ST4 | StarshipClass_ST4)
{
 data = (( 1.0 0.0 )
( 1.0 0.0 )
( 1.0 0.0 )
( 1.0 0.0 )
( 1.0 0.0 )
( 1.0 0.0 ));
}

potential (StarshipClass_ST4 | OpSpec_ST4 StarshipZone_ST4)
{
 data = ((( 1.0 0.0 0.0 0.0 0.0 0.0 )
( 1.0 0.0 0.0 0.0 0.0 0.0 )
( 1.0 0.0 0.0 0.0 0.0 0.0 ))
(( 1.0 0.0 0.0 0.0 0.0 0.0 )
( 1.0 0.0 0.0 0.0 0.0 0.0 )
( 1.0 0.0 0.0 0.0 0.0 0.0 ))
(( 1.0 0.0 0.0 0.0 0.0 0.0 )
( 1.0 0.0 0.0 0.0 0.0 0.0 )
( 1.0 0.0 0.0 0.0 0.0 0.0 ))
(( 1.0 0.0 0.0 0.0 0.0 0.0 )
( 1.0 0.0 0.0 0.0 0.0 0.0 )
( 1.0 0.0 0.0 0.0 0.0 0.0 ))
(( 1.0 0.0 0.0 0.0 0.0 0.0 )
( 1.0 0.0 0.0 0.0 0.0 0.0 )
( 1.0 0.0 0.0 0.0 0.0 0.0 ))
(( 1.0 0.0 0.0 0.0 0.0 0.0 )
( 1.0 0.0 0.0 0.0 0.0 0.0 )
( 1.0 0.0 0.0 0.0 0.0 0.0 )));
}

potential (OpSpec_ST4 | StarshipZone_ST4 ZoneEShips_Z0 ZoneFShips_Z0 ZoneEShips_Z1 ZoneFShips_Z1 ZoneFShips_Z2 ZoneEShips_Z2)
{
 data = (((((((( 7.11914E27 0.0 0.0 0.0 0.0 0.0 )
( 7.11914E27 0.0 0.0 0.0 0.0 0.0 )
( 7.11914E27 0.0 0.0 0.0 0.0 0.0 )
( 7.11914E27 0.0 0.0 0.0 0.0 0.0 )
( 7.11914E27 0.0 0.0 0.0 0.0 0.0 ))
(( 7.11914E27 0.0 0.0 0.0 0.0 0.0 )
( 7.11914E27 0.0 0.0 0.0 0.0 0.0 )
( 7.11914E27 0.0 0.0 0.0 0.0 0.0 )
( 7.11914E27 0.0 0.0 0.0 0.0 0.0 )
( 7.11914E27 0.0 0.0 0.0 0.0 0.0 ))
(( 7.11914E27 0.0 0.0 0.0 0.0 0.0 )
( 7.11914E27 0.0 0.0 0.0 0.0 0.0 )
( 7.11914E27 0.0 0.0 0.0 0.0 0.0 )
( 7.11914E27 0.0 0.0 0.0 0.0 0.0 )
( 7.11914E27 0.0 0.0 0.0 0.0 0.0 ))
(( 7.11914E27 0.0 0.0 0.0 0.0 0.0 )
( 7.11914E27 0.0 0.0 0.0 0.0 0.0 )
( 7.11914E27 0.0 0.0 0.0 0.0 0.0 )
( 7.11914E27 0.0 0.0 0.0 0.0 0.0 )
( 7.11914E27 0.0 0.0 0.0 0.0 0.0 ))
(( 7.11914E27 0.0 0.0 0.0 0.0 0.0 )
( 7.11914E27 0.0 0.0 0.0 0.0 0.0 )
( 7.11914E27 0.0 0.0 0.0 0.0 0.0 )
( 7.11914E27 0.0 0.0 0.0 0.0 0.0 )
( 7.11914E27 0.0 0.0 0.0 0.0 0.0 )))
((( 7.11914E27 0.0 0.0 0.0 0.0 0.0 )
( 7.11914E27 0.0 0.0 0.0 0.0 0.0 )
( 7.11914E27 0.0 0.0 0.0 0.0 0.0 )
( 7.11914E27 0.0 0.0 0.0 0.0 0.0 )
( 7.11914E27 0.0 0.0 0.0 0.0 0.0 ))
(( 7.11914E27 0.0 0.0 0.0 0.0 0.0 )
( 7.11914E27 0.0 0.0 0.0 0.0 0.0 )
( 7.11914E27 0.0 0.0 0.0 0.0 0.0 )
( 7.11914E27 0.0 0.0 0.0 0.0 0.0 )
( 7.11914E27 0.0 0.0 0.0 0.0 0.0 ))
(( 7.11914E27 0.0 0.0 0.0 0.0 0.0 )
( 7.11914E27 0.0 0.0 0.0 0.0 0.0 )
( 7.11914E27 0.0 0.0 0.0 0.0 0.0 )
( 7.11914E27 0.0 0.0 0.0 0.0 0.0 )
( 7.11914E27 0.0 0.0 0.0 0.0 0.0 ))
(( 7.11914E27 0.0 0.0 0.0 0.0 0.0 )
( 7.11914E27 0.0 0.0 0.0 0.0 0.0 )
( 7.11914E27 0.0 0.0 0.0 0.0 0.0 )
( 7.11914E27 0.0 0.0 0.0 0.0 0.0 )
( 7.11914E27 0.0 0.0 0.0 0.0 0.0 ))
(( 7.11914E27 0.0 0.0 0.0 0.0 0.0 )
( 7.11914E27 0.0 0.0 0.0 0.0 0.0 )
( 7.11914E27 0.0 0.0 0.0 0.0 0.0 )
( 7.11914E27 0.0 0.0 0.0 0.0 0.0 )
( 7.11914E27 0.0 0.0 0.0 0.0 0.0 )))
((( 7.11914E27 0.0 0.0 0.0 0.0 0.0 )
( 7.11914E27 0.0 0.0 0.0 0.0 0.0 )
( 7.11914E27 0.0 0.0 0.0 0.0 0.0 )
( 7.11914E27 0.0 0.0 0.0 0.0 0.0 )
( 7.11914E27 0.0 0.0 0.0 0.0 0.0 ))
(( 7.11914E27 0.0 0.0 0.0 0.0 0.0 )
( 7.11914E27 0.0 0.0 0.0 0.0 0.0 )
( 7.11914E27 0.0 0.0 0.0 0.0 0.0 )
( 7.11914E27 0.0 0.0 0.0 0.0 0.0 )
( 7.11914E27 0.0 0.0 0.0 0.0 0.0 ))
(( 7.11914E27 0.0 0.0 0.0 0.0 0.0 )
( 7.11914E27 0.0 0.0 0.0 0.0 0.0 )
( 7.11914E27 0.0 0.0 0.0 0.0 0.0 )
( 7.11914E27 0.0 0.0 0.0 0.0 0.0 )
( 7.11914E27 0.0 0.0 0.0 0.0 0.0 ))
(( 7.11914E27 0.0 0.0 0.0 0.0 0.0 )
( 7.11914E27 0.0 0.0 0.0 0.0 0.0 )
( 7.11914E27 0.0 0.0 0.0 0.0 0.0 )
( 7.11914E27 0.0 0.0 0.0 0.0 0.0 )
( 7.11914E27 0.0 0.0 0.0 0.0 0.0 ))
(( 7.11914E27 0.0 0.0 0.0 0.0 0.0 )
( 7.11914E27 0.0 0.0 0.0 0.0 0.0 )
( 7.11914E27 0.0 0.0 0.0 0.0 0.0 )
( 7.11914E27 0.0 0.0 0.0 0.0 0.0 )
( 7.11914E27 0.0 0.0 0.0 0.0 0.0 )))
((( 7.11914E27 0.0 0.0 0.0 0.0 0.0 )
( 7.11914E27 0.0 0.0 0.0 0.0 0.0 )
( 7.11914E27 0.0 0.0 0.0 0.0 0.0 )
( 7.11914E27 0.0 0.0 0.0 0.0 0.0 )
( 7.11914E27 0.0 0.0 0.0 0.0 0.0 ))
(( 7.11914E27 0.0 0.0 0.0 0.0 0.0 )
( 7.11914E27 0.0 0.0 0.0 0.0 0.0 )
( 7.11914E27 0.0 0.0 0.0 0.0 0.0 )
( 7.11914E27 0.0 0.0 0.0 0.0 0.0 )
( 7.11914E27 0.0 0.0 0.0 0.0 0.0 ))
(( 7.11914E27 0.0 0.0 0.0 0.0 0.0 )
( 7.11914E27 0.0 0.0 0.0 0.0 0.0 )
( 7.11914E27 0.0 0.0 0.0 0.0 0.0 )
( 7.11914E27 0.0 0.0 0.0 0.0 0.0 )
( 7.11914E27 0.0 0.0 0.0 0.0 0.0 ))
(( 7.11914E27 0.0 0.0 0.0 0.0 0.0 )
( 7.11914E27 0.0 0.0 0.0 0.0 0.0 )
( 7.11914E27 0.0 0.0 0.0 0.0 0.0 )
( 7.11914E27 0.0 0.0 0.0 0.0 0.0 )
( 7.11914E27 0.0 0.0 0.0 0.0 0.0 ))
(( 7.11914E27 0.0 0.0 0.0 0.0 0.0 )
( 7.11914E27 0.0 0.0 0.0 0.0 0.0 )
( 7.11914E27 0.0 0.0 0.0 0.0 0.0 )
( 7.11914E27 0.0 0.0 0.0 0.0 0.0 )
( 7.11914E27 0.0 0.0 0.0 0.0 0.0 )))
((( 7.11914E27 0.0 0.0 0.0 0.0 0.0 )
( 7.11914E27 0.0 0.0 0.0 0.0 0.0 )
( 7.11914E27 0.0 0.0 0.0 0.0 0.0 )
( 7.11914E27 0.0 0.0 0.0 0.0 0.0 )
( 7.11914E27 0.0 0.0 0.0 0.0 0.0 ))
(( 7.11914E27 0.0 0.0 0.0 0.0 0.0 )
( 7.11914E27 0.0 0.0 0.0 0.0 0.0 )
( 7.11914E27 0.0 0.0 0.0 0.0 0.0 )
( 7.11914E27 0.0 0.0 0.0 0.0 0.0 )
( 7.11914E27 0.0 0.0 0.0 0.0 0.0 ))
(( 7.11914E27 0.0 0.0 0.0 0.0 0.0 )
( 7.11914E27 0.0 0.0 0.0 0.0 0.0 )
( 7.11914E27 0.0 0.0 0.0 0.0 0.0 )
( 7.11914E27 0.0 0.0 0.0 0.0 0.0 )
( 7.11914E27 0.0 0.0 0.0 0.0 0.0 ))
(( 7.11914E27 0.0 0.0 0.0 0.0 0.0 )
( 7.11914E27 0.0 0.0 0.0 0.0 0.0 )
( 7.11914E27 0.0 0.0 0.0 0.0 0.0 )
( 7.11914E27 0.0 0.0 0.0 0.0 0.0 )
( 7.11914E27 0.0 0.0 0.0 0.0 0.0 ))
(( 7.11914E27 0.0 0.0 0.0 0.0 0.0 )
( 7.11914E27 0.0 0.0 0.0 0.0 0.0 )
( 7.11914E27 0.0 0.0 0.0 0.0 0.0 )
( 7.11914E27 0.0 0.0 0.0 0.0 0.0 )
( 7.11914E27 0.0 0.0 0.0 0.0 0.0 ))))
(((( 7.11914E27 0.0 0.0 0.0 0.0 0.0 )
( 7.11914E27 0.0 0.0 0.0 0.0 0.0 )
( 7.11914E27 0.0 0.0 0.0 0.0 0.0 )
( 7.11914E27 0.0 0.0 0.0 0.0 0.0 )
( 7.11914E27 0.0 0.0 0.0 0.0 0.0 ))
(( 7.11914E27 0.0 0.0 0.0 0.0 0.0 )
( 7.11914E27 0.0 0.0 0.0 0.0 0.0 )
( 7.11914E27 0.0 0.0 0.0 0.0 0.0 )
( 7.11914E27 0.0 0.0 0.0 0.0 0.0 )
( 7.11914E27 0.0 0.0 0.0 0.0 0.0 ))
(( 7.11914E27 0.0 0.0 0.0 0.0 0.0 )
( 7.11914E27 0.0 0.0 0.0 0.0 0.0 )
( 7.11914E27 0.0 0.0 0.0 0.0 0.0 )
( 7.11914E27 0.0 0.0 0.0 0.0 0.0 )
( 7.11914E27 0.0 0.0 0.0 0.0 0.0 ))
(( 7.11914E27 0.0 0.0 0.0 0.0 0.0 )
( 7.11914E27 0.0 0.0 0.0 0.0 0.0 )
( 7.11914E27 0.0 0.0 0.0 0.0 0.0 )
( 7.11914E27 0.0 0.0 0.0 0.0 0.0 )
( 7.11914E27 0.0 0.0 0.0 0.0 0.0 ))
(( 7.11914E27 0.0 0.0 0.0 0.0 0.0 )
( 7.11914E27 0.0 0.0 0.0 0.0 0.0 )
( 7.11914E27 0.0 0.0 0.0 0.0 0.0 )
( 7.11914E27 0.0 0.0 0.0 0.0 0.0 )
( 7.11914E27 0.0 0.0 0.0 0.0 0.0 )))
((( 7.11914E27 0.0 0.0 0.0 0.0 0.0 )
( 7.11914E27 0.0 0.0 0.0 0.0 0.0 )
( 7.11914E27 0.0 0.0 0.0 0.0 0.0 )
( 7.11914E27 0.0 0.0 0.0 0.0 0.0 )
( 7.11914E27 0.0 0.0 0.0 0.0 0.0 ))
(( 7.11914E27 0.0 0.0 0.0 0.0 0.0 )
( 7.11914E27 0.0 0.0 0.0 0.0 0.0 )
( 7.11914E27 0.0 0.0 0.0 0.0 0.0 )
( 7.11914E27 0.0 0.0 0.0 0.0 0.0 )
( 7.11914E27 0.0 0.0 0.0 0.0 0.0 ))
(( 7.11914E27 0.0 0.0 0.0 0.0 0.0 )
( 7.11914E27 0.0 0.0 0.0 0.0 0.0 )
( 7.11914E27 0.0 0.0 0.0 0.0 0.0 )
( 7.11914E27 0.0 0.0 0.0 0.0 0.0 )
( 7.11914E27 0.0 0.0 0.0 0.0 0.0 ))
(( 7.11914E27 0.0 0.0 0.0 0.0 0.0 )
( 7.11914E27 0.0 0.0 0.0 0.0 0.0 )
( 7.11914E27 0.0 0.0 0.0 0.0 0.0 )
( 7.11914E27 0.0 0.0 0.0 0.0 0.0 )
( 7.11914E27 0.0 0.0 0.0 0.0 0.0 ))
(( 7.11914E27 0.0 0.0 0.0 0.0 0.0 )
( 7.11914E27 0.0 0.0 0.0 0.0 0.0 )
( 7.11914E27 0.0 0.0 0.0 0.0 0.0 )
( 7.11914E27 0.0 0.0 0.0 0.0 0.0 )
( 7.11914E27 0.0 0.0 0.0 0.0 0.0 )))
((( 7.11914E27 0.0 0.0 0.0 0.0 0.0 )
( 7.11914E27 0.0 0.0 0.0 0.0 0.0 )
( 7.11914E27 0.0 0.0 0.0 0.0 0.0 )
( 7.11914E27 0.0 0.0 0.0 0.0 0.0 )
( 7.11914E27 0.0 0.0 0.0 0.0 0.0 ))
(( 7.11914E27 0.0 0.0 0.0 0.0 0.0 )
( 7.11914E27 0.0 0.0 0.0 0.0 0.0 )
( 7.11914E27 0.0 0.0 0.0 0.0 0.0 )
( 7.11914E27 0.0 0.0 0.0 0.0 0.0 )
( 7.11914E27 0.0 0.0 0.0 0.0 0.0 ))
(( 7.11914E27 0.0 0.0 0.0 0.0 0.0 )
( 7.11914E27 0.0 0.0 0.0 0.0 0.0 )
( 7.11914E27 0.0 0.0 0.0 0.0 0.0 )
( 7.11914E27 0.0 0.0 0.0 0.0 0.0 )
( 7.11914E27 0.0 0.0 0.0 0.0 0.0 ))
(( 7.11914E27 0.0 0.0 0.0 0.0 0.0 )
( 7.11914E27 0.0 0.0 0.0 0.0 0.0 )
( 7.11914E27 0.0 0.0 0.0 0.0 0.0 )
( 7.11914E27 0.0 0.0 0.0 0.0 0.0 )
( 7.11914E27 0.0 0.0 0.0 0.0 0.0 ))
(( 7.11914E27 0.0 0.0 0.0 0.0 0.0 )
( 7.11914E27 0.0 0.0 0.0 0.0 0.0 )
( 7.11914E27 0.0 0.0 0.0 0.0 0.0 )
( 7.11914E27 0.0 0.0 0.0 0.0 0.0 )
( 7.11914E27 0.0 0.0 0.0 0.0 0.0 )))
((( 7.11914E27 0.0 0.0 0.0 0.0 0.0 )
( 7.11914E27 0.0 0.0 0.0 0.0 0.0 )
( 7.11914E27 0.0 0.0 0.0 0.0 0.0 )
( 7.11914E27 0.0 0.0 0.0 0.0 0.0 )
( 7.11914E27 0.0 0.0 0.0 0.0 0.0 ))
(( 7.11914E27 0.0 0.0 0.0 0.0 0.0 )
( 7.11914E27 0.0 0.0 0.0 0.0 0.0 )
( 7.11914E27 0.0 0.0 0.0 0.0 0.0 )
( 7.11914E27 0.0 0.0 0.0 0.0 0.0 )
( 7.11914E27 0.0 0.0 0.0 0.0 0.0 ))
(( 7.11914E27 0.0 0.0 0.0 0.0 0.0 )
( 7.11914E27 0.0 0.0 0.0 0.0 0.0 )
( 7.11914E27 0.0 0.0 0.0 0.0 0.0 )
( 7.11914E27 0.0 0.0 0.0 0.0 0.0 )
( 7.11914E27 0.0 0.0 0.0 0.0 0.0 ))
(( 7.11914E27 0.0 0.0 0.0 0.0 0.0 )
( 7.11914E27 0.0 0.0 0.0 0.0 0.0 )
( 7.11914E27 0.0 0.0 0.0 0.0 0.0 )
( 7.11914E27 0.0 0.0 0.0 0.0 0.0 )
( 7.11914E27 0.0 0.0 0.0 0.0 0.0 ))
(( 7.11914E27 0.0 0.0 0.0 0.0 0.0 )
( 7.11914E27 0.0 0.0 0.0 0.0 0.0 )
( 7.11914E27 0.0 0.0 0.0 0.0 0.0 )
( 7.11914E27 0.0 0.0 0.0 0.0 0.0 )
( 7.11914E27 0.0 0.0 0.0 0.0 0.0 )))
((( 7.11914E27 0.0 0.0 0.0 0.0 0.0 )
( 7.11914E27 0.0 0.0 0.0 0.0 0.0 )
( 7.11914E27 0.0 0.0 0.0 0.0 0.0 )
( 7.11914E27 0.0 0.0 0.0 0.0 0.0 )
( 7.11914E27 0.0 0.0 0.0 0.0 0.0 ))
(( 7.11914E27 0.0 0.0 0.0 0.0 0.0 )
( 7.11914E27 0.0 0.0 0.0 0.0 0.0 )
( 7.11914E27 0.0 0.0 0.0 0.0 0.0 )
( 7.11914E27 0.0 0.0 0.0 0.0 0.0 )
( 7.11914E27 0.0 0.0 0.0 0.0 0.0 ))
(( 7.11914E27 0.0 0.0 0.0 0.0 0.0 )
( 7.11914E27 0.0 0.0 0.0 0.0 0.0 )
( 7.11914E27 0.0 0.0 0.0 0.0 0.0 )
( 7.11914E27 0.0 0.0 0.0 0.0 0.0 )
( 7.11914E27 0.0 0.0 0.0 0.0 0.0 ))
(( 7.11914E27 0.0 0.0 0.0 0.0 0.0 )
( 7.11914E27 0.0 0.0 0.0 0.0 0.0 )
( 7.11914E27 0.0 0.0 0.0 0.0 0.0 )
( 7.11914E27 0.0 0.0 0.0 0.0 0.0 )
( 7.11914E27 0.0 0.0 0.0 0.0 0.0 ))
(( 7.11914E27 0.0 0.0 0.0 0.0 0.0 )
( 7.11914E27 0.0 0.0 0.0 0.0 0.0 )
( 7.11914E27 0.0 0.0 0.0 0.0 0.0 )
( 7.11914E27 0.0 0.0 0.0 0.0 0.0 )
( 7.11914E27 0.0 0.0 0.0 0.0 0.0 ))))
(((( 7.11914E27 0.0 0.0 0.0 0.0 0.0 )
( 7.11914E27 0.0 0.0 0.0 0.0 0.0 )
( 7.11914E27 0.0 0.0 0.0 0.0 0.0 )
( 7.11914E27 0.0 0.0 0.0 0.0 0.0 )
( 7.11914E27 0.0 0.0 0.0 0.0 0.0 ))
(( 7.11914E27 0.0 0.0 0.0 0.0 0.0 )
( 7.11914E27 0.0 0.0 0.0 0.0 0.0 )
( 7.11914E27 0.0 0.0 0.0 0.0 0.0 )
( 7.11914E27 0.0 0.0 0.0 0.0 0.0 )
( 7.11914E27 0.0 0.0 0.0 0.0 0.0 ))
(( 7.11914E27 0.0 0.0 0.0 0.0 0.0 )
( 7.11914E27 0.0 0.0 0.0 0.0 0.0 )
( 7.11914E27 0.0 0.0 0.0 0.0 0.0 )
( 7.11914E27 0.0 0.0 0.0 0.0 0.0 )
( 7.11914E27 0.0 0.0 0.0 0.0 0.0 ))
(( 7.11914E27 0.0 0.0 0.0 0.0 0.0 )
( 7.11914E27 0.0 0.0 0.0 0.0 0.0 )
( 7.11914E27 0.0 0.0 0.0 0.0 0.0 )
( 7.11914E27 0.0 0.0 0.0 0.0 0.0 )
( 7.11914E27 0.0 0.0 0.0 0.0 0.0 ))
(( 7.11914E27 0.0 0.0 0.0 0.0 0.0 )
( 7.11914E27 0.0 0.0 0.0 0.0 0.0 )
( 7.11914E27 0.0 0.0 0.0 0.0 0.0 )
( 7.11914E27 0.0 0.0 0.0 0.0 0.0 )
( 7.11914E27 0.0 0.0 0.0 0.0 0.0 )))
((( 7.11914E27 0.0 0.0 0.0 0.0 0.0 )
( 7.11914E27 0.0 0.0 0.0 0.0 0.0 )
( 7.11914E27 0.0 0.0 0.0 0.0 0.0 )
( 7.11914E27 0.0 0.0 0.0 0.0 0.0 )
( 7.11914E27 0.0 0.0 0.0 0.0 0.0 ))
(( 7.11914E27 0.0 0.0 0.0 0.0 0.0 )
( 7.11914E27 0.0 0.0 0.0 0.0 0.0 )
( 7.11914E27 0.0 0.0 0.0 0.0 0.0 )
( 7.11914E27 0.0 0.0 0.0 0.0 0.0 )
( 7.11914E27 0.0 0.0 0.0 0.0 0.0 ))
(( 7.11914E27 0.0 0.0 0.0 0.0 0.0 )
( 7.11914E27 0.0 0.0 0.0 0.0 0.0 )
( 7.11914E27 0.0 0.0 0.0 0.0 0.0 )
( 7.11914E27 0.0 0.0 0.0 0.0 0.0 )
( 7.11914E27 0.0 0.0 0.0 0.0 0.0 ))
(( 7.11914E27 0.0 0.0 0.0 0.0 0.0 )
( 7.11914E27 0.0 0.0 0.0 0.0 0.0 )
( 7.11914E27 0.0 0.0 0.0 0.0 0.0 )
( 7.11914E27 0.0 0.0 0.0 0.0 0.0 )
( 7.11914E27 0.0 0.0 0.0 0.0 0.0 ))
(( 7.11914E27 0.0 0.0 0.0 0.0 0.0 )
( 7.11914E27 0.0 0.0 0.0 0.0 0.0 )
( 7.11914E27 0.0 0.0 0.0 0.0 0.0 )
( 7.11914E27 0.0 0.0 0.0 0.0 0.0 )
( 7.11914E27 0.0 0.0 0.0 0.0 0.0 )))
((( 7.11914E27 0.0 0.0 0.0 0.0 0.0 )
( 7.11914E27 0.0 0.0 0.0 0.0 0.0 )
( 7.11914E27 0.0 0.0 0.0 0.0 0.0 )
( 7.11914E27 0.0 0.0 0.0 0.0 0.0 )
( 7.11914E27 0.0 0.0 0.0 0.0 0.0 ))
(( 7.11914E27 0.0 0.0 0.0 0.0 0.0 )
( 7.11914E27 0.0 0.0 0.0 0.0 0.0 )
( 7.11914E27 0.0 0.0 0.0 0.0 0.0 )
( 7.11914E27 0.0 0.0 0.0 0.0 0.0 )
( 7.11914E27 0.0 0.0 0.0 0.0 0.0 ))
(( 7.11914E27 0.0 0.0 0.0 0.0 0.0 )
( 7.11914E27 0.0 0.0 0.0 0.0 0.0 )
( 7.11914E27 0.0 0.0 0.0 0.0 0.0 )
( 7.11914E27 0.0 0.0 0.0 0.0 0.0 )
( 7.11914E27 0.0 0.0 0.0 0.0 0.0 ))
(( 7.11914E27 0.0 0.0 0.0 0.0 0.0 )
( 7.11914E27 0.0 0.0 0.0 0.0 0.0 )
( 7.11914E27 0.0 0.0 0.0 0.0 0.0 )
( 7.11914E27 0.0 0.0 0.0 0.0 0.0 )
( 7.11914E27 0.0 0.0 0.0 0.0 0.0 ))
(( 7.11914E27 0.0 0.0 0.0 0.0 0.0 )
( 7.11914E27 0.0 0.0 0.0 0.0 0.0 )
( 7.11914E27 0.0 0.0 0.0 0.0 0.0 )
( 7.11914E27 0.0 0.0 0.0 0.0 0.0 )
( 7.11914E27 0.0 0.0 0.0 0.0 0.0 )))
((( 7.11914E27 0.0 0.0 0.0 0.0 0.0 )
( 7.11914E27 0.0 0.0 0.0 0.0 0.0 )
( 7.11914E27 0.0 0.0 0.0 0.0 0.0 )
( 7.11914E27 0.0 0.0 0.0 0.0 0.0 )
( 7.11914E27 0.0 0.0 0.0 0.0 0.0 ))
(( 7.11914E27 0.0 0.0 0.0 0.0 0.0 )
( 7.11914E27 0.0 0.0 0.0 0.0 0.0 )
( 7.11914E27 0.0 0.0 0.0 0.0 0.0 )
( 7.11914E27 0.0 0.0 0.0 0.0 0.0 )
( 7.11914E27 0.0 0.0 0.0 0.0 0.0 ))
(( 7.11914E27 0.0 0.0 0.0 0.0 0.0 )
( 7.11914E27 0.0 0.0 0.0 0.0 0.0 )
( 7.11914E27 0.0 0.0 0.0 0.0 0.0 )
( 7.11914E27 0.0 0.0 0.0 0.0 0.0 )
( 7.11914E27 0.0 0.0 0.0 0.0 0.0 ))
(( 7.11914E27 0.0 0.0 0.0 0.0 0.0 )
( 7.11914E27 0.0 0.0 0.0 0.0 0.0 )
( 7.11914E27 0.0 0.0 0.0 0.0 0.0 )
( 7.11914E27 0.0 0.0 0.0 0.0 0.0 )
( 7.11914E27 0.0 0.0 0.0 0.0 0.0 ))
(( 7.11914E27 0.0 0.0 0.0 0.0 0.0 )
( 7.11914E27 0.0 0.0 0.0 0.0 0.0 )
( 7.11914E27 0.0 0.0 0.0 0.0 0.0 )
( 7.11914E27 0.0 0.0 0.0 0.0 0.0 )
( 7.11914E27 0.0 0.0 0.0 0.0 0.0 )))
((( 7.11914E27 0.0 0.0 0.0 0.0 0.0 )
( 7.11914E27 0.0 0.0 0.0 0.0 0.0 )
( 7.11914E27 0.0 0.0 0.0 0.0 0.0 )
( 7.11914E27 0.0 0.0 0.0 0.0 0.0 )
( 7.11914E27 0.0 0.0 0.0 0.0 0.0 ))
(( 7.11914E27 0.0 0.0 0.0 0.0 0.0 )
( 7.11914E27 0.0 0.0 0.0 0.0 0.0 )
( 7.11914E27 0.0 0.0 0.0 0.0 0.0 )
( 7.11914E27 0.0 0.0 0.0 0.0 0.0 )
( 7.11914E27 0.0 0.0 0.0 0.0 0.0 ))
(( 7.11914E27 0.0 0.0 0.0 0.0 0.0 )
( 7.11914E27 0.0 0.0 0.0 0.0 0.0 )
( 7.11914E27 0.0 0.0 0.0 0.0 0.0 )
( 7.11914E27 0.0 0.0 0.0 0.0 0.0 )
( 7.11914E27 0.0 0.0 0.0 0.0 0.0 ))
(( 7.11914E27 0.0 0.0 0.0 0.0 0.0 )
( 7.11914E27 0.0 0.0 0.0 0.0 0.0 )
( 7.11914E27 0.0 0.0 0.0 0.0 0.0 )
( 7.11914E27 0.0 0.0 0.0 0.0 0.0 )
( 7.11914E27 0.0 0.0 0.0 0.0 0.0 ))
(( 7.11914E27 0.0 0.0 0.0 0.0 0.0 )
( 7.11914E27 0.0 0.0 0.0 0.0 0.0 )
( 7.11914E27 0.0 0.0 0.0 0.0 0.0 )
( 7.11914E27 0.0 0.0 0.0 0.0 0.0 )
( 7.11914E27 0.0 0.0 0.0 0.0 0.0 ))))
(((( 7.11914E27 0.0 0.0 0.0 0.0 0.0 )
( 7.11914E27 0.0 0.0 0.0 0.0 0.0 )
( 7.11914E27 0.0 0.0 0.0 0.0 0.0 )
( 7.11914E27 0.0 0.0 0.0 0.0 0.0 )
( 7.11914E27 0.0 0.0 0.0 0.0 0.0 ))
(( 7.11914E27 0.0 0.0 0.0 0.0 0.0 )
( 7.11914E27 0.0 0.0 0.0 0.0 0.0 )
( 7.11914E27 0.0 0.0 0.0 0.0 0.0 )
( 7.11914E27 0.0 0.0 0.0 0.0 0.0 )
( 7.11914E27 0.0 0.0 0.0 0.0 0.0 ))
(( 7.11914E27 0.0 0.0 0.0 0.0 0.0 )
( 7.11914E27 0.0 0.0 0.0 0.0 0.0 )
( 7.11914E27 0.0 0.0 0.0 0.0 0.0 )
( 7.11914E27 0.0 0.0 0.0 0.0 0.0 )
( 7.11914E27 0.0 0.0 0.0 0.0 0.0 ))
(( 7.11914E27 0.0 0.0 0.0 0.0 0.0 )
( 7.11914E27 0.0 0.0 0.0 0.0 0.0 )
( 7.11914E27 0.0 0.0 0.0 0.0 0.0 )
( 7.11914E27 0.0 0.0 0.0 0.0 0.0 )
( 7.11914E27 0.0 0.0 0.0 0.0 0.0 ))
(( 7.11914E27 0.0 0.0 0.0 0.0 0.0 )
( 7.11914E27 0.0 0.0 0.0 0.0 0.0 )
( 7.11914E27 0.0 0.0 0.0 0.0 0.0 )
( 7.11914E27 0.0 0.0 0.0 0.0 0.0 )
( 7.11914E27 0.0 0.0 0.0 0.0 0.0 )))
((( 7.11914E27 0.0 0.0 0.0 0.0 0.0 )
( 7.11914E27 0.0 0.0 0.0 0.0 0.0 )
( 7.11914E27 0.0 0.0 0.0 0.0 0.0 )
( 7.11914E27 0.0 0.0 0.0 0.0 0.0 )
( 7.11914E27 0.0 0.0 0.0 0.0 0.0 ))
(( 7.11914E27 0.0 0.0 0.0 0.0 0.0 )
( 7.11914E27 0.0 0.0 0.0 0.0 0.0 )
( 7.11914E27 0.0 0.0 0.0 0.0 0.0 )
( 7.11914E27 0.0 0.0 0.0 0.0 0.0 )
( 7.11914E27 0.0 0.0 0.0 0.0 0.0 ))
(( 7.11914E27 0.0 0.0 0.0 0.0 0.0 )
( 7.11914E27 0.0 0.0 0.0 0.0 0.0 )
( 7.11914E27 0.0 0.0 0.0 0.0 0.0 )
( 7.11914E27 0.0 0.0 0.0 0.0 0.0 )
( 7.11914E27 0.0 0.0 0.0 0.0 0.0 ))
(( 7.11914E27 0.0 0.0 0.0 0.0 0.0 )
( 7.11914E27 0.0 0.0 0.0 0.0 0.0 )
( 7.11914E27 0.0 0.0 0.0 0.0 0.0 )
( 7.11914E27 0.0 0.0 0.0 0.0 0.0 )
( 7.11914E27 0.0 0.0 0.0 0.0 0.0 ))
(( 7.11914E27 0.0 0.0 0.0 0.0 0.0 )
( 7.11914E27 0.0 0.0 0.0 0.0 0.0 )
( 7.11914E27 0.0 0.0 0.0 0.0 0.0 )
( 7.11914E27 0.0 0.0 0.0 0.0 0.0 )
( 7.11914E27 0.0 0.0 0.0 0.0 0.0 )))
((( 7.11914E27 0.0 0.0 0.0 0.0 0.0 )
( 7.11914E27 0.0 0.0 0.0 0.0 0.0 )
( 7.11914E27 0.0 0.0 0.0 0.0 0.0 )
( 7.11914E27 0.0 0.0 0.0 0.0 0.0 )
( 7.11914E27 0.0 0.0 0.0 0.0 0.0 ))
(( 7.11914E27 0.0 0.0 0.0 0.0 0.0 )
( 7.11914E27 0.0 0.0 0.0 0.0 0.0 )
( 7.11914E27 0.0 0.0 0.0 0.0 0.0 )
( 7.11914E27 0.0 0.0 0.0 0.0 0.0 )
( 7.11914E27 0.0 0.0 0.0 0.0 0.0 ))
(( 7.11914E27 0.0 0.0 0.0 0.0 0.0 )
( 7.11914E27 0.0 0.0 0.0 0.0 0.0 )
( 7.11914E27 0.0 0.0 0.0 0.0 0.0 )
( 7.11914E27 0.0 0.0 0.0 0.0 0.0 )
( 7.11914E27 0.0 0.0 0.0 0.0 0.0 ))
(( 7.11914E27 0.0 0.0 0.0 0.0 0.0 )
( 7.11914E27 0.0 0.0 0.0 0.0 0.0 )
( 7.11914E27 0.0 0.0 0.0 0.0 0.0 )
( 7.11914E27 0.0 0.0 0.0 0.0 0.0 )
( 7.11914E27 0.0 0.0 0.0 0.0 0.0 ))
(( 7.11914E27 0.0 0.0 0.0 0.0 0.0 )
( 7.11914E27 0.0 0.0 0.0 0.0 0.0 )
( 7.11914E27 0.0 0.0 0.0 0.0 0.0 )
( 7.11914E27 0.0 0.0 0.0 0.0 0.0 )
( 7.11914E27 0.0 0.0 0.0 0.0 0.0 )))
((( 7.11914E27 0.0 0.0 0.0 0.0 0.0 )
( 7.11914E27 0.0 0.0 0.0 0.0 0.0 )
( 7.11914E27 0.0 0.0 0.0 0.0 0.0 )
( 7.11914E27 0.0 0.0 0.0 0.0 0.0 )
( 7.11914E27 0.0 0.0 0.0 0.0 0.0 ))
(( 7.11914E27 0.0 0.0 0.0 0.0 0.0 )
( 7.11914E27 0.0 0.0 0.0 0.0 0.0 )
( 7.11914E27 0.0 0.0 0.0 0.0 0.0 )
( 7.11914E27 0.0 0.0 0.0 0.0 0.0 )
( 7.11914E27 0.0 0.0 0.0 0.0 0.0 ))
(( 7.11914E27 0.0 0.0 0.0 0.0 0.0 )
( 7.11914E27 0.0 0.0 0.0 0.0 0.0 )
( 7.11914E27 0.0 0.0 0.0 0.0 0.0 )
( 7.11914E27 0.0 0.0 0.0 0.0 0.0 )
( 7.11914E27 0.0 0.0 0.0 0.0 0.0 ))
(( 7.11914E27 0.0 0.0 0.0 0.0 0.0 )
( 7.11914E27 0.0 0.0 0.0 0.0 0.0 )
( 7.11914E27 0.0 0.0 0.0 0.0 0.0 )
( 7.11914E27 0.0 0.0 0.0 0.0 0.0 )
( 7.11914E27 0.0 0.0 0.0 0.0 0.0 ))
(( 7.11914E27 0.0 0.0 0.0 0.0 0.0 )
( 7.11914E27 0.0 0.0 0.0 0.0 0.0 )
( 7.11914E27 0.0 0.0 0.0 0.0 0.0 )
( 7.11914E27 0.0 0.0 0.0 0.0 0.0 )
( 7.11914E27 0.0 0.0 0.0 0.0 0.0 )))
((( 7.11914E27 0.0 0.0 0.0 0.0 0.0 )
( 7.11914E27 0.0 0.0 0.0 0.0 0.0 )
( 7.11914E27 0.0 0.0 0.0 0.0 0.0 )
( 7.11914E27 0.0 0.0 0.0 0.0 0.0 )
( 7.11914E27 0.0 0.0 0.0 0.0 0.0 ))
(( 7.11914E27 0.0 0.0 0.0 0.0 0.0 )
( 7.11914E27 0.0 0.0 0.0 0.0 0.0 )
( 7.11914E27 0.0 0.0 0.0 0.0 0.0 )
( 7.11914E27 0.0 0.0 0.0 0.0 0.0 )
( 7.11914E27 0.0 0.0 0.0 0.0 0.0 ))
(( 7.11914E27 0.0 0.0 0.0 0.0 0.0 )
( 7.11914E27 0.0 0.0 0.0 0.0 0.0 )
( 7.11914E27 0.0 0.0 0.0 0.0 0.0 )
( 7.11914E27 0.0 0.0 0.0 0.0 0.0 )
( 7.11914E27 0.0 0.0 0.0 0.0 0.0 ))
(( 7.11914E27 0.0 0.0 0.0 0.0 0.0 )
( 7.11914E27 0.0 0.0 0.0 0.0 0.0 )
( 7.11914E27 0.0 0.0 0.0 0.0 0.0 )
( 7.11914E27 0.0 0.0 0.0 0.0 0.0 )
( 7.11914E27 0.0 0.0 0.0 0.0 0.0 ))
(( 7.11914E27 0.0 0.0 0.0 0.0 0.0 )
( 7.11914E27 0.0 0.0 0.0 0.0 0.0 )
( 7.11914E27 0.0 0.0 0.0 0.0 0.0 )
( 7.11914E27 0.0 0.0 0.0 0.0 0.0 )
( 7.11914E27 0.0 0.0 0.0 0.0 0.0 ))))
(((( 7.11914E27 0.0 0.0 0.0 0.0 0.0 )
( 7.11914E27 0.0 0.0 0.0 0.0 0.0 )
( 7.11914E27 0.0 0.0 0.0 0.0 0.0 )
( 7.11914E27 0.0 0.0 0.0 0.0 0.0 )
( 7.11914E27 0.0 0.0 0.0 0.0 0.0 ))
(( 7.11914E27 0.0 0.0 0.0 0.0 0.0 )
( 7.11914E27 0.0 0.0 0.0 0.0 0.0 )
( 7.11914E27 0.0 0.0 0.0 0.0 0.0 )
( 7.11914E27 0.0 0.0 0.0 0.0 0.0 )
( 7.11914E27 0.0 0.0 0.0 0.0 0.0 ))
(( 7.11914E27 0.0 0.0 0.0 0.0 0.0 )
( 7.11914E27 0.0 0.0 0.0 0.0 0.0 )
( 7.11914E27 0.0 0.0 0.0 0.0 0.0 )
( 7.11914E27 0.0 0.0 0.0 0.0 0.0 )
( 7.11914E27 0.0 0.0 0.0 0.0 0.0 ))
(( 7.11914E27 0.0 0.0 0.0 0.0 0.0 )
( 7.11914E27 0.0 0.0 0.0 0.0 0.0 )
( 7.11914E27 0.0 0.0 0.0 0.0 0.0 )
( 7.11914E27 0.0 0.0 0.0 0.0 0.0 )
( 7.11914E27 0.0 0.0 0.0 0.0 0.0 ))
(( 7.11914E27 0.0 0.0 0.0 0.0 0.0 )
( 7.11914E27 0.0 0.0 0.0 0.0 0.0 )
( 7.11914E27 0.0 0.0 0.0 0.0 0.0 )
( 7.11914E27 0.0 0.0 0.0 0.0 0.0 )
( 7.11914E27 0.0 0.0 0.0 0.0 0.0 )))
((( 7.11914E27 0.0 0.0 0.0 0.0 0.0 )
( 7.11914E27 0.0 0.0 0.0 0.0 0.0 )
( 7.11914E27 0.0 0.0 0.0 0.0 0.0 )
( 7.11914E27 0.0 0.0 0.0 0.0 0.0 )
( 7.11914E27 0.0 0.0 0.0 0.0 0.0 ))
(( 7.11914E27 0.0 0.0 0.0 0.0 0.0 )
( 7.11914E27 0.0 0.0 0.0 0.0 0.0 )
( 7.11914E27 0.0 0.0 0.0 0.0 0.0 )
( 7.11914E27 0.0 0.0 0.0 0.0 0.0 )
( 7.11914E27 0.0 0.0 0.0 0.0 0.0 ))
(( 7.11914E27 0.0 0.0 0.0 0.0 0.0 )
( 7.11914E27 0.0 0.0 0.0 0.0 0.0 )
( 7.11914E27 0.0 0.0 0.0 0.0 0.0 )
( 7.11914E27 0.0 0.0 0.0 0.0 0.0 )
( 7.11914E27 0.0 0.0 0.0 0.0 0.0 ))
(( 7.11914E27 0.0 0.0 0.0 0.0 0.0 )
( 7.11914E27 0.0 0.0 0.0 0.0 0.0 )
( 7.11914E27 0.0 0.0 0.0 0.0 0.0 )
( 7.11914E27 0.0 0.0 0.0 0.0 0.0 )
( 7.11914E27 0.0 0.0 0.0 0.0 0.0 ))
(( 7.11914E27 0.0 0.0 0.0 0.0 0.0 )
( 7.11914E27 0.0 0.0 0.0 0.0 0.0 )
( 7.11914E27 0.0 0.0 0.0 0.0 0.0 )
( 7.11914E27 0.0 0.0 0.0 0.0 0.0 )
( 7.11914E27 0.0 0.0 0.0 0.0 0.0 )))
((( 7.11914E27 0.0 0.0 0.0 0.0 0.0 )
( 7.11914E27 0.0 0.0 0.0 0.0 0.0 )
( 7.11914E27 0.0 0.0 0.0 0.0 0.0 )
( 7.11914E27 0.0 0.0 0.0 0.0 0.0 )
( 7.11914E27 0.0 0.0 0.0 0.0 0.0 ))
(( 7.11914E27 0.0 0.0 0.0 0.0 0.0 )
( 7.11914E27 0.0 0.0 0.0 0.0 0.0 )
( 7.11914E27 0.0 0.0 0.0 0.0 0.0 )
( 7.11914E27 0.0 0.0 0.0 0.0 0.0 )
( 7.11914E27 0.0 0.0 0.0 0.0 0.0 ))
(( 7.11914E27 0.0 0.0 0.0 0.0 0.0 )
( 7.11914E27 0.0 0.0 0.0 0.0 0.0 )
( 7.11914E27 0.0 0.0 0.0 0.0 0.0 )
( 7.11914E27 0.0 0.0 0.0 0.0 0.0 )
( 7.11914E27 0.0 0.0 0.0 0.0 0.0 ))
(( 7.11914E27 0.0 0.0 0.0 0.0 0.0 )
( 7.11914E27 0.0 0.0 0.0 0.0 0.0 )
( 7.11914E27 0.0 0.0 0.0 0.0 0.0 )
( 7.11914E27 0.0 0.0 0.0 0.0 0.0 )
( 7.11914E27 0.0 0.0 0.0 0.0 0.0 ))
(( 7.11914E27 0.0 0.0 0.0 0.0 0.0 )
( 7.11914E27 0.0 0.0 0.0 0.0 0.0 )
( 7.11914E27 0.0 0.0 0.0 0.0 0.0 )
( 7.11914E27 0.0 0.0 0.0 0.0 0.0 )
( 7.11914E27 0.0 0.0 0.0 0.0 0.0 )))
((( 7.11914E27 0.0 0.0 0.0 0.0 0.0 )
( 7.11914E27 0.0 0.0 0.0 0.0 0.0 )
( 7.11914E27 0.0 0.0 0.0 0.0 0.0 )
( 7.11914E27 0.0 0.0 0.0 0.0 0.0 )
( 7.11914E27 0.0 0.0 0.0 0.0 0.0 ))
(( 7.11914E27 0.0 0.0 0.0 0.0 0.0 )
( 7.11914E27 0.0 0.0 0.0 0.0 0.0 )
( 7.11914E27 0.0 0.0 0.0 0.0 0.0 )
( 7.11914E27 0.0 0.0 0.0 0.0 0.0 )
( 7.11914E27 0.0 0.0 0.0 0.0 0.0 ))
(( 7.11914E27 0.0 0.0 0.0 0.0 0.0 )
( 7.11914E27 0.0 0.0 0.0 0.0 0.0 )
( 7.11914E27 0.0 0.0 0.0 0.0 0.0 )
( 7.11914E27 0.0 0.0 0.0 0.0 0.0 )
( 7.11914E27 0.0 0.0 0.0 0.0 0.0 ))
(( 7.11914E27 0.0 0.0 0.0 0.0 0.0 )
( 7.11914E27 0.0 0.0 0.0 0.0 0.0 )
( 7.11914E27 0.0 0.0 0.0 0.0 0.0 )
( 7.11914E27 0.0 0.0 0.0 0.0 0.0 )
( 7.11914E27 0.0 0.0 0.0 0.0 0.0 ))
(( 7.11914E27 0.0 0.0 0.0 0.0 0.0 )
( 7.11914E27 0.0 0.0 0.0 0.0 0.0 )
( 7.11914E27 0.0 0.0 0.0 0.0 0.0 )
( 7.11914E27 0.0 0.0 0.0 0.0 0.0 )
( 7.11914E27 0.0 0.0 0.0 0.0 0.0 )))
((( 7.11914E27 0.0 0.0 0.0 0.0 0.0 )
( 7.11914E27 0.0 0.0 0.0 0.0 0.0 )
( 7.11914E27 0.0 0.0 0.0 0.0 0.0 )
( 7.11914E27 0.0 0.0 0.0 0.0 0.0 )
( 7.11914E27 0.0 0.0 0.0 0.0 0.0 ))
(( 7.11914E27 0.0 0.0 0.0 0.0 0.0 )
( 7.11914E27 0.0 0.0 0.0 0.0 0.0 )
( 7.11914E27 0.0 0.0 0.0 0.0 0.0 )
( 7.11914E27 0.0 0.0 0.0 0.0 0.0 )
( 7.11914E27 0.0 0.0 0.0 0.0 0.0 ))
(( 7.11914E27 0.0 0.0 0.0 0.0 0.0 )
( 7.11914E27 0.0 0.0 0.0 0.0 0.0 )
( 7.11914E27 0.0 0.0 0.0 0.0 0.0 )
( 7.11914E27 0.0 0.0 0.0 0.0 0.0 )
( 7.11914E27 0.0 0.0 0.0 0.0 0.0 ))
(( 7.11914E27 0.0 0.0 0.0 0.0 0.0 )
( 7.11914E27 0.0 0.0 0.0 0.0 0.0 )
( 7.11914E27 0.0 0.0 0.0 0.0 0.0 )
( 7.11914E27 0.0 0.0 0.0 0.0 0.0 )
( 7.11914E27 0.0 0.0 0.0 0.0 0.0 ))
(( 7.11914E27 0.0 0.0 0.0 0.0 0.0 )
( 7.11914E27 0.0 0.0 0.0 0.0 0.0 )
( 7.11914E27 0.0 0.0 0.0 0.0 0.0 )
( 7.11914E27 0.0 0.0 0.0 0.0 0.0 )
( 7.11914E27 0.0 0.0 0.0 0.0 0.0 )))))
((((( 7.11914E27 0.0 0.0 0.0 0.0 0.0 )
( 7.11914E27 0.0 0.0 0.0 0.0 0.0 )
( 7.11914E27 0.0 0.0 0.0 0.0 0.0 )
( 7.11914E27 0.0 0.0 0.0 0.0 0.0 )
( 7.11914E27 0.0 0.0 0.0 0.0 0.0 ))
(( 7.11914E27 0.0 0.0 0.0 0.0 0.0 )
( 7.11914E27 0.0 0.0 0.0 0.0 0.0 )
( 7.11914E27 0.0 0.0 0.0 0.0 0.0 )
( 7.11914E27 0.0 0.0 0.0 0.0 0.0 )
( 7.11914E27 0.0 0.0 0.0 0.0 0.0 ))
(( 7.11914E27 0.0 0.0 0.0 0.0 0.0 )
( 7.11914E27 0.0 0.0 0.0 0.0 0.0 )
( 7.11914E27 0.0 0.0 0.0 0.0 0.0 )
( 7.11914E27 0.0 0.0 0.0 0.0 0.0 )
( 7.11914E27 0.0 0.0 0.0 0.0 0.0 ))
(( 7.11914E27 0.0 0.0 0.0 0.0 0.0 )
( 7.11914E27 0.0 0.0 0.0 0.0 0.0 )
( 7.11914E27 0.0 0.0 0.0 0.0 0.0 )
( 7.11914E27 0.0 0.0 0.0 0.0 0.0 )
( 7.11914E27 0.0 0.0 0.0 0.0 0.0 ))
(( 7.11914E27 0.0 0.0 0.0 0.0 0.0 )
( 7.11914E27 0.0 0.0 0.0 0.0 0.0 )
( 7.11914E27 0.0 0.0 0.0 0.0 0.0 )
( 7.11914E27 0.0 0.0 0.0 0.0 0.0 )
( 7.11914E27 0.0 0.0 0.0 0.0 0.0 )))
((( 7.11914E27 0.0 0.0 0.0 0.0 0.0 )
( 7.11914E27 0.0 0.0 0.0 0.0 0.0 )
( 7.11914E27 0.0 0.0 0.0 0.0 0.0 )
( 7.11914E27 0.0 0.0 0.0 0.0 0.0 )
( 7.11914E27 0.0 0.0 0.0 0.0 0.0 ))
(( 7.11914E27 0.0 0.0 0.0 0.0 0.0 )
( 7.11914E27 0.0 0.0 0.0 0.0 0.0 )
( 7.11914E27 0.0 0.0 0.0 0.0 0.0 )
( 7.11914E27 0.0 0.0 0.0 0.0 0.0 )
( 7.11914E27 0.0 0.0 0.0 0.0 0.0 ))
(( 7.11914E27 0.0 0.0 0.0 0.0 0.0 )
( 7.11914E27 0.0 0.0 0.0 0.0 0.0 )
( 7.11914E27 0.0 0.0 0.0 0.0 0.0 )
( 7.11914E27 0.0 0.0 0.0 0.0 0.0 )
( 7.11914E27 0.0 0.0 0.0 0.0 0.0 ))
(( 7.11914E27 0.0 0.0 0.0 0.0 0.0 )
( 7.11914E27 0.0 0.0 0.0 0.0 0.0 )
( 7.11914E27 0.0 0.0 0.0 0.0 0.0 )
( 7.11914E27 0.0 0.0 0.0 0.0 0.0 )
( 7.11914E27 0.0 0.0 0.0 0.0 0.0 ))
(( 7.11914E27 0.0 0.0 0.0 0.0 0.0 )
( 7.11914E27 0.0 0.0 0.0 0.0 0.0 )
( 7.11914E27 0.0 0.0 0.0 0.0 0.0 )
( 7.11914E27 0.0 0.0 0.0 0.0 0.0 )
( 7.11914E27 0.0 0.0 0.0 0.0 0.0 )))
((( 7.11914E27 0.0 0.0 0.0 0.0 0.0 )
( 7.11914E27 0.0 0.0 0.0 0.0 0.0 )
( 7.11914E27 0.0 0.0 0.0 0.0 0.0 )
( 7.11914E27 0.0 0.0 0.0 0.0 0.0 )
( 7.11914E27 0.0 0.0 0.0 0.0 0.0 ))
(( 7.11914E27 0.0 0.0 0.0 0.0 0.0 )
( 7.11914E27 0.0 0.0 0.0 0.0 0.0 )
( 7.11914E27 0.0 0.0 0.0 0.0 0.0 )
( 7.11914E27 0.0 0.0 0.0 0.0 0.0 )
( 7.11914E27 0.0 0.0 0.0 0.0 0.0 ))
(( 7.11914E27 0.0 0.0 0.0 0.0 0.0 )
( 7.11914E27 0.0 0.0 0.0 0.0 0.0 )
( 7.11914E27 0.0 0.0 0.0 0.0 0.0 )
( 7.11914E27 0.0 0.0 0.0 0.0 0.0 )
( 7.11914E27 0.0 0.0 0.0 0.0 0.0 ))
(( 7.11914E27 0.0 0.0 0.0 0.0 0.0 )
( 7.11914E27 0.0 0.0 0.0 0.0 0.0 )
( 7.11914E27 0.0 0.0 0.0 0.0 0.0 )
( 7.11914E27 0.0 0.0 0.0 0.0 0.0 )
( 7.11914E27 0.0 0.0 0.0 0.0 0.0 ))
(( 7.11914E27 0.0 0.0 0.0 0.0 0.0 )
( 7.11914E27 0.0 0.0 0.0 0.0 0.0 )
( 7.11914E27 0.0 0.0 0.0 0.0 0.0 )
( 7.11914E27 0.0 0.0 0.0 0.0 0.0 )
( 7.11914E27 0.0 0.0 0.0 0.0 0.0 )))
((( 7.11914E27 0.0 0.0 0.0 0.0 0.0 )
( 7.11914E27 0.0 0.0 0.0 0.0 0.0 )
( 7.11914E27 0.0 0.0 0.0 0.0 0.0 )
( 7.11914E27 0.0 0.0 0.0 0.0 0.0 )
( 7.11914E27 0.0 0.0 0.0 0.0 0.0 ))
(( 7.11914E27 0.0 0.0 0.0 0.0 0.0 )
( 7.11914E27 0.0 0.0 0.0 0.0 0.0 )
( 7.11914E27 0.0 0.0 0.0 0.0 0.0 )
( 7.11914E27 0.0 0.0 0.0 0.0 0.0 )
( 7.11914E27 0.0 0.0 0.0 0.0 0.0 ))
(( 7.11914E27 0.0 0.0 0.0 0.0 0.0 )
( 7.11914E27 0.0 0.0 0.0 0.0 0.0 )
( 7.11914E27 0.0 0.0 0.0 0.0 0.0 )
( 7.11914E27 0.0 0.0 0.0 0.0 0.0 )
( 7.11914E27 0.0 0.0 0.0 0.0 0.0 ))
(( 7.11914E27 0.0 0.0 0.0 0.0 0.0 )
( 7.11914E27 0.0 0.0 0.0 0.0 0.0 )
( 7.11914E27 0.0 0.0 0.0 0.0 0.0 )
( 7.11914E27 0.0 0.0 0.0 0.0 0.0 )
( 7.11914E27 0.0 0.0 0.0 0.0 0.0 ))
(( 7.11914E27 0.0 0.0 0.0 0.0 0.0 )
( 7.11914E27 0.0 0.0 0.0 0.0 0.0 )
( 7.11914E27 0.0 0.0 0.0 0.0 0.0 )
( 7.11914E27 0.0 0.0 0.0 0.0 0.0 )
( 7.11914E27 0.0 0.0 0.0 0.0 0.0 )))
((( 7.11914E27 0.0 0.0 0.0 0.0 0.0 )
( 7.11914E27 0.0 0.0 0.0 0.0 0.0 )
( 7.11914E27 0.0 0.0 0.0 0.0 0.0 )
( 7.11914E27 0.0 0.0 0.0 0.0 0.0 )
( 7.11914E27 0.0 0.0 0.0 0.0 0.0 ))
(( 7.11914E27 0.0 0.0 0.0 0.0 0.0 )
( 7.11914E27 0.0 0.0 0.0 0.0 0.0 )
( 7.11914E27 0.0 0.0 0.0 0.0 0.0 )
( 7.11914E27 0.0 0.0 0.0 0.0 0.0 )
( 7.11914E27 0.0 0.0 0.0 0.0 0.0 ))
(( 7.11914E27 0.0 0.0 0.0 0.0 0.0 )
( 7.11914E27 0.0 0.0 0.0 0.0 0.0 )
( 7.11914E27 0.0 0.0 0.0 0.0 0.0 )
( 7.11914E27 0.0 0.0 0.0 0.0 0.0 )
( 7.11914E27 0.0 0.0 0.0 0.0 0.0 ))
(( 7.11914E27 0.0 0.0 0.0 0.0 0.0 )
( 7.11914E27 0.0 0.0 0.0 0.0 0.0 )
( 7.11914E27 0.0 0.0 0.0 0.0 0.0 )
( 7.11914E27 0.0 0.0 0.0 0.0 0.0 )
( 7.11914E27 0.0 0.0 0.0 0.0 0.0 ))
(( 7.11914E27 0.0 0.0 0.0 0.0 0.0 )
( 7.11914E27 0.0 0.0 0.0 0.0 0.0 )
( 7.11914E27 0.0 0.0 0.0 0.0 0.0 )
( 7.11914E27 0.0 0.0 0.0 0.0 0.0 )
( 7.11914E27 0.0 0.0 0.0 0.0 0.0 ))))
(((( 7.11914E27 0.0 0.0 0.0 0.0 0.0 )
( 7.11914E27 0.0 0.0 0.0 0.0 0.0 )
( 7.11914E27 0.0 0.0 0.0 0.0 0.0 )
( 7.11914E27 0.0 0.0 0.0 0.0 0.0 )
( 7.11914E27 0.0 0.0 0.0 0.0 0.0 ))
(( 7.11914E27 0.0 0.0 0.0 0.0 0.0 )
( 7.11914E27 0.0 0.0 0.0 0.0 0.0 )
( 7.11914E27 0.0 0.0 0.0 0.0 0.0 )
( 7.11914E27 0.0 0.0 0.0 0.0 0.0 )
( 7.11914E27 0.0 0.0 0.0 0.0 0.0 ))
(( 7.11914E27 0.0 0.0 0.0 0.0 0.0 )
( 7.11914E27 0.0 0.0 0.0 0.0 0.0 )
( 7.11914E27 0.0 0.0 0.0 0.0 0.0 )
( 7.11914E27 0.0 0.0 0.0 0.0 0.0 )
( 7.11914E27 0.0 0.0 0.0 0.0 0.0 ))
(( 7.11914E27 0.0 0.0 0.0 0.0 0.0 )
( 7.11914E27 0.0 0.0 0.0 0.0 0.0 )
( 7.11914E27 0.0 0.0 0.0 0.0 0.0 )
( 7.11914E27 0.0 0.0 0.0 0.0 0.0 )
( 7.11914E27 0.0 0.0 0.0 0.0 0.0 ))
(( 7.11914E27 0.0 0.0 0.0 0.0 0.0 )
( 7.11914E27 0.0 0.0 0.0 0.0 0.0 )
( 7.11914E27 0.0 0.0 0.0 0.0 0.0 )
( 7.11914E27 0.0 0.0 0.0 0.0 0.0 )
( 7.11914E27 0.0 0.0 0.0 0.0 0.0 )))
((( 7.11914E27 0.0 0.0 0.0 0.0 0.0 )
( 7.11914E27 0.0 0.0 0.0 0.0 0.0 )
( 7.11914E27 0.0 0.0 0.0 0.0 0.0 )
( 7.11914E27 0.0 0.0 0.0 0.0 0.0 )
( 7.11914E27 0.0 0.0 0.0 0.0 0.0 ))
(( 7.11914E27 0.0 0.0 0.0 0.0 0.0 )
( 7.11914E27 0.0 0.0 0.0 0.0 0.0 )
( 7.11914E27 0.0 0.0 0.0 0.0 0.0 )
( 7.11914E27 0.0 0.0 0.0 0.0 0.0 )
( 7.11914E27 0.0 0.0 0.0 0.0 0.0 ))
(( 7.11914E27 0.0 0.0 0.0 0.0 0.0 )
( 7.11914E27 0.0 0.0 0.0 0.0 0.0 )
( 7.11914E27 0.0 0.0 0.0 0.0 0.0 )
( 7.11914E27 0.0 0.0 0.0 0.0 0.0 )
( 7.11914E27 0.0 0.0 0.0 0.0 0.0 ))
(( 7.11914E27 0.0 0.0 0.0 0.0 0.0 )
( 7.11914E27 0.0 0.0 0.0 0.0 0.0 )
( 7.11914E27 0.0 0.0 0.0 0.0 0.0 )
( 7.11914E27 0.0 0.0 0.0 0.0 0.0 )
( 7.11914E27 0.0 0.0 0.0 0.0 0.0 ))
(( 7.11914E27 0.0 0.0 0.0 0.0 0.0 )
( 7.11914E27 0.0 0.0 0.0 0.0 0.0 )
( 7.11914E27 0.0 0.0 0.0 0.0 0.0 )
( 7.11914E27 0.0 0.0 0.0 0.0 0.0 )
( 7.11914E27 0.0 0.0 0.0 0.0 0.0 )))
((( 7.11914E27 0.0 0.0 0.0 0.0 0.0 )
( 7.11914E27 0.0 0.0 0.0 0.0 0.0 )
( 7.11914E27 0.0 0.0 0.0 0.0 0.0 )
( 7.11914E27 0.0 0.0 0.0 0.0 0.0 )
( 7.11914E27 0.0 0.0 0.0 0.0 0.0 ))
(( 7.11914E27 0.0 0.0 0.0 0.0 0.0 )
( 7.11914E27 0.0 0.0 0.0 0.0 0.0 )
( 7.11914E27 0.0 0.0 0.0 0.0 0.0 )
( 7.11914E27 0.0 0.0 0.0 0.0 0.0 )
( 7.11914E27 0.0 0.0 0.0 0.0 0.0 ))
(( 7.11914E27 0.0 0.0 0.0 0.0 0.0 )
( 7.11914E27 0.0 0.0 0.0 0.0 0.0 )
( 7.11914E27 0.0 0.0 0.0 0.0 0.0 )
( 7.11914E27 0.0 0.0 0.0 0.0 0.0 )
( 7.11914E27 0.0 0.0 0.0 0.0 0.0 ))
(( 7.11914E27 0.0 0.0 0.0 0.0 0.0 )
( 7.11914E27 0.0 0.0 0.0 0.0 0.0 )
( 7.11914E27 0.0 0.0 0.0 0.0 0.0 )
( 7.11914E27 0.0 0.0 0.0 0.0 0.0 )
( 7.11914E27 0.0 0.0 0.0 0.0 0.0 ))
(( 7.11914E27 0.0 0.0 0.0 0.0 0.0 )
( 7.11914E27 0.0 0.0 0.0 0.0 0.0 )
( 7.11914E27 0.0 0.0 0.0 0.0 0.0 )
( 7.11914E27 0.0 0.0 0.0 0.0 0.0 )
( 7.11914E27 0.0 0.0 0.0 0.0 0.0 )))
((( 7.11914E27 0.0 0.0 0.0 0.0 0.0 )
( 7.11914E27 0.0 0.0 0.0 0.0 0.0 )
( 7.11914E27 0.0 0.0 0.0 0.0 0.0 )
( 7.11914E27 0.0 0.0 0.0 0.0 0.0 )
( 7.11914E27 0.0 0.0 0.0 0.0 0.0 ))
(( 7.11914E27 0.0 0.0 0.0 0.0 0.0 )
( 7.11914E27 0.0 0.0 0.0 0.0 0.0 )
( 7.11914E27 0.0 0.0 0.0 0.0 0.0 )
( 7.11914E27 0.0 0.0 0.0 0.0 0.0 )
( 7.11914E27 0.0 0.0 0.0 0.0 0.0 ))
(( 7.11914E27 0.0 0.0 0.0 0.0 0.0 )
( 7.11914E27 0.0 0.0 0.0 0.0 0.0 )
( 7.11914E27 0.0 0.0 0.0 0.0 0.0 )
( 7.11914E27 0.0 0.0 0.0 0.0 0.0 )
( 7.11914E27 0.0 0.0 0.0 0.0 0.0 ))
(( 7.11914E27 0.0 0.0 0.0 0.0 0.0 )
( 7.11914E27 0.0 0.0 0.0 0.0 0.0 )
( 7.11914E27 0.0 0.0 0.0 0.0 0.0 )
( 7.11914E27 0.0 0.0 0.0 0.0 0.0 )
( 7.11914E27 0.0 0.0 0.0 0.0 0.0 ))
(( 7.11914E27 0.0 0.0 0.0 0.0 0.0 )
( 7.11914E27 0.0 0.0 0.0 0.0 0.0 )
( 7.11914E27 0.0 0.0 0.0 0.0 0.0 )
( 7.11914E27 0.0 0.0 0.0 0.0 0.0 )
( 7.11914E27 0.0 0.0 0.0 0.0 0.0 )))
((( 7.11914E27 0.0 0.0 0.0 0.0 0.0 )
( 7.11914E27 0.0 0.0 0.0 0.0 0.0 )
( 7.11914E27 0.0 0.0 0.0 0.0 0.0 )
( 7.11914E27 0.0 0.0 0.0 0.0 0.0 )
( 7.11914E27 0.0 0.0 0.0 0.0 0.0 ))
(( 7.11914E27 0.0 0.0 0.0 0.0 0.0 )
( 7.11914E27 0.0 0.0 0.0 0.0 0.0 )
( 7.11914E27 0.0 0.0 0.0 0.0 0.0 )
( 7.11914E27 0.0 0.0 0.0 0.0 0.0 )
( 7.11914E27 0.0 0.0 0.0 0.0 0.0 ))
(( 7.11914E27 0.0 0.0 0.0 0.0 0.0 )
( 7.11914E27 0.0 0.0 0.0 0.0 0.0 )
( 7.11914E27 0.0 0.0 0.0 0.0 0.0 )
( 7.11914E27 0.0 0.0 0.0 0.0 0.0 )
( 7.11914E27 0.0 0.0 0.0 0.0 0.0 ))
(( 7.11914E27 0.0 0.0 0.0 0.0 0.0 )
( 7.11914E27 0.0 0.0 0.0 0.0 0.0 )
( 7.11914E27 0.0 0.0 0.0 0.0 0.0 )
( 7.11914E27 0.0 0.0 0.0 0.0 0.0 )
( 7.11914E27 0.0 0.0 0.0 0.0 0.0 ))
(( 7.11914E27 0.0 0.0 0.0 0.0 0.0 )
( 7.11914E27 0.0 0.0 0.0 0.0 0.0 )
( 7.11914E27 0.0 0.0 0.0 0.0 0.0 )
( 7.11914E27 0.0 0.0 0.0 0.0 0.0 )
( 7.11914E27 0.0 0.0 0.0 0.0 0.0 ))))
(((( 7.11914E27 0.0 0.0 0.0 0.0 0.0 )
( 7.11914E27 0.0 0.0 0.0 0.0 0.0 )
( 7.11914E27 0.0 0.0 0.0 0.0 0.0 )
( 7.11914E27 0.0 0.0 0.0 0.0 0.0 )
( 7.11914E27 0.0 0.0 0.0 0.0 0.0 ))
(( 7.11914E27 0.0 0.0 0.0 0.0 0.0 )
( 7.11914E27 0.0 0.0 0.0 0.0 0.0 )
( 7.11914E27 0.0 0.0 0.0 0.0 0.0 )
( 7.11914E27 0.0 0.0 0.0 0.0 0.0 )
( 7.11914E27 0.0 0.0 0.0 0.0 0.0 ))
(( 7.11914E27 0.0 0.0 0.0 0.0 0.0 )
( 7.11914E27 0.0 0.0 0.0 0.0 0.0 )
( 7.11914E27 0.0 0.0 0.0 0.0 0.0 )
( 7.11914E27 0.0 0.0 0.0 0.0 0.0 )
( 7.11914E27 0.0 0.0 0.0 0.0 0.0 ))
(( 7.11914E27 0.0 0.0 0.0 0.0 0.0 )
( 7.11914E27 0.0 0.0 0.0 0.0 0.0 )
( 7.11914E27 0.0 0.0 0.0 0.0 0.0 )
( 7.11914E27 0.0 0.0 0.0 0.0 0.0 )
( 7.11914E27 0.0 0.0 0.0 0.0 0.0 ))
(( 7.11914E27 0.0 0.0 0.0 0.0 0.0 )
( 7.11914E27 0.0 0.0 0.0 0.0 0.0 )
( 7.11914E27 0.0 0.0 0.0 0.0 0.0 )
( 7.11914E27 0.0 0.0 0.0 0.0 0.0 )
( 7.11914E27 0.0 0.0 0.0 0.0 0.0 )))
((( 7.11914E27 0.0 0.0 0.0 0.0 0.0 )
( 7.11914E27 0.0 0.0 0.0 0.0 0.0 )
( 7.11914E27 0.0 0.0 0.0 0.0 0.0 )
( 7.11914E27 0.0 0.0 0.0 0.0 0.0 )
( 7.11914E27 0.0 0.0 0.0 0.0 0.0 ))
(( 7.11914E27 0.0 0.0 0.0 0.0 0.0 )
( 7.11914E27 0.0 0.0 0.0 0.0 0.0 )
( 7.11914E27 0.0 0.0 0.0 0.0 0.0 )
( 7.11914E27 0.0 0.0 0.0 0.0 0.0 )
( 7.11914E27 0.0 0.0 0.0 0.0 0.0 ))
(( 7.11914E27 0.0 0.0 0.0 0.0 0.0 )
( 7.11914E27 0.0 0.0 0.0 0.0 0.0 )
( 7.11914E27 0.0 0.0 0.0 0.0 0.0 )
( 7.11914E27 0.0 0.0 0.0 0.0 0.0 )
( 7.11914E27 0.0 0.0 0.0 0.0 0.0 ))
(( 7.11914E27 0.0 0.0 0.0 0.0 0.0 )
( 7.11914E27 0.0 0.0 0.0 0.0 0.0 )
( 7.11914E27 0.0 0.0 0.0 0.0 0.0 )
( 7.11914E27 0.0 0.0 0.0 0.0 0.0 )
( 7.11914E27 0.0 0.0 0.0 0.0 0.0 ))
(( 7.11914E27 0.0 0.0 0.0 0.0 0.0 )
( 7.11914E27 0.0 0.0 0.0 0.0 0.0 )
( 7.11914E27 0.0 0.0 0.0 0.0 0.0 )
( 7.11914E27 0.0 0.0 0.0 0.0 0.0 )
( 7.11914E27 0.0 0.0 0.0 0.0 0.0 )))
((( 7.11914E27 0.0 0.0 0.0 0.0 0.0 )
( 7.11914E27 0.0 0.0 0.0 0.0 0.0 )
( 7.11914E27 0.0 0.0 0.0 0.0 0.0 )
( 7.11914E27 0.0 0.0 0.0 0.0 0.0 )
( 7.11914E27 0.0 0.0 0.0 0.0 0.0 ))
(( 7.11914E27 0.0 0.0 0.0 0.0 0.0 )
( 7.11914E27 0.0 0.0 0.0 0.0 0.0 )
( 7.11914E27 0.0 0.0 0.0 0.0 0.0 )
( 7.11914E27 0.0 0.0 0.0 0.0 0.0 )
( 7.11914E27 0.0 0.0 0.0 0.0 0.0 ))
(( 7.11914E27 0.0 0.0 0.0 0.0 0.0 )
( 7.11914E27 0.0 0.0 0.0 0.0 0.0 )
( 7.11914E27 0.0 0.0 0.0 0.0 0.0 )
( 7.11914E27 0.0 0.0 0.0 0.0 0.0 )
( 7.11914E27 0.0 0.0 0.0 0.0 0.0 ))
(( 7.11914E27 0.0 0.0 0.0 0.0 0.0 )
( 7.11914E27 0.0 0.0 0.0 0.0 0.0 )
( 7.11914E27 0.0 0.0 0.0 0.0 0.0 )
( 7.11914E27 0.0 0.0 0.0 0.0 0.0 )
( 7.11914E27 0.0 0.0 0.0 0.0 0.0 ))
(( 7.11914E27 0.0 0.0 0.0 0.0 0.0 )
( 7.11914E27 0.0 0.0 0.0 0.0 0.0 )
( 7.11914E27 0.0 0.0 0.0 0.0 0.0 )
( 7.11914E27 0.0 0.0 0.0 0.0 0.0 )
( 7.11914E27 0.0 0.0 0.0 0.0 0.0 )))
((( 7.11914E27 0.0 0.0 0.0 0.0 0.0 )
( 7.11914E27 0.0 0.0 0.0 0.0 0.0 )
( 7.11914E27 0.0 0.0 0.0 0.0 0.0 )
( 7.11914E27 0.0 0.0 0.0 0.0 0.0 )
( 7.11914E27 0.0 0.0 0.0 0.0 0.0 ))
(( 7.11914E27 0.0 0.0 0.0 0.0 0.0 )
( 7.11914E27 0.0 0.0 0.0 0.0 0.0 )
( 7.11914E27 0.0 0.0 0.0 0.0 0.0 )
( 7.11914E27 0.0 0.0 0.0 0.0 0.0 )
( 7.11914E27 0.0 0.0 0.0 0.0 0.0 ))
(( 7.11914E27 0.0 0.0 0.0 0.0 0.0 )
( 7.11914E27 0.0 0.0 0.0 0.0 0.0 )
( 7.11914E27 0.0 0.0 0.0 0.0 0.0 )
( 7.11914E27 0.0 0.0 0.0 0.0 0.0 )
( 7.11914E27 0.0 0.0 0.0 0.0 0.0 ))
(( 7.11914E27 0.0 0.0 0.0 0.0 0.0 )
( 7.11914E27 0.0 0.0 0.0 0.0 0.0 )
( 7.11914E27 0.0 0.0 0.0 0.0 0.0 )
( 7.11914E27 0.0 0.0 0.0 0.0 0.0 )
( 7.11914E27 0.0 0.0 0.0 0.0 0.0 ))
(( 7.11914E27 0.0 0.0 0.0 0.0 0.0 )
( 7.11914E27 0.0 0.0 0.0 0.0 0.0 )
( 7.11914E27 0.0 0.0 0.0 0.0 0.0 )
( 7.11914E27 0.0 0.0 0.0 0.0 0.0 )
( 7.11914E27 0.0 0.0 0.0 0.0 0.0 )))
((( 7.11914E27 0.0 0.0 0.0 0.0 0.0 )
( 7.11914E27 0.0 0.0 0.0 0.0 0.0 )
( 7.11914E27 0.0 0.0 0.0 0.0 0.0 )
( 7.11914E27 0.0 0.0 0.0 0.0 0.0 )
( 7.11914E27 0.0 0.0 0.0 0.0 0.0 ))
(( 7.11914E27 0.0 0.0 0.0 0.0 0.0 )
( 7.11914E27 0.0 0.0 0.0 0.0 0.0 )
( 7.11914E27 0.0 0.0 0.0 0.0 0.0 )
( 7.11914E27 0.0 0.0 0.0 0.0 0.0 )
( 7.11914E27 0.0 0.0 0.0 0.0 0.0 ))
(( 7.11914E27 0.0 0.0 0.0 0.0 0.0 )
( 7.11914E27 0.0 0.0 0.0 0.0 0.0 )
( 7.11914E27 0.0 0.0 0.0 0.0 0.0 )
( 7.11914E27 0.0 0.0 0.0 0.0 0.0 )
( 7.11914E27 0.0 0.0 0.0 0.0 0.0 ))
(( 7.11914E27 0.0 0.0 0.0 0.0 0.0 )
( 7.11914E27 0.0 0.0 0.0 0.0 0.0 )
( 7.11914E27 0.0 0.0 0.0 0.0 0.0 )
( 7.11914E27 0.0 0.0 0.0 0.0 0.0 )
( 7.11914E27 0.0 0.0 0.0 0.0 0.0 ))
(( 7.11914E27 0.0 0.0 0.0 0.0 0.0 )
( 7.11914E27 0.0 0.0 0.0 0.0 0.0 )
( 7.11914E27 0.0 0.0 0.0 0.0 0.0 )
( 7.11914E27 0.0 0.0 0.0 0.0 0.0 )
( 7.11914E27 0.0 0.0 0.0 0.0 0.0 ))))
(((( 7.11914E27 0.0 0.0 0.0 0.0 0.0 )
( 7.11914E27 0.0 0.0 0.0 0.0 0.0 )
( 7.11914E27 0.0 0.0 0.0 0.0 0.0 )
( 7.11914E27 0.0 0.0 0.0 0.0 0.0 )
( 7.11914E27 0.0 0.0 0.0 0.0 0.0 ))
(( 7.11914E27 0.0 0.0 0.0 0.0 0.0 )
( 7.11914E27 0.0 0.0 0.0 0.0 0.0 )
( 7.11914E27 0.0 0.0 0.0 0.0 0.0 )
( 7.11914E27 0.0 0.0 0.0 0.0 0.0 )
( 7.11914E27 0.0 0.0 0.0 0.0 0.0 ))
(( 7.11914E27 0.0 0.0 0.0 0.0 0.0 )
( 7.11914E27 0.0 0.0 0.0 0.0 0.0 )
( 7.11914E27 0.0 0.0 0.0 0.0 0.0 )
( 7.11914E27 0.0 0.0 0.0 0.0 0.0 )
( 7.11914E27 0.0 0.0 0.0 0.0 0.0 ))
(( 7.11914E27 0.0 0.0 0.0 0.0 0.0 )
( 7.11914E27 0.0 0.0 0.0 0.0 0.0 )
( 7.11914E27 0.0 0.0 0.0 0.0 0.0 )
( 7.11914E27 0.0 0.0 0.0 0.0 0.0 )
( 7.11914E27 0.0 0.0 0.0 0.0 0.0 ))
(( 7.11914E27 0.0 0.0 0.0 0.0 0.0 )
( 7.11914E27 0.0 0.0 0.0 0.0 0.0 )
( 7.11914E27 0.0 0.0 0.0 0.0 0.0 )
( 7.11914E27 0.0 0.0 0.0 0.0 0.0 )
( 7.11914E27 0.0 0.0 0.0 0.0 0.0 )))
((( 7.11914E27 0.0 0.0 0.0 0.0 0.0 )
( 7.11914E27 0.0 0.0 0.0 0.0 0.0 )
( 7.11914E27 0.0 0.0 0.0 0.0 0.0 )
( 7.11914E27 0.0 0.0 0.0 0.0 0.0 )
( 7.11914E27 0.0 0.0 0.0 0.0 0.0 ))
(( 7.11914E27 0.0 0.0 0.0 0.0 0.0 )
( 7.11914E27 0.0 0.0 0.0 0.0 0.0 )
( 7.11914E27 0.0 0.0 0.0 0.0 0.0 )
( 7.11914E27 0.0 0.0 0.0 0.0 0.0 )
( 7.11914E27 0.0 0.0 0.0 0.0 0.0 ))
(( 7.11914E27 0.0 0.0 0.0 0.0 0.0 )
( 7.11914E27 0.0 0.0 0.0 0.0 0.0 )
( 7.11914E27 0.0 0.0 0.0 0.0 0.0 )
( 7.11914E27 0.0 0.0 0.0 0.0 0.0 )
( 7.11914E27 0.0 0.0 0.0 0.0 0.0 ))
(( 7.11914E27 0.0 0.0 0.0 0.0 0.0 )
( 7.11914E27 0.0 0.0 0.0 0.0 0.0 )
( 7.11914E27 0.0 0.0 0.0 0.0 0.0 )
( 7.11914E27 0.0 0.0 0.0 0.0 0.0 )
( 7.11914E27 0.0 0.0 0.0 0.0 0.0 ))
(( 7.11914E27 0.0 0.0 0.0 0.0 0.0 )
( 7.11914E27 0.0 0.0 0.0 0.0 0.0 )
( 7.11914E27 0.0 0.0 0.0 0.0 0.0 )
( 7.11914E27 0.0 0.0 0.0 0.0 0.0 )
( 7.11914E27 0.0 0.0 0.0 0.0 0.0 )))
((( 7.11914E27 0.0 0.0 0.0 0.0 0.0 )
( 7.11914E27 0.0 0.0 0.0 0.0 0.0 )
( 7.11914E27 0.0 0.0 0.0 0.0 0.0 )
( 7.11914E27 0.0 0.0 0.0 0.0 0.0 )
( 7.11914E27 0.0 0.0 0.0 0.0 0.0 ))
(( 7.11914E27 0.0 0.0 0.0 0.0 0.0 )
( 7.11914E27 0.0 0.0 0.0 0.0 0.0 )
( 7.11914E27 0.0 0.0 0.0 0.0 0.0 )
( 7.11914E27 0.0 0.0 0.0 0.0 0.0 )
( 7.11914E27 0.0 0.0 0.0 0.0 0.0 ))
(( 7.11914E27 0.0 0.0 0.0 0.0 0.0 )
( 7.11914E27 0.0 0.0 0.0 0.0 0.0 )
( 7.11914E27 0.0 0.0 0.0 0.0 0.0 )
( 7.11914E27 0.0 0.0 0.0 0.0 0.0 )
( 7.11914E27 0.0 0.0 0.0 0.0 0.0 ))
(( 7.11914E27 0.0 0.0 0.0 0.0 0.0 )
( 7.11914E27 0.0 0.0 0.0 0.0 0.0 )
( 7.11914E27 0.0 0.0 0.0 0.0 0.0 )
( 7.11914E27 0.0 0.0 0.0 0.0 0.0 )
( 7.11914E27 0.0 0.0 0.0 0.0 0.0 ))
(( 7.11914E27 0.0 0.0 0.0 0.0 0.0 )
( 7.11914E27 0.0 0.0 0.0 0.0 0.0 )
( 7.11914E27 0.0 0.0 0.0 0.0 0.0 )
( 7.11914E27 0.0 0.0 0.0 0.0 0.0 )
( 7.11914E27 0.0 0.0 0.0 0.0 0.0 )))
((( 7.11914E27 0.0 0.0 0.0 0.0 0.0 )
( 7.11914E27 0.0 0.0 0.0 0.0 0.0 )
( 7.11914E27 0.0 0.0 0.0 0.0 0.0 )
( 7.11914E27 0.0 0.0 0.0 0.0 0.0 )
( 7.11914E27 0.0 0.0 0.0 0.0 0.0 ))
(( 7.11914E27 0.0 0.0 0.0 0.0 0.0 )
( 7.11914E27 0.0 0.0 0.0 0.0 0.0 )
( 7.11914E27 0.0 0.0 0.0 0.0 0.0 )
( 7.11914E27 0.0 0.0 0.0 0.0 0.0 )
( 7.11914E27 0.0 0.0 0.0 0.0 0.0 ))
(( 7.11914E27 0.0 0.0 0.0 0.0 0.0 )
( 7.11914E27 0.0 0.0 0.0 0.0 0.0 )
( 7.11914E27 0.0 0.0 0.0 0.0 0.0 )
( 7.11914E27 0.0 0.0 0.0 0.0 0.0 )
( 7.11914E27 0.0 0.0 0.0 0.0 0.0 ))
(( 7.11914E27 0.0 0.0 0.0 0.0 0.0 )
( 7.11914E27 0.0 0.0 0.0 0.0 0.0 )
( 7.11914E27 0.0 0.0 0.0 0.0 0.0 )
( 7.11914E27 0.0 0.0 0.0 0.0 0.0 )
( 7.11914E27 0.0 0.0 0.0 0.0 0.0 ))
(( 7.11914E27 0.0 0.0 0.0 0.0 0.0 )
( 7.11914E27 0.0 0.0 0.0 0.0 0.0 )
( 7.11914E27 0.0 0.0 0.0 0.0 0.0 )
( 7.11914E27 0.0 0.0 0.0 0.0 0.0 )
( 7.11914E27 0.0 0.0 0.0 0.0 0.0 )))
((( 7.11914E27 0.0 0.0 0.0 0.0 0.0 )
( 7.11914E27 0.0 0.0 0.0 0.0 0.0 )
( 7.11914E27 0.0 0.0 0.0 0.0 0.0 )
( 7.11914E27 0.0 0.0 0.0 0.0 0.0 )
( 7.11914E27 0.0 0.0 0.0 0.0 0.0 ))
(( 7.11914E27 0.0 0.0 0.0 0.0 0.0 )
( 7.11914E27 0.0 0.0 0.0 0.0 0.0 )
( 7.11914E27 0.0 0.0 0.0 0.0 0.0 )
( 7.11914E27 0.0 0.0 0.0 0.0 0.0 )
( 7.11914E27 0.0 0.0 0.0 0.0 0.0 ))
(( 7.11914E27 0.0 0.0 0.0 0.0 0.0 )
( 7.11914E27 0.0 0.0 0.0 0.0 0.0 )
( 7.11914E27 0.0 0.0 0.0 0.0 0.0 )
( 7.11914E27 0.0 0.0 0.0 0.0 0.0 )
( 7.11914E27 0.0 0.0 0.0 0.0 0.0 ))
(( 7.11914E27 0.0 0.0 0.0 0.0 0.0 )
( 7.11914E27 0.0 0.0 0.0 0.0 0.0 )
( 7.11914E27 0.0 0.0 0.0 0.0 0.0 )
( 7.11914E27 0.0 0.0 0.0 0.0 0.0 )
( 7.11914E27 0.0 0.0 0.0 0.0 0.0 ))
(( 7.11914E27 0.0 0.0 0.0 0.0 0.0 )
( 7.11914E27 0.0 0.0 0.0 0.0 0.0 )
( 7.11914E27 0.0 0.0 0.0 0.0 0.0 )
( 7.11914E27 0.0 0.0 0.0 0.0 0.0 )
( 7.11914E27 0.0 0.0 0.0 0.0 0.0 ))))
(((( 7.11914E27 0.0 0.0 0.0 0.0 0.0 )
( 7.11914E27 0.0 0.0 0.0 0.0 0.0 )
( 7.11914E27 0.0 0.0 0.0 0.0 0.0 )
( 7.11914E27 0.0 0.0 0.0 0.0 0.0 )
( 7.11914E27 0.0 0.0 0.0 0.0 0.0 ))
(( 7.11914E27 0.0 0.0 0.0 0.0 0.0 )
( 7.11914E27 0.0 0.0 0.0 0.0 0.0 )
( 7.11914E27 0.0 0.0 0.0 0.0 0.0 )
( 7.11914E27 0.0 0.0 0.0 0.0 0.0 )
( 7.11914E27 0.0 0.0 0.0 0.0 0.0 ))
(( 7.11914E27 0.0 0.0 0.0 0.0 0.0 )
( 7.11914E27 0.0 0.0 0.0 0.0 0.0 )
( 7.11914E27 0.0 0.0 0.0 0.0 0.0 )
( 7.11914E27 0.0 0.0 0.0 0.0 0.0 )
( 7.11914E27 0.0 0.0 0.0 0.0 0.0 ))
(( 7.11914E27 0.0 0.0 0.0 0.0 0.0 )
( 7.11914E27 0.0 0.0 0.0 0.0 0.0 )
( 7.11914E27 0.0 0.0 0.0 0.0 0.0 )
( 7.11914E27 0.0 0.0 0.0 0.0 0.0 )
( 7.11914E27 0.0 0.0 0.0 0.0 0.0 ))
(( 7.11914E27 0.0 0.0 0.0 0.0 0.0 )
( 7.11914E27 0.0 0.0 0.0 0.0 0.0 )
( 7.11914E27 0.0 0.0 0.0 0.0 0.0 )
( 7.11914E27 0.0 0.0 0.0 0.0 0.0 )
( 7.11914E27 0.0 0.0 0.0 0.0 0.0 )))
((( 7.11914E27 0.0 0.0 0.0 0.0 0.0 )
( 7.11914E27 0.0 0.0 0.0 0.0 0.0 )
( 7.11914E27 0.0 0.0 0.0 0.0 0.0 )
( 7.11914E27 0.0 0.0 0.0 0.0 0.0 )
( 7.11914E27 0.0 0.0 0.0 0.0 0.0 ))
(( 7.11914E27 0.0 0.0 0.0 0.0 0.0 )
( 7.11914E27 0.0 0.0 0.0 0.0 0.0 )
( 7.11914E27 0.0 0.0 0.0 0.0 0.0 )
( 7.11914E27 0.0 0.0 0.0 0.0 0.0 )
( 7.11914E27 0.0 0.0 0.0 0.0 0.0 ))
(( 7.11914E27 0.0 0.0 0.0 0.0 0.0 )
( 7.11914E27 0.0 0.0 0.0 0.0 0.0 )
( 7.11914E27 0.0 0.0 0.0 0.0 0.0 )
( 7.11914E27 0.0 0.0 0.0 0.0 0.0 )
( 7.11914E27 0.0 0.0 0.0 0.0 0.0 ))
(( 7.11914E27 0.0 0.0 0.0 0.0 0.0 )
( 7.11914E27 0.0 0.0 0.0 0.0 0.0 )
( 7.11914E27 0.0 0.0 0.0 0.0 0.0 )
( 7.11914E27 0.0 0.0 0.0 0.0 0.0 )
( 7.11914E27 0.0 0.0 0.0 0.0 0.0 ))
(( 7.11914E27 0.0 0.0 0.0 0.0 0.0 )
( 7.11914E27 0.0 0.0 0.0 0.0 0.0 )
( 7.11914E27 0.0 0.0 0.0 0.0 0.0 )
( 7.11914E27 0.0 0.0 0.0 0.0 0.0 )
( 7.11914E27 0.0 0.0 0.0 0.0 0.0 )))
((( 7.11914E27 0.0 0.0 0.0 0.0 0.0 )
( 7.11914E27 0.0 0.0 0.0 0.0 0.0 )
( 7.11914E27 0.0 0.0 0.0 0.0 0.0 )
( 7.11914E27 0.0 0.0 0.0 0.0 0.0 )
( 7.11914E27 0.0 0.0 0.0 0.0 0.0 ))
(( 7.11914E27 0.0 0.0 0.0 0.0 0.0 )
( 7.11914E27 0.0 0.0 0.0 0.0 0.0 )
( 7.11914E27 0.0 0.0 0.0 0.0 0.0 )
( 7.11914E27 0.0 0.0 0.0 0.0 0.0 )
( 7.11914E27 0.0 0.0 0.0 0.0 0.0 ))
(( 7.11914E27 0.0 0.0 0.0 0.0 0.0 )
( 7.11914E27 0.0 0.0 0.0 0.0 0.0 )
( 7.11914E27 0.0 0.0 0.0 0.0 0.0 )
( 7.11914E27 0.0 0.0 0.0 0.0 0.0 )
( 7.11914E27 0.0 0.0 0.0 0.0 0.0 ))
(( 7.11914E27 0.0 0.0 0.0 0.0 0.0 )
( 7.11914E27 0.0 0.0 0.0 0.0 0.0 )
( 7.11914E27 0.0 0.0 0.0 0.0 0.0 )
( 7.11914E27 0.0 0.0 0.0 0.0 0.0 )
( 7.11914E27 0.0 0.0 0.0 0.0 0.0 ))
(( 7.11914E27 0.0 0.0 0.0 0.0 0.0 )
( 7.11914E27 0.0 0.0 0.0 0.0 0.0 )
( 7.11914E27 0.0 0.0 0.0 0.0 0.0 )
( 7.11914E27 0.0 0.0 0.0 0.0 0.0 )
( 7.11914E27 0.0 0.0 0.0 0.0 0.0 )))
((( 7.11914E27 0.0 0.0 0.0 0.0 0.0 )
( 7.11914E27 0.0 0.0 0.0 0.0 0.0 )
( 7.11914E27 0.0 0.0 0.0 0.0 0.0 )
( 7.11914E27 0.0 0.0 0.0 0.0 0.0 )
( 7.11914E27 0.0 0.0 0.0 0.0 0.0 ))
(( 7.11914E27 0.0 0.0 0.0 0.0 0.0 )
( 7.11914E27 0.0 0.0 0.0 0.0 0.0 )
( 7.11914E27 0.0 0.0 0.0 0.0 0.0 )
( 7.11914E27 0.0 0.0 0.0 0.0 0.0 )
( 7.11914E27 0.0 0.0 0.0 0.0 0.0 ))
(( 7.11914E27 0.0 0.0 0.0 0.0 0.0 )
( 7.11914E27 0.0 0.0 0.0 0.0 0.0 )
( 7.11914E27 0.0 0.0 0.0 0.0 0.0 )
( 7.11914E27 0.0 0.0 0.0 0.0 0.0 )
( 7.11914E27 0.0 0.0 0.0 0.0 0.0 ))
(( 7.11914E27 0.0 0.0 0.0 0.0 0.0 )
( 7.11914E27 0.0 0.0 0.0 0.0 0.0 )
( 7.11914E27 0.0 0.0 0.0 0.0 0.0 )
( 7.11914E27 0.0 0.0 0.0 0.0 0.0 )
( 7.11914E27 0.0 0.0 0.0 0.0 0.0 ))
(( 7.11914E27 0.0 0.0 0.0 0.0 0.0 )
( 7.11914E27 0.0 0.0 0.0 0.0 0.0 )
( 7.11914E27 0.0 0.0 0.0 0.0 0.0 )
( 7.11914E27 0.0 0.0 0.0 0.0 0.0 )
( 7.11914E27 0.0 0.0 0.0 0.0 0.0 )))
((( 7.11914E27 0.0 0.0 0.0 0.0 0.0 )
( 7.11914E27 0.0 0.0 0.0 0.0 0.0 )
( 7.11914E27 0.0 0.0 0.0 0.0 0.0 )
( 7.11914E27 0.0 0.0 0.0 0.0 0.0 )
( 7.11914E27 0.0 0.0 0.0 0.0 0.0 ))
(( 7.11914E27 0.0 0.0 0.0 0.0 0.0 )
( 7.11914E27 0.0 0.0 0.0 0.0 0.0 )
( 7.11914E27 0.0 0.0 0.0 0.0 0.0 )
( 7.11914E27 0.0 0.0 0.0 0.0 0.0 )
( 7.11914E27 0.0 0.0 0.0 0.0 0.0 ))
(( 7.11914E27 0.0 0.0 0.0 0.0 0.0 )
( 7.11914E27 0.0 0.0 0.0 0.0 0.0 )
( 7.11914E27 0.0 0.0 0.0 0.0 0.0 )
( 7.11914E27 0.0 0.0 0.0 0.0 0.0 )
( 7.11914E27 0.0 0.0 0.0 0.0 0.0 ))
(( 7.11914E27 0.0 0.0 0.0 0.0 0.0 )
( 7.11914E27 0.0 0.0 0.0 0.0 0.0 )
( 7.11914E27 0.0 0.0 0.0 0.0 0.0 )
( 7.11914E27 0.0 0.0 0.0 0.0 0.0 )
( 7.11914E27 0.0 0.0 0.0 0.0 0.0 ))
(( 7.11914E27 0.0 0.0 0.0 0.0 0.0 )
( 7.11914E27 0.0 0.0 0.0 0.0 0.0 )
( 7.11914E27 0.0 0.0 0.0 0.0 0.0 )
( 7.11914E27 0.0 0.0 0.0 0.0 0.0 )
( 7.11914E27 0.0 0.0 0.0 0.0 0.0 )))))
((((( 7.11914E27 0.0 0.0 0.0 0.0 0.0 )
( 7.11914E27 0.0 0.0 0.0 0.0 0.0 )
( 7.11914E27 0.0 0.0 0.0 0.0 0.0 )
( 7.11914E27 0.0 0.0 0.0 0.0 0.0 )
( 7.11914E27 0.0 0.0 0.0 0.0 0.0 ))
(( 7.11914E27 0.0 0.0 0.0 0.0 0.0 )
( 7.11914E27 0.0 0.0 0.0 0.0 0.0 )
( 7.11914E27 0.0 0.0 0.0 0.0 0.0 )
( 7.11914E27 0.0 0.0 0.0 0.0 0.0 )
( 7.11914E27 0.0 0.0 0.0 0.0 0.0 ))
(( 7.11914E27 0.0 0.0 0.0 0.0 0.0 )
( 7.11914E27 0.0 0.0 0.0 0.0 0.0 )
( 7.11914E27 0.0 0.0 0.0 0.0 0.0 )
( 7.11914E27 0.0 0.0 0.0 0.0 0.0 )
( 7.11914E27 0.0 0.0 0.0 0.0 0.0 ))
(( 7.11914E27 0.0 0.0 0.0 0.0 0.0 )
( 7.11914E27 0.0 0.0 0.0 0.0 0.0 )
( 7.11914E27 0.0 0.0 0.0 0.0 0.0 )
( 7.11914E27 0.0 0.0 0.0 0.0 0.0 )
( 7.11914E27 0.0 0.0 0.0 0.0 0.0 ))
(( 7.11914E27 0.0 0.0 0.0 0.0 0.0 )
( 7.11914E27 0.0 0.0 0.0 0.0 0.0 )
( 7.11914E27 0.0 0.0 0.0 0.0 0.0 )
( 7.11914E27 0.0 0.0 0.0 0.0 0.0 )
( 7.11914E27 0.0 0.0 0.0 0.0 0.0 )))
((( 7.11914E27 0.0 0.0 0.0 0.0 0.0 )
( 7.11914E27 0.0 0.0 0.0 0.0 0.0 )
( 7.11914E27 0.0 0.0 0.0 0.0 0.0 )
( 7.11914E27 0.0 0.0 0.0 0.0 0.0 )
( 7.11914E27 0.0 0.0 0.0 0.0 0.0 ))
(( 7.11914E27 0.0 0.0 0.0 0.0 0.0 )
( 7.11914E27 0.0 0.0 0.0 0.0 0.0 )
( 7.11914E27 0.0 0.0 0.0 0.0 0.0 )
( 7.11914E27 0.0 0.0 0.0 0.0 0.0 )
( 7.11914E27 0.0 0.0 0.0 0.0 0.0 ))
(( 7.11914E27 0.0 0.0 0.0 0.0 0.0 )
( 7.11914E27 0.0 0.0 0.0 0.0 0.0 )
( 7.11914E27 0.0 0.0 0.0 0.0 0.0 )
( 7.11914E27 0.0 0.0 0.0 0.0 0.0 )
( 7.11914E27 0.0 0.0 0.0 0.0 0.0 ))
(( 7.11914E27 0.0 0.0 0.0 0.0 0.0 )
( 7.11914E27 0.0 0.0 0.0 0.0 0.0 )
( 7.11914E27 0.0 0.0 0.0 0.0 0.0 )
( 7.11914E27 0.0 0.0 0.0 0.0 0.0 )
( 7.11914E27 0.0 0.0 0.0 0.0 0.0 ))
(( 7.11914E27 0.0 0.0 0.0 0.0 0.0 )
( 7.11914E27 0.0 0.0 0.0 0.0 0.0 )
( 7.11914E27 0.0 0.0 0.0 0.0 0.0 )
( 7.11914E27 0.0 0.0 0.0 0.0 0.0 )
( 7.11914E27 0.0 0.0 0.0 0.0 0.0 )))
((( 7.11914E27 0.0 0.0 0.0 0.0 0.0 )
( 7.11914E27 0.0 0.0 0.0 0.0 0.0 )
( 7.11914E27 0.0 0.0 0.0 0.0 0.0 )
( 7.11914E27 0.0 0.0 0.0 0.0 0.0 )
( 7.11914E27 0.0 0.0 0.0 0.0 0.0 ))
(( 7.11914E27 0.0 0.0 0.0 0.0 0.0 )
( 7.11914E27 0.0 0.0 0.0 0.0 0.0 )
( 7.11914E27 0.0 0.0 0.0 0.0 0.0 )
( 7.11914E27 0.0 0.0 0.0 0.0 0.0 )
( 7.11914E27 0.0 0.0 0.0 0.0 0.0 ))
(( 7.11914E27 0.0 0.0 0.0 0.0 0.0 )
( 7.11914E27 0.0 0.0 0.0 0.0 0.0 )
( 7.11914E27 0.0 0.0 0.0 0.0 0.0 )
( 7.11914E27 0.0 0.0 0.0 0.0 0.0 )
( 7.11914E27 0.0 0.0 0.0 0.0 0.0 ))
(( 7.11914E27 0.0 0.0 0.0 0.0 0.0 )
( 7.11914E27 0.0 0.0 0.0 0.0 0.0 )
( 7.11914E27 0.0 0.0 0.0 0.0 0.0 )
( 7.11914E27 0.0 0.0 0.0 0.0 0.0 )
( 7.11914E27 0.0 0.0 0.0 0.0 0.0 ))
(( 7.11914E27 0.0 0.0 0.0 0.0 0.0 )
( 7.11914E27 0.0 0.0 0.0 0.0 0.0 )
( 7.11914E27 0.0 0.0 0.0 0.0 0.0 )
( 7.11914E27 0.0 0.0 0.0 0.0 0.0 )
( 7.11914E27 0.0 0.0 0.0 0.0 0.0 )))
((( 7.11914E27 0.0 0.0 0.0 0.0 0.0 )
( 7.11914E27 0.0 0.0 0.0 0.0 0.0 )
( 7.11914E27 0.0 0.0 0.0 0.0 0.0 )
( 7.11914E27 0.0 0.0 0.0 0.0 0.0 )
( 7.11914E27 0.0 0.0 0.0 0.0 0.0 ))
(( 7.11914E27 0.0 0.0 0.0 0.0 0.0 )
( 7.11914E27 0.0 0.0 0.0 0.0 0.0 )
( 7.11914E27 0.0 0.0 0.0 0.0 0.0 )
( 7.11914E27 0.0 0.0 0.0 0.0 0.0 )
( 7.11914E27 0.0 0.0 0.0 0.0 0.0 ))
(( 7.11914E27 0.0 0.0 0.0 0.0 0.0 )
( 7.11914E27 0.0 0.0 0.0 0.0 0.0 )
( 7.11914E27 0.0 0.0 0.0 0.0 0.0 )
( 7.11914E27 0.0 0.0 0.0 0.0 0.0 )
( 7.11914E27 0.0 0.0 0.0 0.0 0.0 ))
(( 7.11914E27 0.0 0.0 0.0 0.0 0.0 )
( 7.11914E27 0.0 0.0 0.0 0.0 0.0 )
( 7.11914E27 0.0 0.0 0.0 0.0 0.0 )
( 7.11914E27 0.0 0.0 0.0 0.0 0.0 )
( 7.11914E27 0.0 0.0 0.0 0.0 0.0 ))
(( 7.11914E27 0.0 0.0 0.0 0.0 0.0 )
( 7.11914E27 0.0 0.0 0.0 0.0 0.0 )
( 7.11914E27 0.0 0.0 0.0 0.0 0.0 )
( 7.11914E27 0.0 0.0 0.0 0.0 0.0 )
( 7.11914E27 0.0 0.0 0.0 0.0 0.0 )))
((( 7.11914E27 0.0 0.0 0.0 0.0 0.0 )
( 7.11914E27 0.0 0.0 0.0 0.0 0.0 )
( 7.11914E27 0.0 0.0 0.0 0.0 0.0 )
( 7.11914E27 0.0 0.0 0.0 0.0 0.0 )
( 7.11914E27 0.0 0.0 0.0 0.0 0.0 ))
(( 7.11914E27 0.0 0.0 0.0 0.0 0.0 )
( 7.11914E27 0.0 0.0 0.0 0.0 0.0 )
( 7.11914E27 0.0 0.0 0.0 0.0 0.0 )
( 7.11914E27 0.0 0.0 0.0 0.0 0.0 )
( 7.11914E27 0.0 0.0 0.0 0.0 0.0 ))
(( 7.11914E27 0.0 0.0 0.0 0.0 0.0 )
( 7.11914E27 0.0 0.0 0.0 0.0 0.0 )
( 7.11914E27 0.0 0.0 0.0 0.0 0.0 )
( 7.11914E27 0.0 0.0 0.0 0.0 0.0 )
( 7.11914E27 0.0 0.0 0.0 0.0 0.0 ))
(( 7.11914E27 0.0 0.0 0.0 0.0 0.0 )
( 7.11914E27 0.0 0.0 0.0 0.0 0.0 )
( 7.11914E27 0.0 0.0 0.0 0.0 0.0 )
( 7.11914E27 0.0 0.0 0.0 0.0 0.0 )
( 7.11914E27 0.0 0.0 0.0 0.0 0.0 ))
(( 7.11914E27 0.0 0.0 0.0 0.0 0.0 )
( 7.11914E27 0.0 0.0 0.0 0.0 0.0 )
( 7.11914E27 0.0 0.0 0.0 0.0 0.0 )
( 7.11914E27 0.0 0.0 0.0 0.0 0.0 )
( 7.11914E27 0.0 0.0 0.0 0.0 0.0 ))))
(((( 7.11914E27 0.0 0.0 0.0 0.0 0.0 )
( 7.11914E27 0.0 0.0 0.0 0.0 0.0 )
( 7.11914E27 0.0 0.0 0.0 0.0 0.0 )
( 7.11914E27 0.0 0.0 0.0 0.0 0.0 )
( 7.11914E27 0.0 0.0 0.0 0.0 0.0 ))
(( 7.11914E27 0.0 0.0 0.0 0.0 0.0 )
( 7.11914E27 0.0 0.0 0.0 0.0 0.0 )
( 7.11914E27 0.0 0.0 0.0 0.0 0.0 )
( 7.11914E27 0.0 0.0 0.0 0.0 0.0 )
( 7.11914E27 0.0 0.0 0.0 0.0 0.0 ))
(( 7.11914E27 0.0 0.0 0.0 0.0 0.0 )
( 7.11914E27 0.0 0.0 0.0 0.0 0.0 )
( 7.11914E27 0.0 0.0 0.0 0.0 0.0 )
( 7.11914E27 0.0 0.0 0.0 0.0 0.0 )
( 7.11914E27 0.0 0.0 0.0 0.0 0.0 ))
(( 7.11914E27 0.0 0.0 0.0 0.0 0.0 )
( 7.11914E27 0.0 0.0 0.0 0.0 0.0 )
( 7.11914E27 0.0 0.0 0.0 0.0 0.0 )
( 7.11914E27 0.0 0.0 0.0 0.0 0.0 )
( 7.11914E27 0.0 0.0 0.0 0.0 0.0 ))
(( 7.11914E27 0.0 0.0 0.0 0.0 0.0 )
( 7.11914E27 0.0 0.0 0.0 0.0 0.0 )
( 7.11914E27 0.0 0.0 0.0 0.0 0.0 )
( 7.11914E27 0.0 0.0 0.0 0.0 0.0 )
( 7.11914E27 0.0 0.0 0.0 0.0 0.0 )))
((( 7.11914E27 0.0 0.0 0.0 0.0 0.0 )
( 7.11914E27 0.0 0.0 0.0 0.0 0.0 )
( 7.11914E27 0.0 0.0 0.0 0.0 0.0 )
( 7.11914E27 0.0 0.0 0.0 0.0 0.0 )
( 7.11914E27 0.0 0.0 0.0 0.0 0.0 ))
(( 7.11914E27 0.0 0.0 0.0 0.0 0.0 )
( 7.11914E27 0.0 0.0 0.0 0.0 0.0 )
( 7.11914E27 0.0 0.0 0.0 0.0 0.0 )
( 7.11914E27 0.0 0.0 0.0 0.0 0.0 )
( 7.11914E27 0.0 0.0 0.0 0.0 0.0 ))
(( 7.11914E27 0.0 0.0 0.0 0.0 0.0 )
( 7.11914E27 0.0 0.0 0.0 0.0 0.0 )
( 7.11914E27 0.0 0.0 0.0 0.0 0.0 )
( 7.11914E27 0.0 0.0 0.0 0.0 0.0 )
( 7.11914E27 0.0 0.0 0.0 0.0 0.0 ))
(( 7.11914E27 0.0 0.0 0.0 0.0 0.0 )
( 7.11914E27 0.0 0.0 0.0 0.0 0.0 )
( 7.11914E27 0.0 0.0 0.0 0.0 0.0 )
( 7.11914E27 0.0 0.0 0.0 0.0 0.0 )
( 7.11914E27 0.0 0.0 0.0 0.0 0.0 ))
(( 7.11914E27 0.0 0.0 0.0 0.0 0.0 )
( 7.11914E27 0.0 0.0 0.0 0.0 0.0 )
( 7.11914E27 0.0 0.0 0.0 0.0 0.0 )
( 7.11914E27 0.0 0.0 0.0 0.0 0.0 )
( 7.11914E27 0.0 0.0 0.0 0.0 0.0 )))
((( 7.11914E27 0.0 0.0 0.0 0.0 0.0 )
( 7.11914E27 0.0 0.0 0.0 0.0 0.0 )
( 7.11914E27 0.0 0.0 0.0 0.0 0.0 )
( 7.11914E27 0.0 0.0 0.0 0.0 0.0 )
( 7.11914E27 0.0 0.0 0.0 0.0 0.0 ))
(( 7.11914E27 0.0 0.0 0.0 0.0 0.0 )
( 7.11914E27 0.0 0.0 0.0 0.0 0.0 )
( 7.11914E27 0.0 0.0 0.0 0.0 0.0 )
( 7.11914E27 0.0 0.0 0.0 0.0 0.0 )
( 7.11914E27 0.0 0.0 0.0 0.0 0.0 ))
(( 7.11914E27 0.0 0.0 0.0 0.0 0.0 )
( 7.11914E27 0.0 0.0 0.0 0.0 0.0 )
( 7.11914E27 0.0 0.0 0.0 0.0 0.0 )
( 7.11914E27 0.0 0.0 0.0 0.0 0.0 )
( 7.11914E27 0.0 0.0 0.0 0.0 0.0 ))
(( 7.11914E27 0.0 0.0 0.0 0.0 0.0 )
( 7.11914E27 0.0 0.0 0.0 0.0 0.0 )
( 7.11914E27 0.0 0.0 0.0 0.0 0.0 )
( 7.11914E27 0.0 0.0 0.0 0.0 0.0 )
( 7.11914E27 0.0 0.0 0.0 0.0 0.0 ))
(( 7.11914E27 0.0 0.0 0.0 0.0 0.0 )
( 7.11914E27 0.0 0.0 0.0 0.0 0.0 )
( 7.11914E27 0.0 0.0 0.0 0.0 0.0 )
( 7.11914E27 0.0 0.0 0.0 0.0 0.0 )
( 7.11914E27 0.0 0.0 0.0 0.0 0.0 )))
((( 7.11914E27 0.0 0.0 0.0 0.0 0.0 )
( 7.11914E27 0.0 0.0 0.0 0.0 0.0 )
( 7.11914E27 0.0 0.0 0.0 0.0 0.0 )
( 7.11914E27 0.0 0.0 0.0 0.0 0.0 )
( 7.11914E27 0.0 0.0 0.0 0.0 0.0 ))
(( 7.11914E27 0.0 0.0 0.0 0.0 0.0 )
( 7.11914E27 0.0 0.0 0.0 0.0 0.0 )
( 7.11914E27 0.0 0.0 0.0 0.0 0.0 )
( 7.11914E27 0.0 0.0 0.0 0.0 0.0 )
( 7.11914E27 0.0 0.0 0.0 0.0 0.0 ))
(( 7.11914E27 0.0 0.0 0.0 0.0 0.0 )
( 7.11914E27 0.0 0.0 0.0 0.0 0.0 )
( 7.11914E27 0.0 0.0 0.0 0.0 0.0 )
( 7.11914E27 0.0 0.0 0.0 0.0 0.0 )
( 7.11914E27 0.0 0.0 0.0 0.0 0.0 ))
(( 7.11914E27 0.0 0.0 0.0 0.0 0.0 )
( 7.11914E27 0.0 0.0 0.0 0.0 0.0 )
( 7.11914E27 0.0 0.0 0.0 0.0 0.0 )
( 7.11914E27 0.0 0.0 0.0 0.0 0.0 )
( 7.11914E27 0.0 0.0 0.0 0.0 0.0 ))
(( 7.11914E27 0.0 0.0 0.0 0.0 0.0 )
( 7.11914E27 0.0 0.0 0.0 0.0 0.0 )
( 7.11914E27 0.0 0.0 0.0 0.0 0.0 )
( 7.11914E27 0.0 0.0 0.0 0.0 0.0 )
( 7.11914E27 0.0 0.0 0.0 0.0 0.0 )))
((( 7.11914E27 0.0 0.0 0.0 0.0 0.0 )
( 7.11914E27 0.0 0.0 0.0 0.0 0.0 )
( 7.11914E27 0.0 0.0 0.0 0.0 0.0 )
( 7.11914E27 0.0 0.0 0.0 0.0 0.0 )
( 7.11914E27 0.0 0.0 0.0 0.0 0.0 ))
(( 7.11914E27 0.0 0.0 0.0 0.0 0.0 )
( 7.11914E27 0.0 0.0 0.0 0.0 0.0 )
( 7.11914E27 0.0 0.0 0.0 0.0 0.0 )
( 7.11914E27 0.0 0.0 0.0 0.0 0.0 )
( 7.11914E27 0.0 0.0 0.0 0.0 0.0 ))
(( 7.11914E27 0.0 0.0 0.0 0.0 0.0 )
( 7.11914E27 0.0 0.0 0.0 0.0 0.0 )
( 7.11914E27 0.0 0.0 0.0 0.0 0.0 )
( 7.11914E27 0.0 0.0 0.0 0.0 0.0 )
( 7.11914E27 0.0 0.0 0.0 0.0 0.0 ))
(( 7.11914E27 0.0 0.0 0.0 0.0 0.0 )
( 7.11914E27 0.0 0.0 0.0 0.0 0.0 )
( 7.11914E27 0.0 0.0 0.0 0.0 0.0 )
( 7.11914E27 0.0 0.0 0.0 0.0 0.0 )
( 7.11914E27 0.0 0.0 0.0 0.0 0.0 ))
(( 7.11914E27 0.0 0.0 0.0 0.0 0.0 )
( 7.11914E27 0.0 0.0 0.0 0.0 0.0 )
( 7.11914E27 0.0 0.0 0.0 0.0 0.0 )
( 7.11914E27 0.0 0.0 0.0 0.0 0.0 )
( 7.11914E27 0.0 0.0 0.0 0.0 0.0 ))))
(((( 7.11914E27 0.0 0.0 0.0 0.0 0.0 )
( 7.11914E27 0.0 0.0 0.0 0.0 0.0 )
( 7.11914E27 0.0 0.0 0.0 0.0 0.0 )
( 7.11914E27 0.0 0.0 0.0 0.0 0.0 )
( 7.11914E27 0.0 0.0 0.0 0.0 0.0 ))
(( 7.11914E27 0.0 0.0 0.0 0.0 0.0 )
( 7.11914E27 0.0 0.0 0.0 0.0 0.0 )
( 7.11914E27 0.0 0.0 0.0 0.0 0.0 )
( 7.11914E27 0.0 0.0 0.0 0.0 0.0 )
( 7.11914E27 0.0 0.0 0.0 0.0 0.0 ))
(( 7.11914E27 0.0 0.0 0.0 0.0 0.0 )
( 7.11914E27 0.0 0.0 0.0 0.0 0.0 )
( 7.11914E27 0.0 0.0 0.0 0.0 0.0 )
( 7.11914E27 0.0 0.0 0.0 0.0 0.0 )
( 7.11914E27 0.0 0.0 0.0 0.0 0.0 ))
(( 7.11914E27 0.0 0.0 0.0 0.0 0.0 )
( 7.11914E27 0.0 0.0 0.0 0.0 0.0 )
( 7.11914E27 0.0 0.0 0.0 0.0 0.0 )
( 7.11914E27 0.0 0.0 0.0 0.0 0.0 )
( 7.11914E27 0.0 0.0 0.0 0.0 0.0 ))
(( 7.11914E27 0.0 0.0 0.0 0.0 0.0 )
( 7.11914E27 0.0 0.0 0.0 0.0 0.0 )
( 7.11914E27 0.0 0.0 0.0 0.0 0.0 )
( 7.11914E27 0.0 0.0 0.0 0.0 0.0 )
( 7.11914E27 0.0 0.0 0.0 0.0 0.0 )))
((( 7.11914E27 0.0 0.0 0.0 0.0 0.0 )
( 7.11914E27 0.0 0.0 0.0 0.0 0.0 )
( 7.11914E27 0.0 0.0 0.0 0.0 0.0 )
( 7.11914E27 0.0 0.0 0.0 0.0 0.0 )
( 7.11914E27 0.0 0.0 0.0 0.0 0.0 ))
(( 7.11914E27 0.0 0.0 0.0 0.0 0.0 )
( 7.11914E27 0.0 0.0 0.0 0.0 0.0 )
( 7.11914E27 0.0 0.0 0.0 0.0 0.0 )
( 7.11914E27 0.0 0.0 0.0 0.0 0.0 )
( 7.11914E27 0.0 0.0 0.0 0.0 0.0 ))
(( 7.11914E27 0.0 0.0 0.0 0.0 0.0 )
( 7.11914E27 0.0 0.0 0.0 0.0 0.0 )
( 7.11914E27 0.0 0.0 0.0 0.0 0.0 )
( 7.11914E27 0.0 0.0 0.0 0.0 0.0 )
( 7.11914E27 0.0 0.0 0.0 0.0 0.0 ))
(( 7.11914E27 0.0 0.0 0.0 0.0 0.0 )
( 7.11914E27 0.0 0.0 0.0 0.0 0.0 )
( 7.11914E27 0.0 0.0 0.0 0.0 0.0 )
( 7.11914E27 0.0 0.0 0.0 0.0 0.0 )
( 7.11914E27 0.0 0.0 0.0 0.0 0.0 ))
(( 7.11914E27 0.0 0.0 0.0 0.0 0.0 )
( 7.11914E27 0.0 0.0 0.0 0.0 0.0 )
( 7.11914E27 0.0 0.0 0.0 0.0 0.0 )
( 7.11914E27 0.0 0.0 0.0 0.0 0.0 )
( 7.11914E27 0.0 0.0 0.0 0.0 0.0 )))
((( 7.11914E27 0.0 0.0 0.0 0.0 0.0 )
( 7.11914E27 0.0 0.0 0.0 0.0 0.0 )
( 7.11914E27 0.0 0.0 0.0 0.0 0.0 )
( 7.11914E27 0.0 0.0 0.0 0.0 0.0 )
( 7.11914E27 0.0 0.0 0.0 0.0 0.0 ))
(( 7.11914E27 0.0 0.0 0.0 0.0 0.0 )
( 7.11914E27 0.0 0.0 0.0 0.0 0.0 )
( 7.11914E27 0.0 0.0 0.0 0.0 0.0 )
( 7.11914E27 0.0 0.0 0.0 0.0 0.0 )
( 7.11914E27 0.0 0.0 0.0 0.0 0.0 ))
(( 7.11914E27 0.0 0.0 0.0 0.0 0.0 )
( 7.11914E27 0.0 0.0 0.0 0.0 0.0 )
( 7.11914E27 0.0 0.0 0.0 0.0 0.0 )
( 7.11914E27 0.0 0.0 0.0 0.0 0.0 )
( 7.11914E27 0.0 0.0 0.0 0.0 0.0 ))
(( 7.11914E27 0.0 0.0 0.0 0.0 0.0 )
( 7.11914E27 0.0 0.0 0.0 0.0 0.0 )
( 7.11914E27 0.0 0.0 0.0 0.0 0.0 )
( 7.11914E27 0.0 0.0 0.0 0.0 0.0 )
( 7.11914E27 0.0 0.0 0.0 0.0 0.0 ))
(( 7.11914E27 0.0 0.0 0.0 0.0 0.0 )
( 7.11914E27 0.0 0.0 0.0 0.0 0.0 )
( 7.11914E27 0.0 0.0 0.0 0.0 0.0 )
( 7.11914E27 0.0 0.0 0.0 0.0 0.0 )
( 7.11914E27 0.0 0.0 0.0 0.0 0.0 )))
((( 7.11914E27 0.0 0.0 0.0 0.0 0.0 )
( 7.11914E27 0.0 0.0 0.0 0.0 0.0 )
( 7.11914E27 0.0 0.0 0.0 0.0 0.0 )
( 7.11914E27 0.0 0.0 0.0 0.0 0.0 )
( 7.11914E27 0.0 0.0 0.0 0.0 0.0 ))
(( 7.11914E27 0.0 0.0 0.0 0.0 0.0 )
( 7.11914E27 0.0 0.0 0.0 0.0 0.0 )
( 7.11914E27 0.0 0.0 0.0 0.0 0.0 )
( 7.11914E27 0.0 0.0 0.0 0.0 0.0 )
( 7.11914E27 0.0 0.0 0.0 0.0 0.0 ))
(( 7.11914E27 0.0 0.0 0.0 0.0 0.0 )
( 7.11914E27 0.0 0.0 0.0 0.0 0.0 )
( 7.11914E27 0.0 0.0 0.0 0.0 0.0 )
( 7.11914E27 0.0 0.0 0.0 0.0 0.0 )
( 7.11914E27 0.0 0.0 0.0 0.0 0.0 ))
(( 7.11914E27 0.0 0.0 0.0 0.0 0.0 )
( 7.11914E27 0.0 0.0 0.0 0.0 0.0 )
( 7.11914E27 0.0 0.0 0.0 0.0 0.0 )
( 7.11914E27 0.0 0.0 0.0 0.0 0.0 )
( 7.11914E27 0.0 0.0 0.0 0.0 0.0 ))
(( 7.11914E27 0.0 0.0 0.0 0.0 0.0 )
( 7.11914E27 0.0 0.0 0.0 0.0 0.0 )
( 7.11914E27 0.0 0.0 0.0 0.0 0.0 )
( 7.11914E27 0.0 0.0 0.0 0.0 0.0 )
( 7.11914E27 0.0 0.0 0.0 0.0 0.0 )))
((( 7.11914E27 0.0 0.0 0.0 0.0 0.0 )
( 7.11914E27 0.0 0.0 0.0 0.0 0.0 )
( 7.11914E27 0.0 0.0 0.0 0.0 0.0 )
( 7.11914E27 0.0 0.0 0.0 0.0 0.0 )
( 7.11914E27 0.0 0.0 0.0 0.0 0.0 ))
(( 7.11914E27 0.0 0.0 0.0 0.0 0.0 )
( 7.11914E27 0.0 0.0 0.0 0.0 0.0 )
( 7.11914E27 0.0 0.0 0.0 0.0 0.0 )
( 7.11914E27 0.0 0.0 0.0 0.0 0.0 )
( 7.11914E27 0.0 0.0 0.0 0.0 0.0 ))
(( 7.11914E27 0.0 0.0 0.0 0.0 0.0 )
( 7.11914E27 0.0 0.0 0.0 0.0 0.0 )
( 7.11914E27 0.0 0.0 0.0 0.0 0.0 )
( 7.11914E27 0.0 0.0 0.0 0.0 0.0 )
( 7.11914E27 0.0 0.0 0.0 0.0 0.0 ))
(( 7.11914E27 0.0 0.0 0.0 0.0 0.0 )
( 7.11914E27 0.0 0.0 0.0 0.0 0.0 )
( 7.11914E27 0.0 0.0 0.0 0.0 0.0 )
( 7.11914E27 0.0 0.0 0.0 0.0 0.0 )
( 7.11914E27 0.0 0.0 0.0 0.0 0.0 ))
(( 7.11914E27 0.0 0.0 0.0 0.0 0.0 )
( 7.11914E27 0.0 0.0 0.0 0.0 0.0 )
( 7.11914E27 0.0 0.0 0.0 0.0 0.0 )
( 7.11914E27 0.0 0.0 0.0 0.0 0.0 )
( 7.11914E27 0.0 0.0 0.0 0.0 0.0 ))))
(((( 7.11914E27 0.0 0.0 0.0 0.0 0.0 )
( 7.11914E27 0.0 0.0 0.0 0.0 0.0 )
( 7.11914E27 0.0 0.0 0.0 0.0 0.0 )
( 7.11914E27 0.0 0.0 0.0 0.0 0.0 )
( 7.11914E27 0.0 0.0 0.0 0.0 0.0 ))
(( 7.11914E27 0.0 0.0 0.0 0.0 0.0 )
( 7.11914E27 0.0 0.0 0.0 0.0 0.0 )
( 7.11914E27 0.0 0.0 0.0 0.0 0.0 )
( 7.11914E27 0.0 0.0 0.0 0.0 0.0 )
( 7.11914E27 0.0 0.0 0.0 0.0 0.0 ))
(( 7.11914E27 0.0 0.0 0.0 0.0 0.0 )
( 7.11914E27 0.0 0.0 0.0 0.0 0.0 )
( 7.11914E27 0.0 0.0 0.0 0.0 0.0 )
( 7.11914E27 0.0 0.0 0.0 0.0 0.0 )
( 7.11914E27 0.0 0.0 0.0 0.0 0.0 ))
(( 7.11914E27 0.0 0.0 0.0 0.0 0.0 )
( 7.11914E27 0.0 0.0 0.0 0.0 0.0 )
( 7.11914E27 0.0 0.0 0.0 0.0 0.0 )
( 7.11914E27 0.0 0.0 0.0 0.0 0.0 )
( 7.11914E27 0.0 0.0 0.0 0.0 0.0 ))
(( 7.11914E27 0.0 0.0 0.0 0.0 0.0 )
( 7.11914E27 0.0 0.0 0.0 0.0 0.0 )
( 7.11914E27 0.0 0.0 0.0 0.0 0.0 )
( 7.11914E27 0.0 0.0 0.0 0.0 0.0 )
( 7.11914E27 0.0 0.0 0.0 0.0 0.0 )))
((( 7.11914E27 0.0 0.0 0.0 0.0 0.0 )
( 7.11914E27 0.0 0.0 0.0 0.0 0.0 )
( 7.11914E27 0.0 0.0 0.0 0.0 0.0 )
( 7.11914E27 0.0 0.0 0.0 0.0 0.0 )
( 7.11914E27 0.0 0.0 0.0 0.0 0.0 ))
(( 7.11914E27 0.0 0.0 0.0 0.0 0.0 )
( 7.11914E27 0.0 0.0 0.0 0.0 0.0 )
( 7.11914E27 0.0 0.0 0.0 0.0 0.0 )
( 7.11914E27 0.0 0.0 0.0 0.0 0.0 )
( 7.11914E27 0.0 0.0 0.0 0.0 0.0 ))
(( 7.11914E27 0.0 0.0 0.0 0.0 0.0 )
( 7.11914E27 0.0 0.0 0.0 0.0 0.0 )
( 7.11914E27 0.0 0.0 0.0 0.0 0.0 )
( 7.11914E27 0.0 0.0 0.0 0.0 0.0 )
( 7.11914E27 0.0 0.0 0.0 0.0 0.0 ))
(( 7.11914E27 0.0 0.0 0.0 0.0 0.0 )
( 7.11914E27 0.0 0.0 0.0 0.0 0.0 )
( 7.11914E27 0.0 0.0 0.0 0.0 0.0 )
( 7.11914E27 0.0 0.0 0.0 0.0 0.0 )
( 7.11914E27 0.0 0.0 0.0 0.0 0.0 ))
(( 7.11914E27 0.0 0.0 0.0 0.0 0.0 )
( 7.11914E27 0.0 0.0 0.0 0.0 0.0 )
( 7.11914E27 0.0 0.0 0.0 0.0 0.0 )
( 7.11914E27 0.0 0.0 0.0 0.0 0.0 )
( 7.11914E27 0.0 0.0 0.0 0.0 0.0 )))
((( 7.11914E27 0.0 0.0 0.0 0.0 0.0 )
( 7.11914E27 0.0 0.0 0.0 0.0 0.0 )
( 7.11914E27 0.0 0.0 0.0 0.0 0.0 )
( 7.11914E27 0.0 0.0 0.0 0.0 0.0 )
( 7.11914E27 0.0 0.0 0.0 0.0 0.0 ))
(( 7.11914E27 0.0 0.0 0.0 0.0 0.0 )
( 7.11914E27 0.0 0.0 0.0 0.0 0.0 )
( 7.11914E27 0.0 0.0 0.0 0.0 0.0 )
( 7.11914E27 0.0 0.0 0.0 0.0 0.0 )
( 7.11914E27 0.0 0.0 0.0 0.0 0.0 ))
(( 7.11914E27 0.0 0.0 0.0 0.0 0.0 )
( 7.11914E27 0.0 0.0 0.0 0.0 0.0 )
( 7.11914E27 0.0 0.0 0.0 0.0 0.0 )
( 7.11914E27 0.0 0.0 0.0 0.0 0.0 )
( 7.11914E27 0.0 0.0 0.0 0.0 0.0 ))
(( 7.11914E27 0.0 0.0 0.0 0.0 0.0 )
( 7.11914E27 0.0 0.0 0.0 0.0 0.0 )
( 7.11914E27 0.0 0.0 0.0 0.0 0.0 )
( 7.11914E27 0.0 0.0 0.0 0.0 0.0 )
( 7.11914E27 0.0 0.0 0.0 0.0 0.0 ))
(( 7.11914E27 0.0 0.0 0.0 0.0 0.0 )
( 7.11914E27 0.0 0.0 0.0 0.0 0.0 )
( 7.11914E27 0.0 0.0 0.0 0.0 0.0 )
( 7.11914E27 0.0 0.0 0.0 0.0 0.0 )
( 7.11914E27 0.0 0.0 0.0 0.0 0.0 )))
((( 7.11914E27 0.0 0.0 0.0 0.0 0.0 )
( 7.11914E27 0.0 0.0 0.0 0.0 0.0 )
( 7.11914E27 0.0 0.0 0.0 0.0 0.0 )
( 7.11914E27 0.0 0.0 0.0 0.0 0.0 )
( 7.11914E27 0.0 0.0 0.0 0.0 0.0 ))
(( 7.11914E27 0.0 0.0 0.0 0.0 0.0 )
( 7.11914E27 0.0 0.0 0.0 0.0 0.0 )
( 7.11914E27 0.0 0.0 0.0 0.0 0.0 )
( 7.11914E27 0.0 0.0 0.0 0.0 0.0 )
( 7.11914E27 0.0 0.0 0.0 0.0 0.0 ))
(( 7.11914E27 0.0 0.0 0.0 0.0 0.0 )
( 7.11914E27 0.0 0.0 0.0 0.0 0.0 )
( 7.11914E27 0.0 0.0 0.0 0.0 0.0 )
( 7.11914E27 0.0 0.0 0.0 0.0 0.0 )
( 7.11914E27 0.0 0.0 0.0 0.0 0.0 ))
(( 7.11914E27 0.0 0.0 0.0 0.0 0.0 )
( 7.11914E27 0.0 0.0 0.0 0.0 0.0 )
( 7.11914E27 0.0 0.0 0.0 0.0 0.0 )
( 7.11914E27 0.0 0.0 0.0 0.0 0.0 )
( 7.11914E27 0.0 0.0 0.0 0.0 0.0 ))
(( 7.11914E27 0.0 0.0 0.0 0.0 0.0 )
( 7.11914E27 0.0 0.0 0.0 0.0 0.0 )
( 7.11914E27 0.0 0.0 0.0 0.0 0.0 )
( 7.11914E27 0.0 0.0 0.0 0.0 0.0 )
( 7.11914E27 0.0 0.0 0.0 0.0 0.0 )))
((( 7.11914E27 0.0 0.0 0.0 0.0 0.0 )
( 7.11914E27 0.0 0.0 0.0 0.0 0.0 )
( 7.11914E27 0.0 0.0 0.0 0.0 0.0 )
( 7.11914E27 0.0 0.0 0.0 0.0 0.0 )
( 7.11914E27 0.0 0.0 0.0 0.0 0.0 ))
(( 7.11914E27 0.0 0.0 0.0 0.0 0.0 )
( 7.11914E27 0.0 0.0 0.0 0.0 0.0 )
( 7.11914E27 0.0 0.0 0.0 0.0 0.0 )
( 7.11914E27 0.0 0.0 0.0 0.0 0.0 )
( 7.11914E27 0.0 0.0 0.0 0.0 0.0 ))
(( 7.11914E27 0.0 0.0 0.0 0.0 0.0 )
( 7.11914E27 0.0 0.0 0.0 0.0 0.0 )
( 7.11914E27 0.0 0.0 0.0 0.0 0.0 )
( 7.11914E27 0.0 0.0 0.0 0.0 0.0 )
( 7.11914E27 0.0 0.0 0.0 0.0 0.0 ))
(( 7.11914E27 0.0 0.0 0.0 0.0 0.0 )
( 7.11914E27 0.0 0.0 0.0 0.0 0.0 )
( 7.11914E27 0.0 0.0 0.0 0.0 0.0 )
( 7.11914E27 0.0 0.0 0.0 0.0 0.0 )
( 7.11914E27 0.0 0.0 0.0 0.0 0.0 ))
(( 7.11914E27 0.0 0.0 0.0 0.0 0.0 )
( 7.11914E27 0.0 0.0 0.0 0.0 0.0 )
( 7.11914E27 0.0 0.0 0.0 0.0 0.0 )
( 7.11914E27 0.0 0.0 0.0 0.0 0.0 )
( 7.11914E27 0.0 0.0 0.0 0.0 0.0 ))))
(((( 7.11914E27 0.0 0.0 0.0 0.0 0.0 )
( 7.11914E27 0.0 0.0 0.0 0.0 0.0 )
( 7.11914E27 0.0 0.0 0.0 0.0 0.0 )
( 7.11914E27 0.0 0.0 0.0 0.0 0.0 )
( 7.11914E27 0.0 0.0 0.0 0.0 0.0 ))
(( 7.11914E27 0.0 0.0 0.0 0.0 0.0 )
( 7.11914E27 0.0 0.0 0.0 0.0 0.0 )
( 7.11914E27 0.0 0.0 0.0 0.0 0.0 )
( 7.11914E27 0.0 0.0 0.0 0.0 0.0 )
( 7.11914E27 0.0 0.0 0.0 0.0 0.0 ))
(( 7.11914E27 0.0 0.0 0.0 0.0 0.0 )
( 7.11914E27 0.0 0.0 0.0 0.0 0.0 )
( 7.11914E27 0.0 0.0 0.0 0.0 0.0 )
( 7.11914E27 0.0 0.0 0.0 0.0 0.0 )
( 7.11914E27 0.0 0.0 0.0 0.0 0.0 ))
(( 7.11914E27 0.0 0.0 0.0 0.0 0.0 )
( 7.11914E27 0.0 0.0 0.0 0.0 0.0 )
( 7.11914E27 0.0 0.0 0.0 0.0 0.0 )
( 7.11914E27 0.0 0.0 0.0 0.0 0.0 )
( 7.11914E27 0.0 0.0 0.0 0.0 0.0 ))
(( 7.11914E27 0.0 0.0 0.0 0.0 0.0 )
( 7.11914E27 0.0 0.0 0.0 0.0 0.0 )
( 7.11914E27 0.0 0.0 0.0 0.0 0.0 )
( 7.11914E27 0.0 0.0 0.0 0.0 0.0 )
( 7.11914E27 0.0 0.0 0.0 0.0 0.0 )))
((( 7.11914E27 0.0 0.0 0.0 0.0 0.0 )
( 7.11914E27 0.0 0.0 0.0 0.0 0.0 )
( 7.11914E27 0.0 0.0 0.0 0.0 0.0 )
( 7.11914E27 0.0 0.0 0.0 0.0 0.0 )
( 7.11914E27 0.0 0.0 0.0 0.0 0.0 ))
(( 7.11914E27 0.0 0.0 0.0 0.0 0.0 )
( 7.11914E27 0.0 0.0 0.0 0.0 0.0 )
( 7.11914E27 0.0 0.0 0.0 0.0 0.0 )
( 7.11914E27 0.0 0.0 0.0 0.0 0.0 )
( 7.11914E27 0.0 0.0 0.0 0.0 0.0 ))
(( 7.11914E27 0.0 0.0 0.0 0.0 0.0 )
( 7.11914E27 0.0 0.0 0.0 0.0 0.0 )
( 7.11914E27 0.0 0.0 0.0 0.0 0.0 )
( 7.11914E27 0.0 0.0 0.0 0.0 0.0 )
( 7.11914E27 0.0 0.0 0.0 0.0 0.0 ))
(( 7.11914E27 0.0 0.0 0.0 0.0 0.0 )
( 7.11914E27 0.0 0.0 0.0 0.0 0.0 )
( 7.11914E27 0.0 0.0 0.0 0.0 0.0 )
( 7.11914E27 0.0 0.0 0.0 0.0 0.0 )
( 7.11914E27 0.0 0.0 0.0 0.0 0.0 ))
(( 7.11914E27 0.0 0.0 0.0 0.0 0.0 )
( 7.11914E27 0.0 0.0 0.0 0.0 0.0 )
( 7.11914E27 0.0 0.0 0.0 0.0 0.0 )
( 7.11914E27 0.0 0.0 0.0 0.0 0.0 )
( 7.11914E27 0.0 0.0 0.0 0.0 0.0 )))
((( 7.11914E27 0.0 0.0 0.0 0.0 0.0 )
( 7.11914E27 0.0 0.0 0.0 0.0 0.0 )
( 7.11914E27 0.0 0.0 0.0 0.0 0.0 )
( 7.11914E27 0.0 0.0 0.0 0.0 0.0 )
( 7.11914E27 0.0 0.0 0.0 0.0 0.0 ))
(( 7.11914E27 0.0 0.0 0.0 0.0 0.0 )
( 7.11914E27 0.0 0.0 0.0 0.0 0.0 )
( 7.11914E27 0.0 0.0 0.0 0.0 0.0 )
( 7.11914E27 0.0 0.0 0.0 0.0 0.0 )
( 7.11914E27 0.0 0.0 0.0 0.0 0.0 ))
(( 7.11914E27 0.0 0.0 0.0 0.0 0.0 )
( 7.11914E27 0.0 0.0 0.0 0.0 0.0 )
( 7.11914E27 0.0 0.0 0.0 0.0 0.0 )
( 7.11914E27 0.0 0.0 0.0 0.0 0.0 )
( 7.11914E27 0.0 0.0 0.0 0.0 0.0 ))
(( 7.11914E27 0.0 0.0 0.0 0.0 0.0 )
( 7.11914E27 0.0 0.0 0.0 0.0 0.0 )
( 7.11914E27 0.0 0.0 0.0 0.0 0.0 )
( 7.11914E27 0.0 0.0 0.0 0.0 0.0 )
( 7.11914E27 0.0 0.0 0.0 0.0 0.0 ))
(( 7.11914E27 0.0 0.0 0.0 0.0 0.0 )
( 7.11914E27 0.0 0.0 0.0 0.0 0.0 )
( 7.11914E27 0.0 0.0 0.0 0.0 0.0 )
( 7.11914E27 0.0 0.0 0.0 0.0 0.0 )
( 7.11914E27 0.0 0.0 0.0 0.0 0.0 )))
((( 7.11914E27 0.0 0.0 0.0 0.0 0.0 )
( 7.11914E27 0.0 0.0 0.0 0.0 0.0 )
( 7.11914E27 0.0 0.0 0.0 0.0 0.0 )
( 7.11914E27 0.0 0.0 0.0 0.0 0.0 )
( 7.11914E27 0.0 0.0 0.0 0.0 0.0 ))
(( 7.11914E27 0.0 0.0 0.0 0.0 0.0 )
( 7.11914E27 0.0 0.0 0.0 0.0 0.0 )
( 7.11914E27 0.0 0.0 0.0 0.0 0.0 )
( 7.11914E27 0.0 0.0 0.0 0.0 0.0 )
( 7.11914E27 0.0 0.0 0.0 0.0 0.0 ))
(( 7.11914E27 0.0 0.0 0.0 0.0 0.0 )
( 7.11914E27 0.0 0.0 0.0 0.0 0.0 )
( 7.11914E27 0.0 0.0 0.0 0.0 0.0 )
( 7.11914E27 0.0 0.0 0.0 0.0 0.0 )
( 7.11914E27 0.0 0.0 0.0 0.0 0.0 ))
(( 7.11914E27 0.0 0.0 0.0 0.0 0.0 )
( 7.11914E27 0.0 0.0 0.0 0.0 0.0 )
( 7.11914E27 0.0 0.0 0.0 0.0 0.0 )
( 7.11914E27 0.0 0.0 0.0 0.0 0.0 )
( 7.11914E27 0.0 0.0 0.0 0.0 0.0 ))
(( 7.11914E27 0.0 0.0 0.0 0.0 0.0 )
( 7.11914E27 0.0 0.0 0.0 0.0 0.0 )
( 7.11914E27 0.0 0.0 0.0 0.0 0.0 )
( 7.11914E27 0.0 0.0 0.0 0.0 0.0 )
( 7.11914E27 0.0 0.0 0.0 0.0 0.0 )))
((( 7.11914E27 0.0 0.0 0.0 0.0 0.0 )
( 7.11914E27 0.0 0.0 0.0 0.0 0.0 )
( 7.11914E27 0.0 0.0 0.0 0.0 0.0 )
( 7.11914E27 0.0 0.0 0.0 0.0 0.0 )
( 7.11914E27 0.0 0.0 0.0 0.0 0.0 ))
(( 7.11914E27 0.0 0.0 0.0 0.0 0.0 )
( 7.11914E27 0.0 0.0 0.0 0.0 0.0 )
( 7.11914E27 0.0 0.0 0.0 0.0 0.0 )
( 7.11914E27 0.0 0.0 0.0 0.0 0.0 )
( 7.11914E27 0.0 0.0 0.0 0.0 0.0 ))
(( 7.11914E27 0.0 0.0 0.0 0.0 0.0 )
( 7.11914E27 0.0 0.0 0.0 0.0 0.0 )
( 7.11914E27 0.0 0.0 0.0 0.0 0.0 )
( 7.11914E27 0.0 0.0 0.0 0.0 0.0 )
( 7.11914E27 0.0 0.0 0.0 0.0 0.0 ))
(( 7.11914E27 0.0 0.0 0.0 0.0 0.0 )
( 7.11914E27 0.0 0.0 0.0 0.0 0.0 )
( 7.11914E27 0.0 0.0 0.0 0.0 0.0 )
( 7.11914E27 0.0 0.0 0.0 0.0 0.0 )
( 7.11914E27 0.0 0.0 0.0 0.0 0.0 ))
(( 7.11914E27 0.0 0.0 0.0 0.0 0.0 )
( 7.11914E27 0.0 0.0 0.0 0.0 0.0 )
( 7.11914E27 0.0 0.0 0.0 0.0 0.0 )
( 7.11914E27 0.0 0.0 0.0 0.0 0.0 )
( 7.11914E27 0.0 0.0 0.0 0.0 0.0 )))))
((((( 7.11914E27 0.0 0.0 0.0 0.0 0.0 )
( 7.11914E27 0.0 0.0 0.0 0.0 0.0 )
( 7.11914E27 0.0 0.0 0.0 0.0 0.0 )
( 7.11914E27 0.0 0.0 0.0 0.0 0.0 )
( 7.11914E27 0.0 0.0 0.0 0.0 0.0 ))
(( 7.11914E27 0.0 0.0 0.0 0.0 0.0 )
( 7.11914E27 0.0 0.0 0.0 0.0 0.0 )
( 7.11914E27 0.0 0.0 0.0 0.0 0.0 )
( 7.11914E27 0.0 0.0 0.0 0.0 0.0 )
( 7.11914E27 0.0 0.0 0.0 0.0 0.0 ))
(( 7.11914E27 0.0 0.0 0.0 0.0 0.0 )
( 7.11914E27 0.0 0.0 0.0 0.0 0.0 )
( 7.11914E27 0.0 0.0 0.0 0.0 0.0 )
( 7.11914E27 0.0 0.0 0.0 0.0 0.0 )
( 7.11914E27 0.0 0.0 0.0 0.0 0.0 ))
(( 7.11914E27 0.0 0.0 0.0 0.0 0.0 )
( 7.11914E27 0.0 0.0 0.0 0.0 0.0 )
( 7.11914E27 0.0 0.0 0.0 0.0 0.0 )
( 7.11914E27 0.0 0.0 0.0 0.0 0.0 )
( 7.11914E27 0.0 0.0 0.0 0.0 0.0 ))
(( 7.11914E27 0.0 0.0 0.0 0.0 0.0 )
( 7.11914E27 0.0 0.0 0.0 0.0 0.0 )
( 7.11914E27 0.0 0.0 0.0 0.0 0.0 )
( 7.11914E27 0.0 0.0 0.0 0.0 0.0 )
( 7.11914E27 0.0 0.0 0.0 0.0 0.0 )))
((( 7.11914E27 0.0 0.0 0.0 0.0 0.0 )
( 7.11914E27 0.0 0.0 0.0 0.0 0.0 )
( 7.11914E27 0.0 0.0 0.0 0.0 0.0 )
( 7.11914E27 0.0 0.0 0.0 0.0 0.0 )
( 7.11914E27 0.0 0.0 0.0 0.0 0.0 ))
(( 7.11914E27 0.0 0.0 0.0 0.0 0.0 )
( 7.11914E27 0.0 0.0 0.0 0.0 0.0 )
( 7.11914E27 0.0 0.0 0.0 0.0 0.0 )
( 7.11914E27 0.0 0.0 0.0 0.0 0.0 )
( 7.11914E27 0.0 0.0 0.0 0.0 0.0 ))
(( 7.11914E27 0.0 0.0 0.0 0.0 0.0 )
( 7.11914E27 0.0 0.0 0.0 0.0 0.0 )
( 7.11914E27 0.0 0.0 0.0 0.0 0.0 )
( 7.11914E27 0.0 0.0 0.0 0.0 0.0 )
( 7.11914E27 0.0 0.0 0.0 0.0 0.0 ))
(( 7.11914E27 0.0 0.0 0.0 0.0 0.0 )
( 7.11914E27 0.0 0.0 0.0 0.0 0.0 )
( 7.11914E27 0.0 0.0 0.0 0.0 0.0 )
( 7.11914E27 0.0 0.0 0.0 0.0 0.0 )
( 7.11914E27 0.0 0.0 0.0 0.0 0.0 ))
(( 7.11914E27 0.0 0.0 0.0 0.0 0.0 )
( 7.11914E27 0.0 0.0 0.0 0.0 0.0 )
( 7.11914E27 0.0 0.0 0.0 0.0 0.0 )
( 7.11914E27 0.0 0.0 0.0 0.0 0.0 )
( 7.11914E27 0.0 0.0 0.0 0.0 0.0 )))
((( 7.11914E27 0.0 0.0 0.0 0.0 0.0 )
( 7.11914E27 0.0 0.0 0.0 0.0 0.0 )
( 7.11914E27 0.0 0.0 0.0 0.0 0.0 )
( 7.11914E27 0.0 0.0 0.0 0.0 0.0 )
( 7.11914E27 0.0 0.0 0.0 0.0 0.0 ))
(( 7.11914E27 0.0 0.0 0.0 0.0 0.0 )
( 7.11914E27 0.0 0.0 0.0 0.0 0.0 )
( 7.11914E27 0.0 0.0 0.0 0.0 0.0 )
( 7.11914E27 0.0 0.0 0.0 0.0 0.0 )
( 7.11914E27 0.0 0.0 0.0 0.0 0.0 ))
(( 7.11914E27 0.0 0.0 0.0 0.0 0.0 )
( 7.11914E27 0.0 0.0 0.0 0.0 0.0 )
( 7.11914E27 0.0 0.0 0.0 0.0 0.0 )
( 7.11914E27 0.0 0.0 0.0 0.0 0.0 )
( 7.11914E27 0.0 0.0 0.0 0.0 0.0 ))
(( 7.11914E27 0.0 0.0 0.0 0.0 0.0 )
( 7.11914E27 0.0 0.0 0.0 0.0 0.0 )
( 7.11914E27 0.0 0.0 0.0 0.0 0.0 )
( 7.11914E27 0.0 0.0 0.0 0.0 0.0 )
( 7.11914E27 0.0 0.0 0.0 0.0 0.0 ))
(( 7.11914E27 0.0 0.0 0.0 0.0 0.0 )
( 7.11914E27 0.0 0.0 0.0 0.0 0.0 )
( 7.11914E27 0.0 0.0 0.0 0.0 0.0 )
( 7.11914E27 0.0 0.0 0.0 0.0 0.0 )
( 7.11914E27 0.0 0.0 0.0 0.0 0.0 )))
((( 7.11914E27 0.0 0.0 0.0 0.0 0.0 )
( 7.11914E27 0.0 0.0 0.0 0.0 0.0 )
( 7.11914E27 0.0 0.0 0.0 0.0 0.0 )
( 7.11914E27 0.0 0.0 0.0 0.0 0.0 )
( 7.11914E27 0.0 0.0 0.0 0.0 0.0 ))
(( 7.11914E27 0.0 0.0 0.0 0.0 0.0 )
( 7.11914E27 0.0 0.0 0.0 0.0 0.0 )
( 7.11914E27 0.0 0.0 0.0 0.0 0.0 )
( 7.11914E27 0.0 0.0 0.0 0.0 0.0 )
( 7.11914E27 0.0 0.0 0.0 0.0 0.0 ))
(( 7.11914E27 0.0 0.0 0.0 0.0 0.0 )
( 7.11914E27 0.0 0.0 0.0 0.0 0.0 )
( 7.11914E27 0.0 0.0 0.0 0.0 0.0 )
( 7.11914E27 0.0 0.0 0.0 0.0 0.0 )
( 7.11914E27 0.0 0.0 0.0 0.0 0.0 ))
(( 7.11914E27 0.0 0.0 0.0 0.0 0.0 )
( 7.11914E27 0.0 0.0 0.0 0.0 0.0 )
( 7.11914E27 0.0 0.0 0.0 0.0 0.0 )
( 7.11914E27 0.0 0.0 0.0 0.0 0.0 )
( 7.11914E27 0.0 0.0 0.0 0.0 0.0 ))
(( 7.11914E27 0.0 0.0 0.0 0.0 0.0 )
( 7.11914E27 0.0 0.0 0.0 0.0 0.0 )
( 7.11914E27 0.0 0.0 0.0 0.0 0.0 )
( 7.11914E27 0.0 0.0 0.0 0.0 0.0 )
( 7.11914E27 0.0 0.0 0.0 0.0 0.0 )))
((( 7.11914E27 0.0 0.0 0.0 0.0 0.0 )
( 7.11914E27 0.0 0.0 0.0 0.0 0.0 )
( 7.11914E27 0.0 0.0 0.0 0.0 0.0 )
( 7.11914E27 0.0 0.0 0.0 0.0 0.0 )
( 7.11914E27 0.0 0.0 0.0 0.0 0.0 ))
(( 7.11914E27 0.0 0.0 0.0 0.0 0.0 )
( 7.11914E27 0.0 0.0 0.0 0.0 0.0 )
( 7.11914E27 0.0 0.0 0.0 0.0 0.0 )
( 7.11914E27 0.0 0.0 0.0 0.0 0.0 )
( 7.11914E27 0.0 0.0 0.0 0.0 0.0 ))
(( 7.11914E27 0.0 0.0 0.0 0.0 0.0 )
( 7.11914E27 0.0 0.0 0.0 0.0 0.0 )
( 7.11914E27 0.0 0.0 0.0 0.0 0.0 )
( 7.11914E27 0.0 0.0 0.0 0.0 0.0 )
( 7.11914E27 0.0 0.0 0.0 0.0 0.0 ))
(( 7.11914E27 0.0 0.0 0.0 0.0 0.0 )
( 7.11914E27 0.0 0.0 0.0 0.0 0.0 )
( 7.11914E27 0.0 0.0 0.0 0.0 0.0 )
( 7.11914E27 0.0 0.0 0.0 0.0 0.0 )
( 7.11914E27 0.0 0.0 0.0 0.0 0.0 ))
(( 7.11914E27 0.0 0.0 0.0 0.0 0.0 )
( 7.11914E27 0.0 0.0 0.0 0.0 0.0 )
( 7.11914E27 0.0 0.0 0.0 0.0 0.0 )
( 7.11914E27 0.0 0.0 0.0 0.0 0.0 )
( 7.11914E27 0.0 0.0 0.0 0.0 0.0 ))))
(((( 7.11914E27 0.0 0.0 0.0 0.0 0.0 )
( 7.11914E27 0.0 0.0 0.0 0.0 0.0 )
( 7.11914E27 0.0 0.0 0.0 0.0 0.0 )
( 7.11914E27 0.0 0.0 0.0 0.0 0.0 )
( 7.11914E27 0.0 0.0 0.0 0.0 0.0 ))
(( 7.11914E27 0.0 0.0 0.0 0.0 0.0 )
( 7.11914E27 0.0 0.0 0.0 0.0 0.0 )
( 7.11914E27 0.0 0.0 0.0 0.0 0.0 )
( 7.11914E27 0.0 0.0 0.0 0.0 0.0 )
( 7.11914E27 0.0 0.0 0.0 0.0 0.0 ))
(( 7.11914E27 0.0 0.0 0.0 0.0 0.0 )
( 7.11914E27 0.0 0.0 0.0 0.0 0.0 )
( 7.11914E27 0.0 0.0 0.0 0.0 0.0 )
( 7.11914E27 0.0 0.0 0.0 0.0 0.0 )
( 7.11914E27 0.0 0.0 0.0 0.0 0.0 ))
(( 7.11914E27 0.0 0.0 0.0 0.0 0.0 )
( 7.11914E27 0.0 0.0 0.0 0.0 0.0 )
( 7.11914E27 0.0 0.0 0.0 0.0 0.0 )
( 7.11914E27 0.0 0.0 0.0 0.0 0.0 )
( 7.11914E27 0.0 0.0 0.0 0.0 0.0 ))
(( 7.11914E27 0.0 0.0 0.0 0.0 0.0 )
( 7.11914E27 0.0 0.0 0.0 0.0 0.0 )
( 7.11914E27 0.0 0.0 0.0 0.0 0.0 )
( 7.11914E27 0.0 0.0 0.0 0.0 0.0 )
( 7.11914E27 0.0 0.0 0.0 0.0 0.0 )))
((( 7.11914E27 0.0 0.0 0.0 0.0 0.0 )
( 7.11914E27 0.0 0.0 0.0 0.0 0.0 )
( 7.11914E27 0.0 0.0 0.0 0.0 0.0 )
( 7.11914E27 0.0 0.0 0.0 0.0 0.0 )
( 7.11914E27 0.0 0.0 0.0 0.0 0.0 ))
(( 7.11914E27 0.0 0.0 0.0 0.0 0.0 )
( 7.11914E27 0.0 0.0 0.0 0.0 0.0 )
( 7.11914E27 0.0 0.0 0.0 0.0 0.0 )
( 7.11914E27 0.0 0.0 0.0 0.0 0.0 )
( 7.11914E27 0.0 0.0 0.0 0.0 0.0 ))
(( 7.11914E27 0.0 0.0 0.0 0.0 0.0 )
( 7.11914E27 0.0 0.0 0.0 0.0 0.0 )
( 7.11914E27 0.0 0.0 0.0 0.0 0.0 )
( 7.11914E27 0.0 0.0 0.0 0.0 0.0 )
( 7.11914E27 0.0 0.0 0.0 0.0 0.0 ))
(( 7.11914E27 0.0 0.0 0.0 0.0 0.0 )
( 7.11914E27 0.0 0.0 0.0 0.0 0.0 )
( 7.11914E27 0.0 0.0 0.0 0.0 0.0 )
( 7.11914E27 0.0 0.0 0.0 0.0 0.0 )
( 7.11914E27 0.0 0.0 0.0 0.0 0.0 ))
(( 7.11914E27 0.0 0.0 0.0 0.0 0.0 )
( 7.11914E27 0.0 0.0 0.0 0.0 0.0 )
( 7.11914E27 0.0 0.0 0.0 0.0 0.0 )
( 7.11914E27 0.0 0.0 0.0 0.0 0.0 )
( 7.11914E27 0.0 0.0 0.0 0.0 0.0 )))
((( 7.11914E27 0.0 0.0 0.0 0.0 0.0 )
( 7.11914E27 0.0 0.0 0.0 0.0 0.0 )
( 7.11914E27 0.0 0.0 0.0 0.0 0.0 )
( 7.11914E27 0.0 0.0 0.0 0.0 0.0 )
( 7.11914E27 0.0 0.0 0.0 0.0 0.0 ))
(( 7.11914E27 0.0 0.0 0.0 0.0 0.0 )
( 7.11914E27 0.0 0.0 0.0 0.0 0.0 )
( 7.11914E27 0.0 0.0 0.0 0.0 0.0 )
( 7.11914E27 0.0 0.0 0.0 0.0 0.0 )
( 7.11914E27 0.0 0.0 0.0 0.0 0.0 ))
(( 7.11914E27 0.0 0.0 0.0 0.0 0.0 )
( 7.11914E27 0.0 0.0 0.0 0.0 0.0 )
( 7.11914E27 0.0 0.0 0.0 0.0 0.0 )
( 7.11914E27 0.0 0.0 0.0 0.0 0.0 )
( 7.11914E27 0.0 0.0 0.0 0.0 0.0 ))
(( 7.11914E27 0.0 0.0 0.0 0.0 0.0 )
( 7.11914E27 0.0 0.0 0.0 0.0 0.0 )
( 7.11914E27 0.0 0.0 0.0 0.0 0.0 )
( 7.11914E27 0.0 0.0 0.0 0.0 0.0 )
( 7.11914E27 0.0 0.0 0.0 0.0 0.0 ))
(( 7.11914E27 0.0 0.0 0.0 0.0 0.0 )
( 7.11914E27 0.0 0.0 0.0 0.0 0.0 )
( 7.11914E27 0.0 0.0 0.0 0.0 0.0 )
( 7.11914E27 0.0 0.0 0.0 0.0 0.0 )
( 7.11914E27 0.0 0.0 0.0 0.0 0.0 )))
((( 7.11914E27 0.0 0.0 0.0 0.0 0.0 )
( 7.11914E27 0.0 0.0 0.0 0.0 0.0 )
( 7.11914E27 0.0 0.0 0.0 0.0 0.0 )
( 7.11914E27 0.0 0.0 0.0 0.0 0.0 )
( 7.11914E27 0.0 0.0 0.0 0.0 0.0 ))
(( 7.11914E27 0.0 0.0 0.0 0.0 0.0 )
( 7.11914E27 0.0 0.0 0.0 0.0 0.0 )
( 7.11914E27 0.0 0.0 0.0 0.0 0.0 )
( 7.11914E27 0.0 0.0 0.0 0.0 0.0 )
( 7.11914E27 0.0 0.0 0.0 0.0 0.0 ))
(( 7.11914E27 0.0 0.0 0.0 0.0 0.0 )
( 7.11914E27 0.0 0.0 0.0 0.0 0.0 )
( 7.11914E27 0.0 0.0 0.0 0.0 0.0 )
( 7.11914E27 0.0 0.0 0.0 0.0 0.0 )
( 7.11914E27 0.0 0.0 0.0 0.0 0.0 ))
(( 7.11914E27 0.0 0.0 0.0 0.0 0.0 )
( 7.11914E27 0.0 0.0 0.0 0.0 0.0 )
( 7.11914E27 0.0 0.0 0.0 0.0 0.0 )
( 7.11914E27 0.0 0.0 0.0 0.0 0.0 )
( 7.11914E27 0.0 0.0 0.0 0.0 0.0 ))
(( 7.11914E27 0.0 0.0 0.0 0.0 0.0 )
( 7.11914E27 0.0 0.0 0.0 0.0 0.0 )
( 7.11914E27 0.0 0.0 0.0 0.0 0.0 )
( 7.11914E27 0.0 0.0 0.0 0.0 0.0 )
( 7.11914E27 0.0 0.0 0.0 0.0 0.0 )))
((( 7.11914E27 0.0 0.0 0.0 0.0 0.0 )
( 7.11914E27 0.0 0.0 0.0 0.0 0.0 )
( 7.11914E27 0.0 0.0 0.0 0.0 0.0 )
( 7.11914E27 0.0 0.0 0.0 0.0 0.0 )
( 7.11914E27 0.0 0.0 0.0 0.0 0.0 ))
(( 7.11914E27 0.0 0.0 0.0 0.0 0.0 )
( 7.11914E27 0.0 0.0 0.0 0.0 0.0 )
( 7.11914E27 0.0 0.0 0.0 0.0 0.0 )
( 7.11914E27 0.0 0.0 0.0 0.0 0.0 )
( 7.11914E27 0.0 0.0 0.0 0.0 0.0 ))
(( 7.11914E27 0.0 0.0 0.0 0.0 0.0 )
( 7.11914E27 0.0 0.0 0.0 0.0 0.0 )
( 7.11914E27 0.0 0.0 0.0 0.0 0.0 )
( 7.11914E27 0.0 0.0 0.0 0.0 0.0 )
( 7.11914E27 0.0 0.0 0.0 0.0 0.0 ))
(( 7.11914E27 0.0 0.0 0.0 0.0 0.0 )
( 7.11914E27 0.0 0.0 0.0 0.0 0.0 )
( 7.11914E27 0.0 0.0 0.0 0.0 0.0 )
( 7.11914E27 0.0 0.0 0.0 0.0 0.0 )
( 7.11914E27 0.0 0.0 0.0 0.0 0.0 ))
(( 7.11914E27 0.0 0.0 0.0 0.0 0.0 )
( 7.11914E27 0.0 0.0 0.0 0.0 0.0 )
( 7.11914E27 0.0 0.0 0.0 0.0 0.0 )
( 7.11914E27 0.0 0.0 0.0 0.0 0.0 )
( 7.11914E27 0.0 0.0 0.0 0.0 0.0 ))))
(((( 7.11914E27 0.0 0.0 0.0 0.0 0.0 )
( 7.11914E27 0.0 0.0 0.0 0.0 0.0 )
( 7.11914E27 0.0 0.0 0.0 0.0 0.0 )
( 7.11914E27 0.0 0.0 0.0 0.0 0.0 )
( 7.11914E27 0.0 0.0 0.0 0.0 0.0 ))
(( 7.11914E27 0.0 0.0 0.0 0.0 0.0 )
( 7.11914E27 0.0 0.0 0.0 0.0 0.0 )
( 7.11914E27 0.0 0.0 0.0 0.0 0.0 )
( 7.11914E27 0.0 0.0 0.0 0.0 0.0 )
( 7.11914E27 0.0 0.0 0.0 0.0 0.0 ))
(( 7.11914E27 0.0 0.0 0.0 0.0 0.0 )
( 7.11914E27 0.0 0.0 0.0 0.0 0.0 )
( 7.11914E27 0.0 0.0 0.0 0.0 0.0 )
( 7.11914E27 0.0 0.0 0.0 0.0 0.0 )
( 7.11914E27 0.0 0.0 0.0 0.0 0.0 ))
(( 7.11914E27 0.0 0.0 0.0 0.0 0.0 )
( 7.11914E27 0.0 0.0 0.0 0.0 0.0 )
( 7.11914E27 0.0 0.0 0.0 0.0 0.0 )
( 7.11914E27 0.0 0.0 0.0 0.0 0.0 )
( 7.11914E27 0.0 0.0 0.0 0.0 0.0 ))
(( 7.11914E27 0.0 0.0 0.0 0.0 0.0 )
( 7.11914E27 0.0 0.0 0.0 0.0 0.0 )
( 7.11914E27 0.0 0.0 0.0 0.0 0.0 )
( 7.11914E27 0.0 0.0 0.0 0.0 0.0 )
( 7.11914E27 0.0 0.0 0.0 0.0 0.0 )))
((( 7.11914E27 0.0 0.0 0.0 0.0 0.0 )
( 7.11914E27 0.0 0.0 0.0 0.0 0.0 )
( 7.11914E27 0.0 0.0 0.0 0.0 0.0 )
( 7.11914E27 0.0 0.0 0.0 0.0 0.0 )
( 7.11914E27 0.0 0.0 0.0 0.0 0.0 ))
(( 7.11914E27 0.0 0.0 0.0 0.0 0.0 )
( 7.11914E27 0.0 0.0 0.0 0.0 0.0 )
( 7.11914E27 0.0 0.0 0.0 0.0 0.0 )
( 7.11914E27 0.0 0.0 0.0 0.0 0.0 )
( 7.11914E27 0.0 0.0 0.0 0.0 0.0 ))
(( 7.11914E27 0.0 0.0 0.0 0.0 0.0 )
( 7.11914E27 0.0 0.0 0.0 0.0 0.0 )
( 7.11914E27 0.0 0.0 0.0 0.0 0.0 )
( 7.11914E27 0.0 0.0 0.0 0.0 0.0 )
( 7.11914E27 0.0 0.0 0.0 0.0 0.0 ))
(( 7.11914E27 0.0 0.0 0.0 0.0 0.0 )
( 7.11914E27 0.0 0.0 0.0 0.0 0.0 )
( 7.11914E27 0.0 0.0 0.0 0.0 0.0 )
( 7.11914E27 0.0 0.0 0.0 0.0 0.0 )
( 7.11914E27 0.0 0.0 0.0 0.0 0.0 ))
(( 7.11914E27 0.0 0.0 0.0 0.0 0.0 )
( 7.11914E27 0.0 0.0 0.0 0.0 0.0 )
( 7.11914E27 0.0 0.0 0.0 0.0 0.0 )
( 7.11914E27 0.0 0.0 0.0 0.0 0.0 )
( 7.11914E27 0.0 0.0 0.0 0.0 0.0 )))
((( 7.11914E27 0.0 0.0 0.0 0.0 0.0 )
( 7.11914E27 0.0 0.0 0.0 0.0 0.0 )
( 7.11914E27 0.0 0.0 0.0 0.0 0.0 )
( 7.11914E27 0.0 0.0 0.0 0.0 0.0 )
( 7.11914E27 0.0 0.0 0.0 0.0 0.0 ))
(( 7.11914E27 0.0 0.0 0.0 0.0 0.0 )
( 7.11914E27 0.0 0.0 0.0 0.0 0.0 )
( 7.11914E27 0.0 0.0 0.0 0.0 0.0 )
( 7.11914E27 0.0 0.0 0.0 0.0 0.0 )
( 7.11914E27 0.0 0.0 0.0 0.0 0.0 ))
(( 7.11914E27 0.0 0.0 0.0 0.0 0.0 )
( 7.11914E27 0.0 0.0 0.0 0.0 0.0 )
( 7.11914E27 0.0 0.0 0.0 0.0 0.0 )
( 7.11914E27 0.0 0.0 0.0 0.0 0.0 )
( 7.11914E27 0.0 0.0 0.0 0.0 0.0 ))
(( 7.11914E27 0.0 0.0 0.0 0.0 0.0 )
( 7.11914E27 0.0 0.0 0.0 0.0 0.0 )
( 7.11914E27 0.0 0.0 0.0 0.0 0.0 )
( 7.11914E27 0.0 0.0 0.0 0.0 0.0 )
( 7.11914E27 0.0 0.0 0.0 0.0 0.0 ))
(( 7.11914E27 0.0 0.0 0.0 0.0 0.0 )
( 7.11914E27 0.0 0.0 0.0 0.0 0.0 )
( 7.11914E27 0.0 0.0 0.0 0.0 0.0 )
( 7.11914E27 0.0 0.0 0.0 0.0 0.0 )
( 7.11914E27 0.0 0.0 0.0 0.0 0.0 )))
((( 7.11914E27 0.0 0.0 0.0 0.0 0.0 )
( 7.11914E27 0.0 0.0 0.0 0.0 0.0 )
( 7.11914E27 0.0 0.0 0.0 0.0 0.0 )
( 7.11914E27 0.0 0.0 0.0 0.0 0.0 )
( 7.11914E27 0.0 0.0 0.0 0.0 0.0 ))
(( 7.11914E27 0.0 0.0 0.0 0.0 0.0 )
( 7.11914E27 0.0 0.0 0.0 0.0 0.0 )
( 7.11914E27 0.0 0.0 0.0 0.0 0.0 )
( 7.11914E27 0.0 0.0 0.0 0.0 0.0 )
( 7.11914E27 0.0 0.0 0.0 0.0 0.0 ))
(( 7.11914E27 0.0 0.0 0.0 0.0 0.0 )
( 7.11914E27 0.0 0.0 0.0 0.0 0.0 )
( 7.11914E27 0.0 0.0 0.0 0.0 0.0 )
( 7.11914E27 0.0 0.0 0.0 0.0 0.0 )
( 7.11914E27 0.0 0.0 0.0 0.0 0.0 ))
(( 7.11914E27 0.0 0.0 0.0 0.0 0.0 )
( 7.11914E27 0.0 0.0 0.0 0.0 0.0 )
( 7.11914E27 0.0 0.0 0.0 0.0 0.0 )
( 7.11914E27 0.0 0.0 0.0 0.0 0.0 )
( 7.11914E27 0.0 0.0 0.0 0.0 0.0 ))
(( 7.11914E27 0.0 0.0 0.0 0.0 0.0 )
( 7.11914E27 0.0 0.0 0.0 0.0 0.0 )
( 7.11914E27 0.0 0.0 0.0 0.0 0.0 )
( 7.11914E27 0.0 0.0 0.0 0.0 0.0 )
( 7.11914E27 0.0 0.0 0.0 0.0 0.0 )))
((( 7.11914E27 0.0 0.0 0.0 0.0 0.0 )
( 7.11914E27 0.0 0.0 0.0 0.0 0.0 )
( 7.11914E27 0.0 0.0 0.0 0.0 0.0 )
( 7.11914E27 0.0 0.0 0.0 0.0 0.0 )
( 7.11914E27 0.0 0.0 0.0 0.0 0.0 ))
(( 7.11914E27 0.0 0.0 0.0 0.0 0.0 )
( 7.11914E27 0.0 0.0 0.0 0.0 0.0 )
( 7.11914E27 0.0 0.0 0.0 0.0 0.0 )
( 7.11914E27 0.0 0.0 0.0 0.0 0.0 )
( 7.11914E27 0.0 0.0 0.0 0.0 0.0 ))
(( 7.11914E27 0.0 0.0 0.0 0.0 0.0 )
( 7.11914E27 0.0 0.0 0.0 0.0 0.0 )
( 7.11914E27 0.0 0.0 0.0 0.0 0.0 )
( 7.11914E27 0.0 0.0 0.0 0.0 0.0 )
( 7.11914E27 0.0 0.0 0.0 0.0 0.0 ))
(( 7.11914E27 0.0 0.0 0.0 0.0 0.0 )
( 7.11914E27 0.0 0.0 0.0 0.0 0.0 )
( 7.11914E27 0.0 0.0 0.0 0.0 0.0 )
( 7.11914E27 0.0 0.0 0.0 0.0 0.0 )
( 7.11914E27 0.0 0.0 0.0 0.0 0.0 ))
(( 7.11914E27 0.0 0.0 0.0 0.0 0.0 )
( 7.11914E27 0.0 0.0 0.0 0.0 0.0 )
( 7.11914E27 0.0 0.0 0.0 0.0 0.0 )
( 7.11914E27 0.0 0.0 0.0 0.0 0.0 )
( 7.11914E27 0.0 0.0 0.0 0.0 0.0 ))))
(((( 7.11914E27 0.0 0.0 0.0 0.0 0.0 )
( 7.11914E27 0.0 0.0 0.0 0.0 0.0 )
( 7.11914E27 0.0 0.0 0.0 0.0 0.0 )
( 7.11914E27 0.0 0.0 0.0 0.0 0.0 )
( 7.11914E27 0.0 0.0 0.0 0.0 0.0 ))
(( 7.11914E27 0.0 0.0 0.0 0.0 0.0 )
( 7.11914E27 0.0 0.0 0.0 0.0 0.0 )
( 7.11914E27 0.0 0.0 0.0 0.0 0.0 )
( 7.11914E27 0.0 0.0 0.0 0.0 0.0 )
( 7.11914E27 0.0 0.0 0.0 0.0 0.0 ))
(( 7.11914E27 0.0 0.0 0.0 0.0 0.0 )
( 7.11914E27 0.0 0.0 0.0 0.0 0.0 )
( 7.11914E27 0.0 0.0 0.0 0.0 0.0 )
( 7.11914E27 0.0 0.0 0.0 0.0 0.0 )
( 7.11914E27 0.0 0.0 0.0 0.0 0.0 ))
(( 7.11914E27 0.0 0.0 0.0 0.0 0.0 )
( 7.11914E27 0.0 0.0 0.0 0.0 0.0 )
( 7.11914E27 0.0 0.0 0.0 0.0 0.0 )
( 7.11914E27 0.0 0.0 0.0 0.0 0.0 )
( 7.11914E27 0.0 0.0 0.0 0.0 0.0 ))
(( 7.11914E27 0.0 0.0 0.0 0.0 0.0 )
( 7.11914E27 0.0 0.0 0.0 0.0 0.0 )
( 7.11914E27 0.0 0.0 0.0 0.0 0.0 )
( 7.11914E27 0.0 0.0 0.0 0.0 0.0 )
( 7.11914E27 0.0 0.0 0.0 0.0 0.0 )))
((( 7.11914E27 0.0 0.0 0.0 0.0 0.0 )
( 7.11914E27 0.0 0.0 0.0 0.0 0.0 )
( 7.11914E27 0.0 0.0 0.0 0.0 0.0 )
( 7.11914E27 0.0 0.0 0.0 0.0 0.0 )
( 7.11914E27 0.0 0.0 0.0 0.0 0.0 ))
(( 7.11914E27 0.0 0.0 0.0 0.0 0.0 )
( 7.11914E27 0.0 0.0 0.0 0.0 0.0 )
( 7.11914E27 0.0 0.0 0.0 0.0 0.0 )
( 7.11914E27 0.0 0.0 0.0 0.0 0.0 )
( 7.11914E27 0.0 0.0 0.0 0.0 0.0 ))
(( 7.11914E27 0.0 0.0 0.0 0.0 0.0 )
( 7.11914E27 0.0 0.0 0.0 0.0 0.0 )
( 7.11914E27 0.0 0.0 0.0 0.0 0.0 )
( 7.11914E27 0.0 0.0 0.0 0.0 0.0 )
( 7.11914E27 0.0 0.0 0.0 0.0 0.0 ))
(( 7.11914E27 0.0 0.0 0.0 0.0 0.0 )
( 7.11914E27 0.0 0.0 0.0 0.0 0.0 )
( 7.11914E27 0.0 0.0 0.0 0.0 0.0 )
( 7.11914E27 0.0 0.0 0.0 0.0 0.0 )
( 7.11914E27 0.0 0.0 0.0 0.0 0.0 ))
(( 7.11914E27 0.0 0.0 0.0 0.0 0.0 )
( 7.11914E27 0.0 0.0 0.0 0.0 0.0 )
( 7.11914E27 0.0 0.0 0.0 0.0 0.0 )
( 7.11914E27 0.0 0.0 0.0 0.0 0.0 )
( 7.11914E27 0.0 0.0 0.0 0.0 0.0 )))
((( 7.11914E27 0.0 0.0 0.0 0.0 0.0 )
( 7.11914E27 0.0 0.0 0.0 0.0 0.0 )
( 7.11914E27 0.0 0.0 0.0 0.0 0.0 )
( 7.11914E27 0.0 0.0 0.0 0.0 0.0 )
( 7.11914E27 0.0 0.0 0.0 0.0 0.0 ))
(( 7.11914E27 0.0 0.0 0.0 0.0 0.0 )
( 7.11914E27 0.0 0.0 0.0 0.0 0.0 )
( 7.11914E27 0.0 0.0 0.0 0.0 0.0 )
( 7.11914E27 0.0 0.0 0.0 0.0 0.0 )
( 7.11914E27 0.0 0.0 0.0 0.0 0.0 ))
(( 7.11914E27 0.0 0.0 0.0 0.0 0.0 )
( 7.11914E27 0.0 0.0 0.0 0.0 0.0 )
( 7.11914E27 0.0 0.0 0.0 0.0 0.0 )
( 7.11914E27 0.0 0.0 0.0 0.0 0.0 )
( 7.11914E27 0.0 0.0 0.0 0.0 0.0 ))
(( 7.11914E27 0.0 0.0 0.0 0.0 0.0 )
( 7.11914E27 0.0 0.0 0.0 0.0 0.0 )
( 7.11914E27 0.0 0.0 0.0 0.0 0.0 )
( 7.11914E27 0.0 0.0 0.0 0.0 0.0 )
( 7.11914E27 0.0 0.0 0.0 0.0 0.0 ))
(( 7.11914E27 0.0 0.0 0.0 0.0 0.0 )
( 7.11914E27 0.0 0.0 0.0 0.0 0.0 )
( 7.11914E27 0.0 0.0 0.0 0.0 0.0 )
( 7.11914E27 0.0 0.0 0.0 0.0 0.0 )
( 7.11914E27 0.0 0.0 0.0 0.0 0.0 )))
((( 7.11914E27 0.0 0.0 0.0 0.0 0.0 )
( 7.11914E27 0.0 0.0 0.0 0.0 0.0 )
( 7.11914E27 0.0 0.0 0.0 0.0 0.0 )
( 7.11914E27 0.0 0.0 0.0 0.0 0.0 )
( 7.11914E27 0.0 0.0 0.0 0.0 0.0 ))
(( 7.11914E27 0.0 0.0 0.0 0.0 0.0 )
( 7.11914E27 0.0 0.0 0.0 0.0 0.0 )
( 7.11914E27 0.0 0.0 0.0 0.0 0.0 )
( 7.11914E27 0.0 0.0 0.0 0.0 0.0 )
( 7.11914E27 0.0 0.0 0.0 0.0 0.0 ))
(( 7.11914E27 0.0 0.0 0.0 0.0 0.0 )
( 7.11914E27 0.0 0.0 0.0 0.0 0.0 )
( 7.11914E27 0.0 0.0 0.0 0.0 0.0 )
( 7.11914E27 0.0 0.0 0.0 0.0 0.0 )
( 7.11914E27 0.0 0.0 0.0 0.0 0.0 ))
(( 7.11914E27 0.0 0.0 0.0 0.0 0.0 )
( 7.11914E27 0.0 0.0 0.0 0.0 0.0 )
( 7.11914E27 0.0 0.0 0.0 0.0 0.0 )
( 7.11914E27 0.0 0.0 0.0 0.0 0.0 )
( 7.11914E27 0.0 0.0 0.0 0.0 0.0 ))
(( 7.11914E27 0.0 0.0 0.0 0.0 0.0 )
( 7.11914E27 0.0 0.0 0.0 0.0 0.0 )
( 7.11914E27 0.0 0.0 0.0 0.0 0.0 )
( 7.11914E27 0.0 0.0 0.0 0.0 0.0 )
( 7.11914E27 0.0 0.0 0.0 0.0 0.0 )))
((( 7.11914E27 0.0 0.0 0.0 0.0 0.0 )
( 7.11914E27 0.0 0.0 0.0 0.0 0.0 )
( 7.11914E27 0.0 0.0 0.0 0.0 0.0 )
( 7.11914E27 0.0 0.0 0.0 0.0 0.0 )
( 7.11914E27 0.0 0.0 0.0 0.0 0.0 ))
(( 7.11914E27 0.0 0.0 0.0 0.0 0.0 )
( 7.11914E27 0.0 0.0 0.0 0.0 0.0 )
( 7.11914E27 0.0 0.0 0.0 0.0 0.0 )
( 7.11914E27 0.0 0.0 0.0 0.0 0.0 )
( 7.11914E27 0.0 0.0 0.0 0.0 0.0 ))
(( 7.11914E27 0.0 0.0 0.0 0.0 0.0 )
( 7.11914E27 0.0 0.0 0.0 0.0 0.0 )
( 7.11914E27 0.0 0.0 0.0 0.0 0.0 )
( 7.11914E27 0.0 0.0 0.0 0.0 0.0 )
( 7.11914E27 0.0 0.0 0.0 0.0 0.0 ))
(( 7.11914E27 0.0 0.0 0.0 0.0 0.0 )
( 7.11914E27 0.0 0.0 0.0 0.0 0.0 )
( 7.11914E27 0.0 0.0 0.0 0.0 0.0 )
( 7.11914E27 0.0 0.0 0.0 0.0 0.0 )
( 7.11914E27 0.0 0.0 0.0 0.0 0.0 ))
(( 7.11914E27 0.0 0.0 0.0 0.0 0.0 )
( 7.11914E27 0.0 0.0 0.0 0.0 0.0 )
( 7.11914E27 0.0 0.0 0.0 0.0 0.0 )
( 7.11914E27 0.0 0.0 0.0 0.0 0.0 )
( 7.11914E27 0.0 0.0 0.0 0.0 0.0 ))))
(((( 7.11914E27 0.0 0.0 0.0 0.0 0.0 )
( 7.11914E27 0.0 0.0 0.0 0.0 0.0 )
( 7.11914E27 0.0 0.0 0.0 0.0 0.0 )
( 7.11914E27 0.0 0.0 0.0 0.0 0.0 )
( 7.11914E27 0.0 0.0 0.0 0.0 0.0 ))
(( 7.11914E27 0.0 0.0 0.0 0.0 0.0 )
( 7.11914E27 0.0 0.0 0.0 0.0 0.0 )
( 7.11914E27 0.0 0.0 0.0 0.0 0.0 )
( 7.11914E27 0.0 0.0 0.0 0.0 0.0 )
( 7.11914E27 0.0 0.0 0.0 0.0 0.0 ))
(( 7.11914E27 0.0 0.0 0.0 0.0 0.0 )
( 7.11914E27 0.0 0.0 0.0 0.0 0.0 )
( 7.11914E27 0.0 0.0 0.0 0.0 0.0 )
( 7.11914E27 0.0 0.0 0.0 0.0 0.0 )
( 7.11914E27 0.0 0.0 0.0 0.0 0.0 ))
(( 7.11914E27 0.0 0.0 0.0 0.0 0.0 )
( 7.11914E27 0.0 0.0 0.0 0.0 0.0 )
( 7.11914E27 0.0 0.0 0.0 0.0 0.0 )
( 7.11914E27 0.0 0.0 0.0 0.0 0.0 )
( 7.11914E27 0.0 0.0 0.0 0.0 0.0 ))
(( 7.11914E27 0.0 0.0 0.0 0.0 0.0 )
( 7.11914E27 0.0 0.0 0.0 0.0 0.0 )
( 7.11914E27 0.0 0.0 0.0 0.0 0.0 )
( 7.11914E27 0.0 0.0 0.0 0.0 0.0 )
( 7.11914E27 0.0 0.0 0.0 0.0 0.0 )))
((( 7.11914E27 0.0 0.0 0.0 0.0 0.0 )
( 7.11914E27 0.0 0.0 0.0 0.0 0.0 )
( 7.11914E27 0.0 0.0 0.0 0.0 0.0 )
( 7.11914E27 0.0 0.0 0.0 0.0 0.0 )
( 7.11914E27 0.0 0.0 0.0 0.0 0.0 ))
(( 7.11914E27 0.0 0.0 0.0 0.0 0.0 )
( 7.11914E27 0.0 0.0 0.0 0.0 0.0 )
( 7.11914E27 0.0 0.0 0.0 0.0 0.0 )
( 7.11914E27 0.0 0.0 0.0 0.0 0.0 )
( 7.11914E27 0.0 0.0 0.0 0.0 0.0 ))
(( 7.11914E27 0.0 0.0 0.0 0.0 0.0 )
( 7.11914E27 0.0 0.0 0.0 0.0 0.0 )
( 7.11914E27 0.0 0.0 0.0 0.0 0.0 )
( 7.11914E27 0.0 0.0 0.0 0.0 0.0 )
( 7.11914E27 0.0 0.0 0.0 0.0 0.0 ))
(( 7.11914E27 0.0 0.0 0.0 0.0 0.0 )
( 7.11914E27 0.0 0.0 0.0 0.0 0.0 )
( 7.11914E27 0.0 0.0 0.0 0.0 0.0 )
( 7.11914E27 0.0 0.0 0.0 0.0 0.0 )
( 7.11914E27 0.0 0.0 0.0 0.0 0.0 ))
(( 7.11914E27 0.0 0.0 0.0 0.0 0.0 )
( 7.11914E27 0.0 0.0 0.0 0.0 0.0 )
( 7.11914E27 0.0 0.0 0.0 0.0 0.0 )
( 7.11914E27 0.0 0.0 0.0 0.0 0.0 )
( 7.11914E27 0.0 0.0 0.0 0.0 0.0 )))
((( 7.11914E27 0.0 0.0 0.0 0.0 0.0 )
( 7.11914E27 0.0 0.0 0.0 0.0 0.0 )
( 7.11914E27 0.0 0.0 0.0 0.0 0.0 )
( 7.11914E27 0.0 0.0 0.0 0.0 0.0 )
( 7.11914E27 0.0 0.0 0.0 0.0 0.0 ))
(( 7.11914E27 0.0 0.0 0.0 0.0 0.0 )
( 7.11914E27 0.0 0.0 0.0 0.0 0.0 )
( 7.11914E27 0.0 0.0 0.0 0.0 0.0 )
( 7.11914E27 0.0 0.0 0.0 0.0 0.0 )
( 7.11914E27 0.0 0.0 0.0 0.0 0.0 ))
(( 7.11914E27 0.0 0.0 0.0 0.0 0.0 )
( 7.11914E27 0.0 0.0 0.0 0.0 0.0 )
( 7.11914E27 0.0 0.0 0.0 0.0 0.0 )
( 7.11914E27 0.0 0.0 0.0 0.0 0.0 )
( 7.11914E27 0.0 0.0 0.0 0.0 0.0 ))
(( 7.11914E27 0.0 0.0 0.0 0.0 0.0 )
( 7.11914E27 0.0 0.0 0.0 0.0 0.0 )
( 7.11914E27 0.0 0.0 0.0 0.0 0.0 )
( 7.11914E27 0.0 0.0 0.0 0.0 0.0 )
( 7.11914E27 0.0 0.0 0.0 0.0 0.0 ))
(( 7.11914E27 0.0 0.0 0.0 0.0 0.0 )
( 7.11914E27 0.0 0.0 0.0 0.0 0.0 )
( 7.11914E27 0.0 0.0 0.0 0.0 0.0 )
( 7.11914E27 0.0 0.0 0.0 0.0 0.0 )
( 7.11914E27 0.0 0.0 0.0 0.0 0.0 )))
((( 7.11914E27 0.0 0.0 0.0 0.0 0.0 )
( 7.11914E27 0.0 0.0 0.0 0.0 0.0 )
( 7.11914E27 0.0 0.0 0.0 0.0 0.0 )
( 7.11914E27 0.0 0.0 0.0 0.0 0.0 )
( 7.11914E27 0.0 0.0 0.0 0.0 0.0 ))
(( 7.11914E27 0.0 0.0 0.0 0.0 0.0 )
( 7.11914E27 0.0 0.0 0.0 0.0 0.0 )
( 7.11914E27 0.0 0.0 0.0 0.0 0.0 )
( 7.11914E27 0.0 0.0 0.0 0.0 0.0 )
( 7.11914E27 0.0 0.0 0.0 0.0 0.0 ))
(( 7.11914E27 0.0 0.0 0.0 0.0 0.0 )
( 7.11914E27 0.0 0.0 0.0 0.0 0.0 )
( 7.11914E27 0.0 0.0 0.0 0.0 0.0 )
( 7.11914E27 0.0 0.0 0.0 0.0 0.0 )
( 7.11914E27 0.0 0.0 0.0 0.0 0.0 ))
(( 7.11914E27 0.0 0.0 0.0 0.0 0.0 )
( 7.11914E27 0.0 0.0 0.0 0.0 0.0 )
( 7.11914E27 0.0 0.0 0.0 0.0 0.0 )
( 7.11914E27 0.0 0.0 0.0 0.0 0.0 )
( 7.11914E27 0.0 0.0 0.0 0.0 0.0 ))
(( 7.11914E27 0.0 0.0 0.0 0.0 0.0 )
( 7.11914E27 0.0 0.0 0.0 0.0 0.0 )
( 7.11914E27 0.0 0.0 0.0 0.0 0.0 )
( 7.11914E27 0.0 0.0 0.0 0.0 0.0 )
( 7.11914E27 0.0 0.0 0.0 0.0 0.0 )))
((( 7.11914E27 0.0 0.0 0.0 0.0 0.0 )
( 7.11914E27 0.0 0.0 0.0 0.0 0.0 )
( 7.11914E27 0.0 0.0 0.0 0.0 0.0 )
( 7.11914E27 0.0 0.0 0.0 0.0 0.0 )
( 7.11914E27 0.0 0.0 0.0 0.0 0.0 ))
(( 7.11914E27 0.0 0.0 0.0 0.0 0.0 )
( 7.11914E27 0.0 0.0 0.0 0.0 0.0 )
( 7.11914E27 0.0 0.0 0.0 0.0 0.0 )
( 7.11914E27 0.0 0.0 0.0 0.0 0.0 )
( 7.11914E27 0.0 0.0 0.0 0.0 0.0 ))
(( 7.11914E27 0.0 0.0 0.0 0.0 0.0 )
( 7.11914E27 0.0 0.0 0.0 0.0 0.0 )
( 7.11914E27 0.0 0.0 0.0 0.0 0.0 )
( 7.11914E27 0.0 0.0 0.0 0.0 0.0 )
( 7.11914E27 0.0 0.0 0.0 0.0 0.0 ))
(( 7.11914E27 0.0 0.0 0.0 0.0 0.0 )
( 7.11914E27 0.0 0.0 0.0 0.0 0.0 )
( 7.11914E27 0.0 0.0 0.0 0.0 0.0 )
( 7.11914E27 0.0 0.0 0.0 0.0 0.0 )
( 7.11914E27 0.0 0.0 0.0 0.0 0.0 ))
(( 7.11914E27 0.0 0.0 0.0 0.0 0.0 )
( 7.11914E27 0.0 0.0 0.0 0.0 0.0 )
( 7.11914E27 0.0 0.0 0.0 0.0 0.0 )
( 7.11914E27 0.0 0.0 0.0 0.0 0.0 )
( 7.11914E27 0.0 0.0 0.0 0.0 0.0 )))))
((((( 7.11914E27 0.0 0.0 0.0 0.0 0.0 )
( 7.11914E27 0.0 0.0 0.0 0.0 0.0 )
( 7.11914E27 0.0 0.0 0.0 0.0 0.0 )
( 7.11914E27 0.0 0.0 0.0 0.0 0.0 )
( 7.11914E27 0.0 0.0 0.0 0.0 0.0 ))
(( 7.11914E27 0.0 0.0 0.0 0.0 0.0 )
( 7.11914E27 0.0 0.0 0.0 0.0 0.0 )
( 7.11914E27 0.0 0.0 0.0 0.0 0.0 )
( 7.11914E27 0.0 0.0 0.0 0.0 0.0 )
( 7.11914E27 0.0 0.0 0.0 0.0 0.0 ))
(( 7.11914E27 0.0 0.0 0.0 0.0 0.0 )
( 7.11914E27 0.0 0.0 0.0 0.0 0.0 )
( 7.11914E27 0.0 0.0 0.0 0.0 0.0 )
( 7.11914E27 0.0 0.0 0.0 0.0 0.0 )
( 7.11914E27 0.0 0.0 0.0 0.0 0.0 ))
(( 7.11914E27 0.0 0.0 0.0 0.0 0.0 )
( 7.11914E27 0.0 0.0 0.0 0.0 0.0 )
( 7.11914E27 0.0 0.0 0.0 0.0 0.0 )
( 7.11914E27 0.0 0.0 0.0 0.0 0.0 )
( 7.11914E27 0.0 0.0 0.0 0.0 0.0 ))
(( 7.11914E27 0.0 0.0 0.0 0.0 0.0 )
( 7.11914E27 0.0 0.0 0.0 0.0 0.0 )
( 7.11914E27 0.0 0.0 0.0 0.0 0.0 )
( 7.11914E27 0.0 0.0 0.0 0.0 0.0 )
( 7.11914E27 0.0 0.0 0.0 0.0 0.0 )))
((( 7.11914E27 0.0 0.0 0.0 0.0 0.0 )
( 7.11914E27 0.0 0.0 0.0 0.0 0.0 )
( 7.11914E27 0.0 0.0 0.0 0.0 0.0 )
( 7.11914E27 0.0 0.0 0.0 0.0 0.0 )
( 7.11914E27 0.0 0.0 0.0 0.0 0.0 ))
(( 7.11914E27 0.0 0.0 0.0 0.0 0.0 )
( 7.11914E27 0.0 0.0 0.0 0.0 0.0 )
( 7.11914E27 0.0 0.0 0.0 0.0 0.0 )
( 7.11914E27 0.0 0.0 0.0 0.0 0.0 )
( 7.11914E27 0.0 0.0 0.0 0.0 0.0 ))
(( 7.11914E27 0.0 0.0 0.0 0.0 0.0 )
( 7.11914E27 0.0 0.0 0.0 0.0 0.0 )
( 7.11914E27 0.0 0.0 0.0 0.0 0.0 )
( 7.11914E27 0.0 0.0 0.0 0.0 0.0 )
( 7.11914E27 0.0 0.0 0.0 0.0 0.0 ))
(( 7.11914E27 0.0 0.0 0.0 0.0 0.0 )
( 7.11914E27 0.0 0.0 0.0 0.0 0.0 )
( 7.11914E27 0.0 0.0 0.0 0.0 0.0 )
( 7.11914E27 0.0 0.0 0.0 0.0 0.0 )
( 7.11914E27 0.0 0.0 0.0 0.0 0.0 ))
(( 7.11914E27 0.0 0.0 0.0 0.0 0.0 )
( 7.11914E27 0.0 0.0 0.0 0.0 0.0 )
( 7.11914E27 0.0 0.0 0.0 0.0 0.0 )
( 7.11914E27 0.0 0.0 0.0 0.0 0.0 )
( 7.11914E27 0.0 0.0 0.0 0.0 0.0 )))
((( 7.11914E27 0.0 0.0 0.0 0.0 0.0 )
( 7.11914E27 0.0 0.0 0.0 0.0 0.0 )
( 7.11914E27 0.0 0.0 0.0 0.0 0.0 )
( 7.11914E27 0.0 0.0 0.0 0.0 0.0 )
( 7.11914E27 0.0 0.0 0.0 0.0 0.0 ))
(( 7.11914E27 0.0 0.0 0.0 0.0 0.0 )
( 7.11914E27 0.0 0.0 0.0 0.0 0.0 )
( 7.11914E27 0.0 0.0 0.0 0.0 0.0 )
( 7.11914E27 0.0 0.0 0.0 0.0 0.0 )
( 7.11914E27 0.0 0.0 0.0 0.0 0.0 ))
(( 7.11914E27 0.0 0.0 0.0 0.0 0.0 )
( 7.11914E27 0.0 0.0 0.0 0.0 0.0 )
( 7.11914E27 0.0 0.0 0.0 0.0 0.0 )
( 7.11914E27 0.0 0.0 0.0 0.0 0.0 )
( 7.11914E27 0.0 0.0 0.0 0.0 0.0 ))
(( 7.11914E27 0.0 0.0 0.0 0.0 0.0 )
( 7.11914E27 0.0 0.0 0.0 0.0 0.0 )
( 7.11914E27 0.0 0.0 0.0 0.0 0.0 )
( 7.11914E27 0.0 0.0 0.0 0.0 0.0 )
( 7.11914E27 0.0 0.0 0.0 0.0 0.0 ))
(( 7.11914E27 0.0 0.0 0.0 0.0 0.0 )
( 7.11914E27 0.0 0.0 0.0 0.0 0.0 )
( 7.11914E27 0.0 0.0 0.0 0.0 0.0 )
( 7.11914E27 0.0 0.0 0.0 0.0 0.0 )
( 7.11914E27 0.0 0.0 0.0 0.0 0.0 )))
((( 7.11914E27 0.0 0.0 0.0 0.0 0.0 )
( 7.11914E27 0.0 0.0 0.0 0.0 0.0 )
( 7.11914E27 0.0 0.0 0.0 0.0 0.0 )
( 7.11914E27 0.0 0.0 0.0 0.0 0.0 )
( 7.11914E27 0.0 0.0 0.0 0.0 0.0 ))
(( 7.11914E27 0.0 0.0 0.0 0.0 0.0 )
( 7.11914E27 0.0 0.0 0.0 0.0 0.0 )
( 7.11914E27 0.0 0.0 0.0 0.0 0.0 )
( 7.11914E27 0.0 0.0 0.0 0.0 0.0 )
( 7.11914E27 0.0 0.0 0.0 0.0 0.0 ))
(( 7.11914E27 0.0 0.0 0.0 0.0 0.0 )
( 7.11914E27 0.0 0.0 0.0 0.0 0.0 )
( 7.11914E27 0.0 0.0 0.0 0.0 0.0 )
( 7.11914E27 0.0 0.0 0.0 0.0 0.0 )
( 7.11914E27 0.0 0.0 0.0 0.0 0.0 ))
(( 7.11914E27 0.0 0.0 0.0 0.0 0.0 )
( 7.11914E27 0.0 0.0 0.0 0.0 0.0 )
( 7.11914E27 0.0 0.0 0.0 0.0 0.0 )
( 7.11914E27 0.0 0.0 0.0 0.0 0.0 )
( 7.11914E27 0.0 0.0 0.0 0.0 0.0 ))
(( 7.11914E27 0.0 0.0 0.0 0.0 0.0 )
( 7.11914E27 0.0 0.0 0.0 0.0 0.0 )
( 7.11914E27 0.0 0.0 0.0 0.0 0.0 )
( 7.11914E27 0.0 0.0 0.0 0.0 0.0 )
( 7.11914E27 0.0 0.0 0.0 0.0 0.0 )))
((( 7.11914E27 0.0 0.0 0.0 0.0 0.0 )
( 7.11914E27 0.0 0.0 0.0 0.0 0.0 )
( 7.11914E27 0.0 0.0 0.0 0.0 0.0 )
( 7.11914E27 0.0 0.0 0.0 0.0 0.0 )
( 7.11914E27 0.0 0.0 0.0 0.0 0.0 ))
(( 7.11914E27 0.0 0.0 0.0 0.0 0.0 )
( 7.11914E27 0.0 0.0 0.0 0.0 0.0 )
( 7.11914E27 0.0 0.0 0.0 0.0 0.0 )
( 7.11914E27 0.0 0.0 0.0 0.0 0.0 )
( 7.11914E27 0.0 0.0 0.0 0.0 0.0 ))
(( 7.11914E27 0.0 0.0 0.0 0.0 0.0 )
( 7.11914E27 0.0 0.0 0.0 0.0 0.0 )
( 7.11914E27 0.0 0.0 0.0 0.0 0.0 )
( 7.11914E27 0.0 0.0 0.0 0.0 0.0 )
( 7.11914E27 0.0 0.0 0.0 0.0 0.0 ))
(( 7.11914E27 0.0 0.0 0.0 0.0 0.0 )
( 7.11914E27 0.0 0.0 0.0 0.0 0.0 )
( 7.11914E27 0.0 0.0 0.0 0.0 0.0 )
( 7.11914E27 0.0 0.0 0.0 0.0 0.0 )
( 7.11914E27 0.0 0.0 0.0 0.0 0.0 ))
(( 7.11914E27 0.0 0.0 0.0 0.0 0.0 )
( 7.11914E27 0.0 0.0 0.0 0.0 0.0 )
( 7.11914E27 0.0 0.0 0.0 0.0 0.0 )
( 7.11914E27 0.0 0.0 0.0 0.0 0.0 )
( 7.11914E27 0.0 0.0 0.0 0.0 0.0 ))))
(((( 7.11914E27 0.0 0.0 0.0 0.0 0.0 )
( 7.11914E27 0.0 0.0 0.0 0.0 0.0 )
( 7.11914E27 0.0 0.0 0.0 0.0 0.0 )
( 7.11914E27 0.0 0.0 0.0 0.0 0.0 )
( 7.11914E27 0.0 0.0 0.0 0.0 0.0 ))
(( 7.11914E27 0.0 0.0 0.0 0.0 0.0 )
( 7.11914E27 0.0 0.0 0.0 0.0 0.0 )
( 7.11914E27 0.0 0.0 0.0 0.0 0.0 )
( 7.11914E27 0.0 0.0 0.0 0.0 0.0 )
( 7.11914E27 0.0 0.0 0.0 0.0 0.0 ))
(( 7.11914E27 0.0 0.0 0.0 0.0 0.0 )
( 7.11914E27 0.0 0.0 0.0 0.0 0.0 )
( 7.11914E27 0.0 0.0 0.0 0.0 0.0 )
( 7.11914E27 0.0 0.0 0.0 0.0 0.0 )
( 7.11914E27 0.0 0.0 0.0 0.0 0.0 ))
(( 7.11914E27 0.0 0.0 0.0 0.0 0.0 )
( 7.11914E27 0.0 0.0 0.0 0.0 0.0 )
( 7.11914E27 0.0 0.0 0.0 0.0 0.0 )
( 7.11914E27 0.0 0.0 0.0 0.0 0.0 )
( 7.11914E27 0.0 0.0 0.0 0.0 0.0 ))
(( 7.11914E27 0.0 0.0 0.0 0.0 0.0 )
( 7.11914E27 0.0 0.0 0.0 0.0 0.0 )
( 7.11914E27 0.0 0.0 0.0 0.0 0.0 )
( 7.11914E27 0.0 0.0 0.0 0.0 0.0 )
( 7.11914E27 0.0 0.0 0.0 0.0 0.0 )))
((( 7.11914E27 0.0 0.0 0.0 0.0 0.0 )
( 7.11914E27 0.0 0.0 0.0 0.0 0.0 )
( 7.11914E27 0.0 0.0 0.0 0.0 0.0 )
( 7.11914E27 0.0 0.0 0.0 0.0 0.0 )
( 7.11914E27 0.0 0.0 0.0 0.0 0.0 ))
(( 7.11914E27 0.0 0.0 0.0 0.0 0.0 )
( 7.11914E27 0.0 0.0 0.0 0.0 0.0 )
( 7.11914E27 0.0 0.0 0.0 0.0 0.0 )
( 7.11914E27 0.0 0.0 0.0 0.0 0.0 )
( 7.11914E27 0.0 0.0 0.0 0.0 0.0 ))
(( 7.11914E27 0.0 0.0 0.0 0.0 0.0 )
( 7.11914E27 0.0 0.0 0.0 0.0 0.0 )
( 7.11914E27 0.0 0.0 0.0 0.0 0.0 )
( 7.11914E27 0.0 0.0 0.0 0.0 0.0 )
( 7.11914E27 0.0 0.0 0.0 0.0 0.0 ))
(( 7.11914E27 0.0 0.0 0.0 0.0 0.0 )
( 7.11914E27 0.0 0.0 0.0 0.0 0.0 )
( 7.11914E27 0.0 0.0 0.0 0.0 0.0 )
( 7.11914E27 0.0 0.0 0.0 0.0 0.0 )
( 7.11914E27 0.0 0.0 0.0 0.0 0.0 ))
(( 7.11914E27 0.0 0.0 0.0 0.0 0.0 )
( 7.11914E27 0.0 0.0 0.0 0.0 0.0 )
( 7.11914E27 0.0 0.0 0.0 0.0 0.0 )
( 7.11914E27 0.0 0.0 0.0 0.0 0.0 )
( 7.11914E27 0.0 0.0 0.0 0.0 0.0 )))
((( 7.11914E27 0.0 0.0 0.0 0.0 0.0 )
( 7.11914E27 0.0 0.0 0.0 0.0 0.0 )
( 7.11914E27 0.0 0.0 0.0 0.0 0.0 )
( 7.11914E27 0.0 0.0 0.0 0.0 0.0 )
( 7.11914E27 0.0 0.0 0.0 0.0 0.0 ))
(( 7.11914E27 0.0 0.0 0.0 0.0 0.0 )
( 7.11914E27 0.0 0.0 0.0 0.0 0.0 )
( 7.11914E27 0.0 0.0 0.0 0.0 0.0 )
( 7.11914E27 0.0 0.0 0.0 0.0 0.0 )
( 7.11914E27 0.0 0.0 0.0 0.0 0.0 ))
(( 7.11914E27 0.0 0.0 0.0 0.0 0.0 )
( 7.11914E27 0.0 0.0 0.0 0.0 0.0 )
( 7.11914E27 0.0 0.0 0.0 0.0 0.0 )
( 7.11914E27 0.0 0.0 0.0 0.0 0.0 )
( 7.11914E27 0.0 0.0 0.0 0.0 0.0 ))
(( 7.11914E27 0.0 0.0 0.0 0.0 0.0 )
( 7.11914E27 0.0 0.0 0.0 0.0 0.0 )
( 7.11914E27 0.0 0.0 0.0 0.0 0.0 )
( 7.11914E27 0.0 0.0 0.0 0.0 0.0 )
( 7.11914E27 0.0 0.0 0.0 0.0 0.0 ))
(( 7.11914E27 0.0 0.0 0.0 0.0 0.0 )
( 7.11914E27 0.0 0.0 0.0 0.0 0.0 )
( 7.11914E27 0.0 0.0 0.0 0.0 0.0 )
( 7.11914E27 0.0 0.0 0.0 0.0 0.0 )
( 7.11914E27 0.0 0.0 0.0 0.0 0.0 )))
((( 7.11914E27 0.0 0.0 0.0 0.0 0.0 )
( 7.11914E27 0.0 0.0 0.0 0.0 0.0 )
( 7.11914E27 0.0 0.0 0.0 0.0 0.0 )
( 7.11914E27 0.0 0.0 0.0 0.0 0.0 )
( 7.11914E27 0.0 0.0 0.0 0.0 0.0 ))
(( 7.11914E27 0.0 0.0 0.0 0.0 0.0 )
( 7.11914E27 0.0 0.0 0.0 0.0 0.0 )
( 7.11914E27 0.0 0.0 0.0 0.0 0.0 )
( 7.11914E27 0.0 0.0 0.0 0.0 0.0 )
( 7.11914E27 0.0 0.0 0.0 0.0 0.0 ))
(( 7.11914E27 0.0 0.0 0.0 0.0 0.0 )
( 7.11914E27 0.0 0.0 0.0 0.0 0.0 )
( 7.11914E27 0.0 0.0 0.0 0.0 0.0 )
( 7.11914E27 0.0 0.0 0.0 0.0 0.0 )
( 7.11914E27 0.0 0.0 0.0 0.0 0.0 ))
(( 7.11914E27 0.0 0.0 0.0 0.0 0.0 )
( 7.11914E27 0.0 0.0 0.0 0.0 0.0 )
( 7.11914E27 0.0 0.0 0.0 0.0 0.0 )
( 7.11914E27 0.0 0.0 0.0 0.0 0.0 )
( 7.11914E27 0.0 0.0 0.0 0.0 0.0 ))
(( 7.11914E27 0.0 0.0 0.0 0.0 0.0 )
( 7.11914E27 0.0 0.0 0.0 0.0 0.0 )
( 7.11914E27 0.0 0.0 0.0 0.0 0.0 )
( 7.11914E27 0.0 0.0 0.0 0.0 0.0 )
( 7.11914E27 0.0 0.0 0.0 0.0 0.0 )))
((( 7.11914E27 0.0 0.0 0.0 0.0 0.0 )
( 7.11914E27 0.0 0.0 0.0 0.0 0.0 )
( 7.11914E27 0.0 0.0 0.0 0.0 0.0 )
( 7.11914E27 0.0 0.0 0.0 0.0 0.0 )
( 7.11914E27 0.0 0.0 0.0 0.0 0.0 ))
(( 7.11914E27 0.0 0.0 0.0 0.0 0.0 )
( 7.11914E27 0.0 0.0 0.0 0.0 0.0 )
( 7.11914E27 0.0 0.0 0.0 0.0 0.0 )
( 7.11914E27 0.0 0.0 0.0 0.0 0.0 )
( 7.11914E27 0.0 0.0 0.0 0.0 0.0 ))
(( 7.11914E27 0.0 0.0 0.0 0.0 0.0 )
